,security,conformity,tradition,benevolence,universalism,self-direction,stimulation,hedonism,achievement,power,song_id
0,-0.0308745130896568,-0.0040999669581651,-0.0112596377730369,-0.022775437682867,-0.0298668518662452,-0.0163222514092922,0.0511373952031135,-0.0467756242534656,-0.0505244210362434,-0.0016703493893146,4116102
1,-0.0639256164431572,-0.0215323287993669,0.0205805916339159,-0.029619563370943,-0.0306969210505485,-0.0300049129873514,0.0849842950701713,-0.0453793876163989,-0.0531394481658935,-0.0266366526484489,80257632
2,-0.0808363035321235,0.0045792530290782,0.0191158298403024,-0.0208227448165416,-0.0247245170176029,-0.0085112201049923,0.1186582148075103,-0.0299704979636432,-0.0370695367455482,-0.0167688596993684,2241308
3,-0.0079477615654468,-0.044536754488945,0.0037299010436981,0.0071696816012263,-0.0143796261399984,0.0069361021742224,0.017752282321453,-0.0171208514694252,-0.0449980720877647,0.0296029727905988,204336669
4,-0.0700600660614032,0.0267268819150814,0.1009847743565188,-0.0341451426655033,-0.0227072981611618,0.009129963787208,0.0882435936765191,0.1207577342797783,0.0345333522426928,0.0588860244570397,34952275
5,-0.0486411936581134,-0.0019326840993016,-0.0068838275037705,-0.0135072665289044,-0.0188934504985809,-0.0057778055779635,0.0399647951126098,-0.0239919741750036,-0.0260599181056022,0.0042684385553002,17390586
6,-0.0213118698447942,-0.0199213400483131,0.0083403261378407,-0.0225326586514711,-0.0187167599797248,-0.0196038037538528,0.0235242024064064,-0.0341634181220056,-0.0325255542993545,-0.0150239095091819,9223300
7,0.0102631710469722,-0.1057352051138877,0.0115411877632141,-0.0382214784622192,-0.0400987192988395,-0.0789265483617782,-0.0283489041030406,-0.0959009296313469,-0.0963130295276641,-0.0461274236440658,149782763
8,0.0085172494873404,0.026983929798007,0.1101655140519142,0.0063002351671457,0.0019182143732905,0.0065174256451427,0.0287536904215812,0.0623933163680124,-0.0603591054677963,0.07528767734766,99962781
9,0.0170802995562553,0.001804145053029,0.0300625413656234,0.0024072732776403,0.0008184573380276,0.0077485018409788,-0.010897658765316,0.0216049137880593,-0.0261786431074142,0.0176233071833848,136930153
10,-0.0432404913008213,0.008414851501584,-0.0225579757243394,-0.0117469765245914,-0.0226434767246246,-9.669503197073936e-05,0.0487122908234596,-0.0258827332686784,-0.0256672352552413,0.0006952581461519,85912872
11,-0.0410798889372446,-0.0093683143540484,-0.0112551221926186,0.010860545413957,0.0008636144662792,0.0182422286141666,-0.0638785169775158,0.1195499720415475,0.0188584998430433,0.002364092465663,57005765
12,0.0102631710469722,-0.1057352051138877,0.0115411877632141,-0.0382214784622192,-0.0400987192988395,-0.0789265483617782,-0.0283489041030406,-0.0959009296313469,-0.0963130295276641,-0.0461274236440658,99567690
13,0.0331524834036827,-0.0620015375316143,-0.0069392630830407,0.0301689784973859,0.0050609349273145,0.0206613317131996,0.0221354160457849,-0.0648660835123039,-0.0425882600247859,0.0486165173351764,151085454
14,-0.0268312245607376,-0.0636337623000145,0.0160608906298875,-0.0339205265045166,-0.035397820174694,-0.0544657260179519,0.0283177029341459,-0.0706401578351666,-0.0747262462973594,-0.0363820418715477,134245347
15,-0.0724454671144485,0.0094610564410686,0.0109536023810505,-0.0285184141248464,-0.0291193649172782,-0.0108924685046076,0.0928273275494575,-0.023686086258795,-0.0354499071836471,-0.0179090294986963,16074172
16,-0.0256417263299226,0.0185805335640907,-0.0139233833178877,-0.0144961522892117,-0.0161831602454185,0.000760625116527,0.0303147137165069,-0.0334498877213414,-0.0045448667369782,-0.0129355704411864,61210999
17,0.0163164194673299,-0.0313068255782127,-0.020405001938343,0.0095669208094477,-0.0163212064653635,0.0013151161838322,-0.0590573884546756,-0.0462961833347194,-0.0470355451107025,0.0043816491961479,102814436
18,-0.0101647209376096,-0.0414005368947982,-0.0359195880591869,-0.0089546581730246,-0.014962320216,-0.0132620437070727,0.0114742694422602,0.018505393982685,-0.0233459379523992,0.0134512213990092,205113268
19,-0.0034871166571974,-0.0001215208321809,0.0102757923305034,-0.0061007379554212,-0.0110786240547895,-0.0015475903637707,-0.0217014290392398,0.0097492183280808,-0.0604444332420825,0.0830864831805229,99526020
20,0.0102631710469722,-0.1057352051138877,0.0115411877632141,-0.0382214784622192,-0.0400987192988395,-0.0789265483617782,-0.0283489041030406,-0.0959009296313469,-0.0963130295276641,-0.0461274236440658,152156851
21,0.0333534516394138,-0.0366948917508125,0.0258827097713947,0.0101759796962141,-0.0012813999783247,0.0081199575215578,-0.0373847037553787,-0.0014410605600028,-0.0431462079286575,0.0727500542998313,17997657
22,-0.0046148733235895,-0.0779265314340591,-0.0225112698972225,0.0051620402373373,-0.0230927355587482,-0.0054136710241436,0.0059762736782431,-0.0664941188910643,-0.0311439931392669,0.0288912113755941,55713838
23,0.0102631710469722,-0.1057352051138877,0.0115411877632141,-0.0382214784622192,-0.0400987192988395,-0.0789265483617782,-0.0283489041030406,-0.0959009296313469,-0.0963130295276641,-0.0461274236440658,97622225
24,0.0162145104259252,0.0126976361498236,0.0509169623255729,-0.0057117016986012,-0.0021989457309246,0.0030220919288694,-0.0196726247668266,0.0446000256663009,-0.0319435708224773,0.0701777786016464,114553438
25,-0.0074540986679494,-0.0607897117733955,-0.0123781990259885,-0.0017268573865294,-0.0342371724545955,0.0011788075789809,-0.0079068196937441,-0.082831282449623,-0.0719022452831268,0.0376359410583972,45138126
26,-0.0418662466108799,0.0066509903408586,0.0031420770101249,-0.0177159234881401,-0.0296191107481718,-0.0078566074371337,0.0528967604041099,-0.039287371514074,-0.068115085363388,-0.004688233602792,51897534
27,-0.0362898707389831,-0.0373050868511199,0.0064598778262734,-0.0131689757108688,-0.0275772009044885,-0.0169963911175727,0.0376399159431457,-0.0415125043596154,-0.0633786395192146,0.0114569840952754,74451241
28,0.0102631710469722,-0.1057352051138877,0.0115411877632141,-0.0382214784622192,-0.0400987192988395,-0.0789265483617782,-0.0283489041030406,-0.0959009296313469,-0.0963130295276641,-0.0461274236440658,6629722
29,0.0208687372505664,-0.0653990432620048,-0.0110991634428501,0.0076335850171744,-0.0176130309700965,-0.0048309918493032,-0.0399109758436679,-0.0342650930561206,-0.0676206573843956,0.0500713624060153,111234596
30,0.014885758049786,0.0070333303883671,0.0344506055116653,0.003751853480935,0.0022756638936698,0.0127872824668884,-0.0041986433789134,0.0182712682606607,-0.017131432890892,0.0421467386186122,126273707
31,-0.0259497594088315,-0.0334984511137008,0.0127285597845911,-0.0059666200540959,-0.01825487986207,-0.007782754022628,0.0476031154394149,-0.0447345971977473,-0.0418637134134769,0.0034388329368084,99567684
32,-0.0491043366491794,-0.0071488320827484,-0.0019821014720946,-0.024281533434987,-0.0303307771682739,-0.0091033698990941,0.0283269509673118,-0.0358871756032015,-0.0236932877451181,-0.0028674900531768,102339234
33,-0.0621232390403747,0.0076585719361901,-0.0222369506955146,-0.0236786641180515,-0.0369148254394531,-0.0232206881046295,0.0369229912757873,0.0151477872307164,-0.0547340959310531,-0.0095715895295143,1632500
34,0.0278917886316776,-0.0147387776523828,0.0870926231145858,0.0281382836401462,0.0175721310079097,0.0243973843753337,-0.0257047656923532,0.032299687464209,-0.048405073583126,0.1196430921554565,35094579
35,0.0374277936849413,0.0636115425946731,0.0934108980231436,0.0344882469440135,0.0284073030820688,0.0210426722946864,0.0013028442994837,0.0893947282532033,-0.0048451774973317,0.0241893524216633,16843548
36,-0.0136913573369383,-0.0132906436920166,0.0077075571753084,-0.0208289660513401,-0.0290985107421875,-0.015735350549221,0.0152625171467661,-0.0104770474182308,-0.0371302105486393,0.0119966976344585,106839634
37,0.0145158693194389,-0.0795429348945617,0.0254960153251886,0.0120278690010309,-0.011358824558556,0.0008917878149077,-0.0101221771910786,-0.0339371824479182,-0.0607773773372173,0.0407762303948402,134245346
38,-0.0731992274522781,-0.0110069680958986,0.0217105150222778,-0.0285443216562271,-0.0295216888189315,-0.0238897055387496,0.0991509482264518,-0.0390641997009765,-0.0477427504956722,-0.0242002941668033,5635960
39,-0.0645896792411804,-0.0012986361980438,0.0044939690269529,-0.0169822722673416,-0.0247308891266584,-0.0060615791007876,0.0753887891769409,-0.0238168045284331,-0.0290828943252563,-0.0076618110761046,142836663
40,-0.0372392162680625,0.002239967463538,-0.0087487017735838,-0.0164054278284311,-0.0303055457770824,0.0076085356995463,0.0664183869957923,-0.0454716755343377,-0.0568199753761291,0.0100214034318923,152156857
41,-0.0314118862152099,-0.0196376033127307,-0.0538237169384956,-0.0247860439121723,-0.0041052689775824,-0.0024032141081988,-0.0377993211150169,0.1034074839566998,-0.0273334756493568,0.0135551039129495,84371480
42,-0.1010200157761573,0.0205691065639257,0.0251002870500087,-0.0253186002373695,-0.0259960200637578,-0.0055440957657992,0.1416508704423904,-0.0201186247672727,-0.0315526500344276,-0.0168912578374147,46337905
43,0.0060696452856063,-0.0647947937250137,0.0320730954408645,0.0182279143482446,-0.0001840451732277,0.0200755074620246,0.0149298561736941,0.0139606958047066,-0.0422931388020515,0.0569632314145565,828136
44,-0.0185908805578947,-0.0081499554216861,-0.0024972576647996,-0.0051604732871055,-0.0094492118805646,-0.0055987555533647,-0.0039296932518482,0.0015762923891541,-0.033784806728363,0.0084208715707063,64471701
45,0.0543743230807914,0.0224975656239528,0.0185462097058111,0.0351891725119162,0.0415780334232163,0.0343828955837691,-0.0850731617590288,0.1300974786083721,0.0498513870214541,0.0282388919904477,80988232
46,-0.0759640783071518,0.0073424526490271,0.0201397407799959,-0.025816086679697,-0.0309139378368854,-0.0099984034895896,0.0904753059148788,-0.0383293075438236,-0.0470387861132621,-0.0066806860268116,76983686
47,0.0725039839744567,-0.0285362713038921,0.0659193024039268,0.0559324361383914,0.0234040655195713,0.0523417443037033,-0.0275204479694366,-0.0375061364392378,-0.05558992177248,0.1240114867687225,148763951
48,-0.0484711192548275,0.0099570881575346,0.0075279125012457,-0.0123938899487257,-0.0179080981761217,-0.0080129588022828,0.0773821398615837,-0.0190946230899632,-0.0299013294279575,-0.0093247555196285,139654441
49,-0.0547598898410797,0.0487088002264499,0.1157593205571174,-0.0177016109228134,-0.0503844693303108,-0.0523088574409484,0.030404943972826,-0.0179455804574175,-0.035632062703371,-0.0891861319541931,55441816
50,-0.0268312245607376,-0.0636337623000145,0.0160608906298875,-0.0339205265045166,-0.035397820174694,-0.0544657260179519,0.0283177029341459,-0.0706401578351666,-0.0747262462973594,-0.0363820418715477,2107983
51,0.1417631804943084,0.1118929088115692,-0.1316165477037429,0.0462083555757999,0.0309726912528276,0.049165204167366,-0.0045785387046635,-0.1238077014969049,0.0571077167987823,-0.0324707888066768,57005772
52,0.0257628168910741,-0.0112063204869627,-0.0036981515586376,0.00517840962857,-0.0094241760671138,0.0046818386763334,-0.0115127600729465,-0.0131569884204829,-0.0249710604548454,0.0506720654666423,2565059
53,-0.0651374533772468,-0.0077082542702555,0.0179261732846498,-0.0167925618588924,-0.021961135789752,-0.0087269637733697,0.1020945683121681,-0.0362287724430868,-0.0404619164764881,-0.0083258878439664,98114160
54,-0.0453784167766571,-0.0425830483436584,0.0183207374066114,-0.0317700430750846,-0.0330473706126213,-0.0422353185713291,0.0566509924829006,-0.0580097766528271,-0.0639328509569168,-0.0315093398094177,49562778
55,-0.0380538143217563,0.0107238134369254,-0.005070015322417,-0.0088785756379365,-0.0180624518543481,0.0053137396462261,0.0852687656879425,-0.0455814406914367,-0.0332652702927589,-0.002917839679867,19226344
56,0.0011977474205195,0.0013833480188623,-0.0168092399835586,0.0100495507940649,0.0063154175877571,0.0069973310455679,0.0376912280917167,-0.0361506118030195,-0.0305429119616746,0.0050180023536086,152156863
57,-0.0117335608229041,0.0328686237335205,-0.0001376353902742,0.0001895623281598,0.0068532349541783,-0.027830921113491,0.0143897207453846,0.0878620515662943,0.0203176084905862,-0.0867194235324859,136884961
58,0.0227185171097517,0.0242380164563655,0.0059589026495814,0.0083279116079211,-0.0134905083104968,0.0149811310693621,0.0093589201569557,0.0693909982329567,-0.0498462691903114,0.0534249171614646,1632495
59,0.0102631710469722,-0.1057352051138877,0.0115411877632141,-0.0382214784622192,-0.0400987192988395,-0.0789265483617782,-0.0283489041030406,-0.0959009296313469,-0.0963130295276641,-0.0461274236440658,1027136
60,-0.0341672040522098,0.0116350594907999,0.0096077788621187,-0.0368821993470191,-0.0189091190695762,-0.0275905672460794,-0.0241979341953992,0.0503593619470425,0.01978350430727,-0.03117161616683,17326775
61,-7.886020466685295e-05,-0.0175963044166564,-0.0004996277857571,-0.0002831760793924,-0.0166556108742952,0.0119310244917869,0.0201079621911048,-0.0189569531417111,-0.0527555495500564,0.0304615534842014,2323034
62,0.0564927607774734,-0.1216570436954498,0.0250639617443084,0.0304769128561019,-0.0004761434393003,0.014122792519629,-0.0660123825073242,-0.0098256555692293,-0.0616105049848556,0.0797128528356552,152997654
63,-0.022264689207077,-0.0528970248997211,-0.0022603836841881,-0.0005661989562213,-0.0244729686528444,0.0004600688116624,0.0194347687065601,-0.0617732795086456,-0.0621840581297874,0.0287392754107713,134245351
64,0.0010075125610455,-0.0510954521596431,0.0355939865112304,-0.0131792202591896,-0.0264274049550294,-0.0177737101912498,-0.0081670004874467,-0.0693764390769859,-0.0721882358193397,0.0283861272037029,59403627
65,0.0184023771435022,-0.060912188142538,-0.0155282523483037,-0.0228568706661462,-0.037356898188591,-0.0290826857089996,-0.0185815095901489,-0.0833628285128575,-0.0892001688480377,-0.0045966794714331,113169861
66,-0.0515608265995979,-0.0355661436915397,0.0190740227699279,-0.0310532171279191,-0.0322638861835002,-0.0381585173308849,0.0660954266786575,-0.0537996526501687,-0.0603350549936294,-0.029885109513998,56800868
67,-0.1010200232267379,0.0205691084265708,0.0251002814620733,-0.0253186002373695,-0.0259960182011127,-0.0055440976284444,0.1416508704423904,-0.0201186236743074,-0.0315526500344276,-0.0168912578374147,34373547
68,-0.0234548076987266,0.021043037995696,0.0176030751317739,-0.005904491059482,-0.0137431863695383,-0.0016452372074127,-0.0071082869544625,0.0073852660898188,-0.059885524213314,0.0458485186100006,3671199
69,-0.053982738405466,-0.0058909086510539,0.0168927237391471,-0.0137445367872715,-0.0190480593591928,-0.0049955286085605,0.0893817767500877,-0.0263784348527898,-0.0359643585979938,-0.0052404105663299,210971961
70,0.0028556527104228,-0.017769131809473,0.0050859455950558,-0.0057859257794916,-0.0188828222453594,-0.0022670477628707,-0.0207088068127632,0.0342380696549956,-0.0334542468190193,0.0107724405825138,163661563
71,-0.0518734194338321,0.0152007108554244,0.0034147368278354,-0.0031135659664869,-0.0172856580466032,0.0085392203181982,0.0723783299326896,-0.0243459788511167,-0.0194564256817102,-0.0053609060123562,57005722
72,0.0081047974526882,-0.0169878602027893,0.0682425051927566,0.0230052042752504,0.0089275473728775,0.020760828629136,0.0120149031281471,0.0244244907156707,-0.0554874204099178,0.0914304852485656,93918535
73,0.0079443007707595,-0.0446413904428482,0.0287427026778459,-0.0219492949545383,-0.0349963642656803,-0.0278783682733774,-0.0523675456643104,-0.0869601742243016,-0.0926311016082763,0.02574516646564,49652179
74,-0.0062072076834738,-0.021376147866249,-0.0098924376070499,2.530636265873909e-05,-0.0176626201719045,0.0026696962304413,0.006208639126271,-0.0175447245323907,-0.020263297483325,0.0338179506361484,188693345
75,-0.0120291914790868,0.0006566666997969,0.0124320974573493,-0.0100918896496295,-0.014013709500432,-0.0047272811643779,0.0280206650495529,0.0365999551325266,-0.0330681651830673,0.0177058912813663,11100005
76,-0.0391319766640663,-0.0108406143262982,0.0336079001426696,-0.011336657218635,-0.0204279851168394,-0.0021354721393436,0.0475893095135688,-0.0186474034204961,-0.0614962130784988,0.0253787469118833,17086876
77,0.0265415869653224,-0.0160891711711883,-0.0425976887345314,-0.0074922516942024,-0.0346150696277618,0.0207611694931983,-0.0088141150772571,-0.070824726233555,-0.0820872858166694,0.0369340777397155,102112552
78,-0.0933428928256034,0.02036839351058,0.0245713666081428,-0.0244009941816329,-0.0262754075229167,-0.0040818648412823,0.1341529190540313,-0.0222025608869681,-0.0346776321530342,-0.0143187493085861,68242601
79,-0.0360435768961906,0.0069012697786092,0.0329508483409881,-0.0161476172506809,-0.010035004466772,-0.0017058639787137,0.0655160918831825,-0.0165985585763338,-0.0342079661786556,-0.0059858923777937,86451188
80,0.0233552157878875,-0.065248355269432,-0.0182556565850973,0.0149492202326655,-0.0111231245100498,-0.0048202644102275,0.0143761979416012,-0.0736727892163186,-0.0541007854044437,-0.0061666835099458,17612683
81,0.0509170945666265,0.0066801903304256,-0.0459786466838062,0.005810738556622,0.0110183114021915,0.005003701775504,-0.0887921189283228,0.055480117387385,-0.0049850434779964,-0.100043128828143,59543419
82,0.0404364503920078,-0.0625250190496444,-0.0143308211117982,0.0107861869037151,-0.0127206956967711,0.0051633734256029,-0.0544282644987106,0.004067219365147,-0.0514492318034172,0.04865363240242,124205317
83,-0.0112796910107135,0.0256183743476867,-0.0978928357362747,-0.0233906581997871,-0.0133540667593479,-0.0038324855268001,-0.0436164699494838,-0.0730899844989621,-0.0016615041531622,-0.0183450412005186,195065492
84,-0.0268312245607376,-0.0636337623000145,0.0160608906298875,-0.0339205265045166,-0.035397820174694,-0.0544657260179519,0.0283177029341459,-0.0706401578351666,-0.0747262462973594,-0.0363820418715477,57544795
85,-0.0619030445814132,-0.0118276951834559,0.0257477965205907,-0.0194708593189716,-0.0231017991900444,-0.0137295769527554,0.0883367806673049,-0.029767037654571,-0.0443922951817512,-0.0035404181107878,85345213
86,0.0187519565224647,0.0131895374506711,0.0001549808075651,-0.0030498108826577,-0.009033665060997,0.0100471451878547,-0.0161768086254596,-0.0196899792586967,-0.033498365432024,0.001109002623707,14469100
87,-0.0045447386801242,-0.0154255740344524,-0.0032750968821346,-0.0007695723325014,-0.0142972562462091,0.0049148225225508,0.0425021164119243,-0.0404665101486571,-0.0408304296433925,0.0097555723041296,5315847
88,-0.066212423145771,0.0269591435790061,0.0040414966642856,-0.0181796364486217,-0.0166448224335908,-0.0111557506024837,0.0839269086718559,-0.0729737408613536,-0.0079296138137578,0.0139496140182018,134245359
89,-0.1010200083255767,0.0205691047012805,0.0251002833247184,-0.0253186002373695,-0.0259960144758224,-0.0055440962314605,0.1416508704423904,-0.0201186241528541,-0.0315526500344276,-0.0168912485241889,99480601
90,0.0255403518676757,0.0108545841649174,0.0438571870326995,0.0086441040039062,-0.000441143522039,0.0191726796329021,-0.0499382391571998,0.0185479317280756,-0.0653689354658126,0.1123782247304916,46178447
91,0.1154631823301315,0.0683673024177551,-0.1029850095510482,0.0293223932385444,0.0167584083974361,0.0235468540340662,-0.0093326093629002,-0.1182263474753682,0.026423554867506,-0.0352021157741546,60637252
92,-0.0959572345018386,0.0757853239774704,-0.0098515637218952,-0.0896659418940544,-0.0352587364614009,-0.0543009787797927,-0.0221257545053958,0.1106989874449071,0.0836127772927284,-0.1085367500782013,67809135
93,0.1417631804943084,0.1118929088115692,-0.1316165477037429,0.0462083555757999,0.0309726912528276,0.049165204167366,-0.0045785387046635,-0.1238077014969049,0.0571077167987823,-0.0324707888066768,103553857
94,0.0102631710469722,-0.1057352051138877,0.0115411877632141,-0.0382214784622192,-0.0400987192988395,-0.0789265483617782,-0.0283489041030406,-0.0959009296313469,-0.0963130295276641,-0.0461274236440658,200750991
95,0.0102631710469722,-0.1057352051138877,0.0115411877632141,-0.0382214784622192,-0.0400987192988395,-0.0789265483617782,-0.0283489041030406,-0.0959009296313469,-0.0963130295276641,-0.0461274236440658,181695848
96,-0.0453784167766571,-0.0425830446183681,0.0183207374066114,-0.0317700430750846,-0.0330473706126213,-0.0422353185713291,0.0566509924829006,-0.0580097766528271,-0.0639328584074974,-0.0315093398094177,7308736
97,-0.0380867160856723,0.0264338739216327,-0.0033723879605531,-0.0065849674865603,-0.0143582336604595,0.0086180614307522,0.0983417779207229,-0.0383918745264432,-0.0154522527009248,-0.0084821060299873,76169655
98,0.0256273280829191,-0.0471534207463264,-0.0396624878048896,-0.0019847564399242,-0.0345779284834861,0.0030019069090485,-0.0413003824651241,-0.0824671921688731,-0.0825045406818389,0.0349605679512023,17614637
99,0.0029673739336431,-0.0056771580129861,0.065857857465744,0.0060676303692162,0.0027464816812425,0.0125238429754972,0.007430825382471,0.0270780912196249,-0.07859468460083,0.0992885380983352,129997203
100,0.013769943267107,-0.0507663376629352,-0.0310533978044986,0.0075542787089943,-0.0223120860755443,0.0020705070346593,-0.0222583431750535,-0.0528522975176292,-0.0233110804110765,0.034514058381319,86981001
101,0.0193055402487516,0.0013515157625079,0.0481595881283283,0.0015025450848042,0.0039841677062213,0.0081128356978297,-0.015234226360917,0.0151628054154295,-0.0300651844590902,0.0199655219912529,178303212
102,0.0806191489100456,-0.006166722625494,0.0398386493325233,0.0371201261878013,0.0283400490880012,0.033436220139265,-0.0014946234878152,0.0168207187120984,-0.0032030348666012,0.0665062218904495,58693284
103,0.0153291039168834,-0.0560890808701515,0.0393328070640563,0.009226000867784,-0.0115666706115007,0.0018452636431902,-0.0393603965640068,-0.0715658859806856,-0.0747719258069992,0.0871539041399955,203148074
104,-0.0349333807826042,-0.0102104526013135,-0.011367886327207,-0.0137390838935971,-0.028940662741661,-0.006240380462259,0.0459906384348869,-0.0520662168735324,-0.0505743473768234,0.0041124667041003,17516504
105,-0.0287500284612178,-0.0653074607253074,-0.0219753049314022,-0.0098548382520675,-0.0370981507003307,-0.0264748446643352,0.0038834810256958,-0.1017640848314796,-0.0442713722586631,-0.0040150554850697,51846914
106,-0.0595968179404735,0.0014957378152757,0.0095066297799348,-0.022339504212141,-0.0256406292319297,-0.0137283755466341,0.0941983088850975,-0.0425740408933787,-0.0407382659614086,-0.0198008231818676,212958532
107,-0.0087464842945337,0.0076173897832632,-0.0179037563502788,-0.0234539397060871,-0.0144595401361584,-0.0197094716131687,-0.0237516053020954,-0.0217840592928612,-0.0146305812522768,-0.0109687866643071,2135522
108,-0.0214824639260768,0.0221851747483015,0.0204777866601943,-0.0146075971424579,-0.0112133640795946,0.0023815878666937,0.0331611298024654,0.0386645366879342,-0.0119479373097419,0.0302659701555967,90910059
109,-0.0876969397068023,0.0088418535888195,0.0201194062829017,-0.0281095467507839,-0.0294574536383152,-0.0158871412277221,0.1063765957951545,-0.0352952117318251,-0.0447078756988048,-0.0247282050549983,1629358
110,-0.0268312245607376,-0.0636337623000145,0.0160608906298875,-0.0339205265045166,-0.035397820174694,-0.0544657260179519,0.0283177029341459,-0.0706401578351666,-0.0747262462973594,-0.0363820418715477,134245357
111,-0.0639256164431572,-0.0215323287993669,0.0205805916339159,-0.029619563370943,-0.0306969210505485,-0.0300049129873514,0.0849842950701713,-0.0453793876163989,-0.0531394481658935,-0.0266366526484489,2037677
112,-0.0226993672549724,0.0101535841822624,0.0663550943136215,-0.0078913560137152,-0.0041977437213063,0.0122936889529228,0.026743059977889,0.0044603149676213,-0.056704431772232,0.0830571502447128,71041493
113,-0.0076376693323254,0.025799511000514,0.0206302609294652,-0.0120484083890914,-6.360607221722603e-05,0.0059284064918756,0.0469609983265399,-0.0139429704654051,-0.0237442217767238,-0.0088187549263238,99470365
114,-0.0813817977905273,-0.0017198848072439,0.022707499563694,-0.0275955852121114,-0.0284847281873226,-0.0184939429163932,0.1116509288549423,-0.0334919713301496,-0.0429809652268886,-0.0220505818724632,1261561
115,-0.0678939148783683,0.0448795221745967,-0.0059813461266458,-0.073911614716053,-0.0328471958637237,-0.0543430112302303,-0.0129583021625876,0.0865642090575023,0.033912006765604,-0.0949302837252616,41571963
116,-0.0036073299124836,-0.0260415114462375,-0.0208705272525548,-0.0111026568338274,-0.0334428660571575,0.005467714741826,0.0152205359190702,-0.0667519015718898,-0.0722263678908348,0.0228006895631551,51113095
117,-0.1010200232267379,0.0205691084265708,0.0251002814620733,-0.0253186002373695,-0.0259960182011127,-0.0055440976284444,0.1416508704423904,-0.0201186236743074,-0.0315526500344276,-0.0168912578374147,76169642
118,0.0180071126669645,-0.0112621113657951,-0.0198791194707155,-0.0081666093319654,-0.018311571329832,0.0005032233893871,-0.0558951087296009,0.0691910994317386,-0.0207223314791917,0.0268093440681695,109965166
119,-0.1010200232267379,0.0205691084265708,0.0251002814620733,-0.0253186002373695,-0.0259960182011127,-0.0055440976284444,0.1416508704423904,-0.0201186236743074,-0.0315526500344276,-0.0168912578374147,84279791
120,-0.0428470335900783,-0.0149749312549829,0.0008448134176433,-0.0639437139034271,-0.0376787297427654,-0.0666137635707855,-0.0252373330295085,0.0073990280183483,-0.0063501335680484,-0.0773320943117141,194171766
121,0.0124007146805524,-0.0897695422172546,0.0132305221632123,0.0064799222163856,-0.0201836265623569,-0.0159056857228279,-0.0208780020475387,-0.0538028386304617,-0.0621188357472419,0.0239163264632225,18271679
122,-0.0144710065796971,-0.0080452337861061,0.0451268516480922,-0.0053859022445976,-0.006436662748456,-0.0021398430690169,0.0233645103871822,0.0053377053128261,-0.0534000359475612,0.0556511245667934,58470789
123,-0.0891075804829597,0.0440331287682056,0.0031547949183732,-0.0597778111696243,-0.0318575501441955,-0.033608466386795,0.0411378927528858,0.0454566907334119,0.026025079190731,-0.065293088555336,4194332
124,0.0230173412710428,-0.0051745930686593,0.0574857220053672,0.0105248037725687,0.0062670949846506,0.0137430615723133,-0.0097449216991662,0.0198970604916335,-0.0767860263586044,0.1003630235791206,18167326
125,-0.0469498857855796,0.0080240722745656,-0.0110336290672421,-0.0203569754958152,-0.0180513896048069,-0.0079941768199205,0.05195814371109,-0.0228855943369052,-0.0299761965870857,-0.0227059219032526,84351638
126,-0.0615781620144844,-0.0240225847810506,0.0005485832225531,-0.0057230181992053,-0.0187582913786172,-0.0028541581705212,0.0572981722652912,-0.0240883136434075,-0.0294834319502115,0.0044123302213847,77891076
127,0.0083916988223791,0.0620902031660079,-0.1146807968616485,-0.0203334465622901,-0.0359472706913948,0.0058273747563362,-0.0456650406122207,0.0105537711794892,-0.0512792021036148,0.0676827132701873,179755765
128,-0.0030059213750064,0.004751200787723,0.0097385225817561,0.0126653555780649,-0.0115486672148108,0.0139271505177021,0.0380928479135036,-0.0195421670870685,-0.0587000027298927,0.0192031636834144,82816346
129,-0.1010200232267379,0.0205691084265708,0.0251002814620733,-0.0253186002373695,-0.0259960182011127,-0.0055440976284444,0.1416508704423904,-0.0201186236743074,-0.0315526500344276,-0.0168912578374147,30401956
130,-0.0143649652600288,0.0109598524868488,-0.0502388477325439,-0.0185591001063585,-0.017220988869667,-0.0155560057610273,-0.0318210199475288,-0.010008468944052,-0.0094390818849205,-0.0066528609022498,109598935
131,-0.0731992274522781,-0.0110069680958986,0.0217105150222778,-0.0285443216562271,-0.0295216888189315,-0.0238897055387496,0.0991509482264518,-0.0390641997009765,-0.0477427504956722,-0.0242002941668033,111304309
132,0.0176194059318762,-0.0223665106076186,0.0947969862541933,-0.0330291233279592,-0.0172268024361506,-0.0285059925498747,-0.1308207505769813,-0.0805793131279471,-0.043740155000376,0.0293466737868211,134245353
133,-0.0114976726472377,-0.0124261109158396,-0.0319937653839588,-0.0189938507974147,-0.0191889200359582,-0.0172071494162082,-0.0160271134227514,-0.0120972423432145,-0.0358339436352252,-0.0056569604203104,32800026
134,-0.0022720424458384,-0.0253626238554716,-0.0113711385056376,-0.0002292934805154,-0.0140085872262716,0.0070577152073383,0.0069089313037693,-0.0236510337739185,-0.0426987297832965,0.0370609648525714,57241602
135,0.0236745569854974,0.031067457050085,0.016136534512043,0.0020069398451596,-0.0134001532569527,0.0149950562044978,-0.0152985947206616,0.0318090764087922,-0.0319146476686,0.0673341229557991,7946252
136,0.0610084496438503,0.0656871870160102,0.0198402665555477,-0.015286199748516,-0.0130119081586599,-0.0092879775911569,-0.0915698409080505,-0.0510588846352745,0.0192346088588237,0.0196502469480037,108107289
137,-0.0551404990255832,-0.0288031063973903,-0.0007830044487491,-0.0260895565152168,-0.0385809689760208,-0.020592788234353,0.0606339275836944,-0.0626984528838093,-0.0567003227770328,-0.0188310015946626,64185077
138,-0.0909033715724945,0.0090868957340717,0.0238676480948925,-0.0264915935695171,-0.0272780861705541,-0.0122152315452694,0.1261963546276092,-0.0270079273872631,-0.0374399684369564,-0.0195490978658199,83511139
139,0.0343808904290199,-0.0422945618629455,0.0264066774398088,-0.0061993086710572,-0.0151008460670709,-0.013092229142785,-0.0188252255320549,-0.0462573505147439,-0.0686564072966575,0.0212263464927673,50343962
140,0.0490884960839257,0.0750598825367001,0.0239586107029425,-0.0188930884458791,0.0126739760356958,0.0088681663324614,0.0613026118564702,-0.0849576336994235,0.0380721322097086,-0.0329970083799928,199050935
141,-0.0508126839995384,-0.0140187675133347,0.0225711055099964,-0.0227643027901649,-0.0270130261778831,-0.0169249325990676,0.0732407048344612,-0.0431484187004251,-0.0545863471925258,-0.0054714935831725,50820032
142,0.039808165282011,0.0133471339941024,-0.0160482730716466,0.0076170321553945,-0.0057005174458026,0.0101603399962186,0.005871067289263,0.0297497443171303,0.006866477895528,0.0452517382800579,82020498
143,-0.0456391461193561,0.010723927989602,-0.0026880758814513,-0.0167479831725358,-0.0236662067472934,-0.0024588780943304,0.085545502603054,-0.0456534923127146,-0.0385680422186851,-0.0111789889633655,9474028
144,0.0102631710469722,-0.1057352051138877,0.0115411877632141,-0.0382214784622192,-0.0400987192988395,-0.0789265483617782,-0.0283489041030406,-0.0959009296313469,-0.0963130295276641,-0.0461274236440658,55179313
145,-0.0644654780626297,0.0157318506389856,0.0013933902373537,-0.0149403903633356,-0.0209472849965095,-0.002241400303319,0.0888274833559989,-0.00489158680972,-0.019129579886794,0.0030805673450231,60392809
146,0.0219160560518503,-0.1357667744159698,-0.0029180757701396,-0.0042203613556921,-0.0399243459105491,-0.0391883924603462,-0.0782864242792129,-0.1204105213837317,-0.0937932208180427,0.0258051324635744,92235366
147,-0.0031956359744071,0.0441012047231197,-0.0591476373374462,-0.0126298330724239,-0.0200210679322481,0.0092076361179351,0.0231821630150079,-0.0612623126279204,-0.0125788263976573,0.0081262290477752,93296295
148,0.0049523748457431,-0.0134110050275921,-0.001622298033908,0.0036941193975508,-0.0155560476705431,0.0075945435091853,0.0045076170936226,-0.0467325097841851,-0.0594578050076961,0.0325465761125087,3352568
149,-0.0395303890109062,-0.0080996854230761,-0.0026382133364677,-0.0268892478197813,-0.0319913811981678,-0.0130691593512892,0.0495145358145237,-0.0387495753157016,-0.0495938137173652,-0.0114593040198087,79219366
150,-0.0374296233057975,-0.0516047738492488,0.0173522308468818,-0.0326916798949241,-0.0340547040104866,-0.0474769212305545,0.0445081517100334,-0.0634227965226413,-0.0685585886240005,-0.0335976369678974,193273536
151,0.032676164060831,0.033839825540781,0.0788673087954521,0.0161846596747636,0.0020635477267205,0.0169753246009349,-0.0628758519887924,0.0315938067438945,-0.0983986109495163,0.1131166741251945,5434805
152,-0.0160067901015281,-0.0521034598350524,-0.0114736445248126,-0.0121317878365516,-0.0253197960555553,-0.0197711959481239,0.005409711971879,-0.0575010448609142,-0.0631083548069,-0.0087720220908522,115765914
153,-0.0152564644813537,-0.0091719031333923,-0.0283818338066339,0.0052384184673428,-0.016065414994955,0.0005575544200837,0.0317461490631103,-0.0484536089897309,-0.0600280798971653,0.0076393373310565,2860796
154,-0.0726679421294581,0.0233827296652609,0.0904075352089075,-0.0160315512333751,-0.0127659335446681,-0.0070906752610037,0.0657773864527837,0.1260722630585314,-0.0834772777634185,-0.1162216455863614,125480482
155,9.392155334353449e-06,-0.0320651121437549,-0.0124543383717536,0.0027829776518046,-0.0178830567747354,0.0069235982373356,-0.008286515250802,-0.0176170981270253,-0.0252582374960184,0.0396594516932964,169366451
156,-0.0048394934274256,-0.0440414473414421,-0.0103557128459215,0.0019081365317106,-0.0240390002727508,0.0032572303898632,-0.0265525933355093,-0.0946319414512433,-0.0318095460534095,0.0322402790188789,14884938
157,0.0561547689139843,-0.0052497549913823,0.0229607913643121,0.0344904325902462,0.0185983702540397,0.0245724767446517,-0.0195056684315204,-0.0209132400551823,-0.0340196974575519,0.0529499016702175,55614776
158,-0.0324855037033557,-0.0362195037305355,0.009780716150999,-0.0048698363825678,-0.0184409916400909,-0.006187024526298,0.0611541010439395,-0.0534588531832111,-0.0478472933173179,0.0086884424090385,15738922
159,0.0075625437311828,0.0001452639698982,-0.0229860879480838,-0.0093787163496017,-0.0213008075952529,0.0132199432700872,0.0220994353294372,-0.0405174221560762,-0.0446582064032554,0.0130916759371757,83380751
160,-0.0269566178321838,-0.0145212914794683,-0.0116658387705683,-0.0195268411189317,-0.0315325111150741,-0.0045351758599281,0.0374322496354579,-0.0527484397820512,-0.0666303038597107,0.0047036008909344,1284914
161,-0.1010200232267379,0.0205691084265708,0.0251002814620733,-0.0253186002373695,-0.0259960182011127,-0.0055440976284444,0.1416508704423904,-0.0201186236743074,-0.0315526500344276,-0.0168912578374147,3998623
162,0.0501855202019214,-0.0214928239583969,0.0618553385138511,0.0325088463723659,0.0121821239590644,0.0351451784372329,-0.0404683127999305,-0.046332744501545,-0.0628489851951599,0.1304847300052642,3777800
163,-0.0628277510404586,-0.0010507986880838,0.01756152510643,-0.0262672342360019,-0.0233700163662433,-0.021161776036024,0.0834545940160751,-0.0742717817544341,-0.0434436313807964,-0.0164164304733276,195760279
164,-0.0529728904366493,0.0322815142571926,0.0078716166317462,-0.0324994921684265,-0.0211069304496049,-0.0151529610157012,0.0434522591531276,0.0526283118342228,-0.0116213932633399,-0.0158744920045137,164950564
165,0.0245689917355775,-0.0784016549587249,-9.09229856915772e-06,0.004522553179413,-0.0118739362806081,-0.0166841186583042,0.0032037934288382,-0.0765041498693602,-0.0627350583672523,0.013087535277009,7908339
166,0.0264747776091098,-0.0373100079596042,-0.0174897275865077,0.0174039620906114,-0.0065564885735511,0.0187636539340019,-0.0183851867914199,0.0028954417796674,-0.0165224764496088,0.0538071021437644,90166650
167,-0.0360645093023777,-0.0102940332144498,0.0139296920970082,-0.0253135170787572,-0.0230805464088916,-0.0182716436684131,0.0307301990687847,-0.024750401717812,-0.0166393890976905,-0.0091206673532724,65079014
168,0.0089213009923696,-0.0104473084211349,-0.0595451295375824,-0.0075136236846446,-0.0146985901519656,0.0021786959841847,-0.0701509341597557,-0.0016741755018031,-0.0601304471492767,0.0383140631020069,66117517
169,-0.0077801393344998,0.0326886847615242,-0.0112173240631818,-0.0073826718144118,-0.0058544846251606,-0.0012157810851931,-0.0028128107078373,0.0703627660040671,-0.0264293700456619,0.0181052293628454,99386143
170,0.0102631710469722,-0.1057352051138877,0.0115411877632141,-0.0382214784622192,-0.0400987192988395,-0.0789265483617782,-0.0283489041030406,-0.0959009296313469,-0.0963130295276641,-0.0461274236440658,96457658
171,-0.0235727522522211,-0.0099946428090333,0.0192415807396173,-0.002681789221242,-0.0158335361629724,0.0027936841361224,0.0146874133497476,-0.0086775378212431,-0.0430386587977409,0.0242656730115413,19550437
172,-0.0453784167766571,-0.0425830446183681,0.0183207374066114,-0.0317700430750846,-0.0330473706126213,-0.0422353185713291,0.0566509924829006,-0.0580097766528271,-0.0639328584074974,-0.0315093398094177,87029402
173,-0.0176464319229125,-0.0354986526072025,-0.0009187334217131,-0.0036441003903746,-0.0260699670761823,0.001770744449459,0.0229767523705959,-0.040493311738974,-0.0629027187824249,0.0237198937684297,102675336
174,-0.1010200232267379,0.0205691084265708,0.0251002814620733,-0.0253186002373695,-0.0259960182011127,-0.0055440976284444,0.1416508704423904,-0.0201186236743074,-0.0315526500344276,-0.0168912578374147,49331390
175,0.0353602431714534,-0.0005016638897359,-0.0235946364700794,-0.0094538554549217,-0.0243676491081714,0.0072089261375367,-0.0259440559893846,-0.0179742437479828,0.0002269458491355,0.0386188477277755,189822176
176,0.0115107782185077,-0.0185281410813331,0.0459627248346805,0.0138593483716249,-0.0014727648813277,0.0145795391872525,-0.0030917229596525,0.0034337150210451,-0.0570767447352409,0.0805012360215187,52080229
177,-0.0642174407839775,0.0187248177826404,0.0094192679971456,-0.0153178386390209,-0.0200848691165447,0.00223432877101,0.1048534587025642,-0.0145788726208483,-0.020279062911868,-0.0046612420119345,110111095
178,-0.0415715016424655,0.0517284981906414,-0.0518665388226509,-0.0301499962806701,-0.033168364316225,0.0032529616728425,0.0466163083910942,-0.0054246074291924,-0.0279797315597534,0.0276141557842493,83551433
179,-0.0959572345018386,0.0757853165268898,-0.0098515655845403,-0.0896659418940544,-0.0352587364614009,-0.0543009787797927,-0.0221257619559764,0.11069897976019,0.0836127772927284,-0.1085367500782013,195227039
180,-0.0705077946186065,-0.007266950327903,-0.0300829149782657,-0.0149917621165514,-0.0195917170494794,-0.0181522294878959,0.0489528477191925,0.0035877819045324,-0.0345014594495296,-0.0524412654340267,4687741
181,0.0178197417408227,0.0039258170872926,0.0213274974375963,0.0070312526077032,-0.009372211061418,0.0038621397688984,-0.0177266020327806,-0.0174321749156059,-0.0216512307524681,0.0367650538682937,74781242
182,-0.030206736177206,0.0135730123147368,-0.0089549049735069,-0.0135937854647636,-0.0174228157848119,-0.0092787258327007,0.0784050524234771,-0.0560129005876424,-0.0267726648598909,-0.0258543901145458,52422878
183,-0.0912075936794281,0.0177492368966341,0.0198927465826272,-0.0239473469555377,-0.0266590248793363,-0.0035206172615289,0.1300766766071319,-0.0240190980215784,-0.0354399420320987,-0.0127508444711565,63078310
184,-0.0124101797118783,-0.0323200523853302,0.0100736320018768,-0.0139461811631917,-0.0284581165760755,-0.0057824505493044,0.0316699482500553,-0.0395162379375468,-0.0547546185553073,0.01271060295403,7798401
185,-0.0183722730726003,0.0102009195834398,0.0660546272993087,0.0121258171275258,-0.0019628433510661,0.0113254822790622,0.0572817288339138,-0.0509887790614171,-0.0431536585092544,0.0524793826043605,97205149
186,-0.0180748607963323,-0.0131040075793862,0.0181128941476345,-0.0088119748979806,-0.0178102888166904,-0.0038712779060006,0.0386912263929843,-0.0139715124246721,-0.0292198434472084,0.0255143474787473,2045233
187,-0.0714431181550026,0.010850990191102,0.0159613657742738,-0.0048264823853969,-0.0124524999409914,0.0080465385690331,0.1098684147000312,-0.0413773195999359,-0.0352214649319648,-0.0023750902619212,213759518
188,0.0201050229370594,-0.0036446433514356,0.0401419587433338,0.001909090206027,0.0056114913895726,0.0099932681769132,-0.0446996875107288,0.0516876032867175,-0.0356501340866088,0.0745236724615097,44976789
189,0.0126633942127227,0.0196771267801523,-0.0299953985959291,0.0101892724633216,-0.0010124257532879,0.0077226208522915,-0.0308550745248794,-0.0206539736441921,0.0185462702065706,0.0459688156843185,189470222
190,0.0566662028431892,-0.0469409935176372,-0.0155636519193649,0.019567621871829,0.0022199554368853,0.0252357311546802,-0.0311351660639047,0.001411474736147,0.0052442979067564,0.0821533128619194,45744269
191,-0.0155001785606145,-0.011263707652688,-0.0279109012335538,-0.0116049535572528,-0.0276953838765621,-0.0036158440634608,0.0025619696825742,-0.0343287418346977,-0.0395453497767448,0.0123696718364954,52277738
192,-0.0061755403876304,-0.0033019660040736,0.0483584403991699,-0.0017623687162995,-0.001638623420149,0.0058901356533169,-0.0135853420943021,0.0411976707687666,-0.0250355042517185,0.0519674904644489,53614250
193,-0.0373898446559906,0.0370692163705825,0.0315848290920257,-0.0367994681000709,-0.0112326694652438,-0.0191594436764717,0.0290623754262924,0.0504396727061386,0.0207811668515205,-0.0246600676327943,129694210
194,-0.0509346425533294,-0.0076386500149965,-0.0295288655906915,-0.026319308206439,-0.0284620597958564,-0.024596769362688,-0.0005797878839075,-0.0356951045003346,-0.0156280696392059,-0.0282920971512794,195211760
195,-0.1010200083255767,0.0205691047012805,0.0251002833247184,-0.0253186002373695,-0.0259960144758224,-0.0055440962314605,0.1416508704423904,-0.0201186241528541,-0.0315526500344276,-0.0168912485241889,30401979
196,-0.0705446898937225,0.030288303270936,0.0043816613033413,-0.0268544666469097,-0.0221621207892894,-0.0098368991166353,0.0980558842420578,-0.0179244503955371,-0.0115289622917771,-0.0313667058944702,83916654
197,-0.0498871430754661,-0.0091462433338165,0.0428277291357517,-0.0182691738009452,-0.01632721722126,-0.0110825095325708,0.0926180705428123,0.0022324354979369,-0.0348940305411815,-0.0251806154847145,55915048
198,0.0339478403329849,0.0200395174324512,0.0595596022903919,0.0133715635165572,0.0074355616234242,0.0230114553123712,-0.0045963488519191,-0.1191590017201277,-0.0655574649572372,0.0673408955335617,56232025
199,-0.0177740082144737,0.025085324421525,0.0016822456382215,-0.0132772205397486,-0.0087549081072211,-0.0031910841353237,0.0104108527302742,0.0630915801751865,0.0251559969037771,-0.0072982991114258,31260463
200,-0.0044330754317343,-0.0133567526936531,0.0164985358715057,-0.0020907986909151,-0.0158674698323011,0.0120067670941352,0.0256802141666412,-0.0402688333861224,-0.0522142723202705,0.035393226891756,58026824
201,-0.0266090892255306,-0.0008148909546434,-0.0143902041018009,-0.0149198994040489,-0.0310237947851419,0.0098006390035152,0.0538796335458755,-0.0496971832171724,-0.0610311925411224,0.0145068475976586,1457158
202,-0.0243596080690622,-0.0067060934379696,0.0508508682250976,-0.0161783136427402,-0.0138103710487484,0.007100373506546,0.0023740483447909,-0.0158644773672679,-0.0651901960372924,0.0705466195940971,127973630
203,-0.0731992274522781,-0.0110069680958986,0.0217105150222778,-0.0285443216562271,-0.0295216888189315,-0.0238897055387496,0.0991509482264518,-0.0390641997009765,-0.0477427504956722,-0.0242002941668033,69375516
204,-0.074442520737648,0.0085201608017086,0.0278505869209766,-0.0179795250296592,-0.0224970821291208,-0.0081005506217479,0.1007970422506332,-0.0222895370375905,-0.0466731190681457,0.0019900603219866,98109744
205,-0.0439392030239105,0.0158209484070539,-0.005418493412435,-0.0159492418169975,-0.0213212985545396,-0.0005917127709835,0.0721029043197631,-0.0208668445154042,-0.0116660576313734,0.0104252584278583,215870218
206,-0.0436617322266101,-0.0084908902645111,0.0007264080340974,-0.0210968721657991,-0.0307493917644023,-0.0065600033849477,0.068829245865345,-0.0471249656326561,-0.0570322535932064,-0.0028476393781602,48578381
207,-0.0109027260914444,0.0064159873872995,-0.0439549386501312,0.0018386709270998,-0.0036212843842804,-0.0118992710486054,0.0010161637328565,-0.0230965740610338,-0.0190761294215917,-0.0146350255236029,112629130
208,0.0497778176696026,-0.0677691790312559,-0.0012065385937772,0.0209961810645066,-0.008010995151851,-0.016268659355951,-0.0501233178404165,-0.1287826995113387,0.0067920293269973,-0.0163273070069515,46171824
209,-0.0942786708474159,0.0124416053295135,-0.0419944301247596,-0.0664701610803604,-0.0497331246733665,-0.0437756888568401,-0.0152214169502258,0.0624768403179611,0.0184715092182159,-0.1029821783304214,199306992
210,0.1070298254489898,0.1046961098909378,-0.1058482527732849,0.0415685325860977,0.0264787226915359,0.0440565906465053,0.0260804966092109,-0.1132794459898199,0.0534162297844886,-0.019504677504301,55422058
211,-0.0039722844958305,0.0016582114621996,-0.0424653217196464,0.0024558217264711,-0.0166236609220504,-0.008042249828577,-0.0278272740542888,-0.0192148896176426,0.0066406652331352,0.0216628797352314,138830239
212,-0.1010200083255767,0.0205691047012805,0.0251002833247184,-0.0253186002373695,-0.0259960144758224,-0.0055440962314605,0.1416508704423904,-0.0201186241528541,-0.0315526500344276,-0.0168912485241889,98091595
213,0.0091579519212245,0.0176065023988485,-0.0419266447424888,-0.004653395153582,-0.0102965477854013,0.0124633470550179,-0.011241678148508,-0.0403652949559451,0.0185948554426431,0.0315220728516578,101157977
214,0.0151492292061448,-0.0703613832592964,0.0046576024033129,0.006185804028064,-0.0187268778681755,0.0054309470579028,-0.0143102016299963,-0.0408284642921716,-0.0651166886091232,0.0441664196550846,79785773
215,0.0565012507140636,-0.020748084411025,0.0790195390582084,0.0457068234682083,0.0263560693711042,0.0352870151400566,-0.0296073332428932,0.0356367041281519,-0.0577539652585983,0.1297057867050171,115011586
216,0.0068352939561009,-0.0088723115622997,0.0544608384370803,0.0105679212138056,0.0001970883458852,0.012859652750194,-0.0173966009169816,0.0063061607102674,-0.0427168570458889,0.0573175363242626,201816469
217,0.0198727846145629,-0.041264571249485,0.0311367772519588,0.0102835576981306,-0.0046485960483551,-0.0004825161304324,-0.04248658567667,-0.0144289353091909,-0.05570799857378,0.0374212861061096,58026802
218,-0.0206667799502611,0.0017632027156651,-0.0261564441025257,-0.007430718280375,-0.0172129981219768,-0.0087122060358524,0.0182457044720649,0.0211331074984484,-0.0104536060243844,0.0211830846965312,134307269
219,-0.0714758783578872,0.0657052397727966,-0.007667607627809,-0.0713603645563125,-0.0268153548240661,-0.037941925227642,-0.0101385787129402,0.0977425083189189,0.0554844737052917,-0.0855718180537223,52197511
220,0.0224687047302722,-0.0458123870193958,-0.0013657340314239,0.011843723244965,-0.0097497645765542,0.0188662726432085,-0.0080155050382018,-0.0184315452653189,-0.0428055487573146,0.0454567149281501,1394129
221,-0.0140762496739625,-0.0235172510147094,-0.0116555336862802,-0.0330613255500793,-0.0375295653939247,-0.0269131436944007,-0.0229390673339366,-0.055358028009891,-0.0575603991746902,-0.0091238617897033,152997644
222,-0.0414312481880188,0.0274274423718452,0.0312216151505708,-0.0365931615233421,-0.0400367081165313,-0.0313146486878395,0.1186849400401115,0.1012719698725482,-0.110602356493473,-0.0187945421785116,38035180
223,0.0117472521960735,0.0211308561265468,-0.0431043952703475,-0.0106798615306615,-0.0218863300979137,0.0063281473703682,-0.008587647229433,-0.0136749972948016,0.0168403051793575,0.0490930415689945,99604430
224,-0.0444882810115814,-0.004997010808438,0.0025869889650493,-0.0267988555133342,-0.0261701140552759,-0.0214674230664968,0.0712364315986633,-0.044873501590727,-0.0414650179445743,-0.0326427295804023,1181559
225,-0.0731992274522781,-0.0110069680958986,0.0217105150222778,-0.0285443216562271,-0.0295216888189315,-0.0238897055387496,0.0991509482264518,-0.0390641997009765,-0.0477427504956722,-0.0242002941668033,49367038
226,0.0736176222562789,-0.0250206105411052,-0.0307486336678266,0.0022518881596624,-0.013126803562045,0.0134969409555196,-0.0689318031072616,-0.049019596396263,0.0128896683454513,0.0534248985350132,99092665
227,0.0144517952576279,-0.0202783122658729,0.0376223251223564,-0.0072847148403525,-0.0050494172610342,0.006250562146306,-0.0426745153963565,0.0274977583564486,-0.0792450532317161,0.0931683629751205,84791675
228,-0.0639256164431572,-0.0215323287993669,0.0205805916339159,-0.029619563370943,-0.0306969210505485,-0.0300049129873514,0.0849842950701713,-0.0453793876163989,-0.0531394481658935,-0.0266366526484489,65819501
229,-0.0054420745000243,-0.024998489767313,-0.0112926438450813,-0.0052574859000742,-0.0193731021136045,-0.0050423899665474,-0.0277565568685531,-0.0344177590627992,-0.0384678281843662,0.0217069648206233,209877730
230,-0.0543032586574554,0.0078492751345038,0.0003641584189608,-0.0149011425673961,-0.0255360938608646,0.0031940191984176,0.0880738273262977,-0.0428194160038022,-0.0406684055924415,-0.0003464785404503,34134703
231,-0.069224826991558,-0.0155178308486938,0.0212262570858001,-0.0290051437914371,-0.0300253648310899,-0.026510514318943,0.0930795222520828,-0.0417707137705468,-0.0500556305050849,-0.0252444520592689,105881940
232,0.0643883869051933,-0.1366679668426513,-0.0149679016321897,0.0052091032266616,-0.0155494976788759,-0.0104883965104818,-0.0515028834342956,-0.0036473373936308,-0.0623525492846965,0.0252946801483631,67801698
233,0.0185028165578842,0.0104531636461615,-0.0048838248476386,-0.0086475275456905,-0.0085162110626697,0.0050513064488768,-0.0197032373398542,-0.0087781509200282,-0.0274458229541778,0.0024818591773509,184006479
234,0.0436699166893959,-0.0619558654725551,0.0198159199208021,0.0231546144932508,-0.000394252478145,0.0224423147737979,-0.0511830262839794,-0.0135593036771145,-0.0301979631185531,0.0528218634426593,98079917
235,0.1417631804943084,0.1118929088115692,-0.1316165477037429,0.0462083555757999,0.0309726912528276,0.049165204167366,-0.0045785387046635,-0.1238077014969049,0.0571077167987823,-0.0324707888066768,102488300
236,0.0125821148976683,-0.0269026327878236,0.0256782006472349,0.0297133792191743,0.0033124645706266,0.0344367325305938,0.0486960336565971,-0.0246732027407632,-0.0380888469517231,0.0451919361948967,186297240
237,-0.0223201029002666,0.017612375319004,0.0104161174967885,-0.0008161074947565,-0.0070897163823246,0.0066505409777164,0.0519723147153854,-0.0200323465624991,-0.0127600990235805,0.0146459583193063,87839561
238,0.0102631710469722,-0.1057352051138877,0.0115411877632141,-0.0382214784622192,-0.0400987192988395,-0.0789265483617782,-0.0283489041030406,-0.0959009296313469,-0.0963130295276641,-0.0461274236440658,56491568
239,0.004960692487657,-0.0002675428986549,0.0627437084913253,0.0051163793541491,-0.0041540944948792,0.0108691900968551,-0.0010711965151131,-0.0164246542690237,-0.0375585071742534,0.0821746885776519,205932746
240,-0.0510352440178394,-0.0290952138602733,0.00440414249897,-0.0207189563661813,-0.0314883962273597,-0.0200228318572044,0.0545990578830242,-0.045004644613715,-0.0503476224839687,-0.0099451057612895,51113107
241,-0.0925143584609031,0.0226506516337394,0.0212353076785802,-0.0196537747979164,-0.0224181171506643,-0.0033645313233137,0.1409897357225418,-0.0131218619936762,-0.0320441089570522,-0.0186640433967113,74738631
242,-0.0156523757626779,0.0127359036473045,-0.1271884525064766,-0.0306153693716886,-0.0136693663774823,-0.0168518914111471,0.1431209289617772,0.1601051744104357,-0.1615353957608496,-0.0499085586503146,94043093
243,-0.0230664126574993,0.0192892868071794,-0.0373928062617778,-0.0133754452690482,-0.0218419004231691,-0.0155219919979572,-0.0361804962158203,-0.0491490476665888,-0.0546403340995311,-0.006808366626501,98708407
244,0.0102631710469722,-0.1057352051138877,0.0115411877632141,-0.0382214784622192,-0.0400987192988395,-0.0789265483617782,-0.0283489041030406,-0.0959009296313469,-0.0963130295276641,-0.0461274236440658,128725950
245,0.0359081700444221,-0.0059315618127584,-0.0785120278596878,0.0037835412658751,-0.0145168453454971,0.0080601796507835,-0.032753475010395,0.0028154975078023,0.0117319701239466,0.0557704791426658,102523558
246,-0.0557144246995449,-0.0142177799716591,0.0115561885759234,-0.0255536772310733,-0.0305764973163604,-0.018431544303894,0.0792716965079307,-0.0454077864920217,-0.0542719140648841,-0.015357251279056,102122032
247,-0.017686067149043,0.0105698741972446,0.0136073175817728,-0.0016086815157905,-0.0040920842438936,0.006778516806662,0.072048507630825,0.0286344557253237,1.66397076100111e-05,0.0119296088814735,19919865
248,-0.0214050859212875,-0.033751755952835,-0.0019854099955409,-0.0236774459481239,-0.033569935709238,-0.02123649045825,0.0348292924463748,-0.0622814244520455,-0.0699843242764473,-0.0086948741227388,76273564
249,0.0363709442317485,-0.0304967835545539,-0.0429160706698894,-0.0184253714978694,-0.0185429826378822,-0.0358432531356811,-0.0264651626348495,-0.0910080462258908,-0.0338168516755104,-0.0412804260849952,100565256
250,-0.0051345988176763,-0.0544508621096611,-0.0069063086993992,0.002381777158007,-0.0115825962275266,-0.0069783185608685,0.0318785943090915,-0.0436948124889456,-0.0503583699464798,0.0139366816729307,200394113
251,-0.030060276389122,-0.0310068167746067,-0.042583629488945,-0.0265907440334558,-0.0363828502595424,-0.0273357015103101,-0.0340839847922325,-0.0392039359294277,-0.0408890917897224,-0.0228685904294252,150718336
252,-0.028220497071743,0.0128446109592914,0.0073620993643999,-0.0003555681323632,-0.0275963768362998,0.0083024390041828,0.0112758316099643,0.0128196322115141,0.0190951284021139,0.027795260772109,102421980
253,0.0142217949032783,-0.0409446284174919,-0.0111547783017158,-0.029230672866106,-0.0269406680017709,-0.0172006413340568,-0.1041471660137176,0.1811130418428507,-0.0851153656840324,0.0317174047231674,84344367
254,-0.0257604494690895,0.0046353815123438,-0.0062543144449591,-0.0290326513350009,-0.021643741056323,-0.0236871875822544,0.0203311964869499,-0.0160537093169619,-0.0135257821530103,-0.0331530943512916,72497728
255,-0.025372240692377,-0.0612997934222221,0.0160510521382093,0.0055435947142541,-0.0203609243035316,0.0054340842179954,0.0219682846218347,-0.0417629114949329,-0.0517457574605941,0.0412273667752742,68002205
256,0.0063754497095942,0.0344262830913066,-0.0214575696736574,-0.0221184957772493,-0.0220308750867843,-0.0030964366160333,0.0230037774890661,0.0142981037736456,-0.0211003478616476,0.0285473950207233,72898792
257,0.0164134502410888,0.0249309837818145,-0.0102595342323184,0.0238854307681322,0.0150919035077095,0.0220656730234622,0.0217893682420253,0.0125795291922487,0.0143809039145708,0.0369606502354145,138460133
258,0.0215348377823829,-0.0666214898228645,-0.0237868949770927,-0.0282395966351032,-0.0166758149862289,-0.0126449614763259,-0.0332885682582855,-0.0167797463776403,-0.0123416353017091,0.0044940132647752,99018577
259,-0.0086355041712522,-0.012702184729278,-0.0235783476382493,0.000427889637649,-0.0171239972114563,0.0049695572815835,0.0287634879350662,-0.0514941468470082,-0.0240568500012159,0.0184811390936374,206545451
260,-0.0565067417919635,-0.0299526117742061,0.0196766443550586,-0.0304797552525997,-0.0316370949149131,-0.0348970703780651,0.0736509785056114,-0.050431545142744,-0.0574568100273609,-0.0285857208073139,56491611
261,0.0124577283859252,-0.0304639916867017,0.0204363483935594,0.0143931936472654,-0.0078968862071633,0.0141897723078727,-0.0144762210547924,-0.0463318224741449,-0.0402039848268032,0.0553011335432529,108954955
262,-0.0589461550116539,-0.0422568470239639,-0.0237737260758876,-0.0340523645281791,-0.02988369949162,-0.0256919525563716,0.0379179380834102,-0.0646278940173966,-0.0435983799397945,-0.0125991534441709,47754644
263,-0.0618479922413826,0.0229973793029785,0.001314504421316,-0.0339333824813365,-0.0246031284332275,-0.020899198949337,0.0700484216213226,-0.0129579662835647,-0.0082371151074767,-0.0416015945374965,59488156
264,-0.0371861681342124,0.0112516731023788,-0.015681779012084,-0.0125215873122215,-0.0191861577332019,-0.0100438510999083,0.0440244451165199,0.0198367053286523,-0.0132830832153558,0.0141703626140952,173578723
265,0.0312298964709043,-0.0085338111966848,-0.0427351593971252,-0.0056178271770477,-0.0260265804827213,0.0095029938966035,-0.0008230125531554,-0.0778522106496065,-0.0620557516813278,0.0130168665200471,1489566
266,-0.0397857092320919,-0.0207696761935949,0.0327432453632354,-0.004205753095448,-0.0170401073992252,-0.0002935037482529,0.0722092762589454,-0.008519136380706,-0.0445224791765213,0.0242703296244144,195696960
267,0.007689029444009,-0.0288204569369554,0.0226852372288703,0.011783642694354,0.0024618804454803,0.0125941168516874,-0.0209927149116992,0.0321650994036757,-0.0435971543192863,0.0854716822504997,157676367
268,-0.000727801467292,0.0254141353070735,-0.0397541113197803,-0.0074933147989213,-0.0116069298237562,-0.0005242822226136,0.0004741419106721,0.0029113114487236,-0.0239762347191572,0.00551597494632,47758813
269,-0.0720118284225463,0.0119636543095111,-0.0216386318206787,-0.032938826829195,-0.0326652936637401,-0.0146942622959613,0.0609718449413776,-0.0191009716673349,-0.0305280853062868,-0.027105376124382,94043087
270,-0.050656508654356,0.0291889645159244,-0.000819471431896,-0.0230537522584199,-0.0253762882202863,-0.0068783885799348,0.0798398107290268,-0.0528101276397141,-0.0365183688700199,-0.0102433925494551,60612444
271,-0.0496015362441539,0.006792077794671,-0.0068240081891417,-0.0181645452976226,-0.0221792571246624,-0.0057103252038359,0.0611828044056892,-0.0238103825577673,-0.0110809197649359,0.0051096165552735,189832432
272,0.145601375753586,0.0520108701316406,0.0526710504306891,-0.0217606321756804,0.0068249885605527,0.0063444683339678,-0.0950557747032086,-0.0600297402307465,0.0170693795481468,-0.0157168649466108,83448924
273,0.01606753654778,-0.060656651854515,-0.041053406894207,0.0180376265197992,-0.007024286314845,-0.0032002662774175,-0.0305787697434425,-0.0220941056617095,-0.0558537021279335,0.0001706867478787,968042
274,-0.0374296233057975,-0.0516047738492488,0.0173522308468818,-0.0326916761696338,-0.0340547040104866,-0.0474769249558448,0.0445081517100334,-0.0634227965226413,-0.0685585886240005,-0.0335976369678974,63645659
275,0.1589357703924179,0.0486974529922008,-0.0751193910837173,0.0720424801111221,0.0425776168704032,0.0694627463817596,-0.0196430534124374,-0.0807176441252032,0.0260960962623357,0.0260907020419836,2052970
276,-0.0731992274522781,-0.0110069680958986,0.0217105150222778,-0.0285443216562271,-0.0295216888189315,-0.0238897055387496,0.0991509482264518,-0.0390641997009765,-0.0477427504956722,-0.0242002941668033,54209120
277,-0.0187168885022401,-0.0560555458068847,0.0159413944929838,-0.0070867561735212,-0.0198975410312414,-0.0147285191342234,0.0333834327757358,-0.0460817580456997,-0.0563581511378288,0.0091236643493175,107721773
278,-0.0115012368187308,-0.0789599493145942,0.0276936646550893,-0.025787504389882,-0.0357718095183372,-0.0431239604949951,0.0049937725998461,-0.0681414638649911,-0.0903242826461792,-0.0178664401173591,170437794
279,-0.0949610620737075,0.0021053124219179,0.0268147364258766,-0.0254775397479534,-0.0274048186838626,-0.0131751727312803,0.1203208491206169,-0.021650015088005,-0.0321015380322933,-0.0202183797955513,7211039
280,0.0039668083190917,-0.0142536778002977,-0.0203849226236343,0.0011988179758191,-0.0173967890441417,0.0025200282689183,-0.0092176664620637,-0.0541779722840016,-0.0480813756585121,-0.0008346727117896,3443157
281,0.0190111827105283,-0.0345654040575027,0.0036439297255128,0.0029907287098467,-0.0139915477484464,-0.0057183261960744,-0.011276957578957,-0.0798351887501679,-0.0362980589270591,0.0115591622889041,195474892
282,-0.0349984392523765,0.0475460104644298,-0.0266514662653207,-0.0255158804357051,-0.012619687244296,-0.0142500046640634,0.0220067743211984,0.0268630543415091,-0.002668872475624,-0.0096358610317111,7574988
283,0.0001418138854205,0.0105746844783425,-0.0235499870032072,-0.0085688643157482,-0.0137485871091485,-0.0108792809769511,0.0512996837496757,-0.0713961606032974,-0.0247240830212831,-0.0296957436949014,86366069
284,0.0102631710469722,-0.1057352051138877,0.0115411877632141,-0.0382214784622192,-0.0400987192988395,-0.0789265483617782,-0.0283489041030406,-0.0959009296313469,-0.0963130295276641,-0.0461274236440658,9949411
285,-0.0453784167766571,-0.0425830483436584,0.0183207374066114,-0.0317700430750846,-0.0330473706126213,-0.0422353185713291,0.0566509924829006,-0.0580097766528271,-0.0639328509569168,-0.0315093398094177,99092662
286,-0.1010200232267379,0.0205691084265708,0.0251002814620733,-0.0253186002373695,-0.0259960182011127,-0.0055440976284444,0.1416508704423904,-0.0201186236743074,-0.0315526500344276,-0.0168912578374147,58425371
287,-0.0623936578631401,0.027511429041624,-0.0037678324151784,-0.070698969066143,-0.0378002375364303,-0.0532486326992511,-0.0299839042127132,0.0423222726051173,0.0241068247705698,-0.0760539025068283,39833157
288,-0.0948376134037971,0.0135522037744522,0.0243469960987567,-0.0260354280471801,-0.0267794989049434,-0.0096208993345499,0.132206454873085,-0.0243287565778148,-0.0351504571735858,-0.018515495583415,13182786
289,-0.0627223551273346,0.0195247624069452,-0.008375696837902,-0.0328133068978786,-0.025872578844428,-0.0203295927494764,0.0752051100134849,-0.0033919863908421,-0.0127380732446908,-0.0208464469760656,15268755
290,0.0114836394786834,0.0142427869141101,0.0027269371785223,-0.0276364646852016,-0.0327064916491508,-0.0291115064173936,-0.0446020998060703,0.0253863432322748,-0.0744626969099044,-0.010453182272613,113607068
291,0.0900570154190063,0.0442368760704994,-0.0857314988970756,0.0188039205968379,0.0020802731160074,0.0227509438991546,-0.0091844657436013,-0.1046830271316794,-0.004579534754157,-0.0145917860791087,69330138
292,0.0398943126201629,-0.0045829103328287,0.0610076114535331,0.027368638664484,0.0095971683040261,0.0264482423663139,-0.0294681303203105,0.01342030896172,-0.0473170727491378,0.0896813347935676,59617193
293,-0.0113625070080161,-0.0052752611227333,0.0223697833716869,-0.003195626894012,-0.0100000696256756,0.0017485353164374,0.0201185345649719,-0.0229216233244068,-0.056455411016941,0.0373355001211166,206966496
294,0.0617112442851066,-0.1279469430446624,0.025293543934822,0.0117764715105295,-0.0072353999130427,-0.0166157148778438,-0.0700700432062149,-0.0239304571738131,-0.0746733322739601,0.0423451513051986,47527154
295,0.0046090730465948,-0.0192938558757305,-0.037624429911375,-0.0109627339988946,-0.0185260530561208,-0.0090727489441633,-0.0235568545758724,-0.0241585251225737,-0.0398721471428871,0.0023210207000374,61913621
296,-0.0010586902499198,-0.0182985588908195,0.0033631490077823,-0.0064045591279864,-0.0183482877910137,0.0065066283568739,-0.0010581209789961,-0.0284812911887349,-0.032337624579668,0.043472159653902,34270534
297,0.0103962626308202,-0.0093803722411394,0.0777856484055519,-0.003883708268404,-0.0044305729679763,0.0074104350060224,-0.0455567091703414,0.0825141604311761,-0.0736737996339798,0.0828298032283783,205180061
298,-0.0704392392622973,0.0899702522782575,0.0249512999058642,-0.046446007517392,-0.01236640644969,-0.034346871219484,0.0020239109803701,-0.3828190953946062,0.0440391600773703,-0.0400309149745403,34373550
299,-0.0942786708474159,0.0124416053295135,-0.0419944301247596,-0.0664701610803604,-0.0497331246733665,-0.0437756888568401,-0.0152214169502258,0.0624768403179611,0.0184715092182159,-0.1029821783304214,199307009
300,-0.0277387388050556,-0.0193550642579793,-0.0046907318755984,-0.0207686387002468,-0.0322641804814338,-0.009698481298983,0.0474649295210838,-0.0555575273759132,-0.0647185817360878,-0.0012083575129508,12713910
301,-0.0001162714324891,-0.0254605188965797,0.0374964587390422,0.0129313915967941,0.0072254873812198,0.0164876691997051,0.0081794448196887,0.0524162839140272,-0.0422354228794574,0.0714119523763656,3193236
302,0.0102631710469722,-0.1057352051138877,0.0115411877632141,-0.0382214784622192,-0.0400987192988395,-0.0789265483617782,-0.0283489041030406,-0.0959009296313469,-0.0963130295276641,-0.0461274236440658,80628593
303,-0.0373347140848636,0.0063614891842007,-0.0021111671812832,-0.017269629985094,-0.0212548356503248,-0.0129050510004162,0.07548139244318,-0.0544705840894191,-0.0343029052019119,-0.0230333004146814,85996097
304,0.0102631710469722,-0.1057352051138877,0.0115411877632141,-0.0382214784622192,-0.0400987192988395,-0.0789265483617782,-0.0283489041030406,-0.0959009296313469,-0.0963130295276641,-0.0461274236440658,16700200
305,0.0190177932381629,0.0035800673067569,0.0222723092883825,0.008525850251317,0.0013846826041117,0.0107221286743879,-0.0123998401686549,0.0180150893351073,-0.0492244139313697,0.0784246027469635,159483171
306,0.0694452077150344,0.0506795160472393,-0.0638851523399353,0.028883883729577,0.0165815539658069,0.0437521710991859,0.0238668527454137,-0.0441215478731507,0.0184444189071655,0.0131651544943451,102483617
307,-0.0257604494690895,0.0046353815123438,-0.0062543144449591,-0.0290326513350009,-0.021643741056323,-0.0236871875822544,0.0203311964869499,-0.0160537093169619,-0.0135257821530103,-0.0331530943512916,6747650
308,-0.0334418527781963,-0.0214111804962158,-0.0242861751466989,-0.0040573300793766,-0.0195669941604137,-0.0097694331780076,0.0630167871713638,-0.0738863204419491,-0.0176580566912889,-0.0140175884589552,2763553
309,-0.0349637754261493,-0.0193777624517679,-0.0529553703963756,-0.0279755182564258,-0.0296341218054294,-0.0285256952047348,-0.0369472242891788,-0.0364658655671954,-0.0286784209311008,-0.014409402385354,88350347
310,-0.0268312245607376,-0.0636337623000145,0.0160608906298875,-0.0339205265045166,-0.035397820174694,-0.0544657260179519,0.0283177029341459,-0.0706401578351666,-0.0747262462973594,-0.0363820418715477,47788573
311,0.0550541207194328,-0.0004801485338248,-0.0548006109893322,-0.0001369043020531,-0.0112728979438543,0.0045187044888734,0.0195932276546955,-0.0351153468607463,0.0078369751572608,0.018149884417653,196566732
312,-0.0774713978171348,0.0119027020409703,0.0149707403033971,-0.0319795235991478,-0.0282017271965742,-0.0176779367029666,0.081013910472393,-0.0052153737821171,-0.0252851638942956,-0.0293385870754718,101058866
313,0.0056393444538116,0.0338437557220459,-0.0498269349336624,-0.0178533047437667,-0.0207773670554161,-0.0169455111026763,0.0072234021499753,-0.0333348701528346,-0.008478770032525,-0.0370793417096138,150718293
314,0.0386240221560001,-0.055930707603693,0.0188286639750003,0.0173885039985179,-0.0130736008286476,0.0159741975367069,-0.0561948828399181,-0.015782512601734,-0.0470485724508762,0.0857609286904335,18912237
315,-0.0320069305598735,0.0150697249919176,0.0451261363923549,-0.0115841114893555,-0.0043973624706268,-0.014855321496725,0.0064655528403818,0.0142022558178926,-0.0382184758782386,0.0433343537151813,159115989
316,0.0102631710469722,-0.1057352051138877,0.0115411877632141,-0.0382214784622192,-0.0400987192988395,-0.0789265483617782,-0.0283489041030406,-0.0959009296313469,-0.0963130295276641,-0.0461274236440658,86617202
317,-0.0272136218845844,0.0145497852936387,-0.014752029441297,-0.011888176202774,-0.0216387808322906,0.0038730497471988,0.0706963166594505,-0.0525176153707273,-0.0375245362520217,-0.0065641878172755,8608429
318,0.0085172494873404,0.026983929798007,0.1101655140519142,0.0063002351671457,0.0019182143732905,0.0065174256451427,0.0287536904215812,0.0623933163680124,-0.0603591054677963,0.07528767734766,138469628
319,-0.0626675710082054,-0.012067599222064,0.0179755017161369,-0.0186647418886423,-0.0233469158411026,-0.0129155050963163,0.0964141339063644,-0.03895139873438,-0.0433957800269126,-0.0112238135188817,109486663
320,-0.0100522674620151,0.0437370538711547,-0.0328502766788005,-0.0192465595901012,-0.0152352564036846,-0.0012942955363541,-0.0263161417096853,0.0364877048564523,-0.0351820923388004,0.0058282697573304,55711245
321,-0.0522132143378257,-0.0164231080561876,0.006183783058077,-0.0331354066729545,-0.0340868309140205,-0.0263861920684576,0.0373285375535488,-0.0582944892868755,-0.0500658638775348,-0.0339226126670837,101191919
322,0.0102631710469722,-0.1057352051138877,0.0115411877632141,-0.0382214784622192,-0.0400987192988395,-0.0789265483617782,-0.0283489041030406,-0.0959009296313469,-0.0963130295276641,-0.0461274236440658,194164487
323,-0.0091573800891637,-0.0184124149382114,0.0188538637012243,-0.0062656588852405,-0.0117982570081949,0.0010403443593531,-0.0130471419543027,0.0386822167545593,-0.0425462089478969,0.0040311254560947,71488005
324,-0.0457372570890188,-0.0395316034205661,-0.0317278626994936,-0.0738805448803814,-0.0292486067453858,-0.0385580332786467,0.0047445921225263,-0.0510373063024304,0.0033195489147601,-3.523541520266543e-05,45859773
325,-0.0200594440102577,0.018296817317605,-0.025896007195115,-0.0079435985535383,-0.0181964971125125,0.0022762464359402,0.0403763204813003,0.0023548095570307,-0.014214139431715,0.0217745136469602,101778430
326,-0.0631164833903312,0.0201938860118389,0.0233592297881841,-0.0173091944307088,-0.0159294139593839,8.548214100301266e-05,0.0934656783938407,-0.0175176618771522,-0.0244296956807374,-0.0069641368463635,3806601
327,0.0102631710469722,-0.1057352051138877,0.0115411877632141,-0.0382214784622192,-0.0400987192988395,-0.0789265483617782,-0.0283489041030406,-0.0959009296313469,-0.0963130295276641,-0.0461274236440658,2297821
328,0.0102631747722625,-0.1057352051138877,0.0115411840379238,-0.0382214784622192,-0.0400987230241298,-0.0789265483617782,-0.0283489003777503,-0.0959009306454723,-0.0963130295276641,-0.0461274161934852,108109288
329,0.0102631710469722,-0.1057352051138877,0.0115411877632141,-0.0382214784622192,-0.0400987192988395,-0.0789265483617782,-0.0283489041030406,-0.0959009296313469,-0.0963130295276641,-0.0461274236440658,2235503
330,0.0513353496789932,-0.020618537440896,0.0421002693474292,0.0249314904212951,0.0052350228652358,0.0242393761873245,-0.0490461662411689,0.011215810308006,-0.0566603019833564,0.1086853146553039,37764882
331,0.008272654376924,-0.0594596266746521,0.0263768099248409,-0.0299419909715652,-0.021033875644207,-0.0502087250351905,-0.0031098248437047,-0.0595330990409955,-0.0703952088952064,-0.0374349355697631,7897387
332,-0.0711644291877746,0.0001987868454307,0.014943154528737,-0.0247031673789024,-0.0288362316787242,-0.0114287417382001,0.101592794060707,-0.0359296744213541,-0.0459645316004753,-0.0138176074251532,100535643
333,-0.011036779731512,-0.0312308557331562,0.022550992667675,-0.0157708600163459,-0.0239996723830699,-0.0156393349170684,0.0010684924200177,-0.0343222122501881,-0.0438075251877307,0.0315954498946666,102644366
334,0.0093300454318523,0.018008392304182,-0.0388885214924812,-0.0037670703604817,-0.0250232648104429,0.0151978768408298,-0.0610316023230552,-0.0023454105520389,-0.0645691379904747,0.0479972176253795,58802094
335,-0.0303005538880825,-0.0416758507490158,0.0077910223044455,-0.0280821565538644,-0.0337003916501998,-0.0337743014097213,0.0410179272294044,-0.0622506640872129,-0.068757489323616,-0.0209142211824655,94317976
336,0.0004143964033573,-0.0045397449284791,-0.052583459764719,-0.0178058184683322,-0.0337110944092273,0.0012421682476997,-0.0224599540233612,0.0319633588223878,-0.0567136108875274,0.0411572307348251,670375
337,-0.0252617057412862,-0.046563446521759,0.0010228445753455,-0.0050664907321333,-0.0289660207927227,-0.0058907968923449,0.0091680316254496,-0.0534039591953851,-0.0441208370029926,0.033157218247652,99402058
338,-0.0755684524774551,0.0187912695109844,0.0082485508173704,-0.0327218957245349,-0.027888186275959,-0.0142526999115943,0.0828024968504905,-0.0105298828538531,-0.017703328281641,-0.0278778858482837,47505989
339,-0.0797597542405128,0.0144593911245465,0.0138172907754778,-0.0223475508391857,-0.0274325255304574,-0.0011598921846598,0.1165733858942985,-0.0285696409956989,-0.0399751029908657,-0.0079203750938177,110742290
340,0.006576710846275,-0.0812693014740943,0.0094468211755156,-0.0345838367938995,-0.0419550538063049,-0.0604048073291778,-0.039916418492794,-0.0949210734842169,-0.0953744202852249,-0.0227679535746574,99092666
341,-0.0188268348574638,0.0296642743051052,-0.0235505383461713,-0.003324229735881,-0.0116085167974233,0.002021721098572,0.0704456493258476,-0.0600392043590774,-0.0156175699084997,-0.0232332348823547,73023923
342,0.0110017349943518,0.0109707778319716,0.0534080937504768,-0.0087261479347944,-0.0084677943959832,-0.0043901922181248,-0.0457055866718292,0.0339872288531337,-0.0635437816381454,0.0684862211346626,73299028
343,-0.0257604494690895,0.0046353815123438,-0.0062543144449591,-0.0290326513350009,-0.021643741056323,-0.0236871875822544,0.0203311964869499,-0.0160537093169619,-0.0135257821530103,-0.0331530943512916,72497730
344,-0.0110548958182334,0.0192010514438152,-0.0296113267540931,-0.0058363652788102,-0.015696769580245,-0.0040583820082247,0.0007194364443421,-0.0553083645674611,-0.0022317662369459,0.0142770782113075,99788385
345,-0.0323246121406555,-0.0360272675752639,0.0228727422654628,-0.0233879778534173,-0.0241213086992502,-0.0301978774368762,0.028901495039463,-0.0664722590616007,-0.0614448338747024,-0.0110599715262651,206170303
346,-0.0333118475973606,-0.0359377153217792,0.0053045665845274,-0.0242088083177804,-0.0316781885921955,-0.0282025374472141,0.0146833546459674,-0.0345603634234346,-0.0400253906846046,-0.0013197346124798,18468296
347,-0.0015417523682117,-0.0135315936058759,0.0223723370581865,0.0050259809941053,-0.0045052133500576,0.0067100306041538,-0.0157237034291028,-0.0084361882169583,-0.0630765184760093,0.0515167862176895,91989996
348,-0.0209662783890962,0.0122084151953458,-0.0199185106903314,-0.0107132671400904,-0.0247347932308912,0.0113864131271839,0.0599641315639019,-0.0525931344193436,-0.0464629083871841,0.0061584766954183,54863209
349,-0.076117418706417,0.0030047844629734,0.0227182693779468,-0.016755785793066,-0.0221267975866794,-0.0035271509550511,0.1104746833443641,-0.0238933223125885,-0.0350349023938179,-0.0056206043809652,88416983
350,-0.0594268888235092,-0.0444222092628479,-0.0173031277954578,-0.0129524422809481,-0.0301539674401283,-0.0110660102218389,-0.0011444678530097,0.0219615125542453,-0.0333266854286193,-0.0044451244175434,75717236
351,0.0022134366445243,0.0011538723483681,0.0458305925130844,0.0061695100739598,0.0031141692306846,0.0100614381954073,-0.0253508985042572,0.0086271923192571,-0.0282070245593786,0.0528111942112445,50207366
352,0.0008597641717642,-0.021582718938589,-0.0198077876120805,-0.0104398634284734,-0.0288449730724096,-0.0080689694732427,-0.0137323942035436,-0.0824101095225555,-0.0603828877210617,0.0032154163345694,76578097
353,0.0449120439589023,-0.0480680875480175,0.117361232638359,0.0259938947856426,0.0142791140824556,0.0175818055868148,-0.0519324615597724,0.0716668418697296,-0.0461149960756301,0.1027641668915748,101741648
354,0.043138176202774,-0.0513281673192977,-0.0242482405155897,-0.0171140264719724,-0.0223308727145195,-0.0469036027789115,-0.0224063079804182,-0.1028776220040774,-0.0579578578472137,-0.0427132658660411,212071753
355,0.0435900539159774,0.0074723805300891,0.0288514103740453,0.0049654296599328,-0.0031020818278193,0.0188281014561653,-0.0361552126705646,0.0165287072832176,-0.0289111956954002,0.0527947843074798,3162115
356,-0.0699967145919799,0.0098167909309268,0.0128446165472269,-0.0222705174237489,-0.0240784604102373,-0.0116811376065015,0.1092356294393539,-0.0371355361975889,-0.0342766866087913,-0.0218280423432588,99446605
357,0.0237629897892475,-0.0193423237651586,0.0542464293539524,0.0196447409689426,0.0058610225096344,0.0217815693467855,-0.0266994126141071,0.0132393325044943,-0.0469667091965675,0.0881923586130142,52541971
358,-0.0304773207753896,-0.0694849714636802,0.0619283095002174,0.0034879148006439,-0.0189967565238475,-0.0095334481447935,-0.0124631114304065,-0.0191893979689052,-0.0484707094728946,0.0309196822345256,195773243
359,-0.0966550727901306,-0.1269540951395769,-0.0918407932540367,-0.0431920705359696,-0.0589830923975329,-0.0757322114994875,-0.052986752734479,-0.0499705679007733,-0.10458356066755,-0.120967456184676,17687405
360,-0.0545015335083007,2.0601786673069e-05,0.0067269830033183,-0.0179205425083637,-0.0228467192500829,-0.0032100994139909,0.0810440853238105,-0.0287153752703791,-0.0348293036222457,-0.0050943661481142,114274866
361,0.0102223111316561,-0.0212901514023542,0.0507733598351478,-0.0087583903223276,-0.0084098679944872,0.0020543739665299,-0.0596517920494079,0.0739040893588235,-0.0561254881322383,0.0641168355941772,158508852
362,-0.0589198172092437,0.0089295171201229,0.0012197605101391,-0.022857716307044,-0.0231233593076467,-0.0097365044057369,0.0754264220595359,-0.0133351501461556,-0.0339754484593868,-0.013454089872539,107512023
363,-0.0050455760501191,0.0215741030680594,-0.0331910120610478,-0.011914354031678,-0.0113282382948593,0.0188636525453177,-0.0192548102126379,0.0808244953176067,0.0070992134597276,0.0018926344640568,146167229
364,0.0102631710469722,-0.1057352051138877,0.0115411877632141,-0.0382214784622192,-0.0400987192988395,-0.0789265483617782,-0.0283489041030406,-0.0959009296313469,-0.0963130295276641,-0.0461274236440658,59299279
365,0.0102631747722625,-0.1057352051138877,0.0115411840379238,-0.0382214784622192,-0.0400987230241298,-0.0789265483617782,-0.0283489003777503,-0.0959009306454723,-0.0963130295276641,-0.0461274161934852,55422060
366,-0.047890193760395,-0.0005670292302966,-0.034707847982645,-0.0366203039884567,-0.0398815795779228,-0.028897900134325,-0.008438229560852,-0.0275850781593119,-0.0303613170981407,-0.0185339413583278,156284152
367,-0.0234066061675548,-0.0196242220699787,0.0503758564591407,0.0109259206801652,0.0003610211424529,0.0093938428908586,0.0203492362052202,0.0361215366605574,-0.0220919288694858,0.0400260053575038,109502816
368,-0.017105558887124,0.0217987764626741,-0.0510417744517326,-0.0266964975744485,-0.0366122797131538,-0.0122500043362379,-0.038994014263153,0.0608710197180183,-0.0303510688245296,0.0121500669047236,76747884
369,-0.0016371286474168,-0.0046564284712076,0.0764375776052475,-0.008613153360784,-0.0077081369236111,-0.0046554980799555,-0.0135028939694166,-0.0258709366126673,-0.0717504769563674,0.0552525743842124,96648892
370,0.0378551445901393,-0.061878927052021,0.0074814283289015,0.0140549931675195,-0.0087078530341386,0.0171067751944065,-0.0339462012052536,0.0030272078389118,-0.0606868267059326,0.0599408000707626,2368500
371,-0.0257604494690895,0.0046353815123438,-0.0062543144449591,-0.0290326513350009,-0.021643741056323,-0.0236871875822544,0.0203311964869499,-0.0160537093169619,-0.0135257821530103,-0.0331530943512916,6747648
372,-0.0080146007239818,0.0154832089319825,-0.0335585512220859,-0.0033552162349224,-0.012137858197093,0.0007475159363821,0.0071164751425385,-0.0040294819703467,0.000260429631453,0.018117656931281,124975178
373,-0.0797039568424224,0.0225813705474138,0.0134219769388437,-0.0206703506410121,-0.0224304907023906,-0.0042570941150188,0.125134527683258,-0.0302314953550463,-0.0275326427072286,-0.0190482307225465,206977176
374,0.0102631747722625,-0.1057352051138877,0.0115411840379238,-0.0382214784622192,-0.0400987230241298,-0.0789265483617782,-0.0283489003777503,-0.0959009306454723,-0.0963130295276641,-0.0461274161934852,45621154
375,-0.0612125545740127,-0.0065913246944546,0.0115574412047863,-0.0244980230927467,-0.0297829750925302,-0.0133902933448553,0.0882400944828987,-0.0412000209248384,-0.0507684908807277,-0.0127930678427219,96457659
376,-0.0428497344255447,-0.0254049710929393,-0.0370953865349292,-0.0335240438580513,-0.0352001078426837,-0.0375934541225433,0.0342430844902992,-0.0328307420152741,-0.0377319939434528,-0.033729150891304,148611986
377,-0.0772406160831451,0.0330328643321991,-0.0056864414364099,-0.0272511579096317,-0.0288649555295705,-0.0020252750255167,0.1036370545625686,-0.0142410196910339,-0.0301234796643257,0.0009109089151024,6001285
378,-0.0014347580727189,0.0398627072572708,-0.0334104783833026,-0.0112374126911163,-0.0112564088776707,0.0010680310660973,0.0256211869418621,-0.0253700935033811,-0.0107661169022321,-0.0148704424500465,72763348
379,-0.063262790441513,0.0078993635252118,0.0218480639159679,-0.0193321760743856,-0.0196119677275419,-0.0019354117102921,0.0756855458021164,0.0038261806629436,-0.0214225817471742,-0.0098766088485717,16835734
380,-0.0485318452119827,0.0312188267707824,-0.0326028987765312,-0.0530657768249511,-0.0377064645290374,-0.0281052310019731,0.0033694333396852,-0.0323510565573887,-0.015842130407691,-0.0339662283658981,44708713
381,-0.0175939351320266,-0.028804987668991,-0.0098358867689967,-0.0289437286555767,-0.0347820371389389,-0.0157385319471359,-0.0396944619715213,0.0302151431313772,-0.0523724444210529,-0.0009567663073539,110012110
382,0.0341173522174358,-0.1036929115653038,0.0149895418435335,-0.019241752102971,-0.0330534987151622,-0.0489896461367607,-0.0318343006074428,-0.0753622472138229,-0.0801770165562629,-0.0079034594818949,88880574
383,0.0380856581032276,0.0165629461407661,0.0421312637627124,0.0199218206107616,0.0034591546282172,0.0207411162555217,-0.0499660149216651,0.0078964106143663,-0.0735217928886413,0.1082442328333854,30351501
384,0.0125122936442494,-0.0013093948364257,-0.0094617810100317,-0.0008108103647828,-0.0109028276056051,0.0018240484641864,-0.0223090685904026,-0.0198973096544668,-0.0139635950326919,0.0281322374939918,152354126
385,-0.1010200083255767,0.0205691047012805,0.0251002833247184,-0.0253186002373695,-0.0259960144758224,-0.0055440962314605,0.1416508704423904,-0.0201186241528541,-0.0315526500344276,-0.0168912485241889,206939650
386,-0.0050971219316124,-0.0018607759848237,-0.0244506206363439,-0.0112102562561631,-0.0273396577686071,0.0071838810108602,0.0363059528172016,-0.0612274033308931,-0.0569251552224159,0.0086442427709698,85951147
387,0.0427495390176773,-0.0879905819892883,0.0478832758963108,0.0290183387696743,0.0128983967006206,0.0379753410816192,-0.0699870362877845,-0.0975952673116184,-0.0698146671056747,0.124300867319107,102386409
388,0.0143914492800831,-0.0233106631785631,-0.0213284660130739,-0.0162994917482137,-0.0395273566246032,0.0011511677876114,-0.0329196006059646,-0.0806632359240101,-0.0871583521366119,0.0311638191342353,78535305
389,-0.0487364009022712,0.0077835191041231,0.0357440039515495,-0.0075674732215702,-0.0136603061109781,0.0109935663640499,0.0929191634058952,-0.0269462431615078,-0.0377596653997898,0.0260718576610088,103874922
390,-0.0448721423745155,-0.0370614230632782,0.0148255499079823,-0.0382047817111015,-0.033973641693592,-0.0471110045909881,0.0402733236551284,-0.0449280182498996,-0.0524163022637367,-0.0406738892197608,19771878
391,-0.0314408652484416,-0.0284694246947765,0.0276678837835788,-0.0088810380548238,-0.0217018909752368,-0.0070728939026594,0.0479165986180305,-0.0370221954303705,-0.0455232188105583,0.0091967582702636,32949717
392,-0.0684936344623565,-0.0099974256008863,0.0190396215766668,-0.0201817788183689,-0.0279352739453315,-0.0093035073950886,0.0954174771904945,-0.0395962339818015,-0.0450633950531482,0.0018752971664071,184425605
393,-0.0258744843304157,-0.0138609902933239,0.0138825736939907,-0.0166655033826828,-0.0246134214103221,-0.0057699312455952,0.0302813611924648,0.0200911031557,-0.0554064735770225,0.0043423827737569,102887574
394,-0.0348051153123378,0.0049975188449025,-0.0411488227546215,-0.0234839133918285,-0.0149406129494309,-0.005035176873207,0.0114561896771192,0.1079470203457138,-0.0611879751086235,0.0250883065164089,66891131
395,-0.0853037685155868,0.0100858192890882,0.0184591505676507,-0.0285327732563018,-0.0306406952440738,-0.0104349320754408,0.110041819512844,-0.0254844732389389,-0.0370426140725612,-0.0117611493915319,106261680
396,-0.0412224009633064,-0.0121208131313323,0.0317581817507743,-0.034028373658657,-0.0234111025929451,-0.0132962986826896,-0.0028919868636876,-0.0165479904399201,-0.0581534393131732,0.0297288261353969,60194762
397,-0.0579807981848716,0.0012977620353922,0.0156106119975447,-0.0203112103044986,-0.0223311129957437,-0.0118689052760601,0.0849085599184036,-0.0401019054808885,-0.0394898690283298,-0.0178721509873867,101368165
398,-0.0257604494690895,0.0046353815123438,-0.0062543144449591,-0.0290326513350009,-0.021643741056323,-0.0236871875822544,0.0203311964869499,-0.0160537093169619,-0.0135257821530103,-0.0331530943512916,6747649
399,-0.0575560443103313,-0.0091888634487986,0.0188827160745859,-0.0178438983857631,-0.0242718048393726,-0.0083848573267459,0.0866065546870231,-0.0418907864857995,-0.0427625775337219,-0.0039111338555812,110939942
400,-0.0024793334305286,-0.0388328097760677,-0.0828961580991745,-0.0064040725119411,-0.0070608332753181,-0.0007535573095083,-0.0257689543068408,-0.0613886216994964,-0.0270034521818161,0.0221384465694427,52268839
401,-0.0453784167766571,-0.0425830483436584,0.0183207374066114,-0.0317700430750846,-0.0330473706126213,-0.0422353185713291,0.0566509924829006,-0.0580097766528271,-0.0639328509569168,-0.0315093398094177,115138097
402,-0.0531844235956668,0.0068222507834434,-0.0002864577108994,-0.0186337251216173,-0.0292281620204448,0.0043203756213188,0.0852265134453773,-0.0391334132008982,-0.0505031459033489,0.0032932362519204,90959033
403,-0.0201576985418796,-0.0412382781505584,-0.0125073585659265,-0.0098809786140918,-0.0279908347874879,-0.0161432716995477,-0.0059589794836938,-0.034767200364179,-0.0357605293393135,0.0235581379383802,68997293
404,0.0118620973080396,0.00020039267838,0.0274137705564498,0.01210877019912,-0.0064190356060862,0.0121337873861193,-0.0115156881511211,0.0099076005509993,-0.0414186976850032,0.070371426641941,97442108
405,-0.0074500665068626,-0.0056793754920363,-0.0539814606308937,-0.0121895130723714,-0.0208284184336662,-0.0082467105239629,-0.0166245885193347,-0.0470212890509574,-0.0307500064373016,-0.0234217997640371,34335298
406,-0.0453784167766571,-0.0425830446183681,0.0183207374066114,-0.0317700430750846,-0.0330473706126213,-0.0422353185713291,0.0566509924829006,-0.0580097766528271,-0.0639328584074974,-0.0315093398094177,207034364
407,-0.0468341372907161,-0.0361825749278068,0.0126891443505883,-0.0139441471546888,-0.0283120386302471,-0.0108818262815475,0.0425995476543903,-0.03763601864933,-0.0568107962608337,0.005566687323153,8208151
408,-0.0307710878551006,0.000192740233615,-0.0327528640627861,-0.0090294368565082,-0.0153979808092117,0.0003382673021405,0.0159484185278415,0.0132188415326604,-0.0124538484960794,0.0068320464342832,71145982
409,0.017014367505908,-0.0388222560286521,0.0394621007144451,0.027853125706315,-0.0042067910544574,0.003636622801423,-0.0610041096806526,-0.04612380861857,-0.0345689505338668,0.0499742403626441,103625428
410,-0.0575064718723297,0.0128336045891046,0.0032665766775608,-0.0185845512896776,-0.0241654515266418,-0.0031199981458485,0.097568079829216,-0.0401817403548251,-0.0370647422969341,-0.0124030467122793,58374844
411,-0.0371762663125991,-0.016644150018692,0.0032748139929026,-0.0168867297470569,-0.0194265358150005,-0.0124656856060028,0.0509758368134498,0.0185728365193069,-0.0682317018508911,0.0223536640405654,165081199
412,-0.0068348450586199,-0.0535809397697448,0.0080865425989031,-0.0068136677145957,-0.018941942602396,-0.0123292673379182,0.0245852768421173,-0.0602892948682952,-0.0539647825062274,0.0114121781662106,33982497
413,0.043138176202774,-0.0513281635940074,-0.0242482386529445,-0.0171140246093273,-0.0223308727145195,-0.0469036027789115,-0.0224063079804182,-0.1028776220040774,-0.0579578578472137,-0.0427132658660411,201846065
414,-0.0136781595647335,-0.0129949850961565,0.0251543559134006,-0.0052164122462272,-0.0109496982768177,0.0062024905346333,0.0630239844322204,-0.0206218846112414,-0.0493577159941196,0.0309024564921855,49609372
415,0.0102631710469722,-0.1057352051138877,0.0115411877632141,-0.0382214784622192,-0.0400987192988395,-0.0789265483617782,-0.0283489041030406,-0.0959009296313469,-0.0963130295276641,-0.0461274236440658,178367993
416,0.0286641456186771,-0.0456795468926429,-0.0602613016963005,0.0141454748809337,-0.0203908253461122,0.0069281160831451,-0.0475180484354496,0.0079712212523772,-0.0452583730220794,0.0433405637741088,47023001
417,0.0102631710469722,-0.1057352051138877,0.0115411877632141,-0.0382214784622192,-0.0400987192988395,-0.0789265483617782,-0.0283489041030406,-0.0959009296313469,-0.0963130295276641,-0.0461274236440658,15166421
418,0.0102631710469722,-0.1057352051138877,0.0115411877632141,-0.0382214784622192,-0.0400987192988395,-0.0789265483617782,-0.0283489041030406,-0.0959009296313469,-0.0963130295276641,-0.0461274236440658,7172770
419,-0.0264138169586658,0.0276120230555534,-0.015773806720972,-0.0090497257187962,-0.0135166812688112,-0.0010395797435194,0.0838435739278793,-0.0555136814383355,-0.0174826122820377,-0.0244406592100858,188320861
420,-0.076290413737297,-0.0074985148385167,0.022087151184678,-0.0281859077513217,-0.0291299559175968,-0.0218513030558824,0.1038731634616851,-0.0369591359556726,-0.0459438525140285,-0.0233881827443838,45859764
421,0.0102631710469722,-0.1057352051138877,0.0115411877632141,-0.0382214784622192,-0.0400987192988395,-0.0789265483617782,-0.0283489041030406,-0.0959009296313469,-0.0963130295276641,-0.0461274236440658,172571530
422,-0.0836252570152282,0.0155702549964189,0.0158687438815832,-0.0228877365589141,-0.0271713435649871,-0.0019570146687328,0.1211329251527786,-0.027033091622592,-0.038443736732006,-0.0095514357089996,91069114
423,0.0087506473064422,-0.0319373682141304,-0.0230448395013809,-0.0163016766309738,-0.0348759815096855,-0.0043144612573087,0.0035631558857858,-0.0707632002024361,-0.0796336010098457,0.0124953668564558,52361126
424,0.0332303345203399,0.0259435568004846,-0.0315734706819057,0.0055146235972642,0.0030182094778865,0.0194606333971023,0.0072980434633791,-0.0316311064559335,-0.0115966852754354,0.0024675806052982,1134720
425,-0.014183185994625,-0.007198900450021,-0.0177137739956378,-0.0049480670131742,-0.0158284921199083,3.95460519939661e-05,0.0234711896628141,-0.0106043481675089,-0.0341417081654071,0.0207106322050094,201234592
426,-0.0207874253392219,0.0180161632597446,-0.0032312050461769,-0.0189652293920516,-0.0200651828199625,-0.0038409517146646,0.002113742288202,-0.0051368367543389,-0.0302909202873706,0.0122569566592574,14966853
427,0.0022973872255533,-0.0168323963880538,-0.0033234094735234,0.0011754154693335,-0.0088160280138254,0.0003770019393414,0.038074292242527,-0.0403573059976721,-0.0311128292232751,0.0018166098743677,57519725
428,-0.0483918786048889,-0.0063570532947778,0.0192817021161317,-0.0026550227776169,-0.0133102787658572,0.0070633483119308,0.0887092053890228,-0.018891592847442,-0.0331941321492195,0.0178409647196531,50031549
429,-0.0824728235602378,-0.000481613446027,0.0228404402732849,-0.027469091117382,-0.0283464677631855,-0.017774511128664,0.1133175864815712,-0.0327490076872594,-0.0423460565507411,-0.0217639580368995,66464625
430,-0.0250478163361549,0.0016488786786794,-0.0554548352956771,-0.0249701607972383,-0.0236281715333461,-0.0227781943976879,0.0072724693454802,0.0258240822052492,-0.0018840315751731,0.003898364957422,68748784
431,0.0230793803930282,-0.0119367549195885,0.0065856669098138,0.0134672187268733,-0.0045164944604039,0.0286539439111948,0.005895628593862,-0.0218308859828204,-0.0454633757472038,0.0481395423412323,55422033
432,-0.0441031642258167,0.0004834142164327,-0.0035059163346886,-0.0185855962336063,-0.0191953461617231,-0.0135024432092905,0.0382708795368671,-0.026814967883156,-0.0267686005681753,-0.0065784007310867,58017337
433,0.0115107782185077,-0.0185281410813331,0.0459627248346805,0.0138593483716249,-0.0014727648813277,0.0145795391872525,-0.0030917229596525,0.0034337150210451,-0.0570767447352409,0.0805012360215187,51887928
434,-0.1010200232267379,0.0205691084265708,0.0251002814620733,-0.0253186002373695,-0.0259960182011127,-0.0055440976284444,0.1416508704423904,-0.0201186236743074,-0.0315526500344276,-0.0168912578374147,96232449
435,0.0356860533356666,-0.0392793491482734,0.0090260580182075,0.0229952149093151,-0.0038294806145131,0.015789546072483,-0.0440663769841194,-0.0254999217965854,-0.0316033698618412,0.0658006593585014,206810298
436,0.0560827776789665,-0.1355172246694564,0.0167593713849782,0.0153773315250873,-0.0137383118271827,-0.0131826214492321,-0.0817008167505264,-0.0481283888067733,-0.0779933407902717,0.0534236617386341,173351101
437,-0.0605504289269447,0.0152784818783402,-0.0027206488884985,-0.0725177899003028,-0.0368720665574073,-0.062509499490261,-0.0242001414299011,0.0418323453202586,0.0236375108361244,-0.0877336412668228,47445127
438,-0.0117950327694416,-0.0226576160639524,0.0359989516437053,-0.0042808041907846,-0.0108476867899298,-0.00987952016294,0.0370761603116989,-0.037823309153594,-0.0490730144083499,0.0246097594499588,76920769
439,-0.0703153237700462,-0.0060566859319806,0.0184527300298213,-0.0201218128204345,-0.0241775531321764,-0.0119661148637533,0.1007867455482482,-0.0316437396835633,-0.0360457450151443,-0.0146176377311348,6754190
440,0.0326602607965469,-0.0176242273300886,-0.0324171334505081,-0.0214478820562362,-0.0191011782735586,-0.0388109646737575,-0.0206683464348316,-0.0743600190971528,-0.0267748497426509,-0.0511411502957344,19933028
441,-0.0362341105937957,0.0098435720428824,-0.036582201719284,-0.0314516499638557,-0.0242048595100641,-0.0272319801151752,-0.0306847468018531,-0.0211456919897747,-0.0426517240703105,-0.0344115197658538,191085080
442,0.02756411395967,0.0079644192010164,0.0437389202415943,0.0170431286096572,0.0016667490126565,0.0227285642176866,-0.031060779467225,-0.0042309082767048,-0.063072070479393,0.1041536107659339,34326285
443,0.1041917651891708,0.0497134551405906,-0.0907143428921699,0.0220855455845594,0.0106665734201669,0.0125675639137625,-0.0113700665533542,-0.1158343411102988,0.0132732233032584,-0.0363726876676082,12928037
444,0.0296618770807981,-0.0276701841503381,0.0484871342778205,0.011639392003417,0.0018397963140159,0.0037862400058656,-0.0203229673206806,-0.0391369120027954,-0.0372156389057636,0.0478346683084964,86177534
445,-0.0074711265042424,-0.0724924877285957,-0.0166235379874706,-0.0193648748099803,-0.0301478430628776,-0.0331055670976638,0.0040638833306729,-0.0245083377769082,-0.0608960464596748,-0.0030651506967842,192078523
446,0.009940106421709,0.0241616070270538,-0.0683971941471099,-0.0215832106769084,-0.0403760969638824,-0.0089168930426239,-0.0130013488233089,0.0142661387006858,0.0057131834328174,0.0027807201258838,200400506
447,-0.0165758654475212,0.0181283708661794,-0.0128511693328619,-0.0372463054955005,-0.015131177380681,-0.0212385579943656,-0.0338230207562446,0.0195457330441996,0.0194194875657558,-0.0238069891929626,879768
448,0.0172116570174694,-0.0279751606285572,-0.0452478118240833,0.0091439485549926,-0.0146460346877574,-0.0159005671739578,-0.0081643825396895,0.0016759095252693,-0.0097733261063694,0.0008260406320914,38106215
449,-0.0187560133635997,-0.0260305944830179,-0.0303293969482183,-0.0117115825414657,-0.03176961094141,-0.0067311599850654,-0.0037867124192416,-0.0446931529366563,-0.073483720421791,0.0056676757521927,98506381
450,-0.0234196167439222,-0.0377169176936149,-0.0263046994805336,-0.0026059909723699,-0.0178818944841623,0.0055957166478037,0.0213408395648002,-0.006455994483892,-0.0452179908752441,0.016901209950447,195696760
451,0.0389688052237033,-0.0963395535945892,0.0283629409968853,-0.0082832416519522,-0.0245686769485473,-0.020357122644782,-0.0412795506417751,-0.0530696990455961,-0.0714710429310798,0.0548990778625011,1058759
452,0.0518901534378528,0.017071021720767,-0.10282002389431,0.0114760240539908,-0.0058372267521917,0.0128672812134027,-0.0669702738523483,-0.013509494467748,-0.0134565085172653,0.0718511417508125,77580268
453,0.1249678833304198,0.0123971601724818,0.1108750938714328,0.0857426745192865,0.0620055790043293,0.0606776125816325,0.0712480695879843,0.0795693570823262,0.0340129678516731,0.0605298780725986,84470282
454,0.0088344430550932,-0.0163417253643274,0.0731958076357841,0.0092493612319231,-0.000543714617379,0.0117529071867465,-0.0213591791689395,-0.0053414624690929,-0.0461499616503715,0.0766029730439186,64177119
455,-0.0106279114261269,-0.0411807149648666,0.0076330606825649,-0.0208465829491615,-0.0358560681343078,-0.0158614069223403,0.0225798189640045,-0.060683291283681,-0.0621237717568874,0.0106086805462837,88880575
456,0.0370980352163314,-0.0789025798439979,-0.0197078417986631,0.0117631908506155,-0.0305449608713388,0.0084366668015718,-0.0609382912516593,-0.0319698055817709,-0.0452104173600673,0.063988871872425,73392382
457,0.0102631747722625,-0.1057352051138877,0.0115411840379238,-0.0382214784622192,-0.0400987230241298,-0.0789265483617782,-0.0283489003777503,-0.0959009306454723,-0.0963130295276641,-0.0461274161934852,194294684
458,-0.0561693161725997,0.0032975766807794,-0.0448104590177536,-0.036866083741188,-0.0471367388963699,-0.0226192474365234,0.0133643383160233,-0.0728690050971471,-0.0374002531170845,-0.0334532558917999,74945071
459,0.1111210137605667,-0.0062789185903966,0.0543486513197422,0.069289930164814,0.0426618158817291,0.0501891896128654,-0.0251632165163755,0.001083230624458,0.0043349526822566,0.0617175996303558,126242405
460,-0.0342501066625118,-0.0552134737372398,0.0169648267328739,-0.0330603346228599,-0.0344576388597488,-0.0495735630393028,0.0396510176360607,-0.0655880040173815,-0.0704088807106018,-0.0344329476356506,99092671
461,-0.0117631191387772,-0.0077306455932557,-0.0187177676707506,-0.0090613104403018,-0.0255914293229579,0.0042079994454979,0.035550657659769,-0.0572786404580122,-0.0497396998107433,0.0113136619329452,5099843
462,0.0102631710469722,-0.1057352051138877,0.0115411877632141,-0.0382214784622192,-0.0400987192988395,-0.0789265483617782,-0.0283489041030406,-0.0959009296313469,-0.0963130295276641,-0.0461274236440658,18860704
463,-0.0544175580143928,0.0103387143462896,-0.0506298206746578,-0.0283710919320583,-0.0207233019173145,-0.0255258977413177,-0.0149221252650022,0.0033460321790413,-0.0148485032841563,-0.0469872653484344,49065011
464,-0.0150700910016894,0.0319256074726581,-0.0046047214418649,-0.037219900637865,-0.04099602997303,-0.0344019010663032,-0.0121481753885746,0.0395951196911328,-0.0772939473390579,-0.0324395261704921,60623703
465,-0.0038828090764582,-0.0250556115061044,-0.0127032306045293,-0.0053399233147501,-0.0093795517459511,-0.0023985777515918,0.0033468566834926,0.0828692676968681,-0.1092997193336486,0.0709789246320724,102481856
466,0.0280881784856319,-0.0841172784566879,0.0077979220077395,0.0204234775155782,-0.0070074936375021,0.007496315985918,-0.0458884015679359,-0.0259671120770626,-0.0559786036610603,0.0608864016830921,44394807
467,-0.0484165251255035,0.0369123518466949,-0.0321161486208438,-0.0496692135930061,-0.0361776426434516,-0.0220258831977844,0.0054478254169225,-0.0276692526468831,-0.0165475942194461,-0.0272982418537139,98350726
468,-0.0290520470589399,-0.0366363674402236,0.0514861419796943,-0.008583853021264,-0.0209297463297843,-0.0004389421083033,-0.0217247381806373,-0.0492588423866691,-0.059909276664257,0.0475685149431228,18682509
469,-0.0137049216994896,-0.0561004371880869,0.0114132759452387,0.0187164101807122,0.0027473253228112,0.0030828230768369,0.0663486221633925,0.0646750489131566,-0.0304844451148206,-0.0365805751757611,4594647
470,-0.078763373196125,-0.004691750742495,0.0223884675651788,-0.0278991796076297,-0.0288165565580129,-0.0202205870300531,0.1076509207487106,-0.0352750861789935,-0.0445047318935394,-0.0227384883910417,54107666
471,-0.0453784167766571,-0.0425830483436584,0.0183207374066114,-0.0317700430750846,-0.0330473706126213,-0.0422353185713291,0.0566509924829006,-0.0580097766528271,-0.0639328509569168,-0.0315093398094177,186443103
472,-0.0832146257162094,0.0272396001964807,0.0038512509781867,-0.0334137640893459,-0.0298874415457248,-0.0135862175375223,0.1134906336665153,-0.0062024305074836,-0.0191699005663394,-0.0166348293423652,97759716
473,0.0102631710469722,-0.1057352051138877,0.0115411877632141,-0.0382214784622192,-0.0400987192988395,-0.0789265483617782,-0.0283489041030406,-0.0959009296313469,-0.0963130295276641,-0.0461274236440658,7843922
474,0.0085621923208236,-0.04881452023983,-0.0070670386776328,-0.0261435341089963,-0.0283795036375522,-0.048350054770708,-0.0132901836186647,-0.0953328586432462,-0.0531325414776802,-0.0428397245705127,124845535
475,0.0102631710469722,-0.1057352051138877,0.0115411877632141,-0.0382214784622192,-0.0400987192988395,-0.0789265483617782,-0.0283489041030406,-0.0959009296313469,-0.0963130295276641,-0.0461274236440658,7445076
476,0.0554091148078441,-0.0872623920440673,-0.0096510834991931,0.0275884009897708,0.0022403947077691,0.0059848427772521,-0.0118645448237657,-0.0800225433914992,-0.0555403381586074,0.0427692756056785,3855634
477,0.0085172494873404,0.026983929798007,0.1101655140519142,0.0063002351671457,0.0019182143732905,0.0065174256451427,0.0287536904215812,0.0623933163680124,-0.0603591054677963,0.07528767734766,17110600
478,-0.1034384415980463,0.1054316524858945,0.0186863371273889,-0.0206989117506007,0.0085815216359343,0.0373609907307967,0.0939080073639335,0.1761156482814615,0.0737625381989143,-0.0345976905466453,191388858
