,security,conformity,tradition,benevolence,universalism,self-direction,stimulation,hedonism,achievement,power,song_id
0,-0.0043637659400701,-0.001863713026978,-0.0297001209110021,-0.0034770239144563,-0.0084475707262754,0.0055216308683156,0.0365099757909774,-0.0278543978929519,-0.0206141844391822,0.0165640991181135,4116102
1,-0.0135935954749584,-0.0044403159990906,-0.0313096232712268,-0.0064835930243134,-0.0081543419510126,0.0050808303058147,0.0650780946016311,-0.0400984287261962,-0.0177942086011171,0.0098322089761495,80257632
2,-0.0141599122434854,-0.0088342176750302,-0.0389239974319934,-0.0098395934328436,-0.0089768460020422,0.0072170444764196,0.0759418234229087,-0.0444412380456924,-0.0288543291389942,-2.219248563051224e-05,2241308
3,0.0130334664136171,-0.0392771326005458,-0.0241064336150884,0.0037785065360367,-0.007345238700509,0.0105645218864083,0.0057989470660686,-0.0094756335020065,-0.0385871194303035,0.0245101880282163,204336669
4,0.0138923643947249,-0.0129663996422364,0.0246241909941196,0.0165302324020925,0.0058055723565263,0.0093824573276651,-0.0232214388581872,-0.0125612094534457,0.0229074349129563,0.0001018801576044,34952275
5,-0.0131809562444686,-0.0079838680103421,-0.0290430039167404,-0.0104686394333839,-0.011941835284233,-0.0025123972445726,0.0241074096411466,-0.0246179848909378,-0.0273323655128479,-0.0018178938189521,17390586
6,0.0008804104290902,0.0005711482372134,-0.0045455838553607,-0.0071835555136203,-0.0072665461339056,-0.000171250430867,0.0137199815362691,-0.0203147493302822,-0.0083423648029565,0.0021009526681154,9223300
7,-0.0060399640351533,0.0049764970317482,-0.0099908802658319,0.0087179318070411,-0.0054605868645012,0.0027531953528523,0.020757557824254,-0.036587219685316,0.0099831828847527,0.0418781675398349,149782763
8,0.0324432626366615,0.0190779734402894,0.0330130718648433,0.0014086728915572,0.0026673190295696,0.0076744854450225,0.0060269399546086,-0.0154393026605248,-0.0262733288109302,0.05589060485363,99962781
9,0.0152388336136937,-0.002357619581744,0.0114263342693448,-1.0096700862050056e-05,-0.001793815754354,0.0070754163898527,0.0004394788993522,-0.0034819929860532,0.0034624363761395,0.013286636210978,136930153
10,-0.0070303166285157,-0.0140811130404472,-0.0324120447039604,-0.0092182457447052,-0.0114162815734744,0.0011583514278754,0.0273199621587991,-0.0230015497654676,-0.0162371601909399,0.0001435689628124,85912872
11,-0.0326006979656637,-0.0210589705716903,-0.0042731218462944,-0.0024334290730483,-0.0059955643075554,0.0016112560609102,-0.0168587833120599,-0.0311677529390504,0.0024319965762714,-0.014338645793662,57005765
12,-0.0060399640351533,0.0049764970317482,-0.0099908802658319,0.0087179318070411,-0.0054605868645012,0.0027531953528523,0.020757557824254,-0.036587219685316,0.0099831828847527,0.0418781675398349,99567690
13,0.0253296494483947,-0.0316982455551624,-0.0280177034437656,0.0149522852152585,-0.0017849951982498,0.0194429010152816,0.0214461628347635,-0.0386104546487331,-0.0255352314561605,0.0338695421814918,151085454
14,-0.0098167788237333,0.0002680892357602,-0.0206502582877874,0.0011171689257025,-0.0068074651062488,0.0039170132949948,0.0429178327322006,-0.038342822343111,-0.0039055133238434,0.0258551910519599,134245347
15,-0.0154290460050106,-0.0075218612328171,-0.0273439493030309,-0.0114498920738697,-0.0070182811468839,0.0045800125226378,0.0598731860518455,-0.0336759388446807,-0.0239110309630632,0.0034460057504475,16074172
16,0.0008606898481957,-0.0033852201886475,-0.0131088821217417,-0.0054997969418764,-0.0025695851072669,0.0047290278598666,0.0210630856454372,-0.0298983454704284,-0.0064796078950166,0.0021151839755475,61210999
17,0.0152290035039186,-0.0138468239456415,-0.0131133869290351,0.0091536939144134,-0.0056410860270261,0.0042069149203598,-0.0388052314519882,-0.025683257728815,-0.023587042465806,0.0076958816498517,102814436
18,-0.0055470485240221,-0.0036047848407179,-0.0156910624355077,-0.0017639497527852,-0.010636443272233,0.0031378245912492,0.0013116567861288,-0.0096289170905947,-0.0226522367447614,0.0284667517989873,205113268
19,0.0097429463639855,0.00986307580024,-0.0138488262891769,-0.0070640672929584,-0.0087248878553509,-0.0034099831245839,-0.0109085347503423,-0.0209799986332654,-0.0384938344359397,0.0306881144642829,99526020
20,-0.0060399640351533,0.0049764970317482,-0.0099908802658319,0.0087179318070411,-0.0054605868645012,0.0027531953528523,0.020757557824254,-0.036587219685316,0.0099831828847527,0.0418781675398349,152156851
21,0.0229307115077972,-0.0082237012684345,0.0059980535879731,0.0046708602458238,-0.0022261815611273,0.0067108669318258,-0.017982019111514,0.0083278408274054,-0.0291796512901783,0.0472446866333484,17997657
22,0.0045181750319898,-0.0465902872383594,-0.0181163009256124,-0.0022256213705986,-0.0168524235486984,0.0012974169803783,-0.0148208867758512,-0.0399332866072654,-0.0311275608837604,0.0282726865261793,55713838
23,-0.0060399640351533,0.0049764970317482,-0.0099908802658319,0.0087179318070411,-0.0054605868645012,0.0027531953528523,0.020757557824254,-0.036587219685316,0.0099831828847527,0.0418781675398349,97622225
24,0.0121905729174613,0.0210654307156801,0.0186804980039596,-0.0109375063329935,-0.0051297433674335,-0.0060998718254268,0.0048382980749011,-0.0212095882743597,-0.0237796455621719,0.0308778434991836,114553438
25,0.0048638982698321,-0.0421060249209404,-0.01565508171916,0.0001299909199588,-0.0133618852123618,0.0047712940722703,-0.0298200361430645,-0.0428925827145576,-0.0582225546240806,0.0369719006121158,45138126
26,-0.010454349219799,-0.0040519228205084,-0.0229103751480579,-0.0057545974850654,-0.0082585997879505,0.0060788318514823,0.0257734041661024,-0.0345965437591075,-0.04404778778553,0.0154655557125806,51897534
27,-0.0046627786941826,-0.0290219131857156,-0.0239530634135007,-0.0035729671362787,-0.012107815593481,0.0031208428554236,0.0246175341308116,-0.0288934502750635,-0.0319889783859252,0.0164337456226348,74451241
28,-0.0060399640351533,0.0049764970317482,-0.0099908802658319,0.0087179318070411,-0.0054605868645012,0.0027531953528523,0.020757557824254,-0.036587219685316,0.0099831828847527,0.0418781675398349,6629722
29,0.0168455950915813,-0.0335480645298957,-0.0083134239539504,0.0025021261535584,-0.0107580721378326,0.0023805769160389,-0.0326444059610366,-0.0189867801964283,-0.0418039336800575,0.0285394191741943,111234596
30,0.0152384545654058,-0.0011475749779492,0.0117299761623144,0.0037330552004277,0.0032906054984778,0.0096617527306079,0.0099277505651116,-0.0019401398021727,-0.0047145513817667,0.0273817498236894,126273707
31,0.004110031761229,-0.0193362552672624,-0.0235705785453319,0.0018385028233751,-0.0058055017143487,0.0099899638444185,0.0314648076891899,-0.0280083939433097,-0.0227915123105049,0.0190706402063369,99567684
32,-0.0050496305339038,-0.0198500826954841,-0.021378269419074,-0.0108293611556291,-0.0107773384079337,-0.0003963343333452,0.0229373779147863,-0.0404612235724926,-0.0181846898049116,0.0041783316992223,102339234
33,-0.0196620002388954,-0.0024347668513655,-0.029111610725522,-0.0081101777032017,-0.0114648099988698,-0.003966748714447,0.0220383815467357,-0.0228684414178133,-0.0231273546814918,0.0036897722166031,1632500
34,0.0148014239966869,-0.0128680076450109,0.0132262259721755,0.0084214936941862,0.003866437356919,0.0073756603524088,0.0056438213214278,-0.0020948916207998,-0.0298294983804225,0.0583196729421615,35094579
35,-0.0084339320894923,0.0214248413083443,0.0202430441966461,-0.0021810157616987,0.0138177677475766,0.0033467400531833,0.0043608270390361,0.0129233289115835,0.0655919945349005,0.0032241573182203,16843548
36,-0.0030380098614841,-0.0116355400532484,-0.0220068525522947,-0.0101887481287121,-0.0154896527528762,-0.003510812530294,0.0153161799535155,-0.0202090702950954,-0.0330027937889099,0.0169192031025886,106839634
37,0.0203373059630393,-0.0369360707700252,-0.0064976005814969,0.0116666881367564,-0.0043026190251111,0.0126041229814291,-0.0054829567670822,-0.0077645359560847,-0.0411014817655086,0.0403613559901714,134245346
38,-0.0145378056913614,-0.0056174164637923,-0.033974464982748,-0.0083837825804948,-0.0084910597652196,0.0053717852570116,0.07061817497015,-0.0405373387038707,-0.0212663803249597,0.0058264653198421,5635960
39,-0.0042809238657355,-0.0107864048331975,-0.0328441336750984,-0.0079456316307187,-0.0091152805835008,0.0040949960239231,0.047123048454523,-0.0237372256815433,-0.0314063616096973,-0.0038599874824285,142836663
40,-0.0092248423025012,-0.0128779336810112,-0.0202818922698497,-0.0062804124318063,-0.0052463663741946,0.0084455087780952,0.0245074182748794,-0.0278773605823516,-0.0460523106157779,0.0216263197362422,152156857
41,0.0129373539239168,-0.006414080504328,-0.0016461694613099,-0.0054510040208697,-0.0067346571013331,0.0011004648404195,0.0029261712916195,-0.0224300622940063,-0.0307071916759014,0.0145384017378091,84371480
42,-0.0173704177141189,-0.0091487327590584,-0.0419689752161502,-0.0140843521803617,-0.0095012141391634,0.0062446501106023,0.0872383713722229,-0.0418540462851524,-0.031682901084423,-0.0061907703056931,46337905
43,0.024619523435831,-0.0523532517254352,-0.006488493643701,0.0090171098709106,-0.0007909630076028,0.0160075388848781,-0.0017661043675616,0.0132525926455855,-0.0444971546530723,0.0368405804038047,828136
44,-0.0096190618351101,-0.0010840590111911,-0.0190081745386123,-0.0020064767450094,-0.0037400065921247,-0.0007491029682569,0.0093545950949192,-0.0170763898640871,-0.019014349207282,0.0047126458957791,64471701
45,-0.0369123975990787,-0.030964636633265,-0.0624868554936155,-0.026412545849588,-0.0302046964694549,-0.0249718235116475,-0.0625361562480363,-0.0095876420317594,-0.035127482269223,0.0058844750157509,80988232
46,-0.0158463362604379,-0.0071526733227074,-0.0364549309015274,-0.0119632855057716,-0.0102857779711484,0.0041274214163422,0.0559501536190509,-0.0452293716371059,-0.0378059037029743,0.0008839778602123,76983686
47,0.0445563867688179,-0.0014100298285484,0.0181593894958496,0.0271696597337722,0.0074622882530093,0.029584189876914,-0.0166845228523015,-0.0355834476649761,-0.0424553751945495,0.071914404630661,148763951
48,-0.0053986320272088,-0.0025709560140967,-0.0326816476881504,-0.0054335109889507,-0.0077482871711254,0.0044639389961957,0.0453633889555931,-0.0287458226084709,-0.0269340239465236,0.0050949519500136,139654441
49,0.0057887118309736,0.0207653027027845,0.0637631192803382,1.835264265537262e-05,0.0041903341189026,-0.0227859318256378,0.0527689047157764,0.0371167920529842,0.0079611428081989,-0.0401200391352176,55441816
50,-0.0098167788237333,0.0002680892357602,-0.0206502582877874,0.0011171689257025,-0.0068074651062488,0.0039170132949948,0.0429178327322006,-0.038342822343111,-0.0039055133238434,0.0258551910519599,2107983
51,0.0623751394450664,0.0609415136277675,-0.0001390241086483,0.0158549565821886,0.0111977336928248,0.0136934872716665,-0.0344379357993602,0.0102020232006907,0.0227236207574605,-0.0079292925074696,57005772
52,0.0093140574172139,-0.0016819478478282,-0.0123900454491376,0.0027977740392088,-0.0093431118875741,0.0026050002779811,-0.016226653009653,-0.0241905599832534,-0.0370255522429943,0.0346014685928821,2565059
53,-0.0085314307361841,-0.0116620175540447,-0.0360514633357524,-0.0064561394974589,-0.0076903970912098,0.0082273948937654,0.0683668106794357,-0.040710512548685,-0.0261208862066268,0.006113096140325,98114160
54,-0.0117051927372813,-0.0020861155353486,-0.0259799342602491,-0.0026832118164747,-0.0074809035286307,0.0044989213347435,0.0539979673922061,-0.0392206273972988,-0.0108498632907867,0.0178437028080225,49562778
55,-0.0013314138632267,-0.0057240300811827,-0.0287364963442087,-0.0045496048405766,-0.0050893230363726,0.0092122834175825,0.0463653989136219,-0.0319183133542537,-0.0287429541349411,0.0081897675991058,19226344
56,0.0110689681023359,-0.0146665126085281,-0.0256891753524541,0.0005652689142152,0.0025033925194293,0.005698574706912,0.028319226577878,-0.0174596756696701,-0.0220228675752878,0.0069283274933695,152156863
57,-0.0251763723790645,0.0345957316458225,0.004450365435332,-0.0165728777647018,-0.0011667229700833,-0.0232266746461391,0.0388383716344833,0.059368185698986,0.018157634884119,-0.0561200156807899,136884961
58,-0.0134123004972934,-0.0133359432220458,-0.0075448057614266,-0.0018029420170933,-0.0087107522413134,0.0006619500927627,-0.0105945449322462,-0.0005033608758822,-0.0331236310303211,0.0418255366384983,1632495
59,-0.0060399640351533,0.0049764970317482,-0.0099908802658319,0.0087179318070411,-0.0054605868645012,0.0027531953528523,0.020757557824254,-0.036587219685316,0.0099831828847527,0.0418781675398349,1027136
60,-0.006789487786591,-0.0194834768772125,0.0081176524981856,-0.0132501814514398,-0.0008544381707906,-0.0084102125838398,0.0229060258716344,-0.0199324991554021,0.0320193842053413,-0.006037498358637,17326775
61,0.0025762498844414,-0.0166881568729877,-0.0084424726665019,-0.0001836187439039,-0.0049236482009291,0.0073909424245357,0.0071726888418197,-0.0116928350180387,-0.0387514047324657,0.024402942508459,2323034
62,0.0391686409711837,-0.0699028223752975,0.0074681411497294,0.0188940409570932,-0.0019358582794666,0.0157263316214084,-0.0546401888132095,0.0173135455697774,-0.0486361049115657,0.0592609606683254,152997654
63,-0.0012984424829483,-0.0347609892487525,-0.0244198497384786,0.0007377128349617,-0.0105983167886734,0.0081213908270001,-0.0031686639413237,-0.0443319156765937,-0.0464623346924781,0.0275907628238201,134245351
64,0.0058225085958838,-0.0080617275089025,-0.0141888791695237,-0.0003404077142477,-0.0087174493819475,0.0050861788913607,0.0097938850522041,-0.0495800264179706,-0.0288887862116098,0.0342734828591346,59403627
65,-0.0035596159286797,-0.0058153187856078,-0.0042928392067551,0.0051207304932177,-0.0032260497100651,0.006699782796204,-0.0087329810485243,-0.0252439361065626,-0.0252192635089159,0.0456607900559902,113169861
66,-0.012334662489593,-0.0028708612080663,-0.0277564991265535,-0.0039500067941844,-0.007705383002758,0.0046928930096328,0.0576913468539714,-0.0395132265985012,-0.0131646422669291,0.0151731949299573,56800868
67,-0.0173704214394092,-0.0091487327590584,-0.0419689789414405,-0.0140843540430068,-0.0095012160018086,0.0062446501106023,0.0872383788228035,-0.0418540425598621,-0.0316829048097133,-0.0061907712370157,34373547
68,-0.0001076814951375,0.0013827546499669,-0.0107040284201502,-0.0061357449740171,-0.0045854547061026,-0.0003103038761764,0.005714857019484,0.0117435129359364,-0.0205658841878175,0.0297372844070196,3671199
69,-0.0031406171619892,-0.013068594969809,-0.0289317183196544,-0.005244895350188,-0.0061527313664555,0.0083245169371366,0.0550985783338546,-0.0269584450870752,-0.0271312352269887,0.0078368438407778,210971961
70,0.0174990855157375,-0.017498604953289,0.0083091361448168,-0.0022670056205242,-0.0066521214321255,-0.0007775586564093,-0.0301260706037282,0.0113317826762795,-0.0170505233108997,0.0080105699598789,163661563
71,-0.0139234773814678,-0.0086712976917624,-0.0245320200920104,-0.0029813614673912,-0.004147685598582,0.0051460294052958,0.0284733399748802,-0.0316782742738723,-0.0272790566086769,0.0042917346581816,57005722
72,0.0111445058137178,-0.0295124873518943,-0.0117536401376128,0.0067226677201688,-0.0019386822823435,0.008566646836698,0.0254381820559501,-0.0061128479428589,-0.0382637903094291,0.0447631478309631,93918535
73,-0.0032129159662872,0.00120968837291,-0.0095074549317359,0.0002366781700402,-0.0079041542485356,0.0005105170421302,-0.0237306933850049,-0.0454377457499504,-0.0403202697634696,0.0353610180318355,49652179
74,0.0014659372391179,-0.0268206931650638,-0.0172810479998588,-0.0036762570962309,-0.0154833905398845,-0.0021314469631761,-0.0155350416898727,-0.0229240339249372,-0.0352144539356231,0.015848821029067,188693345
75,-0.0033118275459855,-0.0150686167180538,-0.0167428404092788,-0.0077285328879952,-0.0094690173864364,0.0017470829188823,0.0259284395724535,0.0088349971920251,-0.0018946039490401,0.0103430626913905,11100005
76,-0.0109593467786908,-0.0079007353633642,-0.0156988762319087,-0.0024076320696622,-0.0042551830410957,0.0077141737565398,0.0317544229328632,-0.0312150530517101,-0.0374999716877937,0.0294461101293563,17086876
77,-0.0010792682878673,-0.0166071355342865,0.001405200920999,0.0015235315077006,-0.0009915127884596,0.0106463730335235,-0.038223523646593,-0.0139006562530994,-0.0604217275977134,0.0494434088468551,102112552
78,-0.0155472001060843,-0.0087550627067685,-0.0389585942029953,-0.013347228989005,-0.0092986272647976,0.0064045540057122,0.0810763239860534,-0.0400928035378456,-0.0324429795145988,-0.0041516064666211,68242601
79,-0.0014015738852322,0.0004767716163769,-0.0205917246639728,-0.0107023855671286,-0.0047216550447046,0.0047647883184254,0.0555867850780487,-0.0169787108898162,-0.0224620457738637,-0.0023724804632365,86451188
80,0.0045368168503046,-0.0113409655168652,-0.0282684341073036,0.0122729679569602,-0.0066531198099255,0.0151876453310251,0.0190263055264949,-0.0643071830272674,-0.0229429602622985,0.0271348915994167,17612683
81,-0.0240105818191538,-0.0217060943418143,-0.0421890454748284,-0.0173428891580673,-0.0159959808583232,-0.0001828477756597,-0.0089688160683913,-0.0373414222604404,0.0152693622801531,-0.0142989023075176,59543419
82,0.021438643336296,-0.0346454754471778,8.535815868526697e-05,0.0070830201730132,-0.0076507083140313,0.0054414561018347,-0.0496128164231777,0.0035464714746922,-0.0384078510105609,0.0369166396558284,124205317
83,-0.0218582525849342,0.0409530289471149,0.0026137698441743,-0.0187296513468027,-0.0098215267062187,-0.0101952739059925,-0.0238555930554866,-0.0207045823335647,-0.0249359402805566,-0.0347480066120624,195065492
84,-0.0098167788237333,0.0002680892357602,-0.0206502582877874,0.0011171691585332,-0.0068074651062488,0.0039170132949948,0.0429178327322006,-0.038342822343111,-0.0039055128581821,0.0258551910519599,57544795
85,-0.0080839125439524,-0.0095047950744628,-0.0275029502809047,-0.0077559468336403,-0.0072985785081982,0.0053211343474686,0.0585369579493999,-0.0370207801461219,-0.0287728998810052,0.0092767495661973,85345213
86,0.0193447023630142,0.0096606453880667,0.0082215396687388,-0.002414631191641,0.0016977123450487,0.0075354557484388,0.0017768004909157,0.0155397271737456,-0.0196144040673971,0.0043827295303344,14469100
87,0.0094747180119156,-0.0134423533454537,-0.0154406400397419,0.0033410498872399,-0.002074247226119,0.0114228464663028,0.0189985334873199,-0.015689767897129,-0.0275768972933292,0.0221250336617231,5315847
88,-0.0053687081672251,0.0098073258996009,-0.025230161845684,-0.005847817286849,-0.0034490248654037,-0.0002430115127936,0.0565362349152565,-0.0500473901629447,-0.0032179555855691,0.0013377433642745,134245359
89,-0.0173704214394092,-0.0091487290337681,-0.0419689789414405,-0.0140843540430068,-0.0095012160018086,0.0062446487136185,0.0872383788228035,-0.0418540500104427,-0.0316829085350036,-0.0061907721683382,99480601
90,0.0121907629072666,0.021620076149702,0.0017597441328689,-0.0021646386012434,-0.0032777695450931,0.0074128462001681,-0.0127879437059164,-0.0053350403904914,-0.0366831645369529,0.0533315539360046,46178447
91,0.0486921221017837,0.0497485101222991,-0.0021093976683914,0.014427550137043,0.0078660696744918,0.0115054287016391,-0.0233988296240568,0.0008441662648692,0.0201755426824092,0.002032202668488,60637252
92,-0.0360453873872756,0.0127921449020504,0.0294300261884927,-0.033854391425848,0.001716939616017,-0.0207076147198677,0.0488956607878208,0.0032876359764486,0.0851630419492721,-0.0402499921619892,67809135
93,0.0623751394450664,0.0609415136277675,-0.0001390241086483,0.0158549565821886,0.0111977336928248,0.0136934872716665,-0.0344379357993602,0.0102020232006907,0.0227236207574605,-0.0079292925074696,103553857
94,-0.0060399640351533,0.0049764970317482,-0.0099908802658319,0.0087179318070411,-0.0054605868645012,0.0027531953528523,0.020757557824254,-0.036587219685316,0.0099831828847527,0.0418781675398349,200750991
95,-0.0060399640351533,0.0049764970317482,-0.0099908802658319,0.0087179318070411,-0.0054605868645012,0.0027531953528523,0.020757557824254,-0.036587219685316,0.0099831828847527,0.0418781675398349,181695848
96,-0.0117051927372813,-0.0020861155353486,-0.0259799342602491,-0.0026832118164747,-0.0074809035286307,0.0044989213347435,0.0539979673922061,-0.0392206273972988,-0.0108498642221093,0.0178437028080225,7308736
97,0.0051277787424623,-0.0031638070940971,-0.0310075152665376,-0.0054810061119496,-0.0056304787285625,0.0094265304505825,0.0548684708774089,-0.0226945839822292,-0.0217023659497499,-7.332209497690201e-05,76169655
98,0.0061894748359918,-0.0262473262846469,-0.0061994199641048,0.0029847072437405,-0.0085087670013308,0.0044214995577931,-0.0499175749719142,-0.0264401324093341,-0.0570595115423202,0.0429683476686477,17614637
99,0.0044636828824877,-0.0125196333974599,0.0128170847892761,-0.0017703617922961,-0.0018003957811743,0.0053249103948473,0.0249323956668376,0.0061705610714852,-0.0288751646876335,0.043171901255846,129997203
100,0.0076320245862007,-0.0385080128908157,-0.0277379229664802,-0.003128423821181,-0.020931638777256,-0.0049692885950207,-0.0492924489080905,-0.0495926514267921,-0.0511575862765312,0.021567178890109,86981001
101,0.0152429193258285,0.0016105291433632,0.017149606719613,0.0006409673951566,-0.000562130997423,0.0075438907369971,0.0011120105627924,-0.000929667148739,-0.0003660046495497,0.018528826534748,178303212
102,0.0426531806588172,-0.004516378045082,0.0353237241506576,0.0200289618223905,0.0146959461271762,0.0194996204227209,-0.0090194568037986,0.0253985729068517,0.0063490234315395,0.0332830399274826,58693284
103,0.0111105637624859,-0.0106259286403656,0.0035798922181129,0.0063797868788242,-0.0064713335596024,0.006283679511398,-0.0248682163655757,-0.0360877178609371,-0.0383417345583438,0.0509159751236438,203148074
104,-0.005407590419054,-0.0128661757335066,-0.013352982699871,-0.003059685928747,-0.0053140642121434,0.0055422326549887,0.0209731720387935,0.0004601757973432,-0.0259181372821331,0.011700821109116,17516504
105,-0.0038943937979638,-0.0399566814303398,-0.0268109273165464,-0.006869725883007,-0.0218018610030412,-0.0073188920505344,-0.0055673234164714,-0.0624832548201084,-0.0359741523861885,0.0133240493014454,51846914
106,-0.0097217094153165,-0.0029718060977756,-0.0313137881457805,-0.0073811742477118,-0.0070700109936296,0.0063256016001105,0.060968916863203,-0.036218162626028,-0.022820197045803,0.0054623102769255,212958532
107,-0.004107994493097,0.0032043741084635,-0.0094018224626779,-0.0103841572999954,-0.0063230888918042,-0.0055828932672739,-0.0051314271986484,-0.01160544808954,0.0057831984013319,-0.0025544366799294,2135522
108,-0.0023959456011652,-0.0076882196590304,-0.0108088701963424,-0.0099820336326956,-0.0108909979462623,-0.0002657633740454,0.01752002350986,-0.0157464835792779,-0.0208541974425315,0.0136936223134398,90910059
109,-0.01202845107764,-0.0031143496744334,-0.0324246399104595,-0.0102441702038049,-0.0072582885622978,0.0042487820610404,0.0677308738231659,-0.036001905798912,-0.0274799186736345,0.0014349312987178,1629358
110,-0.0098167788237333,0.0002680892357602,-0.0206502582877874,0.0011171689257025,-0.0068074651062488,0.0039170132949948,0.0429178327322006,-0.038342822343111,-0.0039055133238434,0.0258551910519599,134245357
111,-0.0135935954749584,-0.0044403159990906,-0.0313096232712268,-0.0064835930243134,-0.0081543419510126,0.0050808303058147,0.0650780946016311,-0.0400984287261962,-0.0177942086011171,0.0098322089761495,2037677
112,0.005657885223627,0.0129214785993099,-0.0047039436176419,-0.0087277190759778,-0.0013960559153929,0.0034289816394448,0.0307569447904825,0.0025175823830068,-0.0408059507608413,0.038612175732851,71041493
113,0.0081005934625864,0.0160887241363525,-0.012420842424035,-0.0119301574304699,-0.001494703348726,0.0031461077742278,0.0488944761455059,-0.0007985552074387,-0.0121501302346587,-0.0088640972971916,99470365
114,-0.0153709221631288,-0.0066560432314872,-0.0363257899880409,-0.0100604221224784,-0.0087881665676832,0.0056285094469785,0.0755064710974693,-0.040924597531557,-0.0243300702422857,0.0022919843904674,1261561
115,-0.026857515797019,0.0095901740714907,0.0130442604422569,-0.0269341543316841,-0.0026172294747084,-0.0167145188897848,0.0416484177112579,-0.0025221379473805,0.0577633939683437,-0.0244797803461551,41571963
116,-0.0027409486938267,-0.0198648646473884,-0.0104913394898176,-0.0009381892159581,-0.0055509759113192,0.0080509921535849,-0.0115931089967489,-0.0267042648047208,-0.0506112910807132,0.0368080586194992,51113095
117,-0.0173704214394092,-0.0091487327590584,-0.0419689789414405,-0.0140843540430068,-0.0095012160018086,0.0062446501106023,0.0872383788228035,-0.0418540425598621,-0.0316829048097133,-0.0061907712370157,76169642
118,0.0088464617729187,-0.0168468132615089,-0.0080080162733793,-0.0065533122979104,-0.0115134948864579,-0.0037404044996947,-0.0376096628606319,0.0220138560980558,-0.0351625308394432,0.0104175768792629,109965166
119,-0.0173704214394092,-0.0091487327590584,-0.0419689789414405,-0.0140843540430068,-0.0095012160018086,0.0062446501106023,0.0872383788228035,-0.0418540425598621,-0.0316829048097133,-0.0061907712370157,84279791
120,-0.0210426766425371,0.0088843209668993,0.0097195729613304,-0.0125682288780808,-0.0018718248466029,-0.0089772092178463,0.03482661023736,-0.0166497882455587,0.047573123127222,0.0008140923455357,194171766
121,0.0078034084290266,-0.031581237912178,-0.0150456838309764,0.0090060848742723,-0.0092639364302158,0.006384443026036,-0.0102096749469637,-0.0189342331141233,-0.024023775011301,0.0406713038682937,18271679
122,-0.0005484176799654,0.0006164559163153,-0.0031688208691775,-0.0029589468613266,-0.0027676033787429,0.0046249721199274,0.031434528529644,-0.0151087427511811,-0.0220320243388414,0.0339770056307315,58470789
123,-0.0263638012111186,0.0029220194555819,-0.0006251991726458,-0.0232524443417787,-0.0029779667966067,-0.0082330983132123,0.0592098720371723,-0.0162692759186029,0.0317313484847545,-0.0205417647957801,4194332
124,0.0099306246265769,-0.0081447251141071,0.0176048874855041,0.0009812356438487,-0.0002952017821371,0.0056153400801122,0.0142849311232566,0.010515097528696,-0.0243567619472742,0.0458516888320446,18167326
125,-0.00376643310301,0.0017793516162782,-0.0256197080016136,-0.0143608022481203,-0.0065010315738618,0.0013241416309028,0.0376547202467918,-0.0222753714770078,-0.0120184253901243,-0.0055508967489004,84351638
126,-0.0101616941392421,-0.0202391110360622,-0.0272534694522619,-0.0022699851542711,-0.0080919079482555,0.0063264030031859,0.0347558744251728,-0.0245633069425821,-0.0370946861803531,0.0082928566262125,77891076
127,-0.0120444511994719,0.0174460522830486,-0.0558726750314235,-0.0030043518636375,-0.0179746467620134,-0.0024285642430186,-0.0342446118593215,0.014048826880753,-0.0292666722089052,0.0358759239315986,179755765
128,0.0134971346706151,0.0003114220453426,-0.017741085961461,0.0101222395896911,-0.0035919845104217,0.0180845856666564,0.0232848040759563,-0.0170281585305929,-0.0398391149938106,0.0273752622306346,82816346
129,-0.0173704214394092,-0.0091487327590584,-0.0419689789414405,-0.0140843540430068,-0.0095012160018086,0.0062446501106023,0.0872383788228035,-0.0418540425598621,-0.0316829048097133,-0.0061907712370157,30401956
130,-0.0104091800749301,-0.0061975950375199,-0.0185303092002868,-0.0124879442155361,-0.0124023016542196,-0.0114173535257577,-0.0211005993187427,-0.0165827702730894,-0.0124506158754229,-0.0057453317567706,109598935
131,-0.0145378056913614,-0.0056174164637923,-0.033974464982748,-0.0083837825804948,-0.0084910597652196,0.0053717852570116,0.07061817497015,-0.0405373387038707,-0.0212663803249597,0.0058264653198421,111304309
132,0.0063678197087901,0.0037499770414854,0.0006187754176207,-0.0117491404370398,0.0022183040477967,-0.0024180308427715,-0.0254122439938564,-0.0344249432215588,-0.0094226769653635,0.008215861252965,134245353
133,-0.0085890647023916,-0.0029897247441112,-0.0206632036715745,-0.0071435971185564,-0.0060278819873929,-0.0059654805809259,-0.0095161814242601,-0.0045264936052262,-0.0023816307075321,-0.0039400337263941,32800026
134,-0.004079895094037,-0.0168715231120586,-0.0187632758170366,0.0015533110126852,-0.0042579621076583,0.0075661810114979,-0.0031706455629318,-0.0224923882633447,-0.0310470685362815,0.0339826606214046,57241602
135,0.0053165815770626,-0.0172502249479293,-0.0174583010375499,-0.0062423134222626,-0.0155863184481859,0.0016774591058492,-0.0058332085609436,-0.001194521668367,-0.0379219241440296,0.0301506351679563,7946252
136,0.0391840897500515,0.0097182802855968,0.0110711744055151,-0.0093916989862918,-0.0078276647254824,-0.0055971750989556,-0.0414316691458225,0.016320189461112,-0.0094019677489995,0.0231983214616775,108107289
137,-0.0089094741269946,-0.0163675993680953,-0.0361697003245353,-0.0087489569559693,-0.0131088942289352,0.0032010870054364,0.039203368127346,-0.0394585281610488,-0.0294718462973833,0.0097014009952545,64185077
138,-0.016340373083949,-0.0078646205365657,-0.0390618816018104,-0.0120114190503954,-0.0091338884085416,0.0059272437356412,0.0811946541070938,-0.0413752272725105,-0.0278950706124305,-0.0018208720721304,83511139
139,0.0214885715395212,0.003389477264136,0.0037059877067804,0.0053653437644243,-0.0021109976805746,0.0078492956236004,0.0050807227380573,-0.0123149063438177,-0.0187215637415647,0.0369238629937171,50343962
140,-0.0373180557038398,0.0120426741144259,-0.037338651998338,-0.0020679109865763,0.0034766804192773,-0.0026567295261041,0.0172429821980574,0.0207896413034205,0.0015116607219343,0.0308599559221173,199050935
141,-0.0101527934893965,-0.0035317786969244,-0.0241218954324722,-0.0058574564754962,-0.0064914948306977,0.0062659648247063,0.0519194789230823,-0.03662696108222,-0.0257784146815538,0.0174721032381057,50820032
142,0.0117508899420499,-0.004639389924705,-0.0183599237352609,0.0010797954164445,-0.0120099270716309,0.0009579316247254,-0.0131349172443151,0.0012906487099826,-0.0156632661819458,0.0174631867557764,82020498
143,-0.0061287553980946,-0.0028488496318459,-0.0273729525506496,-0.0064518665894865,-0.0057049454189836,0.0074047204107046,0.0473219193518161,-0.0315604396164417,-0.0281742736697196,0.0081363879144191,9474028
144,-0.0060399640351533,0.0049764970317482,-0.0099908802658319,0.0087179318070411,-0.0054605868645012,0.0027531953528523,0.020757557824254,-0.036587219685316,0.0099831828847527,0.0418781675398349,55179313
145,-0.0124578839167952,-0.0182914715260267,-0.0430553033947944,-0.0117083080112934,-0.01468660030514,-0.0005496374797075,0.047268621623516,-0.0354457385838031,-0.0370900556445121,-0.0004675413947552,60392809
146,0.0125565025955438,-0.048969954252243,-0.0108610047027468,0.0089341755956411,-0.0178634785115718,0.0003789856564253,-0.0533186197280883,-0.0551940314471721,-0.0397620983421802,0.0507648698985576,92235366
147,-0.0006905478076077,0.0151990037411451,-0.0357405804097652,-0.0027919858694076,-0.0061051407828927,0.0054176580160856,0.0052069053053855,-0.0142582636326551,-0.0157470405101776,0.0049789426848292,93296295
148,0.0099072596058249,-0.0099112391471862,-0.0131743438541889,0.0003029249492101,-0.0078140497207641,0.0060852426104247,-0.0048941588029265,-0.0249919332563877,-0.0412451922893524,0.0276236329227685,3352568
149,-0.0116078723222017,-0.0074522588402032,-0.0162313245236873,-0.0067288489080965,-0.0050563644617795,0.0048839589580893,0.0311423726379871,-0.0278966389596462,-0.0245810020714998,0.0175271779298782,79219366
150,-0.0108958780765533,-0.0010771784000098,-0.0236957911401987,-0.0010544778779149,-0.0071922861970961,0.0042495322413742,0.0492493361234664,-0.0388444252312183,-0.0078737121075391,0.0212771948426961,193273536
151,0.020841084420681,0.0301683451980352,0.0140013806521892,0.0017153120134025,-0.00375118246302,0.0051056137308478,-0.0362593755125999,-0.0322133637964725,-0.057783767580986,0.0657192096114158,5434805
152,-0.005129050463438,-0.0142958872020244,-0.0114308083429932,0.0065098055638372,-0.0039815083146095,0.0086961891502141,0.0093304878100752,-0.0323845222592353,-0.0225635338574647,0.0311279892921447,115765914
153,0.0003801594721153,-0.0181180853396654,-0.0318325348198413,6.988819222897291e-05,-0.0071049649268388,0.0049685053527355,0.0093787387013435,-0.026641285046935,-0.043134044855833,0.0111841289326548,2860796
154,-0.0088808021929549,-0.0040402108846501,-0.0072220103013558,-0.0086274853687515,-0.0086729569783348,-0.006294438526157,-0.0425227342878206,-0.0320897349258258,-0.0310717649019398,0.0019512847156637,125480482
155,0.0074036326259374,-0.0360752791166305,-0.0195900276303291,-0.0024752125609666,-0.016166117042303,0.0004357281140983,-0.0233097560703754,-0.0252246391028165,-0.0461265631020069,0.0216962397098541,169366451
156,0.0174499489367008,-0.0308458767831325,-0.0261642411351203,-0.0006265851552598,-0.0139093976467847,0.001665090676397,-0.0187201052904129,-0.0667012855410575,-0.0443720184266567,0.0189959928393363,14884938
157,0.0424643643200397,0.0090832458809018,0.0051170820370316,0.0222737416625022,0.0137570928782224,0.0198945738375186,-0.0132897710427641,-0.0270667560398578,-0.0032342579215765,0.0369313284754753,55614776
158,0.0016085541574284,-0.0210330598056316,-0.0310389474034309,0.0001838154857978,-0.007774737663567,0.0096292132511734,0.0421346463263034,-0.0422003902494907,-0.0279331635683774,0.0179613437503576,15738922
159,0.0032980432733893,-0.0049884710460901,-0.016063330695033,-0.0048837107606232,-0.0057130409404635,0.0080383419990539,0.0044369511306285,-0.0151001522317528,-0.0373621918261051,0.0182167794555425,83380751
160,-0.0081957317888736,-0.0103194452822208,-0.0186166614294052,-0.0039704544469714,-0.006017355248332,0.0070338686928153,0.0156865194439888,-0.0278263725340366,-0.0408467166125774,0.0247267261147499,1284914
161,-0.0173704214394092,-0.0091487327590584,-0.0419689789414405,-0.0140843540430068,-0.0095012160018086,0.0062446501106023,0.0872383788228035,-0.0418540425598621,-0.0316829048097133,-0.0061907712370157,3998623
162,0.0205934364348649,0.014151519164443,0.0112180830910801,0.0100247506052255,0.0031128036789596,0.0188518986105918,-0.0006472533568739,-0.049366045743227,-0.050979271531105,0.0577715337276458,3777800
163,-0.0185917410999536,0.0068682450801134,-0.0230789221823215,-0.0071813110262155,-0.0073233861476182,0.0062146098352968,0.0652370974421501,-0.0353005304932594,-0.0116664189845323,0.0107326507568359,195760279
164,-0.0153717063367366,-0.0028041626792401,-0.012453612871468,-0.0158258955925703,-0.0051402361132204,-0.0030276835896074,0.047010950744152,0.0102042593061923,0.0030122608877718,-0.0055835233069956,164950564
165,0.0135660413652658,-0.0179452188313007,-0.0212576445192098,0.0126144029200077,-0.0031633418984711,0.0131842624396085,0.0211879406124353,-0.0378517359495162,-0.0122158303856849,0.036872774362564,7908339
166,0.013024253770709,-0.035448383539915,-0.0211393870413303,0.0046897642314434,-0.0130807049572467,0.0032147073652595,-0.031798381358385,-0.0181024745106697,-0.0424108877778053,0.0291715376079082,90166650
167,-0.0055151781998574,-0.0058976020663976,-0.013489150442183,-0.0083323279395699,-0.0068660825490951,0.0002018916420638,0.0310466606169939,-0.0332776717841625,-0.0064453692175447,0.0096033783629536,65079014
168,0.0025561954826116,-0.0058075785636901,-0.0299124848097562,0.0004175679641775,-0.0141616538166999,-0.0010958209168165,-0.0237303767353296,0.0027359945233911,-0.0420296713709831,0.0192249082028865,66117517
169,-0.0017022958490997,0.020721361041069,-0.0083687016740441,-0.0048270281404256,0.0007917228504084,-0.0001827176893129,-0.0077342432923614,0.0237445663660764,-0.0054236333817243,0.0052832663059234,99386143
170,-0.0060399640351533,0.0049764970317482,-0.0099908802658319,0.0087179318070411,-0.0054605868645012,0.0027531953528523,0.020757557824254,-0.036587219685316,0.0099831828847527,0.0418781675398349,96457658
171,-0.0015656512696295,-0.0133401248604059,-0.0095527758821845,-0.0033028945326805,-0.0075596729293465,0.0056242747232317,0.0095120193436741,-0.0132066793739795,-0.0278693996369838,0.0219615045934915,19550437
172,-0.0117051927372813,-0.0020861155353486,-0.0259799342602491,-0.0026832118164747,-0.0074809035286307,0.0044989213347435,0.0539979673922061,-0.0392206273972988,-0.0108498642221093,0.0178437028080225,87029402
173,0.0021059047430753,-0.0292774066329002,-0.0198722463101148,0.0009443968301638,-0.0083273276686668,0.0095785604789853,0.0048382678069174,-0.0241193156689405,-0.0412769727408885,0.0266962870955467,102675336
174,-0.0173704214394092,-0.0091487327590584,-0.0419689789414405,-0.0140843540430068,-0.0095012160018086,0.0062446501106023,0.0872383788228035,-0.0418540425598621,-0.0316829048097133,-0.0061907712370157,49331390
175,0.0109292240813374,-0.0205519311130046,-0.0187026187777519,-0.0111424885690212,-0.0285213608294725,-0.0100771635770797,-0.0486966855823993,-0.0218963734805583,-0.0548936650156974,0.0153198046609759,189822176
176,0.0112868230789899,-0.0176961757242679,-0.0068048136308789,0.0028997692279517,-0.0054005132988095,0.0063159349374473,0.0038609846960753,-0.0117101967334747,-0.0369017794728279,0.0424546040594577,52080229
177,-0.0106440559029579,-0.0062481369823217,-0.03154868632555,-0.0091727320104837,-0.0090071912854909,0.0057749785482883,0.0589906759560108,-0.033296812325716,-0.0328676365315914,0.0010877021122723,110111095
178,-0.0178140178322792,0.0141209345310926,-0.0473856106400489,-0.0097310952842235,-0.0141675770282745,0.0028917838353663,0.0269249770790338,-0.0290622152388095,-0.0296738408505916,0.0160249546170234,83551433
179,-0.0360453873872756,0.0127921421080827,0.029430029913783,-0.0338543877005577,0.0017169385682791,-0.0207076147198677,0.0488956570625305,0.0032876434270292,0.0851630493998527,-0.0402499958872795,195227039
180,-0.0355543121695518,0.0012973009143024,-0.0312948413193225,-0.0007479068590328,-0.0085518639534711,0.002658418379724,0.0414263121783733,-0.0177719071507453,0.0005298067117109,-0.0103989662602543,4687741
181,0.0130439745262265,0.0095474468544125,-0.0191460456699132,-0.0039944346062839,-0.0068763652816414,0.0053876256570219,-0.0058967005461454,-0.022291325032711,-0.0241935402154922,0.0279273111373186,74781242
182,0.000844782218337,0.0076943621970713,-0.0272073708474636,-0.0035360369365662,-0.0045533021911978,0.0070361248217523,0.049606941640377,-0.0303894598037004,-0.0124683808535337,0.0030753107275813,52422878
183,-0.0161172524094581,-0.0097224554046988,-0.0386325120925903,-0.0128837507218122,-0.0088466247543692,0.006583240814507,0.0775874480605125,-0.0397037789225578,-0.0338935814797878,-0.0019112224690616,63078310
184,-0.0054334322921931,-0.0111020766198635,-0.013828900642693,-0.0064419088885188,-0.0095389122143387,0.0019257229287177,0.0119975013658404,-0.0276747047901153,-0.0394742116332054,0.0238677468150854,7798401
185,0.0071975477039813,0.0037845941260457,-0.0045734606683254,0.0048084859736263,0.0008036830695345,0.0105735007673501,0.036508023738861,-0.040902305394411,-0.0264057721942663,0.0320654101669788,97205149
186,0.0016481289640069,-0.0142907900735735,-0.0230642203241586,-0.0042942990548908,-0.0100127039477229,0.0034698327071964,0.0285454299300909,-0.0287848245352506,-0.0228362437337636,0.0217234846204519,2045233
187,-0.0064951656386256,-0.0130375903099775,-0.0361998975276947,-0.0036764789838343,-0.0042567946948111,0.0127670969814062,0.0611461661756038,-0.0531093925237655,-0.0369047038257122,0.0026279473677277,213759518
188,0.008462619036436,-0.0106343841180205,0.014079688116908,8.593953680247068e-05,0.0010358492145314,0.00321657047607,-0.0032501989044249,0.0027848195750266,-0.0120588969439268,0.041579820215702,44976789
189,-0.0034206970594823,-0.0038018454797565,-0.0242756400257349,-0.0024583828635513,-0.0134220700711011,-0.0047429767437279,-0.0320468321442604,-0.0287884511053562,-0.028651600703597,0.0153797268867492,189470222
190,0.0139018036425113,-0.0319402068853378,-0.0209932792931795,0.00353319873102,-0.0083174472674727,0.0076962513849139,-0.0296110585331916,-0.0018581885378807,-0.0393384471535682,0.0470318533480167,45744269
191,-0.0067196944728493,-0.0065660583786666,-0.025879306718707,-0.0017006598645821,-0.0097390981391072,0.0059928363189101,0.0068045854568481,-0.0224387403577566,-0.0232666358351707,0.0141086410731077,52277738
192,0.0021325680427253,-0.0248170234262943,-0.0004195468500256,-0.0022230080794543,-0.0010161616373807,0.0009315540082752,0.0213373731821775,-0.0037889112718403,-0.0120518747717142,0.0285065602511167,53614250
193,-0.0232527889311313,0.0231968369334936,0.0085269352421164,-0.0242647211998701,-0.0052328682504594,-0.0107813561335206,0.037647396326065,-0.0059895450249314,0.0173798203468322,-0.0152165424078702,129694210
194,-0.0185743998736143,-0.0054471436887979,-0.0262716934084892,-0.0149386655539274,-0.0146292662248015,-0.0107463812455534,-0.0050122905522584,-0.0357753187417984,-0.0180031564086675,-0.0119328498840332,195211760
195,-0.0173704214394092,-0.0091487290337681,-0.0419689789414405,-0.0140843540430068,-0.0095012160018086,0.0062446487136185,0.0872383788228035,-0.0418540500104427,-0.0316829085350036,-0.0061907721683382,30401979
196,-0.0111637087538838,0.0013091664295643,-0.0272622015327215,-0.0124215632677078,-0.0058270222507417,0.0034459251910448,0.0669538602232933,-0.0307423789054155,-0.0095532052218914,-0.0082185780629515,83916654
197,-0.01114281732589,-0.0093296989798545,-0.0279833767563104,-0.0097613614052534,-0.0053767929784953,0.0042771543376147,0.0612381063401699,-0.0294529385864734,-0.0181492157280445,0.0031232256442308,55915048
198,0.0155191784724593,0.0286898352205753,0.0243047606199979,0.0158363115042448,0.0138595551252365,0.0135029982775449,0.0005135424435138,-0.0485090315341949,-0.035562627017498,0.0429775416851043,56232025
199,0.0002995987888425,8.587841875851154e-05,0.0070057194679975,-0.0092200580984354,0.0003890917287208,-0.0046531385742127,-0.0002575916005298,0.0207733009010553,0.0211108550429344,0.0011169458739459,31260463
200,0.0005311910063028,-0.0072795148007571,-0.0049376413226127,0.0005699611501768,-0.0014799828641116,0.0116385594010353,0.0135096060112118,-0.0279967784881591,-0.0316724777221679,0.0338224098086357,58026824
201,-0.0078672459349036,-0.013499466702342,-0.0166673809289932,-0.0049797547981143,-0.0045372219756245,0.0088123194873332,0.0140522625297307,-0.0255479123443365,-0.0484472177922725,0.026262504979968,1457158
202,-0.0020954578649252,-0.0030395349022001,-0.0033394675701856,-0.0058480063453316,-0.0044050337746739,0.0055988780222833,0.0167995020747184,-0.02482052706182,-0.0231142565608024,0.033197496086359,127973630
203,-0.0145378056913614,-0.0056174164637923,-0.033974464982748,-0.0083837825804948,-0.0084910597652196,0.0053717852570116,0.07061817497015,-0.0405373387038707,-0.0212663803249597,0.0058264653198421,69375516
204,-0.0112095410004258,-0.0064725382253527,-0.034461073577404,-0.0095893442630767,-0.0082605704665184,0.0052798511460423,0.0661532580852508,-0.0292376205325126,-0.0293393619358539,0.0077912434935569,98109744
205,-0.0036681997589766,-0.0151710612699389,-0.038191519677639,-0.0115922894328832,-0.0152095314115285,-0.0005586803890764,0.0326083414256572,-0.0394311212003231,-0.0297134313732385,0.0045465310104191,215870218
206,-0.0104293078184127,-0.0097515042871236,-0.0232471786439418,-0.0058414228260517,-0.0061258994974195,0.007246361579746,0.0365536287426948,-0.0318340100347995,-0.035707026720047,0.018763143569231,48578381
207,0.0077786976471543,0.0044535249471664,-0.0055592083372175,0.0064502824097871,0.0081805009394884,0.0039256629534065,-0.0017524471040815,0.0090236105024814,0.0142293218523263,-0.0016722115688025,112629130
208,-0.0428179653346704,0.0056687881982094,-0.0492661078950168,-0.0198171758602227,-0.016769759456099,-0.020797837908128,-0.016894986410949,-0.0488214989342321,-0.0305036181832466,-0.0166222922472528,46171824
209,-0.0500866658985614,0.0010177583899348,-0.0050111161544919,-0.0362855121493339,-0.0097890738397836,-0.0188301242887973,0.0334714688360691,0.0243233796209096,0.0558254420757293,-0.0584456585347652,199306992
210,0.051440056413412,0.0551450513303279,-0.004179700743407,0.0133825689554214,0.0086489748209714,0.013023879379034,-0.0135707519948482,-0.0114156464114785,0.017453471198678,-0.0081132743507623,55422058
211,-0.0072334758006036,-0.0189126543700695,-0.0328887403011322,-0.0064652021974325,-0.0220684614032506,-0.0114374980330467,-0.0385589562356472,-0.0478251613676548,-0.0417889729142189,0.0086069907993078,138830239
212,-0.0173704214394092,-0.0091487290337681,-0.0419689789414405,-0.0140843540430068,-0.0095012160018086,0.0062446487136185,0.0872383788228035,-0.0418540500104427,-0.0316829085350036,-0.0061907721683382,98091595
213,-0.0024802288971841,-0.0184784028679132,-0.0360033251345157,-0.0120949409902095,-0.019531711935997,-0.0086682876572012,-0.0348509885370731,-0.0603316202759742,-0.0453683249652385,0.0062780934385955,101157977
214,0.015179069712758,-0.0425708889961242,-0.0056081959046423,0.0071229813620448,-0.0051092281937599,0.0107601089403033,-0.0237685926258564,-0.0106473769992589,-0.0472945272922515,0.0434723608195781,79785773
215,0.0257159136235713,-0.0303828716278076,-0.0018124002963304,0.01539215631783,0.0019975150935351,0.0103073399513959,0.0038162949495017,0.0113479187712073,-0.0380893349647522,0.0611195862293243,115011586
216,0.0086752595379948,0.0069355121813714,0.0091660236939787,0.0013013679999858,0.0013305266620591,0.0058490755036473,0.0063709616661071,0.00573785090819,-0.0128376130014657,0.0244197770953178,201816469
217,0.0144991427659988,-0.0061197811737656,0.0072991903871297,0.009596699848771,-0.0025198515504598,0.0057974546216428,-0.0023559962864965,-0.0089204721152782,-0.0248209331184625,0.0307318903505802,58026802
218,-0.012525400146842,-0.0304813254624605,-0.0432934574782848,-0.0080767013132572,-0.0207630265504121,-0.0105444565415382,0.0025025042705237,-0.016299158334732,-0.0371353887021541,0.0093867145478725,134307269
219,-0.0252735391259193,0.0107383374124765,0.0222138222306966,-0.0261746570467948,0.0029001305811107,-0.0126101728528738,0.0486145876348018,0.0134021723642945,0.0678832381963729,-0.0301706343889236,52197511
220,0.0207868460565805,-0.0380243770778179,-0.0022384938783943,0.0065231928601861,-0.0022200271487236,0.0117269111797213,-0.0214286558330059,0.0015588960377499,-0.0415066443383693,0.0354926995933055,1394129
221,-0.008203717879951,-0.0041019031777977,-0.006661167833954,-0.0051777944900095,-0.0056584235280752,-0.000401132623665,-0.0067816879600286,-0.0309815630316734,-0.0182759501039981,0.0213158410042524,152997644
222,-0.0582662709057331,-0.0438373796641826,-0.029898690059781,-0.0271332822740077,-0.0258767455816268,-0.0111129060387611,0.0265847090631723,0.0443821996450424,-0.0043981769122183,-0.0029464154504239,38035180
223,0.009334472939372,-0.0269014798104763,-0.0371810644865036,-0.0142410453408956,-0.0270755961537361,-0.0133028272539377,-0.0394184365868568,-0.0385918989777565,-0.0352579616010189,0.0134107619524002,99604430
224,-0.0092097576707601,-0.001554143265821,-0.0293387696146965,-0.0063379202038049,-0.0079424567520618,0.0030842223204672,0.0516307167708873,-0.0353472642600536,-0.0129477372393012,0.0032505840063095,1181559
225,-0.0145378056913614,-0.0056174164637923,-0.033974464982748,-0.0083837825804948,-0.0084910597652196,0.0053717852570116,0.07061817497015,-0.0405373387038707,-0.0212663803249597,0.0058264653198421,49367038
226,0.0401855818927288,0.0057445471175014,0.0005846517160534,0.0052785268053412,0.0003272590693086,0.0113239269703626,-0.0375746563076972,0.0197685826569795,0.0108448835089802,0.0246966984122991,99092665
227,0.0031549483537673,-0.0185269862413406,0.0167277008295059,-0.0018509033834561,-0.0019909362308681,0.00235654739663,-0.0066688591614365,0.010102198459208,-0.0147556159645318,0.0385355912148952,84791675
228,-0.0135935954749584,-0.0044403159990906,-0.0313096232712268,-0.0064835930243134,-0.0081543419510126,0.0050808303058147,0.0650780946016311,-0.0400984287261962,-0.0177942086011171,0.0098322089761495,65819501
229,-0.0006733954069204,-0.0181254297494888,-0.0114820534363389,-0.0052132289856672,-0.010280548594892,-0.0031235930509865,-0.025403257459402,-0.0228548273444175,-0.0280815325677394,0.0145403956994414,209877730
230,-0.0071896975859999,-0.0119650997221469,-0.029044535011053,-0.0079998467117547,-0.007713183760643,0.0071296924725174,0.0431248433887958,-0.0349107421934604,-0.0379130691289901,0.0088955722749233,34134703
231,-0.0141331478953361,-0.0051129595376551,-0.032832384109497,-0.007569417823106,-0.0083467522636055,0.005247090011835,0.0682438537478447,-0.0403492376208305,-0.0197783038020133,0.0075432094745337,105881940
232,0.0222708024084568,-0.0302947331219911,-0.0150179900228977,0.0146716581657528,-0.0041459379717707,0.0139010809361934,-0.0021965727210044,0.0366378836333751,-0.0085393860936164,0.0418190844357013,67801698
233,0.0189368724822998,0.0059026256203651,0.0068399542942643,-0.0047098230570554,0.0009647402330301,0.0037688389420509,-0.0036322441883385,0.0144649306312203,-0.0161773264408111,0.0050327442586421,184006479
234,0.0325407348573207,-0.041659377515316,0.0152647942304611,0.0182390138506889,0.0007983522955328,0.021398888900876,-0.0294082593172788,0.0108560258522629,-0.0060253296978771,0.03725016862154,98079917
235,0.0623751394450664,0.0609415136277675,-0.0001390241086483,0.0158549565821886,0.0111977336928248,0.0136934872716665,-0.0344379357993602,0.0102020232006907,0.0227236207574605,-0.0079292925074696,102488300
236,0.0286475885659456,-0.0265753231942653,-0.0090767759829759,0.016768679022789,0.002476692199707,0.0253592301160097,0.0239199120551347,-0.0065150116570293,-0.0398683175444603,0.0321567133069038,186297240
237,-0.0064247758127748,-0.0022461600601673,-0.0220653992146253,-0.0034295842051506,-0.0073530757799744,0.0025023545604199,0.032402541488409,-0.040210410952568,-0.0183654986321926,0.0062283352017402,87839561
238,-0.0060399640351533,0.0049764970317482,-0.0099908802658319,0.0087179318070411,-0.0054605868645012,0.0027531953528523,0.020757557824254,-0.036587219685316,0.0099831828847527,0.0418781675398349,56491568
239,0.0075922021642327,0.005274704657495,0.0026090422179549,-0.0035517329815775,-0.0059835165739059,0.0022059364710003,0.0062053389847278,-0.0306743215769529,-0.0343930758535862,0.0433512926101684,205932746
240,-0.0103620998561382,-0.0177569091320037,-0.0233016200363636,-0.0060278410091996,-0.0099004749208688,-0.0002044069115072,0.0292812529951334,-0.0345329381525516,-0.0339114777743816,0.0090368222445249,51113107
241,-0.0185731705278158,-0.0088014518842101,-0.0406462103128433,-0.0145517392084002,-0.0101790027692914,0.0046249167062342,0.0800981819629669,-0.0421597920358181,-0.0314994528889656,-0.0062457551248371,74738631
242,-0.0004526686360837,-0.0095917582028873,0.0039400455508068,0.0192151637813112,0.0140441632604886,0.0214744382136145,0.0450536630260998,-0.0038940520842128,0.0002295098033887,0.0171401411164666,94043093
243,-0.00629513990134,0.0063356067985296,-0.0294382777065038,-0.006036055739969,-0.0073983073234558,-0.0017009561415761,-0.0018938009161502,-0.0316887497901916,-0.0246545765548944,-0.0067001725547015,98708407
244,-0.0060399640351533,0.0049764970317482,-0.0099908802658319,0.0087179318070411,-0.0054605868645012,0.0027531953528523,0.020757557824254,-0.036587219685316,0.0099831828847527,0.0418781675398349,128725950
245,0.0039135995320975,-0.0289748460054397,-0.0456444546580314,-0.0089943297207355,-0.0268745012581348,-0.0119603294879198,-0.0520143508911132,-0.0116718336939811,-0.0542730577290058,0.0148088634014129,102523558
246,-0.0122493663802742,-0.0070365145802497,-0.0279164761304855,-0.0064210761338472,-0.0072595784440636,0.0061161164194345,0.0525948107242584,-0.0363380946218967,-0.02648900821805,0.0134611651301383,102122032
247,0.0057237409055233,-0.0098757799714803,-0.0121669126674532,-0.0011090700281783,-0.0036352996248751,0.0075473953038454,0.0382775850594043,-0.0019641714170575,-0.0166874956339597,0.0153979044407606,19919865
248,-0.0081632137298583,-0.0069264536723494,-0.0168515611439943,-0.001280965283513,-0.0053177732042968,0.0065480712801218,0.0232574697583913,-0.0307806376367807,-0.0273738130927085,0.0283769350498914,76273564
249,0.0092825442552566,0.0192682519555091,-0.006994335912168,0.0063749467954039,-3.4071155823767185e-05,0.0043342011049389,0.0033986084163188,-0.0177475828677415,0.0160503536462783,0.0202948208898305,100565256
250,0.0055164033547043,-0.017923692241311,-0.0271612964570522,0.0060812281444668,-0.0049811322242021,0.0119496379047632,0.0302827097475528,-0.0284213200211524,-0.02103834412992,0.0275072790682315,200394113
251,-0.0049387817271053,0.0035537325311452,-0.0117681650444865,-0.0082547403872013,-0.0089929979294538,-0.0113013815134763,-0.0144245736300945,-0.0042728879489004,-0.0097729312255978,-0.0107559468597173,150718336
252,-0.0262320563197135,0.0005200422601774,-0.0230794232338666,-0.0100646447390317,-0.0278170574456453,-0.0126664610579609,-0.0373154245316982,-0.026024293154478,-0.0455017425119876,0.0084786377847194,102421980
253,-0.0051559624262154,-0.0392340756952762,-0.0309437252581119,-0.0015016472898423,-0.0128843188285827,0.0013725589960813,-0.0305422358214855,0.0523344241082668,-0.0401928834617137,0.0221891850233078,84344367
254,-0.0048200786113739,0.001397387124598,-0.0048964913003146,-0.0057220393791794,-0.0023563802242279,0.0016707141185179,0.0339753367006778,-0.0165783613920211,0.0153797017410397,0.0036531696096062,72497728
255,0.0111323036253452,-0.0504324585199356,-0.0208202991634607,0.0006529330275952,-0.0119970738887786,0.0075475508347153,-0.0036632250994443,-0.0305280312895774,-0.0521129332482814,0.0274139940738677,68002205
256,-0.009971996769309,0.0189004931598901,-0.0292868800461292,-0.009354731068015,-0.0130039900541305,0.002489841543138,0.0226401258260011,-0.0059100640937685,0.0003409802448004,0.0154879223555326,72898792
257,0.0285349078476429,0.0202235095202922,-0.0022488713730126,0.0123982261866331,0.0096254078671336,0.0176986828446388,0.0070345615968108,0.0134744578972458,0.0055462662130594,0.0183222144842147,138460133
258,-0.0098685976117849,-0.0070585054345428,-0.0052276160567998,-0.0095085520297288,-0.008304551243782,-0.0105492463335394,-0.0126832434907555,-0.0116019444540143,-0.0139956995844841,-0.0063541606068611,99018577
259,0.0068610133603215,-0.0179612059146165,-0.0269203204661607,-0.0034122166689485,-0.0116452826187014,0.002389492932707,0.003922448027879,-0.0316189788281917,-0.0324735641479492,0.0131547274067997,206545451
260,-0.012838240712881,-0.0034986406099051,-0.0291777439415454,-0.0049634422175586,-0.0078849662095308,0.0048480676487088,0.0606460459530353,-0.039747305214405,-0.0150164682418107,0.0130368033424019,56491611
261,0.019979752600193,-0.0214150566607713,-0.0050524389371275,0.0060993055813014,-0.0075116856023669,0.0064437696710228,-0.011925745755434,-0.026904322206974,-0.0428665503859519,0.0300712268799543,108954955
262,-0.0189901553094387,-0.0099838990718126,-0.0351991169154644,-0.0073776012286543,-0.0069407960399985,0.0049573495052754,0.0414025969803333,-0.0300398655235767,-0.0211501661688089,0.0126414848491549,47754644
263,-0.012279950082302,0.0039345235563814,-0.0186717826873064,-0.0122555019333958,-0.0046639395877718,0.0008092125644907,0.0586180239915847,-0.0268284529447555,0.0036481802817434,-0.006773873232305,59488156
264,-0.0150789245963096,-0.026433365419507,-0.0451034232974052,-0.0102148866280913,-0.019505251199007,-0.0091258082538843,0.0186400674283504,-0.0197035036981105,-0.0371826961636543,0.0052544302307069,173578723
265,0.0056338161230087,-0.0028922765050083,-0.0032117865048348,0.0033531137742102,-0.0005294695729389,0.0097067803144454,-0.0214905031025409,-0.0155754070729017,-0.0380324311554431,0.0370760783553123,1489566
266,-0.0038161159027367,-0.0160061512142419,-0.0217646956443786,-0.0056579005904495,-0.0073379781097173,0.0055314046330749,0.0538983792066574,-0.0309680663049221,-0.0301978029310703,0.0185155980288982,195696960
267,0.0027543460018932,0.0040183793753385,0.0011439569061622,-0.0003383008297532,-0.0050500719808042,0.0059559680521488,-0.0100484509021043,0.0018287329003214,-0.039465095847845,0.0535522475838661,157676367
268,-0.0093327993527054,-0.0037641385570168,-0.0158875249326229,-0.0084636881947517,-0.0086593832820653,-0.004810987971723,-0.0128223784267902,-0.004918819759041,-0.0176264997571706,0.0001824400387704,47758813
269,-0.0167296398431062,-1.795426942408085e-05,-0.0251318141818046,-0.0174199901521205,-0.0096419230103492,-0.00235859118402,0.0420655496418476,-0.0273420140147209,-0.0133878383785486,-0.003444040659815,94043087
270,-0.0071614002808928,0.0061185918748378,-0.0378553085029125,-0.0145171508193016,-0.0100522115826606,-4.692660877481103e-05,0.0434592887759208,-0.039299301803112,-0.0291445311158895,-0.0084668509662151,60612444
271,-0.0107675660401582,-0.012095483019948,-0.0382818132638931,-0.0104089025408029,-0.0147450715303421,-0.000718162744306,0.0277778524905443,-0.0421373173594474,-0.0284976679831743,0.0045291525311768,189832432
272,0.0055815989259797,0.0072978449122726,-0.0224075097741045,-0.0130965647469608,-0.002973512817915,0.0086123183203668,0.0004267915731087,-0.0331842571589444,0.0019114463044175,-0.0072807370902929,83448924
273,-0.0002971951616927,-0.0314417108893394,-0.022059891372919,0.0080038420855999,-0.0091188158839941,0.0042671393603086,-0.0292156096547842,-0.0422944724559783,-0.0212111212313175,0.0289165563881397,968042
274,-0.0108958762139081,-0.0010771784000098,-0.0236957911401987,-0.0010544778779149,-0.0071922861970961,0.0042495322413742,0.0492493361234664,-0.0388444252312183,-0.0078737121075391,0.021277192980051,63645659
275,0.0761834308505058,0.0262226425111293,0.0127182807773351,0.0337945185601711,0.017766511067748,0.0306011382490396,-0.0384875573217868,0.024172680452466,-0.0001385668292641,0.025500189512968,2052970
276,-0.0145378056913614,-0.0056174164637923,-0.033974464982748,-0.0083837825804948,-0.0084910597652196,0.0053717852570116,0.07061817497015,-0.0405373387038707,-0.0212663803249597,0.0058264653198421,54209120
277,0.0046425447799265,-0.0244073141366243,-0.0213254876434803,0.0030240274500101,-0.0064689079299569,0.0090738115832209,0.0263974703848361,-0.0288958419114351,-0.0261661317199468,0.0264226794242858,107721773
278,-0.0022341287694871,-0.0224818717688322,-0.0031253870110958,0.0022687905002385,-0.0092803202569484,0.0042384136468172,0.014328840188682,-0.0432647801935672,-0.0200401563197374,0.0256638154387474,170437794
279,-0.0141470730304718,-0.0105554461479187,-0.0329800844192504,-0.0111492071300745,-0.0084131062030792,0.0043920255266129,0.0748091116547584,-0.0387667715549469,-0.0261861439794302,-0.0033751744776964,7211039
280,0.0058290385641157,-0.0156938452273607,-0.0084002539515495,0.0015105321072041,-0.0068818987347185,0.0043104426003992,-0.0110934441909194,-0.0123374620452523,-0.0239978022873401,0.0116890165954828,3443157
281,0.0161027517169713,0.0065956860780715,-0.0094544235616922,0.0081571843475103,-0.0048207454383373,0.0091882925480604,-0.000100469100289,-0.0319642983376979,-0.0077897678129374,0.0255838818848133,195474892
282,-0.0119309425354003,0.0181178599596023,-0.0222366321831941,-0.0160294622182846,-0.0064140949398279,-0.0058391904458403,0.0230649020522832,0.0078108715824782,-0.0058129196986556,-0.0046711657196283,7574988
283,0.0086512975394725,0.014912829734385,-0.0208809711039066,0.0009846730390563,-0.0024327654391527,0.0073753292672336,0.0334791913628578,-0.0254760719835758,-0.0042335861362516,0.0070464899763464,86366069
284,-0.0060399640351533,0.0049764970317482,-0.0099908802658319,0.0087179318070411,-0.0054605868645012,0.0027531953528523,0.020757557824254,-0.036587219685316,0.0099831828847527,0.0418781675398349,9949411
285,-0.0117051927372813,-0.0020861155353486,-0.0259799342602491,-0.0026832118164747,-0.0074809035286307,0.0044989213347435,0.0539979673922061,-0.0392206273972988,-0.0108498632907867,0.0178437028080225,99092662
286,-0.0173704214394092,-0.0091487327590584,-0.0419689789414405,-0.0140843540430068,-0.0095012160018086,0.0062446501106023,0.0872383788228035,-0.0418540425598621,-0.0316829048097133,-0.0061907712370157,58425371
287,-0.0269159376621246,0.0091634262353181,0.0146360779181122,-0.0220499522984027,-0.0018720484804362,-0.0137169202789664,0.0297376159578561,-0.0131320031359791,0.0490767434239387,-0.0161689333617687,39833157
288,-0.0167409442365169,-0.008363994769752,-0.0401924215257167,-0.0128175597637891,-0.0092767383903265,0.0060506770387291,0.083544984459877,-0.0415614396333694,-0.0293681137263774,-0.0035202717408537,13182786
289,-0.0222664903849363,0.0058615710586309,-0.0268475674092769,-0.0176618918776512,-0.0135172083973884,-0.0085818525403738,0.040669921785593,-0.0213273465633392,-0.0174011755734682,-0.0073748817667365,15268755
290,-0.0005086362361907,0.0197421833872795,0.0067703798413276,-0.0056675118394196,-0.0061364658176898,-0.0077222939580678,-0.0202575549483299,-0.0306048206984996,-0.0198781304061412,0.0180401783436536,113607068
291,0.034471720457077,0.030789753422141,-0.0011052229674533,0.0107406899333,0.005335331428796,0.0112599842250347,-0.027634460479021,-0.0033686407841742,-0.0028522533830255,0.0155782625079154,69330138
292,0.0216693859547376,0.0024241893552243,0.0152477016672492,0.0098825832828879,0.0057214237749576,0.0108750099316239,-0.0073989853262901,-0.0040026162751019,-0.0273027308285236,0.0491756908595562,59617193
293,0.0047507374547421,0.0009557255543768,-0.0141709996387362,-0.0011164993047714,-0.0073541654273867,0.0054046483710408,0.0202957335859537,-0.0248137451708316,-0.0339983850717544,0.024610586464405,206966496
294,0.0302847474813461,-0.0452906340360641,0.0095005584880709,0.0204182527959346,0.0012293530162423,0.0142618147656321,-0.035006508231163,0.0158860143274068,-0.0236641075462102,0.060875054448843,47527154
295,0.0050478526391088,-0.0117499763146042,-0.0131067717447876,-0.0045487629249691,-0.0053006112575531,-0.0012861931463703,-0.0181792471557855,-0.0018505116458982,-0.0206665452569723,0.008919009938836,61913621
296,0.0100484881550073,-0.016952034085989,-0.0081472555175423,-0.0030451803468167,-0.0107379062101244,0.003360336413607,-0.0154601894319057,-0.0164929423481225,-0.039044089615345,0.0288981087505817,34270534
297,0.0072451387532055,7.496215403079987e-05,0.0057369540445506,-0.0017470046877861,-0.0039692088030278,0.0041743218898773,-0.0050935028120875,0.0038135140202939,-0.0390240065753459,0.0464357547461986,205180061
298,0.0386462208055325,0.0426168409515934,0.0382906100556083,-0.0002427643580649,0.0100806292790706,-0.0020831602693143,0.0239214595202776,0.0337989985274034,-0.0141141509698595,0.0098839130033439,34373550
299,-0.0500866658985614,0.0010177583899348,-0.0050111161544919,-0.0362855121493339,-0.0097890738397836,-0.0188301242887973,0.0334714688360691,0.0243233796209096,0.0558254420757293,-0.0584456585347652,199307009
300,-0.0085878642275929,-0.0093070436269044,-0.0182236917316913,-0.0032807439565658,-0.005289209075272,0.0073070460930466,0.0237574502825737,-0.0296193193644285,-0.0348452106118202,0.0256766900420188,12713910
301,0.0070770047605037,-0.0006738691590726,0.0006257221102714,0.0026777074672281,0.0013347197091206,0.0122116366401314,0.0132529074326157,0.0210271347314119,-0.0335210599005222,0.0469430908560752,3193236
302,-0.0060399640351533,0.0049764970317482,-0.0099908802658319,0.0087179318070411,-0.0054605868645012,0.0027531953528523,0.020757557824254,-0.036587219685316,0.0099831828847527,0.0418781675398349,80628593
303,-0.0028376788832247,0.0045890603214502,-0.0281960554420948,-0.0046087875962257,-0.005745162256062,0.0062402379699051,0.0494331233203411,-0.0336673334240913,-0.0164133049547672,0.0045771882869303,85996097
304,-0.0060399640351533,0.0049764970317482,-0.0099908802658319,0.0087179318070411,-0.0054605868645012,0.0027531953528523,0.020757557824254,-0.036587219685316,0.0099831828847527,0.0418781675398349,16700200
305,0.0041194348596036,-0.0122353760525584,0.0020418739877641,-0.0016030054539442,-0.0066957250237464,-0.0007584323175251,0.0004846360534429,0.0047258473932743,-0.0261079855263233,0.032517984509468,159483171
306,0.0343304127454757,0.0205824840813875,-0.0083748009055852,0.0108906803652644,0.0046976800076663,0.0161441918462514,-0.0085318544879555,-0.0254130400717258,-0.0127914045006036,0.0074268598109483,102483617
307,-0.0048200786113739,0.001397387124598,-0.0048964913003146,-0.0057220393791794,-0.0023563802242279,0.0016707141185179,0.0339753367006778,-0.0165783613920211,0.0153797017410397,0.0036531696096062,6747650
308,-0.0050245248712599,-0.0216117389500141,-0.035456258803606,-0.0069186920300126,-0.0139323975890874,-0.000904734712094,0.0439221858978271,-0.0538223907351493,-0.0200364924967288,-0.0004113898612558,2763553
309,-0.0220363959670066,0.001305051613599,-0.0256070494651794,-0.0138994716107845,-0.015033645555377,-0.0114299710839986,-0.0134657574817538,-0.0001467921974835,-0.0045120595023036,-0.0115438289940357,88350347
310,-0.0098167788237333,0.0002680892357602,-0.0206502582877874,0.0011171689257025,-0.0068074651062488,0.0039170132949948,0.0429178327322006,-0.038342822343111,-0.0039055133238434,0.0258551910519599,47788573
311,0.012923396192491,0.0043494934216141,-0.0282247085124254,0.0033237263560295,-0.0088280662894248,0.0029055248014628,-0.0045044980943202,-0.0289050061255693,-0.009850313887,0.0224422793835401,196566732
312,-0.0190015826374292,-0.0064598959870636,-0.0213170032948255,-0.0119515471160411,-0.0059569254517555,0.002777382498607,0.0624949671328067,-0.0256694965064525,-0.0093080876395106,-0.0015290942974388,101058866
313,-1.3023614883422852e-05,0.0255323499441146,-0.0063282214105129,-0.0098759066313505,-0.0062697818502783,-0.0127287432551383,-0.0119567606598138,-0.0139995738863945,0.0092670209705829,-0.0220934320241212,150718293
314,0.0234370790421962,-0.0388717204332351,-0.0058510964736342,0.0028352029621601,-0.0160272791981697,0.0032262075692415,-0.0451013520359993,-0.0067066550254821,-0.050176203250885,0.0462968908250331,18912237
315,-0.00103725946974,0.0163541380316019,0.0002163758035749,-0.0037157349288463,0.0042630252428352,-0.0027863273862749,0.0137203531339764,-0.013283341191709,-0.0267356783151626,0.0236712582409381,159115989
316,-0.0060399640351533,0.0049764970317482,-0.0099908802658319,0.0087179318070411,-0.0054605868645012,0.0027531953528523,0.020757557824254,-0.036587219685316,0.0099831828847527,0.0418781675398349,86617202
317,-0.0016380059532821,-0.0008505946025252,-0.0226933304220438,-0.004410192836076,-0.0042027262970805,0.0081788543611764,0.0331262908875942,-0.0271078683435916,-0.0293146446347236,0.0116178020834922,8608429
318,0.0324432626366615,0.0190779734402894,0.0330130718648433,0.0014086728915572,0.0026673190295696,0.0076744854450225,0.0060269399546086,-0.0154393026605248,-0.0262733288109302,0.05589060485363,138469628
319,-0.0089281480759382,-0.0104650212451815,-0.034792523831129,-0.0059845228679478,-0.0076642096973955,0.0077613359317183,0.0665707066655159,-0.0405242927372455,-0.0242120027542114,0.0075794230215251,109486663
320,-0.0153058702126145,0.0163725838065147,-0.0303810536861419,-0.0030405491124838,-0.005216734483838,0.0005681642214767,0.0099198501557111,0.0189716648310422,-0.0222708545625209,0.0058000739663839,55711245
321,-0.0197667814791202,-0.0073711406439542,-0.0279760397970676,-0.0178173296153545,-0.0137302363291382,-0.005986776202917,0.0278948377817869,-0.0282396394759416,-0.0309651233255863,-0.0068757180124521,101191919
322,-0.0060399640351533,0.0049764970317482,-0.0099908802658319,0.0087179318070411,-0.0054605868645012,0.0027531953528523,0.020757557824254,-0.036587219685316,0.0099831828847527,0.0418781675398349,194164487
323,-0.0002931335475295,-0.0150677831843495,-0.0029979974497109,0.0051357503980398,0.001949994591996,0.0098508782684803,0.0148690678179264,0.031678918749094,-0.0037506900262087,0.0144207337871193,71488005
324,-0.0591107747986702,-0.0038299495629944,-0.0142001005025271,-0.0142836778797436,-0.0087514295699784,-0.0157853734213595,0.0182330425297829,-0.010261426587819,0.0255947460579587,-0.0041651931961511,45859773
325,-0.0074450722895562,-0.0110707459971308,-0.0288711134344339,-0.008503102697432,-0.0172187592834234,-0.0036749187856912,0.0095069743692874,-0.0207890197634696,-0.0409218035638332,0.0067008091136813,101778430
326,-0.0087353512644767,0.0019671295303851,-0.0300165154039859,-0.0094170998781919,-0.0049384199082851,0.0063811335712671,0.0580951496958732,-0.0200439281761646,-0.0207860860973596,-6.611645221710205e-05,3806601
327,-0.0060399640351533,0.0049764970317482,-0.0099908802658319,0.0087179318070411,-0.0054605868645012,0.0027531953528523,0.020757557824254,-0.036587219685316,0.0099831828847527,0.0418781675398349,2297821
328,-0.0060399640351533,0.0049764988943934,-0.0099908802658319,0.0087179308757185,-0.0054605868645012,0.0027531946543604,0.0207575596868991,-0.036587219685316,0.0099831810221076,0.0418781638145446,108109288
329,-0.0060399640351533,0.0049764970317482,-0.0099908802658319,0.0087179318070411,-0.0054605868645012,0.0027531953528523,0.020757557824254,-0.036587219685316,0.0099831828847527,0.0418781675398349,2235503
330,0.020346513018012,-0.0017032944597303,0.0073709660209715,0.0090031614527106,-0.0021310583688318,0.0101438770070672,-0.0230252593755722,-0.0267310813069343,-0.0349347926676273,0.0555817857384681,37764882
331,-0.0001096026971936,0.0123355193063616,-0.0072785047814249,0.0010112449526786,-0.0016071880236268,0.0033430303446948,0.0380085408687591,-0.0176765155047178,0.0069182375445961,0.021895408630371,7897387
332,-0.0139177171513438,-0.0083153713494539,-0.0325499512255191,-0.0092830834910273,-0.007932424545288,0.0063584325835108,0.0632455348968505,-0.0377015136182308,-0.0300669893622398,0.0067721209488809,100535643
333,-0.007665007840842,-0.0074837817810475,-0.0149999288842082,-0.0019462779164314,-0.0092889023944735,0.0027334429323673,0.0102561116218566,-0.0148013131693005,-0.0210798010230064,0.0358970500528812,102644366
334,-0.0107991583645343,0.0128608169034123,-0.0212510209530591,-0.0019421116448938,-0.0093002980574965,0.0119988769292831,-0.0483650565147399,-0.0010824934579432,-0.0428938716650009,0.0430114194750785,58802094
335,-0.0096194688230752,-0.0041139228269457,-0.0205274615436792,-0.0013486924581229,-0.0062870969995856,0.0054265111684799,0.0367810316383838,-0.0348543263971805,-0.0179544426500797,0.0244455598294734,94317976
336,0.0087668700143694,-0.0144887045025825,-0.0101919658482074,-0.0044105956330895,-0.009196151047945,-0.002019936684519,-0.0514454320073127,-0.0056575676426291,-0.0342914760112762,0.0379654876887798,670375
337,0.0031205439008772,-0.0424508079886436,-0.0254205279052257,-0.0042003928683698,-0.0180526860058307,-0.0001487215049564,-0.0104296840727329,-0.0492496751248836,-0.0433223620057106,0.0236975345760583,99402058
338,-0.0156434513628482,-0.005754136480391,-0.0228204932063817,-0.0139040537178516,-0.0066994363442063,0.0016637807711958,0.0593869723379612,-0.031091671437025,-0.011392411775887,-0.0039725266396999,47505989
339,-0.0146552231162786,-0.010391803458333,-0.0347399562597274,-0.0114830397069454,-0.0080829337239265,0.0069782687351107,0.0663280636072158,-0.0371951572597026,-0.0364727042615413,0.0030815927311778,110742290
340,-0.0077846753410995,0.0029294886626303,-0.013298176229,0.0039452593773603,-0.0078535471111536,0.0010940434876829,0.001200211700052,-0.042843259871006,-0.0120695168152451,0.0352881848812103,99092666
341,0.0049240416847169,0.0110285244882106,-0.0259430669248104,-0.0023609509225934,-0.0025721648707985,0.0083107221871614,0.0448542684316635,-0.0283974688500165,-0.0132401417940855,-4.167202860116959e-06,73023923
342,0.0108418520539999,0.0068421405740082,0.0080583626404404,-0.0107956249266862,-0.0066151339560747,-0.0044416585005819,-0.0086457543075084,0.0120454002171754,-0.0307643264532089,0.0365128479897975,73299028
343,-0.0048200786113739,0.001397387124598,-0.0048964913003146,-0.0057220393791794,-0.0023563802242279,0.0016707141185179,0.0339753367006778,-0.0165783613920211,0.0153797017410397,0.0036531696096062,72497730
344,-0.0045798094943165,-0.0023149289190769,-0.0268901400268077,-0.0055117094889283,-0.0120814647525548,-0.0052847526967525,-0.0064759142696857,-0.0326084457337856,-0.0200259629637002,0.0113780479878187,99788385
345,-0.0028591905720531,0.00107767584268,-0.0095502315089106,-0.000935957650654,-0.00437115970999,0.0052308733575046,0.0375956445932388,-0.0360216610133647,-0.0077266390435397,0.025283183902502,206170303
346,-0.0165608674287796,-0.0063880556263029,-0.0216061733663082,-0.0071822218596935,-0.0109070325270295,0.0001521682715974,0.0191719736903905,-0.0399511978030204,1.6101286746561527e-05,0.0133634693920612,18468296
347,-0.0052506607025861,-0.0085598062723875,-0.0059145730920135,-0.0043501798063516,-0.0071282349526882,0.000697995070368,-0.0080854510888457,-0.0186641290783882,-0.0354803726077079,0.0288732219487428,91989996
348,-0.0027157508302479,-0.0061670746654272,-0.0184507183730602,-0.0042681070044636,-0.0037514460273087,0.008922598324716,0.0191487483680248,-0.024415586143732,-0.0397999584674835,0.0189394447952508,54863209
349,-0.0106275575235486,-0.0130068380385637,-0.0355214327573776,-0.0079263169318437,-0.007779624313116,0.0078921383246779,0.0683777183294296,-0.037640742957592,-0.0312085449695587,0.0040922397747635,88416983
350,-0.0210945643484592,-0.0470754951238632,-0.0270970221608877,-0.0068095284514129,-0.018515083938837,-0.0051744980737566,0.0119082704186439,-0.0009447204647585,-0.030941192060709,0.0110067361965775,75717236
351,0.0075241867452859,-0.0070090484805405,0.0061290082521736,0.0016994278412312,0.0012731760507449,0.0055411849170923,0.0037363248411566,-0.014381218701601,-0.0058697867207229,0.034806840121746,50207366
352,0.0007236247183755,-0.0061143478378653,-0.0094248503446578,0.001005396596156,-0.0047393189743161,0.005613749846816,-0.0053869672119617,-0.0269763749092817,-0.0217649713158607,0.0275719426572322,76578097
353,0.0306804943829774,-0.0089274039492011,0.0368340462446212,0.0153526086360216,0.0103868469595909,0.0116474917158484,-0.0183087736368179,0.0638447031378746,-0.0451081171631813,0.0623537898063659,101741648
354,0.011063814163208,0.0189677514135837,-0.0075279241427779,0.0105021875351667,-0.0012960082385689,0.0054882690310478,0.0069586848840117,-0.0248899012804031,0.0131682977080345,0.029426297172904,212071753
355,0.0150593845173716,0.0052889334037899,0.0107264081016182,0.013308904133737,0.0010357876308262,0.0160232987254858,-0.0060970638878643,0.0216562151908874,-0.0046617905609309,0.0365084037184715,3162115
356,-0.0105433156713843,-0.0025926784146577,-0.0349165759980678,-0.0090480959042906,-0.0075825378298759,0.0062757087871432,0.0702625140547752,-0.0376813933253288,-0.0225003249943256,0.0001025195233523,99446605
357,0.0166141241788864,0.0057813799940049,0.0120883639901876,0.0055380831472575,0.0026012337766587,0.010336983948946,0.0008574812673032,-0.0028994125314056,-0.0276263058185577,0.047936774790287,52541971
358,-0.0044494001194834,-0.0100619904696941,0.0117942234501242,0.0044988440349698,-0.012296000495553,-0.0026453025639057,0.0048251179978251,-0.0092188576236367,-0.0420213639736175,0.0169806629419326,195773243
359,0.0347966392674942,0.0196205065331036,0.0165512355615648,0.0277169415114257,0.0195935237031004,0.0286574437904676,-0.0087701472688446,0.0073572439238173,0.0314858986197459,0.0121569965285202,17687405
360,-0.0083473669365048,-0.0121692400425672,-0.0270393695682287,-0.0072673223912715,-0.0059620444662868,0.0071804411709308,0.0524535477161407,-0.033868983387947,-0.0248564388602972,0.0081945452839136,114274866
361,0.0068423422053456,-0.0094919167459011,0.0072978120297193,-0.0021298336796462,-0.0033226874656975,0.0026639210991561,-0.0078685209155082,0.0137418312951922,-0.0286936424672603,0.0366076305508613,158508852
362,-0.0122312828898429,-0.0058293808251619,-0.0274876244366168,-0.0097467107698321,-0.0065699834376573,0.0021333009935915,0.0478395335376262,-0.0209547467529773,-0.0233414825052022,-0.0006343158893287,107512023
363,-0.0153651628265372,0.0280467707593985,-0.0184791566627012,0.0054645929432284,0.0113699688223771,-0.0094929864511244,-0.0054487878050481,-0.000891382949439,0.0119930042456735,-0.0014922998108234,146167229
364,-0.0060399640351533,0.0049764970317482,-0.0099908802658319,0.0087179318070411,-0.0054605868645012,0.0027531953528523,0.020757557824254,-0.036587219685316,0.0099831828847527,0.0418781675398349,59299279
365,-0.0060399640351533,0.0049764988943934,-0.0099908802658319,0.0087179308757185,-0.0054605868645012,0.0027531946543604,0.0207575596868991,-0.036587219685316,0.0099831810221076,0.0418781638145446,55422060
366,-0.01796848885715,-0.0005665039643645,-0.0188025142997503,-0.0168480221182107,-0.0175924450159072,-0.0167934466153383,-0.0092053283005952,-0.0241715144366025,-0.0163887571543455,-0.0072990134358406,156284152
367,-0.004629511386156,0.011796205304563,-0.0009854980744421,0.0053759701550006,0.0053975824266672,0.0123432092368602,0.0301403496414423,0.0247028078883886,-0.0053850715048611,0.0352233834564685,109502816
368,-0.011207022704184,-0.0093449344858527,-0.0302292928099632,-0.0151282306760549,-0.0217470321804285,-0.0128666907548904,-0.0310521777719259,-0.0116860531270504,-0.0408299416303634,0.0041621061973273,76747884
369,0.0063206376507878,0.0032721711322665,0.0189930293709039,-0.0086290966719388,-0.001939121633768,-0.0013269302435219,0.0092369122430682,-0.0248340461403131,-0.0345283150672912,0.0346660688519477,96648892
370,0.022122960537672,-0.0378040634095668,0.0033103220630437,0.0105938483029603,5.430541932582855e-05,0.0149926654994487,-0.0316680632531642,0.01402666606009,-0.0439879819750785,0.0462364479899406,2368500
371,-0.0048200786113739,0.001397387124598,-0.0048964913003146,-0.0057220393791794,-0.0023563802242279,0.0016707141185179,0.0339753367006778,-0.0165783613920211,0.0153797017410397,0.0036531696096062,6747648
372,-0.0028237956576049,-0.0057577965781092,-0.0283727440983057,-0.0044655073434114,-0.0116179697215557,-0.0026188343763351,-0.0069670286029577,-0.0040324511937797,-0.0189521629363298,0.0035976548679172,124975178
373,-0.0112696457654237,-0.0036378088407218,-0.0378390550613403,-0.011131465435028,-0.0078784124925732,0.0066520133987069,0.0761728882789611,-0.0379476472735405,-0.0263086445629596,-0.0045982059091329,206977176
374,-0.0060399640351533,0.0049764988943934,-0.0099908802658319,0.0087179308757185,-0.0054605868645012,0.0027531946543604,0.0207575596868991,-0.036587219685316,0.0099831810221076,0.0418781638145446,45621154
375,-0.0127668138593435,-0.008037588559091,-0.0294102802872657,-0.0076826596632599,-0.0074094948358833,0.0063963588327169,0.0552479140460491,-0.036317341029644,-0.0295283608138561,0.0110930819064378,96457659
376,-0.0157751627266407,0.005236585624516,-0.0380604714155197,-0.008312527090311,-0.0118682021275162,-0.0062461979687213,0.0241203103214502,-0.0330506823956966,-0.0103080868721008,-0.0044677397236227,148611986
377,-0.0175478532910347,0.0001591385807842,-0.0441356375813484,-0.0123430490493774,-0.0113677624613046,0.0049035022966563,0.0631130188703537,-0.0367373116314411,-0.0308792758733034,0.0026955227367579,6001285
378,0.005109395366162,0.0060913702473044,-0.0095738256350159,-0.005328647326678,-0.0022190348245203,0.0022179521620273,0.0188414752483367,-0.0066254418343305,-0.0010303079616278,-0.0039728488773107,72763348
379,-0.0049471724778413,-0.0133613878861069,-0.0214167926460504,-0.0108026433736085,-0.0080217896029353,0.0043513169512152,0.0526231713593006,-0.0312328226864337,-0.0176755432039499,-7.257075048983097e-05,16835734
380,-0.02093849144876,0.0069481614045798,-0.0261628832668066,-0.0237806513905525,-0.0149253904819488,-0.0152673115953803,0.0121560366824269,-0.016667990013957,0.0060822013765573,-0.0183828920125961,44708713
381,0.0041738315485417,-0.0108532551676034,-0.0084210280328989,-0.0112295718863606,-0.0124449208378791,-0.0024897675029933,-0.0145277008414268,0.0027685083914548,-0.0264336559921503,0.0092890597879886,110012110
382,0.0131246745586395,-0.0171413943171501,-0.008756355382502,0.0117069128900766,-0.0061756921932101,0.0086518200114369,0.0091987140476703,-0.0112434588372707,-0.0001901168143376,0.047553177922964,88880574
383,0.0137987630441784,0.0151780759915709,-0.0031823236495256,0.0021587887313216,-0.0031055770814418,0.0078086256980896,-0.0091651268303394,0.0024771615862846,-0.0437669157981872,0.0558804869651794,30351501
384,0.003096246626228,-0.0090334266424179,-0.0128677319735288,-0.0044670114293694,-0.0088908895850181,-0.0037160795181989,-0.0197425913065671,-0.0151835726574063,-0.0148822832852602,0.0097444243729114,152354126
385,-0.0173704214394092,-0.0091487290337681,-0.0419689789414405,-0.0140843540430068,-0.0095012160018086,0.0062446487136185,0.0872383788228035,-0.0418540500104427,-0.0316829085350036,-0.0061907721683382,206939650
386,-0.0015924111939966,-0.0066866851411759,-0.0129361152648925,-0.0016230638138949,-0.0030160236638039,0.0089192222803831,0.0052083367481827,-0.0223927721381187,-0.0397674515843391,0.0273299738764762,85951147
387,0.0322511717677116,-0.0275232121348381,0.0158562660217285,0.0043361587449908,0.0022308677434921,0.0121514154598116,-0.0408385135233402,0.0238240249454975,-0.0632092803716659,0.0619394443929195,102386409
388,-0.0056103016249835,-0.0097437454387545,-0.0080694453790783,-0.0016425196081399,-0.006168377585709,0.0049260901287198,-0.0380861759185791,-0.0323249660432338,-0.0585342571139335,0.0372944399714469,78535305
389,-0.0019717544782906,-0.0069307228550314,-0.0211342647671699,-0.0052454341202974,-0.0023465862032026,0.0107599962502717,0.0550625175237655,-0.0311952177435159,-0.0321267545223236,0.0181362181901931,103874922
390,-0.0135726863518357,0.0001079737849067,-0.0188400298357009,-0.0046602142974734,-0.0063590877689421,0.0018036949913948,0.050163697451353,-0.0347064547240734,0.000834735808894,0.0144377769902348,19771878
391,0.0054561709985136,-0.0264160707592964,-0.0236754976212978,0.0004539139335975,-0.0082200663164258,0.0087503110989928,0.0340355522930622,-0.0294199679046869,-0.0269062668085098,0.0175270903855562,32949717
392,-0.0097131542861461,-0.015100066550076,-0.0354696810245513,-0.0088832480832934,-0.0110762678086757,0.0055641131475567,0.0592767968773841,-0.0423950143158435,-0.0332291908562183,0.0089605757966637,184425605
393,-0.00516177713871,-0.0125391567125916,-0.015089102089405,-0.0074199195951223,-0.0100353527814149,0.0006433330709114,0.0206576082855463,-0.0115605238825082,-0.0137580465525388,0.0031860072631388,102887574
394,-0.0039723613299429,-0.0200343336910009,-0.0168425515294075,-0.0072633437812328,-0.0056123500689864,0.0024188053794205,0.0115967486053705,0.0409289598464965,-0.0110795181244611,0.0018585752695798,66891131
395,-0.0141410008072853,-0.0114297121763229,-0.0367535352706909,-0.0134960068389773,-0.0109226172789931,0.0039064902812242,0.0714142844080925,-0.0385966151952743,-0.0284530818462371,-0.0024576042778789,106261680
396,-0.0327110923826694,0.0270995609462261,-0.0204749573022127,-0.0215629991143941,-0.0111978352069854,-0.0030704950913786,0.0338731780648231,0.0228255484253168,-0.0077136508189141,0.014587877318263,60194762
397,-0.005629148799926,-0.0034716674126684,-0.0284897089004516,-0.0081308120861649,-0.0068861115723848,0.0050451764836907,0.0569869726896286,-0.0325394868850708,-0.0233839675784111,0.0028503194916993,101368165
398,-0.0048200786113739,0.001397387124598,-0.0048964913003146,-0.0057220393791794,-0.0023563802242279,0.0016707141185179,0.0339753367006778,-0.0165783613920211,0.0153797017410397,0.0036531696096062,6747649
399,-0.0107257012277841,-0.0091480761766433,-0.0281064100563526,-0.0058120093308389,-0.0072529525496065,0.0083762500435113,0.0554253309965133,-0.0403071120381355,-0.0288531463593244,0.0106485169380903,110939942
400,-0.0039573227986693,-0.0186378601938486,-0.0376803539693355,0.0025186734274029,-0.0003047499340027,0.0137406438589096,0.0001893932931125,-0.0080327847972512,-0.0215297266840934,0.0040431176312267,52268839
401,-0.0117051927372813,-0.0020861155353486,-0.0259799342602491,-0.0026832118164747,-0.0074809035286307,0.0044989213347435,0.0539979673922061,-0.0392206273972988,-0.0108498632907867,0.0178437028080225,115138097
402,-0.0112612312659621,-0.0119456332176923,-0.0257036685943603,-0.0082313967868685,-0.0063100773841142,0.0078952955082058,0.040190152823925,-0.0313715152442455,-0.0424599573016166,0.0146720446646213,90959033
403,-0.0024873381480574,-0.0286322012543678,-0.0239388979971408,-0.005678579211235,-0.0196311026811599,-0.0066838320344686,-0.0169293377548456,-0.0401632338762283,-0.0426887683570385,0.0160453543066978,68997293
404,0.0091076865792274,-0.0130418306216597,-0.010041874833405,-0.0003859769785776,-0.0082644168287515,0.0026800576597452,-0.0042115966789424,-0.0086873341351747,-0.0344928875565528,0.0327956266701221,97442108
405,-0.0040517123416066,-0.006777174770832,-0.0236818846315145,-0.0053128283470869,-0.0091049317270517,-0.003525351639837,-0.0068360352888703,-0.0122442040592432,-0.0130696473643183,-0.0093673570081591,34335298
406,-0.0117051927372813,-0.0020861155353486,-0.0259799342602491,-0.0026832118164747,-0.0074809035286307,0.0044989213347435,0.0539979673922061,-0.0392206273972988,-0.0108498642221093,0.0178437028080225,207034364
407,-0.00356310675852,-0.0280190482735633,-0.028112081810832,-0.0069010183215141,-0.0131755080074071,0.0017577760154381,0.0223752409219741,-0.034316062927246,-0.0422051697969436,0.0108181983232498,8208151
408,-0.0124408435076475,-0.0052552018314599,-0.0241944231092929,-0.003851612098515,-0.0068510347045958,0.0027216782327741,0.0158084835857152,-0.0099457362666726,0.0042746514081954,0.0016828849911689,71145982
409,-0.0016947023104876,-0.0043736919760704,0.0034678871743381,0.0105939861387014,-0.0091349985450506,-0.0014406734844669,-0.0364703051745891,-0.0138480477035045,-0.0415902025997638,0.0209076441824436,103625428
410,-0.0085376799106597,-0.0041988370940089,-0.0305006653070449,-0.0080874003469944,-0.0065184338018298,0.0071561364457011,0.0558754466474056,-0.0337662138044834,-0.0289261192083358,0.0050662816502153,58374844
411,-0.0104488041251897,-0.0315319746732711,-0.0176630187779665,-0.0056622391566634,-0.0091383401304483,0.0017350066918879,0.0423372909426689,0.0024851094931364,-0.0210179574787616,0.010651328600943,165081199
412,0.0029853708110749,-0.0227492488920688,-0.0284501109272241,0.0027625444345176,-0.0063387621194124,0.0109857395291328,0.027532136067748,-0.0406005457043647,-0.0173554793000221,0.0267226882278919,33982497
413,0.0110638132318854,0.0189677514135837,-0.0075279246084392,0.0105021875351667,-0.0012960082385689,0.0054882690310478,0.0069586848840117,-0.0248899012804031,0.0131682977080345,0.0294262990355491,201846065
414,0.0094492509961128,-0.011324169114232,-0.0100704804062843,0.0053066294640302,0.0040088128298521,0.0175133384764194,0.0400751158595085,-0.014723883010447,-0.0253435764461755,0.0350370146334171,49609372
415,-0.0060399640351533,0.0049764970317482,-0.0099908802658319,0.0087179318070411,-0.0054605868645012,0.0027531953528523,0.020757557824254,-0.036587219685316,0.0099831828847527,0.0418781675398349,178367993
416,0.0016953850863501,-0.0472562313079834,-0.0431112386286258,0.0021624723449349,-0.0223222225904464,-0.0039287242107093,-0.0445562452077865,-0.0180434044450521,-0.0633282214403152,0.0207036770880222,47023001
417,-0.0060399640351533,0.0049764970317482,-0.0099908802658319,0.0087179318070411,-0.0054605868645012,0.0027531953528523,0.020757557824254,-0.036587219685316,0.0099831828847527,0.0418781675398349,15166421
418,-0.0060399640351533,0.0049764970317482,-0.0099908802658319,0.0087179318070411,-0.0054605868645012,0.0027531953528523,0.020757557824254,-0.036587219685316,0.0099831828847527,0.0418781675398349,7172770
419,0.0039822817780077,0.010139481164515,-0.0275142360478639,-0.0037492408882826,-0.003821400925517,0.0076704248785972,0.0485091879963874,-0.0281816646456718,-0.0128730116412043,-0.0006167842075228,188320861
420,-0.0148525359109044,-0.0060097924433648,-0.0348627381026744,-0.0090171806514263,-0.008603299036622,0.0054687685333192,0.0724648609757423,-0.0406836383044719,-0.022423768416047,0.0044912104494869,45859764
421,-0.0060399640351533,0.0049764970317482,-0.0099908802658319,0.0087179318070411,-0.0054605868645012,0.0027531953528523,0.020757557824254,-0.036587219685316,0.0099831828847527,0.0418781675398349,172571530
422,-0.0151488948613405,-0.0101657938212156,-0.0360543355345726,-0.0119560044258832,-0.0083408039063215,0.0068448833189904,0.0701299235224723,-0.0380422137677669,-0.035601831972599,0.0013957065530121,91069114
423,-0.003991771955043,-0.0109820617362856,-0.0059466185048222,0.0013880762271583,-0.0029301629401743,0.0084032518789172,-0.0111764091998338,-0.0220480449497699,-0.0415829792618751,0.0415806658565998,52361126
424,0.012365817092359,0.0142885185778141,-0.0092778205871582,-0.0018208643887192,-0.0010763886384665,0.0056822709739208,0.002014675643295,0.0011964729055762,-0.016987208276987,0.0015265678521245,1134720
425,-0.0005931556224822,-0.011349182575941,-0.0220382194966077,-0.0011823290260508,-0.0071222921833395,0.0046350164338946,0.019340805709362,-0.0201649572700262,-0.0232635177671909,0.0155502371490001,201234592
426,-0.0041248323395848,0.0092315580695867,-0.0165070705115795,-0.0129604805260896,-0.0087437443435192,-0.0067383619025349,0.0003851449582725,-0.020561296492815,-0.014184727333486,0.003653401043266,14966853
427,0.0144579261541366,-0.0095475483685731,-0.0156473442912101,0.0039055594243109,-0.0018357442459091,0.0105143152177333,0.0206627212464809,-0.0113929230719804,-0.0188748855143785,0.0178807061165571,57519725
428,-0.0042662927880883,-0.0173554625362157,-0.0267607513815164,-0.003019094467163,-0.0054364660754799,0.0098354835063219,0.0548780784010887,-0.0357341058552265,-0.0316042602062225,0.0147654600441455,50031549
429,-0.0154820065945386,-0.0067945318296551,-0.0366393104195594,-0.0102839730679988,-0.0088277794420719,0.0056627397425472,0.076158232986927,-0.0409762449562549,-0.0247385539114475,0.0018207188695669,66464625
430,-0.0192267745733261,0.0041562165133655,-0.030489832162857,-0.0129169272258877,-0.0188358724117279,-0.0105426274240016,-0.0110961627215147,-0.0075596678070724,-0.0281505640596151,0.0152985304594039,68748784
431,0.0140713015571236,-0.008070982992649,0.0024138463195413,0.006874622311443,0.0018127681687474,0.014341345988214,-0.0005554324015974,-0.0063807158730924,-0.0378451272845268,0.0364885404706001,55422033
432,-0.0099314246326684,0.0009852510411292,-0.0241886340081691,-0.0138660874217748,-0.009803045541048,-0.0033496553078293,0.0344938114285469,-0.0270251296460628,-0.0101576084271073,0.0003399719716981,58017337
433,0.0112868230789899,-0.0176961757242679,-0.0068048136308789,0.0028997692279517,-0.0054005132988095,0.0063159349374473,0.0038609846960753,-0.0117101967334747,-0.0369017794728279,0.0424546040594577,51887928
434,-0.0173704214394092,-0.0091487327590584,-0.0419689789414405,-0.0140843540430068,-0.0095012160018086,0.0062446501106023,0.0872383788228035,-0.0418540425598621,-0.0316829048097133,-0.0061907712370157,96232449
435,0.0219576843082904,-0.0341905392706394,-0.0106526501476764,0.0095111755654215,-0.0069624325260519,0.0066958405077457,-0.0375568717718124,-0.0259928628802299,-0.0311778672039508,0.0351736359298229,206810298
436,0.0304583944380283,-0.0568157881498336,0.0052542183548212,0.0181646831333637,-0.0050697904080152,0.0110104056075215,-0.0534841790795326,-0.0020513525232672,-0.0368327535688877,0.0606303475797176,173351101
437,-0.0260435808449983,0.0101869292557239,0.0162897203117609,-0.0196636170148849,-0.0006755703943781,-0.0128873446956276,0.0395162887871265,-0.0100039839744567,0.0601030923426151,-0.0128739401698112,47445127
438,0.0046501066535711,-0.0017519869143143,-0.0092681543901562,0.0057432241737842,0.0015465085161849,0.0113129550591111,0.0320466421544551,-0.0337561257183551,-0.0040846802294254,0.0323679558932781,76920769
439,-0.0114477416500449,-0.0160087160766124,-0.0307095926254987,-0.0093091130256652,-0.0089741386473178,0.0046775098890066,0.0647149831056594,-0.038177490234375,-0.0260995551943779,0.0017661503516137,6754190
440,0.009220715612173,0.0220830179750919,-0.0015445074532181,0.0046753208152949,0.0003242930397391,0.0025274492800235,0.0090071456506848,-0.0175224561244249,0.0243632886558771,0.015914874151349,19933028
441,-0.0219913553446531,0.0061632194556295,-0.0059040188789367,-0.0106177777051925,-0.0032794065773487,-0.006601789034903,0.0028504338115453,0.0063424287363886,0.0043438840657472,-0.009700808674097,191085080
442,0.012731259688735,0.017296077683568,-0.0013797936262562,0.0003952350816689,-0.0024413678329437,0.0083464225754141,-0.0063865026459097,-0.0107019180431962,-0.0409632250666618,0.0544899925589561,34326285
443,0.0428279675543308,0.0449514985084533,-0.0029538380913436,0.0138158071786165,0.0064382152631878,0.0105676893144845,-0.0186678022146224,-0.0031663363333791,0.0190834980458021,0.0063014151528477,12928037
444,0.0143939787521958,0.0017357713077217,0.00862174667418,0.007787019945681,0.0017193502280861,0.0068702101707458,-0.0028048888780176,-0.0215253550559282,-0.0187279786914587,0.0374833568930625,86177534
445,0.0012402249267324,-0.0158731862902641,-0.0243642274290323,0.0030898826662451,-0.0075360676273703,0.0045739710330963,0.0081618707627058,-0.0041645029559731,-0.0078453728929162,0.0305066630244255,192078523
446,-0.0034733761567622,-0.0282173883169889,-0.0384720377624034,-0.0201808754354715,-0.0340890660881996,-0.0251237265765666,-0.0619501918554306,-0.0190250147134065,-0.0496858395636081,-0.007987193763256,200400506
447,-0.009744226001203,0.0045248921960592,-0.0015268503921106,-0.011112181469798,0.0002503708237782,-0.001459126593545,0.0117639955133199,0.0010299189016222,0.0337456278502941,-0.0090038813650608,879768
448,0.0122964540496468,-0.0007294118404388,-0.0177131760865449,0.0028750374913215,-0.0052398112602531,0.001924239215441,-0.0073204129002988,-0.0119460606947541,0.002313042525202,0.0085928123444318,38106215
449,-0.0041514770127832,-0.0100269764661788,-0.0259604156017303,-0.0073008076287806,-0.0185099579393863,-0.0063658151775598,-0.0202481187880039,-0.0270995311439037,-0.0479499772191047,-0.0077844364568591,98506381
450,-0.0081642735749483,-0.0219540446996688,-0.0346245989203453,0.0008916424121707,-0.0066440980881452,0.00819375179708,0.0194128695875406,-0.0214908048510551,-0.0213134251534938,0.0127769727259874,195696760
451,0.0272139012813568,-0.0531767085194587,-0.0172574073076248,0.0090146865695714,-0.0118876937776803,0.00709118694067,-0.0133290197700262,-0.0392882451415061,-0.0119523229077458,0.0550477616488933,1058759
452,0.0041189165785908,0.0047544636763632,-0.0274941492825746,0.010524932295084,-0.0052618444897234,0.0046073570847511,-0.0377091094851493,-0.0059755779802799,-0.0219132546335458,0.0300415437668561,77580268
453,-0.0088989441917,0.0375624944087083,0.0195067126222846,0.0001397783270225,0.0158924442807374,-0.0022124773675395,0.0286839838278054,-0.0038613177891047,-0.0170134088119933,0.0040842517157472,84470282
454,-0.0073589575476944,0.0117313573136925,0.0201968159526586,-0.001566149177961,-0.002209692960605,0.005033525172621,-0.0023994958028197,-0.0089577920734882,-0.0500800162553787,0.0368166901171207,64177119
455,0.0070023126900196,-0.0191277526319026,-0.022226782515645,-0.0028377673588693,-0.0096305459737777,0.0041201766580343,0.0142079023644328,-0.0294443126767873,-0.0268494971096515,0.027510080486536,88880575
456,0.0250277519226074,-0.0650164186954498,-0.0220997184514999,0.0013393984409049,-0.0251980144530534,-0.0011198550928384,-0.0600285232067108,-0.002755026333034,-0.0590979121625423,0.0365625694394111,73392382
457,-0.0060399640351533,0.0049764988943934,-0.0099908802658319,0.0087179308757185,-0.0054605868645012,0.0027531946543604,0.0207575596868991,-0.036587219685316,0.0099831810221076,0.0418781638145446,194294684
458,-0.022585816681385,0.0078610889613628,-0.020915187895298,-0.018081784248352,-0.0171385109424591,-0.0181911420077085,-0.0164787471294403,-0.0214676950126886,-0.0187644399702548,-0.0188991297036409,74945071
459,0.0377393588423728,0.0094066429883241,0.0247881487011909,0.0427125617861747,0.0207914151251316,0.0357867404818534,-0.0093517918139696,0.0121346497908234,0.0045571774244308,0.0459385588765144,126242405
460,-0.0105721428990364,-0.0006735955830663,-0.0227821245789527,-0.0004029819974675,-0.0070768408477306,0.004149776417762,0.047349888831377,-0.0386939346790313,-0.006683247629553,0.0226505938917398,99092671
461,-0.0033223822247236,-0.0136118419468402,-0.0198231842368841,-0.0027607046067714,-0.007369203492999,0.0061142724007368,0.0072093615308403,-0.0395075716078281,-0.0427528508007526,0.0225234031677246,5099843
462,-0.0060399640351533,0.0049764970317482,-0.0099908802658319,0.0087179318070411,-0.0054605868645012,0.0027531953528523,0.020757557824254,-0.036587219685316,0.0099831828847527,0.0418781675398349,18860704
463,-0.0332955010235309,-0.0110384570434689,-0.0217215009033679,-0.0185026712715625,-0.0084139518439769,-0.0153774237260222,0.0073306234553456,0.0169719420373439,0.0011493130587041,-0.0211882591247558,49065011
464,-0.0116984341293573,0.0218725614249706,-0.0007162055699154,-0.0114014614373445,-0.0101114464923739,-0.0116010922938585,-0.0037914318963885,-0.0568266324698925,-0.0222217012196779,0.0078216399997472,60623703
465,-0.007819578051567,-0.0671371966600418,0.0034261310938745,-0.0024755897466093,-0.008132105693221,-0.000761869829148,0.021473754197359,0.0594924837350845,-0.0194304138422012,0.0164494179189205,102481856
466,0.0228024050593376,-0.0496977977454662,-0.0053415289148688,0.0133121851831674,-0.0049667423591017,0.0110771721228957,-0.0314658060669899,-0.009034264832735,-0.0437903963029384,0.041046854108572,44394807
467,-0.0198332481086254,0.0063045653514564,-0.0245827455073595,-0.0236303303390741,-0.0142713226377964,-0.0144316125661134,0.0104229031130671,-0.0170427020639181,0.0018968754447996,-0.017535837367177,98350726
468,0.0029758140444755,-0.0146075561642646,-0.0069698495790362,-0.0053586838766932,-0.0080961640924215,0.0033219056203961,-0.0062205004505813,-0.0507340207695961,-0.0345054417848587,0.0306123625487089,18682509
469,0.0059796867093675,0.0368920235968901,0.0055880896934269,-1.2557734996536136e-05,-0.0018990133829715,-0.0003671062941335,-0.0218064039210786,-0.0250786474929594,0.0249644674712214,-0.0068000821307643,4594647
470,-0.0151043245568871,-0.0063236812129616,-0.0355733670294284,-0.0095238974317908,-0.0086930925026535,0.0055463570170104,0.0739422142505645,-0.0408006720244884,-0.0233496818691492,0.0034230193123221,54107666
471,-0.0117051927372813,-0.0020861155353486,-0.0259799342602491,-0.0026832118164747,-0.0074809035286307,0.0044989213347435,0.0539979673922061,-0.0392206273972988,-0.0108498632907867,0.0178437028080225,186443103
472,-0.0180442743003368,-0.0095635373145341,-0.038702230900526,-0.0197589714080095,-0.0159901157021522,-0.0042661326006054,0.057165753096342,-0.0378210358321666,-0.0352631248533725,-0.01014294475317,97759716
473,-0.0060399640351533,0.0049764970317482,-0.0099908802658319,0.0087179318070411,-0.0054605868645012,0.0027531953528523,0.020757557824254,-0.036587219685316,0.0099831828847527,0.0418781675398349,7843922
474,0.0037515847943723,0.0152777349576354,-0.0146344453096389,0.005846251733601,-0.0035158060491085,0.0035441704094409,0.0195695906877517,-0.0360632948577404,0.0048346808180212,0.0239345971494913,124845535
475,-0.0060399640351533,0.0049764970317482,-0.0099908802658319,0.0087179318070411,-0.0054605868645012,0.0027531953528523,0.020757557824254,-0.036587219685316,0.0099831828847527,0.0418781675398349,7445076
476,0.0275957379490137,-0.0288732033222913,-0.021622085943818,0.019512740895152,-0.000976868905127,0.0187446121126413,0.0081500010564923,-0.0375570841133594,-0.0172020141035318,0.0434833280742168,3855634
477,0.0324432626366615,0.0190779734402894,0.0330130718648433,0.0014086728915572,0.0026673190295696,0.0076744854450225,0.0060269399546086,-0.0154393026605248,-0.0262733288109302,0.05589060485363,17110600
478,-0.0111786763035939,-0.0179227738133523,0.0083017293829371,0.0170334726464379,0.0254777474595057,0.0165237600423066,0.0135889176532192,0.0457724456203637,0.0330716322325335,0.0318742101791749,191388858
479,-0.0178140178322792,0.0141209345310926,-0.0473856106400489,-0.0097310952842235,-0.0141675770282745,0.0028917838353663,0.0269249770790338,-0.0290622152388095,-0.0296738408505916,0.0160249546170234,85885097
