,security,conformity,tradition,benevolence,universalism,self-direction,stimulation,hedonism,achievement,power,song_id
0,-0.0031989617273211,-0.0353477001190185,-0.0159531496465206,-0.0111546665430068,-0.0115558551624417,0.0017188943456858,-0.0029708044603466,-0.0248270034210611,-0.0162986107170581,-0.0155667793005704,4116102
1,-0.0097398459911346,-0.0441949479281902,-0.017354279756546,-0.0162068288773298,-0.0135189648717641,-0.0008051138138398,0.0070646167732775,-0.0363312033046496,-0.0122723476961255,-0.0317753180861473,80257632
2,-0.0009753101039677,-0.0489589720964431,-0.0202824678272008,-0.0126529801636934,-0.014018153771758,0.0067689744755625,0.019631166011095,-0.0240488609738278,-0.018725773319602,-0.0429769456386566,2241308
3,0.0118189360946416,-0.0543943271040916,-0.0107596591114997,-0.0019386303611099,-0.0102234818041324,0.006050023715943,-0.015646755695343,-5.938276991678503e-05,-0.029044184833765,-0.0035493455361574,204336669
4,0.0109732117608232,0.0055719767824662,-0.0144406254334633,-0.0081595896983191,-0.0052644860800442,-0.0012225946680452,-0.0125579341536012,0.023322378345029,0.0079688971439395,0.0259529839712671,34952275
5,-0.0047986637800931,-0.0227138940244913,-0.0182250309735536,-0.0100775696337223,-0.0125530250370502,-0.0024654411245137,0.0011804862879216,-0.0086765553385501,-0.0135920578613877,-0.0225040614604949,17390586
6,-0.0127362143248319,-0.0148889441043138,0.0004162145778536,-0.0128367524594068,-0.0074680829420685,-0.0058705317787826,-0.007960787974298,-0.0298786108238031,-0.0095278872177004,-0.0120233763009309,9223300
7,-0.0293638557195663,-0.0276412889361381,-0.0071811028756201,-0.0210869740694761,-0.0105791697278618,-0.0193387605249881,-0.0344900302588939,-0.0783814606781975,0.0016995486803352,0.0057506565935909,149782763
8,0.0221103485673666,0.0066645266488194,0.0257040821015834,-0.0040200250223279,0.0022066771052777,0.0065766857005655,-0.0064262431114912,-0.0010079565276065,-0.0372376665472984,0.0321183055639267,99962781
9,-0.0002493957872502,0.0036951736547052,-0.0027077938430011,-0.0042757578194141,-0.007175306789577,-0.0009882405865937,-0.0063851056620478,-0.0247615569269934,-0.0082220900803804,-0.0005125238094478,136930153
10,0.0001399784814566,-0.0269885621964931,-0.0117037082090973,-0.0087157189846038,-0.0116169089451432,0.0013996423222124,0.0058691827580332,-0.002265928617486,-0.0088475830852985,-0.0203241854906082,85912872
11,-0.035557129320158,-0.0196374807482469,-0.0071944069955343,7.507899162554786e-05,0.0077717138530321,0.0049731242617825,0.01299101220111,0.0244177676981196,-0.0346589804967329,-0.0021847984540928,57005765
12,-0.0293638557195663,-0.0276412889361381,-0.0071811028756201,-0.0210869740694761,-0.0105791697278618,-0.0193387605249881,-0.0344900302588939,-0.0783814606781975,0.0016995486803352,0.0057506565935909,99567690
13,0.0130991246551275,-0.0460878014564514,-0.0217122267931699,0.0021183171775192,-0.0074259843677282,0.0077405860647559,-0.006581200286746,-0.0348871763582986,-0.0195364728569984,-0.0010494641028344,151085454
14,-0.0195518527179956,-0.035918116569519,-0.0122676882892847,-0.0186469033360481,-0.0120490677654743,-0.0100719388574361,-0.0137127004563808,-0.0573563324375484,-0.0052864006720483,-0.013012328185141,134245347
15,-0.0029213523957878,-0.0372458361089229,-0.0141164790838956,-0.012453269213438,-0.011274317279458,0.0037379642017185,0.012600309215486,-0.0260501871423308,-0.0149980951100587,-0.0332247875630855,16074172
16,0.0014935322105884,-0.0111624207347631,-0.0035413815639913,-0.0053246924653649,-0.0052037816494703,0.0022812688257545,-0.0060317832976579,-0.0304816584229472,-0.0057161748409271,-0.0178680699318647,61210999
17,0.0051175444386899,-0.0165962278842926,-0.0090097757056355,0.0028121969662606,-0.0058085531927645,-0.0015521377790719,-0.0278371702879667,-0.0222056897314735,-0.0159016959369182,0.005319207906723,102814436
18,0.0007533582393079,-0.0248918496072292,-0.009361196309328,-0.0074298484250903,-0.0095755588263273,-0.0037144995294511,-0.0153086530044674,-0.0193836459314596,-0.0152749670669436,0.0103570455685257,205113268
19,0.003063804237172,0.0076211020350456,-0.0011152471415698,-0.0059002172201871,-0.006271231919527,-0.0031521019991487,-0.0163081381469964,-0.0215381646524838,-0.0341782420873642,0.0162204075604677,99526020
20,-0.0293638557195663,-0.0276412889361381,-0.0071811028756201,-0.0210869740694761,-0.0105791697278618,-0.0193387605249881,-0.0344900302588939,-0.0783814606781975,0.0016995486803352,0.0057506565935909,152156851
21,0.0127265136688947,-0.0165739562362432,0.0021467267069965,-0.0016069079283624,-0.0030634468421339,-0.0001297271810472,-0.025067675858736,-0.0038352891958315,-0.0304901413619518,0.0322257727384567,17997657
22,0.0029375287704169,-0.0381661765277385,-0.0110414726659655,-0.0056134583428502,-0.0147363860160112,-0.0022157644852995,-0.0281062312424182,-0.0450332030324458,-0.0214600898325443,0.0034415018744766,55713838
23,-0.0293638557195663,-0.0276412889361381,-0.0071811028756201,-0.0210869740694761,-0.0105791697278618,-0.0193387605249881,-0.0344900302588939,-0.0783814606781975,0.0016995486803352,0.0057506565935909,97622225
24,0.0111383022740483,0.0154998525977134,0.0090620080009102,0.0001839736942201,0.0011251692194491,-0.0009390036575496,0.004908250644803,0.0058538961163323,-0.0307344160974025,0.0164213441312313,114553438
25,0.0091250613331794,-0.0464653596282005,-0.0090467147529125,-0.0017875555204227,-0.0141735738143324,0.0004821843467652,-0.0386379174888134,-0.0421854079019924,-0.037864051759243,0.0084326602518558,45138126
26,-0.0026247915811836,-0.0360856316983699,-0.0092168971896171,-0.0089633017778396,-0.0126050617545843,0.0023057092912495,-0.0061736055649816,-0.0334371498828408,-0.0301204081624746,-0.0163545217365026,51897534
27,-0.0031289693433791,-0.0482513308525085,-0.0173362586647272,-0.0091341035440564,-0.0145402634516358,-0.0015557833248749,-0.0112842973321676,-0.0217212963537114,-0.0260105803608894,-0.0142549909651279,74451241
28,-0.0293638557195663,-0.0276412889361381,-0.0071811028756201,-0.0210869740694761,-0.0105791697278618,-0.0193387605249881,-0.0344900302588939,-0.0783814606781975,0.0016995486803352,0.0057506565935909,6629722
29,0.0054314588196575,-0.0215495079755783,-0.0100704785436391,-0.0016908628167584,-0.0108255483210086,-0.0045216814614832,-0.0362374186515808,-0.022287814599028,-0.0306454561650753,0.0180547069758176,111234596
30,0.0053630536422133,0.0011760154739022,0.0099883265793323,-0.0008690699469298,3.719053347595036e-05,0.0038194630760699,-0.0118013247847557,-0.0086767700037686,-0.0125027503818273,0.0108203254640102,126273707
31,0.0008887599688023,-0.047392901033163,-0.0100254882127046,-0.0071172914467751,-0.0107849594205617,0.0029523223638534,-0.0098750544711947,-0.0246682279479642,-0.0168821662664413,-0.0150456456467509,99567684
32,-0.0009358667302876,-0.0232522077858448,-0.0112189836800098,-0.0100632980465888,-0.0107899345457553,0.0008729189285077,-1.9196653738617897e-05,-0.0322018984184763,-0.0081872232258319,-0.0176075845956802,102339234
33,-0.0083186235278844,-0.0101777240633964,-0.0208682008087635,-0.009909575805068,-0.0077326297760009,-0.0038073402829468,-0.0039705801755189,0.0024677866545911,-0.0077973129227757,-0.0107096433639526,1632500
34,-0.0026711812242865,-0.0024806964211165,0.0108219487592577,0.0054118065163493,0.0039489339105784,0.0036298991180956,-0.0074488134123384,-0.0081394758554733,-0.0377288870513439,0.0403652191162109,35094579
35,0.0362631385244925,-0.0125754571757531,0.0213481424034831,0.005206284469749,0.0159817546654417,0.0195985746235957,-0.029792855816227,0.0593432164942822,0.0389150033103773,0.0528291496570901,16843548
36,-0.0024497197009623,-0.0298165958374738,-0.0099609792232513,-0.0123746544122695,-0.0136084640398621,-0.0039723189547657,-0.0104267392307519,-0.0189872699626225,-0.0203186087310314,-0.0023639078717678,106839634
37,0.013523656874895,-0.0551118478178978,-0.0009579767938703,-5.0867791287600994e-05,-0.0097232386469841,0.0037383753806352,-0.0270536988973617,-0.0088883485504233,-0.0337695553898811,0.0081171337515115,134245346
38,-0.0072868466377258,-0.0462641492486,-0.0186259355396032,-0.0155968097969889,-0.0138864424079656,0.0015115914866328,0.0122589403763413,-0.0310749220121308,-0.0140188280493021,-0.036466047167778,5635960
39,0.0035374788567423,-0.0380686074495315,-0.0159589443355798,-0.008229692466557,-0.0112503496930003,0.005576919298619,0.0103180315345525,-0.0133926214599749,-0.0185075402259826,-0.0315795764327049,142836663
40,0.0052172662690281,-0.0398095250129699,-0.0095370337367057,-0.0046048467047512,-0.0095917787402868,0.0062143108807504,-0.0064041009172797,-0.0244136325432993,-0.0298207700252532,-0.0130432797595858,152156857
41,0.0203608777374029,-0.0164674147963523,-0.0021598730236291,0.0001236038515344,-0.0037166036199778,0.002426388207823,-0.0064549832604825,0.0423905684584724,-0.0137937078252434,0.0008891339530237,84371480
42,7.216446101665497e-05,-0.0524717718362808,-0.0224408693611621,-0.0137667506933212,-0.0149888666346669,0.0084617082029581,0.0278419312089681,-0.0153060744292137,-0.0192582942545413,-0.0505382977426052,46337905
43,0.0221016556024551,-0.0729359239339828,-0.0004587516887113,0.0025225749704986,-0.0074891583062708,0.0096247429028153,-0.0232213586568832,0.0189059539066416,-0.0332092493772506,0.003295975504443,828136
44,-0.0068585276603698,-0.0134838074445724,-0.0122239952906966,-0.006938908714801,-0.0078576290979981,-0.00343664502725,-0.0022612323518842,-0.0124239826586575,-0.0133608719334006,-0.0104639064520597,64471701
45,0.0034823979452699,0.0158758087017997,0.0172776794864397,-0.0088398841134663,-0.0055281138588438,0.0029153596581345,-0.0156059572358825,0.0653641793311492,-0.0343323669013528,-0.019543324714346,80988232
46,-0.0006787398597225,-0.0376602821052074,-0.0264953970909118,-0.0090055633336305,-0.0137417055666446,0.0074861641041934,0.0132300220429897,-0.0190789083196558,-0.0271785967051982,-0.0391332581639289,76983686
47,0.0293146781623363,-0.0105259353294968,0.0142172509804368,0.0135911684483289,0.0021389764733612,0.0174644142389297,-0.0373791232705116,-0.0390809289792977,-0.0541237108409404,0.0420292317867279,148763951
48,8.877832442522049e-05,-0.0278167463839054,-0.0135175036266446,-0.0095179202035069,-0.0106815062463283,0.0026647262275218,0.0020754572469741,-0.0170046019658,-0.0133054899051785,-0.0248147025704383,139654441
49,-0.0201060362160205,0.0345732606947422,0.0315985269844532,0.0060006310231983,0.0017822512891143,-0.0141600798815488,0.0338274128735065,0.0779146219710909,-0.0279786214232444,-0.0312430746853351,55441816
50,-0.0195518527179956,-0.035918116569519,-0.0122676882892847,-0.0186469033360481,-0.0120490677654743,-0.0100719388574361,-0.0137127004563808,-0.0573563324375484,-0.0052864006720483,-0.013012328185141,2107983
51,-0.0066366358660161,0.0360272116959095,0.0462192855775356,0.0113171627745032,0.0083747589960694,0.0010867880191653,-0.0497129335999488,-0.0035507822854784,0.00933538377285,0.0142430569976568,57005772
52,0.011312716640532,-0.0057355528697371,0.0087661035358905,-0.0015548842493444,-0.005916217342019,0.0002822739770635,-0.0299618486315011,-0.0164375537845105,-0.0210696198046207,0.0201955214142799,2565059
53,-0.0007554558105766,-0.0486713759601116,-0.0206757821142673,-0.0117144435644149,-0.0131658818572759,0.0053543169051408,0.0150165241211652,-0.0255607785013105,-0.017062485218048,-0.0356700383126735,98114160
54,-0.0146458493545651,-0.0400565303862094,-0.0148109905421733,-0.0174268670380115,-0.0127840172499418,-0.0054385256953537,-0.0033240483608096,-0.0468437677507992,-0.0087793730199337,-0.0223938189446926,49562778
55,0.001837282674387,-0.0384044386446476,-0.0112311393022537,-0.006707162130624,-0.0099777737632393,0.006264847703278,0.0039514387026429,-0.020887334973177,-0.0190784931182861,-0.0252183303236961,19226344
56,0.0027484779711812,-0.01580904237926,-0.0146939558908343,-0.0013344759354367,-0.0017846890259534,0.0034682068508118,0.0006465679616667,-0.007959670577835,-0.0124439448118209,-0.0112439226359128,152156863
57,0.021443760022521,0.0132266459986567,0.0137739880010485,0.0011545623419806,0.0046370308846235,-0.0053138984367251,-0.0057557802647352,-0.0206849470873217,-0.0025558043271303,0.0074311010539531,136884961
58,-0.002428634557873,0.0018765991553664,0.0032166163437068,0.0008530271006748,-0.0041912919841706,-0.0022175149060785,-0.0297236144542694,-0.0066797969295068,-0.0249951798468828,0.0232806727290153,1632495
59,-0.0293638557195663,-0.0276412889361381,-0.0071811028756201,-0.0210869740694761,-0.0105791697278618,-0.0193387605249881,-0.0344900302588939,-0.0783814606781975,0.0016995486803352,0.0057506565935909,1027136
60,-0.009699567221105,0.0165296718478202,0.0048605035990476,-0.0139673240482807,0.0010304327588528,-0.0075767836533486,0.0125575875863432,-0.0404586781967262,0.0242175757884979,-0.0123655572533607,17326775
61,0.0075510805472731,-0.0323948785662651,-0.0022197705693542,-0.0021039028652012,-0.0081342672929167,0.0047901263460516,-0.0121343377977609,-0.0136763025164421,-0.0332953482866287,0.0036478289403021,2323034
62,0.0241542235016822,-0.0739469826221466,0.0065517388284206,0.006494422443211,-0.0070854229852557,0.0037036277353763,-0.0566433779895305,0.0073668570969714,-0.0376633144915103,0.0322480611503124,152997654
63,0.0039235288277268,-0.0458074808120727,-0.0143477953970432,-0.0047529716975986,-0.0133675783872604,0.0031062625348567,-0.0253255814313888,-0.0410865172530921,-0.030289364978671,-0.0050658881664276,134245351
64,-0.0011216619750484,-0.0295125283300876,-0.0111554190516471,-0.0096607450395822,-0.0120674595236778,-0.0014243468176573,-0.0183322988450527,-0.0364329674529546,-0.0291462298482656,0.000594173092395,59403627
65,-0.0095007391646504,-0.027394289150834,-0.0019071449059993,-0.0082649579271674,-0.0073869316838681,-0.007685923948884,-0.0375700779259204,-0.0559513254706976,-0.0193418618291616,0.0151011971756815,113169861
66,-0.0130105139687657,-0.0414359979331493,-0.0156587548553943,-0.0170201882719993,-0.0130289997905492,-0.0038940547965466,0.0001388443633913,-0.0433395792403675,-0.0099437022581696,-0.0255209766328334,56800868
67,7.216166704893112e-05,-0.0524717718362808,-0.0224408693611621,-0.0137667497619986,-0.0149888675659894,0.0084617091342806,0.0278419312089681,-0.015306074823401,-0.0192582979798316,-0.0505383014678955,34373547
68,-0.0010475928429514,0.0074922852218151,0.0024439808912575,-0.0072291498072445,-0.0044630197808146,-0.002509563229978,-0.0061971098184585,0.0032853001783835,-0.0225635152310132,0.0126667050644755,3671199
69,0.0012583237839862,-0.0495084263384342,-0.0125930700451135,-0.0097877662628889,-0.0117161367088556,0.0053920405916869,0.0064486698247492,-0.0141243591593142,-0.0184843149036169,-0.0298700649291276,210971961
70,0.0050558364018797,-0.0093697113916277,0.0054815616458654,-0.0012946368660777,-0.0051566362380981,0.0028174058534204,-0.01188325881958,0.0041020822335636,-0.0130018126219511,0.0063777770847082,163661563
71,-0.0035388993564993,-0.0276846773922443,-0.0076924939639866,-0.0044011250138282,-0.0064703961834311,0.0077882800251245,0.0101680941879749,-0.0110239304510925,-0.0138143431395292,-0.0242359843105077,57005722
72,-0.0053810230456292,-0.0316374972462654,-0.0073494976386427,0.0020216449629515,-0.0025550948921591,0.0048818727955222,-0.0016513505252078,-0.0037028570715035,-0.0419815145432949,0.0212864037603139,93918535
73,-0.0043087024241685,-0.002644904423505,-0.0212359577417373,-0.0003122834023088,-0.0083098849281668,-0.0002869055606424,-0.0314884297549724,-0.0385072274227888,-0.0404761359095573,0.0064245052635669,49652179
74,0.0076887914910912,-0.0251168087124824,-0.0043807001784443,-0.0050495825707912,-0.0111879054456949,-0.0021671676076948,-0.0262359026819467,-0.0118495662754615,-0.0181667581200599,0.0007705145981162,188693345
75,-0.007989227771759,-0.019507598131895,-0.0124033857136964,-0.0071720099076628,-0.007632085122168,-0.0007200090331025,0.0058244531974196,-0.0009985473047501,-0.0069061107933521,-0.0046022338792681,11100005
76,-0.0024203052744269,-0.0316901803016662,-0.0083608189597725,-0.0057995999231934,-0.0080191418528556,0.0042856927029788,-0.0061781853437423,-0.0234226108532369,-0.0307998713105916,-0.0037844823673367,17086876
77,0.0103623755276203,-0.0271472856402397,0.003366810735315,0.0045570638030767,-0.0041946931742131,0.003966910764575,-0.0406501367688179,-0.0335211930405713,-0.0403832644224166,0.0244517363607883,102112552
78,0.0008457007352262,-0.0505015030503273,-0.0207295455038547,-0.0129868146032094,-0.0145248193293809,0.0081721637398004,0.0243011135607957,-0.0158228070017986,-0.0204753018915653,-0.0466793999075889,68242601
79,-0.0010135340271517,-0.0076529085636138,-0.0226303674280643,-0.0081157088279724,-0.0054913610219955,0.0045859171077609,0.0096452720463275,-0.0210297900937417,-0.0190749373286962,-0.0224545523524284,86451188
80,0.0015044435858726,-0.0326462425291538,-0.0102602038532495,-0.0024164984934031,-0.0086930710822343,0.0041866479441523,-0.0170668549835681,-0.0642232442403964,-0.0219840891659259,-0.00881053134799,17612683
81,-0.0077360637790486,0.0176849182558751,0.0249581761676791,0.0025429195646916,-0.0095963098695054,-0.0058828078519853,-0.0128402367012265,0.0364403001215419,0.0022030372023203,0.0114032111332617,59543419
82,0.0137545447796583,-0.0337709747254848,0.0038056941702961,0.0015562851913273,-0.0077298507094383,-0.0017629759386181,-0.0471623390913009,-0.0031087062200912,-0.0256663970649242,0.0242334809154272,124205317
83,-0.0109069170430302,0.0198580138385295,-0.0121181430295109,-0.0107475221157073,-0.0039395485073328,-0.0119088403880596,-0.0217281430959701,-0.0369968766548278,-0.0167578030377626,-0.0189585275948047,195065492
84,-0.0195518527179956,-0.035918116569519,-0.0122676882892847,-0.0186469033360481,-0.0120490668341517,-0.0100719379261136,-0.0137127004563808,-0.0573563324375484,-0.0052864006720483,-0.013012328185141,57544795
85,-0.0005499094258993,-0.0430900491774082,-0.0148171409964561,-0.0122342593967914,-0.0119602009654045,0.0035949018783867,0.0076312040910124,-0.0261286757831351,-0.0199262388050556,-0.0295045711100101,85345213
86,0.0081705693155527,0.0037842858582735,-0.0007928745471872,-0.0006750958273187,-0.0040952982380986,0.0028565567918121,-0.0048386305570602,-0.0172440932415976,-0.0179626159369945,-0.0027501648291945,14469100
87,0.0045462395064532,-0.040756307542324,-0.0019847634248435,-0.0030759987421333,-0.0076236259192228,0.0044138981029391,-0.0148249752819538,-0.0158783581899808,-0.02017817273736,-0.0075321299955248,5315847
88,0.0136791365221142,-0.0208446029573678,-0.0088264802470803,-0.0064487811177968,-0.0073139062151312,0.0050583858974277,0.0218426305800676,-0.0165198346875635,-0.0001811775146052,-0.0273940544575452,134245359
89,7.21607357263565e-05,-0.0524717718362808,-0.0224408656358718,-0.0137667534872889,-0.0149888666346669,0.0084617091342806,0.0278419312089681,-0.0153060754786019,-0.0192582961171865,-0.0505382977426052,99480601
90,0.0070959199219942,0.0113947829231619,0.0042440928518772,-0.0030871024355292,-0.0042456788942217,0.0021975897252559,-0.0191197656095027,-0.0054197645251096,-0.0390667766332626,0.0355862416326999,46178447
91,-0.0111820753663778,0.023293511942029,0.0355391986668109,0.0048363325186073,0.0045839720405638,-0.002998320851475,-0.046668354421854,-0.0185169176733725,0.0078082280233502,0.0125445779412984,60637252
92,-0.0299878902733325,0.0699858143925666,0.0189010724425315,-0.0260188411921262,0.0073022255674004,-0.0161569155752658,0.0290169809013605,-0.0554739166034976,0.0574163794517517,-0.0317318923771381,67809135
93,-0.0066366358660161,0.0360272116959095,0.0462192855775356,0.0113171627745032,0.0083747589960694,0.0010867880191653,-0.0497129335999488,-0.0035507822854784,0.00933538377285,0.0142430569976568,103553857
94,-0.0293638557195663,-0.0276412889361381,-0.0071811028756201,-0.0210869740694761,-0.0105791697278618,-0.0193387605249881,-0.0344900302588939,-0.0783814606781975,0.0016995486803352,0.0057506565935909,200750991
95,-0.0293638557195663,-0.0276412889361381,-0.0071811028756201,-0.0210869740694761,-0.0105791697278618,-0.0193387605249881,-0.0344900302588939,-0.0783814606781975,0.0016995486803352,0.0057506565935909,181695848
96,-0.0146458484232425,-0.0400565303862094,-0.0148109905421733,-0.0174268670380115,-0.0127840172499418,-0.0054385252296924,-0.0033240483608096,-0.0468437677507992,-0.0087793730199337,-0.0223938189446926,7308736
97,0.0040377699770033,-0.0402073785662651,-0.010684791021049,-0.0066604134626686,-0.0100044338032603,0.008235259912908,0.0069915568456053,-0.0099355499135245,-0.0161646492779254,-0.0296985134482383,76169655
98,0.0075587891042232,-0.0266113616526126,-0.0069651245139539,0.0022874942515045,-0.0091334972530603,-0.001415770035237,-0.0474188551306724,-0.0390336646460749,-0.038552064448595,0.0208144299685955,17614637
99,-0.0014207186177372,-0.0180724840611219,0.0024724297691136,-0.0016466309316456,-0.0033386524301022,0.0010768857318907,0.0010825293138623,0.0134628182115047,-0.043508194386959,0.0228773150593042,129997203
100,0.0155512271448969,-0.0252819508314132,-0.0054480931721627,-0.0024581083562225,-0.0151905193924903,-0.0030872491188347,-0.0456487722694873,-0.0179959201072281,-0.0225357804447412,0.0112464670091867,86981001
101,0.0028463155031204,0.0087434696033597,-0.0018168068490922,-0.0043600243516266,-0.005584524013102,0.0002726132515817,-0.0051026199944317,-0.0243843114008052,-0.0085907950997352,0.0053753815591335,178303212
102,0.0280576236546039,-0.0149755412712693,0.0104900710284709,0.0112209077924489,0.0056884605437517,0.0088358782231807,-0.0201438013464212,0.0239520386416416,-0.0090313702821731,0.0199118163436651,58693284
103,-0.0042894571088254,-0.0152428857982158,0.0089860530570149,-0.0044198972173035,-0.0101940985769033,-0.0025382214225828,-0.0265930742025375,-0.0523309886006364,-0.0437873341143131,0.0303976200520992,203148074
104,0.0024707436095923,-0.0306456852704286,-0.0099647976458072,-0.0055163260549306,-0.0092596150934696,0.0012277502100914,-0.0030387081205844,-0.0065780801975092,-0.0188652127981185,-0.0107052009552717,17516504
105,-0.0016073221340775,-0.0385652743279933,-0.0161070302128791,-0.0108461547642946,-0.0170293487608432,-0.0096322316676378,-0.023707577958703,-0.0508122323560909,-0.0267756450921297,-0.0105284266173839,51846914
106,-0.0049117607995867,-0.0413944311439991,-0.0141910370439291,-0.0125051606446504,-0.0122013995423913,0.0028575272299349,0.0082511808723211,-0.0268170147129996,-0.0151205100119113,-0.0323831029236316,212958532
107,-0.0091388905420899,0.005027774721384,-0.0094375638291239,-0.0095017319545149,-0.0042010182514786,-0.0066126519814133,-0.0006102339830249,-0.0131851451357904,0.0065899891778826,-0.0045185796916484,2135522
108,0.0033055755775421,-0.0157921761274337,0.0013878571335226,-0.0083162114024162,-0.0091007398441433,0.002217833418399,-0.0072826971299946,0.0003739990842534,-0.0156458672136068,-0.0059410403482615,90910059
109,-0.0055653452873229,-0.0372273251414299,-0.0146202323958277,-0.0126893222332,-0.0124268578365445,0.0017705372301861,0.009031786583364,-0.0279642386411454,-0.016295175999403,-0.0387848690152168,1629358
110,-0.0195518527179956,-0.035918116569519,-0.0122676882892847,-0.0186469033360481,-0.0120490677654743,-0.0100719388574361,-0.0137127004563808,-0.0573563324375484,-0.0052864006720483,-0.013012328185141,134245357
111,-0.0097398459911346,-0.0441949479281902,-0.017354279756546,-0.0162068288773298,-0.0135189648717641,-0.0008051138138398,0.0070646167732775,-0.0363312033046496,-0.0122723476961255,-0.0317753180861473,2037677
112,4.085100954398513e-05,0.0060849818401038,-0.0076619694009423,-0.0069954800419509,-0.0026677078567445,0.0040530203841626,0.0105538172647356,0.0086086121020939,-0.038001213222742,0.0133450198918581,71041493
113,-0.0019423459889367,0.0204492267221212,-0.0197012722492218,-0.0058120340108871,-2.701603807508945e-05,0.0031177110504359,0.0060108941979706,-0.0163556214259498,-0.012777479365468,-0.01370336022228,99470365
114,-0.0051224343478679,-0.0480899102985858,-0.0197479743510484,-0.0150585575029253,-0.014210682362318,0.0035557455848902,0.0168421752750873,-0.0264370257552678,-0.0155598483979702,-0.0406049527227878,1261561
115,-0.0258064251393079,0.0450702086091041,0.0085479784756898,-0.0246136859059333,0.0016923556104302,-0.0148588754236698,0.0130422264337539,-0.0497543700369887,0.0431379526853561,-0.0239845290780067,41571963
116,0.0058152498677372,-0.0358577147126197,-0.004475278314203,-0.0016048979014158,-0.0087058022618293,0.002417922951281,-0.0283755548298358,-0.0353604322044074,-0.0335834622383117,0.0070579038001596,51113095
117,7.216166704893112e-05,-0.0524717718362808,-0.0224408693611621,-0.0137667497619986,-0.0149888675659894,0.0084617091342806,0.0278419312089681,-0.015306074823401,-0.0192582979798316,-0.0505383014678955,76169642
118,0.009281856007874,-0.0123228337615728,-0.0027063745073974,-0.0056100743822753,-0.0094434730708599,-0.0044154562056064,-0.0198705568909645,0.0115665568543439,-0.0119464006274938,0.0076135993003845,109965166
119,7.216166704893112e-05,-0.0524717718362808,-0.0224408693611621,-0.0137667497619986,-0.0149888675659894,0.0084617091342806,0.0278419312089681,-0.015306074823401,-0.0192582979798316,-0.0505383014678955,84279791
120,-0.0296758729964494,0.0211722627282142,0.0058599850162863,-0.0235529076308012,-0.0016384724294766,-0.017747838050127,-0.0027365214191377,-0.0669276888688606,0.0295579563826322,-0.0129906190559268,194171766
121,-0.0048492886126041,-0.041203174740076,-0.0111402887850999,-0.0031169687863439,-0.0107987243682146,-0.0028835737612098,-0.0272974949330091,-0.0276670804023184,-0.0250085387378931,0.013622005470097,18271679
122,-0.0066594397649168,-0.0162182915955781,-0.0019233609782531,-0.0066927019506692,-0.0051188170909881,0.0001980462111532,-0.0009365590522065,-0.0088701561604764,-0.0267464574426412,0.0062007619999349,58470789
123,-0.0168504007160663,0.0153959738090634,0.0013996876077726,-0.0199408140033483,-0.0024012057110667,-0.0060365991666913,0.0234429575502872,-0.0400614702949719,0.0220216363668441,-0.0353625789284706,4194332
124,-0.0027875516097992,-0.0113572943955659,0.0075091905891895,-0.0001455532619729,-0.0015705956611782,-0.0004227454774081,-0.0060216942802071,0.0128263491324314,-0.041806872934103,0.0302237793803215,18167326
125,-0.0100972792133688,-0.0176279321312904,-0.0200112015008926,-0.0133141763508319,-0.0108101852238178,-0.0015411440981552,0.0010115882614627,-0.0250418464753276,-0.014310672879219,-0.0342285484075546,84351638
126,-0.0004082882078364,-0.0421130694448947,-0.0103408228605985,-0.0057767471298575,-0.0107327904552221,0.0043978071771562,-0.0023621590808033,-0.0105437367001696,-0.0191861912608146,-0.0193711351603269,77891076
127,-0.0015489346114918,-0.0042903977446258,-0.03137793764472,-0.0069115692749619,-0.0104562174528837,-0.0013500950299203,-0.0164620205760002,0.0398437753573733,-0.0283546261489391,0.0253147408366203,179755765
128,0.0141585860401391,-0.0233244616538286,-0.0086309416219592,0.0025275158695876,-0.0094879250973463,0.0106062311679124,-0.0024063645396381,-0.0147694935721746,-0.0346788950264453,-0.0029245186597108,82816346
129,7.216166704893112e-05,-0.0524717718362808,-0.0224408693611621,-0.0137667497619986,-0.0149888675659894,0.0084617091342806,0.0278419312089681,-0.015306074823401,-0.0192582979798316,-0.0505383014678955,30401956
130,-0.0048832367174327,0.0048713535070419,-0.0048323948867619,-0.0098268361762166,-0.0048099467530846,-0.0082549015060067,-0.0164512023329734,-0.0097608014004693,-0.0010999694932252,-0.0034826337359845,109598935
131,-0.0072868466377258,-0.0462641492486,-0.0186259355396032,-0.0155968097969889,-0.0138864424079656,0.0015115914866328,0.0122589403763413,-0.0310749220121308,-0.0140188280493021,-0.036466047167778,111304309
132,-0.0076070824244871,-0.0038313222211783,-0.0443720821934924,-0.0098407448656261,-0.017302405251727,-0.0069391796440909,0.0341174318938123,-0.0045720347059161,-0.0380181877629222,-0.0339952284361757,134245353
133,-0.0105246128514409,-0.0041342782787978,-0.0210578329861164,-0.008661214262247,-0.0070194033905863,-0.0085357893258333,-0.0017947613960132,-0.0084454788144407,-0.0022410696838051,-0.008361617103219,32800026
134,0.0040541156195104,-0.029838029295206,-0.0058069704100489,-0.0019050876144319,-0.0058076097629964,0.0035059114452451,-0.0198906119912862,-0.0163043159435532,-0.0129571240395307,0.0079555474221706,57241602
135,0.0177573896944522,0.0093550644814968,0.0052955895662307,-0.0047086114063858,-0.0066549968905746,-0.001225963467732,-0.0107938963919878,0.0025324000749125,-0.0342856161296367,0.0301580633968114,7946252
136,-0.0002762455260381,-0.0120865069329738,-0.0059201791882514,-0.0056903348304331,-0.008069522678852,-0.0059426394291222,-0.0209514554589986,-0.0136368733487311,-0.0107375280931591,0.022937785834074,108107289
137,-0.0070464448072016,-0.0385557413101196,-0.020364761352539,-0.0129826003685593,-0.0145722301676869,0.0006198629271239,0.0001736472477205,-0.0318119596044126,-0.0207531079649925,-0.0226260758936405,64185077
138,-0.002603844506666,-0.0502144508063793,-0.0210536178201437,-0.0144322272390127,-0.0145879834890365,0.0059343948960304,0.0221753865480422,-0.0210402012795507,-0.0173530261963605,-0.0454211235046386,83511139
139,-0.002145426813513,-0.0091059189289808,-0.0042739817872643,-0.0052306437864899,-0.004493442364037,-0.0035575474612414,-0.0205858182162046,-0.0416553451218124,-0.0216083340346813,0.0173109881579875,50343962
140,0.0573455648934868,-0.0101400851534993,0.0218883551057857,-0.0026630985767723,0.0032914086393454,-0.0001178751130855,0.0194997432320571,0.0333896336154841,0.0099316560613784,-0.0113345804352039,199050935
141,-0.0051825456321239,-0.0379580296576023,-0.0122101325541734,-0.0125177204608917,-0.0113443750888109,0.0013339214492589,0.0026258816942572,-0.0326571673203722,-0.0189767554402351,-0.0217998325824737,50820032
142,0.011228185147047,-0.0006130884867161,0.0087061319500207,0.002587821567431,-0.0044812271371483,0.0010263156145811,-0.0214376710355281,-0.0021374951336085,-0.0072025032714009,0.0134037667885422,82020498
143,-0.0013427857775241,-0.0375646539032459,-0.0101194875314831,-0.0088202692568302,-0.010501442477107,0.0044467109255492,0.0026718457229435,-0.0232833776439148,-0.0185945108532905,-0.0258973538875579,9474028
144,-0.0293638557195663,-0.0276412889361381,-0.0071811028756201,-0.0210869740694761,-0.0105791697278618,-0.0193387605249881,-0.0344900302588939,-0.0783814606781975,0.0016995486803352,0.0057506565935909,55179313
145,-0.0006227837875485,-0.0404329411685466,-0.0175805538892745,-0.0102003924548625,-0.0133350398391485,0.0034013018012046,0.0086382450535893,-0.0063896778212525,-0.0201150588691234,-0.0282769370824098,60392809
146,-0.0037585981190204,-0.0457783564925193,-0.0088952351361513,-0.0080099571496248,-0.0173256397247314,-0.0128437103703618,-0.0636034682393074,-0.0727989263940142,-0.0278720259666442,0.0238768551498651,92235366
147,-0.001575086498633,-0.0142849599942564,-0.0153999896720051,-0.0044564707204699,-0.0064512281678617,0.003572906833142,-0.0120753971859812,-0.0063413081996546,-0.0147624816745519,-0.0057460628449916,93296295
148,0.0046219630166888,-0.0258432514965534,0.00018858347903,-0.0030177477747201,-0.0090660694986581,0.0019120946526527,-0.0228805355727672,-0.0249314609932208,-0.0343693159520626,0.0068409005180001,3352568
149,-0.0039087776094675,-0.0296870581805706,-0.0078498562797904,-0.0098998583853244,-0.0087982676923275,0.0002784807584248,-0.0052794911898672,-0.0352376639136539,-0.0164174232631921,-0.0145929232239723,79219366
150,-0.0167484208941459,-0.038282923400402,-0.0137210004031658,-0.0179497376084327,-0.0124690392985939,-0.0074242735281586,-0.007776332553476,-0.0513491540037837,-0.0072823865339159,-0.0183731727302074,193273536
151,0.0027860184200108,0.0170426107943058,0.0159277524799108,-0.0019064287189394,-0.0038445831742137,0.0006884112954139,-0.0382269620895385,-0.0270279204693837,-0.0518811121582984,0.0466986671090126,5434805
152,-0.0079463301226496,-0.0344401039183139,-0.0079347901046276,-0.0070927371270954,-0.0080123171210289,-0.0011445288546383,-0.0217958688735961,-0.0547542393605126,-0.0130667686462402,0.0006202275399118,115765914
153,0.0040561035275459,-0.0303965788334608,-0.0121983652934432,-0.0020109463948756,-0.0088590448722243,0.003255323972553,-0.0086368788033723,-0.0151102239969507,-0.0287474244832992,-0.0095237996429204,2860796
154,-0.0094509328155504,-0.0160942833633882,-0.030745535168174,-0.0099092280256841,-0.0084101820698758,-0.0036543498873406,-0.0385698464676568,-0.0072115744569017,-0.0162063369697652,-0.0144646862094793,125480482
155,0.0129232220351696,-0.0351104885339736,4.798592999577522e-05,-0.002696685725823,-0.012057913467288,0.0016380420420318,-0.0285830907523632,-0.0074496160564669,-0.0281045865267515,0.0049411347135901,169366451
156,0.0098813436925411,-0.0351293832063674,-0.0176435224711895,-0.0039345696568489,-0.0160920917987823,-0.0001409430988132,-0.0280837435275316,-0.0316048857984498,-0.0352348051965236,-0.0037083202041685,14884938
157,0.0236815679818391,0.0097377952188253,-0.0030964324250817,0.009038339368999,0.0050037708133459,0.0070318449288606,-0.0389848127961158,-0.0317685625609355,-0.0125488024204969,0.0204427391290664,55614776
158,0.0019413102418184,-0.0477959588170051,-0.0193745885044336,-0.008192173205316,-0.0124854948371648,0.0035272475797683,1.937258639372885e-05,-0.033703847494934,-0.0191023256629705,-0.02036739513278,15738922
159,0.0054222969338297,-0.0231745354831218,-0.0097121316939592,-0.0026802928186953,-0.0071754390373826,0.0040152072906494,-0.0199270229786634,-0.0207695147261891,-0.0254585612565279,-0.0011863079853355,83380751
160,0.0018077818676829,-0.0350173786282539,-0.0100555745884776,-0.0058663664385676,-0.0097439084202051,0.0025965529493987,-0.0142549974843859,-0.0295734748599438,-0.0276451539248228,-0.0078618861734867,1284914
161,7.216166704893112e-05,-0.0524717718362808,-0.0224408693611621,-0.0137667497619986,-0.0149888675659894,0.0084617091342806,0.0278419312089681,-0.015306074823401,-0.0192582979798316,-0.0505383014678955,3998623
162,0.0183310117572546,0.00913349352777,0.0113801211118698,0.0030949031934142,0.0017365722451359,0.0102770114317536,-0.0182648655027151,-0.0578200386248487,-0.0608946830034256,0.0400751084089279,3777800
163,-0.0189185664057731,-0.0266974586993455,-0.0148152746260166,-0.0150961652398109,-0.0111310286447405,-0.0003862960729748,0.0126494858413934,-0.0251812796838958,-0.0076494123786687,-0.0264290235936641,195760279
164,-0.0078573552891612,-0.0061199311167001,-0.0058047771453857,-0.0135774035006761,-0.0045010270550847,-0.0017124980222433,0.0179707538336515,0.0006565324010383,-0.0007989787263795,-0.0200047735124826,164950564
165,-0.0028244946151971,-0.0391703620553016,-0.0162630584090948,-0.0065836682915687,-0.008608428761363,-0.0024141683243215,-0.0170470084995031,-0.0511975326614645,-0.0115729682147502,0.0015005827881395,7908339
166,0.0145611064508557,-0.0310208871960639,0.0042766304686665,0.0013116110349074,-0.0089256595820188,0.0017431724118068,-0.0363598875701427,-0.0035348256810837,-0.0209148935973644,0.0158028975129127,90166650
167,-0.0005591479130089,-0.0185867585241794,-0.0022691781632602,-0.0112154558300971,-0.0079330094158649,-0.0014038842637091,-0.0022983930539339,-0.0341241083590047,-0.0020731380209326,-0.0126227056607604,65079014
168,0.0050494791939854,-0.0164554212242364,-0.0178661197423934,-0.0026356906164437,-0.0089602712541818,-0.0002994402311742,-0.0246850773692131,0.0176327747758854,-0.0344512946903705,0.0147482892498373,66117517
169,-0.0061604473739862,0.017349449917674,-0.0047333184629678,-0.0069025256671011,-0.0010103441309183,-0.0040321350097656,-0.0028611556626856,0.0064755764534185,-0.0064802751876413,0.0005436090286821,99386143
170,-0.0293638557195663,-0.0276412889361381,-0.0071811028756201,-0.0210869740694761,-0.0105791697278618,-0.0193387605249881,-0.0344900302588939,-0.0783814606781975,0.0016995486803352,0.0057506565935909,96457658
171,0.0017330140108242,-0.0259949285537004,-0.0039705662056803,-0.0053643281571567,-0.0097902351990342,0.0023658792488276,-0.0129594458267092,-0.0134968449725156,-0.0184032265096902,-0.0016213763738051,19550437
172,-0.0146458484232425,-0.0400565303862094,-0.0148109905421733,-0.0174268670380115,-0.0127840172499418,-0.0054385252296924,-0.0033240483608096,-0.0468437677507992,-0.0087793730199337,-0.0223938189446926,87029402
173,0.0088344067335128,-0.0471930503845214,-0.0085751581937074,-0.0032693250104784,-0.0117824655026197,0.0043122838251292,-0.0220573581755161,-0.0228112899611962,-0.0269328448921442,-0.0043347282335162,102675336
174,7.216166704893112e-05,-0.0524717718362808,-0.0224408693611621,-0.0137667497619986,-0.0149888675659894,0.0084617091342806,0.0278419312089681,-0.015306074823401,-0.0192582979798316,-0.0505383014678955,49331390
175,0.0154541051015257,-0.0137804467231035,0.0125932916998863,-0.0082675442099571,-0.0163821820169687,-0.0050696777179837,-0.0434165559709072,-0.0001485378152049,-0.0267020314931869,0.0146465543657541,189822176
176,0.0029180976562201,-0.0152319855988025,0.004181558266282,-0.000651687500067,-0.0053133843466639,0.0025036593433469,-0.0114908432587981,-0.0066705357219349,-0.0369123481214046,0.0207534581422805,52080229
177,0.0053365370258688,-0.0347591787576675,-0.0099610667675733,-0.0085313422605395,-0.0118491258472204,0.0075191063806414,0.0139061752706766,-0.011458673971444,-0.0199157875031232,-0.0314676724374294,110111095
178,-0.0007572988979518,-0.0252249203622341,-0.0294146966189146,-0.0113845858722925,-0.0121624954044818,0.0053912410512566,0.0055811693891882,0.0041699067668646,-0.0243328753858804,-0.0118729481473565,83551433
179,-0.0299878902733325,0.0699858218431472,0.0189010687172412,-0.0260188411921262,0.0073022237047553,-0.0161569155752658,0.0290169809013605,-0.0554739160297079,0.057416383177042,-0.0317318923771381,195227039
180,-0.0282563064247369,-0.0042362650856375,-0.0231177825480699,-0.0073152258992195,-0.0062584616243839,-0.0030021171551197,0.0178488753736019,-0.0069437030014251,0.0114079965278506,-0.0282315127551555,4687741
181,0.0020454144105315,-0.0055275512859225,0.0074506802484393,-0.0075123133137822,-0.0058236122131347,0.0035401345230638,-0.0112790819257497,-0.0177741562984953,-0.020272571593523,0.0212535448372364,74781242
182,-0.0071568004786968,-0.0298058781772851,-0.0056568877771496,-0.0102140167728066,-0.0094342017546296,0.0014266318175941,-0.0001354333944618,-0.0255700945333215,-0.0093479827046394,-0.0263242349028587,52422878
183,0.0008637129794806,-0.0505237318575382,-0.0204556658864021,-0.0123572312295436,-0.0141585431993007,0.0081159565597772,0.0225733090192079,-0.0167072374958633,-0.0208832900971174,-0.0447698235511779,63078310
184,0.0005558646516874,-0.0260273646563291,-0.0005496673984453,-0.008183498866856,-0.008759805932641,-0.0010986099950969,-0.0126786418259143,-0.0280187737607764,-0.0230645388364791,-0.0014796388568356,7798401
185,0.0074925967492163,-0.0199608467519283,0.0003787217428907,-0.0019900673069059,-0.0044731651432812,0.0062913917936384,0.0023692788090556,-0.0240526256509784,-0.023705631494522,-0.0026225668843835,97205149
186,0.0037098503671586,-0.0291648525744676,-0.0052174031734466,-0.0085345851257443,-0.0094754807651042,0.0010226630838587,-0.0044129681773483,-0.0227957651202168,-0.0168998781591653,-0.0052078175358474,2045233
187,0.0061249705031514,-0.0451904460787773,-0.0191630665212869,-0.0056998757645487,-0.0102136554196476,0.0118662975728511,0.0158728864043951,-0.0293853792247391,-0.0215608365833759,-0.037205159664154,213759518
188,0.0047822934575378,0.0046621030196547,0.0074660722166299,0.000419499061536,0.0014731761766597,-0.0004015045706182,-0.0107560120522975,0.0069694072814174,-0.0210845246911048,0.0241827964782714,44976789
189,0.0019944347441196,0.0048407823778688,-0.0025565314572304,-0.0006302290712483,-0.0068275569938123,-0.004119730554521,-0.0258089639246463,-0.0079745441048012,-0.0126158781349658,0.0137053104117512,189470222
190,0.0175281260162591,-0.027964249253273,0.0032692267559468,0.0024161250330507,-0.0023864810355007,0.0055493544787168,-0.0495735183358192,0.0062224691076455,-0.0141522977501153,0.0370266027748584,45744269
191,0.001374039100483,-0.02486227825284,-0.0149021307006478,-0.005969759542495,-0.0100962910801172,0.0016125906258821,-0.0128552336245775,-0.0191746546726065,-0.0227133743464946,-0.0034530838020145,52277738
192,-0.0103835770860314,-0.0079068895429372,-0.0005707337404601,-0.003331656102091,0.0004083726671524,-0.0006545596988871,0.0013861180050298,-0.0171303102951183,-0.0222024843096733,0.015387799590826,53614250
193,-0.0242206044495105,0.04114830493927,-0.0016739892307668,-0.0144119691103696,0.0003556201700121,-0.0051643741317093,0.0120227541774511,-0.0200051991970101,0.0048097721301019,-0.0145958587527275,129694210
194,-0.0095210094004869,-0.0027526011690497,-0.0057777594774961,-0.011758167296648,-0.0100107323378324,-0.0072088772431015,-0.0126885846257209,-0.0180484378344909,-0.0019522440852597,-0.0156619120389223,195211760
195,7.21607357263565e-05,-0.0524717718362808,-0.0224408656358718,-0.0137667534872889,-0.0149888666346669,0.0084617091342806,0.0278419312089681,-0.0153060754786019,-0.0192582961171865,-0.0505382977426052,30401979
196,-0.0058280285447835,-0.0270731449127197,-0.0096441339701414,-0.01315588504076,-0.0096456296741962,0.0032568671740591,0.0171167235821485,-0.0223052948278324,-0.0057666953653097,-0.0388949029147625,83916654
197,-0.0093605834990739,-0.0410991236567497,-0.0255027767270803,-0.0152272470295429,-0.0128985894843935,0.0007005191873759,0.0153429163619875,-0.0275254878701885,-0.0141205405816435,-0.0399368405342102,55915048
198,0.0092316027730703,0.0268748868256807,0.0125642148777842,0.0079962369054555,0.0043246867135167,0.0107075693085789,-0.0075475377961993,-0.037155687861377,-0.0319499000906944,0.0247671920806169,56232025
199,0.000625069020316,0.0147711401805281,-0.0045926976017653,-0.005940830335021,-0.0034789070487022,-0.0054748225957155,-0.0022341506555676,-0.009830277437142,0.0069640027359128,-0.0005745124071836,31260463
200,0.0025096244644373,-0.0216982513666152,-0.0026614342350512,-0.0017088522436097,-0.0052898116409778,0.0048890961334109,-0.0135775990784168,-0.0330963672071602,-0.0246460661292076,0.0048440177924931,58026824
201,0.0060747843235731,-0.0376991517841815,-0.0073863919824361,-0.0030778599902987,-0.0086922645568847,0.0058397455140948,-0.012111771851778,-0.0259315582012366,-0.0315811932086944,-0.0067941024899482,1457158
202,0.0045186579227447,-0.0126363346353173,-0.0054450342431664,-0.0077411141246557,-0.0037958966568112,0.0026747528463602,-0.0117878010496497,-0.0092512405064027,-0.0238153561949729,0.0066728387027978,127973630
203,-0.0072868466377258,-0.0462641492486,-0.0186259355396032,-0.0155968097969889,-0.0138864424079656,0.0015115914866328,0.0122589403763413,-0.0310749220121308,-0.0140188280493021,-0.036466047167778,69375516
204,-0.0017055287025868,-0.0408688783645629,-0.0160852912813425,-0.0122533459216356,-0.0128110740333795,0.004645877983421,0.0164308380335569,-0.0126575077879655,-0.020933324471116,-0.0319900698959827,98109744
205,0.0067169442772865,-0.0309195294976234,-0.0101606715470552,-0.0099238483235239,-0.0122938305139541,0.0013305122265592,-0.0007431852864101,-0.015568605867667,-0.0159434378147125,-0.0211747083812952,215870218
206,-0.0004225738812237,-0.0407195426523685,-0.0118036782369017,-0.0086348457261919,-0.010802848264575,0.0032567142043262,-0.0032996856607496,-0.0297878320786027,-0.0235055685043334,-0.0180364288389682,48578381
207,-0.0006346627487801,0.0074267722666263,-0.0120546892285346,0.0025681087281554,0.0013902829959988,0.0007477409671992,0.0004486546094994,-0.0001290233791727,-0.004408610984683,-0.0048083099536597,112629130
208,-0.024558009529256,0.0356871926958141,-0.0264476149341599,0.0078672446061966,0.0007847753430745,-0.0069486031120649,-0.0192037682602687,0.0057499856093565,0.0018804224815973,0.015328223757359,46171824
209,-0.0259146355092525,0.0131627973169088,-0.0074084345251321,-0.0259677991271018,-0.0046236314810812,-0.0173570811748504,0.0092144347727298,-0.0296535774875604,0.0331233143806457,-0.0352166071534156,199306992
210,-0.0048743137158453,0.0243837274610996,0.0349071100354194,0.0095868073403835,0.0066338116303086,0.0034284056164324,-0.0323545970022678,-0.0070348239198471,0.0110205505043268,0.0035667638294398,55422058
211,-0.0020381575450301,-0.0071641746908426,0.0042727696709334,-0.0040995357558131,-0.0099176801741123,-0.0062943119555711,-0.0334974601864814,-0.0241384996852214,-0.0198141522705554,0.0054329638369381,138830239
212,7.21607357263565e-05,-0.0524717718362808,-0.0224408656358718,-0.0137667534872889,-0.0149888666346669,0.0084617091342806,0.0278419312089681,-0.0153060754786019,-0.0192582961171865,-0.0505382977426052,98091595
213,0.0152782928198575,-0.0047905128449201,0.0113624585792422,-0.0033309031277894,-0.0087675899267196,-0.0008335340535268,-0.0380374826490879,-0.0182287065404598,-0.0178751312196254,0.0035071237944066,101157977
214,0.0127017730847001,-0.0546993725001812,-0.0016114844474941,0.0003980641486123,-0.0091246627271175,0.0025931720156222,-0.0376740805804729,-0.0171270522109821,-0.0336684510111808,0.0137301292270421,79785773
215,-0.0072314068675041,-0.0209905132651329,0.0010262632276862,0.0087795192375779,0.0026999944821,0.0040377904660999,-0.0127274990081787,0.0044588297202866,-0.0498963929712772,0.047274712473154,115011586
216,0.0002691672416403,0.012564918026328,0.0123576531186699,-0.002051934832707,0.0014359429478645,0.0031216272618621,-0.0007706024916842,-0.0106639446719215,-0.0226817522197961,0.0134169682860374,201816469
217,0.0103250918909907,-0.0108840391039848,0.0091637261211872,0.0023589530028402,-0.002485885284841,0.0034952550195157,-0.0119582545012235,0.0078030061268278,-0.0271127056330442,0.0136150466278195,58026802
218,-0.0086516262963414,-0.0251764357089996,-0.0109739154577255,-0.0067526791244745,-0.0113304508849978,-0.0056389775127172,-0.0169593282043933,-0.0005090510028899,-0.0173019096255302,0.001559805124998,134307269
219,-0.0247372984886169,0.0590627156198024,0.0112295467406511,-0.0190781783312559,0.0071912165731191,-0.0111209573224186,0.026819285005331,-0.0412564600119324,0.0436799265444278,-0.025163447484374,52197511
220,0.0150891542434692,-0.0481366105377674,0.0035857590846717,0.0029062328394502,-0.0063228798098862,0.0056167314760386,-0.0321014299988746,-0.0035901943900327,-0.0299445241689682,0.0112437102943658,1394129
221,-0.008370716124773,-0.0054764952510595,-0.0089273573830723,-0.0072710802778601,-0.0059091891162097,-0.0046700448729097,-0.0229894928634166,-0.0426803603055535,-0.0144001338630914,0.0006566704250872,152997644
222,-0.0295513588935136,-0.0204894803464412,-0.0371292978525161,-0.01243307441473,-0.0087064327672123,-0.0050238771364092,0.0142086958512663,-0.011017643431412,0.0016745952889323,0.0100051360204815,38035180
223,0.0175274349749088,-0.0048139067366719,0.0053143920376896,-0.0061310706660151,-0.0110777411609888,-0.0074084550142288,-0.03650863468647,-0.0091968139009783,-0.0149417333304882,0.0134060773998498,99604430
224,-0.012252009473741,-0.0342336297035217,-0.0091572888195514,-0.0141100250184535,-0.0115761216729879,-0.0022236369550228,-0.0019239236135035,-0.0304634348786868,-0.0141404476016759,-0.0277109611779451,1181559
225,-0.0072868466377258,-0.0462641492486,-0.0186259355396032,-0.0155968097969889,-0.0138864424079656,0.0015115914866328,0.0122589403763413,-0.0310749220121308,-0.0140188280493021,-0.036466047167778,49367038
226,0.0259189736098051,-0.0112960822880268,0.0045358389616012,0.0029858709312975,-0.0048112319782376,0.0066231871023774,-0.0339890010654926,-0.0050238581089585,0.0015232304576784,0.0150574035942554,99092665
227,-0.0011339427437633,-0.0127456244081258,-0.0027048573829233,-0.0030765202827751,-0.0006286517018452,-0.002430758671835,-0.0207577012479305,0.0151073219844133,-0.0270383693277835,0.0274236649274826,84791675
228,-0.0097398459911346,-0.0441949479281902,-0.017354279756546,-0.0162068288773298,-0.0135189648717641,-0.0008051138138398,0.0070646167732775,-0.0363312033046496,-0.0122723476961255,-0.0317753180861473,65819501
229,0.0022185700945556,-0.0171314664185047,-0.0132873533293604,-0.0062384037300944,-0.0101239969953894,-0.0033069602213799,-0.0250519663095474,-0.027518725388858,-0.0203061439096927,0.0059567252174019,209877730
230,0.0030314526520669,-0.0430847480893135,-0.0127712814137339,-0.007597648538649,-0.0119648072868585,0.0063477894291281,0.0029955147765576,-0.0212542563377474,-0.0242104697972536,-0.0264707822352647,34134703
231,-0.0083381338045001,-0.0453773476183414,-0.0180809423327446,-0.0158582460135221,-0.0137289529666304,0.0005187187343835,0.0100328018888831,-0.0333276140561327,-0.0132703352719545,-0.034455731511116,105881940
232,-0.001723333960399,-0.0426474064588546,-0.0155492443591356,-0.0057545788586139,-0.0079680923372507,-0.0026541398838162,-0.0312018208205699,-0.0024561800895257,-0.0085282968357205,0.0156177971512079,67801698
233,0.0077181509695947,0.0013267872855067,-0.0007970876176841,-0.0023404569365084,-0.0035071889869868,0.0004415640723891,-0.0077472799457609,-0.0162379130015157,-0.0125565156340599,-0.0016496466705575,184006479
234,0.0176769010722637,-0.0376326963305473,0.0068197436630725,0.0077309738844633,-0.0030651101842522,0.0087215481325984,-0.0358436182141304,0.0026858496660828,-0.0122870989143848,0.0234021097421646,98079917
235,-0.0066366358660161,0.0360272116959095,0.0462192855775356,0.0113171627745032,0.0083747589960694,0.0010867880191653,-0.0497129335999488,-0.0035507822854784,0.00933538377285,0.0142430569976568,102488300
236,0.0238885097205638,-0.0486041866242885,0.0013275301316753,0.0079986229538917,-0.0068028694950044,0.0166736766695976,-0.0067066578194499,7.556700752490118e-05,-0.0364543311297893,-0.0009296579519286,186297240
237,0.0063826791010797,-0.0225591231137514,-0.0046383757144212,-0.0036431299522519,-0.0073910732753574,0.005262354388833,0.0029328712262213,-0.0211350740392521,-0.0079902922734618,-0.0103484960272908,87839561
238,-0.0293638557195663,-0.0276412889361381,-0.0071811028756201,-0.0210869740694761,-0.0105791697278618,-0.0193387605249881,-0.0344900302588939,-0.0783814606781975,0.0016995486803352,0.0057506565935909,56491568
239,0.0048174494877457,0.0033281072974205,0.011618117801845,-0.0049602231010794,-0.0043401727452874,0.00173817621544,-0.012407218106091,-0.0207901565582762,-0.0343889407813549,0.0200479924678802,205932746
240,-0.0015024082968011,-0.0340987741947174,-0.0139008956030011,-0.0096450708806514,-0.0123473089188337,-0.001532002701424,-0.0014040019595995,-0.0298067806071273,-0.022304767742753,-0.0221087075769901,51113107
241,0.0014752361457794,-0.0478162318468093,-0.0198822170495986,-0.0117816012352705,-0.0134434858337044,0.0089903101325035,0.02730343490839,-0.0133684288981095,-0.0145470555871725,-0.0454904809594154,74738631
242,0.0128139539705094,0.0039618948993718,-0.0130349577366944,-8.771791169719009e-05,-0.0023906244982706,0.0012191877777801,0.0194304223140455,0.079771057549442,0.0039467447296305,-0.0008983396419598,94043093
243,-0.0098912687972188,-0.0029110598843544,-0.0192029029130935,-0.0078472457826137,-0.0055532911792397,-0.0054234759882092,-0.0074040899053215,-0.0183239487244171,-0.012661624699831,-0.011984565295279,98708407
244,-0.0293638557195663,-0.0276412889361381,-0.0071811028756201,-0.0210869740694761,-0.0105791697278618,-0.0193387605249881,-0.0344900302588939,-0.0783814606781975,0.0016995486803352,0.0057506565935909,128725950
245,0.019952168688178,-0.00339394970797,0.0033618416637182,-0.0036211335100233,-0.0139537826180458,-0.003906225785613,-0.0356218144297599,0.0150197210473713,-0.0225597843527793,0.0189363844692707,102523558
246,-0.0051376549527049,-0.0428455881774425,-0.0149489790201187,-0.0126369874924421,-0.0123106008395552,0.0013547095004469,0.0029203938320279,-0.0326642579814903,-0.0176718644797801,-0.0260116085410118,102122032
247,0.0057605868205428,-0.0385592766106128,-0.0022744257003068,-0.0039038988761603,-0.00603190343827,0.0062542431987822,0.0034974159207195,0.0068217051811715,-0.0071765924803912,-0.0073073245584964,19919865
248,-0.0063097737729549,-0.0357534438371658,-0.0087517201900482,-0.0100988904014229,-0.0099209081381559,-0.0023033793549984,-0.0157660730183124,-0.0424029090963921,-0.0193140022456645,-0.0067786341533064,76273564
249,-0.0227514579892158,-0.0004922458902001,0.0094414539635181,-0.0110905021429061,-0.0037143116351217,-0.0121132526546716,-0.0334147736430168,-0.0479957356054642,0.0062799653969705,0.0051533766090869,100565256
250,0.0006102976622059,-0.0435555875301361,-0.0214730538427829,-0.0062649552710354,-0.0101132821291685,0.0012480936711654,-0.0066637471318244,-0.0334454609678982,-0.0192295648157596,-0.0068420465104281,200394113
251,-0.0098210778087377,-1.1546304449439049e-05,-0.0031895046122372,-0.0108188986778259,-0.0067739114165306,-0.0093006370589137,-0.0067387763410806,-0.0037734095456428,-0.0005270626861602,-0.0127650052309036,150718336
252,0.0086376937106251,0.0032366551458835,0.007350655272603,-0.0004222759744152,-0.0101236058399081,-0.0044243917800486,-0.0377114526927471,0.0057592681472784,-0.0092776771634817,0.0091116009280085,102421980
253,-0.0114054344594478,-0.0283649582415819,-0.0145031679421663,-0.002314911223948,-0.0096733570098876,-0.0078122345730662,-0.0280722100287675,0.0294475258448429,-0.0475050546228885,0.0238276794552803,84344367
254,-0.0134362131357193,-0.0063002887181937,0.0010737214470282,-0.012046780437231,-0.004742607474327,-0.0050645782612264,-0.0014348649419844,-0.036380486960683,0.0057523874565958,-0.0144155947491526,72497728
255,0.0140213817358016,-0.0630342811346054,-0.0112205976620316,-0.0027068660128861,-0.0147389490157365,0.0048454403877258,-0.0236062221229076,-0.0170226978705696,-0.0347455330193042,-0.0057236468419432,68002205
256,-0.0125314993783831,-0.0064389947801828,-0.0211567375808954,-0.0103061916306614,-0.0072227050550282,0.0010024073999375,0.0082942526787519,-0.0080587882498844,-0.0053615644574165,-0.0018886658363044,72898792
257,0.0110986027866601,0.0003302890690974,0.0040922062471508,0.0061732744798064,0.0050335191190242,0.0115609187632799,-0.0023159221746027,0.0137536139528194,0.00786704570055,0.006494678556919,138460133
258,-0.0274540483951568,-0.0075236307457089,-0.0248539093881845,-0.015234924852848,-0.0065798219293355,-0.0133183943107724,-0.0222710706293582,-0.0117907127918187,-0.0008228345541283,-0.0059128976427018,99018577
259,0.0039483294822275,-0.0260720588266849,-0.0032959403470158,-0.0039751268923282,-0.0100275054574012,0.0020399445202201,-0.0171730872243642,-0.0189538175520697,-0.0179386287927627,-0.0057068550959229,206545451
260,-0.0117022432386875,-0.0425395779311656,-0.0163369644433259,-0.0166948437690734,-0.0132249882444739,-0.00265847845003,0.00290914834477,-0.0405362302102107,-0.0108751552179455,-0.0280227158218622,56491611
261,0.018641946837306,-0.019645707681775,0.0062918695621192,0.0022243885323405,-0.0081120245158672,0.0059773037210106,-0.0180539190769195,-0.0130908810995521,-0.0329709462821483,0.0069521758705377,108954955
262,-0.0140736550092697,-0.0331101641058921,-0.016552971675992,-0.0136103760451078,-0.0121812922880053,-0.0013702560681849,-0.0002145095495507,-0.0210512930536955,-0.0143129285424947,-0.023606076836586,47754644
263,-0.0109509052708745,-0.0151439299806952,-0.0052716471254825,-0.0150191830471158,-0.0075346222147345,-0.0012562001356855,0.0121759800240397,-0.0314210000583494,0.0023741198237985,-0.0327216237783432,59488156
264,-0.0091418595984578,-0.0307885911315679,-0.0128992805257439,-0.008377656340599,-0.0118583440780639,-0.0040567889809608,-0.008257433772087,-0.0009557138488154,-0.0176072809845209,-0.0075627602636814,173578723
265,0.0021129911765456,-0.0204781834036111,0.0059535708278417,0.0008176158880814,-0.0040896413847804,0.0007751260418444,-0.0364710167050361,-0.0342921631298819,-0.0267347376793622,0.0155977699905633,1489566
266,0.0012062566820532,-0.038761056959629,-0.0102279065176844,-0.0089610386639833,-0.0097938682883977,0.0036831407342106,0.0122721418738365,-0.0199561078753273,-0.0269911214709281,-0.0180271454155445,195696960
267,0.0057321591302752,-0.0097520789131522,-0.0029352726414799,-0.0025700316764414,-0.0049696280620992,0.0007945629768073,-0.0205782353878021,-0.004067814118846,-0.0474025085568428,0.0341384299099445,157676367
268,-0.0048851380124688,-0.0052269273437559,-0.0030973828397691,-0.0054185790941119,-0.0072622513398528,-0.0039048045873641,-0.0157898925244808,1.9379649446825235e-05,-0.0044424207881093,-0.0034390510991215,47758813
269,-0.0085634794086217,-0.0229264758527278,-0.0151883475482463,-0.0142552256584167,-0.0123116103932261,-0.0019611639436334,0.0061113000847399,-0.0218105535966993,-0.0139684481546282,-0.0340200290083885,94043087
270,-0.0055332817137241,-0.0157848857343196,-0.0183109696954488,-0.0127182900905609,-0.0108463475480675,0.0014236774295568,0.0110816434025764,-0.0261853136244445,-0.0190021321177482,-0.0315342843532562,60612444
271,0.0016584862023591,-0.0284444354474544,-0.0099026430398225,-0.0102444142103195,-0.0119411684572696,0.0004850246477872,-0.0017569435294717,-0.0217046018089903,-0.0145289655774831,-0.0199869945645332,189832432
272,0.0094551233794139,-0.0294345312589053,-0.0445127303270497,0.0130362659385853,-0.0076847968926178,0.0018294545637214,-0.0112041775384848,-0.0682416607320136,0.0026772821362114,0.0035876522835759,83448924
273,0.0012658964842557,-0.0286399163305759,-0.0119188288226723,0.0013034874573349,-0.004030343145132,0.0036815865896642,-0.0252552069723606,-0.0450279097715737,0.0101663637906312,0.0170508027076721,968042
274,-0.0167484208941459,-0.038282923400402,-0.0137210004031658,-0.0179497376084327,-0.0124690392985939,-0.0074242735281586,-0.007776332553476,-0.0513491540037837,-0.0072823869995772,-0.0183731745928525,63645659
275,0.0179378893226385,0.0043446756899356,0.0417219772934913,0.0219986494630575,0.0098071275278925,0.0130885047838091,-0.0509174466133117,0.0060573167201513,-0.0158840045332908,0.031508233398199,2052970
276,-0.0072868466377258,-0.0462641492486,-0.0186259355396032,-0.0155968097969889,-0.0138864424079656,0.0015115914866328,0.0122589403763413,-0.0310749220121308,-0.0140188280493021,-0.036466047167778,54209120
277,0.0006602721405215,-0.0504484325647354,-0.0124261369928717,-0.0084277652204036,-0.0114790759980678,0.0003991705598309,-0.0128265134990215,-0.0298857330056006,-0.0192803107202053,-0.0102500179782509,107721773
278,-0.0169894210994243,-0.0431828796863555,0.0044827866367995,-0.0135894361883401,-0.0128303188830614,-0.0061964043416082,-0.0209116823971271,-0.0512566799465821,-0.0238037481904029,-0.0020363989751785,170437794
279,-0.0010710117639973,-0.0495653077960014,-0.0200527478009462,-0.0133900362998247,-0.0134311104193329,0.005497760605067,0.0201774667948484,-0.0174538960594872,-0.0154238389804959,-0.0431573241949081,7211039
280,-0.0013510043499991,-0.0248891096562147,-0.0017619701102375,-0.0034835936967283,-0.0099909733980894,-0.0017392702866345,-0.0222614370286464,-0.0243013738759368,-0.0194886308163404,-0.0064482796005904,3443157
281,0.0017343026120215,-0.0193286556750535,0.0036411492619663,-0.0048962472938001,-0.0088727613911032,0.0002075308002531,-0.0250692591071128,-0.0249596998107395,-0.0075091919861733,0.0002008837182074,195474892
282,-0.0100405178964138,0.0037235263735055,-0.0210917070508003,-0.0131956450641155,-0.006838253699243,-0.0050546093843877,0.0051363883540034,0.0104197031943638,-0.0097830928862094,-0.0128090316429734,7574988
283,-0.0102549316361546,-0.02009192481637,0.0015362482517957,-0.0086914133280515,-0.007053630426526,-0.0015884023159742,-0.0121257379651069,-0.0299689600477677,-0.0051007168367505,-0.0159467756748199,86366069
284,-0.0293638557195663,-0.0276412889361381,-0.0071811028756201,-0.0210869740694761,-0.0105791697278618,-0.0193387605249881,-0.0344900302588939,-0.0783814606781975,0.0016995486803352,0.0057506565935909,9949411
285,-0.0146458493545651,-0.0400565303862094,-0.0148109905421733,-0.0174268670380115,-0.0127840172499418,-0.0054385256953537,-0.0033240483608096,-0.0468437677507992,-0.0087793730199337,-0.0223938189446926,99092662
286,7.216166704893112e-05,-0.0524717718362808,-0.0224408693611621,-0.0137667497619986,-0.0149888675659894,0.0084617091342806,0.0278419312089681,-0.015306074823401,-0.0192582979798316,-0.0505383014678955,58425371
287,-0.0253744777292013,0.0431793667376041,0.0049607059918344,-0.0199807230383157,0.0014382507652044,-0.0132344830781221,0.0084953680634498,-0.0551124219301058,0.0300709214061498,-0.0210158508270978,39833157
288,-0.0015631740679964,-0.0510923080146312,-0.0215931124985218,-0.0141734341159462,-0.0147438822314143,0.0069172400981187,0.0243790410459041,-0.0188102615098794,-0.0180939696729183,-0.0474111251533031,13182786
289,-0.0090027218684554,-0.0119076818227767,-0.0012840193230658,-0.0155667643994092,-0.0102275423705577,-0.0035922424867749,0.0030660538468509,-5.813428042022485e-05,-0.0105722816661,-0.0284234229475259,15268755
290,-0.0087478868663311,0.0027629230171442,-0.0028255232609808,-0.01122304238379,-0.0077612176537513,-0.007033597677946,-0.0141275711357593,-0.0194135146646863,-0.0172353070229291,-0.0009149017278105,113607068
291,-0.0050265220925211,0.0088818557560443,0.0263470876961946,0.0047565409913659,0.002075782045722,-0.0010082542430609,-0.044948861002922,-0.0228038526638246,-0.0059607746079564,0.015946626663208,69330138
292,0.004008556716144,0.0092537011951208,0.0154284490272402,0.0026173610240221,0.002263339003548,0.0035280771553516,-0.0169849190860986,-0.0062567535575771,-0.0445016808807849,0.0320315286517143,59617193
293,0.0030056373216211,-0.0136274099349975,0.0008141580037772,-0.0045950505882501,-0.0072357980534434,0.0027027297765016,-0.0090645169839262,-0.0145757256914688,-0.0275286138057708,0.0033596009016036,206966496
294,0.0073836497031152,-0.0605206862092018,0.0071711363270878,-0.0011375354370102,-0.0052843103185296,-0.0042754928581416,-0.0543873384594917,-0.0126317390207566,-0.022730341181159,0.0314404554665088,47527154
295,-0.0053502544760704,-0.0070321029052138,-0.0134486695751547,-0.0063801389187574,-0.0061432542279362,-0.0062112365849316,-0.0143068823963403,-0.0031582715311522,-0.0137659246101975,0.0027462402358651,61913621
296,0.0090051740407943,-0.0299427043646574,-0.0043941186740994,-0.0049760243855416,-0.010908187367022,0.000409772968851,-0.0295348670333623,-0.0109773725376268,-0.0248372070491313,0.0099752489477396,34270534
297,-0.0018636405002325,0.0023668780922889,0.0086115906015038,-0.0029255279805511,-0.0024078637361526,-0.0003994475118815,-0.016640581190586,-0.0005188345023359,-0.0454053618013858,0.0286955423653125,205180061
298,0.0004245922675666,0.0108623267613419,0.0274761386994642,0.0067474874212435,0.0046665025073797,-0.0026671980478017,0.0104815259336306,-0.0075736155229717,0.0116470843112444,-0.0235669760100154,34373550
299,-0.0259146355092525,0.0131627973169088,-0.0074084345251321,-0.0259677991271018,-0.0046236314810812,-0.0173570811748504,0.0092144347727298,-0.0296535774875604,0.0331233143806457,-0.0352166071534156,199307009
300,-0.0016989561263471,-0.0373758785426616,-0.0090658431872725,-0.0079012727364897,-0.0097892582416534,0.0011036961805075,-0.0120212845504283,-0.0352071983967885,-0.0235167182981967,-0.0092844907194376,12713910
301,0.007208474446088,-0.0250470880419015,-0.0025615072809159,-0.0020795972086489,-0.0031537348404526,0.0054813297465443,-0.0099242301657795,0.0112320986856799,-0.0411234050989151,0.0210780557245016,3193236
302,-0.0293638557195663,-0.0276412889361381,-0.0071811028756201,-0.0210869740694761,-0.0105791697278618,-0.0193387605249881,-0.0344900302588939,-0.0783814606781975,0.0016995486803352,0.0057506565935909,80628593
303,-0.0069715427234768,-0.0312685258686542,-0.0099007971584796,-0.0105159729719161,-0.0103529496118426,0.001600268180482,0.0008199310395866,-0.026912425809079,-0.0123617332428693,-0.0272822920233011,85996097
304,-0.0293638557195663,-0.0276412889361381,-0.0071811028756201,-0.0210869740694761,-0.0105791697278618,-0.0193387605249881,-0.0344900302588939,-0.0783814606781975,0.0016995486803352,0.0057506565935909,16700200
305,-0.0033066365867853,-0.010986665263772,0.0050897309556603,-0.0003165791276842,-0.0035793350543826,-0.0019953069277107,-0.0140003962442278,0.0130873584266423,-0.0346671119332313,0.026099756360054,159483171
306,0.0011598214041441,0.0033491028007119,0.0233703963458538,0.0059694470837712,0.001349133439362,0.0077000362798571,-0.0317026302218437,-0.0154081699272396,-0.0131542980670928,0.0043237172067165,102483617
307,-0.0134362131357193,-0.0063002887181937,0.0010737214470282,-0.012046780437231,-0.004742607474327,-0.0050645782612264,-0.0014348649419844,-0.036380486960683,0.0057523874565958,-0.0144155947491526,6747650
308,6.050104275345802e-05,-0.0337332263588905,-0.0217058788985013,-0.0099574755877256,-0.0118583012372255,-0.0027984990738332,0.0093915145844221,-0.0345109756283866,-0.0176023337990045,-0.0284182932227849,2763553
309,-0.0181058254092931,-0.0051753344014286,-0.0173243787139654,-0.0135495066642761,-0.0126008903607726,-0.0137471482157707,-0.0144936591386795,-0.0111743359363988,0.003176677506417,-0.0156373064965009,88350347
310,-0.0195518527179956,-0.035918116569519,-0.0122676882892847,-0.0186469033360481,-0.0120490677654743,-0.0100719388574361,-0.0137127004563808,-0.0573563324375484,-0.0052864006720483,-0.013012328185141,47788573
311,0.0008521312847733,-0.0115858316421508,0.0033424198627471,-0.0030088862404227,-0.005228669848293,-0.0034445947967469,-0.0293158199638128,-0.0191969487517181,0.0024763564579188,0.0097690094262361,196566732
312,-0.0081927627325057,-0.0285585280507802,-0.0113347945734858,-0.0137616861611604,-0.0097260316833853,0.0016373146791011,0.0155801307410001,-0.027964093853821,-0.006332354620099,-0.0341416709125041,101058866
313,-0.0128960879519581,0.0224999766796827,0.0087045645341277,-0.009249273687601,-0.0050421059131622,-0.0088984500616788,-0.0031139156781136,-0.0101702254772102,0.0068054650910198,-0.0148898735642433,150718293
314,0.021571023389697,-0.0225765872746706,0.0044355788268148,0.0011664590565487,-0.00905301887542,0.0021067555062472,-0.0478864200413227,-0.0038294577567203,-0.0323666296899318,0.0353433676064014,18912237
315,-0.0088996915146708,0.0117385378107428,-0.0044823787175118,-0.0070240115746855,0.0014310315018519,-0.0025410801172256,0.0002187751233577,-0.0111111568941646,-0.022176019847393,0.0046508824452757,159115989
316,-0.0293638557195663,-0.0276412889361381,-0.0071811028756201,-0.0210869740694761,-0.0105791697278618,-0.0193387605249881,-0.0344900302588939,-0.0783814606781975,0.0016995486803352,0.0057506565935909,86617202
317,-4.069204442203045e-05,-0.0322633422911167,-0.0053868214599788,-0.0060238959267735,-0.0087012900039553,0.0044264085590839,-0.004918732214719,-0.0228010929205693,-0.0196819398552179,-0.0181508399546146,8608429
318,0.0221103485673666,0.0066645266488194,0.0257040821015834,-0.0040200250223279,0.0022066771052777,0.0065766857005655,-0.0064262431114912,-0.0010079565276065,-0.0372376665472984,0.0321183055639267,138469628
319,-0.002491757273674,-0.0475945025682449,-0.0199426896870136,-0.0124284960329532,-0.0131181506440043,0.0040052104741334,0.0127239469438791,-0.0282211512861607,-0.0160270892083644,-0.0340105108916759,109486663
320,-0.0055919401347637,0.0255205929279327,-0.0162511505186557,-0.0031486200168728,-0.00380973611027,-6.892892997711897e-05,0.0080444868654012,0.0134840985718201,-0.0166734345257282,-0.0015406461898237,55711245
321,-0.0139012737199664,-0.0245893895626068,-0.0237415712326765,-0.0156731233000755,-0.0100000109523534,-0.00618427246809,-0.0021685012616217,-0.0236473326215049,-0.013981438241899,-0.0232009142637252,101191919
322,-0.0293638557195663,-0.0276412889361381,-0.0071811028756201,-0.0210869740694761,-0.0105791697278618,-0.0193387605249881,-0.0344900302588939,-0.0783814606781975,0.0016995486803352,0.0057506565935909,194164487
323,-0.0068380935117602,-0.0175669528543949,-0.0022638961672782,-0.0003690270241349,-0.0022464971989393,0.003636876353994,-0.0115223377943038,0.0189965133900643,-0.0019254956860095,0.0002690681722015,71488005
324,0.0029893636653216,-0.0069013596154258,0.0074507138643917,0.0049587411775134,0.0072801713947506,0.0006918860019176,0.0365429933013941,0.0914351741171501,-0.0080396383510565,0.0298823873207564,45859773
325,0.0066427770070731,-0.015407376922667,0.0001890927669592,-0.0046229492872953,-0.0116655835881829,0.0005620418814942,-0.0084735993295907,7.272003255439415e-05,-0.0230682808905839,-0.0046617700718343,101778430
326,-0.0009756714571267,-0.0305543970316648,-0.0158840529620647,-0.0101393815129995,-0.0099344532936811,0.0057127308100461,0.0161125045269727,-0.0096417647195105,-0.0126044191420078,-0.0331058278679847,3806601
327,-0.0293638557195663,-0.0276412889361381,-0.0071811028756201,-0.0210869740694761,-0.0105791697278618,-0.0193387605249881,-0.0344900302588939,-0.0783814606781975,0.0016995486803352,0.0057506565935909,2297821
328,-0.0293638538569211,-0.0276412889361381,-0.0071811005473136,-0.0210869740694761,-0.0105791697278618,-0.0193387605249881,-0.0344900302588939,-0.078381458063345,0.0016995491459965,0.0057506547309458,108109288
329,-0.0293638557195663,-0.0276412889361381,-0.0071811028756201,-0.0210869740694761,-0.0105791697278618,-0.0193387605249881,-0.0344900302588939,-0.0783814606781975,0.0016995486803352,0.0057506565935909,2235503
330,0.0125752910971641,-0.0109686823561787,0.0141178648918867,-0.0003530586836859,-0.0033071876969188,0.0036497188266366,-0.026145901530981,-0.0263328823046718,-0.0335020460188388,0.0381386652588844,37764882
331,-0.020585648715496,-0.0004743949975818,-0.0144671788439154,-0.0157970786094665,-0.0041735204868018,-0.0115374960005283,-0.0168068576604127,-0.0588888611587044,-0.0021245346870273,-0.00027494400274,7897387
332,-0.0023210684303194,-0.0462023988366127,-0.0173074454069137,-0.0123913045972585,-0.0130883818492293,0.0044248006306588,0.0114889265969395,-0.0254673882102558,-0.0192791800945997,-0.0341284163296222,100535643
333,-0.0073990444652736,-0.0164757948368787,-0.0069889733567833,-0.007003984414041,-0.0082476064562797,-0.0020266994833946,-0.0110028749331831,-0.0159033141433508,-0.0167748816311359,0.009129399433732,102644366
334,0.0016168204601854,0.0004761749878525,-0.0041060363873839,-0.003526841988787,-0.0097222290933132,0.0045282333157956,-0.0440897196531295,-0.0230318534360575,-0.0327462814748287,0.0295597575604915,58802094
335,-0.0112954750657081,-0.0372152552008628,-0.0113574722781777,-0.013966217637062,-0.0112299723550677,-0.0046431887894868,-0.011276502162218,-0.0463754312961404,-0.0134645281359553,-0.0130226407200098,94317976
336,0.0018527060747146,-0.0198998469859361,-0.0128227202221751,-0.001023864140734,-0.0073894979432225,-0.003462104126811,-0.0523055791854858,-0.0134814528689226,-0.0169048532843589,0.0219448916614055,670375
337,0.0090974122285842,-0.0407444983720779,-0.0109774945303797,-0.0061426470056176,-0.0156493671238422,-0.0011332374997437,-0.0256455987691879,-0.0354351099917729,-0.025872329249978,-0.0019761030562222,99402058
338,-0.0055117411538958,-0.0259744431823492,-0.0104951839894056,-0.0138046499341726,-0.0097008664160966,0.0018716860795393,0.0148412147536873,-0.0278592254688179,-0.006616489496082,-0.0348754115402698,47505989
339,0.0017871928866952,-0.0482510216534137,-0.0181395933032035,-0.0107127837836742,-0.013189835473895,0.0077125774696469,0.0164265856146812,-0.0183419255918752,-0.0227791219949722,-0.0380399450659751,110742290
340,-0.0205530487000942,-0.0161694716662168,-0.0176737140864133,-0.0122986501082777,-0.0103861885145306,-0.0113726649433374,-0.0331952385604381,-0.0623867768760058,-0.015846811234951,0.0021943803876638,99092666
341,-0.0062233470380306,-0.0215924475342035,-0.0031319996342062,-0.0084068737924098,-0.007845651358366,0.002753602573648,0.0035485699772834,-0.0115001714453037,-0.0058878455311059,-0.0272538661956787,73023923
342,0.0034446869976818,0.0173948351293802,0.0058141630142927,-0.0087862256914377,-0.0031888459343463,-0.0042517827823758,-0.0149733843281865,0.0002551807187283,-0.035365629941225,0.0281628165394067,73299028
343,-0.0134362131357193,-0.0063002887181937,0.0010737214470282,-0.012046780437231,-0.004742607474327,-0.0050645782612264,-0.0014348649419844,-0.036380486960683,0.0057523874565958,-0.0144155947491526,72497730
344,-0.0017843469977378,0.0001782313920557,-0.0088449455797672,-0.0043460018932819,-0.0075766430236399,-0.0037960433401167,-0.0118706366047263,-0.0181949604313695,-0.0100028375163674,0.0020436490885913,99788385
345,-0.0128830298781394,-0.0257473662495613,-0.0056210868060588,-0.0143663566559553,-0.0103557966649532,-0.0060265981592237,-0.0064769256860017,-0.0499176233019287,-0.0141312768682837,-0.0117883160710334,206170303
346,-0.0164712537080049,-0.0249234214425086,-0.0158206168562173,-0.0147488079965114,-0.013128699734807,-0.0052761593833565,-0.0137892113998532,-0.0339287597225063,-0.0010723790619522,-0.0135010136291384,18468296
347,-0.0018888808554038,-0.0149914072826504,-0.0015856665559113,-0.0059291403740644,-0.0069984598085284,-0.0006501963362097,-0.0179630108177661,-0.011922373319898,-0.0307376664131879,0.0134384641423821,91989996
348,0.004139638505876,-0.0329152792692184,-0.0044682719744741,-0.0031573909800499,-0.0079584578052163,0.0057481732219457,-0.0103412717580795,-0.0225170092937618,-0.026261119171977,-0.0105627030134201,54863209
349,0.0022951883729547,-0.051587451249361,-0.0192936733365058,-0.0104737477377057,-0.0132500566542148,0.007631357293576,0.0173450969159603,-0.017290972917268,-0.022330081090331,-0.0380587540566921,88416983
350,-0.0080960122868418,-0.0294519290328025,-0.0153421759605407,-0.0085934838280081,-0.0160807389765977,-0.0003337042871862,-0.0167323611676692,-0.0004540643049074,-0.0268595684319734,-0.0083163082599639,75717236
351,-0.0002759942435659,0.0005647954531013,0.0096143661066889,-0.0042208670638501,0.0001543877297081,0.0014993755612522,-0.0125878453254699,-0.0182342530823999,-0.0162905361503362,0.0180959086865186,50207366
352,-0.0050405920483171,-0.0236691161990165,-0.0015266453847289,-0.0047948965802788,-0.0073472247458994,-0.0015944493934512,-0.0266744922846555,-0.0339239931680483,-0.0174407698214054,0.0069045755080878,76578097
353,0.0219749622046947,-0.0219487957656383,0.0250577684491872,0.0053890864364802,0.0030066166073083,0.0055238711647689,-0.0081195700913667,0.0594541729398161,-0.0281733013689517,0.0396562181413173,101741648
354,-0.0236820504069328,-0.011724155396223,0.0061689941212534,-0.0129859438166022,-0.0058406861498951,-0.0142323728650808,-0.0382957458496093,-0.0596737897291713,0.0036085047759115,0.007873754017055,212071753
355,0.0073761972598731,-0.0081867566332221,-0.0047261291183531,0.0050357272848486,-0.0029631163924932,0.0098692635074257,-0.0219417512416839,0.0312311230523873,-0.0070884809829294,0.0173210129141807,3162115
356,-0.0042998981662094,-0.0432611107826232,-0.0158288944512605,-0.013070523738861,-0.0128433313220739,0.0042633186094462,0.0143606718629598,-0.0229324421787497,-0.0145576708018779,-0.0387143455445766,99446605
357,0.0057187369093298,0.0009804158471524,0.0093780765309929,0.0004698535776697,-0.0002848017029464,0.0041773542761802,-0.0170945655554533,-0.0082452699127804,-0.0317988209426403,0.0259076785296201,52541971
358,-0.0015597611200064,-0.0352534726262092,0.0138687742874026,-0.0030995323322713,-0.0129969753324985,-0.0036457739770412,-0.0122565440833568,0.009622962820642,-0.0299693886190652,-0.0117215346544981,195773243
359,-0.0230110027615978,0.0299098317971352,-0.0084368778377459,-0.0027397066845864,-0.0015348082780106,-0.0009492236064501,0.0446311067387677,-0.0003051299722753,-0.0125865966069077,-0.0040121135908458,17687405
360,0.0006700027734041,-0.0380802266299724,-0.0151259582489728,-0.0094490312039852,-0.0103466156870126,0.0049394769594073,0.00976815354079,-0.0265266829881815,-0.0161005705595016,-0.0276345051825046,114274866
361,-0.0002704162907321,0.0016923267394304,0.0103154927492141,-0.0032251435332,-0.0016646615695208,-0.0016118134371936,-0.0159658696502447,0.0005699562072301,-0.036164317280054,0.0243347492069005,158508852
362,-0.0042457734234631,-0.0302219036966562,-0.0140366768464446,-0.0100701265037059,-0.0101135773584246,0.0019952841103076,0.0099261850118637,-0.0123963968908197,-0.0140062943100929,-0.0290971416980028,107512023
363,-0.0207976771293034,0.0207322494508039,-0.0204406201866568,-0.0215652148703369,-0.0143772781339165,-0.0115934141381733,-0.0135761740624274,-0.0147123602911366,-0.0102910189269585,-0.0151987359568584,146167229
364,-0.0293638557195663,-0.0276412889361381,-0.0071811028756201,-0.0210869740694761,-0.0105791697278618,-0.0193387605249881,-0.0344900302588939,-0.0783814606781975,0.0016995486803352,0.0057506565935909,59299279
365,-0.0293638538569211,-0.0276412889361381,-0.0071811005473136,-0.0210869740694761,-0.0105791697278618,-0.0193387605249881,-0.0344900302588939,-0.078381458063345,0.0016995491459965,0.0057506547309458,55422060
366,-0.0110732652246952,0.0002115459647029,-0.0091675696894526,-0.0130575485527515,-0.0102319382131099,-0.0104611590504646,-0.0058124978095293,-0.0128349834566291,-0.004628911614418,-0.0082894302904605,156284152
367,-0.0067197196185588,-0.0111905010417103,0.0096355024725198,-0.001618962152861,0.0026543075218796,0.0074556646868586,0.0003623584052547,-0.0071510412070298,-0.0110850241035223,0.0065653780475258,109502816
368,0.0040891859680414,-0.0091482000425457,-0.0156770851463079,-0.011411870829761,-0.0128600057214498,-0.0071553289890289,-0.015879139304161,0.0134305932805339,-0.0138317970559,0.002012439770624,76747884
369,-0.0047364090569317,-0.0062634074129164,0.0087859509512782,-0.006924080196768,0.000310499977786,-0.0019768590573221,-0.0050492584705352,-0.0074391210845657,-0.0417150817811489,0.0233597569167614,96648892
370,0.0184758827090263,-0.0509112477302551,0.0005965653108432,0.005222896579653,-0.0057521490380167,0.0062784915789961,-0.0385117903351783,0.0082492573348575,-0.0345787033438682,0.0194321777671575,2368500
371,-0.0134362131357193,-0.0063002887181937,0.0010737214470282,-0.012046780437231,-0.004742607474327,-0.0050645782612264,-0.0014348649419844,-0.036380486960683,0.0057523874565958,-0.0144155947491526,6747648
372,-0.0015110815875232,-0.0048367083072662,-0.0080776866525411,-0.0046562603674829,-0.0075424062088131,0.0004834033607039,-0.010559712536633,0.001638674884778,-0.0114296870306134,-0.0037278248928487,124975178
373,-0.0014583268202841,-0.0452636107802391,-0.0169915854930877,-0.012236482463777,-0.0131625458598136,0.0069420561194419,0.0200761556625366,-0.0167191045271768,-0.0164673924446105,-0.0439007319509983,206977176
374,-0.0293638538569211,-0.0276412889361381,-0.0071811005473136,-0.0210869740694761,-0.0105791697278618,-0.0193387605249881,-0.0344900302588939,-0.078381458063345,0.0016995491459965,0.0057506547309458,45621154
375,-0.0031188069842755,-0.0441126078367233,-0.0155962938442826,-0.0119328219443559,-0.0124548859894275,0.0030791647732257,0.0060379290953278,-0.0288544916340714,-0.0192861501127481,-0.0286584664136171,96457659
376,-0.0159504450857639,-0.010765696875751,-0.0164774525910615,-0.0155653990805149,-0.0112422350794076,-0.0086439363658428,-0.0051759425550699,-0.0389008031422802,-0.0024067915510386,-0.0256319213658571,148611986
377,-0.00025962642394,-0.0415730401873588,-0.0252304021269083,-0.0128138866275548,-0.0138583173975348,0.0072335223667323,0.0189376268535852,-0.0075156820134454,-0.021288126707077,-0.0350721515715122,6001285
378,-0.0079707996919751,-0.0026810350827872,0.0009966380894184,-0.0031083209905773,-0.0034380324650555,-3.4831929951906204e-05,-0.0056861508637666,-0.0078559766727284,-0.0084688793867826,-0.0126553270965814,72763348
379,-0.0020485145505517,-0.0300566814839839,-0.0166198909282684,-0.0101293865591287,-0.010406794026494,0.0047299256548285,0.0148097015917301,-0.0241374657159061,-0.012285073287785,-0.0276695247739553,16835734
380,-0.0108805913478136,-0.0064584822393953,-0.0087047023698687,-0.0175215080380439,-0.0110594648867845,-0.009965737350285,0.0041649532504379,-0.0271747249488156,0.0095714060589671,-0.0234283618628978,44708713
381,0.0039948038756847,-0.0203572437167167,-0.0083152027800679,-0.0123873250558972,-0.0120042786002159,-0.0040704132989048,-0.0085973357781767,2.676719490005662e-05,-0.0189256835728883,-0.0031049794051796,110012110
382,-0.0077450182288885,-0.0443713106215,-0.0129968971014022,-0.0122564397752285,-0.0096562150865793,-0.0093239210546016,-0.0374681130051612,-0.0537213144650906,-0.0093292463570833,0.0165971349924802,88880574
383,0.0131439082324504,0.0118299117311835,0.005548798944801,-0.0005667214281857,-0.001186114619486,0.0032520680688321,-0.0171659290790557,0.0012766719502934,-0.0459207408130168,0.0420175567269325,30351501
384,0.0011272781994193,-0.0043058143928647,-0.0014157495461404,-0.0034120380878448,-0.0054898671805858,-0.0025959531776607,-0.0165738333016634,-0.012335747818264,-0.0069805169478058,0.0051150871440768,152354126
385,7.21607357263565e-05,-0.0524717718362808,-0.0224408656358718,-0.0137667534872889,-0.0149888666346669,0.0084617091342806,0.0278419312089681,-0.0153060754786019,-0.0192582961171865,-0.0505382977426052,206939650
386,0.0028326730243861,-0.0301178619265556,-0.0020890478044748,-0.0025336453691124,-0.0070402100682258,0.0033356354106217,-0.0197989381849765,-0.0290619129187763,-0.026821618899703,-0.0008459450909867,85951147
387,-0.0036023219581693,-0.0106449229642748,0.0134945409372448,0.0015336386859416,0.0009062901372089,0.0053698224946856,-0.0314820855855941,0.0163912756263351,-0.0515797473490238,0.0488398596644401,102386409
388,0.0044540222734212,-0.0120710832998156,-0.0153113054111599,0.004877483472228,-0.0067749312147498,0.0042302976362407,-0.036185935139656,-0.0321328414204522,-0.0450749360024929,0.0113984439522027,78535305
389,0.0052662966772913,-0.0382532142102718,-0.0105551304295659,-0.0060268649831414,-0.0081487689167261,0.0096079539507627,0.0131095172837376,-0.0173306655300294,-0.0223132446408271,-0.021554235368967,103874922
390,-0.017651854082942,-0.0278107766062021,-0.010676790960133,-0.0186520740389823,-0.0105549078434705,-0.0079003879800438,-0.003206541063264,-0.0508605518501271,-0.0011119120754301,-0.0205131769180297,19771878
391,0.0045231510885059,-0.0456949323415756,-0.0173792354762554,-0.0056414981372654,-0.0106335170567035,0.0046930206008255,-0.0054671103134751,-0.0249552879853462,-0.0210871249437332,-0.0142256123945117,32949717
392,0.0007400445174425,-0.0510966591536998,-0.0188949834555387,-0.0118932640179991,-0.0151459304615855,0.00532907852903,0.0094516854733228,-0.022658076306733,-0.0206224117428064,-0.0304789599031209,184425605
393,-0.0041029183194041,-0.02156219817698,-0.0089092729613184,-0.0074386955238878,-0.0095252264291048,-0.000207217701245,0.0019656766671687,-0.0149473771920403,-0.0103121548891067,-0.0133411651477217,102887574
394,-0.0020674876868724,-0.0313087478280067,-0.0233846064656972,-0.0055422289296984,-0.0072395447641611,-0.0019852849654853,0.0054263919591903,0.0182171120746962,-0.0161250364035367,-0.005272758193314,66891131
395,-0.001318369526416,-0.0464018397033214,-0.0201746337115764,-0.013607382774353,-0.0146149303764104,0.00600943621248,0.0193971823900938,-0.0176659336759224,-0.0165087599307298,-0.0404202118515968,106261680
396,-0.0214735120534896,-0.0054619633592665,-0.0038504051044583,-0.0209212452173233,-0.0093030286952853,-0.0029346882365643,0.0004499736241996,0.0104666432560154,-0.0086179450154304,0.0018705939874053,60194762
397,-0.0041883969679474,-0.0312294047325849,-0.0151761695742607,-0.0111992172896862,-0.0107847172766923,0.0021084819454699,0.0053174784407019,-0.0278826515365911,-0.0158279538154602,-0.0301288198679685,101368165
398,-0.0134362131357193,-0.0063002887181937,0.0010737214470282,-0.012046780437231,-0.004742607474327,-0.0050645782612264,-0.0014348649419844,-0.036380486960683,0.0057523874565958,-0.0144155947491526,6747649
399,-0.001956598367542,-0.0467752516269683,-0.013980396091938,-0.0111871324479579,-0.0120268929749727,0.0046974103897809,0.0070523461326956,-0.0302100332562652,-0.0177378728985786,-0.0289108082652091,110939942
400,0.0081187486648559,-0.0242935195565223,-0.0147671941667795,0.0012598240282386,-0.0036609121598303,0.0114674586802721,-0.0054793721064925,-0.003898367610093,-0.0227062478661537,-0.014028251171112,52268839
401,-0.0146458493545651,-0.0400565303862094,-0.0148109905421733,-0.0174268670380115,-0.0127840172499418,-0.0054385256953537,-0.0033240483608096,-0.0468437677507992,-0.0087793730199337,-0.0223938189446926,115138097
402,0.003930989652872,-0.0429750904440879,-0.0127629982307553,-0.0068953237496316,-0.0109410500153899,0.0067761605605483,0.0021574073471128,-0.022136744068292,-0.0271801520138978,-0.0224170312285423,90959033
403,0.0026184907183051,-0.029126651585102,-0.0037644356489181,-0.0072703515179455,-0.0144679145887494,-0.0056038564071059,-0.0302899125963449,-0.0243670034758782,-0.022121999412775,0.0006142621859908,68997293
404,0.0105037493631243,-0.0054374258033931,0.0030530255753546,-0.0015234674792736,-0.0046221404336392,0.001220719423145,-0.0153405787423253,-0.005200626773731,-0.0357221364974975,0.0216920096427202,97442108
405,-0.0135537646710872,-0.0135305346921086,-0.0044083436951041,-0.0069555230438709,-0.0080139031633734,-0.0040389616042375,-0.0096296584233641,-0.0118028310864127,-0.0080250315368175,-0.0168998930603265,34335298
406,-0.0146458484232425,-0.0400565303862094,-0.0148109905421733,-0.0174268670380115,-0.0127840172499418,-0.0054385252296924,-0.0033240483608096,-0.0468437677507992,-0.0087793730199337,-0.0223938189446926,207034364
407,0.0043735178187489,-0.0446287766098976,-0.0149456989020109,-0.0094496607780456,-0.0139882676303386,0.0010006981901824,-0.0078434506431221,-0.0166699885569229,-0.0266348719596862,-0.0193982329219579,8208151
408,-0.0056079905480146,-0.0138441696763038,-0.0132242776453495,-0.0037487712688744,-0.0065306695178151,0.0025462475605309,-0.003303330624476,0.0052826403139812,0.0070930738002061,-0.0143220154568552,71145982
409,0.0084421094506978,-0.0135311661288142,0.0060569806955754,0.0031155506148934,-0.0088401148095726,-0.0001798917073756,-0.0183821078389883,0.004983648413037,-0.0394718199968338,0.0110455760732293,103625428
410,-0.0010395855642855,-0.0407590307295322,-0.0127597851678729,-0.0098802298307418,-0.0114630330353975,0.0053070685826241,0.0080654332414269,-0.0215739552959549,-0.0187367498874664,-0.0311775580048561,58374844
411,-0.0068214791826903,-0.0490676946938037,-0.0187625084072351,-0.0081329066306352,-0.0119431186467409,-0.0033588041551411,0.0059381839819252,0.0064546388536841,-0.0260879267007112,-0.0115453116595745,165081199
412,-0.0017235962441191,-0.0499232001602649,-0.017069986090064,-0.0089562889188528,-0.0102907624095678,0.0013210388133302,-0.0088850697502493,-0.0400384635082938,-0.0133337629958987,-0.0095708929002285,33982497
413,-0.0236820485442876,-0.011724155396223,0.0061689945869147,-0.0129859438166022,-0.0058406861498951,-0.0142323728650808,-0.0382957458496093,-0.0596737897291713,0.0036085047759115,0.0078737530857324,201846065
414,0.0100848376750946,-0.0439467690885067,-0.0043067135848104,-0.0034571215510368,-0.0057023856788873,0.0088790524750947,-0.0004572535399347,-0.016162849572122,-0.0187411662191152,-0.0047923712991178,49609372
415,-0.0293638557195663,-0.0276412889361381,-0.0071811028756201,-0.0210869740694761,-0.0105791697278618,-0.0193387605249881,-0.0344900302588939,-0.0783814606781975,0.0016995486803352,0.0057506565935909,178367993
416,-0.0031028257217258,-0.0287281721830368,-0.0097550693899393,0.0017758475150913,-0.0118543663993477,-0.0033550707157701,-0.0402630977332592,-0.0147546847682735,-0.0387328192591667,0.0184019636362791,47023001
417,-0.0293638557195663,-0.0276412889361381,-0.0071811028756201,-0.0210869740694761,-0.0105791697278618,-0.0193387605249881,-0.0344900302588939,-0.0783814606781975,0.0016995486803352,0.0057506565935909,15166421
418,-0.0293638557195663,-0.0276412889361381,-0.0071811028756201,-0.0210869740694761,-0.0105791697278618,-0.0193387605249881,-0.0344900302588939,-0.0783814606781975,0.0016995486803352,0.0057506565935909,7172770
419,-0.0052845436148345,-0.0272432174533605,-0.0033683686051517,-0.0084108039736747,-0.008596746250987,0.0031429207883775,0.0006617215694859,-0.0202516749592249,-0.0094901388511061,-0.0273068379610776,188320861
420,-0.0064691780135035,-0.0469538904726505,-0.0190498139709234,-0.0153934694826602,-0.0140089327469468,0.0022838271688669,0.0139903835952281,-0.0293228250964828,-0.0146009968593716,-0.038029633462429,45859764
421,-0.0293638557195663,-0.0276412889361381,-0.0071811028756201,-0.0210869740694761,-0.0105791697278618,-0.0193387605249881,-0.0344900302588939,-0.0783814606781975,0.0016995486803352,0.0057506565935909,172571530
422,0.0014753662981092,-0.0490184277296066,-0.0189216453582048,-0.011268051341176,-0.0135169327259063,0.0078487824648618,0.0185021050274372,-0.0177899538506221,-0.0221389718353748,-0.0403123795986175,91069114
423,0.0003909701481461,-0.0300708897411823,-0.0018446911126375,-0.0031775929965078,-0.0068128183484077,-0.0007127043209038,-0.0316709876060485,-0.0414662386916688,-0.0286843068897724,0.0119637195020914,52361126
424,0.0002086494932882,0.0187310427427291,-0.0028783553279936,0.0013537995982915,0.0017329060938209,0.002591592259705,-0.0158729013055562,-0.0140709435708651,-0.0136619545519351,0.0021967710927128,1134720
425,0.0040334351360797,-0.0203450303524732,-0.0117375431582331,-0.0034050764515995,-0.0072662872262299,0.0027530672959983,-0.002410118933767,-0.0121089800399063,-0.0171265359967947,-0.0065271845087409,201234592
426,-0.0067446297034621,-0.0012661962537094,-0.0098662190139293,-0.0089455489069223,-0.0076187630183994,-0.0039122495800256,-0.0076980013400316,-0.0158994101346308,-0.0135016860440373,-0.0081939436495304,14966853
427,0.001511103939265,-0.0393079221248626,0.0008107958128675,-0.0046136006712913,-0.0072120041586458,0.0024891055654734,-0.0161605048924684,-0.0121962634398192,-0.0153220007196068,-0.0089494157582521,57519725
428,0.0049076764844357,-0.0450386740267276,-0.0142651330679655,-0.0055114589631557,-0.0100074671208858,0.0088878665119409,0.011988453567028,-0.0176620120512849,-0.0224008355289697,-0.0235524009913206,50031549
429,-0.0048338463529944,-0.0483333505690097,-0.0198975782841444,-0.0149867907166481,-0.0142539143562316,0.0038282987661659,0.0174532737582921,-0.0258186372624534,-0.0157653205096721,-0.0411567948758602,66464625
430,-0.0027485936880111,-0.0070626009255647,-0.0054648602381348,-0.012298971414566,-0.0115193491801619,-0.0090078124776482,-0.0261223837733268,-0.0039656602194093,-0.0128952134400606,0.0070147328078746,68748784
431,0.0098230820149183,-0.0252517443150281,0.0074298586696386,0.0030728909187018,-0.0025805258192121,0.0076819909736514,-0.017042301595211,-0.0083990605565415,-0.0315623246133327,0.0111101726070046,55422033
432,-0.0132546927779912,-0.0158918127417564,-0.0120021887123584,-0.0145485457032918,-0.0120900105684995,-0.0059249908663332,0.0029683676548302,-0.021620645720408,-0.0128474822267889,-0.0265609845519065,58017337
433,0.0029180976562201,-0.0152319855988025,0.004181558266282,-0.000651687500067,-0.0053133843466639,0.0025036593433469,-0.0114908432587981,-0.0066705357219349,-0.0369123481214046,0.0207534581422805,51887928
434,7.216166704893112e-05,-0.0524717718362808,-0.0224408693611621,-0.0137667497619986,-0.0149888675659894,0.0084617091342806,0.0278419312089681,-0.015306074823401,-0.0192582979798316,-0.0505383014678955,96232449
435,0.0147599168121814,-0.029770378023386,-0.0001671726640779,0.0048832828179001,-0.0062611694447696,0.0026570223271846,-0.0350312404334545,-0.0163348983756423,-0.0265181977301836,0.0181749481707811,206810298
436,0.0102762561291456,-0.0611996315419673,0.0036150338128209,0.0001033839071169,-0.0090418709442019,-0.0046901255846023,-0.0620532482862472,-0.0235486688299744,-0.0296729896217584,0.0335529707372188,173351101
437,-0.0297798812389373,0.0374434553086757,0.0102070150896906,-0.0243748873472213,0.0013417603913694,-0.01721753180027,0.0078479778021574,-0.0631097642773266,0.038844097405672,-0.0192377120256423,47445127
438,-0.0024024615995585,-0.0262176804244518,-0.0036419013049453,-0.0062701450660824,-0.0038558989763259,0.0014292278792709,-0.0019006740767508,-0.0352207208527096,-0.0031833029352128,-0.0014881747774779,76920769
439,-0.0008238197769969,-0.0501712709665298,-0.0164061728864908,-0.0124043794348835,-0.0129596078768372,0.0035075535997748,0.0147599894553422,-0.0199210676822937,-0.0181913021951913,-0.0365610979497432,6754190
440,-0.0229595098644495,0.0044964430853724,0.0118021741509437,-0.0125332036986947,-0.0026092762127518,-0.0130483414977788,-0.0297669991850852,-0.0537287610201972,0.011840765364468,0.0028224112465977,19933028
441,-0.0151256127282977,0.015974398702383,-0.0128508368507027,-0.0120796104893088,-0.0064896754920482,-0.0092796795070171,-0.0009961908217519,-0.0065400343849099,0.0008711391128599,-0.0170884560793638,191085080
442,0.0123822586610913,0.0093883015215396,0.0100175449624657,-0.0008760197088122,-0.0018000707495957,0.0042085810564458,-0.0221567526459693,-0.0113324502135029,-0.0392728447914123,0.0343873016536235,34326285
443,-0.0131301302462816,0.0178362131118774,0.0309620294719934,0.002058835234493,0.0029593494255095,-0.0047490820288658,-0.045363537967205,-0.024930975452111,0.0071537224575877,0.0118166571483016,12928037
444,-0.0006707878783345,-0.0054003777913749,0.0122890118509531,-0.0014574291417375,-0.0014696171274408,4.107970744371414e-05,-0.0173508673906326,-0.0251741630613229,-0.0204113256186246,0.0179947782307863,86177534
445,-0.0136478040367364,-0.0391270890831947,-0.0127931553870439,-0.011261137202382,-0.0098194386810064,-0.006720240227878,-0.0218646228313446,-0.0241533515594426,-0.0140479644760489,-0.0006035931874066,192078523
446,0.0144827207550406,0.0054095294326543,-0.003908950369805,-0.0096616083756089,-0.0144350761547684,-0.0087210014462471,-0.0549819618463516,0.0182948818834521,-0.0109082460403442,0.0040862644091248,200400506
447,-0.0070369997993111,0.0232038404792547,-0.0053617395460605,-0.007960956543684,0.0016683975700289,-0.0026088047306984,0.0027917402330785,-0.0259264034608825,0.0207490213215351,-0.0111365551128983,879768
448,-0.0004443392972461,-0.0186377093195915,-0.0151477567851543,-0.0052091022953391,-0.0065628313459455,-0.0075332783162593,-0.0086285751312971,-0.0553464592676594,0.0107351988554,0.0022315946407616,38106215
449,-0.0110993897542357,-0.0030186658259481,-0.0135560519993305,0.0014084080467,-0.0065904511138796,-0.0033860267139971,-0.0175115205347538,-0.0380761212270408,-0.0184835344552993,-0.0001693284139037,98506381
450,0.0002731417771428,-0.0317939668893814,-0.0276842191815376,-0.0048019886016845,-0.0098521057516336,0.0050182989798486,0.0001240621786564,-0.0196227489679245,-0.0148918675258755,-0.0106666600331664,195696760
451,0.0120842140167951,-0.0450793467462062,-0.0108831748366355,-0.0075803129002451,-0.0091938339173793,-0.0101463682949543,-0.0345618017017841,-0.0544782258132551,-0.0232045818120241,0.0250698290765285,1058759
452,0.0128513239324092,-0.0116529706865549,-0.0322611704468727,0.0020001817028969,-0.0026588160544633,0.0032746496144682,-0.0156639888882637,0.0282051746668588,-0.028510745614767,0.0142335714772343,77580268
453,0.0095191126126651,-0.013718184362819,-0.0009384671429689,0.0032080724296692,0.0013234719145386,-0.0020795743550008,0.02589386211267,-0.0188143560858842,0.0039760536151059,0.0119445027833357,84470282
454,-0.0033760867081582,0.0196194853633642,0.013263096101582,-0.0021686891559511,-0.0015591590199619,0.002914106240496,-0.0057867704890668,-0.0052661104985631,-0.0446705073118209,0.024335840716958,64177119
455,0.0036841661203652,-0.0506624318659305,-0.0089063681662082,-0.0088606979697942,-0.013153183273971,-0.0005320900818333,-0.0213828533887863,-0.029624233403941,-0.0159431789070367,-0.0074602249078452,88880575
456,0.0282372999936342,-0.0428613014519214,-0.0083696516230702,0.0020488481968641,-0.0143440039828419,0.0013216310180723,-0.0588295683264732,0.0013820350677171,-0.0300380382686853,0.0293072704225778,73392382
457,-0.0293638538569211,-0.0276412889361381,-0.0071811005473136,-0.0210869740694761,-0.0105791697278618,-0.0193387605249881,-0.0344900302588939,-0.078381458063345,0.0016995491459965,0.0057506547309458,194294684
458,-0.0159187093377113,0.0039940453134477,-0.0082538751885294,-0.0133446054533123,-0.0121228201314806,-0.0104835107922554,-0.0046049454249441,-0.02079205835474,-0.0072574634104967,-0.0149245047941803,74945071
459,0.0147068854421377,0.0022635590285062,0.020230833441019,0.0150772193446755,0.0101343858987092,0.0143882343545556,-0.0281706824898719,-0.045855981919404,-0.001278473297134,0.0279853176325559,126242405
460,-0.0175894517451524,-0.0375734791159629,-0.013285007327795,-0.0181588884443044,-0.0123430471867322,-0.0082185715436935,-0.0095572369173169,-0.0531513049831966,-0.0066835917532444,-0.0167649202048778,99092671
461,0.0052746338769793,-0.0327292419970035,-0.0073306942358613,-0.0040144105441868,-0.0093190558254718,0.0029336961451917,-0.0183218549937009,-0.0319646783708895,-0.0248486846685409,-0.0053910790011286,5099843
462,-0.0293638557195663,-0.0276412889361381,-0.0071811028756201,-0.0210869740694761,-0.0105791697278618,-0.0193387605249881,-0.0344900302588939,-0.0783814606781975,0.0016995486803352,0.0057506565935909,18860704
463,-0.0283985920250415,0.0099736219272017,-0.0178499277681112,-0.0143062034621834,-0.0041813356801867,-0.0112099517136812,0.0054347277618944,-0.0027200874740571,-0.0037545599043369,-0.0140469651669263,49065011
464,-0.0119176991283893,0.0037189470604062,-0.0139476489275693,-0.0138609884306788,-0.0102626057341694,-0.0062203137204051,-0.0001696154940873,-0.0163609583716194,-0.0206542871892452,-0.0147360283881425,60623703
465,-0.0089056417346,-0.0617667473852634,-0.0209611542522907,0.0023690301459282,-0.0087270531803369,-0.0063544195145368,0.0074403346516191,0.0614018354718658,-0.0436284840106964,0.0145510863512754,102481856
466,0.0146488538011908,-0.0507377870380878,-0.0038087929133325,0.003669241676107,-0.008810150437057,0.0007119092624634,-0.0387446135282516,-0.0107071805691687,-0.0342121124267578,0.0192080270498991,44394807
467,-0.0085421027615666,-0.0040134680457413,-0.0076968595385551,-0.0159172508865594,-0.0102280862629413,-0.0082869101315736,0.0051409471780061,-0.0252747902507922,0.0060302633792161,-0.0220646373927593,98350726
468,0.0129847265779972,-0.0260679572820663,-0.0029018023051321,-0.0062344702892005,-0.010884091258049,0.0028855078853666,-0.0133154857903718,-0.0229425148061433,-0.0266609564423561,0.0105976006016135,18682509
469,-0.017788575340788,-0.0071495609707198,-0.0260693353358979,0.0044793738172655,-0.006438568793981,-0.017070267043617,0.0304581246515953,-0.0280694418474942,-0.0242236256254693,-0.0130314664942332,4594647
470,-0.0058150459080934,-0.0475056767463684,-0.0193889215588569,-0.0152307990938425,-0.0141069274395704,0.0029016155749559,0.0153755396604537,-0.0279211518492079,-0.0150667279958724,-0.0392805002629756,54107666
471,-0.0146458493545651,-0.0400565303862094,-0.0148109905421733,-0.0174268670380115,-0.0127840172499418,-0.0054385256953537,-0.0033240483608096,-0.0468437677507992,-0.0087793730199337,-0.0223938189446926,186443103
472,-0.0004236474633216,-0.0364209190011024,-0.0122791640460491,-0.0137922372668981,-0.0140016414225101,0.0018121855100616,0.0141374487429857,-0.0064572827820081,-0.0180289316922426,-0.0402422100305557,97759716
473,-0.0293638557195663,-0.0276412889361381,-0.0071811028756201,-0.0210869740694761,-0.0105791697278618,-0.0193387605249881,-0.0344900302588939,-0.0783814606781975,0.0016995486803352,0.0057506565935909,7843922
474,-0.0209315903484821,-0.0168362520635128,-0.004188064020127,-0.0150799080729484,-0.009043782018125,-0.0123414285480976,-0.0296112969517707,-0.0572344678530266,-0.0024416511878371,-0.0024503548629581,124845535
475,-0.0293638557195663,-0.0276412889361381,-0.0071811028756201,-0.0210869740694761,-0.0105791697278618,-0.0193387605249881,-0.0344900302588939,-0.0783814606781975,0.0016995486803352,0.0057506565935909,7445076
