,security,conformity,tradition,benevolence,universalism,self-direction,stimulation,hedonism,achievement,power,song_id
0,0.0141825806349515,0.0003403262235224,-0.0216859597712755,0.0020125291775912,-0.0016056622844189,0.0076219951733946,-0.0076122409664094,0.0050375952121959,-0.0273294690996408,0.0287932455539703,4116102
1,0.0066950409673154,-0.0041902679949998,-0.0271798186004161,-0.0010819307062774,0.0024607386440038,0.0052943360060453,0.0129482531920075,0.0130098313455881,-0.0026150560006499,0.0198848601430654,80257632
2,0.0107679897919297,-0.0117812389507889,-0.0490094833076,-0.0039649112150073,-0.0105230789631605,0.0047535421326756,0.0216352306306362,-0.0216452430209391,-0.0167133621871471,0.0073948800563812,2241308
3,0.0147063415497541,-0.0443787798285484,-0.0291024260222911,0.0015532171819359,-0.0109690353274345,0.0010969571303576,-0.0230234749615192,-0.0190020946145064,-0.020280372351408,0.0273428671061992,204336669
4,0.0158853813424516,0.0227196595330807,0.0184871658024989,-0.0071730599009709,-0.0137496860248092,-0.0244179018267479,-0.027122966437115,-0.0515821188758477,-0.0789047193669345,-0.0263928402344199,34952275
5,-0.0116019397974014,0.0062107723206281,-0.0232559498399496,-0.010417491197586,-0.0126156583428382,-0.0084501467645168,-0.003641203045845,-0.0048514918381596,-0.0175288021564483,-0.0028771238867193,17390586
6,-0.002916170284152,0.0017649796791374,0.0015195792075246,-0.0086948024109005,-0.0027520272415131,-0.0047838129103183,0.0035584615543484,-0.0365101577633472,-0.0127389822155237,-0.0097611173987388,9223300
7,0.0223402176052331,-0.0029186692554503,0.010376701131463,0.0194963347166776,0.0238718260079622,0.0158588215708732,-0.0232425685971975,0.0308457666988986,-0.0065232934430241,0.0464984737336635,149782763
8,0.0647493824362754,0.0130569040775299,0.0447401292622089,0.006579652428627,0.0086080739274621,0.0136908572167158,0.0314936935901641,-0.0176597768333884,-0.017722962424159,0.0609545931220054,99962781
9,0.0289077144116163,2.798996865749359e-05,0.0027409172616899,0.0025703511200845,-0.0029388046823441,0.0112380664795637,-0.0186400432139635,0.0056184806469691,0.003248271299526,0.0243702828884124,136930153
10,-0.0119944382458925,0.0059269806370139,-0.0153106683865189,-0.0130229583010077,-0.018558245152235,-0.0070601431652903,0.0007819117745384,0.0185665221242154,-0.0060270763933658,-0.0017336134333163,85912872
11,0.0446599517351547,-0.0150268712290466,0.0011567015810438,0.0130792091637907,0.0231169296689611,0.0215914901518365,0.0200485355119554,0.0808675221515602,-0.0069155676956353,0.0547345886169549,57005765
12,0.0223402176052331,-0.0029186692554503,0.010376701131463,0.0194963347166776,0.0238718260079622,0.0158588215708732,-0.0232425685971975,0.0308457666988986,-0.0065232934430241,0.0464984737336635,99567690
13,0.0706282556056976,-0.0376949422061443,-0.005500971339643,0.0513495877385139,0.0137825272977352,0.0458777658641338,-0.0167358163744211,-0.0428105866163303,-0.0362653248012065,0.0845677554607391,151085454
14,0.0163974687457084,-0.0034016794525086,-0.0038889641873538,0.0116797797381877,0.0157389268279075,0.0118459537625312,-0.0094956634566187,0.0240708743581124,-0.0050387727096676,0.0363894179463386,134245347
15,-0.0110117811709642,-0.0060826884582638,-0.0260405074805021,-0.0167654864490032,-0.0038925278931856,-0.0052787358872592,0.0323783904314041,0.0089050930183974,0.0233399160206317,-0.0018850750057026,16074172
16,0.0017475449712947,0.0022209105081856,-0.0062051690183579,-0.0011175965191796,0.0069462829269468,0.0019039826001971,-0.0115940682590007,-0.0108615518713119,0.0144294248893857,0.007584998384118,61210999
17,0.0077949110418558,-0.003780701663345,-0.009602503851056,0.0078400094062089,-0.0011122921714559,0.0084064900875091,-0.0359819494187831,0.0018386406920351,-0.0181379467248916,-0.0020089377649128,102814436
18,0.0184479970484972,-0.0178745724260807,0.0052715651690959,0.0112935602664947,0.0041673080995678,0.012762039899826,-0.0258829183876514,-0.0040074844235122,-0.044307917356491,0.0403646863996982,205113268
19,0.0402286611497402,-0.014888416044414,-0.0265324302017688,0.0073373154737055,0.0007063609082251,0.0044793263077735,-0.0237405262887477,-0.0139515222112924,-0.039139125496149,0.0432114712893962,99526020
20,0.0223402176052331,-0.0029186692554503,0.010376701131463,0.0194963347166776,0.0238718260079622,0.0158588215708732,-0.0232425685971975,0.0308457666988986,-0.0065232934430241,0.0464984737336635,152156851
21,0.0270002260804176,-0.0138852074742317,-0.0019344752654433,0.0056393686681985,0.0005118655972182,0.0088159637525677,-0.0264436695724725,0.0197514865886701,-0.0201825276017189,0.0416388735175132,17997657
22,-0.0016311737708747,-0.0314335078001022,-0.0213759653270244,-0.001507549197413,-0.006786479614675,0.0012593837454915,-0.0196232106536626,-0.0464994945172853,0.0300902053713798,0.0312627479434013,55713838
23,0.0223402176052331,-0.0029186692554503,0.010376701131463,0.0194963347166776,0.0238718260079622,0.0158588215708732,-0.0232425685971975,0.0308457666988986,-0.0065232934430241,0.0464984737336635,97622225
24,0.007192759308964,0.0406049266457557,0.0235177781432867,-0.0046719005331397,0.0071447268128395,-0.0063471724279224,0.0557948537170887,-0.0076733227526776,0.0084158917888998,-0.0019797710701823,114553438
25,-0.0008018426597118,-0.0482588447630405,-0.010581711307168,0.0058994144201278,-0.016264010220766,0.0052275620400905,-0.0803343802690506,-0.0544659865363178,-0.0301571376621723,0.0464046113193035,45138126
26,-0.007742129266262,-0.004593838006258,-0.0206924751400947,2.0947656594216824e-05,-0.0090292524546384,0.0024695957545191,-0.0120519949123263,-0.0157187525829287,-0.0353190712630748,0.0200594589114189,51897534
27,0.0067835724912583,-0.0324657037854194,-0.0165521204471588,0.002054099459201,-0.0080463495105504,-0.0003130107652395,-0.0237239245325326,0.0186778509399194,-0.0202740244567394,0.0295274071395397,74451241
28,0.0223402176052331,-0.0029186692554503,0.010376701131463,0.0194963347166776,0.0238718260079622,0.0158588215708732,-0.0232425685971975,0.0308457666988986,-0.0065232934430241,0.0464984737336635,6629722
29,0.0144611988216638,-0.0180240422487258,-0.0185662023723125,0.0047873109579086,-0.006101035978645,0.0019010350806638,-0.0364294610917568,0.0017815628311263,-0.0207488052546978,0.024625439196825,111234596
30,0.0154755162075161,-0.0042455652728676,0.0110278129577636,0.0046570235863327,0.0084877517074346,0.0058583552017807,-0.0051046516746282,0.0177129209787054,0.0034865604247897,0.0257207229733467,126273707
31,0.0187745410948991,-0.0271871276199817,-0.0167153254151344,0.0158732328563928,0.0043575400486588,0.0181306041777133,-0.0145937055349349,-0.009052774826575,-0.0037118070758879,0.0329055227339267,99567684
32,0.0139348851516842,-0.0208467915654182,-0.0033968815114349,0.0007772203534841,-0.0003348343307152,0.0047934665344655,-0.0005875393399037,-0.0109937170182776,0.0129903592169284,0.0273463111370801,102339234
33,-0.0137024959549307,-0.0149850118905305,-0.0308177527040243,-0.0095020979642868,-0.0079309968277812,-0.0077610984444618,0.0109907956793904,0.0268964543375212,0.002133522182703,-0.0085030952468514,1632500
34,0.015150130726397,-0.0565091520547866,0.0058417255058884,0.0197091102600097,0.0063154222443699,0.0074159787036478,-0.009780803695321,0.0284547132982045,-0.0333864726126194,0.0649593695998191,35094579
35,-0.0414592696602254,-0.01063747900231,-0.0720336937468712,-0.043827252275639,-0.0389830111056451,-0.028083717439949,-0.0357686357503251,-0.0725686786532645,-0.074355813403793,-0.0497193580813649,16843548
36,0.0217051096260547,-0.017007116228342,-0.0122158210724592,-0.0047796298749744,-0.0097270086407661,-6.957445293664932e-05,-0.0270816981792449,0.0082189644262634,-0.0222480632364749,0.0272572934627532,106839634
37,0.0297800656408071,-0.0396065153181552,0.004005133640021,0.0194513872265815,0.0021690563298761,0.0179012473672628,-0.0501342080533504,0.0074577467473216,-0.0359585769474506,0.0571180172264575,134245346
38,0.0032279710285365,-0.0044720596633851,-0.0355025939643383,-0.0056422054767608,-0.0022840974852442,0.0029531777836382,0.0209683738648891,0.0090572759282204,-0.0017489679157733,0.0139871165156364,5635960
39,0.0064459247514605,-0.0178856719285249,-0.0370994061231613,-0.006943080574274,-0.0121954176574945,-0.0057870936580002,0.0062032393179833,-0.0023533896974942,-0.0105068804696202,-0.0072048637084662,142836663
40,-0.0166080109775066,-0.0246933158487081,-0.035312108695507,-0.0070115914568305,-0.0128030059859156,0.0053039421327412,0.0016901880735531,-0.0100350083771064,-0.0101008815690875,0.0104208346456289,152156857
41,-0.0229998584836721,0.0257030017673969,-0.0091800093650817,0.0051097413524985,0.0067008985206484,0.0042451741173863,0.0117885954678058,0.0139550933779088,0.0092716226354241,0.0189045555889606,84371480
42,-0.011985732242465,-0.0057085854932665,-0.072023332118988,-0.0256529413163661,-0.0231046844273805,-0.0073199463076889,0.0561610758304595,-0.0082867632716076,0.002051489893347,-0.0118925031274557,46337905
43,0.0255913902074098,-0.0568563789129257,-0.0026422617956995,0.0100973732769489,-0.0040185786783695,0.0136852236464619,-0.0599499009549617,0.0218987911763256,-0.0288007464259862,0.0564895272254943,828136
44,-0.0094177760183811,-0.0025526648387312,-0.0191540457308292,-0.0049595963209867,-0.0121063459664583,-0.0082239313051104,-0.0201537404209375,-0.0104355487664006,-0.0213388931006193,-0.0072484472766518,64471701
45,-0.008217546725239,0.031792097259621,-0.0021116692288186,-0.014654365192469,-0.0082460821200351,-0.0055873158301137,0.0373742259492788,-0.0493235145516447,-0.0057123091601147,-0.0380626676700063,80988232
46,-0.0072815511375665,-0.0129841193556785,-0.0530086159706115,-0.0023812963627278,-0.0125420782715082,0.005234632641077,-0.0413618572056293,-0.0320930852246062,-0.049233790487051,0.0159457921981811,76983686
47,0.0798148140311241,-0.0403263792395591,0.0065662236884236,0.0563313961029052,0.0167744979262352,0.0489916652441024,-0.0631960704922676,-0.0486262863630654,-0.0603955537080764,0.0963146761059761,148763951
48,0.003741399385035,0.0090668061748147,-0.0293487794697284,-0.0002813055180013,-0.003020029515028,-5.941884592175484e-05,0.003061200492084,0.0188645732521165,-0.0168170146644115,0.0044623231515288,139654441
49,-0.006209694314748,0.0141266202554106,0.0624147579073905,-0.0016416574362665,-0.0006625307723879,-0.0221835281699895,0.0475942939519882,0.0682411553384851,-0.0337913148105144,-0.0005070655606687,55441816
50,0.0163974687457084,-0.0034016794525086,-0.0038889641873538,0.0116797797381877,0.0157389268279075,0.0118459537625312,-0.0094956634566187,0.0240708743581124,-0.0050387727096676,0.0363894179463386,2107983
51,-0.006736185401678,0.0531906001269817,0.0144529454410076,0.0157345663756132,0.0192346442490816,0.0158780980855226,-0.0280953235924243,-0.0127250205150854,0.0107740722596645,-0.006485978141427,57005772
52,0.0528159737586975,-0.0007542967796325,0.0098571833223104,0.0290475338697433,0.0112591627985239,0.0240053050220012,-0.0334005877375602,-0.0054028399748539,-0.0277013089507818,0.0628560036420822,2565059
53,0.0313349217176437,-0.0202160812914371,-0.0294262710958719,0.0165784247219562,0.0006967720109969,0.0207270383834838,0.0110166277736425,-0.0188564667253801,-0.0170060135424137,0.0412685014307498,98114160
54,0.0122087551280856,-0.0037421281449496,-0.013944050297141,0.0061703165993094,0.0100064929574728,0.0090175010263919,0.0001937849447131,0.0192956211424462,-0.0039924057200551,0.0292641017585992,49562778
55,0.0159152932465076,-0.0033770480658859,-0.0203589219599962,0.0137145509943366,0.002601902000606,0.0181857738643884,0.0004485749523155,-0.0193810565031428,-0.0099393604323267,0.025296114385128,19226344
56,0.0089091137051582,-0.0010571365710347,-0.0231349878013134,0.0066505698487162,0.0139180803671479,0.0043862536549568,0.0172798223793506,-0.0240808620803805,-0.0039502698928117,0.0209950879216194,152156863
57,-0.0406682528555393,0.0368462838232517,0.0158502366393804,-0.0262420438230037,-0.0078257173299789,-0.0249473825097084,0.0551545545458793,0.132721151048711,0.0127947265282273,-0.0458211787045002,136884961
58,0.0284624136984348,-0.0335660576820373,-0.013847392052412,0.0021848757751286,-0.0051119420677423,-0.0005439033266156,-0.018429473042488,0.0631378675399479,-0.0236806422472,0.0197238530963659,1632495
59,0.0223402176052331,-0.0029186692554503,0.010376701131463,0.0194963347166776,0.0238718260079622,0.0158588215708732,-0.0232425685971975,0.0308457666988986,-0.0065232934430241,0.0464984737336635,1027136
60,0.0044869887642562,-0.0168160255998373,0.0196355376392602,-0.0083486186340451,0.0118230059742927,-0.0094624161720275,0.0140141975134611,0.0095513682182226,0.049187783151865,0.013131845742464,17326775
61,0.0250841677188873,-0.0259048826992511,-0.0088976062834262,0.0060962494462728,-0.0071579087525606,0.0062257298268377,-0.0189733691513538,0.0048925235830364,-0.0301397442817688,0.0210906639695167,2323034
62,0.0299366917461156,-0.0610835030674934,0.0148758664727211,0.0195038951933383,0.0010036248713731,0.0166292116045951,-0.0926286801695823,0.0093386453797719,-0.034758374094963,0.0716973692178726,152997654
63,0.0115531757473945,-0.0347112566232681,-0.0140024935826659,0.0130490195006132,-0.0052070296369493,0.0153709212318062,-0.0610456205904483,-0.0335559246764429,-0.0333719439804554,0.0481636822223663,134245351
64,0.0205213539302349,-0.0256418939679861,-0.0247244145721197,0.0059181973338127,-0.0070474580861628,0.0100421188399195,-0.058970782905817,-0.0322628983908186,-0.0463732481002807,0.0407940223813056,59403627
65,0.0102974753826856,-0.0146437147632241,0.0090752644464373,0.0179321840405464,0.0169927608221769,0.0168192945420742,-0.0330151207745075,0.0191501575899927,-0.0111994305625557,0.0434388406574726,113169861
66,0.0105461562052369,-0.0038772572297602,-0.0179351493716239,0.0039834841154515,0.0077311545610427,0.0078948233276605,0.0040397448465228,0.017400212371646,-0.0035770845133811,0.0264358986169099,56800868
67,-0.011985732242465,-0.0057085850276052,-0.0720233246684074,-0.0256529413163661,-0.0231046844273805,-0.0073199477046728,0.0561610832810401,-0.0082867641478791,0.0020514850039035,-0.0118925049901008,34373547
68,0.0020658804569393,-0.0109090935438871,-0.0105379028245806,-0.0093474127352237,-0.0040424126200377,-0.0130418995395302,-0.0170173272490501,0.0349839596261476,-0.0006179434712976,0.0329639352858066,3671199
69,0.0032207735348492,-0.006426746957004,-0.027326388284564,-0.0027121428865939,-0.0034133596345782,0.0053900247439742,0.0019089629640802,0.0044047188557037,-0.004804060794413,0.0143598979339003,210971961
70,0.0147711355239152,-0.0105786491185426,0.0084775350987911,-4.440301563590765e-05,-0.0070774303749203,0.0045498274266719,-0.0093126930296421,0.0007865139849814,-0.0090566715225577,0.0105037912726402,163661563
71,-0.0187512598931789,0.0019463003845885,-0.0144968824461102,0.0197322461754083,0.0037413109093904,-0.0006648517446592,-0.0075072664767503,-0.0002431932662927,-0.002777362242341,-0.0210402272641658,57005722
72,0.0160160418599843,-0.0775418281555175,-0.0165951289236545,0.0230537243187427,0.0015434224624186,0.0097409794107079,-0.0117938909679651,0.0364387928807407,-0.0509489364922046,0.0707215145230293,93918535
73,-0.0012938571162521,-0.0142890289425849,-0.0380749143660068,0.0070173507556319,-0.0055969692766666,0.0096686333417892,-0.0677418559789657,-0.0344180724612057,-0.0611540451645851,0.0294267311692237,49652179
74,0.0084788333624601,-0.020836828276515,0.0045450953766703,0.0045011043548583,-0.0060154763050377,0.003823623759672,-0.0303702037781476,-0.0117938562843045,-0.0147921005263924,0.0261522978544235,188693345
75,-0.0162319596856832,-0.0196164324879646,-0.0028892352711409,-0.0063992077484726,-0.0057471487671136,0.0008358054328709,0.0190000794827938,0.0562191275011564,-0.0013049452099949,0.0113021833822131,11100005
76,-0.0172152146697044,-0.019278384745121,-0.017192443832755,0.0060233385302126,-0.0017303694039583,0.008306429721415,-0.020055815577507,0.0510209086292528,-0.0354806557297706,0.0460245721042156,17086876
77,-0.0217605829238891,-0.0458560511469841,0.0056108022108674,0.0137683814391493,-0.0013194674393162,0.0193761028349399,-0.0590298622846603,-0.011983816340765,-0.0236474201083183,0.0352940522134304,102112552
78,-0.0064861099235713,0.000908819376491,-0.0510014928877353,-0.0230728685855865,-0.02246780321002,-0.0057869181036949,0.0454393923282623,-0.0119302643745768,-0.0032596723176538,-0.0057427706196904,68242601
79,-0.0033495302777737,0.0051284865476191,-0.026705328375101,-0.0032068407163023,-0.0065639270469546,0.0069834575988352,-0.0034158846829086,0.0031718421154503,-0.0195144973695278,0.017332773655653,86451188
80,0.055725947022438,-0.0267816670238971,-0.0155139621347188,0.0357650555670261,0.0073043964803218,0.0273619145154953,-0.0397210419178009,-0.0629305228165346,-0.0587465018033981,0.0381458923220634,17612683
81,-0.0043225244290917,-0.024196971829444,0.0766905625525649,0.0193179356107005,0.0086326405945462,0.0011177221000128,-0.0768777015478689,0.0415855267538097,0.002442046577956,0.0058607592520102,59543419
82,0.0208146162331104,-0.026597861200571,0.0076586389914155,0.0052867094054818,-0.0032607009634375,0.0049087842926383,-0.0466025434434413,-0.0086247199784293,-0.0212812218815088,0.0302649736404418,124205317
83,-0.0045173442922532,0.004478950984776,0.0330177843570709,-0.0187131185084581,-0.0052955220453441,-0.0107212727889418,-0.0301338452845811,-0.0425691443330382,-0.0121672954410314,-0.071190059185028,195065492
84,0.0163974687457084,-0.0034016794525086,-0.0038889637216925,0.0116797806695103,0.0157389268279075,0.0118459537625312,-0.0094956634566187,0.0240708743581124,-0.0050387727096676,0.0363894179463386,57544795
85,0.0172657277435064,-0.0035721261519938,-0.0126310205087065,-0.0043986421078443,0.0007132573518902,0.001846961909905,0.0150826349854469,0.0308350154003868,-0.0165066607296466,0.0151771958917379,85345213
86,0.0203121379017829,0.0069327135570347,0.0003620719653554,-0.0007327732164412,-0.0014996472746133,0.0065453951247036,-0.0170433651655912,0.019124294773839,-0.0073036304675042,0.0007093109888955,14469100
87,0.0079303886741399,-0.0054336586035788,-0.0061473231762647,0.0103142596781253,0.0054628374055027,0.0134211368858814,-0.0221336688846349,0.0048793218076056,-0.0073439367115497,0.0231849178671836,5315847
88,1.913809683173895e-05,0.0078350361436605,-0.0277783032506704,0.0019458313472568,-0.0102069629356265,-0.0111350379884243,0.0314796864986419,0.0031266769669624,0.0437364317476749,0.0105850026011466,134245359
89,-0.0119857247918844,-0.005708591081202,-0.072023332118988,-0.025652939453721,-0.0231046844273805,-0.0073199472390115,0.0561610795557498,-0.0082867642404,0.0020514870993793,-0.0118925049901008,99480601
90,0.0223648399114608,0.0071314051747322,-0.0164507217705249,0.0016938105691224,-0.007861727848649,0.0054536527022719,-0.0209130588918924,0.0109872305944239,-0.0329754427075386,0.0459292232990264,46178447
91,-0.0035469122231006,0.0470361970365047,0.0140058435499668,0.0161471795290708,0.0197432748973369,0.0158759821206331,-0.0275630485266447,-0.0079459187902835,0.0088767986744642,-0.0006743362173438,60637252
92,-0.022667147219181,0.0075700124725699,0.0349726155400276,-0.0306335687637329,0.019146841019392,-0.0225241389125585,0.0510789677500724,0.0404877367213359,0.1017748191952705,-0.0227086171507835,67809135
93,-0.006736185401678,0.0531906001269817,0.0144529454410076,0.0157345663756132,0.0192346442490816,0.0158780980855226,-0.0280953235924243,-0.0127250205150854,0.0107740722596645,-0.006485978141427,103553857
94,0.0223402176052331,-0.0029186692554503,0.010376701131463,0.0194963347166776,0.0238718260079622,0.0158588215708732,-0.0232425685971975,0.0308457666988986,-0.0065232934430241,0.0464984737336635,200750991
95,0.0223402176052331,-0.0029186692554503,0.010376701131463,0.0194963347166776,0.0238718260079622,0.0158588215708732,-0.0232425685971975,0.0308457666988986,-0.0065232934430241,0.0464984737336635,181695848
96,0.0122087551280856,-0.0037421281449496,-0.013944050297141,0.0061703165993094,0.0100064929574728,0.0090175010263919,0.0001937849447131,0.0192956211424462,-0.0039924057200551,0.0292641036212444,7308736
97,0.0195887740701437,-0.0142791308462619,-0.0249195452779531,0.0069914609193801,-0.0017677354626357,0.0160599648952484,-0.0107609750702977,-0.0062352342117785,-0.0011917909141629,0.0207501612603664,76169655
98,-0.0023295674473047,-0.0194153413176536,-0.0130562353879213,0.0083298543468117,-0.0058075617998838,0.0077110286802053,-0.0672351941466331,-0.0379581155447938,-0.0318525321781635,0.0296906232833862,17614637
99,0.0122675150632858,-0.0267682746052742,0.0010923756053671,0.0030842751730233,-0.0038799960166215,-0.0022808839567005,0.0117423869669437,0.0835474770902505,-0.022208197042346,0.0498139448463916,129997203
100,0.0391454324126243,-0.0426209829747676,0.0027853827923536,0.0214779134839773,-0.0076131108216941,0.0146589167416095,-0.0706803351640701,-0.0292598266018958,-0.0477219447493553,0.0498134791851043,86981001
101,0.0244677271693944,0.0088783744722604,0.0090385936200618,0.001859953161329,-0.0017166135367006,0.00973682384938,-0.0287376344203948,0.0134105975753104,0.0029820753261446,0.0264041535556316,178303212
102,0.0301087908446788,-0.0156222432851791,0.0235000848770141,0.0210941433906555,0.0150278657674789,0.0207647774368524,-0.0027962517924606,0.0461708024443144,-0.0033660496119409,0.0442680791020393,58693284
103,0.0130846481770277,-0.0249164998531341,0.00976721663028,0.0120735950767993,-0.0040412507951259,0.0081205749884247,-0.0302655678242445,-0.023855187900686,-0.0278860554099082,0.0593637749552726,203148074
104,0.0090589178726077,-0.0170308798551559,-0.0135966204106807,-0.0061403689906001,-0.0103651247918605,-0.0031973565928637,-0.0076509751379489,0.0363950343445009,-0.0041493684984743,-0.0002730255946516,17516504
105,-0.0169248040765523,-0.0479090176522731,-0.0310995262116193,-0.008131475187838,-0.0126121342182159,-0.0173552148044109,-0.0015783663839101,-0.0840193925366265,-0.0056075826287269,-0.0024286436382681,51846914
106,-0.0014431126182898,0.0051072905771434,-0.0287013109773397,-0.0031942776404321,-0.0005704632494598,0.0048219794407486,0.0127801224589347,0.0019724454529802,0.0003565466031432,0.007654171437025,212958532
107,-0.0068862540647387,0.0112681277096271,-0.0092287426814436,-0.0108238030225038,-0.0021793679334223,-0.00964623875916,-0.0010285798925906,-0.0126838053810679,0.0086504947394132,-0.0058533055707812,2135522
108,0.0215656552463769,-0.022729467600584,0.0132166892290115,0.0004957677447237,-0.0024066874757409,0.0095796193927526,-0.02920813113451,0.0273702474277705,0.0065967692062258,0.0205423980951309,90910059
109,-0.006482277996838,-0.0019362482707947,-0.0232813023030757,-0.0114082675427198,-0.0041626598685979,-0.0051549561321735,0.0231881104409694,-0.0068717061757601,0.0051420694217085,-0.0114924069494009,1629358
110,0.0163974687457084,-0.0034016794525086,-0.0038889641873538,0.0116797797381877,0.0157389268279075,0.0118459537625312,-0.0094956634566187,0.0240708743581124,-0.0050387727096676,0.0363894179463386,134245357
111,0.0066950409673154,-0.0041902679949998,-0.0271798186004161,-0.0010819307062774,0.0024607386440038,0.0052943360060453,0.0129482531920075,0.0130098313455881,-0.0026150560006499,0.0198848601430654,2037677
112,0.0087979584932327,-0.0186080485582351,-0.0326550677418708,-0.0092135658487677,-0.001925713266246,0.0024680339265614,0.0455699488520622,0.0397302793706878,-0.0241925884038209,0.0331232659518718,71041493
113,-0.006469814106822,0.0400246307253837,-0.0156659465283155,-0.0056131700985133,-0.0024615656584501,0.0057800468057394,0.0204250942915678,0.0278357358551085,0.0076706064864993,0.0055087925866246,99470365
114,-0.0003662451636046,-0.0047641908749938,-0.044130552560091,-0.0103697106242179,-0.0072029288858175,0.0005261689657345,0.0292825903743505,0.0049597724095948,-0.000851115444675,0.0078731002286076,1261561
115,-0.0149282291531562,0.0119497887790203,0.0229774788022041,-0.0263311006128788,0.0142187420278787,-0.0178989917039871,0.0376783087849617,0.0331295573733242,0.0736252442002296,-0.017447043210268,41571963
116,-0.0081607438623905,-0.0350203588604927,-0.0098935524001717,0.0064429258927702,-0.0056136772036552,0.0107785575091838,-0.0439294017851352,-0.0184993270159459,-0.0195872467011213,0.0332744680345058,51113095
117,-0.011985732242465,-0.0057085850276052,-0.0720233246684074,-0.0256529413163661,-0.0231046844273805,-0.0073199477046728,0.0561610832810401,-0.0082867641478791,0.0020514850039035,-0.0118925049901008,76169642
118,0.0164798703044652,-0.018984816968441,-0.0085280453786253,-0.0067410981282591,-0.0121372118592262,-0.0041742902249097,-0.0371716022491455,0.0111599455261678,-0.0234194919466972,0.0129590602591633,109965166
119,-0.011985732242465,-0.0057085850276052,-0.0720233246684074,-0.0256529413163661,-0.0231046844273805,-0.0073199477046728,0.0561610832810401,-0.0082867641478791,0.0020514850039035,-0.0118925049901008,84279791
120,-0.0068956604227423,0.0038945598062127,0.026353707537055,-0.013067040592432,0.0208025723695755,-0.009073975495994,0.0250352025032043,0.0371089974934501,0.0638249814510345,0.0015429407358169,194171766
121,0.0224660914391279,-0.0466505773365497,-0.0223315432667732,0.0251128338277339,0.0061743166297674,0.0209412053227424,-0.0553436689078807,0.0419872499177733,-0.0255954544991254,0.0505536906421184,18271679
122,0.0117138009518384,-0.0076787313446402,-0.0025438857264816,0.002225931501016,0.0011506683658808,0.0008352401200681,0.0015612933784723,0.0446062097713599,-0.0205859467387199,0.0383889786899089,58470789
123,-0.0198089480400085,0.0048360037617385,0.0196253471076488,-0.0278518572449684,0.0134387407451868,-0.0187865551561117,0.0480834878981113,0.0330755408987918,0.0835929289460182,-0.0183840859681367,4194332
124,0.0116130728274583,-0.0185502618551254,0.0059581138193607,0.0061508016660809,0.0002081824932247,0.0003853841917589,0.0045807100832462,0.0758463808395454,-0.019325528293848,0.0464633964002132,18167326
125,0.0050345640629529,-0.0169949978590011,-0.0243072789162397,-0.0018822364509105,0.0041726808995008,0.0059369099326431,-0.0116241555660963,0.0100087585375033,-0.0070685017853975,0.007471602410078,84351638
126,-0.0119685987010598,0.0019062831997871,-0.0274019222706556,0.0093984939157962,0.0055327732115983,0.0111115891486406,-0.0206712782382965,0.0256168302166334,-0.0046913800761103,0.0119099793955683,77891076
127,0.0087885297834873,0.0105546759441494,-0.0444614738225936,-0.0065434053540229,-0.0164763964712619,-0.0027684522792696,-0.0209161415696144,0.021855277401114,-0.0864551216363906,0.041821114718914,179755765
128,0.03068283572793,0.0054074693471193,-0.0151749989017844,0.0239104405045509,0.0033601438626646,0.023418003693223,-0.0078116585500538,-0.0026495619033401,-0.0399479493498802,0.0426067672669887,82816346
129,-0.011985732242465,-0.0057085850276052,-0.0720233246684074,-0.0256529413163661,-0.0231046844273805,-0.0073199477046728,0.0561610832810401,-0.0082867641478791,0.0020514850039035,-0.0118925049901008,30401956
130,-0.0100454501807689,-0.0106077343225479,-0.0077586411498487,-0.0110667925328016,-0.006690579932183,-0.0094991587102413,-0.0092200664803385,0.0069961875695394,-0.0028325079474598,-0.0085508972406387,109598935
131,0.0032279710285365,-0.0044720596633851,-0.0355025939643383,-0.0056422054767608,-0.0022840974852442,0.0029531777836382,0.0209683738648891,0.0090572759282204,-0.0017489679157733,0.0139871165156364,111304309
132,-0.0096011609293941,-0.0089159554053264,-0.058192874008946,0.004092799152697,-0.0152684140826831,-0.0053906650656765,0.0065345740594114,-0.0215691469643627,0.0206392819991152,-0.0220898086082618,134245353
133,-0.0238482430577278,0.0604490563273429,0.011528112925589,-0.0131704555824399,-0.0039158435538411,-0.0127448663115501,0.0461661592125892,2.533690872704467e-05,0.0060288505628705,-0.0306281745433807,32800026
134,0.0103678554296493,-0.048587642610073,-0.0003906553611159,0.0202005915343761,0.0035201890859752,0.0159745421260595,-0.0373160056769847,0.0173366036699269,-0.0109376832842826,0.0568675473332405,57241602
135,0.045696347951889,-0.0335044935345649,0.0116612501442432,0.0013464798685163,-0.0067292721942067,0.0085649322718381,-0.0186236929148435,0.0598474826372799,-0.0356737673282623,0.0361510999500751,7946252
136,0.0196543913334608,0.0246829576790332,0.0106670847162604,-0.0057376218028366,-0.0033515125978738,-0.0067544053308665,-0.0553208105266094,0.008046671201741,0.0076288217678666,0.0145381912589073,108107289
137,-0.0037814429961144,-0.0155335953459143,-0.0353856571018695,-0.0102111650630831,-0.0145799461752176,-0.0013421919429674,-0.0072878133505582,-0.0067763539346651,-0.002480300143361,0.0173917710781097,64185077
138,-0.0053686932660639,-0.0051707727834582,-0.0561390109360218,-0.0169494822621345,-0.0140489898622035,-0.0028517581522464,0.0408543795347213,-0.0007431528652797,0.0003985180519521,-0.0006364317960105,83511139
139,0.0440266504883766,-0.0158427022397518,0.0147679047659039,0.0188967995345592,0.006669326685369,0.0165417231619358,-0.0105229085311293,0.0305613242490927,-0.0214982572942972,0.0489072538912296,50343962
140,0.0329567303089462,0.0353304460176469,-0.0284059598506493,0.0098565405146143,0.0027924200362985,0.0033412358152602,0.0300976984595368,-0.0651474927382233,0.0337903428886738,-0.0105402047786734,199050935
141,0.0045371567830443,-0.0047092409804463,-0.0253460779786109,-0.0014866510173305,0.0006457194685935,0.0057048513554036,0.0106226503849029,0.0074215495304233,-0.0057203313335776,0.0238409060984849,50820032
142,0.0212026517838239,-0.0244877599179744,0.0144963162019848,0.0236430242657661,0.0067558656446635,0.0193414837121963,-0.0002532415091991,0.0363825207886609,-0.0173237062990665,0.045159388333559,82020498
143,-0.0063785002566874,0.0080205360427498,-0.0249110870063304,-0.0020002929959446,-0.0008661800529807,0.0061354637145996,0.0059623816050589,-0.0042120550681825,0.000534395687282,0.0037238341756165,9474028
144,0.0223402176052331,-0.0029186692554503,0.010376701131463,0.0194963347166776,0.0238718260079622,0.0158588215708732,-0.0232425685971975,0.0308457666988986,-0.0065232934430241,0.0464984737336635,55179313
145,0.0202948097139596,-0.049694538116455,-0.0331590101122856,0.0093217929825186,-0.0093556065112352,0.0060482379049062,-0.009753187187016,0.0127904293113425,-0.0395075120031833,0.0366485007107257,60392809
146,0.0148380771279335,-0.0371649526059627,0.0059455120936036,0.0156603250652551,-0.0010477151954546,0.0092169698327779,-0.0843917578458786,-0.034818590740611,-0.0271309837698936,0.0587888769805431,92235366
147,0.0067310323938727,0.0141334384679794,-0.0198790468275547,-0.0018400771077722,-0.002713315654546,0.0040370021015405,0.0019608594011515,-0.0002599302699957,-0.0156440064311027,0.0141803370788693,93296295
148,0.0115775354206562,-0.0079522440209984,-0.004253324586898,0.0082349861040711,-0.0039520659483969,0.0085269138216972,-0.0416078977286815,-0.0162869527909357,-0.0366503559052944,0.0313809625804424,3352568
149,-0.0074000507593154,-0.0097530577331781,-0.0076221320778131,-0.0068208132870495,0.0044131395407021,0.0005037442315369,0.0103474035859107,0.0136088069874389,0.0193792898207902,0.0106086023151874,79219366
150,0.0141362594440579,-0.0035854596644639,-0.0093170423060655,0.008705586194992,0.0126443654298782,0.0103190597146749,-0.0042649740353226,0.0214930325054173,-0.0044739013537764,0.0325429327785968,193273536
151,0.0310857146978378,0.0180335976183414,-0.0064852801151573,0.0093315429985523,-0.0075228712521493,0.0027142197359353,-0.048105664551258,-0.0215657184467751,-0.0595421642065048,0.0713528171181678,5434805
152,0.0003727632574737,-0.0527870059013366,-0.0080245435237884,0.0277656558901071,0.0090509997680783,0.020658615976572,-0.0266118310391902,-0.0153419300968536,-0.0019023020286113,0.0332346893846988,115765914
153,0.0317654758691787,-0.0280180573463439,-0.015470259822905,0.0140356235206127,-0.0035199876874685,0.0057567916810512,-0.0343397408723831,-0.0151604364490862,-0.0453230738639831,0.0254756268113851,2860796
154,-0.0241010377654861,-0.0041842108429831,-0.0089524735250403,0.0066750385779609,0.001982024649384,0.0015665715015696,0.0057166117397882,-0.0029452610001055,-0.0294649203909141,0.01073865631306,125480482
155,0.0223658271133899,-0.0407429412007331,-0.0035532498732209,0.0074288886971771,-0.0091750426217913,0.0070225121453404,-0.0448176525533199,-0.0233751421955638,-0.0373314768075943,0.0387967862188816,169366451
156,0.0290787685662508,-0.0123550556600093,-0.0161140169948339,0.0099604269489645,-0.0089480746537446,0.0088533386588096,-0.039926528930664,-0.0576480282347147,-0.0359440632164478,0.0357043147087097,14884938
157,0.0499501079320907,0.0116505753248929,0.0030607911758124,0.0269967895001173,0.0187001377344131,0.0187197867780923,-0.0320751406252384,0.0054729108471963,-0.0164335742592811,0.0461127050220966,55614776
158,0.0452926307916641,-0.0295124817639589,-0.0153752891346812,0.0306109264492988,0.0057326233945786,0.0295389965176582,-0.012138626538217,-0.0307677863335261,-0.0261500775814056,0.0610780417919158,15738922
159,0.0080284355208277,-0.0241842158138752,-0.0212333984673023,0.0007165509741753,-0.0106584699824452,0.0101347137242555,-0.0291170850396156,-0.013464264431452,-0.0127947544679045,0.0170283913612365,83380751
160,-0.0031418327707797,-0.0166283212602138,-0.0312192551791667,0.0026866067200899,-0.0052075441926717,0.0079407934099435,-0.0304419286549091,-0.0117647165645239,-0.0266332030296325,0.0216120220720767,1284914
161,-0.011985732242465,-0.0057085850276052,-0.0720233246684074,-0.0256529413163661,-0.0231046844273805,-0.0073199477046728,0.0561610832810401,-0.0082867641478791,0.0020514850039035,-0.0118925049901008,3998623
162,0.0414304919540882,-0.0103163411840796,-0.010807940736413,0.025685328990221,0.0141838658601045,0.0326846539974212,-0.0201703496277332,-0.0840007509397672,-0.0343249700963497,0.0706877335906028,3777800
163,-0.0402566902339458,0.0314710848033428,-0.0072586121968925,-0.0036359888035804,0.0034475550055503,0.0065569835714995,0.0428657792508602,0.0234330739778813,0.026819247752428,0.0168867260217666,195760279
164,-0.022620964795351,0.0058623645454645,0.0034112222492694,-0.0226069241762161,-0.0018688497366383,-0.0142942015081644,0.0368178486824035,0.0567215728846273,0.0239910203963518,-0.0067858002148568,164950564
165,0.0594159848988056,-0.0296200513839721,-0.0018142347689718,0.0439534038305282,0.0161252208054065,0.0389074981212616,-0.0182466581463813,-0.0257079010678869,-0.0293593630194664,0.0757282450795173,7908339
166,0.0387157313525676,-0.0353423915803432,-0.001914411317557,0.0272444672882556,-0.0006898363353684,0.0238050408661365,-0.0482606440782547,0.0033430207472858,-0.0304075237363576,0.0608148165047168,90166650
167,0.0177872739732265,-0.0204242412000894,0.0070646875537931,7.9415796790272e-05,0.0071757081896066,0.0026362754870206,-0.0054058893583714,-0.0070182274655524,0.0248788949102163,0.0260462127625942,65079014
168,0.0118654072284698,-0.0220601558685302,-0.0347401611506938,0.008580382913351,-0.0086739491671323,0.0041752867400646,-0.0293368212878704,0.014018030041453,-0.0592995658516883,0.0349730439484119,66117517
169,-0.01275226008147,0.0145471170544624,-0.0150021277368068,-0.0122568467631936,-0.0032321738544851,-0.0099483840167522,0.0041114487685263,0.0371962266585316,-0.0050266389735043,-0.0145191634073853,99386143
170,0.0223402176052331,-0.0029186692554503,0.010376701131463,0.0194963347166776,0.0238718260079622,0.0158588215708732,-0.0232425685971975,0.0308457666988986,-0.0065232934430241,0.0464984737336635,96457658
171,0.001271441229619,-0.0001942592207342,0.0060738455504179,0.0009827455505728,-0.0045587914064526,0.0043495167046785,-0.0202936753630638,0.0268945432617432,-0.0019858302548527,0.0250544697046279,19550437
172,0.0122087551280856,-0.0037421281449496,-0.013944050297141,0.0061703165993094,0.0100064929574728,0.0090175010263919,0.0001937849447131,0.0192956211424462,-0.0039924057200551,0.0292641036212444,87029402
173,0.0073919305577874,-0.0340246073901653,-0.0181043278425931,0.0035733103286474,-0.0118560586124658,0.0066288369707763,-0.0397133380174636,-0.0232971174247147,-0.0278224032372236,0.037586823105812,102675336
174,-0.011985732242465,-0.0057085850276052,-0.0720233246684074,-0.0256529413163661,-0.0231046844273805,-0.0073199477046728,0.0561610832810401,-0.0082867641478791,0.0020514850039035,-0.0118925049901008,49331390
175,0.0357714369893074,-0.0353757999837398,0.0108920224010944,0.0041286535561084,-0.0147478524595499,0.0062836143188178,-0.044913925230503,0.0090343408964662,-0.0450171306729316,0.0378088355064392,189822176
176,0.0252774562686681,-0.0392731986939907,-0.0032778861932456,0.0123787578195333,-0.0010382500477135,0.0097967619076371,-0.0170655846595764,0.0172151686410469,-0.0378046408295631,0.056291040033102,52080229
177,0.0113120870664715,-0.0121918749064207,-0.023619282990694,0.0011153965024277,-0.0052533918060362,0.0101380478590726,0.0290488805621862,0.0099298306017094,0.0051389085128903,0.011841719970107,110111095
178,0.0036657359451055,0.0218529403209686,-0.0544704310595989,-0.0120484000071883,-0.0174860656261444,0.0006034926045686,0.0068522384390234,0.0026328634955511,-0.0804562717676162,0.0277730133384466,83551433
179,-0.022667147219181,0.0075700050219893,0.034972608089447,-0.0306335687637329,0.0191468391567468,-0.0225241351872682,0.0510789602994918,0.0404877382067034,0.1017748191952705,-0.0227086171507835,195227039
180,-0.0255106482654809,0.0059179542586207,-0.0233638174831867,0.0027326007839292,-0.0084541533142328,-0.0016282245051115,0.0237648244947195,-0.0132755848531031,-0.0129072833806276,-0.0154541470110416,4687741
181,0.018135268241167,-0.0176712311804294,-0.0243922565132379,-0.0028844885528087,-0.0080736549571156,0.0044016088359057,-0.0075542572885751,-0.0175692223236334,-0.0249169077724218,0.0144213996827602,74781242
182,-0.0014901868999004,0.0228319726884365,-0.0118479738011956,0.0044799814932048,0.007905313745141,0.0090733002871274,-0.0022639469243586,-0.0012569322746935,0.0041808583773672,0.00429283734411,52422878
183,-0.0126656340435147,-0.0085011282935738,-0.0666233301162719,-0.022910913452506,-0.021589370444417,-0.005463050212711,0.0481487400829792,-0.0085439193956156,0.0002639486920088,-0.008610351011157,63078310
184,0.0198056194931268,-0.025201816111803,0.0112688820809125,0.0065217521041631,-0.0026279860176146,0.0093866949900984,-0.0078607415780425,-0.0090197722809257,-0.0156693756580352,0.0262840334326028,7798401
185,0.0121655743569135,0.0157785918563604,0.0176283363252878,0.0213928520679473,0.0098177324980497,0.0109368795529007,0.0310024786740541,-0.0264747082362283,0.0044033857993781,0.0424168370664119,97205149
186,0.0405541136860847,-0.0423487648367881,-0.0054615945555269,0.0142279546707868,0.0018401995766907,0.0173885263502597,-0.0088403588160872,-0.0011140422222685,-0.0102219898253679,0.0518525503575801,2045233
187,0.0218687281012535,-0.033136460930109,-0.0324441902339458,0.0220467001199722,0.0095081515610218,0.0265321768820285,-0.013893180526793,-0.0740656596027197,-0.0337727963924407,0.0272342078387737,213759518
188,0.0076681412756443,-0.0243849866092205,0.0121528077870607,0.0072537111118435,0.0062198834493756,0.0046616857871413,-0.0110327042639255,0.0200440332010005,-0.00673563266173,0.0388387478888034,44976789
189,0.0169427581131458,0.0026882225647568,-0.0016410432290285,0.0106154521927237,0.0056659774854779,0.0056618060916662,-0.0300235971808433,-0.0163199203812506,-0.0044752121903002,0.0225677192211151,189470222
190,0.0392541848123073,-0.0367814339697361,-0.0084374090656638,0.0260715819895267,0.0083218934014439,0.0404088944196701,-0.0467366091907024,-0.0048031689574231,-0.0201845522969961,0.080491729080677,45744269
191,0.0120158772915601,-0.0122156329452991,-0.011152995750308,-0.0041114543564617,-0.0095357615500688,0.0001083242241293,-0.0002532857470214,-0.0008006863551948,-0.0379057414829731,0.0076852305792272,52277738
192,0.0051236189901828,-0.0613250695168972,-0.0032123252749443,0.0080598099157214,0.0053896256722509,-0.0001078705536201,-0.0003689210861921,0.0310990971503271,-0.0120130656287074,0.0458607375621795,53614250
193,-0.0332750678062438,0.0384427607059478,0.0184895917773246,-0.0240076333284378,-0.002916774014011,-0.0160138104110956,0.0224077776074409,0.0247465082366273,0.0249711088836193,-0.0066341757774353,129694210
194,-0.0212904214859008,-0.0013925719540566,-0.0200394541025161,-0.0173853654414415,-0.0124477464705705,-0.0151490233838558,-0.0130682159215211,-0.0249905319371591,0.0050241858698427,-0.0228853691369295,195211760
195,-0.0119857247918844,-0.005708591081202,-0.072023332118988,-0.025652939453721,-0.0231046844273805,-0.0073199472390115,0.0561610795557498,-0.0082867642404,0.0020514870993793,-0.0118925049901008,30401979
196,-0.0115968687459826,0.0135349370539188,-0.0130805745720863,-0.0135982744395732,0.0031956362072378,-0.0043470496311783,0.0279392134398221,0.0073910540114543,0.0330685153603553,-0.0099763134494423,83916654
197,-0.0220557618886232,0.019790006801486,-0.0443702861666679,-0.0022669357713311,-0.0014302702620625,0.0071014049462974,0.0306381974369287,0.0561324070441937,0.0015275948680937,0.0237976126372814,55915048
198,0.0025432787369936,0.0168879460543394,0.0097410529851913,0.0077919536270201,0.0078651458024978,0.0113480463624,-0.0322255529463291,-0.0741456374956103,-0.0443641506135463,0.022036574780941,56232025
199,-0.0089239832013845,0.0169860832393169,0.007748688571155,-0.0065246387384831,0.0015537876170128,-0.0020152321085333,0.0152421444654464,0.0125939813828763,0.016780000180006,-0.0006389648187905,31260463
200,0.012927871197462,-0.0204680655151605,-0.0081714708358049,0.021948866546154,0.0036552618257701,0.0227393954992294,-0.0335731320083141,-0.0270890954939793,-0.0080984607338905,0.0518695078790187,58026824
201,-0.0174275878816843,-0.0280595235526561,-0.0288027785718441,-0.0037062640767544,-0.0109763983637094,0.0075423037633299,-0.0079681361094117,-0.0103449911662001,-0.0122556341812014,0.0143772447481751,1457158
202,-0.0242842137813568,-0.0345336161553859,0.019567945972085,-0.0052207903936505,-0.0128467166796326,-0.0026487845461815,-0.0591538101434707,0.0009563485468616,-0.0206249915063381,0.0134177524596452,127973630
203,0.0032279710285365,-0.0044720596633851,-0.0355025939643383,-0.0056422054767608,-0.0022840974852442,0.0029531777836382,0.0209683738648891,0.0090572759282204,-0.0017489679157733,0.0139871165156364,69375516
204,0.0017944378778338,-0.0103792203590273,-0.0433783493936061,-0.0112263308838009,-0.0126938093453645,-0.0054083969444036,0.0136630618944764,0.0145405406573682,-0.0116299912333488,0.0204173047095537,98109744
205,0.0244999267160892,-0.0246756970882415,-0.0113547872751951,0.0056751859374344,-0.0058563444763422,0.0129033960402011,-0.0212829075753688,-0.0260075993076279,-0.0108764404430985,0.0494220629334449,215870218
206,-0.0050280485302209,-0.0153689756989479,-0.0290507189929485,-0.002916894853115,-0.0044458084739744,0.0060303891077637,0.0042583914473652,0.0015801784052843,-0.0069989496842026,0.0165252033621072,48578381
207,-0.0090194940567016,0.0050650374032557,-0.0146480808034539,-0.0025353389792144,0.0002934650983661,-0.0057718809694051,0.007434019818902,-0.0118770620970727,0.001701200264506,-0.0170122664421796,112629130
208,0.0101525816967309,-0.0043036829018148,0.0230819317678654,-0.0157151167732093,-0.0045888020989295,0.0042409233023639,0.0053935643529625,0.0172641017065247,0.0015899336687514,0.0247824776272617,46171824
209,-0.0137688443064689,-0.02638915553689,0.0261422470211982,-0.0347809940576553,-0.0100858872756361,-0.0297167990356683,0.0540785677731037,0.021390026764274,0.038884088397026,-0.067394845187664,199306992
210,0.0080989841371774,0.0574029386043548,0.0141168190166354,0.0207531340420246,0.0196977220475673,0.0167967081069946,-0.0059927683323621,-0.0346342738169375,0.0151216387748718,-0.0085499323904514,55422058
211,0.028843380510807,-0.0289555490016937,0.0075663402676582,0.0273249335587024,0.0007971783634275,0.0142656490206718,-0.0463930703699588,-0.0365505172282983,-0.0427221171557903,0.0590458773076534,138830239
212,-0.0119857247918844,-0.005708591081202,-0.072023332118988,-0.025652939453721,-0.0231046844273805,-0.0073199472390115,0.0561610795557498,-0.0082867642404,0.0020514870993793,-0.0118925049901008,98091595
213,0.0535811223089695,-0.0563940517604351,0.0044936230406165,0.0144560895860195,-0.0032711578533053,0.0203325096517801,-0.0613738074898719,-0.0787539665222201,-0.0561794340610504,0.0354010201990604,101157977
214,0.0149437971413135,-0.047996737062931,0.0017071333713829,0.0126794325187802,-0.0025358572602272,0.0128252208232879,-0.0688990280032157,-0.0039285642834904,-0.027456447482109,0.0543653555214405,79785773
215,0.0124180447310209,-0.0748301148414611,-0.0136289661750197,0.0254726167768239,0.003856259630993,0.0096090668812394,-0.0134924259036779,0.0394218040205687,-0.0500656068325042,0.069782368838787,115011586
216,0.006192298606038,-0.0130806416273117,0.0059806741774082,0.0006744402926415,0.0025981301441788,0.0077242590487003,0.0118820490315556,0.0245813662743926,-0.0100548136979341,0.0145314279943704,201816469
217,0.0056259748525917,-0.0309270061552524,0.0269817020744085,0.0075894840992987,-0.0038921209052205,0.0030882928986102,0.0015013678930699,0.012544899932214,-0.0299701765179634,0.0183855611830949,58026802
218,0.0181555151939392,-0.062057115137577,-0.0143567752093076,0.0199709720909595,-0.002526294440031,0.0065470170229673,-0.0252508856356143,0.0304399829779249,-0.0427551232278347,0.054308034479618,134307269
219,-0.0229101702570915,0.0077759618870913,0.0316576473414897,-0.0246118064969778,0.0176023803651332,-0.0154715022072196,0.0487401597201824,0.0449049512370017,0.0822528973221778,-0.0142248850315809,52197511
220,0.0164307728409767,-0.0286758802831172,0.0022364230826497,0.0128718856722116,-4.9923546612262726e-05,0.0128475120291113,-0.0475943386554718,-0.0091182954106738,-0.0229327976703643,0.0422564521431922,1394129
221,-0.0005177544662728,-0.0123286079615354,-0.0166374165564775,-0.0001880483468994,0.0001590623287484,0.0030854423530399,-0.0385258123278617,-0.0094280312948952,-0.0222155135124921,0.0173059552907943,152997644
222,-0.0425853803753852,-0.0460644885897636,-0.0331220254302024,-0.0299564413726329,-0.0289614200592041,-0.0218672472983598,-0.0250032693147659,0.0902378733360246,-0.0134295914322137,-0.0158122517168521,38035180
223,0.0281642861664295,-0.0328877605497837,0.0041249804198741,0.0053920336067676,-0.0074909841641783,0.011910255998373,-0.0487978011369705,-0.0302892978888257,-0.0127000100910663,0.0636593475937843,99604430
224,-0.0061183096840977,0.0102368155494332,-0.0227715093642473,-0.0011707514058798,0.0051589645445346,0.0043907631188631,0.009170988574624,0.0086096075393462,0.0045620622113347,0.0076056011021137,1181559
225,0.0032279710285365,-0.0044720596633851,-0.0355025939643383,-0.0056422054767608,-0.0022840974852442,0.0029531777836382,0.0209683738648891,0.0090572759282204,-0.0017489679157733,0.0139871165156364,49367038
226,0.0386723354458808,-0.0117606148123741,0.0031851157546043,0.0078781833872199,0.0013634548522531,0.0153014035895466,-0.0237157884985208,0.01569907725521,0.0101404748857021,0.0179847441613674,99092665
227,-0.0109667303040623,-0.0330872423946857,0.0109931845217943,-0.0042324243113398,-0.0069385594688355,-0.0033947203774005,-0.0436478070914745,0.0364286324930921,-0.0100185135379433,0.0149694634601473,84791675
228,0.0066950409673154,-0.0041902679949998,-0.0271798186004161,-0.0010819307062774,0.0024607386440038,0.0052943360060453,0.0129482531920075,0.0130098313455881,-0.0026150560006499,0.0198848601430654,65819501
229,-0.0074830641970038,-0.008529650978744,-0.0173879694193601,-0.0096819400787353,-0.0104901352897286,-0.0096904821693897,-0.0319592170417308,-0.0147348687792269,-0.0089978836476802,0.000628035981208,209877730
230,-0.0104888742789626,-0.0063177593983709,-0.0354246944189071,-0.007571617141366,-0.011512185446918,0.0024025556631386,0.0015716482885181,-0.0189663956431383,-0.00500532053411,0.0045563401654362,34134703
231,0.0047841798514127,-0.004345579072833,-0.0317668691277504,-0.0035953044425696,-0.0001543555408716,0.0040040174499154,0.0173684917390346,0.0108313999082301,-0.0021377131342887,0.016634352505207,105881940
232,0.0399607308208942,-0.0406290553510189,-0.0030923855956643,0.0181108675897121,0.0025261896662414,0.0253655463457107,-0.0056855487637221,0.0601126836038922,-0.0272183157503604,0.0518922507762908,67801698
233,0.0249443147331476,-0.0065204873681068,0.0042539541609585,0.0002408822765573,-0.0010906588286161,0.0046101827174425,-0.0206069331616163,0.0174362400892535,-0.0100597720593214,0.0100612947717309,184006479
234,0.0225369706749916,-0.0155296474695205,0.0108088478446006,0.0167755335569381,0.003941664006561,0.0235601998865604,-0.035793799906969,0.0079805105113848,0.0036805314011871,0.0391498431563377,98079917
235,-0.006736185401678,0.0531906001269817,0.0144529454410076,0.0157345663756132,0.0192346442490816,0.0158780980855226,-0.0280953235924243,-0.0127250205150854,0.0107740722596645,-0.006485978141427,102488300
236,0.0391991138458251,-0.0246488489210605,0.0026789607945829,0.0284264720976352,0.0043768268078565,0.0311181843280792,-0.0194473639130592,0.001890726420962,-0.0344402007758617,0.0528770945966243,186297240
237,0.0181959066540002,0.0056721158325672,-0.0135978274047374,0.0058571170084178,0.0004614412318915,0.0031164237298071,0.0059172729961574,-0.0137360344095193,0.0049437219277024,0.0178125351667404,87839561
238,0.0223402176052331,-0.0029186692554503,0.010376701131463,0.0194963347166776,0.0238718260079622,0.0158588215708732,-0.0232425685971975,0.0308457666988986,-0.0065232934430241,0.0464984737336635,56491568
239,0.0178775079548358,-0.00963378790766,-0.0073686111718416,0.0009771697223186,-0.0060874298214912,0.0007491509895771,-0.0120667638257145,-0.0206009187975394,-0.0185199156403541,0.0412308238446712,205932746
240,-0.0267208330333232,0.0159652307629585,-0.0170904044061899,-0.01195321790874,-0.0049537122249603,-0.0070277620106935,0.0190196968615055,0.0018521236038693,0.0109445545822381,-0.0139101333916187,51113107
241,-0.0119742462411522,-0.0081082973629236,-0.0386266782879829,-0.0136499740183353,-0.0198055617511272,-0.0044747237116098,0.0391809828579425,-0.008313502587992,0.0181628335267305,-0.0172243006527423,74738631
242,0.0141838523087554,0.0299433199212617,0.0101267430964114,0.0114434911777369,0.0156717514609578,0.0089510238217054,0.0382020805828206,0.0803072985709471,0.0353549274818747,0.0082623615427773,94043093
243,-0.0024858934339135,0.0108535643666982,-0.0279637370258569,-0.010771139524877,-0.0126783018931746,-0.0138338878750801,-0.0138427037745714,-0.0378306502134498,-0.0248981099575757,-0.0246921516954898,98708407
244,0.0223402176052331,-0.0029186692554503,0.010376701131463,0.0194963347166776,0.0238718260079622,0.0158588215708732,-0.0232425685971975,0.0308457666988986,-0.0065232934430241,0.0464984737336635,128725950
245,0.0431400202214717,-0.0149547709152102,0.0001606902806088,0.0184807665646076,-0.0063289334066212,0.0129232313483953,-0.0571025051176548,0.0038270141960096,-0.0322121046483516,0.0488832257688045,102523558
246,0.0014813465531915,-0.0087775085121393,-0.0289992894977331,-0.0024086008779704,-0.0009542896877974,0.0052964845672249,0.01042942982167,0.0078539038150496,-0.0042898934334516,0.0177674274891614,102122032
247,0.0163286905735731,-0.0081379422917962,0.0073025850579142,0.0020230575464665,-0.0019256684463471,0.0106618851423263,0.0118564395233988,0.039719722073611,0.0026131172198802,0.0199902281165123,19919865
248,0.0050973617471754,-0.0125585682690143,-0.0098502915352582,0.007760951295495,0.0076354299671947,0.0111860483884811,-0.0122045390307903,0.0127473472634965,-0.0081071322783827,0.0305264517664909,76273564
249,0.0041630747728049,0.0176053214818239,0.0093419952318072,0.0112453708425164,0.0189983546733856,0.0105168614536523,-0.0193954240530729,0.0071654373866861,0.0076436218805611,0.01556455809623,100565256
250,0.0461466088891029,-0.0305855888873338,-0.0071728443726897,0.0342693664133548,0.0097435433417558,0.0309022367000579,-0.0175929311662912,-0.0245424040155384,-0.0391755104064941,0.0638800859451294,200394113
251,-0.0006310318130999,-0.0103574758395552,-0.0115004424005746,-0.0053951516747474,-0.0060448078438639,-0.0056529100984334,0.0023311120457947,-0.004037618898568,0.0034371619112789,-0.010110380128026,150718336
252,0.025484999641776,0.0171893183141946,0.0340283028781414,0.0222722366452217,-0.00958879198879,0.0104486681520938,-0.0416420511901378,0.0196173650530101,-0.0441278219223022,0.0391223095357418,102421980
253,-0.0101057291030883,-0.0465895049273967,0.0179766230285167,0.0030044447630643,-0.0119843371212482,-0.004895519465208,-0.0428204499185085,-0.0020526496662608,-0.0374597124755382,0.0265856683254241,84344367
254,0.0034142252989113,-0.0039244215004146,0.0096493875607848,-0.0004825653741136,0.0122938649728894,0.0024850259069353,0.0076482556760311,0.0206651317460056,0.0351394563913345,0.0099611729383468,72497728
255,0.009401642717421,-0.0511703938245773,-0.0170160382986068,0.0025124994572252,-0.0175412539392709,0.0042513208463788,-0.0684082359075546,-0.0354455584436549,-0.0295195765793323,0.0467047952115535,68002205
256,-0.0237886551767587,0.0068242494016885,-0.0020154165104031,-0.0047853370197117,-0.0042041693814098,0.008852825500071,0.0307722017168998,0.0429694219785593,-0.0211402997374534,0.0242434348911046,72898792
257,0.0186059270054101,-0.0053788009099662,-0.0026590363122522,0.0212803855538368,0.0147733818739652,0.0161864999681711,-0.007948849350214,0.0359317263869424,0.0212655588984489,0.0333689674735069,138460133
258,-0.014024936594069,0.0111108599230647,0.0080948639661073,-0.0101241059601306,-0.0050759380683302,-0.0125371050089597,-0.0168683547526597,0.0065234937410926,-0.0022874739952385,0.0031247558072209,99018577
259,0.0117965228855609,-0.0137803833931684,-0.0074599999934434,0.0098723657429218,-0.0007887098472565,0.0120456470176577,-0.0219134576618671,-0.0224191404930433,-0.0134093090891838,0.0312807075679302,206545451
260,0.0090973721817135,-0.003995013423264,-0.0214129965752363,0.0020778770558536,0.0057484260760247,0.0069165211170911,0.0073911235667765,0.0157485534761136,-0.0032151690684258,0.0239714030176401,56491611
261,0.0255997702479362,-0.0381148383021354,-0.0091318860650062,0.0190741643309593,-0.00357461348176,0.016435096040368,-0.0273050982505083,-0.0422284376427611,-0.0367939323186874,0.0406414493918418,108954955
262,0.0034775207750499,-0.0215138159692287,-0.0346731655299663,-0.0014640579465776,-0.0001648259349167,0.001252346788533,-0.0113129317760467,-0.0139939030952632,-0.0205827709287405,0.0183486714959144,47754644
263,-0.0102632762864232,0.0118274297565221,0.0009596409508958,-0.0128319794312119,0.009463557973504,-0.0055155255831778,0.0256812516599893,0.0164987159582673,0.0432525724172592,-0.0066592623479664,59488156
264,0.0122404666617512,-0.0652147978544235,-0.0201217718422412,0.0149160269647836,-0.0046112397685647,0.0021930409129709,-0.0170653294771909,0.0380562858662984,-0.0434677712619304,0.0491374097764492,173578723
265,-0.0067835971713066,0.0034576321486383,0.0068721175193786,0.0140544828027486,0.010863565839827,0.0162091236561536,-0.035054538398981,-0.0037562357026795,-0.0055984994396567,0.0189839638769626,1489566
266,0.0164551977068185,-0.0440386645495891,-0.019209049642086,0.0060432064346969,-0.003654507221654,0.0033581564202904,0.0217366814613342,-0.0086493144466407,-0.0212370362132787,0.0312714949250221,195696960
267,0.0055256159976124,-0.0241395346820354,-0.001064155017957,0.0039775441400706,-0.0030137246940284,0.0027913711965084,-0.0334844402968883,-0.0024546701055548,-0.0682620853185653,0.0412172898650169,157676367
268,-0.0159107018262147,0.0055385404266417,-0.0192571133375167,-0.015435823239386,-0.0114269601181149,-0.0143745485693216,-0.0068069621920585,-0.013048216590974,-0.0052437945269048,-0.0147549351677298,47758813
269,-0.0214269869029521,-0.0110533609986305,-0.008744353428483,-0.018088225275278,-0.0068687228485941,-0.0114206839352846,0.0320037640631198,0.0198152847414087,0.0163804423063993,-0.0129420328885316,94043087
270,0.0016617099754512,0.0207774192094802,-0.0415438264608383,-0.0170213058590888,-0.0114800054579973,-0.0071662133559584,-0.0029614530503749,-0.0239371070637706,-0.0279280412942171,-0.0078692818060517,60612444
271,0.0279768165200948,-0.0310644693672657,-0.0198409911245107,0.0103178285062313,-0.0021204594522714,0.014276192523539,-0.0254512894898653,-0.0281122910849567,-0.0079118367284536,0.0372946076095104,189832432
272,-0.0062118223447828,-0.0353677346256533,0.01783538457634,0.0317092337815306,0.0157428550510114,0.0154797706323928,-0.0001048884096134,-0.0444045177915615,-0.0229115971640112,-0.0161799978661913,83448924
273,0.0089655891060829,-0.0518585592508316,-0.0109119471162557,0.023048061877489,-0.0021253935992717,0.0166895817965269,-0.024064939469099,-0.0240626190717337,-0.0003260561497882,0.0308199767023324,968042
274,0.0141362594440579,-0.0035854596644639,-0.0093170423060655,0.008705586194992,0.0126443654298782,0.0103190597146749,-0.0042649740353226,0.0214930325054173,-0.0044739013537764,0.0325429327785968,63645659
275,0.0225889962166547,0.022700322791934,0.0182026661932468,0.0320621877908706,0.021405404433608,0.0301585737615823,-0.0383640676736831,-0.0115480119629941,-0.0123583106324076,0.0252485312521457,2052970
276,0.0032279710285365,-0.0044720596633851,-0.0355025939643383,-0.0056422054767608,-0.0022840974852442,0.0029531777836382,0.0209683738648891,0.0090572759282204,-0.0017489679157733,0.0139871165156364,54209120
277,0.0329826436936855,-0.0284710582345724,-0.0090335486456751,0.0215635150671005,0.0060048582963645,0.0212387032806873,-0.0244775712490081,-0.0088277735752914,-0.0216150525957345,0.0542249344289302,107721773
278,0.017177477478981,-0.0336496010422706,0.0233894195407629,0.0044725290499627,0.0010855251457542,0.0094959679991006,-0.0449313484132289,-0.0688998710384688,-0.0388635359704494,0.0450479350984096,170437794
279,-0.0229043550789356,-0.0156046645715832,-0.0248768720775842,-0.0161888059228658,-0.0113385496661067,-0.008242143318057,0.0311394445598125,-0.0365687528215291,0.0172990560531616,-0.0155386533588171,7211039
280,0.0050186784937977,-0.0111077735200524,-0.0047957077622413,0.001840639160946,-0.0034627304412424,0.0029017576016485,-0.0297896564006805,0.0080016070316711,-0.0080446926876902,0.0068510328419506,3443157
281,0.0226192101836204,0.009864617139101,0.0081855375319719,0.0184267535805702,0.0089758355170488,0.0205089673399925,-0.0383283607661724,-0.0083684882613605,0.0017482422990724,0.0338777340948581,195474892
282,-0.011534733697772,0.0181291066110134,-0.0126676047220826,-0.0140826422721147,-0.0060838181525468,-0.0091728996485471,0.022610604763031,0.0197192924834586,-0.0204322580248117,-0.0012599606998264,7574988
283,0.0003123406786471,0.0277336183935403,-0.0015132812550291,0.0096550993621349,0.0132310632616281,0.011888725683093,-0.0122980279847979,-4.960858247797864e-05,0.0045465659350156,0.0070725530385971,86366069
284,0.0223402176052331,-0.0029186692554503,0.010376701131463,0.0194963347166776,0.0238718260079622,0.0158588215708732,-0.0232425685971975,0.0308457666988986,-0.0065232934430241,0.0464984737336635,9949411
285,0.0122087551280856,-0.0037421281449496,-0.013944050297141,0.0061703165993094,0.0100064929574728,0.0090175010263919,0.0001937849447131,0.0192956211424462,-0.0039924057200551,0.0292641017585992,99092662
286,-0.011985732242465,-0.0057085850276052,-0.0720233246684074,-0.0256529413163661,-0.0231046844273805,-0.0073199477046728,0.0561610832810401,-0.0082867641478791,0.0020514850039035,-0.0118925049901008,58425371
287,-0.013634436763823,-0.0005832308670505,0.0068108183331787,-0.0151900015771389,0.0104795321822166,-0.0092771258205175,0.0056306500919163,0.0141041681780168,0.0395676754415035,-0.0019353576935827,39833157
288,-0.0077577522024512,-0.0053649600595235,-0.0618740022182464,-0.0200918391346931,-0.0173185225576162,-0.0044649862684309,0.0463808216154575,-0.0034667493138816,0.0009953203843906,-0.0047004078514873,13182786
289,-0.0103071313351392,0.0149829713627696,-0.011394077911973,-0.0123026873916387,-0.0030097048729658,-0.0119672995060682,0.0143401827663183,0.0235502056583444,0.0085353245958685,-0.0183844733983278,15268755
290,0.0053200731053948,0.0024941484443843,0.0018981720786541,-0.0073499279096722,-0.0067786388099193,-0.0091052837669849,-0.0303931813687086,-0.0120288261611483,-0.0161119103431701,0.0012957351282238,113607068
291,-0.0049335858784615,0.0399639531970024,0.0133666908368468,0.0159660689532756,0.018139686435461,0.0161424595862627,-0.0299587324261665,-0.0082533418460205,0.0064006010070443,0.0020640832372009,69330138
292,0.0120074329897761,-0.0223148260265588,0.0043783956207334,0.0052287122234702,0.0015015290118753,0.0012219802010804,0.0139131993055343,0.0282975603078276,-0.0025662570260465,0.0149950515478849,59617193
293,0.0193742457777261,0.0038108536973595,-0.0148446224629879,0.0085111446678638,-0.0010904166847467,0.0079969381913542,-0.0170696806162595,0.0080960229560045,-0.0253675617277622,0.0346605628728866,206966496
294,0.0322106182575225,-0.0396143607795238,0.0196647122502326,0.0230181664228439,0.0150066222995519,0.0195013228803873,-0.0662668943405151,0.0333444297795312,-0.0238390583544969,0.0663746520876884,47527154
295,-0.0053533683530986,-0.0080920374020934,-0.0196456871926784,-0.0063302274793386,-0.0067167808301746,-0.0056564058177173,-0.0161876622587442,0.0200507566582911,-0.0081377774477005,0.0033733786549419,61913621
296,0.0174139570444822,-0.0164863653481006,-0.0026324340142309,-0.0008510239422321,-0.0067969765514135,0.0066710738465189,-0.0404210314154624,0.0276978354064687,-0.0174560267478227,0.0432015359401702,34270534
297,-0.0014694207347929,-0.0256898030638694,0.0175129454582929,0.0017007631249725,-0.0082375984638929,-0.0031969286501407,-0.030599158257246,-0.0065863961647398,-0.034235268831253,0.0372274070978164,205180061
298,-0.0081510179500006,0.0411118719180055,-0.0521302886009163,-0.010338134121183,0.0162319504558732,0.0061221984637375,0.0677311654072326,0.094245364767587,0.0514815163674498,-0.0150919227844944,34373550
299,-0.0137688443064689,-0.02638915553689,0.0261422470211982,-0.0347809940576553,-0.0100858872756361,-0.0297167990356683,0.0540785677731037,0.021390026764274,0.038884088397026,-0.067394845187664,199307009
300,-0.0015631712740287,-0.0162822492420673,-0.0176635310053825,0.0032278331927955,0.0013636699877679,0.0093810595571994,-0.0079407896846532,0.0057563307560528,-0.0087189376354217,0.0243568215519189,12713910
301,0.0081158727407455,-0.0248156003654003,-0.0008504609577357,0.0047777090221643,0.0004584296839311,0.0055174138396978,-0.0229119174182415,0.011963360197542,-0.0595962218940258,0.0376477763056755,3193236
302,0.0223402176052331,-0.0029186692554503,0.010376701131463,0.0194963347166776,0.0238718260079622,0.0158588215708732,-0.0232425685971975,0.0308457666988986,-0.0065232934430241,0.0464984737336635,80628593
303,-0.0018216865137219,0.0116997212171554,-0.0219230819493532,0.003393908496946,0.0031587092671543,0.0083809215575456,-0.0140421278774738,-0.0079942202162514,-0.0109682381153106,0.0096893366426229,85996097
304,0.0223402176052331,-0.0029186692554503,0.010376701131463,0.0194963347166776,0.0238718260079622,0.0158588215708732,-0.0232425685971975,0.0308457666988986,-0.0065232934430241,0.0464984737336635,16700200
305,0.0096788238734006,-0.0240252949297428,-0.0002744732773862,0.0095298821106553,-0.0004004171933047,0.0002833732869476,-0.0101954229176044,0.0492199643989826,-0.0204103961586952,0.0395092330873012,159483171
306,0.0154146673157811,0.0318870991468429,0.0133698405697941,0.0187760069966316,0.0179680492728948,0.0219437293708324,-0.0214641988277435,-0.0274229294831207,-0.0186260603368282,0.0147313494235277,102483617
307,0.0034142252989113,-0.0039244215004146,0.0096493875607848,-0.0004825653741136,0.0122938649728894,0.0024850259069353,0.0076482556760311,0.0206651317460056,0.0351394563913345,0.0099611729383468,6747650
308,0.0056861927732825,-0.0441030114889144,-0.0306908711791038,0.0066582066938281,-0.0042329430580139,-0.0017886774148792,0.0180004108697175,-0.0761569566500176,-0.0090622063726186,0.011374719440937,2763553
309,-0.0322380736470222,-0.0045162253081798,-0.0264289379119873,-0.0199172012507915,-0.0168008748441934,-0.0209502298384904,-0.0154778715223073,0.0024238843026831,-0.0017021365929394,-0.0255053229629993,88350347
310,0.0163974687457084,-0.0034016794525086,-0.0038889641873538,0.0116797797381877,0.0157389268279075,0.0118459537625312,-0.0094956634566187,0.0240708743581124,-0.0050387727096676,0.0363894179463386,47788573
311,0.0436195284128189,-0.0095949973911046,-0.004459043033421,0.0238321032375097,0.0090888803824782,0.0249452516436576,-0.0137843824923038,-0.0148116947395784,-0.0062759015709161,0.0353078842163085,196566732
312,-0.0054259584285318,-0.0041258851997554,-0.012217097915709,-0.0108581557869911,0.0015993010019883,-0.0038306368514895,0.0265343394130468,0.0312055048917106,0.0296454243361949,0.0013779018772765,101058866
313,-0.0138989156112074,0.0309451706707477,-0.0038640149869024,-0.0139192417263984,-0.0059821824543178,-0.0125035215169191,0.0098550990223884,-0.0129030991606242,0.0145338885486125,-0.0251400303095579,150718293
314,0.049287274479866,-0.0680915564298629,-0.0020492884796112,0.0214144773781299,-0.0069725941866636,0.0210973862558603,-0.0615146793425083,0.0074782363135625,-0.0303053669631481,0.064394861459732,18912237
315,-0.0114959459751844,0.0038540768437087,-0.0266503263264894,-0.0035783196799457,0.0072565134614706,-0.0097838742658495,-0.000145276193507,0.0028480921538819,0.0084086088463664,0.010208080522716,159115989
316,0.0223402176052331,-0.0029186692554503,0.010376701131463,0.0194963347166776,0.0238718260079622,0.0158588215708732,-0.0232425685971975,0.0308457666988986,-0.0065232934430241,0.0464984737336635,86617202
317,-0.0078546805307269,0.0126046538352966,-0.0165283661335706,0.0018268100684508,0.0022753842640668,0.0085654109716415,-0.0038165180012583,-0.0067163292611521,0.0008619078435003,0.0033668060787022,8608429
318,0.0647493824362754,0.0130569040775299,0.0447401292622089,0.006579652428627,0.0086080739274621,0.0136908572167158,0.0314936935901641,-0.0176597768333884,-0.017722962424159,0.0609545931220054,138469628
319,0.0290860831737518,-0.0182790905237197,-0.0276058800518512,0.0153546445071697,0.0017914013005793,0.0193502381443977,0.0097440844401717,-0.0143705700570642,-0.0154758840799331,0.0398570336401462,109486663
320,-0.0137538816779851,0.0173431374132633,-0.0147759215906262,-0.0031847981736063,-0.0062497705221176,-0.0023124392610043,-0.0067693246528506,0.0463056269039399,-0.0292882211506366,0.0050639868713915,55711245
321,-0.0196887124329805,-3.696058411151171e-05,-0.0212587937712669,-0.0214885398745536,-0.0132284834980964,-0.0132432393729686,-0.0067039206624031,0.0016008892218512,-0.0106110088527202,-0.0225572008639574,101191919
322,0.0223402176052331,-0.0029186692554503,0.010376701131463,0.0194963347166776,0.0238718260079622,0.0158588215708732,-0.0232425685971975,0.0308457666988986,-0.0065232934430241,0.0464984737336635,194164487
323,-0.0153912147507071,-0.0195341315120458,-0.0057744616642594,0.0022987127304077,-0.0009228973649442,0.0024564946070313,-0.0061697312630712,0.0401069153034744,-0.0118851913139224,0.0080744735896587,71488005
324,0.0090701389644725,0.0047525069301291,0.0639533007122753,0.0036722692708742,0.0106209307781771,0.004707413439974,0.047981628580232,-0.025367831677708,0.0371782923358894,-0.0709747088243631,45859773
325,0.0286592785269022,-0.0135477520525455,-0.0010719142155721,0.0088094621896743,-0.0074611408635973,0.0048676030710339,-0.012334912084043,0.0194821802327002,-0.0314829014241695,0.0288661681115627,101778430
326,-0.000373239046894,0.0036196729633957,-0.0344328172504901,-0.009301209822297,-0.0061195902526378,0.0005837285425513,0.003162084147334,0.0211642699911623,-0.0044569317251443,0.0006986657972447,3806601
327,0.0223402176052331,-0.0029186692554503,0.010376701131463,0.0194963347166776,0.0238718260079622,0.0158588215708732,-0.0232425685971975,0.0308457666988986,-0.0065232934430241,0.0464984737336635,2297821
328,0.022340215742588,-0.0029186657629907,0.0103767002001404,0.0194963347166776,0.0238718260079622,0.0158588215708732,-0.0232425741851329,0.0308457752946259,-0.0065232911147177,0.0464984737336635,108109288
329,0.0223402176052331,-0.0029186692554503,0.010376701131463,0.0194963347166776,0.0238718260079622,0.0158588215708732,-0.0232425685971975,0.0308457666988986,-0.0065232934430241,0.0464984737336635,2235503
330,0.045437354594469,-0.0251542292535305,0.006795804016292,0.018891429528594,0.0016415959689766,0.0185878761112689,-0.0294829979538917,-0.0021859621417389,-0.0356586575508117,0.0627238526940345,37764882
331,0.0097204558551311,0.0164513830095529,0.0042848992161452,0.010175509378314,0.0174327660351991,0.0128868659958243,-0.0022750901989638,0.0351865540976703,0.0019198325462639,0.0326001904904842,7897387
332,-0.004101799800992,-0.0088698975741863,-0.0433301702141761,-0.0102322623133659,-0.0089179687201976,0.0012206606334075,0.0246100090444087,0.001420585783661,-0.0026367676910012,0.0076840557157993,100535643
333,-0.001503522042185,-0.0240136533975601,-0.0152151379734277,0.0084261391311883,-0.0011392072774469,0.0118906330317258,-0.0236952938139438,0.0257945335727147,-0.0248069111257791,0.0506888926029205,102644366
334,6.133550778031349e-05,-0.0130548756569623,-0.0450544953346252,0.0034158218186348,-0.0142463641241192,0.0085212271660566,-0.0624699108302593,-0.037093149365565,-0.0349180325865745,0.0376260355114936,58802094
335,0.0098741902038455,-0.0076098134741187,-0.0100995069369673,0.007985571399331,0.0100978314876556,0.0105529744178056,-0.0072848601266741,0.0173301063403363,-0.0060392548330128,0.0312569215893745,94317976
336,0.0008533671498298,-0.0114627359434962,-0.0414087958633899,-0.0046721887774765,-0.0173665899783372,-0.0112568018957972,-0.0401444621384143,-0.0033378997504168,0.010109550319612,0.0085986573249101,670375
337,0.0160371977835893,-0.0429838150739669,-0.0081157209351658,0.0044745500199496,-0.0116073498502373,0.0050651594065129,-0.047195129096508,-0.0281075729374122,-0.016870692372322,0.0496287569403648,99402058
338,-0.0136976446956396,0.0005200935993343,-0.0090820640325546,-0.0192881505936384,0.0018740654923021,-0.0094565022736787,0.0319897010922431,0.0119149078169537,0.0425843559205532,-0.0078078489750623,47505989
339,-0.0134727107360959,-0.0118159474804997,-0.0602133832871913,-0.0196560472249984,-0.0197906494140625,-0.0032588618341833,0.0386378765106201,-0.0088491690167093,-0.0018579151947051,-0.0047143390402197,110742290
340,0.0036691077984869,-0.0111368028447031,-0.0276867039501667,0.009886591695249,0.0019287429749965,0.0114568062126636,-0.0558625608682632,-0.0159627161146157,-0.0457052625715732,0.0320940352976322,99092666
341,-0.0119959395378828,0.0214965101331472,-0.0192497018724679,-4.99713933095336e-05,0.0061262948438525,0.0054254876449704,-0.0131910294294357,-0.0117433250392224,0.0022811307571828,-0.0022547934204339,73023923
342,0.0200564693659544,0.0012322291731834,-0.0030216069426387,-0.0104788392782211,-0.0045558707788586,-0.0107208788394927,0.004132573492825,0.0210951946406284,-0.0178259685635566,0.0213082488626241,73299028
343,0.0034142252989113,-0.0039244215004146,0.0096493875607848,-0.0004825653741136,0.0122938649728894,0.0024850259069353,0.0076482556760311,0.0206651317460056,0.0351394563913345,0.0099611729383468,72497730
344,0.0021837707608938,0.0023193154484033,-0.0080904494971036,0.0019513285951688,-0.0026392866857349,-0.0001608791644684,-0.0172780845314264,-0.0318597059117458,-0.0088187148794531,0.0201081875711679,99788385
345,0.0141844917088747,-0.0104406801983714,0.0118192909285426,0.0098231770098209,0.0091051198542118,0.010838434100151,-0.0083355782553553,-0.0077421393455211,-0.0025102088693529,0.0339592136442661,206170303
346,0.0050753126852214,-0.0147232552990317,-0.0097540691494941,0.0079767685383558,-0.0039650681428611,0.0051105227321386,-0.045266255736351,-0.0242586738011797,0.0037427444476634,0.024872763082385,18468296
347,-0.0024716430343687,-0.0151706459000706,-0.0039240811020135,0.0004456434398889,-0.0053527420386672,-0.0014559979317709,-0.0193865727633237,6.553439898520806e-05,-0.0242457929998636,0.0206983983516693,91989996
348,-0.0132699999958276,0.0016419530147686,-0.0184848103672266,0.0006796779925934,-0.0019699591211974,0.0088794333860278,-0.0083813359960913,-0.0109445952982908,-0.0030423295684158,0.0047040488570928,54863209
349,0.0198273230344057,-0.0386416502296924,-0.0320635437965393,0.0089157875627279,-0.0046942573972046,0.0140058659017086,0.0070957103744149,-0.0150879715279124,-0.0207273587584495,0.0301943011581897,88416983
350,-0.0119240581989288,-0.0490875877439975,-0.0102343130856752,0.0059265065938234,-0.0124601740390062,-0.0062392018735408,-0.0567296296358108,0.0367389799277953,-0.0237500220537185,0.0350184328854084,75717236
351,0.0077088763937354,-0.0121949445456266,0.0119896810501813,0.0058401655405759,0.0116472039371728,0.0078531494364142,-0.001945657772012,0.0077406990896635,0.0090817613527178,0.0355984680354595,50207366
352,0.0027859536930918,-0.00973398424685,-0.0146076567471027,0.0047654649242758,-0.0002741342759691,0.0040120622143149,-0.0392601378262043,-0.0200798422782812,-0.0038652245420962,0.0185146443545818,76578097
353,0.0339830741286277,-0.0292974412441253,0.0307095069438219,0.0122126881033182,0.0165346004068851,0.0158709101378917,-0.0114747611805796,0.1114443822467733,-0.0068687624298036,0.0460083857178688,101741648
354,0.0106082400307059,0.0197207424789667,0.0120214130729436,0.0179785080254077,0.022000778466463,0.0158665999770164,-0.0252005979418754,0.0132654816914415,0.0004559834487736,0.0251198858022689,212071753
355,0.0109700756147503,0.0019626747816801,-0.0168985445052385,0.0055681779049336,-0.0024007041938602,0.0121874744072556,-0.0356920324265956,0.017719761190969,-0.033075887709856,0.0326178967952728,3162115
356,-0.0032269190996885,0.0081081474199891,-0.0344408750534057,-0.0064041214063763,-0.0032389259431511,0.0029991706833243,0.0197380147874355,-0.0006374491356134,0.0021123008336871,0.0022172350436449,99446605
357,0.0203567836433649,-0.008176271803677,-0.0039038837421685,0.0078518353402614,0.0022852814290672,0.0054065622389316,-0.0211910773068666,0.002360161795806,-0.0254745818674564,0.0334241203963756,52541971
358,0.0081722633913159,-0.0340744517743587,0.0594572722911834,0.021993076428771,-0.0023939935490489,0.0066199507564306,-0.0219984427094459,0.0312522537203705,-0.0268431864678859,0.036122228950262,195773243
359,0.0459963838312561,-0.0492275928322908,0.0182112753887093,0.0014491286498518,-0.0111966461978942,0.0033214619940766,0.0173162149006528,0.061347933502652,-0.0299957678772708,-0.0245832715710574,17687405
360,0.02303715236485,-0.0199711024761199,-0.0170240122824907,0.0115694478154182,0.0032762591727077,0.0160987116396427,0.0126012219116091,-0.0138966784193783,-0.0004706415347754,0.0339280813932418,114274866
361,-0.0017608553171157,-0.0275548733770847,0.0157504137605428,-0.0012228849809616,-0.0051162526942789,-0.0050036362372338,-0.0205524116754531,0.0078902835196924,-0.0219006463885307,0.0243089254945516,158508852
362,-0.0137287657707929,-0.0015152490232139,-0.0243750531226396,-0.014722041785717,-0.0098936948925256,-0.0114236092194914,0.0155895948410034,0.0083829182652449,0.0070850350894033,-0.0161861069500446,107512023
363,-0.0402670410014715,0.0298872894307891,0.0264567217594838,0.0074690424188415,-0.0043615303727914,0.0192347733644437,-0.0128566186980247,-0.0767866685098429,-0.0142032027290361,0.0086991739199339,146167229
364,0.0223402176052331,-0.0029186692554503,0.010376701131463,0.0194963347166776,0.0238718260079622,0.0158588215708732,-0.0232425685971975,0.0308457666988986,-0.0065232934430241,0.0464984737336635,59299279
365,0.022340215742588,-0.0029186657629907,0.0103767002001404,0.0194963347166776,0.0238718260079622,0.0158588215708732,-0.0232425741851329,0.0308457752946259,-0.0065232911147177,0.0464984737336635,55422060
366,-0.0098441820591688,-0.0079939030110836,-0.0224734041839838,-0.0148702953010797,-0.0155239468440413,-0.0152951646596193,-0.0108789186924695,-0.0118732759373975,-0.007676868699491,-0.0144317960366606,156284152
367,-0.0427117496728897,-0.0366440825164318,-0.0082059707492589,0.0070391343906521,0.005549625493586,0.014101268723607,-0.0196355413645505,0.0881412795224834,-0.0004786159843206,0.0281595531851053,109502816
368,-0.0031645954586565,-0.0036463807336986,-0.0318643674254417,-0.0086676282808184,-0.0150298345834016,-0.012449805624783,-0.0238001402467489,-0.0363972692457413,-0.0240055341273546,0.0024951286613941,76747884
369,-0.0078325038775801,-0.0286476202309131,0.0258079059422016,-0.0173258036375045,-0.0120402183383703,-0.0128228599205613,0.0154737178236246,0.020094335365014,-0.0112736457958817,0.0020184987224638,96648892
370,0.0138065628707408,-0.0342056453227996,-0.0129637429490685,0.0114722363650798,-0.0038370077963918,0.0141264731064438,-0.0651272609829902,0.0050407984427584,-0.0419047065079212,0.0437041111290454,2368500
371,0.0034142252989113,-0.0039244215004146,0.0096493875607848,-0.0004825653741136,0.0122938649728894,0.0024850259069353,0.0076482556760311,0.0206651317460056,0.0351394563913345,0.0099611729383468,6747648
372,0.0012457494158297,-0.0021547633223235,-0.0102225579321384,0.0042556645348668,-0.0044941343367099,0.0036567635834217,-0.0105558633804321,0.0113658726198046,-0.0110780261456966,0.0125306108966469,124975178
373,-0.0084029221907258,0.0098660141229629,-0.0441135726869106,-0.0119274351745843,-0.0090127140283584,0.0002362796803936,0.0290245376527309,-0.0069265758869122,0.003779134247452,-0.0067188083194196,206977176
374,0.022340215742588,-0.0029186657629907,0.0103767002001404,0.0194963347166776,0.0238718260079622,0.0158588215708732,-0.0232425741851329,0.0308457752946259,-0.0065232911147177,0.0464984737336635,45621154
375,-0.0019374103285372,-0.0097377654165029,-0.0354529917240142,-0.0059988005086779,-0.005023268982768,0.0035653286613523,0.0159482490271329,0.0040855590085827,-0.0039238375611603,0.0130584426224231,96457659
376,-0.0123006869107484,0.0027419663965702,-0.0260549895465374,-0.0086582088842988,-0.0048256004229187,-0.0121979862451553,-0.0149903250858187,-0.0152920117830258,-0.0024456831160932,-0.0235204324126243,148611986
377,-0.0021569388918578,0.0115994596853852,-0.0610004812479019,-0.0171095822006464,-0.0195763148367404,-0.0023441975936293,0.0251961909234523,-0.0014294736765504,-0.0497616082429885,0.0130165899172425,6001285
378,-0.007316465023905,0.0059577855281531,-0.0097617842257022,0.0009893536334857,0.0034884195774793,0.003321434604004,-0.0195248760282993,0.0062605290751307,-0.0049497750587761,0.0064898384734988,72763348
379,0.0020076935179531,-0.0071954578161239,-0.0192327909171581,-0.0110236462205648,-0.0069710379466414,-0.0006892406381666,0.0096031166613101,0.0067445522827382,0.0150921968743205,0.0115103479474782,16835734
380,-0.0212454088032245,-0.0071580898948013,-0.0229668244719505,-0.0281907077878713,-0.0168890375643968,-0.021554309874773,0.0212541557848453,-0.0660343580413518,0.0231778658926486,-0.0279553793370723,44708713
381,-0.0022313746158033,-0.0012639220803976,-0.0326248928904533,-0.0164162013679742,-0.0162959359586238,-0.0086058713495731,-0.0239511150866746,-0.0004638179585093,-0.0112299900501966,-0.0027058674022555,110012110
382,0.0506082773208618,-0.0519817322492599,-0.0103282118216156,0.022635456174612,0.0071026841178536,0.0270788110792636,-0.0376254618167877,0.0140524256850525,-0.01178440451622,0.0624808594584465,88880574
383,0.0201964415609836,0.008468466810882,-0.0155700044706463,0.0030236288439482,-0.0048340382054448,0.0057614538818597,-0.0250147115439176,0.0179260687143583,-0.0375803112983703,0.0462008491158485,30351501
384,0.0096618551760911,-0.0206399634480476,0.0004725252510979,0.0030898284167051,-0.0026048040017485,0.0038358615711331,-0.0258816219866275,-0.0049098878315683,-0.0060041351243853,0.018758974969387,152354126
385,-0.0119857247918844,-0.005708591081202,-0.072023332118988,-0.025652939453721,-0.0231046844273805,-0.0073199472390115,0.0561610795557498,-0.0082867642404,0.0020514870993793,-0.0118925049901008,206939650
386,-0.0093575231730937,-0.0034261005930602,-0.0090239718556404,0.0060898358933627,0.0028270902112126,0.0118313916027545,-0.0192816723138093,-0.0055045079845684,-0.0059187030419707,0.0144843263551592,85951147
387,0.0244714021682739,-0.0577433593571186,0.0158271305263042,0.0047642313875257,0.0014034037012606,0.0074637387879192,-0.041731871664524,0.12278246888351,-0.0468121469020843,0.077374666929245,102386409
388,-0.0074827680364251,-0.018545102328062,-0.0413747914135456,0.0059500359930098,-0.0083470251411199,0.0103060770779848,-0.0709616988897323,-0.0367237320827618,-0.0610938221216201,0.0259151421487331,78535305
389,0.024352952837944,-0.0082183890044689,-0.0184251368045806,0.0092199817299842,0.0044913729652762,0.0190493240952491,0.0189635921269655,-0.0051667508927066,0.0004371139220893,0.047177068889141,103874922
390,0.0058164028450846,-0.0011868837755173,-0.0004603834822773,-0.0002665194915607,0.0136188697069883,0.002964076353237,0.0085057392716407,0.0252559904832846,0.0186993461102247,0.01998857781291,19771878
391,0.0380103103816509,-0.0527330785989761,-0.0233255717903375,0.0156847611069679,-0.0044427723623812,0.020944558084011,-0.0253357645124197,0.0009450620789586,-0.0022001382894814,0.0534837841987609,32949717
392,0.01363096665591,-0.0277421232312917,-0.0309006366878747,-0.0023798260372132,-0.0130046159029006,0.0038456693291664,-0.0017630938673391,-0.0129666825874724,-0.0178797245025634,0.0454524159431457,184425605
393,-0.0053907097317278,-0.0257589668035507,-0.0020406937692314,-0.0030453724320977,-0.0093124527484178,0.0015492141246795,-0.0162729006260633,0.0133237399399686,-0.0052693556062877,0.0137023627758026,102887574
394,0.0059379688464105,-0.0137740857899189,-0.0205512903630733,-0.0023400962818413,-0.0039547518827021,-0.0011392277665436,-0.0073770792223513,0.0802180430120693,-0.0158980228006839,0.0172734912484884,66891131
395,0.0025913785211741,-0.0168379377573728,-0.0424771308898925,-0.019020926207304,-0.0168801192194223,-0.0070790178142488,0.0259735211730003,0.0116416535225544,0.00318219140172,0.0052567077800631,106261680
396,-0.0318588539958,0.0161244142800569,-0.0419017374515533,-0.0114579200744628,-0.002068045316264,-0.0041917040944099,0.016198931261897,0.0400010767489991,0.0233546588569879,0.0149798840284347,60194762
397,-0.0047501036897301,0.0069660637527704,-0.02182655967772,-0.0055969511158764,-0.0025105017703026,0.0015298940706998,0.0092987958341836,-0.0038150205112008,0.0020864610560238,0.0029837656766176,101368165
398,0.0034142252989113,-0.0039244215004146,0.0096493875607848,-0.0004825653741136,0.0122938649728894,0.0024850259069353,0.0076482556760311,0.0206651317460056,0.0351394563913345,0.0099611729383468,6747649
399,0.0246363040059804,-0.0221536140888929,-0.0152183463796973,0.0114617645740509,0.0015063191531226,0.0198204796761274,-0.0106535796076059,-0.011554712183703,-0.0184033866971731,0.0352323576807975,110939942
400,0.0077181439846754,-0.0532524287700653,-0.047993816435337,0.0092783104628324,0.001228644978255,0.0092608854174613,-0.0325315445661544,0.0018705905307367,-0.0135849528014659,0.0171847511082887,52268839
401,0.0122087551280856,-0.0037421281449496,-0.013944050297141,0.0061703165993094,0.0100064929574728,0.0090175010263919,0.0001937849447131,0.0192956211424462,-0.0039924057200551,0.0292641017585992,115138097
402,-0.015406047925353,-0.0197566021233797,-0.0448583401739597,-0.0118590099737048,-0.0154818119481205,0.0020212789531797,0.0158545710146427,-0.009580398680115,-0.0069408314302563,0.0046185599640011,90959033
403,0.0243749246001243,-0.0362563244998455,0.0064989794045686,0.0157628059387207,-0.0042764362879097,0.005624545738101,-0.0537402331829071,-0.0205050721189569,-0.0243834629654884,0.0381005592644214,68997293
404,0.0394405797123909,-0.0404763035476207,0.0047495290637016,0.015205631032586,-0.0020840945653617,0.009623697027564,-0.0195220503956079,0.0232536891685724,-0.0313406139612197,0.0383389219641685,97442108
405,-0.013700732961297,0.0011434997431933,-0.0101599041372537,-0.0087109450250864,-0.0096336416900157,-0.006144119426608,-0.0103177856653928,-0.018730302510493,0.0028680667746812,-0.0199555065482854,34335298
406,0.0122087551280856,-0.0037421281449496,-0.013944050297141,0.0061703165993094,0.0100064929574728,0.0090175010263919,0.0001937849447131,0.0192956211424462,-0.0039924057200551,0.0292641036212444,207034364
407,-0.0184770599007606,-0.0132703064009547,-0.0333516374230384,-0.0171644706279039,-0.0207124501466751,-0.0132344216108322,-0.0075515387579798,-0.0309478599119975,-0.0222077537328004,-0.0090621272101998,8208151
408,-0.0052596433088183,-0.0132884318009018,-0.0225892886519432,0.001379529479891,-0.0060431268066167,0.0001876004680525,-0.0115171689540147,0.0231138217996886,0.0043702060356736,0.0043541998602449,71145982
409,0.0055667301639914,-0.0093089956790208,0.0061581162735819,0.0175725165754556,0.0002681150799617,0.0140866357833147,-0.0115247080102562,-0.0164574935785026,-0.0415541157126426,0.0263652224093675,103625428
410,-0.0072625470347702,0.0058559770695865,-0.0323388651013374,-0.0057293977588415,-0.0043723303824663,0.004014067351818,0.0138767594471573,-0.0048544759942136,0.0007735814433544,0.001261742087081,58374844
411,0.0052458136342465,-0.0350312814116478,-0.0044074449688196,0.0016012919368222,-0.0075151664204895,-0.002522490452975,0.0037448899820446,0.0772622721348366,-0.0197146255522966,0.0280969962477684,165081199
412,0.0424977391958236,-0.0285984743386507,-0.0105067677795887,0.0297574773430824,0.0097628813236951,0.03083161637187,-0.0201544724404811,-0.0233801052630259,-0.0225051194429397,0.0631788969039917,33982497
413,0.0106082400307059,0.0197207424789667,0.0120214130729436,0.0179785080254077,0.022000778466463,0.0158665999770164,-0.0252005979418754,0.0132654816914415,0.0004559832159429,0.0251198858022689,201846065
414,0.0580777823925018,-0.0338122099637985,0.0214523412287235,0.0290567465126514,0.0243655517697334,0.0383854210376739,-0.0014189118519425,0.0363915807253699,-0.0109793394804,0.0843941494822502,49609372
415,0.0223402176052331,-0.0029186692554503,0.010376701131463,0.0194963347166776,0.0238718260079622,0.0158588215708732,-0.0232425685971975,0.0308457666988986,-0.0065232934430241,0.0464984737336635,178367993
416,0.0357823446393013,-0.05935675278306,-0.0325049087405204,0.0270225666463375,-0.0098693175241351,0.0153012936934828,-0.0674531459808349,-0.0060829211512428,-0.0772076919674873,0.0482121966779232,47023001
417,0.0223402176052331,-0.0029186692554503,0.010376701131463,0.0194963347166776,0.0238718260079622,0.0158588215708732,-0.0232425685971975,0.0308457666988986,-0.0065232934430241,0.0464984737336635,15166421
418,0.0223402176052331,-0.0029186692554503,0.010376701131463,0.0194963347166776,0.0238718260079622,0.0158588215708732,-0.0232425685971975,0.0308457666988986,-0.0065232934430241,0.0464984737336635,7172770
419,-0.0042075794190168,0.0281033497303724,-0.0114321913570165,0.004144677426666,0.0074885115027427,0.0090843681246042,-0.0027514705434441,-0.0053338409664013,0.0058021517470479,-0.0006605922244489,188320861
420,0.0019360545556992,-0.0045770653523504,-0.0386038422584533,-0.0073414715006947,-0.0040521332994103,0.0020808088593184,0.0239568538963794,0.0075844574881117,-0.0014262404292821,0.011789483949542,45859764
421,0.0223402176052331,-0.0029186692554503,0.010376701131463,0.0194963347166776,0.0238718260079622,0.0158588215708732,-0.0232425685971975,0.0308457666988986,-0.0065232934430241,0.0464984737336635,172571530
422,-0.0131985004991292,-0.0106897205114364,-0.0623912140727043,-0.0207619108259677,-0.0204017776995897,-0.0040077483281493,0.0418692640960216,-0.0087454535623418,-0.0011369949206709,-0.0060380329377949,91069114
423,-0.0020085573196411,-0.0238800812512636,0.0006933707045391,0.0126872425898909,0.0075105931609869,0.0154782170429825,-0.033389113843441,0.0066794335828882,-0.0140148876234889,0.0358610600233078,52361126
424,0.0031855904962867,0.0158522445708513,-0.0079811317846179,0.0089597199112176,0.0029083350673317,0.0141832046210765,-0.0195592828094959,0.0011341764123759,-0.0120408292859792,0.0119666792452335,1134720
425,0.0223221518099308,-0.012130856513977,-0.0169733129441738,0.0113032907247543,0.0008003481198102,0.0086162956431508,-0.0124000199139118,-0.0041685956273698,-0.0091975610703229,0.0350734740495681,201234592
426,-0.0037606407422572,-0.001459214836359,-0.0045193415135145,-0.0056811445392668,-0.0049766479060053,-0.0059472694993019,0.0001669873017817,-0.0024455554095608,0.0053597814403474,-0.0050426330417394,14966853
427,0.0069595202803611,0.0054905135184526,-0.0018101492896676,0.0097713954746723,0.0086952373385429,0.0123611176386475,-0.0248281862586736,0.0057217668321753,-0.0042221741750836,0.0200668424367904,57519725
428,0.0205379053950309,-0.0371211804449558,-0.0228938199579715,0.0199102498590946,0.0003257405478507,0.018285708501935,0.0109442817047238,-0.0175953134201653,-0.0149642750620841,0.0471206344664096,50031549
429,-0.0008904878050088,-0.0048068044707179,-0.0453890189528465,-0.0110592581331729,-0.0079203825443983,0.000172168482095,0.030495285987854,0.0043621183860848,-0.0007201593834906,0.006981314625591,66464625
430,0.0170474518090486,-0.0117411818355321,0.0068005984649062,0.0058897929266095,0.0025087557733058,0.0056818258017301,-0.0331385992467403,0.0101726094763144,-0.0458751954138278,0.034574307501316,68748784
431,0.0200919397175312,-0.0181543827056884,0.0059650014154613,0.0265791714191436,0.0057052476331591,0.0236619841307401,-0.0150887696072459,-0.0156816416743271,-0.0257638227194547,0.0434237122535705,55422033
432,-0.0112518901005387,0.0019161801319569,-0.0207941010594367,-0.0132175190374255,-0.0055230953730642,-0.0119113447144627,0.0017175925895571,0.0038486251565156,0.0006682679522782,-0.0083576897159218,58017337
433,0.0252774562686681,-0.0392731986939907,-0.0032778861932456,0.0123787578195333,-0.0010382500477135,0.0097967619076371,-0.0170655846595764,0.0172151686410469,-0.0378046408295631,0.056291040033102,51887928
434,-0.011985732242465,-0.0057085850276052,-0.0720233246684074,-0.0256529413163661,-0.0231046844273805,-0.0073199477046728,0.0561610832810401,-0.0082867641478791,0.0020514850039035,-0.0118925049901008,96232449
435,0.0373406708240509,-0.0385287031531333,0.0047693420201539,0.0208702646195888,0.0016585155390203,0.0201946478337049,-0.0443850830197334,-0.0261880414365346,-0.0240608770400285,0.0581464506685733,206810298
436,0.0270338896661996,-0.0463041998445987,0.0158904511481523,0.0206872336566448,0.0064425012096762,0.0159742459654808,-0.0828743427991867,0.0054188624239736,-0.0288522765040397,0.0673857256770134,173351101
437,-0.0131062343716621,0.0053418944589793,0.0297477059066295,-0.0199844725430011,0.0201505720615386,-0.014370447024703,0.0352908447384834,0.0384394933611356,0.078769065439701,-0.0080069610849022,47445127
438,0.0380979850888252,-0.0139851793646812,-0.0129689630120992,0.02456771209836,0.0236637108027935,0.0274358391761779,-0.0129741393029689,0.0296671653825732,0.0193140413612127,0.0626527890563011,76920769
439,-0.0060463538393378,-0.036467857658863,-0.0255175530910491,-0.0090720225125551,-0.0101526696234941,-0.0080309938639402,0.0111802276223897,-0.0632925914618406,-0.012104844674468,0.0049518318846821,6754190
440,0.0020180956926196,0.0220163837075233,0.0166454669088125,0.008581118658185,0.0210895277559757,0.0086885662749409,-0.0113303381949663,0.0148092128701767,0.0208122376352548,0.0118616931140422,19933028
441,-0.015223728492856,0.0062050083652138,-0.0220247469842433,-0.0121643841266632,-0.0082630328834056,-0.0090854866430163,-0.0110804717987775,-0.0049117750574665,-0.0029649154748767,-0.0107638118788599,191085080
442,0.0252041146159172,0.0043128216639161,-0.0123643986880779,0.0086575727909803,-0.0020886431448161,0.0113613801077008,-0.0269814915955066,-0.0148796110465927,-0.035546388477087,0.0621699467301368,34326285
443,-0.0019484413787722,0.0439516045153141,0.0137817431241273,0.0163539834320545,0.0199982021003961,0.0158749222755432,-0.0272962711751461,-0.0055506196303809,0.0079258736222982,0.0022384840995073,12928037
444,0.013162606395781,0.0033732410520315,0.0142737831920385,0.0110601522028446,0.0076896017417311,0.0083086546510458,-0.0110279656946659,-0.0075627698764057,-0.0156967174261808,0.02201515622437,86177534
445,-0.0033228257670998,-0.0145075190812349,0.0078008482232689,0.0060781594365835,0.0057976362295448,0.0112276822328567,0.0006734288181178,0.0633419917589611,0.0055324658751487,0.031647078692913,192078523
446,0.051003698259592,-0.0244748443365097,8.598295971751213e-05,-0.0008070189505815,-0.0191708635538816,0.0046427147462964,-0.0449667796492576,0.0143725367382361,-0.0473035275936126,0.009407571516931,200400506
447,-0.0134470183402299,-0.0076848464086651,-0.0107791265472769,-0.0088803404942154,0.0025774328969419,-0.0024636890739202,0.0044080470688641,0.0219030311765283,0.0165109615772962,-0.0029908567667007,879768
448,0.0142650799825787,0.0057134130038321,-0.0231184735894203,-0.0013770669465884,-0.0043258415535092,-0.0052384473383426,0.0069108223542571,-0.039038516119394,0.0241661705076694,-0.0013182440306991,38106215
449,-0.0141397900879383,-0.0162749551236629,-0.0404618009924888,-0.0006318732630461,-0.0147116985172033,-0.0083143496885895,-0.0242132321000099,-0.0068242171208815,-0.0241749137639999,-0.0146607970818877,98506381
450,-0.0047207633033394,-0.0256260558962821,-0.0379862003028392,0.0024406868033111,-0.0059709036722779,0.0084023382514715,-0.0265405513346195,-0.0274884823594497,-0.0270367674529552,0.015590832568705,195696760
451,0.0348300896584987,-0.0562057569622993,0.0061742174439132,0.013745435513556,0.0006124302744865,0.0207718424499034,-0.0440775007009506,-0.0236753269388783,-0.0156452096998691,0.0874088779091835,1058759
452,0.0342333391308784,0.0124670304358005,-0.0277395490556955,0.0167044792324304,-0.0033015552908182,0.0047964313998818,-0.0187928508967161,-0.0158753983485359,-0.0529434829950332,0.0457502081990242,77580268
453,0.0215318715305522,0.0204082949024078,-0.0338488899815112,0.0128734927350873,0.0255712561324634,0.0005611373465776,-0.0177344588916189,0.0258825450261933,0.042837802894535,0.0298896016284874,84470282
454,-0.0140147116035223,0.0053017563186585,-0.0037963560316711,-0.003893565153703,-0.0012954419944435,0.0014660533051937,0.0102526172995567,0.0319641568506328,-0.0169765595346689,-0.0070218425244092,64177119
455,0.0423906072974205,-0.0597591623663902,-0.0124629130586981,0.0080424323678016,-0.0116899507120251,0.0049429573118686,-0.0681272149085998,0.0094311706158279,-0.020457511767745,0.0453804172575473,88880575
456,0.0509305447340011,-0.0803695321083068,-0.0129952812567353,0.0201728958636522,-0.0121958283707499,0.0216757096350193,-0.0733631402254104,0.0046032294068315,-0.0315773151814937,0.0616884529590606,73392382
457,0.022340215742588,-0.0029186657629907,0.0103767002001404,0.0194963347166776,0.0238718260079622,0.0158588215708732,-0.0232425741851329,0.0308457752946259,-0.0065232911147177,0.0464984737336635,194294684
458,-0.0106799555942416,0.0151144079864025,-0.0296310689300298,-0.0227017737925052,-0.0201356448233127,-0.0201690047979354,0.008645006455481,-0.0461905776920177,-0.0104635562747716,-0.0422765351831913,74945071
459,0.0637848079204559,-0.0084395576268434,0.0383316054940223,0.0552050992846488,0.0384843051433563,0.0514686480164527,-0.0021559800952672,0.0172661684052392,0.0089086610823869,0.0608764626085758,126242405
460,0.0148488674312829,-0.0035275486297905,-0.0076063945889472,0.0096428906545043,0.0136196054518222,0.0108002526685595,-0.0059134108014404,0.0223054310365057,-0.004651915282011,0.033755138516426,99092671
461,0.01478698477149,-0.0263543482869863,-0.0184483900666236,0.0120702311396598,-0.0043518915772438,0.0121041499078273,-0.0292733013629913,-0.0364724944179819,-0.0249298382550477,0.0230122655630111,5099843
462,0.0223402176052331,-0.0029186692554503,0.010376701131463,0.0194963347166776,0.0238718260079622,0.0158588215708732,-0.0232425685971975,0.0308457666988986,-0.0065232934430241,0.0464984737336635,18860704
463,-0.0368306189775466,-0.007330899592489,-0.0274114124476909,-0.0205145571380853,-0.0121606271713972,-0.0219116006046533,0.0039646355435252,0.019371992010223,-0.0092910649254918,-0.0296526197344064,49065011
464,-0.0058568306267261,0.0122002633288502,-0.0155853768810629,-0.0135546196252107,-0.0127075035125017,-0.0175522528588771,-0.0317415855824947,-0.0278825991941526,-0.0255571603775024,0.0015702410601079,60623703
465,0.0064217909239232,-0.0526305027306079,-0.0008505031000822,0.0033706736285239,-0.0090234922245144,-0.0070105944760143,0.0106610031798481,0.1256214499459442,-0.0210706815123558,0.0348792895674705,102481856
466,0.0064439345151185,-0.0217344667762517,-0.0064743282273411,0.0095650553703308,0.0005498813115991,0.0041255429387092,-0.0343484319746494,0.003506052331527,-0.0283274073153734,0.0285405628383159,44394807
467,-0.0218060072511434,-0.0061470158398151,-0.0233207754790782,-0.0287104658782482,-0.0175135675817728,-0.0221262723207473,0.0221928972750902,-0.0659162506469767,0.0224653929471969,-0.0290715284645557,98350726
468,0.0096347872167825,-0.0357507243752479,-0.0080497097223997,-0.0106752719730138,-0.014359226450324,-0.0048049474135041,-0.0508204698562622,-0.0409619629179019,-0.0224432330578565,0.0406574495136737,18682509
469,-0.0070639541530532,-0.0143210766965437,-0.0197288562921332,0.0227750819364506,0.0020393513771383,0.0092462635284557,-0.0345826927849615,-0.0614608957616885,0.0025192477196306,-0.0047713545071606,4594647
470,0.0008463828125968,-0.0046656299382448,-0.041219625622034,-0.0087747322395443,-0.005543396808207,0.0013450008118525,0.0264775138348341,0.006342201564313,-0.0011540330015122,0.0099358642473816,54107666
471,0.0122087551280856,-0.0037421281449496,-0.013944050297141,0.0061703165993094,0.0100064929574728,0.0090175010263919,0.0001937849447131,0.0192956211424462,-0.0039924057200551,0.0292641017585992,186443103
472,-0.0074713779613375,-0.0211524777114391,-0.0172963142395019,-0.028873935341835,-0.0216358266770839,-0.0139631833881139,0.0374410673975944,0.0257911263756403,-0.0064445305615663,-0.0214869100600481,97759716
473,0.0223402176052331,-0.0029186692554503,0.010376701131463,0.0194963347166776,0.0238718260079622,0.0158588215708732,-0.0232425685971975,0.0308457666988986,-0.0065232934430241,0.0464984737336635,7843922
474,0.0116681866347789,0.0144788231700658,0.0014364925445988,0.0128263356164097,0.0158508941531181,0.0116730583831667,-0.0179468169808387,0.0089320476125949,-0.0068623055703938,0.0261253360658884,124845535
475,0.0223402176052331,-0.0029186692554503,0.010376701131463,0.0194963347166776,0.0238718260079622,0.0158588215708732,-0.0232425685971975,0.0308457666988986,-0.0065232934430241,0.0464984737336635,7445076
476,0.0693243071436882,-0.0356588438153266,-0.0013363736215978,0.0513868816196918,0.0162141919136047,0.0451404973864555,-0.0202622506767511,-0.0371732840775742,-0.0349610447883605,0.0847890228033065,3855634
477,0.0647493824362754,0.0130569040775299,0.0447401292622089,0.006579652428627,0.0086080739274621,0.0136908572167158,0.0314936935901641,-0.0176597768333884,-0.017722962424159,0.0609545931220054,17110600
478,-0.0084639566037179,-0.0411128900926938,-0.0036234791998474,-0.0025114260708368,-0.012565198869444,0.0042560792987372,0.0146184425379511,-0.1114563729500662,0.0183554816044888,-0.0127500893617962,191388858
479,0.0036657359451055,0.0218529403209686,-0.0544704310595989,-0.0120484000071883,-0.0174860656261444,0.0006034926045686,0.0068522384390234,0.0026328634955511,-0.0804562717676162,0.0277730133384466,85885097
480,0.0163857545703649,-0.0459940955042839,-0.0112826004624366,0.0129973432049155,-0.0110859666019678,0.009950116276741,-0.06895761936903,-0.060019415097134,-0.0493053011596202,0.0518497712910175,101157823
481,0.0335774049162864,-0.0324168652296066,0.0615820847451686,0.0216772183775901,0.0073601943440735,0.0159903578460216,-0.0254331603646278,0.0324812023049146,-0.0243143029510974,0.0333932861685752,49652166
