,security,conformity,tradition,benevolence,universalism,self-direction,stimulation,hedonism,achievement,power,song_id
0,-0.0096956752240657,-0.0067944917827844,-0.0251143481582403,-0.0048180161975324,-0.0065087638795375,1.713307574391365e-05,0.0190644208341836,-0.0057103190018388,-0.0103632481768727,0.0069322884082794,4116102
1,-0.0152744892984628,-0.0099469441920518,-0.0265555866062641,-0.0047710165381431,-0.0031641465611755,-0.0019963306840509,0.0354606322944164,-0.0065589764725144,-0.0053444635123014,-0.0002806773409247,80257632
2,-0.0272127781063318,-0.0226690247654914,-0.0294673442840576,-0.0028206882998347,-0.0048390831798315,0.0001973896287381,0.0522396489977836,-0.014951152650738,0.0055529782548546,0.0058274907059967,2241308
3,4.881410859525204e-05,-0.0360386185348033,-0.0138890706002712,0.0044344426132738,-0.0058329701423645,0.0048320111818611,-0.0106765516102314,0.0037660085458587,-0.015486029908061,0.0235353782773017,204336669
4,0.0256266670280675,0.0026945830035552,0.0205235778058313,-0.0015711460692454,-0.0001481686668191,-0.0037686197809038,-0.0119031890804482,0.0387282994640987,-0.0225620717156574,0.0040381427508294,34952275
5,-0.0189986359328031,-0.0089320139959454,-0.020089466124773,-0.0062661138363182,-0.0082901371642947,-0.0048846225254237,0.016670124605298,-0.0097715839544408,-0.002110403496772,0.0027866009622812,17390586
6,-0.0070393667556345,0.0078782122582197,-0.0083142472431063,-0.0080482875928282,-0.0031547704711556,-0.0031112746801227,0.009017321281135,-0.0119780875089912,-0.009484713897109,0.0006744116544723,9223300
7,0.0271394550800323,0.0244664624333381,-0.0152192022651433,-0.006096402183175,0.0016970727592706,-0.0056022396311163,-0.0238640382885932,0.0013122787143576,-0.0422222875058651,-0.0137870479375123,149782763
8,0.0201927404850721,0.0117020895704627,0.0244529619812965,0.0055784289725124,0.0043646055273711,0.007972190156579,0.0047803344205021,0.0258556973936851,-0.0270035415887832,0.0505050644278526,99962781
9,-0.0003368044272065,0.010829928331077,-0.0050014434382319,-0.0001570420572534,-0.0043961480259895,0.0037111623678356,-0.007357785012573,-0.0089299393490736,-0.0046830605715513,0.0067643034271895,136930153
10,-0.0166276004165411,-0.0097409896552562,-0.0145776569843292,-0.0049471273086965,-0.0075221601873636,-0.0014081186382099,0.0190171487629413,-0.0051542185333165,0.0068371351808309,0.007660798728466,85912872
11,-0.0025971263257802,-0.003540459275602,-0.0051480393290361,0.0047559896391944,0.0081019635594014,0.0051437540251755,-0.0574521917938358,-0.0245926861415209,0.0066409918184918,0.0083032589974256,57005765
12,0.0271394550800323,0.0244664624333381,-0.0152192022651433,-0.006096402183175,0.0016970727592706,-0.0056022396311163,-0.0238640382885932,0.0013122787143576,-0.0422222875058651,-0.0137870479375123,99567690
13,0.0187025368213653,-0.0287189241498708,-0.0258338749408721,0.0105613283812999,0.0003663862589746,0.0105703733861446,0.0083620473742485,-0.0150262766930223,-0.0183972120285034,0.0259478837251663,151085454
14,0.0059324791654944,0.0072597609832882,-0.0208873972296714,-0.0054337093606591,-0.0007335370755754,-0.0037992841098457,0.0057982960715889,-0.0026233488174765,-0.0237833783030509,-0.0070338626392185,134245347
15,-0.0280400048941373,-0.0176007151603698,-0.0225516445934772,-0.004879995714873,-0.0041981772519648,-0.0015683495439589,0.0410308539867401,-0.0158543466055924,0.0066871033050119,0.0062010930851101,16074172
16,-0.0137019427493214,-0.0030522893648594,-0.0124057419598102,-0.0018279564101248,-0.0015126636717468,-0.0006008011987432,0.0170959085226058,-0.0266046494960043,0.0160713251680135,0.0061810715124011,61210999
17,0.0137367099523544,-0.0102507574483752,-0.0037800318095833,0.0053365170024335,-0.0069420649670064,0.0018739006482064,-0.0388766527175903,-0.0312337785000944,-0.0267508905380964,0.0010111732408404,102814436
18,0.0006009037606418,-0.0028341868892312,-0.0173721555620431,-0.0026977544184774,-0.0045547471381723,0.0015877009136602,-0.0065882368944585,0.0124961035127994,-0.0196926034986972,0.0190520528703928,205113268
19,0.007799360435456,0.0137275215238332,-0.0001784051419235,-0.001456866855733,-0.0053645521402359,-0.0033360184170305,-0.0168345756828784,-0.0224164519393958,-0.0304526500403881,0.0289682038128376,99526020
20,0.0271394550800323,0.0244664624333381,-0.0152192022651433,-0.006096402183175,0.0016970727592706,-0.0056022396311163,-0.0238640382885932,0.0013122787143576,-0.0422222875058651,-0.0137870479375123,152156851
21,0.0185214281082153,-0.009290711954236,0.0015146271325647,0.0011252909898757,-0.0017551564378663,0.0021763024851679,-0.0237199813127517,0.0141465698048773,-0.0341218300163745,0.0341166406869888,17997657
22,0.0039358981885015,-0.0359983406960964,-0.0095263831317424,0.0025794631801545,-0.0101330196484923,-0.000168509199284,-0.0221647378057241,-0.0278655900919009,-0.0129583040252327,0.020562045276165,55713838
23,0.0271394550800323,0.0244664624333381,-0.0152192022651433,-0.006096402183175,0.0016970727592706,-0.0056022396311163,-0.0238640382885932,0.0013122787143576,-0.0422222875058651,-0.0137870479375123,97622225
24,0.0086264805868268,0.0135826785117387,0.0158959589898586,-0.0010571627644822,0.001620041555725,0.0007603331468999,0.0067986529320478,0.0054786224787542,-0.016857698559761,0.0296775214374065,114553438
25,-0.0018805243307724,-0.037123717367649,-0.0081073120236396,0.0018481638981029,-0.0120653565973043,4.376564174890518e-05,-0.0367765054106712,-0.0467693489649101,-0.0342565588653087,0.0292399935424327,45138126
26,-0.0186754986643791,-0.0151721900328993,-0.0184073634445667,-0.0027339677326381,-0.0064108865335583,-0.0006547982338815,0.0096084726974368,-0.027290822720186,-0.021904282271862,0.0117867263033986,51897534
27,-0.0065830582752823,-0.0283741783350706,-0.0182682946324348,-0.0014377908082678,-0.0076481611467897,-0.0018129844684153,0.0091635165736079,-0.0019112139850203,-0.0148448096588253,0.0114829540252685,74451241
28,0.0271394550800323,0.0244664624333381,-0.0152192022651433,-0.006096402183175,0.0016970727592706,-0.0056022396311163,-0.0238640382885932,0.0013122787143576,-0.0422222875058651,-0.0137870479375123,6629722
29,0.0125574227422475,-0.0187041088938713,-0.0010208724997937,0.0013914125738665,-0.0101744551211595,-0.0017205483745783,-0.0398957356810569,-0.0196574072338488,-0.0329152010381221,0.0210062842816114,111234596
30,0.0061267530545592,0.003897558664903,0.0093962009996175,0.0038424101658165,0.0039576003327965,0.0052857547998428,0.004005217924714,0.0050961955057447,0.0023061586543917,0.0239606779068708,126273707
31,-0.0036693355068564,-0.0203867703676223,-0.0165862776339054,0.0017601582221686,-0.0028845672495663,0.0028057566378265,0.0118515761569142,-0.0062631464671011,-0.00834605935961,0.0115296989679336,99567684
32,-0.0190486013889312,-0.0137259336188435,-0.016027120873332,-0.0060373321175575,-0.007188263349235,-0.0029922670219093,0.0204519871622324,-0.0229832433996363,0.0120761562138795,0.0100706731900572,102339234
33,-0.0152942314743995,1.3631186448037624e-05,-0.0083487024530768,-0.0026941238902509,-0.0050288699567317,-0.0027001078706234,0.0164352655410766,0.0146987439300486,-0.0039413627237081,0.0056424671784043,1632500
34,0.0048184902407228,-0.0126386936753988,0.0110579682514071,0.0088716400787234,0.0037443002220243,0.0039587658829987,-0.0010019238106906,0.0033797187760476,-0.0273048654198646,0.0520471036434173,35094579
35,-0.021197510875286,-0.0094096319184553,0.0036456523827436,0.002429025900058,-0.0022519133374966,-0.0013990491372471,-0.0437939078700641,-0.1098484611376546,-0.0094355755942808,-0.0012390566966552,16843548
36,-0.0028323293663561,-0.0056794499978423,-0.0145249413326382,-0.0072763781063258,-0.0091581353917717,-0.0039859348908066,0.0010837027803063,-0.0031837491635912,-0.0164172071963548,0.0126986214891076,106839634
37,0.0166203938424587,-0.0325148850679397,-0.0027728227432817,0.0081658139824867,-0.0031283742282539,0.0062609049491584,-0.0234959442168474,0.0048920552815019,-0.0314065404236316,0.026645440608263,134245346
38,-0.0205762293189764,-0.0142486188560724,-0.0279726311564445,-0.0046053430996835,-0.0037718007806688,-0.0015455917455255,0.0428762026131153,-0.007542884418092,-0.0007347310893237,0.0014076177030801,5635960
39,-0.021899539977312,-0.0239364746958017,-0.0205996800214052,-0.0018167730886489,-0.0062721138820052,-0.00092111795675,0.0328175574541091,-0.0126408853899261,0.0008148178458213,0.0020064027048647,142836663
40,-0.0227897930890321,-0.0285311061888933,-0.0166554488241672,-0.000456826062873,-0.0058667124249041,0.0013467341195791,0.0088023096323013,-0.0327350122097812,-0.0165103692561388,0.0210436154156923,152156857
41,-0.0017560702981427,0.0056772856041789,0.0122595019638538,0.0023728779051452,0.0010228783357888,0.0028432772960513,-0.0133564630523324,-0.0154161531042529,-0.0095870569348335,0.0206242036074399,84371480
42,-0.0364814586937427,-0.0271536577492952,-0.0322237834334373,-0.0041083227843046,-0.0055947545915842,-0.0001933784224092,0.0651229470968246,-0.0104946027603565,0.0130944550037384,0.0064725051634013,46337905
43,0.0085595771670341,-0.0498672984540462,-0.0001420695334672,0.0089064128696918,-0.0015303005930036,0.008863884024322,-0.0196147374808788,0.0214386242988609,-0.016385331749916,0.0363435596227645,828136
44,-0.0178548414260149,0.0020138816908001,-0.0099109048023819,-0.0029742477927356,-0.0048872074112296,-0.0034599374048411,0.0002381444210186,-0.0079009292072775,-0.0116910189390182,0.0037252882029861,64471701
45,-0.0068455998227786,-0.0094564918220039,-0.0156314310419747,-0.0202733536928935,-0.0204761918918814,-0.0108710711499782,-0.0187879730558428,0.0054106120051622,-0.0347512224861649,-0.0068774087601801,80988232
46,-0.0240271091461181,-0.0228822529315948,-0.0382578298449516,-0.0040100775659084,-0.0067347344011068,-0.0003157728351652,0.0378608144819736,-0.0173241401900111,-0.0008814875036478,0.0081175379455089,76983686
47,0.0318068861961364,-0.0061924513429403,0.0122688058763742,0.0218289829790592,0.0062204948626458,0.0207516718655824,-0.0154430335387587,-0.0292216050129752,-0.0441857427358627,0.0601372234523296,148763951
48,-0.0101428618654608,-0.0032512857578694,-0.0219165757298469,-0.0004191217012703,-0.0020661677699536,0.0012308643199503,0.0247408952564001,-0.0038853587495945,-0.0049315495416522,0.0048550250940024,139654441
49,-0.032367505133152,-0.0157688558101654,0.0532772205770015,-0.0025612714234739,-0.0063214814290404,-0.022403422743082,0.0321064367890358,0.0327658916742604,-0.058608278632164,-0.0274204052984714,55441816
50,0.0059324791654944,0.0072597609832882,-0.0208873972296714,-0.0054337093606591,-0.0007335370755754,-0.0037992841098457,0.0057982960715889,-0.0026233488174765,-0.0237833783030509,-0.0070338626392185,2107983
51,0.0121506713330745,0.0625089704990387,0.0168970078229904,0.0063259894959628,0.0062284441664814,0.0036354735493659,-0.0283887013792991,-0.0365120348307394,0.0052328123711049,-0.00083116767928,57005772
52,0.0206992924213409,0.0134864170104265,0.0006187706021592,0.0052987495437264,1.2377509847283363e-05,0.0040939981117844,-0.0276886783540248,-0.0070533277317432,-0.0269703678786754,0.0269237011671066,2565059
53,-0.0198106504976749,-0.0219024382531642,-0.0292608011513948,-0.0017017507925629,-0.0037489989772439,0.0011492022313177,0.0454527661204338,-0.0100388032532645,0.0015441484283655,0.0077795851975679,98114160
54,-0.0046710036695003,-0.0013435943983495,-0.0237214937806129,-0.0051023624837398,-0.0019488430116325,-0.0028978073969483,0.0206294581294059,-0.0045911617638731,-0.0145639162510633,-0.0036572702229022,49562778
55,-0.0190222263336181,-0.0175057798624038,-0.0214173421263694,-0.0001854393631219,-0.0035665854811668,0.0018617890309542,0.02955580689013,-0.0200397548214797,-0.0018925329204648,0.0120414067059755,19226344
56,0.0028682041447609,-0.0064988578669726,-0.0159263517707586,0.0050816070288419,0.0019341555889695,0.0021714910399168,0.0139354048296809,-0.004040923623671,-0.0073469216004014,0.0101935658603906,152156863
57,-0.0005791177973151,0.0327857472002506,-0.0096952226012945,-0.0067644570954144,-0.0037910458631813,-0.008735129609704,0.0172931011766195,0.0574786269074508,0.0089044468477368,-0.0458416044712066,136884961
58,-0.0001612667692825,-0.0036296260077506,0.0172380413860082,0.0028413704130798,-0.003847237676382,0.000787875324022,-0.0173206627368927,0.0048087014884744,-0.0152536844834685,0.0366948097944259,1632495
59,0.0271394550800323,0.0244664624333381,-0.0152192022651433,-0.006096402183175,0.0016970727592706,-0.0056022396311163,-0.0238640382885932,0.0013122787143576,-0.0422222875058651,-0.0137870479375123,1027136
60,-0.0187806710600852,0.009470828808844,0.0042819618247449,-0.0105478651821613,0.0018622103380039,-0.0102674011141061,0.0305714234709739,-0.0080820613894459,0.0507789999246597,-0.0046150088310241,17326775
61,-0.0058370786719024,-0.0199609771370887,-0.0084080714732408,0.0013363058678805,-0.0057078041136264,0.0014942894922569,-0.004252104088664,-0.0188321139406477,-0.0238664932548999,0.0227681696414947,2323034
62,0.0334849916398525,-0.0508461743593215,0.0123529219999909,0.012038480490446,-0.0027770001906901,0.0091754663735628,-0.0698933973908424,0.0182141778347867,-0.0390168279409408,0.043793324381113,152997654
63,-0.0074681150726974,-0.0305134151130914,-0.015203908085823,0.0026336838491261,-0.0086555955931544,0.0018310884479433,-0.0154084833338856,-0.0309687891561202,-0.0230511222034692,0.0222890302538871,134245351
64,0.0087382216006517,-0.0098360432311892,-0.0186842959374189,-0.0025725658051669,-0.0055103739723563,-4.81712631881237e-05,-0.0109538845717906,-0.0260336250057773,-0.028263596817851,0.0169820748269557,59403627
65,0.0090206628665328,-0.0027210435364395,-0.0081531610339879,-0.0014508659951388,-0.0022207992151379,-0.0013576962519437,-0.0356911830604076,-0.0268315717315504,-0.0441687405109405,0.0109138377010822,113169861
66,-0.0082055004313588,-0.0042113806121051,-0.0246661864221096,-0.0049919141456484,-0.0023539427202194,-0.0025973138399422,0.0255731791257858,-0.0052471000548509,-0.0114907585084438,-0.0025317396502941,56800868
67,-0.0364814586937427,-0.0271536577492952,-0.0322237834334373,-0.0041083227843046,-0.0055947555229067,-0.0001933784224092,0.0651229545474052,-0.0104946022421039,0.0130944540724158,0.0064725060947239,34373547
68,-0.0084338914602994,0.0046724095009267,-0.002860099542886,-0.0047652767971158,-0.003316713264212,-0.0039207739755511,0.005389254540205,0.0048431860665985,-0.0098521206527948,0.0265429131686687,3671199
69,-0.0177426133304834,-0.0217826887965202,-0.0210944674909114,-0.0010284772142767,-0.0033492464572191,0.001345579046756,0.0329947248101234,-0.0038983243364078,0.0006515991408377,0.0102441599592566,210971961
70,0.010446242056787,-0.0154415350407361,0.001539435586892,-0.0042816484346985,-0.0065771481022238,-0.004110999405384,-0.021622534841299,0.0013767611718923,-0.0297664068639278,0.004514202941209,163661563
71,-0.0244207866489887,-0.0174835175275802,-0.0192629322409629,0.0028050241526216,-0.0009049333748407,0.0010245274752378,0.0187350418418645,-0.0157632239251348,0.0041376734152436,0.0125838359817862,57005722
72,-0.003356740809977,-0.0325766280293464,-0.0093129090964794,0.0076514445245265,-0.0010597221553325,0.0031732143834233,0.0091383475810289,-0.0001560664759309,-0.030342848971486,0.0427103489637374,93918535
73,0.0193731542676687,-0.0019569024443626,-0.0341658629477024,-0.002312455093488,-0.0050818412564694,-0.0006012837402522,-0.0366371944546699,-0.0264597390455945,-0.0436426550149917,0.0154965315014123,49652179
74,0.0075870854780077,-0.0087030138820409,-0.004758870229125,0.0002101042773574,-0.0072552002966403,0.000116110604722,-0.0196782350540161,-0.0088369717041462,-0.0144255235791206,0.0177492257207632,188693345
75,-0.0075097307562828,-0.0098063610494136,-0.0156212132424116,-0.0037528169341385,-0.0055730571039021,-1.2662290828302504e-05,0.0158906131982803,0.0257524331208958,0.005758199840784,0.0088396864011883,11100005
76,-0.0146397864446043,-0.0147373229265213,-0.0133100394159555,0.000708918320015,-0.0033904833253473,0.0013845572248101,0.0130632044747471,-0.0198844208194079,-0.0198035053908824,0.0229151621460914,17086876
77,-0.0090981246903538,-0.0299085583537817,-0.0010871150298044,0.0031946708913892,-0.0061386665329337,0.0028868450317531,-0.0475183427333831,-0.0549754222976506,-0.0461151972413063,0.035614725202322,102112552
78,-0.0341910570859909,-0.026097385212779,-0.029597669839859,-0.0037901923060417,-0.0056702522560954,-2.638855949044228e-05,0.0596630200743675,-0.0119510571524482,0.0102593470364809,0.0077772079966962,68242601
79,-0.0155554506927728,0.0015713055618107,-0.0170731265097856,-0.0043346928432583,-0.0029692645184695,0.0008281028131023,0.0264403652399778,-0.0132504741892799,-0.0031612354796379,-0.0016732709482312,86451188
80,0.0164610426872968,-0.0084833903238177,-0.0158404801040887,0.0068554594181478,-0.0019799720030277,0.0047357063740491,-0.0082811126485466,-0.0500826496563248,-0.0287984404712915,0.0080655645579099,17612683
81,0.0032794040279053,-0.0201251051604494,-0.0270070232537579,-0.0055489394120455,-0.0096212417659445,-0.0032837182914906,-0.0333733089486138,-0.0821796922611646,-0.0401563100418024,0.0062097761640681,59543419
82,0.024509247392416,-0.0197744518518447,0.0058734524063766,0.0044924360699951,-0.0062985229305922,0.0033247489482164,-0.053760178387165,0.0008076388847807,-0.0362810790538787,0.0281628500670194,124205317
83,-0.0081682372838258,0.0178128536790609,-0.0279651507735252,-0.0115571776404976,-0.00098261248786,-0.0044448850676417,-0.0190405510365962,-0.0472125217997884,-0.0121182445436716,-0.0183635931462049,195065492
84,0.005932480096817,0.0072597609832882,-0.0208873972296714,-0.0054337093606591,-0.0007335370755754,-0.0037992841098457,0.0057982960715889,-0.0026233488174765,-0.0237833783030509,-0.0070338617078959,57544795
85,-0.0176522452384233,-0.0179471466690301,-0.0208130721002817,-0.0034755875822156,-0.0032974272035062,-0.0004086061380803,0.0366055369377136,-0.009451445668816,-0.0030238926410675,0.0089888162910938,85345213
86,9.34699783101678e-05,0.0051910588517785,-0.0017780088819563,0.0006093049887567,-0.0039079431444406,0.0047811656259,-0.014205121435225,-0.0018673786647738,-0.0155368316918611,0.0027116464916616,14469100
87,-0.0039258492179214,-0.0181007124483585,-0.0100506097078323,0.0032872380688786,-0.0018502746243029,0.0036526001058518,0.001217576675117,-0.0105726640747881,-0.0128796976059675,0.0171229261904954,5315847
88,-0.0219596568495035,-0.0048798243515193,-0.033963106572628,-0.0006785374134778,-0.0028613118920475,-0.0019456457812339,0.0338393412530422,-0.0212375780507492,0.0175991188734769,0.0107835223898291,134245359
89,-0.0364814586937427,-0.02715365588665,-0.0322237759828567,-0.0041083223186433,-0.0055947564542293,-0.0001933793537318,0.0651229470968246,-0.01049460453531,0.0130944550037384,0.0064725051634013,99480601
90,0.0079409452155232,0.0114384097978472,0.004318134393543,-0.001320909243077,-0.0052046426571905,0.0045289169065654,-0.0201744679361581,-0.010367969533951,-0.0403643436729908,0.0446738414466381,46178447
91,0.0151484254747629,0.0549004599452018,0.01047377102077,0.0038415093440562,0.0053221695125103,0.0017879313090816,-0.0274837743490934,-0.0289471706316942,-0.0042582065798342,-0.0034223471302539,60637252
92,-0.045130118727684,0.0509242340922355,0.0142360348254442,-0.0267579704523086,0.0063567510806024,-0.0188196208328008,0.0661952272057533,-0.0030165043503962,0.1035348773002624,-0.0350807718932628,67809135
93,0.0121506713330745,0.0625089704990387,0.0168970078229904,0.0063259894959628,0.0062284441664814,0.0036354735493659,-0.0283887013792991,-0.0365120348307394,0.0052328123711049,-0.00083116767928,103553857
94,0.0271394550800323,0.0244664624333381,-0.0152192022651433,-0.006096402183175,0.0016970727592706,-0.0056022396311163,-0.0238640382885932,0.0013122787143576,-0.0422222875058651,-0.0137870479375123,200750991
95,0.0271394550800323,0.0244664624333381,-0.0152192022651433,-0.006096402183175,0.0016970727592706,-0.0056022396311163,-0.0238640382885932,0.0013122787143576,-0.0422222875058651,-0.0137870479375123,181695848
96,-0.0046710036695003,-0.0013435943983495,-0.0237214937806129,-0.0051023624837398,-0.0019488430116325,-0.0028978073969483,0.0206294581294059,-0.0045911617638731,-0.0145639162510633,-0.003657269757241,7308736
97,-0.0200594291090965,-0.0179519206285476,-0.0220798663794994,-0.0002929153852164,-0.0033829775638878,0.0024444703012704,0.0402611345052719,-0.0104130773101856,0.0073724598623812,0.0089608058333396,76169655
98,0.0039162179455161,-0.0237353183329105,-0.0073157479055225,0.0019144502002745,-0.0102571817114949,-0.0005838433280587,-0.0576083846390247,-0.0502699503140263,-0.0490050911903381,0.0280165839940309,17614637
99,0.002049955073744,-0.0200723484158515,0.0062268003821372,0.0014215693809092,0.0006668888963758,0.0021678516641259,0.0199400372803211,0.0324916912624939,-0.0210018623620271,0.0440327450633049,129997203
100,0.018396858125925,-0.0146779092028737,-0.009898810647428,0.0012622197391465,-0.0098505867645144,-0.0005085061420686,-0.0454246662557125,-0.0179495893978582,-0.0213711708784103,0.0216329153627157,86981001
101,0.0001149207819253,0.0172811280936002,-0.0042320229113101,-0.0006305748829618,-0.0043724430724978,0.0039602415636181,-0.010478138923645,-0.0066140462718319,-0.0022073136642575,0.0087127238512039,178303212
102,0.0341236405074596,-0.0083154756575822,0.0243061054497957,0.0143193509429693,0.0092706428840756,0.0144142769277095,-0.0214156936854124,0.0229138033338027,-0.0054438402876257,0.026719007641077,58693284
103,0.0102313933894038,-0.0095842890441417,0.0071618678048253,0.0017511760815978,-0.0061765532009303,0.0023066201247274,-0.0368307568132877,-0.0382526484505073,-0.0454065203666687,0.0325134918093681,203148074
104,-0.0141140650957822,-0.0227114893496036,-0.013124662451446,-0.0018549858359619,-0.0064825508743524,-0.0004669416230171,0.0129095586016774,0.0038463094216355,-0.012325894087553,0.0093670831993222,17516504
105,0.0012758182128891,-0.017247088253498,-0.0158476214855909,-0.0043548699468374,-0.0121198464184999,-0.0062647880986332,-0.0226552095264196,-0.039859335642229,-0.0247007869184017,0.0013271928764879,51846914
106,-0.0207827426493167,-0.0129320016130805,-0.0245019420981407,-0.0034157894551753,-0.0036444768775254,-0.000741465948522,0.0372927263379097,-0.0125579936280018,-0.000612695235759,0.0041819112375378,212958532
107,-0.0079979132860898,0.0091205202043056,-0.0108026275411248,-0.0092813177034258,-0.0054584899917244,-0.0075149443000555,-0.0008031821344047,-0.0064493692524933,0.0026475577615201,-0.0097736427560448,2135522
108,0.0006794272921979,0.0003887012135237,8.738908218219876e-05,-0.0023660380393266,-0.0031881544273346,0.0012260293588042,0.0066875889897346,0.0116303622046253,-0.0014377556508406,0.0189243368804454,90910059
109,-0.026640510186553,-0.011359873227775,-0.0238331798464059,-0.0045026098378002,-0.0046962285414338,-0.0018998446175828,0.0448102727532386,-0.0092399511592985,0.0019945516251027,-0.0009953724220395,1629358
110,0.0059324791654944,0.0072597609832882,-0.0208873972296714,-0.0054337093606591,-0.0007335370755754,-0.0037992841098457,0.0057982960715889,-0.0026233488174765,-0.0237833783030509,-0.0070338626392185,134245357
111,-0.0152744892984628,-0.0099469441920518,-0.0265555866062641,-0.0047710165381431,-0.0031641465611755,-0.0019963306840509,0.0354606322944164,-0.0065589764725144,-0.0053444635123014,-0.0002806773409247,2037677
112,-0.0056929374113678,0.0001628627069294,-0.0030450811609625,-0.0059129442088305,0.0010619383538141,0.0021385408472269,0.0184046383947134,0.0082974171370327,-0.0257047265768051,0.0324711427092552,71041493
113,-0.0134457554668188,0.0214203596115112,-0.0092098694294691,-0.0050256168469786,-0.0012018880806863,0.0003910820232704,0.0163467694073915,-0.0146975011137953,0.0005081910640001,-0.0084116263315081,99470365
114,-0.0252542402595281,-0.0180442165583372,-0.0292229708284139,-0.0044591608457267,-0.0043079629540443,-0.0011478804517537,0.0494193732738494,-0.008411033089534,0.0033326731063425,0.0028972893487662,1261561
115,-0.0309991780668497,0.0420827455818653,0.0055493954569101,-0.0218390747904777,0.002745815552771,-0.0143438354134559,0.0473322495818138,0.0046874087529871,0.0666283965110778,-0.0279884673655033,41571963
116,-0.0096734967082738,-0.0276288613677024,-0.0088025126606225,0.0010711909271776,-0.0069134230725467,0.0011732075363397,-0.0247496049851179,-0.0420600580257358,-0.0332607552409172,0.0261198244988918,51113095
117,-0.0364814586937427,-0.0271536577492952,-0.0322237834334373,-0.0041083227843046,-0.0055947555229067,-0.0001933784224092,0.0651229545474052,-0.0104946022421039,0.0130944540724158,0.0064725060947239,76169642
118,0.0145619343966245,-0.006327177863568,0.0045535103417932,-0.0035889602731913,-0.0079095028340816,-0.0016382820904254,-0.0348995253443717,0.0182831929237943,-0.0176487565040588,0.0081099066883325,109965166
119,-0.0364814586937427,-0.0271536577492952,-0.0322237834334373,-0.0041083227843046,-0.0055947555229067,-0.0001933784224092,0.0651229545474052,-0.0104946022421039,0.0130944540724158,0.0064725060947239,84279791
120,-0.0089953355491161,0.0376953519880771,-0.0004915858153253,-0.0164271853864192,0.0040269093587994,-0.0122109279036521,0.0211655981838703,-0.0008521135226945,0.0306563023477792,-0.0244339071214199,194171766
121,0.0066654938273131,-0.017126265913248,-0.012338126078248,0.0046036718413233,-0.0042628329247236,0.0015116271097213,-0.019798832014203,-0.0049823423388521,-0.0305556207895278,0.0202116649597883,18271679
122,-0.0029024160467088,-0.0049188444390892,-0.0038283166941255,-0.0007926397956907,-9.909097570925952e-05,0.0002959340345114,0.0170182790607213,0.0106749074022392,-0.0145051050931215,0.0267554596066474,58470789
123,-0.0376382768154144,0.0167677216231822,-0.0053553725592792,-0.0160998664796352,0.0011002051178365,-0.0103124547749757,0.0579454004764556,-0.0077246257063571,0.057388287037611,-0.0155606977641582,4194332
124,0.007837182842195,-0.0131125152111053,0.0105415415018796,0.0020921605173498,0.0017334218136966,0.0022718182299286,0.0106066493317484,0.0324591448031239,-0.0240815468132495,0.0439031980931758,18167326
125,-0.0217007994651794,-0.0097859250381588,-0.0264675673097372,-0.007236648350954,-0.0059478227049112,-0.0024036774411797,0.0135626252740621,-0.0105891928657446,0.0007456082385033,-0.0055000195279717,84351638
126,-0.0189607162028551,-0.0233332868665456,-0.0150796007364988,0.0005758785409852,-0.0044433996081352,0.0020565534941852,0.013779985718429,-0.0047800344958392,-0.0088689038529992,0.0102329440414905,77891076
127,0.0101436302065849,0.0257948897778987,-0.0424110814929008,-0.0117906499654054,-0.0188022889196872,0.0014438354410231,-0.0090498365461826,0.0327132212133286,-0.0243778228759765,0.0237558800727128,179755765
128,0.00903563760221,-0.0019298626575618,-0.0147183369845151,0.0105883032083511,-0.0025250825565308,0.0110412817448377,0.0077918306924402,-0.00816199746221,-0.0322504602372646,0.0196866858750581,82816346
129,-0.0364814586937427,-0.0271536577492952,-0.0322237834334373,-0.0041083227843046,-0.0055947555229067,-0.0001933784224092,0.0651229545474052,-0.0104946022421039,0.0130944540724158,0.0064725060947239,30401956
130,-0.0049031255766749,0.0137132639065384,-0.0065741427242755,-0.0093346554785966,-0.0051727043464779,-0.0076509919017553,-0.0143591305240988,-0.0054344926152354,-0.0035311316605657,-0.0012380785774439,109598935
131,-0.0205762293189764,-0.0142486188560724,-0.0279726311564445,-0.0046053430996835,-0.0037718007806688,-0.0015455917455255,0.0428762026131153,-0.007542884418092,-0.0007347310893237,0.0014076177030801,111304309
132,0.0355563603846446,-0.0101465743610441,-0.0218414670149397,0.0214483508187673,0.0333395110643532,0.0149808971972445,0.0258446048340993,0.0481834721730179,-0.0042134938761685,0.0179739261056808,134245353
133,-0.0077751255594193,0.0041710683144629,-0.0137402908876538,-0.0054797339253127,-0.0056474711745977,-0.0050088530406355,-0.0028857621364295,0.0038492508523221,-0.0067786457948386,-0.0068396432325243,32800026
134,-0.0027040699496865,-0.0192708428949117,-0.0100816404446959,0.0032729362137615,-0.0017871031304821,0.0036661042831838,-0.0144091630354523,-0.0084577369783729,-0.01449123211205,0.0241204611957073,57241602
135,0.0229257065802812,-0.0037084373179823,-0.0053222891874611,-0.0022953134030103,-0.0069603137671947,0.0018711199518293,-0.0130474884063005,0.0119179212193663,-0.0260252803564071,0.0311402883380651,7946252
136,0.0052838874980807,0.0057057337835431,0.0071397018618881,-0.0081333154812455,-0.0110337855294346,-0.0065716733224689,-0.0344418734312057,-0.003511742315474,-0.0193797200918197,0.0183503162115812,108107289
137,-0.0172956585884094,-0.0184915009886026,-0.0270392894744873,-0.0054463976994156,-0.0089421644806861,-0.0031646008137613,0.0173435304313898,-0.0184054395919124,-0.0097052175551652,0.0064017460681498,64185077
138,-0.0306977368891239,-0.0224609095603227,-0.0306779071688652,-0.0042890571057796,-0.0049318633973598,-0.000685092061758,0.0570332258939743,-0.0094212485476639,0.0080656632781028,0.0046307332813739,83511139
139,0.0250172689557075,0.0018693641759455,0.0039877132512629,0.0011413963511586,-0.0010658618994057,0.002248395467177,-0.0187376756221056,-0.0102134602216192,-0.0370150916278362,0.0118456799536943,50343962
140,0.001068804664413,0.0200747718604048,0.0029232450261231,0.0072448208084326,-0.0075259253471006,0.0101519276566181,0.0071389709313916,0.0114514123487284,0.0203536242269164,0.0174979289880584,199050935
141,-0.0153257306665182,-0.0119780134409666,-0.0203201696276664,-0.0031679570674896,-0.0030781249515712,-0.0005536067765206,0.0264311321079731,-0.0137564117083617,-0.010181114077568,0.0093448394909501,50820032
142,0.0234145615249872,0.0147402193397283,-0.0028412882238626,0.0070943152531981,0.000175844237674,0.0054878257215023,-0.0181989576667547,0.0197003419602164,-0.0064967325888574,0.0152413072064518,82020498
143,-0.0212978459894657,-0.0148106608539819,-0.0205511692911386,-0.0020126667805016,-0.0039559202268719,0.0002230268437415,0.0280519388616085,-0.0198738918410706,-0.0034144255332648,0.0092653445899486,9474028
144,0.0271394550800323,0.0244664624333381,-0.0152192022651433,-0.006096402183175,0.0016970727592706,-0.0056022396311163,-0.0238640382885932,0.0013122787143576,-0.0422222875058651,-0.0137870479375123,55179313
145,-0.0192596036940813,-0.0186271108686923,-0.0258902888745069,-0.0022093378938734,-0.0059229834005236,-0.0013895309530198,0.032330434769392,-0.003451707742658,-0.0002430016174912,0.0104180360212922,60392809
146,0.0282369814813137,-0.0192229114472866,-0.0045321742072701,0.0003465441986918,-0.0119904391467571,-0.0036314665339887,-0.0684834942221641,-0.0377467795253969,-0.0513758733868598,0.017611151561141,92235366
147,-0.003906971309334,0.0136094279587268,-0.0237367451190948,-0.0041905241087079,-0.0066531607881188,0.0012250945437699,0.0040970416739583,-0.0134795771591857,-0.0019012574339285,0.0087143471464514,93296295
148,-0.0016466851811856,-0.0103025212883949,-0.006366909481585,0.0006800156552344,-0.00668093143031,0.001202895422466,-0.0134259136393666,-0.0269812904921398,-0.0273187290877103,0.0241061560809612,3352568
149,-0.0174709167331457,-0.01296210847795,-0.0151391439139842,-0.0038928086869418,-0.003564796410501,-0.0016203010454773,0.012834046036005,-0.0227305542301734,-0.0083248503506183,0.0093472115695476,79219366
150,-0.0001266524195671,0.0023435566108673,-0.0225068759173154,-0.0052443668246269,-0.0014279967872425,-0.0032841539941728,0.0142732486128807,-0.0037478143199809,-0.0185151174664497,-0.0051043792627751,193273536
151,0.0109270764514803,0.0190869178622961,0.0217768661677837,0.0019160143565386,-0.0037059688474982,0.0022913133725523,-0.04126438498497,-0.0267997103921826,-0.0571674853563308,0.0555943921208381,5434805
152,-0.0023951914627104,-0.0148949064314365,-0.0156995803117752,0.0013049622066318,-0.000607859226875,0.0010995167540386,-0.0090061714872717,-0.0233411423143571,-0.0227142442017793,0.006929581053555,115765914
153,-0.0057651507668197,-0.0156390760093927,-0.0151295410469174,0.0025120982900261,-0.0071382774040102,-0.0001747645437717,0.0017394840251654,-0.0200941472875073,-0.0198200903832912,0.0122247245162725,2860796
154,0.0135342347431957,0.0079121674057545,-0.0087770403274018,-0.0056875925869421,-0.0109838752941524,-0.0108128900014211,-0.039214760509309,-0.0015407520015856,-0.0334855707070748,0.0065550371649849,125480482
155,0.0074166888371109,-0.0207156203687191,-0.0011632448295131,0.0024275677278637,-0.0081955390051007,0.0020791676361113,-0.0270322542637586,-0.008551595568224,-0.0200022477656602,0.0230649672448635,169366451
156,0.0024923216551542,-0.0245777368545532,-0.0183871835470199,0.0014308348763734,-0.0128418244421482,-4.792166873812676e-05,-0.0183147359639406,-0.0527794669218857,-0.0265200864523649,0.0222266241908073,14884938
157,0.0328459218144416,0.0143041247501969,-0.001365128904581,0.0170492641627788,0.0101208724081516,0.0108255837112665,-0.0274781603366136,-0.0212519478065419,-0.004749902524054,0.026737418025732,55614776
158,-0.0052162711508572,-0.0231766328215599,-0.0252679530531168,0.001243005041033,-0.0039743445813655,0.0025755376555025,0.0224559921771287,-0.0148516602942005,-0.0096865966916084,0.0130988163873553,15738922
159,-0.0105728385969996,-0.0176813770085573,-0.0133596146479249,-0.0020410423167049,-0.0067266975529491,0.0014483396662399,-0.0103783765807747,-0.0283535544335594,-0.0198389366269111,0.0148545000702142,83380751
160,-0.0129021946340799,-0.0193872526288032,-0.0183977540582418,-0.0016353917308151,-0.0056039290502667,0.0003835062962025,-0.0038118013180792,-0.0290294316670138,-0.0232588145881891,0.016503220424056,1284914
161,-0.0364814586937427,-0.0271536577492952,-0.0322237834334373,-0.0041083227843046,-0.0055947555229067,-0.0001933784224092,0.0651229545474052,-0.0104946022421039,0.0130944540724158,0.0064725060947239,3998623
162,0.0171003639698028,0.0077618118375539,0.0009589026449248,0.0091454787179827,0.0030816998332738,0.0130051057785749,-0.0104757584631443,-0.0497627321199936,-0.0547414347529411,0.0545919761061668,3777800
163,-0.0216411501169204,-0.0015662151854485,-0.0216622706502676,-0.0061674583703279,-0.0026475428603589,-0.0013945407699793,0.0347416512668132,-0.0086045247571976,-0.0026305879000574,0.0008134883828461,195760279
164,-0.024096243083477,0.0006200853968039,-0.0105761876329779,-0.0110886543989181,-0.0032291770912706,-0.0053962715901434,0.0385716706514358,0.0175404053025778,0.02221604809165,-0.0008186178747564,164950564
165,0.0218663830310106,-0.0087744016200304,-0.0218533743172884,0.0043146796524524,0.000865391921252,0.0045056445524096,-0.0037227335851639,-0.0088993189189796,-0.0273316130042076,0.0110472841188311,7908339
166,0.0208096336573362,-0.0103680472820997,0.0011788106057792,0.0074521335773169,-0.003663993673399,0.0061553684063255,-0.0384380370378494,-0.0022350184261841,-0.0209460332989692,0.0271939598023891,90166650
167,-0.0059570204466581,-0.0011303438805043,-0.0088899815455079,-0.0043022762984037,-0.0014596179826185,-0.0017416302580386,0.0179819166660308,-0.0128123703558631,0.0090399552136659,0.0058635026216506,65079014
168,0.0093464562669396,0.0009703813120722,-0.0285541638731956,-0.0044874688610434,-0.0135465003550052,2.7748756110668182e-06,-0.0320679284632205,0.0006951958413819,-0.0359234809875488,0.013687347061932,66117517
169,-0.0029782578349113,0.0254401098936796,-0.0007895674207247,-0.0033398501109331,0.0002081930288113,-0.0016006906516849,-0.0047455271705985,0.0445771556782377,-0.0092822965234518,0.0057531972415745,99386143
170,0.0271394550800323,0.0244664624333381,-0.0152192022651433,-0.006096402183175,0.0016970727592706,-0.0056022396311163,-0.0238640382885932,0.0013122787143576,-0.0422222875058651,-0.0137870479375123,96457658
171,-0.0084254993125796,-0.0119039919227361,-0.0049198605120182,0.0001512392191216,-0.0066707646474242,0.0013169441372156,-0.0042965696193277,-0.0091293243932214,-0.0134317362681031,0.0173349138349294,19550437
172,-0.0046710036695003,-0.0013435943983495,-0.0237214937806129,-0.0051023624837398,-0.0019488430116325,-0.0028978073969483,0.0206294581294059,-0.0045911617638731,-0.0145639162510633,-0.003657269757241,87029402
173,-0.0049135647714138,-0.0304204262793064,-0.0114701883867383,0.0029092214535921,-0.007705595344305,0.0035966169089078,-0.0088176857680082,-0.0182435386592375,-0.0203799437731504,0.0227599069476127,102675336
174,-0.0364814586937427,-0.0271536577492952,-0.0322237834334373,-0.0041083227843046,-0.0055947555229067,-0.0001933784224092,0.0651229545474052,-0.0104946022421039,0.0130944540724158,0.0064725060947239,49331390
175,0.0258544478565454,0.009102514013648,0.0098733538761734,-0.0046883900649845,-0.0129933105781674,-0.0004551136516965,-0.0476006343960762,-2.8368692955061462e-05,-0.0304048135876655,0.0170114394277334,189822176
176,0.0049453368410468,-0.0128895621746778,0.0010285369353368,0.0040025301277637,-0.0020610797218978,0.0035455212928354,-0.0061464458703994,-0.0037653550458359,-0.0303823910653591,0.0367591008543968,52080229
177,-0.0196781139820814,-0.0132207321003079,-0.0199852474033832,-0.0001636985689401,-0.0032138251699507,0.0024041035212576,0.0421780087053775,-0.0073442727666837,0.0047925813123583,0.0103681478649377,110111095
178,-0.0121686235070228,0.0077592679299414,-0.0398952588438987,-0.0094957128167152,-0.0130334598943591,0.0029933298937976,0.0297120660543441,0.0048396277475582,-0.0046280156821012,0.0145146120339632,83551433
179,-0.045130118727684,0.0509242303669452,0.0142360320314764,-0.0267579685896635,0.0063567501492798,-0.0188196208328008,0.0661952272057533,-0.0030165044828252,0.1035348773002624,-0.0350807718932628,195227039
180,-0.0324805006384849,0.0019224141724407,-0.0203373506665229,-0.0038615430239588,-0.0038444006349891,-0.0030731868464499,0.033746775239706,-0.0001111018125555,-0.002657443517819,-0.0180131383240222,4687741
181,0.0065165623091161,0.0077057345770299,6.307451985776424e-05,0.0005175879923626,-0.0001433768775314,0.0051347659900784,-0.0121869267895817,-0.0006204160790248,-0.0178225971758365,0.0232720337808132,74781242
182,-0.0140308458358049,0.0011028959415853,-0.0189987011253833,-0.002419076859951,-0.0017717506270855,-0.0005093794316053,0.0286232195794582,-0.013336713530093,0.0004587792791426,0.0009598610922694,52422878
183,-0.0343750566244125,-0.0273655727505683,-0.0298286471515893,-0.0035465543624013,-0.0056365961208939,4.356354475021362e-05,0.0564582385122776,-0.0139162050757301,0.0085398685187101,0.0087142176926136,63078310
184,-0.0046962671913206,-0.0112483147531747,-0.0078614568337798,-0.0040007457137107,-0.0058353142812848,-0.0017214865656569,-0.0046479259617626,-0.0241210853146561,-0.0257043056190013,0.0151455411687493,7798401
185,-0.0021482445299625,-0.0063347178511321,-0.0011691057588905,0.0092936931177973,0.0029948758892714,0.005750514101237,0.0237925164401531,-0.0175826801571457,-0.0066219819709658,0.0288183912634849,97205149
186,0.0008860247326083,-0.0062859058380126,-0.0117833083495497,-0.0008329569827765,-0.0030891108326613,0.0016827930230647,0.0118822753429412,-0.0075050271322866,-0.0093790320679545,0.0174399074167013,2045233
187,-0.0264314394444227,-0.0241781882941722,-0.0272880513221025,0.0032658181153237,-0.0020795441232621,0.005677081644535,0.0444622710347175,-0.0223418335366444,0.0032093753106892,0.0125084687024354,213759518
188,0.007091143168509,-0.0014398652128875,0.0184881016612052,0.0026862700469791,0.0039586713537573,0.0026597601827234,-0.0043879887089133,0.0158540944169462,-0.0061404295265674,0.0364425778388977,44976789
189,0.0086880568414926,0.0137056009843945,-0.0082127908244729,0.0005483139539137,-0.0037668165750801,-0.0017022980609908,-0.0333448536694049,-0.0118851261586036,-0.005531349685043,0.0188992526382207,189470222
190,0.0311865732073783,-0.004262042697519,0.0023073316551744,0.0055630058050155,0.002372809452936,0.0120706558227539,-0.0577802062034606,0.0095263639504432,-0.0222582519054412,0.0377985872328281,45744269
191,-0.0015674658352509,0.0003293300978839,-0.0172407869249582,-0.0007931049913167,-0.0104059688746929,0.0015790502075105,-0.0025990863796323,-0.017733321958223,-0.0191709399223327,0.008294022642076,52277738
192,-0.0109652196988463,-0.0174458045512437,-0.0031075100414454,2.999149728566408e-06,0.0003122184425592,-0.0020515043288469,0.0148670645430684,-0.0051580045516034,-0.0039136963896453,0.0280937030911445,53614250
193,-0.0242127813398838,0.033160850405693,0.0072790486738085,-0.0120547534897923,0.0001047240803018,-0.0059125525876879,0.0402334704995155,0.0043498200123641,0.02670912258327,-0.010061515495181,129694210
194,-0.0122248521074652,0.003917574416846,-0.0169836226850748,-0.0107024777680635,-0.0085606519132852,-0.0080789327621459,-0.0090169887989759,-0.0308501881833962,-0.0069505660794675,-0.0076244845986366,195211760
195,-0.0364814586937427,-0.02715365588665,-0.0322237759828567,-0.0041083223186433,-0.0055947564542293,-0.0001933793537318,0.0651229470968246,-0.01049460453531,0.0130944550037384,0.0064725051634013,30401979
196,-0.0295182783156633,-0.0058466456830501,-0.0206539910286664,-0.0059955022297799,-0.0025539067573845,-0.0024092136882245,0.0514564663171768,-0.0115712376737433,0.0208475068211555,-0.000464993994683,83916654
197,-0.0161438714712858,-0.0159416422247886,-0.0207368358969688,-0.0036495798267424,-0.0028018685989081,0.0007037105970084,0.0372339375317096,-0.0066230639789488,-0.0078285681083798,0.00092617678456,55915048
198,0.0045187771320343,0.0165069140493869,0.013309234753251,0.0060690874233841,0.0034616268239915,0.0083336448296904,-0.0164023395627737,-0.0378780461610388,-0.0317940972745418,0.0280920956283807,56232025
199,-0.0041207447648048,0.0100900353863835,0.002048450987786,-0.0012990566901862,0.0022945771925151,-0.0004581357352435,0.0178177002817392,0.0238173434636966,0.0207512434571981,0.0079416269436478,31260463
200,-0.0090315453708171,-0.0135836545377969,-0.0040503349155187,0.0030962703749537,-0.0022053129505366,0.003958445508033,-0.0058514336124062,-0.0335153497189346,-0.019324941560626,0.0239283964037895,58026824
201,-0.0205078497529029,-0.028760677203536,-0.0140607189387083,0.0001517559867352,-0.0059120375663042,0.0016034191939979,-0.0005844686529599,-0.0364417464164751,-0.0214445050805807,0.0234721302986145,1457158
202,-0.0036296965554356,-0.005347822792828,0.0039486782625317,-0.0036021783016622,-0.0039862352423369,0.0024268988054245,-0.0018225125968456,0.0010667020830594,-0.0085246004164218,0.0288579799234867,127973630
203,-0.0205762293189764,-0.0142486188560724,-0.0279726311564445,-0.0046053430996835,-0.0037718007806688,-0.0015455917455255,0.0428762026131153,-0.007542884418092,-0.0007347310893237,0.0014076177030801,69375516
204,-0.0245859697461128,-0.0186188854277133,-0.0249657891690731,-0.0034206677228212,-0.0045334356836974,-0.0008571576327085,0.0459119379520416,-0.0044241284245982,0.0011814218014478,0.0120267197489738,98109744
205,-0.0085965059697628,-0.0077611724846065,-0.0215202774852514,-0.0042034331709146,-0.0064272903837263,-0.0016128232236951,0.0198588352650403,-0.0135835359027578,-0.0019763642922043,0.0120755229145288,215870218
206,-0.0188708901405334,-0.0211892649531364,-0.0195776112377643,-0.0019390695961192,-0.0048038167878985,0.0001121829263865,0.0157109219580888,-0.0237472935320225,-0.0140176629647612,0.0134853050112724,48578381
207,-0.0007432708516716,0.0011156955733895,-0.0139573663473129,-0.0002233625855296,-0.0035362241324037,-0.00164465745911,-0.0064876545220613,-0.0173150228459345,-0.0074131363071501,-0.0106360744684934,112629130
208,0.0108628858659555,-0.0097192385931281,0.0233218714717287,0.0076093131000529,0.0088659463930743,0.006445595292633,0.0323923916140703,-0.0575978798119533,-0.0062308938230247,0.0143780061728032,46171824
209,-0.0453901328146457,0.0234091393649578,0.0024173888377845,-0.0201994106173515,-0.0126128457486629,-0.024205345660448,0.0190712660551071,-0.0454716549717575,0.0431115143001079,-0.0466706603765487,199306992
210,0.0097705051302909,0.0508026331663131,0.012090953066945,0.0083129936829209,0.0073796738870441,0.0049432795494794,-0.0073034218512475,-0.0292697834918688,0.0096014998853206,0.0019055581651628,55422058
211,0.0125596076250076,0.0098391957581043,-0.0077111404389142,0.0008920857217162,-0.0043879318982362,-0.0041269566863775,-0.0345746874809265,-0.0083996397179496,-0.0235423408448696,0.0132639408111572,138830239
212,-0.0364814586937427,-0.02715365588665,-0.0322237759828567,-0.0041083223186433,-0.0055947564542293,-0.0001933793537318,0.0651229470968246,-0.01049460453531,0.0130944550037384,0.0064725051634013,98091595
213,0.0140036996454,0.0096560511738061,-0.0043298602104187,0.0005731377168558,-0.0025387231726199,0.0018148694653064,-0.0415167622268199,-0.0323538324085983,-0.0089247534051537,0.0190466940402984,101157977
214,0.0090645030140876,-0.0372165143489837,-0.0014758524484932,0.0053385109640657,-0.0052974261343479,0.0042457869276404,-0.0388078317046165,-0.0124612382762834,-0.0325654298067092,0.0314782448112964,79785773
215,0.0089943660423159,-0.0303184445947408,0.0004449568223208,0.0125659182667732,0.0011627888306975,0.0047887256368994,-0.0114947743713855,0.0039239546455334,-0.0451632030308246,0.0549385286867618,115011586
216,0.0021948153153061,0.0045213103294372,0.0005238364101387,3.308785380795598e-05,-0.000410768087022,0.0037239491939544,-0.0023877543862909,-0.0173061570201241,-0.0215383432805538,0.0213274545967578,201816469
217,0.0127970147877931,-0.0178014356642961,0.0084824431687593,0.0063861836679279,-0.0042887767776846,0.0020728788804262,-0.0141717456281185,-0.0166289656804486,-0.0223160535097122,0.017890203744173,58026802
218,0.0004189129685983,-0.0066346721723675,-0.0199215617030859,-0.0011373001616448,-0.0064970636740326,-0.0050330990925431,-0.0114816846325993,0.0073875331987208,-0.0178205221891403,0.0138489687815308,134307269
219,-0.0386337786912918,0.0425718799233436,0.0126491542905569,-0.0201454572379589,0.0059046880342066,-0.0125158363953232,0.0572192519903183,0.0035805715231015,0.0825845152139663,-0.0276037566363811,52197511
220,0.0052586244419217,-0.0345505401492118,0.0014311707345768,0.0060469591990113,-0.004087503068149,0.0052824099548161,-0.032309241592884,-0.0091742896488648,-0.0213234312832355,0.0307713989168405,1394129
221,-0.0026687984354794,0.0003420740831643,-0.0172278340905904,-0.0058640353381633,-0.0038163606077432,-0.0040029995143413,-0.0168189704418182,-0.0242080571976057,-0.0150848580524325,0.0053698746487498,152997644
222,-0.0452444404363632,-0.0185232535004615,0.0133671984076499,-0.0117549914866685,-0.0182808525860309,-0.0055450089275836,0.0382757857441902,0.0345757335176418,-0.00847003236413,0.0052086506038904,38035180
223,0.0203464403748512,0.0131328552961349,-0.0081711560487747,-0.0064852316863834,-0.010793880559504,-0.0053645311854779,-0.0370699800550937,-0.019319037911963,-0.018252957612276,0.0211275331676006,99604430
224,-0.0159007161855697,-0.0036367189604789,-0.0238961707800626,-0.0055302013643085,-0.0036810240708291,-0.0032894480973482,0.0273832529783248,-0.0089821185299785,-0.0052674198523163,-0.0031671389006078,1181559
225,-0.0205762293189764,-0.0142486188560724,-0.0279726311564445,-0.0046053430996835,-0.0037718007806688,-0.0015455917455255,0.0428762026131153,-0.007542884418092,-0.0007347310893237,0.0014076177030801,49367038
226,0.017748849466443,-0.0039631868712604,0.006891069933772,0.0009613709407858,-0.0069244997575879,0.0075684236362576,-0.0322699397802352,-0.0180309642405839,-0.0069347349926829,0.0088780922815203,99092665
227,0.0113262701779603,-0.0126870069652795,0.0118513964116573,-0.0017490137834101,-0.0021979664452373,0.0010192259214818,-0.0147433634847402,0.0355363554254962,-0.0170430541038513,0.0341483354568481,84791675
228,-0.0152744892984628,-0.0099469441920518,-0.0265555866062641,-0.0047710165381431,-0.0031641465611755,-0.0019963306840509,0.0354606322944164,-0.0065589764725144,-0.0053444635123014,-0.0002806773409247,65819501
229,-0.0029180932324379,-0.0109437499195337,-0.0069378050975501,-0.0037414780817925,-0.0085609424859285,-0.0032156326342374,-0.0256628505885601,-0.0309266484875267,-0.0187908634543418,0.0129302833229303,209877730
230,-0.0246929619461298,-0.0248965844511985,-0.0210634656250476,-0.0014481069520115,-0.0061440002173185,0.0005793825257569,0.0271070189774036,-0.0247183885244316,-0.0036594488192349,0.0144620854407548,34134703
231,-0.0183040555566549,-0.0124050490558147,-0.0273653268814086,-0.0046763448044657,-0.0035113759804517,-0.0017387644620612,0.0396980941295623,-0.0071212069574364,-0.002710327040404,0.000684060389176,105881940
232,0.0329008363187313,-0.0215089339762926,-0.020795939490199,0.0034468779340386,-0.0006942852050997,0.0058946758508682,-0.0428160913288593,0.0483482449017001,-0.0349676124751567,0.0077445469796657,67801698
233,0.0012000692076981,0.0029312840197235,-0.0010794111294671,-0.0018870925996452,-0.0037863121833652,0.0017832843586802,-0.0178493466228246,-0.0064765694631293,-0.0113056236878037,0.0023815548047423,184006479
234,0.0255819763988256,-0.0305824503302574,0.0102112749591469,0.013500964269042,-0.0003535777796059,0.0141069795936346,-0.0367091372609138,0.0076595676618707,-0.0113241402432322,0.0247094519436359,98079917
235,0.0121506713330745,0.0625089704990387,0.0168970078229904,0.0063259894959628,0.0062284441664814,0.0036354735493659,-0.0283887013792991,-0.0365120348307394,0.0052328123711049,-0.00083116767928,102488300
236,0.009586370550096,-0.0302741900086402,-0.0032028583809733,0.0165238007903099,0.0006437820848077,0.0160241611301898,0.0105405943468213,0.0015984355372095,-0.0175362005829811,0.0331185050308704,186297240
237,-0.0101296762004494,0.0032062362879514,-0.0132468631491065,0.0008529738988727,-0.0008430139860138,0.0010683403816074,0.0234594661742448,-0.0147946684788676,0.0096350498497486,0.0112324990332126,87839561
238,0.0271394550800323,0.0244664624333381,-0.0152192022651433,-0.006096402183175,0.0016970727592706,-0.0056022396311163,-0.0238640382885932,0.0013122787143576,-0.0422222875058651,-0.0137870479375123,56491568
239,0.0048002749681472,0.0063776713795959,0.0086207669228315,0.0003295366186648,-0.0014233887195587,0.0015653147129341,-0.0076748062856495,-0.0165865398397111,-0.0227688420563936,0.0389411635696888,205932746
240,-0.0158863309770822,-0.0196135267615318,-0.0216671433299779,-0.0037380137946456,-0.0075791049748659,-0.0055557684972882,0.0114782461896538,-0.0212964511851816,-0.0106802489608526,0.006066542584449,51113107
241,-0.0332757234573364,-0.0265890285372734,-0.0309308785945177,-0.003377117216587,-0.0050754314288496,6.08423724770546e-05,0.0627384483814239,-0.0124844306570034,0.0108856167644262,0.0066022691316902,74738631
242,0.0013141185606822,-0.0106240583392443,0.0070164522112476,-0.0050993101408274,-0.0056030732885269,-0.0036831847605943,-0.0090561180835209,-0.0279902816362633,-0.0405782575362228,-0.0100363066756142,94043093
243,-0.0066626560874283,0.0033517102710902,-0.0180314667522907,-0.0078319869935512,-0.0101084895431995,-0.0067693423479795,-0.0090699205175042,-0.0377285995714442,-0.026530897244811,-0.0088146049529314,98708407
244,0.0271394550800323,0.0244664624333381,-0.0152192022651433,-0.006096402183175,0.0016970727592706,-0.0056022396311163,-0.0238640382885932,0.0013122787143576,-0.0422222875058651,-0.0137870479375123,128725950
245,0.0250245369970798,0.0114219672977924,-0.0059936344623565,0.0004899644991382,-0.0085106082260608,-0.00062278250698,-0.0474640093743801,0.0133413612589407,-0.0200220569968223,0.0224771983921527,102523558
246,-0.0175868943333625,-0.0156651437282562,-0.0235093906521797,-0.0034435756970196,-0.0039957058615982,-0.0009676949121057,0.0272580683231353,-0.0146131409057605,-0.0087801236659288,0.0062806420028209,102122032
247,0.000672755704727,-0.0118461782112717,-0.0111898658797144,0.0016318657435476,0.0002026471775025,0.0049464087933301,0.0186708513647317,0.0174817018971292,0.0042842277325689,0.0115987602621316,19919865
248,-0.006146709434688,-0.0108652459457516,-0.016176700592041,-0.0023366857785731,-0.0033454513177275,-0.0009695906192064,-0.0020864736288785,-0.021385916089414,-0.0250810142606496,0.0094333942979574,76273564
249,0.0159391574561595,0.0343674719333648,-0.0059001366607844,-0.0046130223199725,0.0026446618139743,-0.0039903474971652,-0.0192236248403787,-0.0115553037953647,-0.0177070163190364,-0.009731525555253,100565256
250,0.0042172186076641,-0.0192547123879194,-0.0271072257310152,0.0026767221279442,-0.0025204941630363,0.0039691757410764,0.0115883788093924,-0.0046553641743185,-0.0191656034439802,0.015304522588849,200394113
251,-0.001557464711368,0.0072752623818814,-0.0170306302607059,-0.0088723432272672,-0.0071339146234095,-0.0092708002775907,-0.0110930744558572,-0.0084484767548208,-0.0152956638485193,-0.0135008357465267,150718336
252,0.0056291008368134,0.0237546488642692,0.0151054309681057,0.0024279430508613,-0.0059611746110022,-0.0003185477107763,-0.0357123389840126,0.0026371504512739,-0.0048384517431259,0.023454638198018,102421980
253,-3.1952979043126106e-05,-0.0162013508379459,0.003365893382579,-0.0106457900255918,-0.0167227275669574,-0.0050023905932903,-0.0418931767344474,0.0637589925797089,-0.0098941177129745,0.0310811456292867,84344367
254,-0.0101224854588508,0.0107440734282135,-0.0066171986982226,-0.0063755610026419,0.0006950256647542,-0.0038643702864646,0.0238920710980892,-0.0054491976228084,0.0168279260396957,-0.0045837271027266,72497728
255,-0.0021530918311327,-0.0451655127108097,-0.0100908018648624,0.0035964392591267,-0.0095940055325627,0.0026999949477612,-0.0142978224903345,-0.0169674028982357,-0.0177047178149223,0.0289356634020805,68002205
256,-0.0042938473634421,0.0201257262378931,-0.030488284304738,-0.0099279461428523,-0.0097383372485637,0.0036473236978054,0.0177722405642271,0.0210894801911729,0.0051875747740268,0.0042910207994282,72898792
257,0.0069310739636421,0.0173556730151176,0.0012454201932996,0.0108664911240339,0.0085106007754802,0.0106431432068347,0.0042797611095011,0.0178961400874284,0.0198767967522144,0.0204954445362091,138460133
258,-0.0068990001454949,-0.0085811261087656,-0.0047906190156936,-0.0130647253245115,-0.0079372599720954,-0.0078820753842592,-0.0116409352049231,-0.0054748274096607,-0.0189143363386392,-0.0066887075081467,99018577
259,-0.0026118983514606,-0.010555449873209,-0.0117649361491203,-0.0001177780795842,-0.0063886460848152,0.0003254652256146,-0.0030546695925295,-0.0230842296883028,-0.0092075113207101,0.0166326314210891,206545451
260,-0.0110330889001488,-0.0065056029707193,-0.0254219453781843,-0.0049035530537366,-0.0026780250482261,-0.0023569222539663,0.0295281540602445,-0.0057718511403653,-0.0090322420001029,-0.0016313139349222,56491611
261,0.0108407791703939,-0.0207629483193159,0.0024623505305498,0.0068410011008381,-0.0052285958081483,0.0046645062975585,-0.014202163554728,-0.0182002989758978,-0.0297516491264104,0.0271765384823083,108954955
262,-0.0108158634975552,-0.0113469893112778,-0.0305847730487585,-0.0071675339713692,-0.0043285731226205,-0.0031895583961158,0.0188807640224695,-0.010721193193579,-0.0126548837870359,0.0029046311974525,47754644
263,-0.024890387430787,0.0047317510470747,-0.0155575275421142,-0.0081557193771004,-0.0009759817039594,-0.004490447230637,0.044231828302145,-0.009702175244326,0.0235739145427942,-0.0057310196571052,59488156
264,-0.0065412400290369,-0.0104657486081123,-0.0225620083510875,-0.0019171801395714,-0.0063105197623372,-0.0049481140449643,0.0031386497430503,0.0058624583690919,-0.013488276861608,0.0116334510967135,173578723
265,-0.0032588285394012,-0.0101525578647851,-0.0026492909528315,0.0018865050515159,-0.00340869394131,0.001649435958825,-0.034304391592741,-0.0420432265509003,-0.0348024293780326,0.0222255513072013,1489566
266,-0.0155103597790002,-0.0197865106165409,-0.0148549880832433,-0.0009917595889419,-0.0040824650786817,0.000697273062542,0.0350365042686462,-0.0099701840932074,-0.007622433360666,0.0183746851980686,195696960
267,-0.0019050040282309,-0.0068616792559623,-0.0039419094100594,0.0002579862484708,-0.0050170673057436,0.0030166294891387,-0.0135828992351889,0.0043660678325667,-0.0360928699374198,0.047625184059143,157676367
268,-0.0084644118323922,0.005899304524064,-0.0062630348838865,-0.0040506096556782,-0.0050471033900976,-0.0031410239171236,-0.010132148861885,-0.0026882944436084,-0.0126158697530627,0.0060128886252641,47758813
269,-0.0313375666737556,-0.0167370196431875,-0.0263757556676864,-0.0091898078098893,-0.0083980755880475,-0.0064164251089096,0.024804038926959,-0.0232345149934892,0.0106655992567539,-0.0003118759486824,94043087
270,-0.0187678430229425,-0.0038997661322355,-0.0298954304307699,-0.0083053763955831,-0.0067499293945729,-0.0028870743699371,0.0331105217337608,-0.0240053184452588,-0.0025770983193069,0.0011731348931789,60612444
271,-0.00785743445158,-0.0040703490376472,-0.0200454089790582,-0.0029123555868864,-0.004725432023406,-0.0007754014804959,0.0165283642709255,-0.0158914404604244,-0.0028293745126575,0.0091881537809968,189832432
272,0.0471229050133171,-0.0130032755875172,0.0656518668631588,0.0043893902787129,0.0096826293452827,0.0055648851353008,-0.0175260867252857,0.0397473537684307,-0.0323533624610127,0.0015604285094542,83448924
273,0.0099105313420295,-0.0297132730484008,-0.0257221609354019,0.0064758080989122,-6.809737533330917e-05,0.004524603486061,-0.019063975661993,-0.0288217806213353,-0.0225273109972476,0.0093582831323146,968042
274,-0.0001266524195671,0.0023435566108673,-0.0225068759173154,-0.0052443668246269,-0.0014279969036579,-0.0032841539941728,0.0142732486128807,-0.0037478143199809,-0.0185151174664497,-0.0051043792627751,63645659
275,0.0343288108706474,0.0278379041701555,0.0216561518609523,0.0218961201608181,0.0105713941156864,0.0179359819740057,-0.0343487411737442,-0.0123710946502873,-0.01664974167943,0.0251438710838556,2052970
276,-0.0205762293189764,-0.0142486188560724,-0.0279726311564445,-0.0046053430996835,-0.0037718007806688,-0.0015455917455255,0.0428762026131153,-0.007542884418092,-0.0007347310893237,0.0014076177030801,54209120
277,0.0029440806247293,-0.0211675185710191,-0.016976673156023,0.0012260606745257,-0.0030129498336464,0.0020025796256959,0.0027982150204479,-0.0044226344819288,-0.0174465831369161,0.013504359871149,107721773
278,0.006306417286396,-0.0134417302906513,-0.0031582335941493,-0.0031386096961796,-0.0051509626209735,-0.0029655077960342,-0.0097212698310613,-0.0196964506471084,-0.0378777310252189,0.0001365249045193,170437794
279,-0.0321495793759822,-0.0244701001793146,-0.0276866611093282,-0.0051092021167278,-0.0054748551920056,-0.0021900236606597,0.0529423132538795,-0.0106076606433949,0.0091963727027177,0.0038471920415759,7211039
280,-0.0023852221202105,-0.0062888045795261,-0.0096900202333927,0.0011785777751356,-0.0074912444688379,0.0005849811714142,-0.0177041217684745,-0.0159463392757306,-0.0112170334905385,0.0053822323679924,3443157
281,0.012347100302577,0.001399029046297,-0.0055573703721165,0.0031676336657255,-0.0022140904329717,0.0031510649714618,-0.0128621468320488,-0.0122937544906001,-0.0124312937259674,0.0099142072722315,195474892
282,-0.0202565267682075,0.0129648763686418,-0.0136601589620113,-0.0135850496590137,-0.0049119070172309,-0.0063083413988351,0.0124189397320151,0.0166198832280173,-0.0048477086238563,-0.0027088958304375,7574988
283,-0.0044091623276472,0.0132128437981009,-0.0133308144286274,-0.001695113023743,-0.0001333199907094,-0.0006448086351156,0.0129804871976375,-0.0145547608229869,-0.0049565159715712,-0.0014026998542249,86366069
284,0.0271394550800323,0.0244664624333381,-0.0152192022651433,-0.006096402183175,0.0016970727592706,-0.0056022396311163,-0.0238640382885932,0.0013122787143576,-0.0422222875058651,-0.0137870479375123,9949411
285,-0.0046710036695003,-0.0013435943983495,-0.0237214937806129,-0.0051023624837398,-0.0019488430116325,-0.0028978073969483,0.0206294581294059,-0.0045911617638731,-0.0145639162510633,-0.0036572702229022,99092662
286,-0.0364814586937427,-0.0271536577492952,-0.0322237834334373,-0.0041083227843046,-0.0055947555229067,-0.0001933784224092,0.0651229545474052,-0.0104946022421039,0.0130944540724158,0.0064725060947239,58425371
287,-0.0233408529311418,0.0363492257893085,-0.002439183415845,-0.019473934546113,0.0028282357379794,-0.0135939475148916,0.0328318737447261,-0.0080944157258884,0.0548513047397136,-0.0235095862299203,39833157
288,-0.0329469628632068,-0.0242858659476041,-0.0312790758907794,-0.004218774382025,-0.0051896539516747,-0.0004938673228025,0.0601792261004447,-0.0098386623596862,0.0100212944671511,0.0053469748236238,13182786
289,-0.0238459184765815,0.0111953215673565,-0.0146377021446824,-0.0104803908616304,-0.0049510174430906,-0.0071300286799669,0.0230528619140386,0.0052624187299767,0.0012783211423084,0.0009301136014983,15268755
290,-0.0106170801445841,0.0178169570863246,-6.706023123115301e-05,-0.0074876272119581,-0.0087059801444411,-0.0090066436678171,-0.0333082936704158,-0.020641285479261,-0.0182932782918214,-0.0001517888158559,113607068
291,0.0082208383828401,0.0306693185120821,0.0071706599555909,0.0036566997878253,0.0020476439967751,0.0021019061096012,-0.0332079343497753,-0.0363838140597733,-0.0162173472344875,0.0077311024069786,69330138
292,0.0116955852136015,0.0051168473437428,0.0167457442730665,0.0078815324231982,0.0037931450642645,0.0064161419868469,-0.0112857306376099,-0.0092270611996211,-0.0282592549920082,0.0426956228911876,59617193
293,0.0011794745223596,0.0046450775116682,-0.0072989384643733,0.0007878728210926,-0.0020044476259499,0.0028304387815296,0.00269839563407,-0.0055400362704365,-0.0216752681881189,0.0226952191442251,206966496
294,0.0403700321912765,-0.0240572355687618,0.0083602182567119,0.007912372238934,0.0021156123839318,0.0061594536527991,-0.0641082301735878,0.0273420647770917,-0.0440437048673629,0.0262137800455093,47527154
295,0.0005099740810692,-0.0065089259296655,-0.008962539024651,-0.0062980921939015,-0.0070175053551793,-0.0040532206185162,-0.0176732409745454,0.0041932543866354,-0.0167489722371101,0.0063827624544501,61913621
296,0.0085600484162569,-0.0139221828430891,-0.00663957092911,-0.002190024126321,-0.0076102470047771,0.0011309597175568,-0.0254459343850612,-0.0084271707802494,-0.0221832022070884,0.024082712829113,34270534
297,0.0009639726486057,0.0031508132815361,0.0187349524348974,-0.0033585978671908,-0.0045627555809915,0.0005066766170784,-0.0172078292816877,0.0155781584554263,-0.0202036891132593,0.0453802198171615,205180061
298,0.011065839092721,0.0144038287971137,0.0297307592268171,-0.003290875709279,0.0005270373647492,-0.0023353507847791,-0.0400425423972144,-0.0110098880703256,-0.0199717608856779,-0.0187977149249389,34373550
299,-0.0453901328146457,0.0234091393649578,0.0024173888377845,-0.0201994106173515,-0.0126128457486629,-0.024205345660448,0.0190712660551071,-0.0454716549717575,0.0431115143001079,-0.0466706603765487,199307009
300,-0.0128039410337805,-0.0179315917193889,-0.0163681954145431,-0.0015847409376874,-0.0043539553880691,-4.305969923734665e-05,0.0022690354380756,-0.0259255535080425,-0.021652752533555,0.0140774827450513,12713910
301,-0.0053529534488916,-0.017153637483716,-0.0043623023666441,0.0026746308431029,-0.0010459388140588,0.0060987342149019,0.0004451505374163,0.0225175913762246,-0.0250966995954513,0.0432016924023628,3193236
302,0.0271394550800323,0.0244664624333381,-0.0152192022651433,-0.006096402183175,0.0016970727592706,-0.0056022396311163,-0.0238640382885932,0.0013122787143576,-0.0422222875058651,-0.0137870479375123,80628593
303,-0.0139715867117047,-0.0025259526446461,-0.022661555558443,-0.0029211416840553,-0.0025909056421369,-0.0007253005169332,0.0278463810682296,-0.0134017488672633,-0.0019433309789747,0.0016540492651984,85996097
304,0.0271394550800323,0.0244664624333381,-0.0152192022651433,-0.006096402183175,0.0016970727592706,-0.0056022396311163,-0.0238640382885932,0.0013122787143576,-0.0422222875058651,-0.0137870479375123,16700200
305,0.0065643619745969,-0.006642285734415,0.0040711285546422,0.0010561649687588,-0.0010361401364207,-0.0003227093257009,-0.001167346490547,0.0234298062770609,-0.0193255562335252,0.0347310863435268,159483171
306,-0.0039543407037854,0.0292061045765876,0.0063291145488619,0.0087822955101728,0.0035988674499094,0.008346140384674,-0.0058115515857934,-0.0258243063572144,-0.0046589793637394,0.0100409090518951,102483617
307,-0.0101224854588508,0.0107440734282135,-0.0066171986982226,-0.0063755610026419,0.0006950256647542,-0.0038643702864646,0.0238920710980892,-0.0054491976228084,0.0168279260396957,-0.0045837271027266,6747650
308,-0.0061777723021805,-0.0117051387205719,-0.0276668854057788,-0.002441783901304,-0.0047500166110694,-0.0016952318837866,0.0215247459709644,-0.0240856425302788,-0.0066635711118578,-0.0043304013088345,2763553
309,-0.0170333199203014,0.001044740434736,-0.0234868768602609,-0.0133728012442588,-0.0150116980075836,-0.013577364385128,-0.0120317470282316,-0.0029275201472558,-0.0061718802899122,-0.0129346689209342,88350347
310,0.0059324791654944,0.0072597609832882,-0.0208873972296714,-0.0054337093606591,-0.0007335370755754,-0.0037992841098457,0.0057982960715889,-0.0026233488174765,-0.0237833783030509,-0.0070338626392185,47788573
311,0.0165661126375198,0.0267953872680664,-0.0063830269500613,0.0006901696324348,-0.0006559473695233,0.0032049145083874,-0.0204565301537513,-0.0149943449505732,-0.0053432257845997,0.0115817859768867,196566732
312,-0.0281787849962711,-0.0093970857560634,-0.0180920865386724,-0.0058896718546748,-0.0025217989459633,-0.0027058157138526,0.0466809868812561,-0.0057431139571569,0.0173653978854417,0.0006556340958923,101058866
313,-0.0094534773379564,0.027282990515232,-0.0061873467639088,-0.0117338551208376,-0.0053293234668672,-0.0121209863573312,-0.0004599850508384,-0.0179192599566862,0.0037857603747397,-0.019498398527503,150718293
314,0.0238164998590946,-0.0242123827338218,0.0060004442930221,0.0042778714559972,-0.0075229341164231,0.0052237478084862,-0.0478111021220684,0.0026708450248913,-0.0348713584244251,0.039944265037775,18912237
315,-0.0077164745889604,0.0053423005156219,-0.006732617970556,-0.002921047154814,0.0033170753158628,-0.0037752413190901,0.014130275696516,0.0032444646630992,-0.0118973571807146,0.0198801644146442,159115989
316,0.0271394550800323,0.0244664624333381,-0.0152192022651433,-0.006096402183175,0.0016970727592706,-0.0056022396311163,-0.0238640382885932,0.0013122787143576,-0.0422222875058651,-0.0137870479375123,86617202
317,-0.0184535644948482,-0.0124919405207037,-0.0162375848740339,-0.0009021549485623,-0.003677250817418,0.0007779386360198,0.0166845936328172,-0.0250380200094675,-0.0074307895265519,0.0119193019345402,8608429
318,0.0201927404850721,0.0117020895704627,0.0244529619812965,0.0055784289725124,0.0043646055273711,0.007972190156579,0.0047803344205021,0.0258556973936851,-0.0270035415887832,0.0505050644278526,138469628
319,-0.017918188124895,-0.0193325821310281,-0.0285683870315551,-0.0021268273703753,-0.0035239798016846,0.0006433252710849,0.0423498377203941,-0.0093578541647241,-0.0004693586379289,0.0063499798998236,109486663
320,-0.0100206667557358,0.0291438587009906,-0.0122680030763149,-0.0035478693898767,-0.0055314786732196,0.0010503289522603,-0.0008489717729389,0.0258540003815565,-0.0130712445825338,-0.0002786910627037,55711245
321,-0.0247810035943985,-0.0103595228865742,-0.0253499336540699,-0.0125711979344487,-0.0084005175158381,-0.0090158237144351,0.0103433029726147,-0.019939014717473,-0.0143486838787794,-0.0107439588755369,101191919
322,0.0271394550800323,0.0244664624333381,-0.0152192022651433,-0.006096402183175,0.0016970727592706,-0.0056022396311163,-0.0238640382885932,0.0013122787143576,-0.0422222875058651,-0.0137870479375123,194164487
323,-0.0037080799229443,-0.0126604465767741,0.0050446619279682,0.0041021443903446,0.0023110371548682,0.0055274246260523,-0.0073271156288683,0.0416909926063195,-0.0018685173708945,0.0053843045607209,71488005
324,0.0148815072776604,0.0320260231301612,-0.0096731120764109,0.0089224496482318,0.016058078301407,0.0099161334112839,0.0527878961108391,-0.03164337445785,0.0097924610375033,0.014644988477899,45859773
325,0.004494659602642,0.0043226396664977,-0.0084682898595929,0.0011013018665835,-0.0043004876933991,0.0012821829877793,0.0030703416559845,0.0083372859392562,-0.012415399774909,0.0156646128743886,101778430
326,-0.0256510246545076,-0.0103024030104279,-0.0249511785805225,-0.0028647517319768,-0.0033216949086636,0.0006638754857704,0.0424392819404602,-0.0023081631855971,0.0087430765852332,0.0052299271337687,3806601
327,0.0271394550800323,0.0244664624333381,-0.0152192022651433,-0.006096402183175,0.0016970727592706,-0.0056022396311163,-0.0238640382885932,0.0013122787143576,-0.0422222875058651,-0.0137870479375123,2297821
328,0.027139451354742,0.024466460570693,-0.0152192041277885,-0.0060964017175138,0.0016970715951174,-0.0056022382341325,-0.0238640382885932,0.0013122777785673,-0.0422222875058651,-0.0137870460748672,108109288
329,0.0271394550800323,0.0244664624333381,-0.0152192022651433,-0.006096402183175,0.0016970727592706,-0.0056022396311163,-0.0238640382885932,0.0013122787143576,-0.0422222875058651,-0.0137870479375123,2235503
330,0.0126779740676283,0.0014524385333061,0.0105492183938622,0.0036662421189248,-0.002499995753169,0.0061412192881107,-0.0315060690045356,-0.0291443029943943,-0.0354412011802196,0.043060228228569,37764882
331,0.0139823406934738,0.0310362800955772,-0.0104929022490978,-0.0064775217324495,0.0023152865469455,-0.0031532389111816,-0.0078548388555645,-0.003347324393595,-0.0271008554846048,-0.0167522169649601,7897387
332,-0.0251059271395206,-0.021045496687293,-0.0262061208486557,-0.0034439587034285,-0.004751268774271,-0.0004844560753554,0.039919413626194,-0.014578847029569,-0.0012213445734232,0.0075828395783901,100535643
333,0.0059767588973045,-0.0004224330186843,-0.0158591959625482,-0.0019320482388138,-0.0031333547085523,0.000634771597106,-0.006427131127566,0.0071855639428668,-0.0169957857578992,0.0198040660470724,102644366
334,-0.0096574062481522,-0.0001111449673771,-0.0156201012432575,-0.0022300705313682,-0.0130393896251916,0.005555560812354,-0.0441074706614017,-0.0362597438948865,-0.0280136056244373,0.0323340520262718,58802094
335,-0.0036416132934391,-0.0046705296263098,-0.0194767378270626,-0.003774746786803,-0.0024445950984954,-0.0020839441567659,0.0067996312864124,-0.0126605691400441,-0.0213590338826179,0.0023252959363162,94317976
336,-0.0001502583036199,-0.0202556401491165,0.000701202021446,-0.0013436649460345,-0.0121487993746995,-0.0044152750633656,-0.053797423839569,-0.0164857833651036,-0.0280495006591081,0.0275232698768377,670375
337,0.0014671446988359,-0.0258693415671587,-0.0111596202477812,-0.0006224382668733,-0.0113057633861899,-0.0014715599827468,-0.015691740438342,-0.0285824416138228,-0.015865845605731,0.0222534723579883,99402058
338,-0.0298989787697792,-0.0097680361941456,-0.0187203418463468,-0.0070903883315622,-0.0033859438262879,-0.0034333576913923,0.0456197150051593,-0.0142398685880199,0.0196778234094381,0.0012542016338557,47505989
339,-0.0319175720214843,-0.0276127960532903,-0.0270343255251646,-0.0028911586850881,-0.0056854076683521,0.000319993821904,0.0463494062423706,-0.017908072006445,0.0032261810265481,0.0113295391201972,110742290
340,0.0225382782518863,0.0129549540579319,-0.0289328098297119,-0.0053027141839265,-0.002253507496789,-0.0039624790661036,-0.0305512174963951,-0.0117293952208832,-0.042417973279953,-0.0048404871486127,99092666
341,-0.0165430791676044,0.0022592714522033,-0.0149679575115442,-0.0017826829571276,-0.0017113140784204,0.0003643960226327,0.030911898240447,-0.0125244592031213,0.0018151442054659,0.0033862199634313,73023923
342,0.0080228485167026,0.0118597671389579,0.0097186742350459,-0.0079193767160177,-0.0048892525956034,-0.0034609683789312,-0.015697356313467,0.0117408520428993,-0.0270187407732009,0.0324515886604785,73299028
343,-0.0101224854588508,0.0107440734282135,-0.0066171986982226,-0.0063755610026419,0.0006950256647542,-0.0038643702864646,0.0238920710980892,-0.0054491976228084,0.0168279260396957,-0.0045837271027266,72497730
344,0.00033097458072,0.0111161544919013,-0.0139847937971353,-0.0020159524865448,-0.0050077517516911,-0.0022111288271844,-0.0067428587935864,-0.0113559696134423,-0.009202348999679,0.0098279090598225,99788385
345,-0.0029759504832327,-1.54771696543321e-05,-0.0149830617010593,-0.0052536404691636,-0.0021947054192423,-0.0026979290414601,0.0101301688700914,-0.0222170907165277,-0.0170576013624668,0.0014161734143272,206170303
346,-0.0085691027343273,-0.0008518343092873,-0.0216370970010757,-0.0077243661507964,-0.0061359731480479,-0.0049529387615621,-0.0019742569420486,-0.0137664611622888,-0.0039312615990638,-0.0030737007036805,18468296
347,-0.004943641833961,-0.0035029470454901,-0.0017556049861013,-0.0010521113872528,-0.0049808397889137,-0.0001265473547391,-0.018289403989911,-0.0078757506302948,-0.0237476024776697,0.0269098822027444,91989996
348,-0.0196133833378553,-0.0202547274529933,-0.0136052248999476,0.0001597942318767,-0.004767152480781,0.0015548006631433,0.0054213018156588,-0.0330783794590623,-0.0145337181165814,0.0190549977123737,54863209
349,-0.0267135743051767,-0.0286536291241645,-0.0281043164432048,-0.0009966441430151,-0.0047226855531334,0.001301557989791,0.0485722497105598,-0.0110959489880121,0.00469816243276,0.0108858607709407,88416983
350,-0.0269699171185493,-0.018379583954811,-0.0182442702353,-0.0049733417108654,-0.0130747836083173,-0.0071418480947613,-0.0115790013223886,0.0092162084636429,-0.0044208713807165,0.0163483638316392,75717236
351,-0.006469671614468,-0.0011831896845251,0.0114741884171962,0.0003292966866865,0.0020386327523738,0.0015525580383837,0.0005449997261166,-0.0047709856820043,-0.0020338699687272,0.027153018862009,50207366
352,-0.0027323551476001,-0.0065910220146179,-0.0095328586176037,-0.0002704207436181,-0.0036899526603519,-0.0006228955462574,-0.026429645717144,-0.0271878463855067,-0.0271718613803386,0.0132831959053874,76578097
353,0.0240581780672073,-0.023994205519557,0.0249315686523914,0.0119082396849989,0.0073108933866024,0.0102131953462958,-0.0204096063971519,0.0488958405908104,-0.0338532701134681,0.0457303933799266,101741648
354,0.0233922563493251,0.0339770875871181,-0.0071901474148035,-0.0029908034484833,0.0028299139812588,-0.0032928097061812,-0.0249952040612697,-0.008143801264223,-0.0303585119545459,-0.010548073798418,212071753
355,0.0207772478461265,0.0052784914150834,-0.0073336688801646,0.0073905261233448,-0.0020546952728182,0.0123616131022572,-0.0135851837694644,0.0346886261738621,-0.0123193375766277,0.0202987939119339,3162115
356,-0.0247565284371376,-0.0142934629693627,-0.0266817808151245,-0.003677780739963,-0.0038342992775142,-0.0006593021098524,0.0470239035785198,-0.0106548509571222,0.0051947738975286,0.0032843190710991,99446605
357,0.006588899064809,-2.835877239704132e-06,0.0091761304065585,0.0045896177180111,0.001325714867562,0.0056084138341248,-0.0109234228730201,-0.0052544414791531,-0.0236812345683574,0.0378378182649612,52541971
358,-0.0062342779710888,-0.0219844244420528,0.0097741298377513,0.0034137652255594,-0.0076279211789369,-0.0050765704363584,-0.0077733471989631,0.012354831289778,-0.0299129728227853,0.0075531955808401,195773243
359,0.0164854260839448,-0.0239715505148961,-0.031517318504313,0.0113560247930998,-0.0013243830756861,-0.0024632167905835,0.0041335411820765,-0.0467859054053642,-0.0234787032406362,0.0190668848574361,17687405
360,-0.0210608579218387,-0.0204061511904001,-0.0227087642997503,-0.0021342909894883,-0.003493866417557,0.0006451338995248,0.035793948918581,-0.0167024099911272,0.0034968589898198,0.0104217827320098,114274866
361,0.0016689951298758,0.0006390283815562,0.0170494355261325,-0.0039567546918988,-0.0035988297313451,-0.0008108771871775,-0.0141648408025503,0.0144005379854797,-0.010949389077723,0.035580463707447,158508852
362,-0.0240377727895975,-0.0154332406818866,-0.0201954524964094,-0.0053300238214433,-0.0050021670758724,-0.003109878860414,0.0306274890899658,-0.0065840090021918,0.0010722858132794,0.0021851246710866,107512023
363,-0.0257014826070687,0.0068193559028562,-0.0428015285373838,-0.0055312310669311,-0.0082306367332534,-0.01115110940296,0.0249689020656849,-0.0041364920609037,-0.018906178610922,-0.0113632946381815,146167229
364,0.0271394550800323,0.0244664624333381,-0.0152192022651433,-0.006096402183175,0.0016970727592706,-0.0056022396311163,-0.0238640382885932,0.0013122787143576,-0.0422222875058651,-0.0137870479375123,59299279
365,0.027139451354742,0.024466460570693,-0.0152192041277885,-0.0060964017175138,0.0016970715951174,-0.0056022382341325,-0.0238640382885932,0.0013122777785673,-0.0422222875058651,-0.0137870460748672,55422060
366,-0.0088306162506341,0.0086341211572289,-0.0174579694867134,-0.0133481863886117,-0.0098578408360481,-0.0133700910955667,-0.0099301543086767,-0.0118085132048684,-0.0137535165995359,-0.0077377557754516,156284152
367,-0.011735619045794,-0.0034010270610451,0.0082243680953979,0.0048384298570454,0.0049207215197384,0.0096447747200727,0.0079409731552004,0.022387437902175,0.0057394704781472,0.0234431587159633,109502816
368,0.0045326398685574,0.000312075484544,-0.0201700702309608,-0.0121190976351499,-0.0168861746788024,-0.0080256983637809,-0.0287544559687376,-0.002250502991442,-0.0246903635561466,0.0044690635986626,76747884
369,-0.0073536750860512,-0.003586848732084,0.0088570918887853,-0.0048222751356661,0.0004014577716588,-0.0033870548941195,0.0003229720750823,-0.0011784492659886,-0.0235958751291036,0.0348621495068073,96648892
370,0.0175184030085802,-0.0365212969481945,0.0011649248190224,0.0069716847501695,-0.0030391758773475,0.0087099689990282,-0.0436142310500144,0.0085752128116007,-0.0340610072016716,0.0374248214066028,2368500
371,-0.0101224854588508,0.0107440734282135,-0.0066171986982226,-0.0063755610026419,0.0006950256647542,-0.0038643702864646,0.0238920710980892,-0.0054491976228084,0.0168279260396957,-0.0045837271027266,6747648
372,-0.0014185411855578,0.005980699788779,-0.0111598083749413,-0.0003208034904673,-0.0051933540962636,-0.0003412091755308,-0.0091004967689514,0.0020036243687745,-0.0016822011675685,0.0070308116264641,124975178
373,-0.030735557898879,-0.0189055949449539,-0.0281078349798917,-0.0034340191632509,-0.0044898223131895,-0.0001130611635744,0.0552654415369033,-0.0119313166885333,0.010557310655713,0.0052272588945925,206977176
374,0.027139451354742,0.024466460570693,-0.0152192041277885,-0.0060964017175138,0.0016970715951174,-0.0056022382341325,-0.0238640382885932,0.0013122777785673,-0.0422222875058651,-0.0137870460748672,45621154
375,-0.0213140826672315,-0.0190094467252492,-0.0242002382874488,-0.0032225046306848,-0.0044701034203171,-0.0005814833566546,0.031518243253231,-0.0159402601084831,-0.0059932810254395,0.0079529508948326,96457659
376,-0.0065361405722796,0.0087442910298705,-0.0291250459849834,-0.0086602661758661,-0.0051785898394882,-0.0080486014485359,0.0091108372434973,-0.0179743198091868,-0.0091490689665079,-0.0131413089111447,148611986
377,-0.0267563257366418,-0.0131884841248393,-0.0352923683822155,-0.0062632793560624,-0.0085702380165457,0.0010813067201524,0.0509585924446582,-0.0043609094709739,0.0060054664500057,0.0096893468871712,6001285
378,-0.0103676971048116,0.0060453629121184,-0.01137201115489,-0.0035977507941424,-0.0010341173037886,-0.0022534511517733,0.0181674286723136,-0.0031722918132396,0.0117940679192543,0.003093983978033,72763348
379,-0.0236988626420497,-0.0148357143625617,-0.0198509767651557,-0.0036923990119248,-0.0057444018311798,-0.000300376326777,0.038434412330389,-0.0144860678631154,0.0138574857264757,0.0055257035419344,16835734
380,-0.0149347074329853,0.0021176908630877,-0.0314133279025554,-0.0189314093440771,-0.012938187457621,-0.0136124994605779,0.010672578588128,-0.0135581060299985,0.0166517999023199,-0.0199554432183504,44708713
381,0.0042025707662105,-0.0119307395070791,-0.0131283188238739,-0.0111535396426916,-0.0134364943951368,-0.0055840155109763,-0.0229256954044103,0.001192753400221,-0.0247257724404335,0.0032224585302174,110012110
382,0.0320787355303764,-0.0079651176929473,-0.0161349885165691,-0.0003241670783609,4.4906861148774624e-05,0.0010896298335865,-0.0232314504683017,0.0115934733035573,-0.0401977635920047,0.0017725022044032,88880574
383,0.0151415150612592,0.0122653935104608,0.0033019948750734,0.0015444988384842,-0.0030634051654487,0.0058048660866916,-0.0171016622334718,-0.0060315994059882,-0.0483874194324016,0.0473795793950557,30351501
384,0.0042682089842855,-0.0010131897870451,-0.0048404983244836,-0.0015429900959134,-0.0047995168715715,-0.0015820497646927,-0.01754049398005,-0.0069941488146069,-0.0034311916679143,0.0077242567203938,152354126
385,-0.0364814586937427,-0.02715365588665,-0.0322237759828567,-0.0041083223186433,-0.0055947564542293,-0.0001933793537318,0.0651229470968246,-0.01049460453531,0.0130944550037384,0.0064725051634013,206939650
386,-0.0131017379462718,-0.0177691597491502,-0.010371315293014,0.0004737677518278,-0.0044172452762722,0.0013436661101877,-0.0095684118568897,-0.0355389321977174,-0.0236475467681884,0.0200442168861627,85951147
387,0.019764132797718,-0.020029429346323,0.0121145285665988,0.0031007421202957,0.0009230396244674,0.0080927591770887,-0.0318537205457687,0.0426154733908869,-0.0510858632624149,0.0510073378682136,102386409
388,0.0008725670631974,-0.0210905671119689,-0.0256528500467538,0.000123557401821,-0.00792355556041,0.0013002639170736,-0.0459215715527534,-0.0473475670084363,-0.0446459166705608,0.0255871210247278,78535305
389,-0.0212943237274885,-0.0227897241711616,-0.0168589875102043,0.0009320902172476,-0.0015923143364489,0.0039711836725473,0.0366893038153648,-0.0133240914460168,0.0005820714868605,0.021866001188755,103874922
390,-0.0055358675308525,0.0064641973003745,-0.0190755035728216,-0.0073673264123499,-0.0007536924676969,-0.00476043112576,0.0207366831600666,-0.0038433529697932,-0.0055198711343109,-0.0078125987201929,19771878
391,-0.0030982997268438,-0.0273845475167036,-0.0195014663040637,0.0014529911568388,-0.004917926620692,0.0033255054149776,0.0105191599577665,-0.0098531990636953,-0.0097517371177673,0.0115907369181513,32949717
392,-0.0224603600800037,-0.0270402003079652,-0.0268620196729898,-0.0027364576235413,-0.0069687603972852,-0.0003125651273876,0.0384913235902786,-0.0125997178130659,-0.0012482493184506,0.0133640635758638,184425605
393,-0.0178002826869487,-0.011522414162755,-0.0138622103258967,-0.0049864910542964,-0.0081505253911018,-0.0027349123265594,0.0058674453757703,0.0035148437851541,-0.004098551813513,0.002442980883643,102887574
394,-0.0049787904135882,-0.0118803158402442,-0.0134757459163665,-0.003440222935751,-0.0053644608706235,-0.0021535048726946,0.0150025906041264,0.0657337298644895,-0.004746944643557,0.0141819585114717,66891131
395,-0.0316240079700946,-0.0244472175836563,-0.0294360276311635,-0.004891182295978,-0.0067477221600711,-0.0015074342954903,0.0528682768344879,-0.0092979851507141,0.011697594076395,0.0072350515983998,106261680
396,-0.0268879774957895,0.0038780900649726,-0.0146794850006699,-0.0170387290418148,-0.0096870865672826,-0.0048051108606159,0.0113507369533181,0.0095256568746838,-0.006473446264863,0.016225378960371,60194762
397,-0.0193921439349651,-0.0076127108186483,-0.0206709299236536,-0.0037115095183253,-0.0041230279020965,-0.0009802913991734,0.0330363325774669,-0.0135553754128882,-0.0007018870674073,0.0009548312518745,101368165
398,-0.0101224854588508,0.0107440734282135,-0.0066171986982226,-0.0063755610026419,0.0006950256647542,-0.0038643702864646,0.0238920710980892,-0.0054491976228084,0.0168279260396957,-0.0045837271027266,6747649
399,-0.0194516628980636,-0.0213716179132461,-0.0228445846587419,-0.0016955458559095,-0.0037475042045116,0.0012433815281838,0.0333027206361293,-0.0164299505914261,-0.0063012433238327,0.0091921333223581,110939942
400,0.0011232763063162,-0.0260072872042655,-0.0279069039970636,0.0021341731771826,0.0006356991361826,0.0051890052855014,-0.0036908185575157,-0.0202495292945585,-0.0090026091784238,0.0116869555786252,52268839
401,-0.0046710036695003,-0.0013435943983495,-0.0237214937806129,-0.0051023624837398,-0.0019488430116325,-0.0028978073969483,0.0206294581294059,-0.0045911617638731,-0.0145639162510633,-0.0036572702229022,115138097
402,-0.0262127090245485,-0.0281867384910583,-0.0205475278198719,-0.0013697003014385,-0.0057987230829894,0.0009617060422897,0.0228824652731418,-0.0271749090846111,-0.0091091599315404,0.0174008384346961,90959033
403,0.0094878291711211,-0.0071888053789734,-0.0070071509107947,-0.0010346150957047,-0.0087069813162088,-0.003522349987179,-0.025265697389841,-0.0158084859433301,-0.0201878044754266,0.0125200850889086,68997293
404,0.0117898182943463,-0.0059420522302389,-0.0002137817209586,0.0020281472243368,-0.0035299696028232,0.0016825898783281,-0.010665625333786,0.0024095193219849,-0.0243676789104938,0.0314125791192054,97442108
405,-0.0098552741110324,-0.0067406720481812,-0.0139977326616644,-0.0045244540087878,-0.00667589250952,-0.0046333149075508,-0.0065507129766047,-0.0128470355570386,-0.0084482356905937,-0.0104003995656967,34335298
406,-0.0046710036695003,-0.0013435943983495,-0.0237214937806129,-0.0051023624837398,-0.0019488430116325,-0.0028978073969483,0.0206294581294059,-0.0045911617638731,-0.0145639162510633,-0.003657269757241,207034364
407,-0.0109696732833981,-0.0252491813153028,-0.0183579102158546,-0.0030078548006713,-0.0084835039451718,-0.0017625746550038,0.0058434116654098,-0.0081908687105188,-0.0146891716867685,0.0120521550998091,8208151
408,-0.0142640769481658,-0.0075135002844035,-0.0120602091774344,-0.0012912403326481,-0.0041748797520995,0.0006027115159668,0.0034021781757473,0.015854826242473,0.0175777617841959,0.005819194484502,71145982
409,0.0072879088111221,-0.0172451063990592,0.0092175332829356,0.0079615507274866,-0.0079865185543894,0.0002048711758106,-0.0236981995403766,-0.0030360172709978,-0.03329698741436,0.0134512055665254,103625428
410,-0.0245514810085296,-0.0174555741250515,-0.0230524446815252,-0.0024617363233119,-0.0043070982210338,0.0001337972935289,0.0359957218170166,-0.017864043760555,0.0001231934875249,0.0086668841540813,58374844
411,-0.006545434705913,-0.0327982977032661,-0.0186926256865263,-0.0031105848029255,-0.0046782228164374,-0.0029411851428449,0.0319393798708915,0.0379910040178675,-0.0081698950380086,0.0138429179787635,165081199
412,0.0039998549036681,-0.0197629164904356,-0.023097226396203,0.0011366042308509,-0.0025337543338537,0.0029989767353981,0.0079684806987643,-0.0143986111381321,-0.0142158987000584,0.0120713766664266,33982497
413,0.0233922563493251,0.0339770838618278,-0.0071901474148035,-0.0029908034484833,0.0028299139812588,-0.0032928097061812,-0.0249952040612697,-0.008143801264223,-0.0303585119545459,-0.010548073798418,201846065
414,8.416082710027695e-05,-0.0199678484350442,-0.0094647351652383,0.005181691609323,0.0022913189604878,0.0082359630614519,0.0195040516555309,-0.0031957720209865,-0.0127538405358791,0.0246462412178516,49609372
415,0.0271394550800323,0.0244664624333381,-0.0152192022651433,-0.006096402183175,0.0016970727592706,-0.0056022396311163,-0.0238640382885932,0.0013122787143576,-0.0422222875058651,-0.0137870479375123,178367993
416,0.0132396230474114,-0.0181125793606042,-0.0194947998970747,0.0055436631664633,-0.0114428456872701,-0.000202587340027,-0.0472626760601997,-0.0104800020194196,-0.0507610216736793,0.0204580165445804,47023001
417,0.0271394550800323,0.0244664624333381,-0.0152192022651433,-0.006096402183175,0.0016970727592706,-0.0056022396311163,-0.0238640382885932,0.0013122787143576,-0.0422222875058651,-0.0137870479375123,15166421
418,0.0271394550800323,0.0244664624333381,-0.0152192022651433,-0.006096402183175,0.0016970727592706,-0.0056022396311163,-0.0238640382885932,0.0013122787143576,-0.0422222875058651,-0.0137870479375123,7172770
419,-0.0163708124309778,0.001714521087706,-0.017818009480834,-0.0017482549883425,-0.0017274769488722,8.77289567142725e-05,0.0306216664612293,-0.0155230978699546,0.0042144544422626,0.0021141457837074,188320861
420,-0.0223434846848249,-0.0156825147569179,-0.0284449756145477,-0.0045501179993152,-0.0039743492379784,-0.0013953456655144,0.0453480631113052,-0.0078708487659741,0.0008018468506634,0.0019703821744769,45859764
421,0.0271394550800323,0.0244664624333381,-0.0152192022651433,-0.006096402183175,0.0016970727592706,-0.0056022396311163,-0.0238640382885932,0.0013122787143576,-0.0422222875058651,-0.0137870479375123,172571530
422,-0.0327473692595958,-0.0275293216109275,-0.0279778651893138,-0.0031124586239457,-0.0056689255870878,0.0002266545780003,0.049762774258852,-0.0165601711674451,0.0050204070284962,0.0104464432224631,91069114
423,-0.0040879193693399,-0.0175191201269626,-0.0076872054487466,0.0003185443347319,-0.0043369578197598,0.000658135395497,-0.0297461301088333,-0.0375247307865672,-0.0386712551116943,0.0213985256850719,52361126
424,-0.000358618563041,0.0228732470422983,-0.0056909038685262,-0.0002877777442336,-0.0007417305605486,0.0022318104747682,-0.0147360442206263,-0.0237133806008307,-0.0105045866221189,0.0001536048948764,1134720
425,-0.0028774989768862,-0.0034248337615281,-0.0172946695238351,0.0014196919510141,-0.0038365919608622,0.0013239851687103,0.0074957013130187,-0.0027396658169649,-0.0078120771795511,0.0123798158019781,201234592
426,-0.009808194823563,-6.30570575594902e-05,-0.0188097767531871,-0.007707739714533,-0.0062615536153316,-0.0072802463546395,-0.0036949256900697,-0.0254505494327735,-0.0107156969606876,0.0044006835669279,14966853
427,0.0003067436628043,-0.0097253900021314,-0.0085349082946777,0.0021599875763058,-0.0006413133232854,0.0028128975536674,0.0011276755249127,-0.0014662562568029,-0.0091124484315514,0.0123232100158929,57519725
428,-0.0207551997154951,-0.0279116034507751,-0.0216853339225053,0.0027726420667022,-0.0027037397958338,0.0032965186983346,0.0399214029312133,-0.013170525327948,0.0023188227787613,0.0190068315714597,50031549
429,-0.0258779749274253,-0.0185502935200929,-0.0293896738439798,-0.0044396705925464,-0.0043794508092105,-0.0010948535054922,0.0502917915582656,-0.0085267883704762,0.0038749985396862,0.0030959108844399,66464625
430,0.0032056847121566,0.0193865168839693,-0.0151017736643552,-0.0072055151686072,-0.0060213105753064,-0.0042724660597741,-0.0195574238896369,0.0156296796403341,-0.0182156115770339,0.0118354652076959,68748784
431,-0.0031881667673587,-0.0198577176779508,0.000801394926384,0.0059606879949569,-0.0010794303379952,0.0064922091551125,-0.0141688995063304,-0.019407428678553,-0.0245459638535976,0.0304999835789203,55422033
432,-0.020693365484476,-0.0039597041904926,-0.0225485190749168,-0.0081674894317984,-0.0061620092019438,-0.0062231812626123,0.0198330916464328,-0.0122373500395248,0.0039285742677748,0.0005040175747126,58017337
433,0.0049453368410468,-0.0128895621746778,0.0010285369353368,0.0040025301277637,-0.0020610797218978,0.0035455212928354,-0.0061464458703994,-0.0037653550458359,-0.0303823910653591,0.0367591008543968,51887928
434,-0.0364814586937427,-0.0271536577492952,-0.0322237834334373,-0.0041083227843046,-0.0055947555229067,-0.0001933784224092,0.0651229545474052,-0.0104946022421039,0.0130944540724158,0.0064725060947239,96232449
435,0.023287184536457,-0.0182177331298589,-0.0037041141185909,0.0076674539595842,-0.0043404316529631,0.0059564020484685,-0.0399758704006671,-0.0194232636978487,-0.0262786336243152,0.0292796045541763,206810298
436,0.038162924349308,-0.0318282507359981,0.0079191531985998,0.0076877973042428,-0.0034430976957082,0.0045954226516187,-0.0739071741700172,0.0065124834453815,-0.0473408624529838,0.0307728946208953,173351101
437,-0.0210402682423591,0.0421049818396568,0.0044176178053021,-0.0198707766830921,0.0048035252839326,-0.0144138261675834,0.036175463348627,-0.001573578696666,0.0549491494894027,-0.0279828608036041,47445127
438,0.0086593935266137,-1.79363414645195e-05,-0.0130218975245952,0.0015556889120489,0.0024158707819879,0.0040167123079299,0.0105030331760644,-0.0094773269260199,-0.0107885226607322,0.014256490394473,76920769
439,-0.0209307186305522,-0.0228320229798555,-0.0236342549324035,-0.0032144642900675,-0.0042792684398591,-0.0008300677873194,0.0413716398179531,-0.0089018551663022,0.001511956565082,0.0039273090660572,6754190
440,0.0125327184796333,0.0391154289245605,-0.0018352498300373,-0.0054987994953989,0.0036574185360223,-0.0048510893248021,-0.0122911874204874,-0.0101130652367602,-0.0078412368893623,-0.0131273260340094,19933028
441,-0.0188559163361787,0.0046748789027333,-0.0100376866757869,-0.0137640200555324,-0.007349326275289,-0.0099364574998617,-0.0028754440136253,-0.003521486767432,-0.0022222022525966,-0.0120252957567572,191085080
442,0.0117234196513891,0.0128904767334461,0.0068928082473576,0.00165374239441,-0.0024547982029616,0.0061400001868605,-0.0184998270124197,-0.0133646987402846,-0.0387727841734886,0.0478537864983081,34326285
443,0.0164331812411546,0.0516396760940551,0.0077209509909152,0.0027767361607402,0.004933766555041,0.0009961279574781,-0.0270959381014108,-0.0257050907010695,-0.008325788192451,-0.0045328480191528,12928037
444,0.0080857397988438,0.0020747282542288,0.0080727199092507,0.002614232013002,0.0009411596693098,0.0012851651990786,-0.0170150361955165,-0.0146296269475443,-0.0208512842655181,0.0213513802736997,86177534
445,0.0066212359815835,-0.0064773065969347,-0.0154930716380476,-0.0031895437277853,-0.003536332398653,-0.001653496408835,-0.0078762834891676,0.0222733306513287,-0.0223883800208568,0.0072830724529922,192078523
446,0.0230197198688983,0.0242236629128456,0.0048744222149252,-0.0090651335194706,-0.0113731399178504,-0.0075270170345902,-0.0608652010560035,0.0100118877202046,-0.0156925618648529,0.002200620714575,200400506
447,-0.0128039978444576,0.0146039985120296,-0.0070373518392443,-0.0099434461444616,0.0012195693561807,-0.0039927447214722,0.0105482842773199,-0.0041662033552199,0.0356751643121242,-0.009020859375596,879768
448,0.0097911665216088,0.0012998328311368,-0.0111256521195173,0.0028483886271715,-0.0050605311989784,-0.0037935534492135,-0.0087405173107981,-0.0134322245526503,-0.0135307656601071,-0.0079431645572185,38106215
449,-0.0119711328297853,-0.0002102048601955,-0.0132783306762576,0.0023095915094017,-0.0101332198828458,-0.0034854435361921,-0.017113097012043,-0.0204877029965998,-0.0188275650143623,0.011038789525628,98506381
450,-0.0146655635908246,-0.0136854127049446,-0.0336331017315387,0.0008259879541583,-0.00524339126423,0.0037542257923632,0.0099213561043143,-0.0165016388971444,-0.0041328612715005,0.0103639950975775,195696760
451,0.0389671102166175,-0.0177759826183319,-0.016830526292324,-0.0023066906724125,-0.0076972879469394,-0.0015499296132475,-0.0328223332762718,-0.0176005627983327,-0.0489665605127811,0.0220607947558164,1058759
452,0.0118784001097083,0.0189790725708007,-0.0313966982066631,0.0037084873765707,-0.0060855015181005,0.0059723420999944,-0.0145887378603219,0.0158843124321228,-0.0200030282139778,0.0203629918396472,77580268
453,-0.0375527883548395,0.0264076140114295,0.0209870017225297,0.0099536160972064,0.0048622501377837,0.0010728558433619,0.0315333547188173,0.078367390909527,-0.0016804830790184,-0.0111939219349822,84470282
454,-0.0008192639797925,0.0143467336893081,0.0153801217675209,0.0002281588385812,0.0028849984519183,0.0048511498607695,-0.0082091940566897,0.0250318516898491,-0.0483010224997997,0.0312684848904609,64177119
455,0.0011799621861428,-0.0300124995410442,-0.0182452257722616,-0.0010732149239629,-0.0065459823235869,-0.0013314457610249,-0.0065724425949156,-0.0131192861523121,-0.0163768790662288,0.0134882256388664,88880575
456,0.0288071427494287,-0.0433913022279739,-0.0047001922503113,0.0042737699113786,-0.0127670979127287,0.004105070605874,-0.0600242502987384,0.0056218423403814,-0.0350781455636024,0.0335529334843158,73392382
457,0.027139451354742,0.024466460570693,-0.0152192041277885,-0.0060964017175138,0.0016970715951174,-0.0056022382341325,-0.0238640382885932,0.0013122777785673,-0.0422222875058651,-0.0137870460748672,194294684
458,-0.0250695012509822,0.0059403916820883,-0.0243588760495185,-0.0195407010614871,-0.0131593998521566,-0.0182837415486574,-0.0096860621124506,-0.02685239359123,-0.0163176637142896,-0.0137666221708059,74945071
459,0.035531036555767,0.0302645023912191,0.0160430800169706,0.0281094051897525,0.0159020982682704,0.0249328892678022,-0.0316385775804519,0.0121164996256999,-0.0216209422796964,0.0154707711189985,126242405
460,0.0016910848207771,0.0038184183649718,-0.0220210328698158,-0.0053011700510978,-0.0012196581810712,-0.0034386925399303,0.0117307566106319,-0.0034104738951873,-0.0200955886393785,-0.0056832237169146,99092671
461,-0.0078472653403878,-0.0199489574879407,-0.0144402999430894,0.0005993375089019,-0.0049541741609573,0.0012797452509403,-0.0087519064545631,-0.0339093537582552,-0.0211905092000961,0.0172653757035732,5099843
462,0.0271394550800323,0.0244664624333381,-0.0152192022651433,-0.006096402183175,0.0016970727592706,-0.0056022396311163,-0.0238640382885932,0.0013122787143576,-0.0422222875058651,-0.0137870479375123,18860704
463,-0.0291650425642728,0.0029925864655524,-0.0120689207687973,-0.0175202991813421,-0.0083961160853505,-0.0145356133580207,0.0032469183206558,0.0147478812975592,-0.0105542866513133,-0.0158893167972564,49065011
464,-0.027875330299139,0.0188871845602989,-0.0073736179620027,-0.0106215802952647,-0.0118365138769149,-0.0117451129481196,-0.0174854174256324,-0.0288932769587637,-0.009744587354362,-0.0022250679321587,60623703
465,0.0040793381631374,-0.0656410530209541,-0.0090034762397408,0.0004284055903553,-0.0047842701897025,-0.0029018509667366,0.0343214720487594,0.1020823862566042,-0.0124288331717252,0.0301807131618261,102481856
466,0.016136409714818,-0.0314870774745941,0.0029839240014553,0.0064128767699003,-0.0061580669134855,0.0036981715820729,-0.0445790663361549,0.0006995733626485,-0.0334770493209362,0.0266291238367557,44394807
467,-0.0170956850051879,0.0004609366878867,-0.0285301320254802,-0.0178247019648551,-0.0126764206215739,-0.0128538208082318,0.0110964542254805,-0.016759412106377,0.016021940857172,-0.0164924319833517,98350726
468,-0.0034489757381379,-0.0232779495418071,-0.0019723689183592,-0.0029163169674575,-0.0099350530654191,0.0010432791896164,-0.0130950594320893,-0.0377787905387369,-0.0162846930325031,0.0293266102671623,18682509
469,0.0257332873509582,-0.0091234810554331,-0.0217412722115497,-0.0242811617880705,-0.0181529824017053,-0.0072522302423753,0.0002258730806563,-0.0856357498133864,-0.0408034201129919,0.0051380177740107,4594647
470,-0.0237572751939296,-0.0168296284973621,-0.0288228597491979,-0.0045059383846819,-0.004136390518397,-0.0012751480098813,0.0473255515098571,-0.0081332253041548,0.0020311055704951,0.0024205944500863,54107666
471,-0.0046710036695003,-0.0013435943983495,-0.0237214937806129,-0.0051023624837398,-0.0019488430116325,-0.0028978073969483,0.0206294581294059,-0.0045911617638731,-0.0145639162510633,-0.0036572702229022,186443103
472,-0.0291055683046579,-0.0125152375549077,-0.0219056475907564,-0.0072623798623681,-0.0069772228598594,-0.0044197011739015,0.0409561470150947,6.219615117005698e-05,0.0106323007494211,0.0010747967753559,97759716
473,0.0271394550800323,0.0244664624333381,-0.0152192022651433,-0.006096402183175,0.0016970727592706,-0.0056022396311163,-0.0238640382885932,0.0013122787143576,-0.0422222875058651,-0.0137870479375123,7843922
474,0.0134863145649433,0.0240926388651132,-0.0157061927020549,-0.0045712618157267,-0.0002859598025679,-0.0040825782343745,-0.0119579182937741,-0.0122539101404326,-0.029956916347146,-0.007970686070621,124845535
475,0.0271394550800323,0.0244664624333381,-0.0152192022651433,-0.006096402183175,0.0016970727592706,-0.0056022396311163,-0.0238640382885932,0.0013122787143576,-0.0422222875058651,-0.0137870479375123,7445076
476,0.0314267165958881,-0.0183949023485183,-0.0224329624325037,0.0101637123152613,0.0018247517291456,0.0094886012375354,-0.0094353500753641,-0.0126649006351794,-0.0294605605304241,0.0218959711492061,3855634
477,0.0201927404850721,0.0117020895704627,0.0244529619812965,0.0055784289725124,0.0043646055273711,0.007972190156579,0.0047803344205021,0.0258556973936851,-0.0270035415887832,0.0505050644278526,17110600
478,0.0123517839293393,0.0041444147922652,0.0521762737343679,0.0164482144430347,0.012333151277974,0.0108714989988382,-0.006865050527888,0.035570168320337,0.0484067192895249,0.0212568607762428,191388858
