,security,conformity,tradition,benevolence,universalism,self-direction,stimulation,hedonism,achievement,power,song_id
0,0.0122387120500206,-0.0081884143874049,-0.0074152913875877,0.0002875635400414,-0.0087225334718823,0.0026184259913861,-0.0276550967246294,0.0027584941126406,-0.0310073308646678,0.0278971754014492,4116102
1,-0.0100525664165616,-0.019990062341094,0.0074350656941533,-0.0070707648992538,-0.0099537065252661,-0.0022544763050973,0.0022996217012405,0.0024262883234769,-0.0090590734034776,0.0157866347581148,80257632
2,0.0024786707945168,-0.0396350920200347,0.0035173310898244,0.0026675432454794,-0.0081074349582195,0.0064014606177806,0.0179959759116172,0.0083602732047438,-0.0099565554410219,0.0133555876091122,2241308
3,0.0156078226864337,-0.0476008728146553,-0.0229273717850446,0.000573206692934,-0.0137454010546207,0.001439738785848,-0.0190622918307781,-0.0034256184007972,-0.0315635167062282,0.0168187916278839,204336669
4,-0.0370027543018086,0.0537537972676221,0.0103658391207996,0.0013497201137674,0.012704627052501,-0.0021075532559767,0.0403921034664665,0.0055909151723177,-0.0070629223702076,0.0066319293512277,34952275
5,-0.0115747842937707,-0.0007568529108539,-0.0135390097275376,-0.0097480006515979,-0.0094632357358932,-0.0088433781638741,-0.0092879086732864,-0.0106484796851873,-0.0097006587311625,-0.0040005780756473,17390586
6,0.0029885577969253,-0.0098772505298256,0.0016138348728418,-0.0074079260230064,-0.0072082597762346,-0.0086345542222261,-0.0136415800079703,-0.0063553694635629,-0.0018031670479103,-0.0194693561643362,9223300
7,-0.015522776171565,0.0167022738605737,0.0086071612313389,-0.0090454658493399,-0.0109217623248696,-0.0068962359800934,-0.0416567511856555,0.003272634698078,-0.0156242093071341,0.0176458861678838,149782763
8,0.0465686284005641,0.0284038819372653,0.0521726682782173,-0.000889808521606,0.0052709793671965,0.0120921293273568,0.0059591382741928,0.0157354101538658,-0.0365606695413589,0.0562618523836135,99962781
9,0.0045589655637741,0.0033878940157592,0.0043697357177734,0.0020967065356671,-0.0027500989381223,0.0060194674879312,-0.0167156122624874,0.0089446939527988,0.0047498270869255,0.0112673193216323,136930153
10,-0.0045207147486507,-0.0122734103351831,0.0043950304388999,-0.0047217989340424,-0.008740366436541,-0.0042443475686013,0.0038323476910591,-0.0066009722650051,-0.0005566161707974,0.0024115683045238,85912872
11,0.0431938105736781,0.0074722698869904,0.0356169024961022,0.0083438231960295,0.0041352474785224,0.0137115603217842,-0.0004624369261914,0.0060757984876872,0.0014038926658948,0.0113609176802504,57005765
12,-0.015522776171565,0.0167022738605737,0.0086071612313389,-0.0090454658493399,-0.0109217623248696,-0.0068962359800934,-0.0416567511856555,0.003272634698078,-0.0156242093071341,0.0176458861678838,99567690
13,0.0453374497592449,-0.0332118161022663,-0.016143200919032,0.0346415862441062,0.0007441663183271,0.0247909016907215,-0.0265747271478176,0.0271270722150802,-0.0239823088049888,0.0661051571369171,151085454
14,-0.0134449442848563,0.0027648704126477,0.0081619527190923,-0.0082953851670026,-0.0105540510267019,-0.0051330868154764,-0.0249601416289806,0.0029511549510061,-0.013130472972989,0.0169396549463272,134245347
15,-0.0013042211066931,-0.008703326806426,0.0146867111325263,-0.0056215412914752,-0.0032005438115447,0.0042043412104249,0.0348382145166397,0.0052220686338841,0.0183179900050163,0.0078796539455652,16074172
16,0.0149992387741804,0.0279833525419235,0.0086680836975574,0.0051288614049553,0.0026782220229506,0.0081767458468675,-0.0051074838265776,0.01160938013345,0.0234882347285747,0.007516992278397,61210999
17,-0.0046320622786879,-0.0082420259714126,-0.0012171977432444,0.0052963024936616,-0.0035570522304624,0.0021883500739932,-0.0387050956487655,-0.0005454200436361,-0.0171652603894472,-0.0007077986374497,102814436
18,0.0155530348420143,-0.0183945689350366,-0.0224222391843795,0.0029070302844047,-0.0067872982472181,0.0060953302308917,-0.0154389943927526,0.0113914757966995,-0.0291286744177341,0.0332276970148086,205113268
19,0.0223746728152036,-0.0005614021793007,-0.0075294617563486,0.0045663430355489,-0.0035845763050019,0.0006475663976743,-0.0223607718944549,0.0075029525905847,-0.0391790568828582,0.0345300175249576,99526020
20,-0.015522776171565,0.0167022738605737,0.0086071612313389,-0.0090454658493399,-0.0109217623248696,-0.0068962359800934,-0.0416567511856555,0.003272634698078,-0.0156242093071341,0.0176458861678838,152156851
21,0.0234789885580539,-0.0183328036218881,-0.0117187090218067,0.0026544558349996,-0.0049161678180098,0.004242873750627,-0.0202067531645298,0.00286007206887,-0.0226080268621444,0.0307789072394371,17997657
22,-0.0067446934990584,-0.021291334182024,-0.0269285067915916,-0.0017011256422847,-0.0124575393274426,0.0009627916151657,-0.0254620462656021,-0.0007615293725393,0.0015227578114718,0.0251792669296264,55713838
23,-0.015522776171565,0.0167022738605737,0.0086071612313389,-0.0090454658493399,-0.0109217623248696,-0.0068962359800934,-0.0416567511856555,0.003272634698078,-0.0156242093071341,0.0176458861678838,97622225
24,0.0176204927265644,0.028128158301115,0.0369632802903652,-0.0034573366865515,0.0018866419559344,-0.0058432295918464,0.0234417393803596,-0.0099560115486383,0.005281651392579,0.0010852185077965,114553438
25,0.0059345113113522,-0.0537142716348171,-0.0109891211614012,0.0025133900344371,-0.0186771024018526,0.0005125304451212,-0.0602398961782455,-0.0035054595209658,-0.058461207896471,0.0316247157752513,45138126
26,-0.012866043485701,-0.0223186183720827,0.0044894837774336,-0.0009890351211652,-0.0105554312467575,-0.002666488289833,-0.017345743253827,-0.0035149725154042,-0.0453767105937004,0.0174760520458221,51897534
27,0.000370324589312,-0.0368472412228584,0.0018345508724451,-0.0007542020175606,-0.0145779885351657,-0.0028501618653535,-0.0223267078399658,-0.0009197639301419,-0.0308753065764904,0.0190891660749912,74451241
28,-0.015522776171565,0.0167022738605737,0.0086071612313389,-0.0090454658493399,-0.0109217623248696,-0.0068962359800934,-0.0416567511856555,0.003272634698078,-0.0156242093071341,0.0176458861678838,6629722
29,0.0079660657793283,-0.0215876623988151,-0.0146757643669843,0.0038400581106543,-0.0097047332674264,-0.0013008659007027,-0.0333017744123935,0.0017219652654603,-0.037026572972536,0.0181057918816804,111234596
30,0.0186616014689207,0.0194376334547996,0.0176852028816938,0.0075282077305018,0.0031848207581788,0.0096703944727778,-0.007936387322843,0.0117985820397734,0.0084144948050379,0.0196827426552772,126273707
31,0.0109783001244068,-0.0299369171261787,0.0004747766652144,0.0104765547439455,-0.0038490574806928,0.0097331563010811,-0.0171201042830944,0.0106590203940868,-0.0084648691117763,0.0255477037280797,99567684
32,0.0213740393519401,0.0050109685398638,0.0018814580980688,0.0042623057961463,-0.0045197857543826,0.0096890665590763,-0.0002373048337176,0.0077988258562982,0.0116325356066226,0.0228888280689716,102339234
33,-0.0135973682627081,-0.0081395907327532,-0.0079874796792864,-0.0026978240348398,-0.0057518454268574,-0.0041163153946399,-0.0168366450816392,-0.002237765584141,2.4000764824450016e-05,0.0030843121930956,1632500
34,0.0021642134524881,-0.0391970165073871,0.0236853454262018,0.0164610035717487,0.0010463511571288,0.0055943108163774,-0.0133143765851855,0.0172686278820037,-0.0359958447515964,0.0470235161483287,35094579
35,0.0168032457178279,0.031759280935401,-0.0201253528107843,-1.683735030799259e-05,0.0109883480786901,-0.0033977009312548,0.019170934749886,0.0033771747425335,0.0132794533091721,-0.0199201551346737,16843548
36,0.0065798694267869,-0.0253412760794162,-0.0056086080148816,-0.0080556683242321,-0.0177047401666641,-0.0068260170519351,-0.025691445916891,-0.0021199639886617,-0.0294386111199855,0.023608149960637,106839634
37,0.0236595291644334,-0.0413345173001289,0.0104890977963805,0.0111801717430353,-0.0063988473266363,0.0105938203632831,-0.0451225787401199,0.0100555419921875,-0.0473213009536266,0.0415359660983085,134245346
38,-0.00884033087641,-0.0281213149428367,0.0071753324009478,-0.0066331592388451,-0.009739177301526,-0.0012258347123861,0.0120406374335289,0.0022387322969734,-0.0076041971333324,0.0153746167197823,5635960
39,0.0058226007968187,-0.0306126866489648,-0.0101810097694396,-0.0018225458916276,-0.0085339527577161,-0.0044650416821241,-0.0055717350915074,-0.0009572766721248,-0.012496574781835,0.0039328671991825,142836663
40,-0.0066082440316677,-0.0475472249090671,0.0046146595850586,0.0021983766928315,-0.0062624802812933,0.0057878936640918,0.0202561318874359,0.0041995677165687,-0.0192203372716903,0.0158062372356653,152156857
41,-0.011498250067234,0.0238668788224458,0.018117755651474,-0.0062261126004159,0.0049978261813521,0.0047307470813393,-0.0197032392024993,-0.0081666391342878,0.0087938020005822,0.001383044058457,84371480
42,-0.0035209867637604,-0.0638017058372497,0.0060355607420206,-0.0047129220329225,-0.0087978187948465,0.003287908853963,0.0547847300767898,0.0014157240511849,-0.0012201149947941,0.0135666448622941,46337905
43,0.0317056998610496,-0.0727114453911781,0.0124176871031522,0.0124246533960103,-0.0021767830476164,0.0139680402353405,-0.0453589335083961,0.0101637644693255,-0.0464317165315151,0.0474183559417724,828136
44,-0.0132515570148825,-0.0040141581557691,-0.0067328377626836,-0.0017063621198758,-0.0057349214330315,-0.0047171944752335,-0.0114616006612777,-0.005755016580224,-0.0105323130264878,0.0004854341968894,64471701
45,0.0131410599666476,0.0080826066420984,-0.0306583525090013,-0.0007636032273837,-0.0143997061268707,-0.0048372644498642,-0.0556672197356709,-0.0059012527902108,-0.0342653399711557,-0.0225138127775988,80988232
46,-0.0007415006402879,-0.0168337076902389,-0.0233503803610801,-0.0021086803171783,-0.0152962831780314,-0.0003863917081616,-0.012030747719109,0.0062537877820432,-0.0259458217769861,0.0076127843931317,76983686
47,0.0690485090017318,-0.0230508148670196,0.015368316322565,0.0473330691456794,0.011022831313312,0.0422093942761421,-0.0658886209130287,0.045530866831541,-0.0587181709706783,0.0732134580612182,148763951
48,0.0041241189464926,-0.0090370029211044,-0.0003222676459699,0.0019792146049439,-0.0035872089210897,0.0003277179785072,2.84068810287863e-05,-0.0012071877717971,-0.0108151687309145,0.0102930944412946,139654441
49,-0.0172017775475978,0.0170320142060518,0.0529204308986663,-0.000996543560177,-0.0086375148966908,-0.0239657517522573,0.0448451451957225,-0.0214641876518726,9.947037324309348e-05,-0.0301044657826423,55441816
50,-0.0134449442848563,0.0027648704126477,0.0081619527190923,-0.0082953851670026,-0.0105540510267019,-0.0051330868154764,-0.0249601416289806,0.0029511549510061,-0.013130472972989,0.0169396549463272,2107983
51,0.0032028318382799,0.0629706382751464,0.0111489240080118,0.0175206549465656,0.0093734040856361,0.0022716550156474,-0.0463656447827816,0.0126802753657102,0.0168097931891679,0.0019606295973062,57005772
52,0.0386331602931022,0.004005760885775,0.0065597724169492,0.0208115130662918,0.002729533240199,0.0155030712485313,-0.0417005829513073,0.0167139340192079,-0.0387651436030864,0.0459430739283561,2565059
53,0.0175484549254179,-0.0382105447351932,-0.0039339163340628,0.0130096301436424,-0.0046519953757524,0.0118701513856649,0.0032978290691971,0.0136546995490789,-0.0138528626412153,0.0386158637702465,98114160
54,-0.0119803892448544,-0.0070588472299277,0.0078481454402208,-0.0077666947618126,-0.0102948723360896,-0.0038903385866433,-0.0131916012614965,0.0027245595119893,-0.0113727767020463,0.0164418816566467,49562778
55,0.0128327272832393,-0.0162461567670106,0.0002057412930298,0.0144147388637065,-0.0007536292541772,0.0098861474543809,-0.0054924497380852,0.0129539463669061,-0.0069524501450359,0.027661208063364,19226344
56,0.0082894628867506,-0.009311955422163,-0.0041475854814052,0.010105475783348,0.0105204824358224,0.0081234294921159,-0.0065445248037576,0.0118373278528451,0.0049185594543814,0.011099137365818,152156863
57,-0.0256453547626733,0.0454828403890132,0.0186669174581766,-0.0202590525150299,0.0014289766550064,-0.0178113877773284,0.0196240246295928,-0.0161750614643096,0.0027130038943141,-0.0445345267653465,136884961
58,-0.0015690140426158,-0.0299677364528179,-0.0097571611404418,0.0065375324338674,-0.0082811703905463,-8.928473107516766e-05,-0.0178159456700086,0.0077178855426609,-0.021688375622034,0.0267178621143102,1632495
59,-0.015522776171565,0.0167022738605737,0.0086071612313389,-0.0090454658493399,-0.0109217623248696,-0.0068962359800934,-0.0416567511856555,0.003272634698078,-0.0156242093071341,0.0176458861678838,1027136
60,0.0247237030416727,0.0412151627242565,0.0256406459957361,-0.0008803466334939,0.0059675462543964,0.0084668612107634,0.0162248685956001,0.013980976305902,0.0474784858524799,0.009526620618999,17326775
61,0.0089093120768666,-0.027664877474308,-0.0067798364907503,0.003866006154567,-0.0080111715942621,0.0016045927768573,-0.0163346845656633,0.0002065181033685,-0.0265542156994342,0.0128347473219037,2323034
62,0.0290993638336658,-0.0593288913369178,0.0068124155513942,0.0110729727894067,-0.0067425882443785,0.0100216967985033,-0.078270673751831,0.0074260905385017,-0.0585628822445869,0.0492366328835487,152997654
63,0.0063307490199804,-0.0417996868491172,-0.0085838958621025,0.0071253343485295,-0.0111995823681354,0.0072150146588683,-0.0583455115556716,0.007484536152333,-0.0482027381658554,0.0366177074611187,134245351
64,0.0139072174206376,-0.0171521976590156,-0.0133261056616902,-0.0029247265774756,-0.0177114009857177,-0.0010058230254799,-0.0399817787110805,0.0023879876825958,-0.0339286103844642,0.0258636325597763,59403627
65,-0.0140282223001122,0.0041053481400012,0.0070843934081494,-0.0038712655659765,-0.0088776787742972,-0.0026715430431067,-0.0352605544030666,0.0043731606565415,-0.0220855064690113,0.0178252588957548,113169861
66,-0.0113990781828761,-0.0109581043943762,0.0077235894277691,-0.00755684543401,-0.0101919965818524,-0.0033970614895224,-0.0085204048082232,0.0026346198283135,-0.0106751015409827,0.0162442959845066,56800868
67,-0.0035209830384701,-0.0638017058372497,0.0060355551540851,-0.0047129201702773,-0.0087978169322013,0.0032879072241485,0.0547847300767898,0.0014157254481688,-0.0012201140634715,0.0135666448622941,34373547
68,0.00140295852907,0.0167578104883432,0.0069765048101544,-0.0009560413891449,-0.001328338868916,-0.0017308067763224,-9.239674545824528e-05,0.0048960782587528,-0.0126473614946007,0.0233128778636455,3671199
69,0.0034723344724625,-0.0299357790499925,0.0087940245866775,0.0022465838119387,-0.0045192879624664,0.0037543619982898,-0.0017555395606905,0.0056511433795094,-0.0106686642393469,0.019820787012577,210971961
70,0.0127649512141942,-0.0079169739037752,0.0082014892250299,0.0010881680063903,-0.0023578871041536,0.0020527197048068,-0.0141187962144613,0.0033504164312034,-0.0177599843591451,0.0078013883903622,163661563
71,0.0049533508718013,-0.0206996165215969,-0.0034461971372365,0.0049027539789676,-0.0029502662364393,-0.0147183081135153,-0.0015207772376015,-0.0128938239067792,0.0144921140745282,-0.0324730649590492,57005722
72,-0.0002640755847096,-0.0700723528861999,0.0189195051789283,0.0194563046097755,-0.0036859940737485,0.0049469722434878,-0.0180729590356349,0.0169737860560417,-0.0555327124893665,0.0513780899345874,93918535
73,0.0015862518921494,-0.0006305733695626,-0.0264295004308223,-0.0008518449030816,-0.0156250465661287,-0.0013174486812204,-0.0334739387035369,0.0075011178851127,-0.0335745960474014,0.0093794167041778,49652179
74,0.01392706297338,-0.0243056192994117,0.0047311671078205,0.0037383283488452,-0.0077570308931171,0.0008261486655101,-0.0237046293914318,-7.862085476517677e-05,-0.0247498918324708,0.0225219372659921,188693345
75,-0.0069811372086405,-0.004312515258789,0.0033030151389539,-0.0038494379259645,-0.008357947692275,-0.0012921716552227,0.0046195853501558,0.003194288816303,0.0187924522906541,-0.0025732414796948,11100005
76,-0.0091250212863087,-0.0318225659430027,-0.0037649101577699,0.0057107266038656,-0.0036170566454529,0.006141603924334,-0.0004189349710941,0.0060133896768093,-0.0339267738163471,0.0406449995934963,17086876
77,-0.0100496858358383,-0.0294279605150222,0.0030307485722005,0.0099025731906294,-0.0034362783189862,0.0085746869444847,-0.0182337444275617,0.0073027815669775,-0.039285622537136,0.0183027703315019,102112552
78,0.0051345527172088,-0.0464776456356048,0.0072116828523576,-0.0034960163757205,-0.0075573776848614,0.0041552321054041,0.0484763123095035,0.0020497888326644,-0.005286288447678,0.0153033472597599,68242601
79,-0.001820069970563,-0.0108186099678277,-0.0009255420882254,-0.0017002023523673,-0.0068803718313574,0.0024789995513856,-0.0153587833046913,0.0117513742297887,-0.0179207939654588,0.0042029279284179,86451188
80,0.0196210369467735,-0.0029488690197467,-0.0030584298074245,0.0211350731551647,-0.0059482580982148,0.0162911638617515,-0.0444093868136405,0.0242466814815998,-0.0269109066575765,0.011833980679512,17612683
81,-0.0096773699004722,-0.0076032625312193,0.0093174272754887,0.0092662023234363,0.0088216714830295,0.012209921796611,0.0022346868996742,0.0107447657028847,0.0102884285323576,-0.0055643388460965,59543419
82,0.0145522840321064,-0.0233565159142017,-0.0099738352000713,-0.000547400675714,-0.0096824411302804,0.0014982506399974,-0.0472577139735221,-0.0007651565829291,-0.0349620692431926,0.0134578421711921,124205317
83,0.0049065840430557,0.0480303764343261,-0.0125462841242551,-0.0076721934601664,0.005635087378323,-0.007268373388797,-0.0227509047836065,-0.0130354184657335,-0.0071449484676122,-0.0372199714183807,195065492
84,-0.0134449433535337,0.0027648694813251,0.0081619527190923,-0.0082953851670026,-0.0105540510267019,-0.0051330868154764,-0.0249601416289806,0.0029511549510061,-0.013130472972989,0.0169396549463272,57544795
85,0.0113496109843254,-0.0306327175348997,0.0134350303560495,-0.0024874450173228,-0.0019262372516095,0.0006482694298028,0.0056926105171442,0.0019420745084062,-0.0185946319252252,0.0183481704443693,85345213
86,0.0059802304022014,-0.0078294342383742,0.0025132298469543,-0.0009247189154848,-0.0023961942642927,0.0032673389650881,-0.0160363428294658,0.0027950038202106,-0.003542796941474,-0.0057014841586351,14469100
87,0.0078975912183523,-0.0110618378967046,0.0099332500249147,0.0097365751862525,-0.0006048583891242,0.0060535543598234,-0.0243980158120393,0.0102646872401237,-0.0122072072699666,0.0212998893111944,5315847
88,-0.0079312352463603,0.009471284225583,-0.0234964378178119,0.0025062761269509,0.0054603470489382,-0.0041664084419608,0.0687606260180473,-0.0084440559148788,0.038941204547882,0.0207184888422489,134245359
89,-0.0035209846682846,-0.0638017058372497,0.0060355579480528,-0.0047129201702773,-0.0087978178635239,0.0032879086211323,0.0547847300767898,0.0014157257974147,-0.0012201205827295,0.0135666448622941,99480601
90,0.0086606033146381,0.0122273154556751,-0.0069604525342583,-0.0039400407113134,-0.0072689922526478,0.0022429565433412,-0.030461024492979,-0.004022117704153,-0.0395282618701458,0.0326162241399288,46178447
91,0.0011489004828035,0.0578956380486488,0.0108701223507523,0.0146067291498184,0.0071473116986453,0.001266065519303,-0.0458491593599319,0.0116483913734555,0.0132522396743297,0.0036810797173529,60637252
92,0.014417452737689,0.0980105996131897,0.0402790084481239,-0.0119136776775121,0.0124399745836853,0.0102845132350921,0.0570610128343105,0.0131690027192235,0.099697545170784,-0.0131753906607627,67809135
93,0.0032028318382799,0.0629706382751464,0.0111489240080118,0.0175206549465656,0.0093734040856361,0.0022716550156474,-0.0463656447827816,0.0126802753657102,0.0168097931891679,0.0019606295973062,103553857
94,-0.015522776171565,0.0167022738605737,0.0086071612313389,-0.0090454658493399,-0.0109217623248696,-0.0068962359800934,-0.0416567511856555,0.003272634698078,-0.0156242093071341,0.0176458861678838,200750991
95,-0.015522776171565,0.0167022738605737,0.0086071612313389,-0.0090454658493399,-0.0109217623248696,-0.0068962359800934,-0.0416567511856555,0.003272634698078,-0.0156242093071341,0.0176458861678838,181695848
96,-0.0119803883135318,-0.0070588462986052,0.0078481454402208,-0.0077666947618126,-0.0102948723360896,-0.0038903385866433,-0.0131916012614965,0.0027245595119893,-0.0113727767020463,0.0164418816566467,7308736
97,0.020717067644,-0.0285116769373416,0.004720436874777,0.0106808831915259,-0.0027286771219223,0.0096166292205452,-0.01106992457062,0.0078650405630469,0.0016174978809431,0.0284942295402288,76169655
98,0.0002723452635109,-0.0151530792936682,-0.0163398403674364,0.0041784439235925,-0.0125965755432844,-0.0024442542344331,-0.0488232783973217,-8.048745803534985e-05,-0.0495678558945655,0.0145055968314409,17614637
99,0.0021940020378679,-0.0280411913990974,0.0162420701235532,0.0029511891771107,-0.0098495539277791,-0.0023362257052212,-0.0007467567920684,0.0045818523503839,-0.0354409664869308,0.0269714780151844,129997203
100,0.0406257510185241,-0.0465929023921489,-0.0188793912529945,0.0141107067465782,-0.0116911847144365,0.0089289685711264,-0.0583019144833087,0.005389867350459,-0.0430702231824398,0.0351113639771938,86981001
101,0.0048073874786496,0.006445312872529,0.0058269584551453,0.0024557949509471,-0.0010377108119428,0.0059010749682784,-0.0167265590280294,0.0099362544715404,0.0032348590902984,0.0136697441339492,178303212
102,0.0280821900814771,-0.0036734591703861,0.0194246657192707,0.015903478488326,0.0107965543866157,0.0176061149686574,-0.0027214786969125,0.0151199745014309,0.0017327934037894,0.0264981761574745,58693284
103,0.0051835267804563,-0.0211423374712467,0.0015065281186252,0.0015867887996137,-0.0121096316725015,0.0003374068764969,-0.0283490549772977,-0.0020264734048396,-0.0347745269536972,0.0435434989631176,203148074
104,5.798530764877796e-06,-0.0239416100084781,-0.0039001889526844,-0.0013320741709321,-0.0081502329558134,0.0019427170045673,-0.0012799543328583,0.0080416779965162,-0.0177295170724391,0.0007809281814843,17516504
105,-0.0093183768913149,-0.0350982211530208,-0.0503602549433708,-0.0202095285058021,-0.0284102503210306,-0.0172800458967685,0.009577639400959,-0.0272304844111204,-0.0202158335596323,-0.0175281669944524,51846914
106,-0.0059000793844461,-0.0147431772202253,0.0076618734747171,-0.0011069502215832,-0.0056802472099661,0.0003512892872095,0.0047351522371172,0.0043534967117011,-0.0032263493631035,0.0126525005325675,212958532
107,-0.0058291857130825,0.0121744628995656,-0.0030949064530432,-0.0069606532342731,-0.0027862165588885,-0.0035537579096853,-0.0055953059345483,-0.0052684261463582,0.0070919129066169,-0.0047301449812948,2135522
108,0.0191668104380369,-0.0049416958354413,0.0198214277625083,0.0033371676690876,-0.0044609643518924,0.0057023139670491,-0.0193895809352397,0.0073403627611696,0.0022207752335816,0.0224813539534807,90910059
109,-0.0140442363917827,-0.0137907117605209,0.0033829065505415,-0.0030623611528426,-0.0045415619388222,-0.0015238169580698,0.0275965314358472,-0.0019994503818452,0.0072687109932303,0.0138055812567472,1629358
110,-0.0134449442848563,0.0027648704126477,0.0081619527190923,-0.0082953851670026,-0.0105540510267019,-0.0051330868154764,-0.0249601416289806,0.0029511549510061,-0.013130472972989,0.0169396549463272,134245357
111,-0.0100525664165616,-0.019990062341094,0.0074350656941533,-0.0070707648992538,-0.0099537065252661,-0.0022544763050973,0.0022996217012405,0.0024262883234769,-0.0090590734034776,0.0157866347581148,2037677
112,-0.0060065630823373,0.0036211195401847,-0.0318173393607139,-0.0115088103339076,-0.0027822977863252,0.0016932269791141,0.0419282019138336,-0.0022009429521858,-0.029131693765521,0.0127860605716705,71041493
113,-0.0003133055870421,0.015873460099101,0.0055336663499474,-0.0005975305102765,0.000481282826513,0.0023938023950904,-0.0199744086712598,0.0119081027805805,0.0026165698654949,-0.0057701207697391,99470365
114,-0.00758364982903,-0.0365507453680038,0.0069060614332556,-0.0061795054934918,-0.0095167830586433,-0.0001594701316207,0.0221388600766658,0.0020442977547645,-0.0060959635302424,0.0149474879726767,1261561
115,0.0072748740203678,0.08219975233078,0.0302062649279832,-0.0127010941505432,0.00708185788244,0.0063671069219708,0.0417795181274414,0.0099442098289728,0.0761853232979774,-0.0082554966211318,41571963
116,-0.005028560757637,-0.035564437508583,-1.830398105084896e-06,0.003032264765352,-0.0097930338233709,0.0033207274973392,-0.0233762226998806,0.0026625343598425,-0.0363634340465068,0.0215304065495729,51113095
117,-0.0035209830384701,-0.0638017058372497,0.0060355551540851,-0.0047129201702773,-0.0087978169322013,0.0032879072241485,0.0547847300767898,0.0014157254481688,-0.0012201140634715,0.0135666448622941,76169642
118,0.0071435328572988,-0.002861579414457,-0.0075358310714364,-0.0055943401530385,-0.0062312455847859,-0.0037884102202951,-0.0132546704262495,-0.0015129055827856,-0.0207710303366184,0.0080278059467673,109965166
119,-0.0035209830384701,-0.0638017058372497,0.0060355551540851,-0.0047129201702773,-0.0087978169322013,0.0032879072241485,0.0547847300767898,0.0014157254481688,-0.0012201140634715,0.0135666448622941,84279791
120,0.0039257896132767,0.0695185288786888,0.0291805528104305,-0.0109085980802774,0.0042535504326224,0.0042640310712158,0.0224683117121458,0.0097011160105466,0.0592864677309989,-0.0023749968968331,194171766
121,0.0006221393123269,-0.0318185538053512,-0.0174957104027271,0.0121613070368766,-0.0100797740742564,0.0067662326619029,-0.0497719123959541,0.0116105852648615,-0.0442767515778541,0.0365737602114677,18271679
122,-0.0002920653205364,-0.0101055800914764,0.0072520663961768,0.0002248809905722,-0.0047879288904368,-0.0017288932576775,-0.0058806426823139,0.0051955403760075,-0.0211287997663021,0.0300887804478406,58470789
123,0.0107922554016113,0.0724111646413803,0.0342800244688987,-0.0106058344244956,0.0086875269189476,0.0087893139570951,0.0527286678552627,0.0112233683466911,0.0809724479913711,-0.0082689058035612,4194332
124,0.0020311176776885,-0.0155710568651556,0.0159258041530847,0.0044714845716953,-0.0078982431441545,-0.0022283094003796,-0.0091757792979478,0.005536023993045,-0.0308379791676998,0.0246432572603225,18167326
125,0.0089869238436222,-0.0224402658641338,0.004445363767445,-0.0017137334216386,-0.0008995466632768,0.0040968307293951,-0.0244036372750997,-0.0006616103928536,0.0005248825764283,-0.0024379403330385,84351638
126,-0.0192355811595916,-0.0104931350797414,0.0062754051759839,0.0091490056365728,0.0022377711720764,0.0078313499689102,-0.0130643201991915,0.0062089441344141,-0.0257527492940425,0.0104092471301555,77891076
127,0.0081600882112979,0.0188759788870811,-0.0454768687486648,0.001059180824086,-0.0121344942599534,-0.0030028775800019,-0.0352692417800426,-0.0068105361424386,-0.0667315572500228,0.0411525256931781,179755765
128,0.0176056250929832,-0.0004060515202581,0.0043340562842786,0.0207430850714445,-0.0011729304678738,0.0179711449891328,-0.0182681418955326,0.0184818841516971,-0.0417773947119712,0.0350805595517158,82816346
129,-0.0035209830384701,-0.0638017058372497,0.0060355551540851,-0.0047129201702773,-0.0087978169322013,0.0032879072241485,0.0547847300767898,0.0014157254481688,-0.0012201140634715,0.0135666448622941,30401956
130,0.0033492553047835,0.0026150590274482,-0.0105533022433519,-0.0080052679404616,-0.0059510171413421,-0.0055603482760488,-0.0105590429157018,-0.0081808231770992,-0.003860174678266,-0.0029146349988877,109598935
131,-0.00884033087641,-0.0281213149428367,0.0071753324009478,-0.0066331592388451,-0.009739177301526,-0.0012258347123861,0.0120406374335289,0.0022387322969734,-0.0076041971333324,0.0153746167197823,111304309
132,0.0141832899223713,0.0041000456846536,-0.0042626622279984,0.009006239953858,0.0009492870704902,0.0014376477229241,-0.0355339792533454,0.0021885720929552,-0.0144357615771907,0.0041703780945614,134245353
133,-0.0063070054166018,0.0184551812708377,0.0704306662082672,-0.0080570923164486,-0.0007529905997216,-0.0090477708727121,0.0570819377899169,-0.0143665475770831,0.0110296392813324,-0.0183133855462074,32800026
134,0.0034909218084067,-0.0436951518058776,-0.0079829152673482,0.0110388165339827,-0.0009320091921836,0.0098176281899213,-0.0263372119516134,0.005480270832777,-0.0184762384742498,0.0450396947562694,57241602
135,0.0153002403676509,-0.0192951634526252,-0.0062322402372956,0.0003518350422382,-0.0163159873336553,0.0096897389739751,-0.0421590581536293,0.0153875472024083,-0.0376837253570556,0.0162398442625999,7946252
136,-0.0043746400624513,0.0223165731877088,0.0217230338603258,-0.0063533168286085,-0.0064202668145298,-0.0100745344534516,-0.0479460470378398,-0.0089364163577556,-0.0038733563851565,0.0095238350331783,108107289
137,-0.0025501418858766,-0.0279228873550891,-0.0165558159351348,-0.0080506615340709,-0.0172515995800495,-0.003734272904694,-0.0111513677984476,-0.0024249937850981,-0.0192911066114902,0.0122583815827965,64185077
138,-0.0058345813304185,-0.0482828877866268,0.0065312930382788,-0.0055481079034507,-0.0092072542756795,0.0013247039169073,0.0361936353147029,0.0017736852169036,-0.0039968029595911,0.014353004284203,83511139
139,0.0203361585736274,-0.0069419550709426,0.0080955903977155,0.005869404412806,-0.0056273443624377,0.0049005695618689,-0.027995266020298,0.0097515024244785,-0.0292951799929142,0.0208700504153966,50343962
140,0.0089642474290867,-0.069541148155109,0.0178025056244406,0.0130606416317709,-0.0004977605080624,-0.0050780521477715,-0.0250523495327204,0.0024770943951253,0.0309369761233068,-0.0021672402337568,199050935
141,-0.00744488555938,-0.0204407460987567,0.0090014189481735,-0.0049938312731683,-0.0081944689154624,-0.0002773678861558,0.0041700517758727,0.0031538612674921,-0.0132976910099387,0.0197630710899829,50820032
142,0.0284299682825803,-0.0017737535526975,0.0161772724241018,0.0196897163987159,0.0008032019250094,0.0123650059103965,-0.0126291345804929,0.0123999454081058,0.0015528968069702,0.0252177808433771,82020498
143,-0.0040070936083793,-0.0096313999965786,0.0076283225789666,0.0029996703378856,-0.0030202446505427,0.0020551001653075,0.0016605583950877,0.0057570850476622,-0.0021760561503469,0.0111956242471933,9474028
144,-0.015522776171565,0.0167022738605737,0.0086071612313389,-0.0090454658493399,-0.0109217623248696,-0.0068962359800934,-0.0416567511856555,0.003272634698078,-0.0156242093071341,0.0176458861678838,55179313
145,0.0088601475581526,-0.0663226544857025,0.0061841811984777,0.0115942005068063,-0.0081886015832424,0.0041580735705792,-0.0072826482355594,0.009057717397809,-0.0432806350290775,0.0339692011475563,60392809
146,0.001615819055587,-0.0269886422902345,-0.0084097236394882,-0.0024646744132041,-0.0200416296720504,-0.0046088257804512,-0.0805987045168876,-0.003570435103029,-0.0541715323925018,0.0314519815146923,92235366
147,0.01850569806993,0.0247723273932933,-0.0171046331524848,0.0036272630095481,-0.0018751313909888,0.0015065704938024,-0.020171059295535,-0.000758126261644,-0.0135541027411818,0.0098210927098989,93296295
148,0.0072985421866178,-0.0097504127770662,-4.215631633996964e-06,0.0069173090159893,-0.0078159924596548,0.0014199269935488,-0.0426071733236312,0.0025493365246802,-0.0430002063512802,0.0251435991376638,3352568
149,-0.0035962765105068,0.005004565231502,0.0146402595564723,-0.0047198696993291,-0.0030022747814655,0.0033611212857067,0.014733912423253,0.0060260137543082,0.0123457331210374,0.0089630596339702,79219366
150,-0.012654329650104,-0.0025383029133081,0.0079925479367375,-0.0080099813640117,-0.01041413936764,-0.0044622090645134,-0.0186070818454027,0.0028288313187658,-0.0121816080063581,0.0166709348559379,193273536
151,0.0113828144967556,0.0100433584302663,0.011841531842947,0.0004081062506884,-0.0075464099645614,-0.0007561781094409,-0.0620917528867721,-0.0030532986856997,-0.0767904296517372,0.0488633625209331,5434805
152,-0.0013016986194998,-0.0386074408888816,0.0061740814708173,0.0106067806482315,-0.00158646190539,0.0096418522298336,-0.0290877576917409,0.0144774112850427,-0.0248116068542003,0.0292826518416404,115765914
153,0.0056051411665976,-0.0173491593450307,-0.0031180921941995,0.0149888880550861,-0.0045185345225036,0.0038325698114931,-0.0217917319387197,0.0107886726036667,-0.027883380651474,0.007463086862117,2860796
154,-0.024178210633989,-0.0222596357085753,0.0319844726309097,-0.0008223112999799,-0.0052950404292941,-0.006322756750524,-0.0021302900549853,0.0112136680949222,-0.009085638652871,0.0117523296952869,125480482
155,0.0203294157981872,-0.0422733463346958,-0.0080157639458775,0.0050087622366845,-0.0138524668291211,0.0033708149567246,-0.0376516059041023,-0.0013416834408417,-0.039577167481184,0.027512464672327,169366451
156,0.0199908316135406,-0.0140112750232219,-0.0091188456863164,0.0049970536492764,-0.0128607871010899,0.0019672876223921,-0.034472681581974,0.0030354815535247,-0.0280458591878414,0.0289758872240781,14884938
157,0.0464517623186111,0.0315792448818683,0.0161747001111507,0.0253180526196956,0.0151274930685758,0.0192477721720933,-0.0427331663668155,0.0171922966837883,0.0071932226419448,0.0339809246361255,55614776
158,0.0269690137356519,-0.0349414907395839,-0.0095056984573602,0.0199460871517658,-0.0043650474399328,0.0151235330849885,-0.0192432589828968,0.017012633383274,-0.0230273567140102,0.0489757992327213,15738922
159,0.0114128682762384,-0.0247207563370466,-0.0085868770256638,0.0010985247790813,-0.0096878428012132,0.0042340848594903,-0.0214671045541763,0.0011981076095253,-0.0142205813899636,0.0156241282820701,83380751
160,-0.0057354778982698,-0.0177227314561605,-0.0085484124720096,-0.0013012445997446,-0.0107936616986989,0.0010738493874669,-0.014396509155631,0.0032908704597502,-0.0243079047650098,0.013130746781826,1284914
161,-0.0035209830384701,-0.0638017058372497,0.0060355551540851,-0.0047129201702773,-0.0087978169322013,0.0032879072241485,0.0547847300767898,0.0014157254481688,-0.0012201140634715,0.0135666448622941,3998623
162,0.0350103564560413,-0.0052201766520738,-0.0079086069017648,0.0151585983112454,0.0018567272927612,0.0185208171606063,-0.0323878489434719,0.0177252814173698,-0.0703414529561996,0.0425525680184364,3777800
163,-0.0367866680026054,0.0158352814614772,-0.0046108616515994,-0.0057965978048741,-0.0030563306063413,-0.002103152219206,0.0179535597562789,-0.0013441473711282,-0.0151776280254125,0.020441710948944,195760279
164,-0.0063342484645545,0.0300465635955333,0.0103332735598087,-0.0128544541075825,-0.0029559715185314,-0.0024590990506112,0.0305001754313707,-9.186856914311647e-05,0.0281930398195981,-0.0084652043879032,164950564
165,0.0312059745192527,-0.0216219760477542,-0.0103962672874331,0.0244976412504911,-0.0019646128639578,0.0174332857131958,-0.0300767067819833,0.0215881764888763,-0.0220415964722633,0.054853118956089,7908339
166,0.0367082208395004,-0.0382348522543907,0.0019046631641685,0.0218707807362079,-0.0034048533998429,0.0167203452438116,-0.0379222631454467,0.0160153210163116,-0.0360487699508667,0.042725171893835,90166650
167,0.0179663896560668,-0.0039783958345651,0.0180667396634817,0.001964566996321,0.0005758354673162,0.0076318373903632,-0.000973206711933,0.0079510025680065,0.0181618891656398,0.0220752134919166,65079014
168,0.0046731731854379,-0.0136865079402923,-0.0187657382339239,0.0052538057789206,-0.0102850580587983,0.0005636201240122,-0.0412042550742626,-0.0006472138338722,-0.0486937947571277,0.0291850008070468,66117517
169,-0.0170071814209222,0.0233578439801931,-0.0128499316051602,-0.0090260300785303,-0.0007027031388133,-0.0073913778178393,0.001434201025404,-0.0016476481687277,-0.0036699045449495,-0.0087669547647237,99386143
170,-0.015522776171565,0.0167022738605737,0.0086071612313389,-0.0090454658493399,-0.0109217623248696,-0.0068962359800934,-0.0416567511856555,0.003272634698078,-0.0156242093071341,0.0176458861678838,96457658
171,-0.0020336236339062,-0.009562867693603,0.007168271113187,0.0026246667839586,-0.0035586543381214,0.0042264182120561,-0.0232137013226747,0.0034415177069604,-0.0090984972193837,0.0114066358655691,19550437
172,-0.0119803883135318,-0.0070588462986052,0.0078481454402208,-0.0077666947618126,-0.0102948723360896,-0.0038903385866433,-0.0131916012614965,0.0027245595119893,-0.0113727767020463,0.0164418816566467,87029402
173,0.0043720342218875,-0.0430647619068622,0.0018516785930842,0.0042174728587269,-0.012082502245903,0.0049956813454627,-0.0379951670765876,0.0048339976929128,-0.042645514011383,0.0278078075498342,102675336
174,-0.0035209830384701,-0.0638017058372497,0.0060355551540851,-0.0047129201702773,-0.0087978169322013,0.0032879072241485,0.0547847300767898,0.0014157254481688,-0.0012201140634715,0.0135666448622941,49331390
175,0.0352718085050582,-0.0320563912391662,0.0083997501060366,0.004833850543946,-0.0152518581598997,0.0030976538546383,-0.036279622465372,-0.0002018524101004,-0.0421121828258037,0.0328458435833454,189822176
176,0.0081388223916292,-0.0330816842615604,0.0061564473435282,0.0100428340956568,-0.0056372564285993,0.0040050977841019,-0.0173310041427612,0.008896317332983,-0.0469798929989337,0.0389127135276794,52080229
177,0.0181586407124996,-0.0299854651093482,0.0124140232801437,0.008349135518074,0.0004343574400991,0.0142922289669513,0.0323661528527736,0.0153408497571945,-0.0036110798828303,0.0195951201021671,110111095
178,0.0125346221029758,0.0158192925155162,-0.0447720550000667,-0.0016593165928497,-0.0115956850349903,0.001240984769538,-0.0185651183128356,-0.007149756886065,-0.0546643547713756,0.0387435927987098,83551433
179,0.0144174546003341,0.0980105996131897,0.0402790009975433,-0.0119136776775121,0.0124399745836853,0.010284511372447,0.0570610091090202,0.0131690027192235,0.099697545170784,-0.0131753869354724,195227039
180,-0.0420632399618625,0.0155437383800745,-0.0329609662294387,0.0023754737339913,-0.0083341766148805,-0.0065195010975003,0.0381407290697097,0.0010440018959343,-0.0047242082655429,-0.0149996634572744,4687741
181,0.0158721152693033,-0.0114718014374375,-0.0164650902152061,-0.0040203821845352,-0.0047427946701645,0.0059696896933019,-0.006657054182142,0.0064631029963493,-0.0229170490056276,0.0316394940018653,74781242
182,-0.0031377358827739,0.0150119420140981,0.009056874550879,0.004803994204849,-0.0006891160737723,0.0004302721936255,-0.0156155237928032,0.0071829417720437,0.0039561465382575,0.0090229175984859,52422878
183,-0.0039751059375703,-0.0614107698202133,0.0058265519328415,-0.0036963101010769,-0.0084248865023255,0.0036556406412273,0.0497057810425758,0.0018252120353281,-0.0038678317796438,0.0138960862532258,63078310
184,0.0080928020179271,-0.0271514561027288,0.0114903515204787,0.0006395124364644,-0.0105376429855823,-0.0006859464338049,-0.0090399477630853,0.0035658155102282,-0.0283828750252723,0.0182541888207197,7798401
185,0.0230438709259033,0.0036739725619554,0.0264733340591192,0.0178644768893718,0.0117042437195777,0.0100688496604561,0.007768465206027,0.0107083693146705,-0.0046379789710044,0.0308292880654335,97205149
186,0.0252708159387111,-0.0323155261576175,-0.003035603556782,0.0083862766623497,-0.0066233528777956,0.008273396641016,-0.0105687789618968,0.0101699056103825,-0.0203284136950969,0.0401057824492454,2045233
187,0.0344069115817546,-0.0481164343655109,0.0024105282500386,0.0248668082058429,0.0076188608072698,0.0218467414379119,-0.0188083797693252,0.0090838549658656,-0.0206326022744178,0.0280594658106565,213759518
188,0.0079431720077991,-0.0005453508347272,0.0143438661471009,0.003774844110012,0.0005193264223635,0.0044798380695283,-0.0149389347061514,0.0060863406397402,-0.007685259450227,0.0213631149381399,44976789
189,0.0067394664511084,0.0109734563156962,-0.0070636328309774,0.0071747926995158,0.003907052334398,0.003643233096227,-0.0241361688822507,0.0011796809267252,-0.0130430003628134,0.0246605928987264,189470222
190,0.0284753385931253,-0.0294837020337581,-0.0135733624920248,0.0131211802363395,0.001163201406598,0.0260096006095409,-0.0423681624233722,0.0142293944954872,-0.0250079277902841,0.0616131573915481,45744269
191,0.0075552039779722,2.1100277081131932e-05,-0.0139736654236912,-0.00286022759974,-0.0114831198006868,0.0011579093988984,-0.0102259181439876,-0.0005139853456057,-0.0242528226226568,0.0050220950506627,52277738
192,0.0030832798220217,-0.0320725329220294,0.0216170363128185,0.0102939009666442,-0.0005563711747527,0.0053897928446531,-0.001546800835058,0.0150122605264186,-0.0192164368927478,0.0334727056324481,53614250
193,-0.0235588569194078,0.0611659362912178,0.023952517658472,-0.0186633449047803,-0.0042573264800012,-0.0069909142330288,0.0147960111498832,-0.0012784575810655,0.0287827663123607,-0.0157216452062129,129694210
194,-0.0220851525664329,0.0024356581270694,-0.015203209593892,-0.0167123712599277,-0.0092722680419683,-0.0114398067817091,-0.0085490345954895,-0.01226625777781,0.0014341137139126,-0.0204663947224617,195211760
195,-0.0035209846682846,-0.0638017058372497,0.0060355579480528,-0.0047129201702773,-0.0087978178635239,0.0032879086211323,0.0547847300767898,0.0014157257974147,-0.0012201205827295,0.0135666448622941,30401979
196,0.0027220046613365,0.0215088687837123,0.0175815317779779,-0.0013806936331093,0.0019886931404471,0.0044370437972247,0.0232960190623998,0.0078885555267333,0.0321743227541446,0.0029762557242065,83916654
197,-0.0199097227305173,-0.0225852280855178,0.0004742164746858,-0.003828210523352,-0.0029208585619926,0.0027922294102609,0.0154670653864741,0.0044614085927605,0.005372273735702,0.014237355440855,55915048
198,0.0106276972219347,0.0060209166258573,-0.0017823476810008,0.0066590439528226,0.0017309666145592,0.0086721135303378,-0.0147919058799743,0.0147380419075489,-0.0252675283700227,0.0190649665892124,56232025
199,-0.0001650610938668,0.0203886330127716,-0.0063376054167747,-0.0007238471880555,0.0028363524470478,0.005201811902225,0.01180552970618,0.0002499092952348,0.0174611154943704,0.0082938820123672,31260463
200,0.0064819077961146,-0.0212323553860187,0.0126125225797295,0.0154418833553791,-0.0012100772000849,0.0129512641578912,-0.0243610888719558,0.0124536035582423,-0.0088468315079808,0.0318677350878715,58026824
201,-0.0071556521579623,-0.0446651130914688,0.0043627163395285,0.0034238314256072,-0.0058129345998167,0.0062311701476573,0.014133813790977,0.0046931742690503,-0.0224119890481233,0.0162033475935459,1457158
202,-0.0069507844746112,-0.009186471812427,0.0114648938179016,-0.0052423910237848,-0.0107189994305372,-0.0017830240540206,-0.0367859601974487,0.0046470267698168,-0.0139236748218536,0.0105319460853934,127973630
203,-0.00884033087641,-0.0281213149428367,0.0071753324009478,-0.0066331592388451,-0.009739177301526,-0.0012258347123861,0.0120406374335289,0.0022387322969734,-0.0076041971333324,0.0153746167197823,69375516
204,-0.0061844089068472,-0.0373717099428176,0.0058164363726973,-0.0021498738788068,-0.0083426097407937,-0.0016847791848704,0.0172805730253458,0.0021590797696262,-0.0208505541086196,0.022914508357644,98109744
205,0.0287528112530708,-0.0380161702632904,-0.0072929323650896,0.0053273467347025,-0.0105641325935721,0.0037622833624482,-0.0244364719837903,0.0047791865654289,-0.0250433329492807,0.0378560349345207,215870218
206,-0.0085382610559463,-0.0325949415564537,0.0059662982821464,-0.0021138556767255,-0.0079922964796423,0.0018438172992318,0.0091263493523001,0.0034592687152326,-0.0150969363749027,0.0159260146319866,48578381
207,-0.0139908529818058,0.0126936649903655,-0.0114085106179118,-0.0048189274966716,0.0019679935649037,-0.0059082861989736,0.0114531852304935,-0.0071561252698302,0.0089327804744243,-0.0141233680769801,112629130
208,-0.0378968092291821,-0.0124937455308155,-0.0225509055826051,-0.0044708587005967,-0.0129652958193903,-0.0129542561306393,-0.0215925908737953,-0.0122087631013885,-0.0488054132245946,0.0054100217826813,46171824
209,-0.0158817172050476,0.0241888854652643,0.0120102819055318,-0.0288051702082157,-0.0136545980349183,-0.0126391742378473,0.0447505488991737,-0.0088205244392156,0.0595158040523529,-0.0600394494831562,199306992
210,0.0062916688621044,0.0608362443745136,0.0123809892684221,0.0197971854358911,0.0113429706543684,0.0058690216392278,-0.0268179979175329,0.0110569354146718,0.021542215719819,0.0040023904293775,55422058
211,0.0309213027358055,-0.0414833463728427,-0.0112935025244951,0.0183023866266012,-0.0045202537439763,0.0042688664980232,-0.0480019114911556,0.0044690538197755,-0.0342035144567489,0.0358562096953392,138830239
212,-0.0035209846682846,-0.0638017058372497,0.0060355579480528,-0.0047129201702773,-0.0087978178635239,0.0032879086211323,0.0547847300767898,0.0014157257974147,-0.0012201205827295,0.0135666448622941,98091595
213,0.0356854125857353,-0.0464357025921344,-0.007539099548012,0.0161009896546602,-0.0032816771417856,0.0146796740591526,-0.0531635023653507,0.015589814633131,-0.0495969168841838,0.0374046228826046,101157977
214,0.0146623365581035,-0.0496468544006347,0.0033628197852522,0.0065399520099163,-0.0089892707765102,0.0063102338463068,-0.05463657528162,0.0046604918316006,-0.0483023971319198,0.0373969040811061,79785773
215,-0.0037949811667203,-0.0661481469869613,0.0168751180171966,0.0204140599817037,-0.0029066926799714,0.0033168485388159,-0.0230487752705812,0.0166083127260208,-0.0555794760584831,0.0485386364161968,115011586
216,-0.0046548740938305,0.0096574462950229,0.0122646279633045,0.0002368154237046,-0.0018228543922305,0.0045166434720158,0.0009860508143901,0.0084735639393329,-0.0008819655049592,0.0022848916705697,201816469
217,0.0019809657242149,0.0016005878569558,0.0291308630257844,0.0074884928762912,0.0030929131899029,0.0022336798720061,0.0077651469036936,0.0100816506892442,-0.0089662671089172,0.0156535822898149,58026802
218,0.0026573119685053,-0.0610453933477401,0.0056575406342744,0.0154360588639974,-0.0087682697921991,9.771715849637984e-05,-0.0283600240945816,0.0087823700159788,-0.0465114787220954,0.0421076044440269,134307269
219,0.0110364574939012,0.0821190029382705,0.0353194177150726,-0.009108830243349,0.0112375319004058,0.0108915651217103,0.0527102537453174,0.0153673710301518,0.0847876369953155,-0.010408435948193,52197511
220,0.0168013535439968,-0.0248443968594074,0.0094379903748631,0.0118356440216302,-0.0020943046547472,0.009601779282093,-0.0441892445087432,0.0092750620096921,-0.0223949123173952,0.0293880440294742,1394129
221,0.0018879829440265,0.0149645693600177,-0.0112581495195627,-0.0039070332422852,-0.0097991907969117,-0.0003882501041516,-0.0184074491262435,0.0068642534315586,-0.0074159195646643,0.003909423481673,152997644
222,-0.0127768088132143,-0.0320657603442668,0.0025813051033765,-0.0108912363648414,-0.0166119113564491,-0.0058159567415714,0.0109988851472735,-0.005387554410845,-0.0236264113336801,-0.0001403556670993,38035180
223,0.0377792529761791,-0.0370500460267066,-0.0113274492323398,0.0028612809255719,-0.0147328190505504,1.2190081179141998e-05,-0.0500200539827346,0.0006396644748747,-0.0360290594398975,0.041986059397459,99604430
224,-0.0097405361011624,0.0046810819767415,0.0008314662845805,-0.002365639898926,-0.0062237940728664,-0.004062604624778,-0.0022355346009135,0.0018737285863608,-0.0004921669606119,0.0064601078629493,1181559
225,-0.00884033087641,-0.0281213149428367,0.0071753324009478,-0.0066331592388451,-0.009739177301526,-0.0012258347123861,0.0120406374335289,0.0022387322969734,-0.0076041971333324,0.0153746167197823,49367038
226,0.0186937358230352,-0.0109083112329244,0.0114599205553531,0.0024025435559451,-0.002047722460702,0.0067448439076542,-0.0368796102702617,0.001699763117358,-0.006061446852982,0.0132324071601033,99092665
227,-0.005527782253921,-0.0145331248641014,0.0059924954548478,-0.0058051445521414,-0.0108536835759878,-0.0055619440972805,-0.0318370200693607,0.0031410357914865,-0.0165134686976671,0.0072383875958621,84791675
228,-0.0100525664165616,-0.019990062341094,0.0074350656941533,-0.0070707648992538,-0.0099537065252661,-0.0022544763050973,0.0022996217012405,0.0024262883234769,-0.0090590734034776,0.0157866347581148,65819501
229,-0.0008454821072518,-0.0071637043729424,-0.008381463587284,-0.0067220511846244,-0.0086345328018069,-0.0074891638942062,-0.0175782516598701,-0.0082124695181846,-0.0119015742093324,0.0029531505424529,209877730
230,-0.0009071994572877,-0.0335346795618534,0.0034858826547861,0.0029039361979812,-0.0063159228302538,0.0033263503573834,0.0058561712503433,0.0034179056528955,-0.0123998969793319,0.0150730665773153,34134703
231,-0.0093844477087259,-0.0244715623557567,0.0072919116355478,-0.0068295802921056,-0.0098354686051607,-0.0016875453293323,0.0076683312654495,0.0023229164071381,-0.0082572260871529,0.0155595587566494,105881940
232,0.0024472903460264,-0.0382136031985282,-0.0164521392434835,0.0083914380520582,-0.0083558904007077,0.0153940040618181,-0.0147637547925114,0.0288367662578821,-0.0286144576966762,0.0388344377279281,67801698
233,0.0115494541823863,-0.0121655762195587,0.0060896226204931,0.0013222526758909,-0.0003780201077461,0.0030683444347232,-0.0150993736460804,0.0033573764376342,-0.0012683616951107,0.0036429702304303,184006479
234,0.0190962366759777,-0.020591028034687,0.0152981523424386,0.0127445524558424,-0.0010026833042502,0.0165192708373069,-0.0332120768725872,0.0139763690531253,-0.0013027820969,0.0215786956250667,98079917
235,0.0032028318382799,0.0629706382751464,0.0111489240080118,0.0175206549465656,0.0093734040856361,0.0022716550156474,-0.0463656447827816,0.0126802753657102,0.0168097931891679,0.0019606295973062,102488300
236,0.0423369258642196,-0.033127274364233,0.0184776000678539,0.0299085956066846,0.0047307158820331,0.0276413541287183,-0.0183449517935514,0.0272102020680904,-0.0377822443842887,0.0468696653842926,186297240
237,0.0118047315627336,0.0010994034819304,0.0018002134747803,0.0070167141966521,-0.0009975743014365,0.0037351991049945,0.0024582233745604,0.003430624725297,-0.0023382790386676,0.0140105579048395,87839561
238,-0.015522776171565,0.0167022738605737,0.0086071612313389,-0.0090454658493399,-0.0109217623248696,-0.0068962359800934,-0.0416567511856555,0.003272634698078,-0.0156242093071341,0.0176458861678838,56491568
239,0.0096417218446731,-0.0116342939436435,-0.0036734719760715,-0.0012903589522466,-0.008754288777709,-0.0043193544261157,-0.0265608057379722,-0.0028700698167085,-0.0308346766978502,0.0245631281286478,205932746
240,-0.0122498599812388,-6.661380757577717e-05,-0.0036989990621805,-0.0101506989449262,-0.0075677065178751,-0.0113358907401561,0.0007020404445938,-0.0096255503594875,-0.0041394014842808,-0.0038794202264398,51113107
241,-0.0054287868551909,-0.0366396158933639,0.0042849550954997,-0.0063559310510754,-0.0087554156780242,-0.0035603714641183,0.0336957089602947,0.0002140111755579,-0.0101643595844507,0.0074589839205145,74738631
242,-0.0062222673964047,0.0088768732825904,0.0061448943333498,0.0068873316821431,0.0119182075681673,-0.0001596876954816,0.0156058350001578,0.0099859299174734,-0.0228039734745758,-0.0053663972977058,94043093
243,-0.0117242271080613,-1.4050863683223724e-05,-0.0205280408263206,-0.0066560767590999,-0.0074916677549481,-0.0100849643349647,-0.011342691257596,-0.0082375993952155,-0.0196804944425821,-0.0151010230183601,98708407
244,-0.015522776171565,0.0167022738605737,0.0086071612313389,-0.0090454658493399,-0.0109217623248696,-0.0068962359800934,-0.0416567511856555,0.003272634698078,-0.0156242093071341,0.0176458861678838,128725950
245,0.0386074669659137,-0.0169573724269866,-0.0102083645761013,0.0145380329340696,-0.0074658431112766,0.0072654774412512,-0.0465277507901191,0.0053188796155154,-0.0399630479514598,0.0335502587258815,102523558
246,-0.0092819537967443,-0.0261555463075637,0.0068040471524,-0.004996936302632,-0.0091278497129678,-0.0004551202291622,0.0063171125948429,0.0028230315074324,-0.0113324988633394,0.0157910231500864,102122032
247,0.0146612292155623,-0.0077551044523715,0.017331201583147,0.009035687893629,0.0038918345235288,0.0149894021451473,0.010252890177071,0.0108281718567013,0.0088870385661721,0.0213941689580678,19919865
248,-0.0115762036293745,-0.0117417695000767,0.0068396339192986,-0.0040676789358258,-0.0088590420782566,-0.0012808172032237,-0.0142471622675657,0.0036830001045018,-0.0172162596136331,0.016831450164318,76273564
249,-0.0079631246626377,0.0401548519730567,0.0091681033372879,0.001778146252036,-0.0003775374498218,-0.0014366630930453,-0.0338093489408493,0.0071779172867536,0.00510507915169,0.007633036468178,100565256
250,0.0291532389819622,-0.0285274721682071,-0.020613333210349,0.0208661388605833,-0.0033233184367418,0.0153920678421854,-0.0222169589251279,0.0196211226284503,-0.0249566454440355,0.0493050776422023,200394113
251,-0.0121206073090434,-0.005937716923654,-0.0115253124386072,-0.0066871549934148,-0.0066415360197424,-0.0100133065134286,-0.0057460428215563,-0.0081549100577831,-0.0108503326773643,-0.0105200130492448,150718336
252,0.0172166489064693,-0.0212200060486793,-0.0010864969808608,0.0202183499932289,-0.0080833323299884,0.0111428080126643,-0.0379823669791221,0.0113822696730494,-0.0213762857019901,0.0421280078589916,102421980
253,0.0152327278628945,-0.0155585082247853,-0.0256550274789333,-0.0046388027258217,-0.0175490975379943,-0.003476336132735,-0.0491555817425251,-0.0060709840618073,-0.0378684215247631,0.0220071729272604,84344367
254,0.0077454266138374,0.0312135405838489,0.0196175016462802,0.0012492707464843,0.0017942860722541,0.0069797015748918,0.0037119875196367,0.011450869962573,0.0322811380028724,0.0063113328069448,72497728
255,0.0183686576783657,-0.0700742751359939,-0.0046131815761327,0.0051060547120869,-0.0147818950936198,0.0048584244213998,-0.0527215413749218,-0.0003031534142792,-0.055103525519371,0.0387872159481048,68002205
256,-0.0055366400629282,0.0245057363063097,-0.0085645476356148,-0.0021429401822388,-0.0087413704022765,0.0020475555211305,-0.0033315964974462,-0.0007678441470488,0.0100191598758101,0.0103368684649467,72898792
257,0.0192802902311086,0.0139271989464759,0.0108438609167933,0.0139009086415171,0.01607121899724,0.0145456986501812,-0.0125971352681517,0.0106459371745586,0.017901711165905,0.0311641786247491,138460133
258,-0.0205577388405799,0.0056570749729871,0.0038319379091262,-0.0148859377950429,-0.0066231111995875,-0.0172105804085731,-0.0150968059897422,-0.019593670964241,-0.0094240522012114,0.002110973233357,99018577
259,0.0119044538587331,-0.0129375476390123,-0.0043061776086688,0.0077618374489247,-0.0048830057494342,0.0040257791988551,-0.0219369195401668,0.0051487195305526,-0.0178018175065517,0.0264507252722978,206545451
260,-0.0108925234526395,-0.0143559239804744,0.0076150433160364,-0.0073739811778068,-0.0101023511961102,-0.0029672235250473,-0.004449916537851,0.0025562448427081,-0.0100671546533703,0.0160721279680728,56491611
261,0.0437607318162918,-0.0392127819359302,-0.0028374691028147,0.0174906868487596,-0.0053435419686138,0.0097935711964964,-0.0353422798216342,0.0078643411397933,-0.0334191843867301,0.0319336429238319,108954955
262,-0.0281742941588163,-0.0175038166344165,-0.0102299153804779,-0.0068092215806245,-0.0100570935755968,-0.0040216306224465,-0.0170475766062736,-0.0017269236268475,-0.0298498645424842,0.0128529975190758,47754644
263,0.003378361929208,0.0392967835068702,0.0214144345372915,-0.0038722939789295,0.0031744185835123,0.004447597078979,0.0214508101344108,0.0087268017232418,0.0414618998765945,0.0009381446870975,59488156
264,-0.0043308213353157,-0.0676699206233024,0.0104880481958389,0.0129719451069831,-0.0088663566857576,-0.0021630669943988,-0.0182855911552906,0.0078583415597677,-0.0504510886967182,0.0384612530469894,173578723
265,-0.0055965203791856,0.0148239461705088,0.007462992798537,0.0086226407438516,-3.854231908917427e-05,0.0028352180961519,-0.0309799779206514,0.0084068644791841,-0.0108577208593487,0.0114996852353215,1489566
266,0.0019954123999923,-0.041616603732109,-0.0097933765500783,-1.8970342352986336e-05,-0.0103108575567603,0.0004605625290423,0.0130931194871664,0.0046414854004979,-0.0297437068074941,0.0243152417242527,195696960
267,0.0162197109311819,-0.021520659327507,-0.038710668683052,0.001143995905295,-0.0088974116370081,0.00229226751253,-0.0186938382685184,0.0091712344437837,-0.0432551614940166,0.0339376777410507,157676367
268,-0.0178535319864749,0.0102146016433835,-0.0117401052266359,-0.013009819202125,-0.0086466474458575,-0.0099883386865258,-0.006425954401493,-0.0100142667070031,-0.0057360231876373,-0.0166557170450687,47758813
269,-0.0112049281597137,0.0121273063123226,0.0175585821270942,-0.0069880727678537,-0.0001972393365576,-0.0011449623852968,0.0373556464910507,0.001782456645742,0.0258812084794044,-0.0016958978958427,94043087
270,0.006607518531382,0.0099158128723502,-0.018136654049158,-0.0103748515248298,-0.0079711657017469,-0.0060429815202951,0.0068623488768935,-0.0041200835257768,-0.015576098114252,-0.0059763439930975,60612444
271,0.0208851359784603,-0.0445124171674251,-0.0065321391448378,0.007475899066776,-0.0066812876611948,0.0070548243820667,-0.0220406353473663,0.0106348749250173,-0.0192890129983425,0.0275161601603031,189832432
272,0.0124408104318941,0.0036740544531798,-0.0078811338350165,0.0143477622181582,0.0173943893477725,0.0171527664526143,0.0354240989653013,0.012926929455619,0.0369194404718394,0.0042498075263104,83448924
273,0.0089016929268836,-0.0405097417533397,-0.0056522553786635,0.0077422186732292,-0.0047015398740768,0.0055789649486541,-0.0325856320559978,0.0132380230352282,-0.0320374555885791,0.0294026006013155,968042
274,-0.012654329650104,-0.0025383019819855,0.0079925479367375,-0.0080099813640117,-0.0104141384363174,-0.0044622090645134,-0.0186070818454027,0.0028288313187658,-0.0121816080063581,0.0166709348559379,63645659
275,0.0276404786854982,0.034449566155672,0.0158989410847425,0.0307475626468658,0.0124876089394092,0.0174908153712749,-0.0513856112957,0.0259618833661079,-0.0061634490266442,0.0243956353515386,2052970
276,-0.00884033087641,-0.0281213149428367,0.0071753324009478,-0.0066331592388451,-0.009739177301526,-0.0012258347123861,0.0120406374335289,0.0022387322969734,-0.0076041971333324,0.0153746167197823,54209120
277,0.0164444297552108,-0.0318961590528488,-0.0014261603355407,0.0104179745540022,-0.0064978511072695,0.0087798545137047,-0.0291327144950628,0.0111161265522241,-0.0267301816493272,0.039886575192213,107721773
278,0.00227996497415,-0.025949839502573,0.0107939112931489,-0.0034758867695927,-0.0134734185412526,0.0010143377585336,-0.0247263945639133,0.0109241912141442,-0.0488665737211704,0.0244860388338565,170437794
279,-0.005151986144483,-0.0423651933670043,0.0141632752493023,1.883541699498892e-06,-0.0019491682760417,-0.002981545170769,0.0157657731324434,-0.0125244082883,0.008718391880393,0.0107500059530138,7211039
280,-0.0034445682540535,-0.0057848449796438,-0.0025502250064164,0.0015291521558538,-0.0053317910060286,0.0004391005495563,-0.0311706364154815,-0.00315737654455,-0.0152921713888645,-0.001387175056152,3443157
281,0.0159161314368248,0.0156088238582015,0.0159428119659423,0.0102494750171899,-0.0033704075030982,0.0094775669276714,-0.0466109812259674,0.0157590247690677,0.0046181888319551,0.030078811571002,195474892
282,-0.0055325250141322,0.0223772600293159,-0.0119550256058573,-0.0108637195080518,-0.0071513904258608,-0.008047436363995,0.0059804683551192,-0.0099384412169456,-0.0128338551148772,-0.0023628724738955,7574988
283,-0.0030719148926436,0.0285476241260767,0.009575760923326,0.0064384578727185,0.0007034963928163,-6.050523370504379e-05,-0.0277062691748142,0.008173419162631,0.00484513444826,0.0082425596192479,86366069
284,-0.015522776171565,0.0167022738605737,0.0086071612313389,-0.0090454658493399,-0.0109217623248696,-0.0068962359800934,-0.0416567511856555,0.003272634698078,-0.0156242093071341,0.0176458861678838,9949411
285,-0.0119803892448544,-0.0070588472299277,0.0078481454402208,-0.0077666947618126,-0.0102948723360896,-0.0038903385866433,-0.0131916012614965,0.0027245595119893,-0.0113727767020463,0.0164418816566467,99092662
286,-0.0035209830384701,-0.0638017058372497,0.0060355551540851,-0.0047129201702773,-0.0087978169322013,0.0032879072241485,0.0547847300767898,0.0014157254481688,-0.0012201140634715,0.0135666448622941,58425371
287,0.0074360631406307,0.0595211274921894,0.0144062638282775,-0.0082850325852632,0.0010303223971277,0.0051129995845258,0.020218089222908,0.0106511963531374,0.0477234199643135,-0.0046470859088003,39833157
288,-0.0049992650747299,-0.0538859143853187,0.0063523123972117,-0.0052465675398707,-0.009059427306056,0.0020335144363343,0.0429058857262134,0.0016444431385025,-0.0029942872934043,0.0140690971165895,13182786
289,-0.0104779694229364,-0.0010488751577213,0.0070619527250528,-0.0094358827918767,-0.0060367872938513,-0.0104007981717586,0.0192223582416772,-0.0062812431715428,0.0078148879110813,-0.0048113949596881,15268755
290,-0.0074577974155545,0.0262188371270895,0.0172825045883655,-0.0086790239438414,-0.007926913909614,-0.0113678220659494,-0.013173502869904,-0.007011741399765,-0.015209000557661,-0.0057931649498641,113607068
291,0.0002963009756058,0.0512473694980144,0.0102732889354228,0.0142485834658145,0.0063415416516363,0.0018225009553134,-0.0437466837465763,0.0113175436854362,0.0092523302882909,0.0047942865639925,69330138
292,0.0043673804029822,0.0036911151837557,-0.0012457750272005,0.0009799015242606,0.0006042984314262,-0.0033905790187418,-0.0071825836785137,0.0039507276378571,-0.0115867732092738,0.013468274846673,59617193
293,0.0089185498654842,0.0023118772078305,0.0023908738512545,0.0048977900296449,-0.0067319888621568,0.0034105284139513,-0.0243344735354185,0.0040543023496866,-0.0301395878195762,0.0253651700913906,206966496
294,0.0144860874861478,-0.027282016351819,0.0118143213912844,0.0048460410907864,-0.0053433878347277,0.0052769412286579,-0.0656302869319915,0.008452326990664,-0.0401354804635047,0.0391487181186676,47527154
295,0.0001779036829248,-0.0102888727560639,-0.0148453544825315,-0.005781065672636,-0.0054028183221817,-0.005160660482943,-0.0123524377122521,-0.0036206513177603,-0.0056743817403912,-0.004510807339102,61913621
296,0.0194135457277297,-0.0207609869539737,0.0027484479360282,0.0004754031542688,-0.0072358660399913,0.0055250395089387,-0.0298160761594772,3.545836079865694e-05,-0.0269569382071495,0.0363159254193306,34270534
297,0.0172837302088737,-0.004778048954904,-0.0103264031931757,-0.0036053888034075,-0.012914914637804,-0.001860887510702,-0.0428116470575332,-0.0039476794190704,-0.0360315069556236,0.0308382175862789,205180061
298,0.0340072407717046,0.061883374920116,0.0453599309395066,0.0079090954264588,0.005967537185726,0.0043489648367,0.0068650010241967,-0.0038183286301416,0.039448789037361,-0.0191196178902965,34373550
299,-0.0158817172050476,0.0241888854652643,0.0120102819055318,-0.0288051702082157,-0.0136545980349183,-0.0126391742378473,0.0447505488991737,-0.0088205244392156,0.0595158040523529,-0.0600394494831562,199307009
300,-0.0100517310202121,-0.0227290652692317,0.0061568766832351,-0.0021448696497827,-0.0080622592940926,0.0008882950060069,-0.0036594457924365,0.0038415123708546,-0.0178312417119741,0.0165168493986129,12713910
301,0.0154460985213518,-0.0223738905042409,-0.0301626306027174,0.003490749746561,-0.0037480406463146,0.0062124393880367,-0.0116773657500743,0.0112543553113937,-0.03617550060153,0.0320754088461399,3193236
302,-0.015522776171565,0.0167022738605737,0.0086071612313389,-0.0090454658493399,-0.0109217623248696,-0.0068962359800934,-0.0416567511856555,0.003272634698078,-0.0156242093071341,0.0176458861678838,80628593
303,-0.0031330306082963,0.0064035467803478,0.0001828462118282,0.0021896082907915,-0.0052151386626064,-0.000177101464942,-0.0160026159137487,0.006724058650434,-0.0052372682839632,0.0090901618823409,85996097
304,-0.015522776171565,0.0167022738605737,0.0086071612313389,-0.0090454658493399,-0.0109217623248696,-0.0068962359800934,-0.0416567511856555,0.003272634698078,-0.0156242093071341,0.0176458861678838,16700200
305,0.0011646065395325,-0.0216333717107772,0.0083280727267265,0.0076330774463713,-0.0075380089692771,-0.0030930980574339,-0.0193417556583881,0.0035588960163295,-0.0283005908131599,0.0235337112098932,159483171
306,0.0100072566419839,0.0315493606030941,0.0155329974368214,0.0198640413582324,0.0075852004811167,0.0100694354623556,-0.0307160280644893,0.0134534612298011,-0.0074882362969219,0.0096742026507854,102483617
307,0.0077454266138374,0.0312135405838489,0.0196175016462802,0.0012492707464843,0.0017942860722541,0.0069797015748918,0.0037119875196367,0.011450869962573,0.0322811380028724,0.0063113328069448,6747650
308,0.0049558752216398,-0.0324390977621078,-0.0473748333752155,-0.0065668281167745,-0.0198300704360008,-0.0063770031556487,0.0219093915075063,-0.0139978528022766,-0.0101649891585111,-0.0022294304799288,2763553
309,-0.0283686257898807,-0.0023001683875918,-0.0287651773542165,-0.0185174793004989,-0.0158571153879165,-0.0178206954151392,-0.0175912529230117,-0.0157904811203479,-0.0099411830306053,-0.0233881622552871,88350347
310,-0.0134449442848563,0.0027648704126477,0.0081619527190923,-0.0082953851670026,-0.0105540510267019,-0.0051330868154764,-0.0249601416289806,0.0029511549510061,-0.013130472972989,0.0169396549463272,47788573
311,0.0198433026671409,0.0071936585009098,-0.0094016510993242,0.0125921424478292,0.0019996906630694,0.0119508700445294,-0.019503466784954,0.0124922478571534,-0.0051711578853428,0.0282908994704484,196566732
312,-0.0019618277437984,0.009122397750616,0.0180701296776533,-0.0028882147744297,-0.0003401162102818,0.0074568279087543,0.0303782746195793,0.0116644483059644,0.0277402084320783,0.0068396255373954,101058866
313,-0.0129655543714761,0.0238325353711843,0.0001369751989841,-0.0091177094727754,-0.0053543783724308,-0.0140766501426696,-0.0043740477412939,-0.0128222778439521,0.0010815140558406,-0.0211108215153217,150718293
314,0.0389463678002357,-0.0632204934954643,0.0030607799999415,0.0135282333940267,-0.0117199644446372,0.0123201832175254,-0.050572570413351,0.0073134638369083,-0.0339230820536613,0.0537792257964611,18912237
315,-0.0040620057843625,0.0148082561790943,-0.005862352438271,-0.0055979304015636,0.0003917868016287,-0.0114857945591211,-0.0147908050566911,0.0032935042399913,-0.0197457261383533,-4.7381967306137085e-05,159115989
316,-0.015522776171565,0.0167022738605737,0.0086071612313389,-0.0090454658493399,-0.0109217623248696,-0.0068962359800934,-0.0416567511856555,0.003272634698078,-0.0156242093071341,0.0176458861678838,86617202
317,-0.0029684242326766,0.001444011228159,0.0079333279281854,0.0061701647937297,-0.000758365378715,0.0026457416824996,-0.0074360617436468,0.0071083107031881,-0.0010615168139338,0.0099437478929758,8608429
318,0.0465686284005641,0.0284038819372653,0.0521726682782173,-0.000889808521606,0.0052709793671965,0.0120921293273568,0.0059591382741928,0.0157354101538658,-0.0365606695413589,0.0562618523836135,138469628
319,0.0140764731913805,-0.034547746181488,-0.0025485868100076,0.0105667635798454,-0.0053154807537794,0.0100170448422431,0.0013590180315077,0.0123695414513349,-0.0135612580925226,0.0360086634755134,109486663
320,-0.0093857897445559,0.0269664451479911,-0.0105422381311655,-0.0039192680269479,-0.0043309913016855,-0.0021144854836165,-0.0116041805595159,-0.0036895447410643,-0.0238981842994689,0.0027553453110158,55711245
321,-0.031814619898796,-0.0260088108479976,-0.012673120945692,-0.0222326107323169,-0.0186597108840942,-0.0143144577741622,-0.0215531550347805,-0.0163276642560958,-0.0242771357297897,-0.0202519111335277,101191919
322,-0.015522776171565,0.0167022738605737,0.0086071612313389,-0.0090454658493399,-0.0109217623248696,-0.0068962359800934,-0.0416567511856555,0.003272634698078,-0.0156242093071341,0.0176458861678838,194164487
323,-0.0039442609995603,-0.0073039969429373,0.0008174467366188,0.0018849546322599,-0.0051487889140844,0.0054955566301941,-0.0080408435314893,0.0080508412793278,0.0001707788032945,-0.001871645799838,71488005
324,-0.0107662897400122,-0.0449113023812165,0.0289190374114495,-0.0056894470670178,-0.0072676729025539,0.004535716376085,-0.00151270513616,-0.0021893527217469,0.0040452508463223,-0.004452050521555,45859773
325,0.0227825194597244,-0.0240857638418674,0.0013930040877312,0.0093133375048637,-0.0095736039802432,0.003317383583635,-0.0063403192907571,0.0047195409424602,-0.036282155662775,0.0260090939700603,101778430
326,-0.0058354288339614,-0.0078902952373027,-0.0048804264515638,-0.0023337607271969,-0.0010676966048777,0.0018243545200675,0.0075760995969176,0.0055737337097525,0.0005716196028515,0.0058320658281445,3806601
327,-0.015522776171565,0.0167022738605737,0.0086071612313389,-0.0090454658493399,-0.0109217623248696,-0.0068962359800934,-0.0416567511856555,0.003272634698078,-0.0156242093071341,0.0176458861678838,2297821
328,-0.0155227836221456,0.016702277585864,0.0086071649566292,-0.0090454649180173,-0.010921761393547,-0.0068962350487709,-0.0416567549109458,0.0032726342324167,-0.0156242083758115,0.0176458843052387,108109288
329,-0.015522776171565,0.0167022738605737,0.0086071612313389,-0.0090454658493399,-0.0109217623248696,-0.0068962359800934,-0.0416567511856555,0.003272634698078,-0.0156242093071341,0.0176458861678838,2235503
330,0.0249515697360038,-0.0217871367931365,0.0026433942839503,0.0093721458688378,-0.0028506177477538,0.0085658673197031,-0.0413096398115158,0.0100238639861345,-0.0397168174386024,0.0404550544917583,37764882
331,-0.0143306534737348,0.0222605019807815,0.0088332993909716,-0.009273026138544,-0.0065728020854294,-0.0045860153622925,-0.0341947078704834,0.0081937098875641,-0.0076465457677841,0.004684330895543,7897387
332,-0.0072385091334581,-0.0397757813334465,0.0064066415652632,-0.004415136296302,-0.0088260732591152,0.0011794187594205,0.0229261666536331,0.0024620820768177,-0.0086024133488535,0.0150733757764101,100535643
333,-0.0019364496693015,-0.0180130321532487,-0.0070760445669293,0.0015888574998825,-0.0098447408527135,0.005284366197884,-0.0107506709173321,0.0103700272738933,-0.0226020198315382,0.036600325256586,102644366
334,-0.00378611497581,0.015602758154273,-0.0243145003914833,0.0007367986254394,-0.0138688804581761,0.0092201046645641,-0.0566278398036956,0.0002629354421515,-0.0473284609615802,0.0268228519707918,58802094
335,-0.0120937246829271,-0.0071789398789405,0.0074608544819056,-0.0062213717028498,-0.0097058545798063,-0.0029746380168944,-0.0160234868526458,0.0031978941988199,-0.0143340872600674,0.0167156402021646,94317976
336,0.0074475104920566,-0.0032509572338312,0.0098139848560094,-0.0079910904169082,-0.0105213578790426,-0.0082514882087707,-0.0484281666576862,-0.0155022060498595,-0.0050392216071486,0.0073412600904703,670375
337,0.0196865983307361,-0.0409430228173732,-0.0046846335753798,0.0026406748220324,-0.0152018126100301,0.0027422243729233,-0.0372792221605777,0.0026312365662306,-0.0362994894385337,0.0378549844026565,99402058
338,0.0043860315345227,0.021158143877983,0.0202067382633686,-0.0057699298486113,0.0010017610620707,0.0055813593789935,0.0340112298727035,0.0072132162749767,0.03822673112154,0.0027147463988512,47505989
339,-0.0045141545124351,-0.0585726648569107,0.0055784564465284,-0.0024895668029785,-0.0079822028055787,0.0040921499021351,0.0436769276857376,0.0023112818598747,-0.0070107579231262,0.0142871234565973,110742290
340,-0.0051233656704425,0.0043565174564719,-0.0188125204294919,-0.0038906140252947,-0.0151979057118296,-0.0033504953607916,-0.0360973440110683,0.00627320446074,-0.0276969149708747,0.0097282901406288,99092666
341,0.0030396117363125,0.0383134558796882,0.0110110789537429,0.0061968322843313,0.0041697970591485,0.0058072959072887,0.0047151148319244,0.0091856513172388,0.0217837914824485,0.0088114850223064,73023923
342,0.0089256232604384,0.0145140597596764,0.0009004443418234,-0.0122074335813522,-0.0077219475060701,-0.0072309672832489,-0.0153141021728515,-0.004459174349904,-0.0315056592226028,0.0140158282592892,73299028
343,0.0077454266138374,0.0312135405838489,0.0196175016462802,0.0012492707464843,0.0017942860722541,0.0069797015748918,0.0037119875196367,0.011450869962573,0.0322811380028724,0.0063113328069448,72497730
344,0.0105728674679994,0.0023969570174813,-0.0094604156911373,0.0063177598640322,-0.0008933776407502,0.0038626664318144,-0.0050327372737228,-0.00119428220205,-0.0104258693754673,0.027076231315732,99788385
345,-0.0026112617924809,-0.0037530569825321,0.0156566966325044,0.002041989006102,-0.0051341596990823,0.0016387915238738,-0.009253260679543,0.0066759260371327,-0.0111518958583474,0.0286322049796581,206170303
346,-0.0058836010284721,-0.0139034325256943,-0.0073424750007689,-0.0045460425317287,-0.0117492480203509,-0.0030531235970556,-0.0322437100112438,-0.0048414124175906,-0.0021035585086792,0.0139936199411749,18468296
347,-0.0053934291936457,-0.0164725333452224,-0.0053241509012877,-0.0016186319990083,-0.0059921056963503,-0.0029481828678399,-0.0325192958116531,-0.0005349434213712,-0.0294974409043788,0.0166055746376514,91989996
348,-0.0032907736022025,-0.0101772835478186,0.0068241204135119,0.0073793772608041,-0.0009754421189427,0.004598930478096,-0.0022710151970386,0.0070671904832124,-0.007037294562906,0.0111245550215244,54863209
349,0.0216996781527996,-0.0519845820963382,0.0032586078159511,0.0158058274537324,-0.0013211374171078,0.0155162466689944,0.0076113725081086,0.0131031181663274,-0.0151866441592574,0.037063181400299,88416983
350,0.0062845200300216,-0.0521546825766563,-0.0052263308316469,0.0062637319788336,-0.0179510414600372,-0.0046734642237424,-0.0726786777377128,-0.0038215671665966,-0.0166664030402898,0.0336823463439941,75717236
351,0.0156417898833751,0.0131973400712013,0.0012136865407228,0.0036168461665511,0.0039504007436335,0.0111946975812315,-0.0060297907330095,0.0135874105617403,0.0060469871386885,0.0340913794934749,50207366
352,0.0009255147888325,-0.0037627592682838,-0.0077345771715044,0.0012585958465933,-0.0055760657414793,-0.0015351704787462,-0.0275919064879417,-0.0025268797762691,-0.0111948596313595,0.0226250812411308,76578097
353,0.034609317779541,-0.0346032716333866,0.036063902080059,0.0175546631217002,0.0162129011005163,0.0169475134462118,0.0007738067070022,0.0238735452294349,-0.0298406817018985,0.0564465969800949,101741648
354,-0.0079672178253531,0.0353709943592548,0.0096327345818281,0.0016736447578296,-0.0027329090517014,-0.0031971030402928,-0.043556734919548,0.0070685055106878,-0.0025374835822731,0.0113170715048909,212071753
355,0.0057048723101615,-0.0034380834549665,-0.0134151941165328,0.0056070666760206,-0.0056378887966275,0.0068643768317997,-0.0270208306610584,0.0104330396279692,-0.0158181134611368,0.0190638415515422,3162115
356,-0.0046651312150061,-0.0176069270819425,0.0077496063895523,-0.0006869549397379,-0.0051944470033049,0.000810561934486,0.0108118867501616,0.0043505090288817,-0.0003609961131587,0.0118665741756558,99446605
357,0.0086521618068218,-0.002893638331443,-0.0047966507263481,0.0024977321736514,-0.0018256874755024,0.0021087634377181,-0.0194456819444894,0.0072888932190835,-0.0259417798370122,0.0296799093484878,52541971
358,-0.006465770304203,-0.0255360528826713,0.0639458075165748,0.010738305747509,-0.0097019718959927,-0.0023025441914796,-0.0339553728699684,0.0041733719408512,-0.03377665579319,0.031927041709423,195773243
359,0.0171342797313892,0.0241134402263869,0.0271673911011203,0.0060376460058369,0.0036640944597148,0.0091440967905262,0.0156473187165526,0.0034746081840435,0.0330114894876883,-0.0205662728302411,17687405
360,0.0196665450930595,-0.0184442922472953,0.001874211942777,0.0119901597499847,-0.0009429638739675,0.013669416308403,0.0107720652595162,0.0149652119725942,0.0021412097848951,0.0325433015823364,114274866
361,0.0204331539571285,0.002633680589497,-0.002570052165538,-0.0025980151258409,-0.0080517726019024,0.0019120230572298,-0.0217854063957929,0.0020685605704784,-0.0183409862220287,0.0197780635207891,158508852
362,-0.013239805586636,-0.0126462904736399,-0.0068386159837245,-0.010837348178029,-0.0068316012620925,-0.008285597898066,0.012524108402431,-0.006548379547894,0.0026575068477541,-0.0097616491839289,107512023
363,0.0068375535108233,0.0188639914668242,-0.0126410594110866,0.0052537208989467,-0.0002442817689396,0.0096730102892396,-0.0266006235155455,0.0009941342100496,-0.0315986564616432,0.0247175384619984,146167229
364,-0.015522776171565,0.0167022738605737,0.0086071612313389,-0.0090454658493399,-0.0109217623248696,-0.0068962359800934,-0.0416567511856555,0.003272634698078,-0.0156242093071341,0.0176458861678838,59299279
365,-0.0155227836221456,0.016702277585864,0.0086071649566292,-0.0090454649180173,-0.010921761393547,-0.0068962350487709,-0.0416567549109458,0.0032726342324167,-0.0156242083758115,0.0176458843052387,55422060
366,-0.0121781453490257,0.0009734262712299,-0.0152228316292166,-0.0122556686401367,-0.0100265946239233,-0.0124186323955655,-0.0078256037086248,-0.0109019633382558,-0.0105623360723257,-0.0025547409895807,156284152
367,-0.0274800714105367,-0.0107209216803312,0.0049395859241485,0.0067666359245777,0.0077091278508305,0.0105859609320759,-0.0115161770954728,0.0073730600997805,0.0037525692023336,0.0136874234303832,109502816
368,-0.0003513124538585,-0.013070672750473,-0.0281645022332668,-0.008454174734652,-0.0152683164924383,-0.0134561527520418,-0.0304324850440025,-0.0084431581199169,-0.0294091645628213,0.0027030445635318,76747884
369,0.0028728838078677,-0.0175074227154254,0.0384643413126468,-0.0122242998331785,-0.0043112495914101,-0.0090783396735787,-0.0031873963307589,-0.0040786643512547,-0.0178871639072895,0.0016278377734124,96648892
370,0.0145223997533321,-0.0293118376284837,-0.0053630322217941,0.0053421547636389,-0.008412254974246,0.0070495521649718,-0.0484639853239059,0.0083647165447473,-0.0421591475605964,0.02683443762362,2368500
371,0.0077454266138374,0.0312135405838489,0.0196175016462802,0.0012492707464843,0.0017942860722541,0.0069797015748918,0.0037119875196367,0.011450869962573,0.0322811380028724,0.0063113328069448,6747648
372,0.0036265598610043,-0.0028769946657121,-0.0120568824931979,0.0027411223854869,-0.0041196322999894,0.0019507529214024,-0.011811994947493,0.002142340876162,-0.0095484964549541,0.0119554009288549,124975178
373,-0.0025364831089973,-0.0254815760999918,0.0075376941822469,0.0008194078691303,-0.0041850586421787,0.0023663940373808,0.0221351776272058,0.0044796159490942,0.0025648330338299,0.010795815847814,206977176
374,-0.0155227836221456,0.016702277585864,0.0086071649566292,-0.0090454649180173,-0.010921761393547,-0.0068962350487709,-0.0416567549109458,0.0032726342324167,-0.0156242083758115,0.0176458843052387,45621154
375,-0.008259086869657,-0.0331799052655696,0.0065085170790553,-0.0043333871290087,-0.0088338293135166,0.0006005717441439,0.0141799887642264,0.0027493434026837,-0.0106290895491838,0.0154870096594095,96457659
376,-0.0214632600545883,0.0012361537665128,-0.0253076329827308,-0.0105068255215883,-0.0087083745747804,-0.0146922152489423,-0.0096479570493102,-0.009920310229063,-0.0214401856064796,-0.0142741724848747,148611986
377,0.0065615931525826,-0.0138014256954193,-0.0258705299347639,-0.0027953216340392,-0.0105548202991485,0.002002484165132,0.0087226098403334,-0.0039632143452763,-0.0347819477319717,0.0293772406876087,6001285
378,0.0024738896172493,0.0233859810978174,0.0009113490814343,0.0038544950075447,-0.0034221753012388,0.0011345539242029,-0.0136481318622827,0.0091524543240666,0.0048465505242347,0.0028109019622206,72763348
379,0.0073485863395035,-0.0080376407131552,0.0081277806311845,-0.0003113220445811,-0.0039519732818007,0.0078530581668019,0.0141578037291765,0.0083006704226136,0.0218273308128118,0.0082223992794752,16835734
380,-0.0095288679003715,0.0222294852137565,-0.0158002115786075,-0.0213184207677841,-0.0121317924931645,-0.0159299783408641,0.0040466669015586,-0.0213081166148185,0.0269316062331199,-0.0224442332983016,44708713
381,-0.0047156368382275,-0.0005107773467898,-0.0078143449500203,-0.0168176479637622,-0.013367798179388,-0.0100811189040541,-0.0109812980517745,-0.0119571760296821,-0.0224947407841682,-0.0037381690926849,110012110
382,0.0268346574157476,-0.0450018048286438,0.0020751380361616,0.005713571794331,-0.010223239660263,0.0098233660683035,-0.034822754561901,0.0062198187224566,-0.0129712894558906,0.0460704937577247,88880574
383,0.0245913602411746,-0.0005072057247161,-0.0170270595699548,-3.919797018170357e-05,-0.0022858588490635,0.0042660124599933,-0.0239088740199804,0.0027828714810311,-0.0513467006385326,0.0299961734563112,30351501
384,0.008091252297163,-0.0101187517866492,0.0006925576599314,0.0018138175364583,-0.0053165885619819,0.000442745978944,-0.0172819197177886,0.0027988210786134,-0.0110549703240394,0.0079919295385479,152354126
385,-0.0035209846682846,-0.0638017058372497,0.0060355579480528,-0.0047129201702773,-0.0087978178635239,0.0032879086211323,0.0547847300767898,0.0014157257974147,-0.0012201205827295,0.0135666448622941,206939650
386,-0.0056379362940788,-0.0054223691113293,0.0067236674949526,0.0060887141153216,-0.0021371198818087,0.003513662610203,-0.0125345382839441,0.0068966127000749,-0.0118439737707376,0.0126096969470381,85951147
387,0.0225593037903308,-0.0708193629980087,0.0091214505955576,0.0033001394476741,-0.0046271397732198,0.0062662055715918,-0.0413013882935047,0.0125491209328174,-0.1008504480123519,0.0483854264020919,102386409
388,-0.0009404176380485,-0.0048204660415649,-0.0289007145911455,-9.213155135512352e-05,-0.0158834047615528,-0.0004787188954651,-0.0316832587122917,0.0077405488118529,-0.0343919284641742,0.0070561617612838,78535305
389,0.0309554524719715,-0.0275561437010765,0.0252937544137239,0.0155556611716747,0.0081522921100258,0.0174832362681627,0.0258701927959918,0.0140527114272117,0.0055845971219241,0.0419941768050193,103874922
390,-0.0066581731662154,0.0185640081763267,0.014985985122621,-0.0088179791346192,-0.0054269582033157,-0.0011618798598647,-0.0012597653549164,0.0050589209422469,0.012269870378077,0.0101457340642809,19771878
391,0.0256819110363721,-0.0494198985397815,-0.0011247841175645,0.0101095242425799,-0.0069275153800845,0.0103081045672297,-0.0212048944085836,0.0036547586787492,-0.0130150895565748,0.0378355309367179,32949717
392,0.0077850772067904,-0.048686034977436,0.0040425830520689,0.0008644647896289,-0.0127355130389332,0.0035699717700481,-0.0057563451118767,0.0015858543338254,-0.0224011987447738,0.0414521470665931,184425605
393,-0.0026957769878208,-0.0251778308302164,0.0054010725580155,-0.0005720382905565,-0.0105443000793457,-0.0010908874683082,-0.0184266921132802,0.0013344790786504,-0.0059495447203516,0.0030227343086153,102887574
394,-0.00541248684749,-0.0113704167306423,-0.0093919206410646,-0.0021864047739654,-0.0068879905156791,-0.0034620601218193,-0.0140773747116327,0.0053256647661328,-0.0236799828708171,0.005523064173758,66891131
395,0.0057039535604417,-0.0324133224785327,0.0069354628212749,-0.0044177891686558,-0.0105560068041086,0.0026722480542957,0.0218057390302419,0.0009533206466585,0.002163135446608,0.0170062202960252,106261680
396,-0.0249615497887134,0.0072789639234542,-0.0568973831832408,-0.0384865589439868,-0.0245088338851928,-0.0171358361840248,0.0265360809862613,-0.0190237909555435,-0.0047573926858603,-0.012180627323687,60194762
397,-0.0070795244537293,-0.0092090712860226,0.0044180783443152,-0.0016414313577115,-0.005131090991199,-0.0003882320597767,0.0004954520263709,0.0032320814207196,-0.0023777759633958,0.0103697320446372,101368165
398,0.0077454266138374,0.0312135405838489,0.0196175016462802,0.0012492707464843,0.0017942860722541,0.0069797015748918,0.0037119875196367,0.011450869962573,0.0322811380028724,0.0063113328069448,6747649
399,0.0009064078330993,-0.032897725701332,0.0147171961143612,0.0073912255465984,-0.0043668998405337,0.0109834000468254,-0.0114778894931077,0.0133691374212503,-0.027490809559822,0.0281254313886165,110939942
400,-0.0071919001638889,-0.0230371300131082,-0.0213628336787223,0.0068299798294901,-0.0022720729466527,0.0065510161221027,-0.0369815863668918,0.0044205877929925,-0.0324048586189746,0.0090119913220405,52268839
401,-0.0119803892448544,-0.0070588472299277,0.0078481454402208,-0.0077666947618126,-0.0102948723360896,-0.0038903385866433,-0.0131916012614965,0.0027245595119893,-0.0113727767020463,0.0164418816566467,115138097
402,-0.0058054481633007,-0.0517739728093147,0.004984145052731,0.0004011918790638,-0.0069217570126056,0.0051378067582845,0.029234804213047,0.0034756679087877,-0.0145396329462528,0.015223866328597,90959033
403,0.0178714152425527,-0.0325549058616161,0.0003545929794199,0.0068832100369036,-0.0121340155601501,-0.0004843738861382,-0.0365131758153438,0.0013404835481196,-0.0382429249584674,0.0201775319874286,68997293
404,0.0235460326075553,-0.0232679136097431,-0.0016251679044216,0.0123611381277441,-0.0055277105420827,0.0090473061427474,-0.0328335762023925,0.0124753126874566,-0.0347950719296932,0.0304516274482011,97442108
405,-0.0182147249579429,0.0014481064863502,-0.0118059944361448,-0.0088120708242058,-0.0099021969363093,-0.0092064123600721,-0.0164835304021835,-0.0116861667484045,-0.0058425739407539,-0.0242505259811878,34335298
406,-0.0119803883135318,-0.0070588462986052,0.0078481454402208,-0.0077666947618126,-0.0102948723360896,-0.0038903385866433,-0.0131916012614965,0.0027245595119893,-0.0113727767020463,0.0164418816566467,207034364
407,-0.001542804762721,-0.0323482751846313,-0.02633155323565,-0.0160658881068229,-0.0234864763915538,-0.0134123843163251,-0.0230195056647062,-0.0173748768866062,-0.040316242724657,-0.0088688991963863,8208151
408,0.0019854069687426,-0.0019609034061431,-0.002396950032562,0.0028878413140773,-0.0057521779090166,0.0021903365850448,-0.0081569561734795,0.0040106116794049,0.0111761102452874,0.0026721882168203,71145982
409,0.0070663820952177,-0.0018220469355583,0.0020377216860651,0.0135903796181082,-0.0004485093522816,0.0078501785174012,-0.0110014984384179,0.0064496230334043,-0.0291351377964019,0.0149152036756277,103625428
410,-0.0039304541423916,-0.0181719474494457,0.007377203553915,0.0017836947226896,-0.0039311442524194,0.0022494648583233,0.0100361704826354,0.0050726197659969,-0.0020253411494195,0.0115694496780633,58374844
411,-0.0007935451576486,-0.0424293018877506,0.0025698700919747,0.0007173158228397,-0.0139139909297227,-0.0042588063515722,-0.0002644315827637,0.003285591956228,-0.024284953251481,0.0141103919595479,165081199
412,0.0214419700205326,-0.0310926679521799,-0.0058559346944093,0.0163109041750431,-0.0045927367173135,0.0142533155158162,-0.0300464443862438,0.0138906324282288,-0.0203288178890943,0.048702884465456,33982497
413,-0.0079672178253531,0.0353709943592548,0.0096327345818281,0.0016736447578296,-0.0027329088188707,-0.0031971025746315,-0.043556734919548,0.0070685055106878,-0.0025374835822731,0.0113170705735683,201846065
414,0.0508912913501262,-0.0338898710906505,0.0385529994964599,0.0257922578603029,0.0193096175789833,0.0328594446182251,-0.0001922007650136,0.0353977791965007,-0.0135567747056484,0.0740217044949531,49609372
415,-0.015522776171565,0.0167022738605737,0.0086071612313389,-0.0090454658493399,-0.0109217623248696,-0.0068962359800934,-0.0416567511856555,0.003272634698078,-0.0156242093071341,0.0176458861678838,178367993
416,0.0131168756633996,-0.068509042263031,-0.0188510026782751,0.0192033741623163,-0.0171083994209766,0.0070312600582838,-0.057631392031908,0.0112138949334621,-0.0753057301044464,0.0280858445912599,47023001
417,-0.015522776171565,0.0167022738605737,0.0086071612313389,-0.0090454658493399,-0.0109217623248696,-0.0068962359800934,-0.0416567511856555,0.003272634698078,-0.0156242093071341,0.0176458861678838,15166421
418,-0.015522776171565,0.0167022738605737,0.0086071612313389,-0.0090454658493399,-0.0109217623248696,-0.0068962359800934,-0.0416567511856555,0.003272634698078,-0.0156242093071341,0.0176458861678838,7172770
419,-0.0013836623402312,0.0193900037556886,0.0092966482043266,0.0072975796647369,0.0012163297506049,0.0012873315718024,-0.0160963423550128,0.0080673294141888,0.0069968733005225,0.0075512556359171,188320861
420,-0.0083886282518506,-0.031151209026575,0.0070785442367196,-0.0064700967632234,-0.0096592409536242,-0.0008425380801782,0.0156703572720289,0.002168845385313,-0.0070620742626488,0.0152210881933569,45859764
421,-0.015522776171565,0.0167022738605737,0.0086071612313389,-0.0090454658493399,-0.0109217623248696,-0.0068962359800934,-0.0416567511856555,0.003272634698078,-0.0156242093071341,0.0176458861678838,172571530
422,-0.0043310052715241,-0.0595369264483451,0.0056627499870955,-0.0028995659667998,-0.0081326104700565,0.0039438433013856,0.0457252711057662,0.0021461360156536,-0.0059429304674267,0.0141542619094252,91069114
423,-0.0118072014302015,-0.0127637535333633,0.0056868498213589,0.0004826323129236,-0.0071207019500434,0.0014790345449,-0.0217155739665031,0.0050502191297709,-0.025746751576662,0.0175971686840057,52361126
424,0.0113734472543001,0.0137234954163432,-0.0032589375041425,0.0096050230786204,0.0017260159365832,0.0077726389281451,-0.0299651119858026,0.0135382357984781,-0.0063410596922039,0.0109254959970712,1134720
425,0.0186387542635202,-0.0097413696348667,-0.0042166686616837,0.0105583192780613,-0.0033842804841697,0.0064590685069561,-0.0131758414208889,0.0062482831999659,-0.0120914913713932,0.0255374107509851,201234592
426,-0.0098543632775545,0.0008807791164144,-0.0148896966129541,-0.0070554511621594,-0.0062946081161499,-0.0082149440422654,-0.0083471201360225,-0.0111143952235579,-0.00827550701797,-0.0074280514381825,14966853
427,0.0060729281976819,0.0019213621271774,0.0103230588138103,0.0080125406384468,-5.387887358665466e-05,0.0036283270455896,-0.0323480740189552,0.0086967861279845,-0.0086382133886218,0.0185439139604568,57519725
428,0.0163961686193943,-0.0433529391884803,-0.0015516441781073,0.0157947950065135,-0.0016797760035842,0.012666217982769,0.0007037668256089,0.0145363006740808,-0.0213604178279638,0.0417251177132129,50031549
429,-0.007400345057249,-0.0377802550792694,0.0068667833693325,-0.0061133364215493,-0.0094843441620469,-3.930879756808281e-06,0.023611769080162,0.00201593991369,-0.0058759804815053,0.014885189011693,66464625
430,0.0206697713583707,-0.0130902603268623,-0.027319872751832,0.0022127965930849,-0.0051702568307518,0.0031412215903401,-0.0182743277400732,0.0078908484429121,-0.0281322784721851,0.0313444174826145,68748784
431,0.0184345170855522,-0.0209286734461784,0.0087276902049779,0.0210985075682401,0.0018068493809551,0.01449790969491,-0.022952526807785,0.0139680430293083,-0.0252047702670097,0.0299795251339674,55422033
432,-0.0123038999736309,0.0058958986774086,-0.0029197982512414,-0.0054829106666147,-0.0040171123109757,-0.0068813427351415,0.001479506958276,-0.0039331773295998,0.0070992712862789,-0.0057399710640311,58017337
433,0.0081388223916292,-0.0330816842615604,0.0061564473435282,0.0100428340956568,-0.0056372564285993,0.0040050977841019,-0.0173310041427612,0.008896317332983,-0.0469798929989337,0.0389127135276794,51887928
434,-0.0035209830384701,-0.0638017058372497,0.0060355551540851,-0.0047129201702773,-0.0087978169322013,0.0032879072241485,0.0547847300767898,0.0014157254481688,-0.0012201140634715,0.0135666448622941,96232449
435,0.0337697379291057,-0.0342539846897125,-0.0029834802262485,0.0143315661698579,-0.0035992902703583,0.0106375217437744,-0.0392323620617389,0.0110921394079923,-0.0327855497598648,0.0389418229460716,206810298
436,0.0154209956526756,-0.036403588950634,0.0040470035746693,0.0047141341492533,-0.010305929929018,0.0037090945988893,-0.0769164338707923,0.0045227208174765,-0.0511454641819,0.0404553413391113,173351101
437,0.0080572487786412,0.0807382762432098,0.0335509628057479,-0.0113043813034892,0.0074772397056221,0.0066348044201731,0.0360903963446617,0.0110667161643505,0.0751997530460357,-0.0066280271857976,47445127
438,0.0191101878881454,-0.0089229512959718,0.0058359652757644,0.0134657360613346,0.007864317856729,0.0152870677411556,-0.0089336019009351,0.0215990729629993,0.0134730264544487,0.0424682796001434,76920769
439,2.3775501176714897e-05,-0.0439882539212703,-0.0140552865341305,-0.0110609317198395,-0.017568839713931,-0.0065652676858007,0.0217222720384597,-0.0098083410412073,-0.0166606102138757,0.0008466187282465,6754190
440,-0.0022564795799553,0.0508523024618625,0.0155709441751241,0.0012954408302903,0.001756910351105,7.052649743855e-05,-0.0251231826841831,0.0089752823114395,0.0192224197089672,0.0054596671834588,19933028
441,-0.0239019561558961,0.0173850730061531,-0.0160481072962284,-0.0136051336303353,-0.007734446786344,-0.0094030862674117,-0.0006636525504291,-0.0045814453624188,0.000724951038137,-0.0151279103010892,191085080
442,0.0145604498684406,0.0041318670846521,-0.0013367785140872,0.0041556721553206,-0.0029499297961592,0.007677849382162,-0.0377337634563446,0.0050254128873348,-0.0509081706404686,0.0445787459611892,34326285
443,0.0001194551587104,0.0553520508110523,0.0107303941622376,0.0131462570279836,0.0060315844602882,0.0007620616815984,-0.0455902703106403,0.0111312083899974,0.0114691751077771,0.0045433766208589,12928037
444,0.0058809984475374,0.010927197523415,0.0138265192508697,0.0053574834018945,0.002982638310641,0.0045590666122734,-0.0185075849294662,0.0024892576038837,-0.0033457675017416,0.0167996529489755,86177534
445,-0.0039444481953978,0.0121148666366934,-0.0154922194778919,-0.0082510197535157,-0.0056115263141691,0.0023438329808413,-0.0180615317076444,0.0006138477474451,-0.0100587140768766,0.0136957969516515,192078523
446,0.0314074121415615,-0.0337861962616443,-0.0125642232596874,-0.0034924680367112,-0.0146213872358202,0.0028114542365074,-0.0482269041240215,0.0028944048099219,-0.0451619662344455,0.0019861732143908,200400506
447,0.0060835694894194,0.0291738733649253,-0.0032413117587566,-0.0048900642432272,-0.0002583743189461,0.0033603727351874,0.0057778707705438,0.0052541876211762,0.0310101360082626,-0.0083549935370683,879768
448,0.0121502568945288,0.0041082017123699,-0.034374576061964,0.0008550101192668,0.002307329326868,-0.0027370820753276,0.0082259094342589,-0.0018077928107231,-0.0028046374209225,-0.010738706216216,38106215
449,-0.0237146522849798,-0.0126027334481477,-0.026712130755186,-0.0053950687870383,-0.0157127045094966,-0.0120869372040033,-0.0340299978852272,-0.0093895345926284,-0.0304688718169927,-0.0169316306710243,98506381
450,-0.0104935783892869,-0.0107782734557986,-0.0352127365767955,0.0046264450065791,-0.0033199687022715,0.0072607779875397,-0.0086338073015213,0.0009008320048451,-0.0133753102272748,0.0200936719775199,195696760
451,0.0362377427518367,-0.0530063062906265,-0.007101122289896,0.0021578846499323,-0.015473922714591,0.0031860133167356,-0.0524204820394516,0.0065607596188783,-0.0422805100679397,0.0504239127039909,1058759
452,0.0166277736425399,0.0149124078452587,-0.0373226255178451,0.012901279143989,-0.0028398872818797,0.0029656786937266,-0.0249143093824386,0.0016021728515625,-0.0435012392699718,0.0414268672466278,77580268
453,-0.0042591242826937,0.0063527800864781,-0.0119516646683805,0.0270198341498166,0.0048227163186785,-0.0006531382534561,0.0136520255160325,0.0205738008143389,0.0112473177944618,0.0127191473947628,84470282
454,-0.0071054315194487,-0.012153573334217,0.0033516567200422,-0.0069653131067752,-0.0038994173519313,-0.0036896835081279,0.0059446487575769,0.0003854281967505,-0.066876046359539,-0.0019931169226765,64177119
455,0.0239755511283874,-0.0637788549065589,0.0136848343536257,0.0006048013456165,-0.0132626574486494,-0.0009631274733692,-0.0497380159795284,0.0001193511416204,-0.0066195516847074,0.0304337162524461,88880575
456,0.0403902493417263,-0.0762849897146225,-0.0076755038462579,0.0132035184651613,-0.0165641922503709,0.0119908712804317,-0.0535100139677524,0.0042031984776258,-0.0321793928742408,0.0542798787355423,73392382
457,-0.0155227836221456,0.016702277585864,0.0086071649566292,-0.0090454649180173,-0.010921761393547,-0.0068962350487709,-0.0416567549109458,0.0032726342324167,-0.0156242083758115,0.0176458843052387,194294684
458,-0.0231168698519468,0.012660495005548,-0.0242394171655178,-0.0154600515961647,-0.0094193872064352,-0.0172172971069812,0.0047989571467041,-0.0186192821711301,-0.0083055039867758,-0.0156004149466753,74945071
459,0.0576770976185798,0.0168043635785579,0.0339718796312809,0.0472904294729232,0.029065953567624,0.0409234687685966,-0.0192407965660095,0.0313368439674377,0.0181744880974292,0.0362265408039093,126242405
460,-0.0129034891724586,-0.0008670319803059,0.0080459341406822,-0.0080999247729778,-0.01045823097229,-0.0046736341901123,-0.0206092298030853,0.0028673815540969,-0.0124806370586156,0.0167556256055831,99092671
461,0.0089623387902975,-0.0315373428165912,-0.0061752893961966,0.0062089134007692,-0.0096578849479556,0.0048119975253939,-0.02234398573637,0.0007161427056416,-0.0295684542506933,0.0175516232848167,5099843
462,-0.015522776171565,0.0167022738605737,0.0086071612313389,-0.0090454658493399,-0.0109217623248696,-0.0068962359800934,-0.0416567511856555,0.003272634698078,-0.0156242093071341,0.0176458861678838,18860704
463,-0.0298221483826637,-0.0016386277275159,-0.0233653355389833,-0.0187982898205518,-0.0102510023862123,-0.0167975183576345,0.0068185720592737,-0.0127243865281343,-0.0105400532484054,-0.01877729780972,49065011
464,-0.0174849666655063,0.0345993638038635,0.016695961356163,-0.0123566407710313,-0.0117451446130871,-0.0173826478421688,-0.0003294027410447,-0.0102814808487892,-0.0170726720243692,-0.0051976833492517,60623703
465,-0.0039415485225617,-0.0514491721987724,0.0090727461501955,0.004366394598037,-0.0161205474287271,-0.0061862794682383,0.0005816533230245,0.0032503879629075,-0.0337760150432586,0.0103285051882267,102481856
466,0.0053692869842052,-0.0182409510016441,-0.0054979668930172,0.0068537322804331,-0.0057916371151804,-0.0001562540419399,-0.0294862762093544,0.0025193872861564,-0.0362994633615016,0.0220021475106477,44394807
467,-0.0087998276576399,0.0231271926313638,-0.014918353408575,-0.0208040252327919,-0.0116759156808257,-0.0156601537019014,0.0055476217530667,-0.0208999011665582,0.0265341438353061,-0.0231716465204954,98350726
468,0.0038417442701756,-0.0393599458038806,0.0058960826136171,-0.005042441189289,-0.0138544272631406,-0.0041817184537649,-0.0286960452795028,-0.0096016703173518,-0.024993548169732,0.0237829200923442,18682509
469,-0.0186007907615639,0.0222597861796274,0.0014528953557637,0.0038178535932932,0.0023023966976608,0.0169409428677928,0.0315429611548365,0.0029668241650553,0.0037409028719262,0.0055047071030027,4594647
470,-0.0080076325684785,-0.0337067916989326,0.0069969044998288,-0.006332560442388,-0.0095918169245123,-0.0005192441167309,0.0187318846583366,0.0021098980214446,-0.0066048172302544,0.0150915952399373,54107666
471,-0.0119803892448544,-0.0070588472299277,0.0078481454402208,-0.0077666947618126,-0.0102948723360896,-0.0038903385866433,-0.0131916012614965,0.0027245595119893,-0.0113727767020463,0.0164418816566467,186443103
472,0.013314576819539,-0.0344964005053043,0.0331868678331375,-0.0103689357638359,-0.0090909646824002,-0.0079805813729763,0.0247357189655303,-0.0081801395863294,-0.0164519995450973,-0.0077951503917574,97759716
473,-0.015522776171565,0.0167022738605737,0.0086071612313389,-0.0090454658493399,-0.0109217623248696,-0.0068962359800934,-0.0416567511856555,0.003272634698078,-0.0156242093071341,0.0176458861678838,7843922
474,-0.009855936281383,0.0271325167268514,0.0065603116527199,-0.0022046756930649,-0.0059336824342608,-0.0037793219089508,-0.0371841341257095,0.0035187911707907,-0.0045142713934183,0.0095053995028138,124845535
475,-0.015522776171565,0.0167022738605737,0.0086071612313389,-0.0090454658493399,-0.0109217623248696,-0.0068962359800934,-0.0416567511856555,0.003272634698078,-0.0156242093071341,0.0176458861678838,7445076
476,0.0414902679622173,-0.0272389333695173,-0.0146707249805331,0.0320507511496543,1.3764947652816772e-05,0.0226309243589639,-0.031255193054676,0.0258807837963104,-0.0240940637886524,0.0635856017470359,3855634
477,0.0465686284005641,0.0284038819372653,0.0521726682782173,-0.000889808521606,0.0052709793671965,0.0120921293273568,0.0059591382741928,0.0157354101538658,-0.0365606695413589,0.0562618523836135,17110600
478,0.0202263494686755,0.0126184934598286,0.0002943359561003,0.0079094635044699,0.0022258556948699,0.0064197512885864,-0.0157615256368879,0.0071137644652787,0.0015467223705671,-0.0249262388309169,191388858
479,0.0125346221029758,0.0158192925155162,-0.0447720550000667,-0.0016593165928497,-0.0115956850349903,0.001240984769538,-0.0185651183128356,-0.007149756886065,-0.0546643547713756,0.0387435927987098,85885097
480,0.0120239220559597,-0.045823436230421,-0.0085717188194394,0.0081859696656465,-0.0156283713877201,0.0048925299197435,-0.0576509311795234,0.0063827354460954,-0.0600621625781059,0.0344260074198246,101157823
481,0.0099477116018533,-0.0502055473625659,0.0440438985824584,0.0081283440813422,-0.0022648281883448,0.010466887615621,-0.0223927050828933,0.0159282106906175,-0.0223758444190025,0.0236251838505268,49652166
