,security,conformity,tradition,benevolence,universalism,self-direction,stimulation,hedonism,achievement,power,song_id
0,0.0026733046397566,0.012387465685606,-0.0014594169333577,0.0002582025481387,-0.0088627785444259,0.0068321172147989,-0.0060487608425319,2.977498286079773e-05,-0.0216383337974548,0.0219193007797002,4116102
1,-0.0141638172790408,0.0041815433651208,-0.0012260227231308,-0.0016548252897337,-0.0069077499210834,0.0035488060675561,0.0325456410646438,-0.0467967362683336,-0.0221590772271156,0.0026437742635607,80257632
2,-0.0149216977879405,0.0008620000444352,-0.010484860278666,0.00028046220541,-0.0087446263059973,0.0064972527325153,0.047465793788433,-0.0725958808975177,-0.0401146747171878,-0.0068513210862874,2241308
3,0.0070051634684205,-0.0210585109889507,-0.0220277346670627,0.0032775430008769,-0.0073589798994362,0.0058106104843318,-0.0085590239614248,-0.0144791789545132,-0.0361481830477714,0.0131986308842897,204336669
4,0.0046800503882585,-0.0515337502768464,0.051373571261174,0.0192817435615056,0.0208879833618848,0.0069956818749762,0.020397786836287,-0.0751715768465036,-0.0365574722947384,0.0427625646762167,34952275
5,-0.017808586359024,0.0058305859565734,-0.0097706252709031,-0.0115356184542179,-0.0115857254713773,-0.0100836977362632,-0.0077517945319414,-0.0173763123657254,-0.0113891316577792,-0.0103584835305809,17390586
6,0.0026358575560152,0.004956517368555,0.0037570595741271,-0.0045633148401975,-0.0086449449881911,-0.0041015055030584,-0.0290915016084909,-0.0394272781368709,-0.0105398204177618,-0.0072505590505898,9223300
7,0.0113920709118247,0.006507933139801,0.0084027079865336,0.0090907588601112,-0.0026235666591674,0.0076335300691425,-0.007546049542725,-0.0285346699259082,-0.0120923705399036,0.0385222472250461,149782763
8,0.0469466336071491,0.0103613445535302,0.0310725439339876,0.0079845925793051,0.0049718921072781,0.0131362602114677,0.0163295418024063,0.0005967809996361,0.0044512166641652,0.0384334176778793,99962781
9,0.0169192031025886,0.0095082763582468,0.0047093834728002,0.0031591670121997,-0.0024419068358838,0.006973635405302,-0.0024880617856979,-0.0241900602943983,-0.0020254382397979,0.0186281874775886,136930153
10,-0.0214178133755922,-0.0042291353456676,0.0077360235154628,-0.0094991791993379,-0.0143594220280647,-0.0088643049821257,-0.0228997636586427,-0.0106669775213453,-0.026036512106657,-0.0070185158401727,85912872
11,0.0017090508448056,-0.0647761943654626,-0.0593682829170496,0.0116699318844728,0.0085655124638686,0.0245398847349613,-0.0067057991724412,-0.0042841740282458,0.0538903640752253,0.0219144761119452,57005765
12,0.0113920709118247,0.006507933139801,0.0084027079865336,0.0090907588601112,-0.0026235666591674,0.0076335300691425,-0.007546049542725,-0.0285346699259082,-0.0120923705399036,0.0385222472250461,99567690
13,0.0636356174945831,-0.049378678202629,-0.0216795653104782,0.0360402502119541,0.0021377452649176,0.0364735871553421,-0.0223664529621601,-0.0113162489207817,-0.0690114572644233,0.0490557961165905,151085454
14,0.0016847846563905,0.0056242672726511,0.0047452794387936,0.0050091003067791,-0.0042508929036557,0.0060819657519459,0.0076825860887765,-0.0354714308070252,-0.0159161649644374,0.0248939804732799,134245347
15,-0.0287203807383775,0.0119511820375919,0.0075469226576387,-0.0121543016284704,-0.0062057850882411,-0.0038484088145196,0.0433992594480514,-0.0362371265481061,-0.0070933084934949,-0.0164150465279817,16074172
16,0.0095833232626318,0.0188849810510873,0.0151557615026831,-0.001377617008984,-0.0030241550412029,0.002179155126214,-0.0135917533189058,-0.0408578252617318,-0.0034644841216504,0.0003197003388777,61210999
17,0.0042347470298409,-0.0112890936434268,0.0064354725182056,0.0075513515621423,-0.0031481378246098,0.0031819457653909,-0.0293778888881206,-0.0322583836746452,-0.0061720116063952,0.0067989816889166,102814436
18,0.0050120214000344,-0.0362902134656906,0.0163801126182079,0.0020930639002472,-0.0040329773910343,0.0105407694354653,-0.0196447260677814,0.007235943459132,-0.0302342195063829,0.0381335690617561,205113268
19,0.0167786478996276,-0.004259156063199,-0.0143583100289106,0.0021686051040887,-0.0057813664898276,0.0015343888662755,-0.0103356167674064,-0.0368740331492973,-0.0223091877996921,0.0345577262341976,99526020
20,0.0113920709118247,0.006507933139801,0.0084027079865336,0.0090907588601112,-0.0026235666591674,0.0076335300691425,-0.007546049542725,-0.0285346699259082,-0.0120923705399036,0.0385222472250461,152156851
21,0.0215001553297042,-0.0309370215982198,0.0037012482061982,-0.0019753454253077,-0.0024745047558099,0.0045108124613761,-0.018802560865879,0.0238534917987884,-0.017814127728343,0.0375747121870517,17997657
22,-0.0046134907752275,-0.0272916704416275,-0.0132696917280554,0.0006744772545062,-0.0079176779836416,0.0017541812267154,-0.0171198584139347,-0.0403027137207105,0.0019503929652273,0.0353971198201179,55713838
23,0.0113920709118247,0.006507933139801,0.0084027079865336,0.0090907588601112,-0.0026235666591674,0.0076335300691425,-0.007546049542725,-0.0285346699259082,-0.0120923705399036,0.0385222472250461,97622225
24,0.01386593375355,0.0368613377213478,0.0025025401264429,-0.0062582120299339,-0.0027672350406646,-0.0075738695450127,0.0077298637479543,-0.0560266126581888,0.0082397991791367,-0.002308732829988,114553438
25,-0.0004159486852586,-0.0410488173365592,0.0048800483345985,0.0095742996782064,-0.0154728675261139,0.0057271965779364,-0.0497840829193592,-0.0531094159130264,-0.0404613763093948,0.0354355163872242,45138126
26,-0.0121085308492183,0.0028613307513296,-0.0052608214318752,-0.0004546047421172,-0.0142197906970977,0.0025202026590704,-0.0126968827098608,-0.0425017328697793,-0.0458804108202457,0.0006512060062959,51897534
27,-0.0135794635862112,-0.0336726419627666,-0.0034840938169509,0.0039131073281168,-0.0085380282253026,0.0001811580732464,0.001926232362166,-0.0056818919470458,-0.0270610880106687,0.0233816374093294,74451241
28,0.0113920709118247,0.006507933139801,0.0084027079865336,0.0090907588601112,-0.0026235666591674,0.0076335300691425,-0.007546049542725,-0.0285346699259082,-0.0120923705399036,0.0385222472250461,6629722
29,0.0112024266272783,-0.0218796543776989,-0.0034233266487717,0.0045928172767162,-0.0065212920308113,0.0026529331225901,-0.018473969772458,-0.0035214181507792,-0.0196733921766281,0.0207132175564765,111234596
30,0.0106898564845323,0.007012425456196,0.0187174174934625,0.0031564612872898,0.0016404404304921,0.0049548083916306,-0.0057602813467383,-0.0048645644608073,-0.0054625226184725,0.0202967263758182,126273707
31,0.007345737889409,-0.0136022372171282,0.0024667785037308,0.0133351599797606,-0.0039266725070774,0.0149741359055042,-0.0035787739325314,-0.0362780060580932,-0.0186625830829143,0.0187328606843948,99567684
32,0.0076734325848519,-0.0012630757410079,0.00413279235363,-0.0005244843196123,-0.005652098916471,0.0047151260077953,0.0030232935678213,-0.0038127376551102,-0.0155432987958192,0.0171923078596591,102339234
33,-0.0143959270790219,0.0015924273757264,-0.0110925137996673,-0.0034271297045052,-0.0033394517377018,0.0014731844421476,0.0158184505999088,0.0441626289359185,0.0133551033213734,0.0059651490300893,1632500
34,-0.0039354674518108,-0.0457460880279541,0.0073813293129205,0.0200823489576578,0.0061160083860158,0.006980778183788,0.0079986453056335,0.0131932352806495,-0.0246874634176492,0.0555431842803955,35094579
35,0.0016280531193332,0.0548185588139016,0.0379916160105043,-0.0073393505824812,-0.0235859162239905,-0.0100261819276276,-0.0094226483065929,0.092344451500495,-0.0242905527583568,-0.004341581661858,16843548
36,-0.0001121005043387,-0.0141216060146689,-0.0027558642905205,-0.0062984796240925,-0.0125153819099068,-0.0013337095733731,-0.0092848613858222,0.0134977342223379,-0.0316315777599811,0.0251515321433544,106839634
37,0.0233936123549938,-0.0300310496240854,0.0152185969054698,0.0181119423359632,-0.0031134500168263,0.0160191059112548,-0.0245130620896816,-0.0132145393469364,-0.041657380759716,0.0440720729529857,134245346
38,-0.0198271665722131,0.0036660032346844,-0.0033598141744732,-0.0040361164137721,-0.0078571531921625,0.0026436042971909,0.0414302200078964,-0.0508437322588244,-0.0243899263441562,-0.0053071267902851,5635960
39,0.0040851365774869,-0.0128257190808653,-0.0219626035541296,-0.0032354900613427,-0.009296977892518,-0.0028472449630498,0.0033317180350422,-0.0224753725070609,-0.017859011888504,-0.0088908672332763,142836663
40,-0.0358046777546405,-0.0203282684087753,-0.0062289019115269,-0.0035854429006576,-0.0092982975766062,0.0029956577345728,0.012681477703154,-0.0468735826882996,-0.0283731631934642,-0.0077390931546688,152156857
41,-0.0318582095205783,0.0357903465628623,-0.0168935898691415,-0.0002222117036581,-0.0070231040008366,0.0001211188500747,0.0119533175602555,-0.01177335480513,0.0015102326869964,0.0064218062907457,84371480
42,-0.0446782447397708,0.0014037780929356,-0.0127229886129498,-0.0144853489473462,-0.0120231844484806,-0.0013284659944474,0.0804162099957466,-0.0686021538433765,-0.034179002046585,-0.0401960909366607,46337905
43,0.0185266584157943,-0.0483089983463287,0.0184664912521839,0.0148696415126323,-0.0031559839844703,0.0154310902580618,-0.0266214627772569,0.007722680589767,-0.0416401028633117,0.0385827310383319,828136
44,0.00352552998811,0.0063752341084182,-0.0054457606747746,-0.0045213531702756,-0.0050263381563127,-0.0059311538934707,-0.0019490581471472,-0.0253140084599289,-0.0118589745834469,-0.0003869972424581,64471701
45,-0.0078279781870478,0.0130251748452558,0.003045978890458,-0.0038381724736819,-0.0212220326831138,-0.0082240476686502,0.0208716920857878,-0.0849699902723429,-0.0552044428763845,-0.0123898720258293,80988232
46,0.0125702209770679,-0.0174160823225975,-0.0112111661583185,-0.0017487513832747,-0.0172033831477165,0.0051186010241508,-0.0150621617212891,-0.0781912526745343,-0.0469936355948448,-0.0094975670799613,76983686
47,0.05863968282938,-0.0284144878387451,0.0143627356737852,0.0482165217399597,0.0138742234557867,0.0418195724487304,-0.0637490600347518,-0.0503513735900469,-0.0571297854185104,0.0812665224075317,148763951
48,-0.0115661825984716,0.0105080967769026,-0.0032891372684389,-0.0033878777176141,-0.0039223008789122,-0.0019132406450808,0.0165256392210721,-0.0142583295610285,-0.0162431728094816,-0.004491972271353,139654441
49,-0.0120018394663929,0.0216092225164175,0.0432147271931171,0.0068758800625801,-0.0052207256667315,-0.0233507677912712,0.0544870309531688,-0.0088362410982781,-0.0411679670214653,-0.0178544595837593,55441816
50,0.0016847846563905,0.0056242672726511,0.0047452794387936,0.0050091003067791,-0.0042508929036557,0.0060819657519459,0.0076825860887765,-0.0354714308070252,-0.0159161649644374,0.0248939804732799,2107983
51,0.0329351834952831,0.0604570247232914,0.0205396134406328,0.0132889235392212,-0.0066960672847926,0.0121625307947397,-0.0785591602325439,-0.078514646036114,-0.0220178943127393,0.0073385392315685,57005772
52,0.0322870910167694,0.0024180081672966,0.015345063060522,0.0247081816196441,0.005464460235089,0.020477345213294,-0.023433381691575,-0.0210361339934969,-0.0326129086315631,0.054520059376955,2565059
53,0.0136777199804782,-0.0215336699038743,-0.0139191932976245,0.0123728327453136,-0.0041022635996341,0.0175437871366739,0.0201440602540969,-0.0362714890967065,-0.0472938604652881,0.0124706206843256,98114160
54,-0.0051573435775935,0.0050014122389256,0.0021673534065485,0.0021321605890989,-0.0053979069925844,0.0049883546307682,0.0184164214879274,-0.0403607752064361,-0.0186113528907299,0.0152881601825356,49562778
55,0.0128450021147727,-0.0025181509554386,-0.0052816458046436,0.0111102629452943,-0.005446950905025,0.0150743089616298,-0.0063973828218877,-0.0484541190773946,-0.0404669940471649,0.0078128408640623,19226344
56,0.0226389095187187,-0.0072469338774681,-0.0226461589336395,0.0070582954213023,0.0085771614685654,0.001416573068127,0.0151099944487214,-0.0159139818250916,0.0217239707708358,0.0103155653923749,152156863
57,-0.0260796286165714,0.0165284797549247,-0.0422609597444534,-0.0324019156396389,-0.0087678730487823,-0.0255736019462347,0.0428199619054794,0.100046405062927,-0.0087604597210884,-0.0595436058938503,136884961
58,-0.0253322087228298,-0.0495140179991722,0.0008589698700234,-0.0003235745243728,-0.0025490222033113,-0.0034415074624121,-0.0077293347567319,0.0509557015188267,-0.0031314860098063,0.0353766754269599,1632495
59,0.0113920709118247,0.006507933139801,0.0084027079865336,0.0090907588601112,-0.0026235666591674,0.0076335300691425,-0.007546049542725,-0.0285346699259082,-0.0120923705399036,0.0385222472250461,1027136
60,0.0025911009870469,0.0144067052751779,0.0429861806333065,-0.008791446685791,0.0011110766790807,-0.0088590923696756,0.0039022720884531,-0.0025326970435863,0.0234620738774538,0.0077825281769037,17326775
61,0.0055705923587083,-0.0223998315632343,-0.0128097310662269,0.0007782363099977,-0.0081673096865415,0.0028750931378453,-0.0174789242446422,-0.0168326896186921,-0.0325872264802455,0.0200553648173809,2323034
62,0.0314103215932846,-0.0519902855157852,0.0222874823957681,0.0207080468535423,-0.0043794782832264,0.0162796936929225,-0.0578544214367866,0.0059600702432414,-0.0403887592256069,0.0594782494008541,152997654
63,0.0034316342789679,-0.033407412469387,0.0044857515022158,0.0127226077020168,-0.0065020537003874,0.0130126560106873,-0.0382738746702671,-0.0546688664990831,-0.0438420586287975,0.0342049859464168,134245351
64,0.026672163978219,-0.0364778414368629,-0.0054656900465488,0.0030358899384737,-0.0152063779532909,0.0071362229064106,-0.0303330682218074,-0.0707799097662165,-0.0433576181530952,0.0248458553105592,59403627
65,0.0012050318764522,-0.0074355718679726,0.0063840169459581,0.0089471749961376,-0.0036167982034385,0.007683319505304,-0.0226410068571567,-0.0269283263746916,-0.0147709120064973,0.0357694700360298,113169861
66,-0.0078731402754783,0.0047541884705424,0.0011441243113949,0.0009902375750243,-0.0058531817048788,0.0045542754232883,0.0226769279688596,-0.0423014661068782,-0.0196811258792877,0.0114753860980272,56800868
67,-0.0446782484650611,0.0014037780929356,-0.0127229914069175,-0.0144853498786687,-0.012023183517158,-0.0013284664601087,0.0804162099957466,-0.0686021551644498,-0.0341790094971656,-0.040196094661951,34373547
68,-0.0082771917805075,-0.0036448340397328,0.0077174520120024,-0.0110173178836703,-0.0029671194497495,-0.0109845101833343,-0.0071930098347365,0.0248404674247633,-0.0153941754251718,0.0211903173476457,3671199
69,-0.0074197985231876,0.0014303049538284,0.0036645303480327,0.0009570635156705,-0.0075007323175668,0.0063050710596144,0.0137272654101252,-0.0463797269510722,-0.0299453940242528,-0.0008027419680729,210971961
70,0.0113038076087832,-0.0083634369075298,0.010656276717782,0.0006146974046714,-0.003694821614772,0.0007016504532657,-0.0180707611143589,0.0034910742225423,-0.0245645456016063,0.0095541104674339,163661563
71,-0.0169886816293001,0.0163284726440906,0.0261262580752372,0.0164940189570188,0.009633514098823,0.004614170640707,-0.0051945634186267,-0.0309724026968525,0.0224061235785484,-0.0272578243166208,57005722
72,-0.0024317749775946,-0.0772401466965675,-0.0146950464695692,0.024252563714981,0.0015880214050412,0.0085238432511687,0.0143248755484819,0.0178967794638573,-0.0467292964458465,0.0519170984625816,93918535
73,0.0296406485140323,-0.0204926561564207,-0.0079398248344659,0.0034401873126626,-0.0160918124020099,0.0073488010093569,-0.0415985062718391,-0.0730737602592595,-0.0476030223071575,0.0073416540399193,49652179
74,0.0101831406354904,-0.0228565521538257,0.0019899006001651,0.0050064688548445,-0.0067623639479279,0.0042831012979149,-0.0213996022939682,-0.0161959841119483,-0.0273651201277971,0.0237907096743583,188693345
75,-0.0166249144822359,-0.0184397585690021,-0.001043212134391,-0.0075801350176334,-0.0071536051109433,-0.0015671656001359,0.035717811435461,0.0098311287377526,-0.0014069986063987,0.0057022306136786,11100005
76,-0.0229584984481334,-0.0090863369405269,0.015110881999135,0.0060024741105735,-0.0016844721976667,0.0070110065862536,0.0009311004541814,-0.007187345211426,-0.029620861634612,0.0336675979197025,17086876
77,-0.0259130913764238,-0.0445534996688365,0.0010102180531248,0.0085649508982896,-0.0062607983127236,0.0078158639371395,-0.0628241226077079,-0.0226522093885249,-0.0219012387096881,0.0284415259957313,102112552
78,-0.034410435706377,0.0055430657230317,-0.0091357752680778,-0.0133763961493968,-0.012038248591125,0.0006404491141438,0.064504861831665,-0.0600086493774918,-0.0293433163315057,-0.0304821375757455,68242601
79,0.0034985654056072,0.0109999105334281,-0.0050129396840929,-0.0013279690174385,-0.0054039871320128,0.003980191424489,0.0142303789034485,-0.0455750780466527,-0.0268029179424047,-0.0071986555121839,86451188
80,0.0410646870732307,-0.001695776823908,-0.0105208288878202,0.0291288308799266,-0.0033853300847113,0.0226739961653947,-0.0080309575423598,-0.0920641494553962,-0.0596394091844558,0.0518958941102027,17612683
81,0.0458989170013006,0.0550488600779472,0.0427009454050359,0.0370228248353421,0.0303005525483167,0.0213309509160448,0.034148173750271,-0.0214300452021309,0.0547736335953685,0.035966049863205,59543419
82,0.0156235266476869,-0.0209294091910123,-0.0061939707957208,0.0054713953286409,-0.0060563087463378,0.0039403378032147,-0.0435360446572303,-0.0034788708241667,-0.0235544834285974,0.0241814758628606,124205317
83,-0.0356242358684539,-0.0101099573075771,-0.0304251909255981,-0.0128153292462229,-0.0103827584534883,-0.018753807991743,-0.0230787154287099,-0.0393488516294963,-0.0343241840600967,-0.0484950169920921,195065492
84,0.0016847846563905,0.0056242672726511,0.0047452794387936,0.0050091003067791,-0.0042508929036557,0.0060819657519459,0.0076825860887765,-0.0354714308070252,-0.0159161649644374,0.0248939804732799,57544795
85,-0.0017703659832477,-0.0096068084239959,-0.0013804666232317,-0.0018832279602065,-0.0019016755977645,0.0027229166589677,0.0201261285692453,-0.0360197492511927,-0.0195789709687232,-0.0001485587563365,85345213
86,0.013845395296812,0.0065428260713815,-0.0077190184965729,-0.0011037908261641,-0.004593348596245,0.0065681035630404,-0.0003303737612441,-0.0087946427269345,-0.0185817424207925,-0.0009891943773254,14469100
87,0.0093816630542278,0.001993000973016,0.0102832522243261,0.0097966017201542,-0.0050451764836907,0.0107691753655672,-0.0234513822942972,-0.0412821550022357,-0.0269032847136259,0.015541823580861,5315847
88,-0.0169191882014274,0.0512136667966842,0.0179427750408649,0.0041690203361213,0.0040535195730626,-0.0083639370277524,0.0458051972091198,0.0417328764782732,0.0509440600872039,0.0026908731088042,134245359
89,-0.0446782484650611,0.0014037743676453,-0.0127229848876595,-0.0144853498786687,-0.0120231844484806,-0.0013284655287861,0.080416202545166,-0.068602151964772,-0.0341790094971656,-0.040196094661951,99480601
90,0.011817866936326,0.0042091757059097,-0.0192453376948833,-0.0051504927687346,-0.0082759046927094,0.0032944898121058,-0.0269013680517673,-0.0009948182688927,-0.0229581613093614,0.0363639071583747,46178447
91,0.0305722150951623,0.0545395724475383,0.0192083697766065,0.0128284431993961,-0.0062493723817169,0.0116657651960849,-0.0707700252532959,-0.0730325498088835,-0.0209292136132717,0.010758951306343,60637252
92,-0.0190534442663192,0.0592326000332832,0.0509449616074562,-0.0272733643651008,0.0037113025318831,-0.0198931768536567,0.0386756658554077,0.0199025315835151,0.0566725134849548,-0.0158828049898147,67809135
93,0.0329351834952831,0.0604570247232914,0.0205396134406328,0.0132889235392212,-0.0066960672847926,0.0121625307947397,-0.0785591602325439,-0.078514646036114,-0.0220178943127393,0.0073385392315685,103553857
94,0.0113920709118247,0.006507933139801,0.0084027079865336,0.0090907588601112,-0.0026235666591674,0.0076335300691425,-0.007546049542725,-0.0285346699259082,-0.0120923705399036,0.0385222472250461,200750991
95,0.0113920709118247,0.006507933139801,0.0084027079865336,0.0090907588601112,-0.0026235666591674,0.0076335300691425,-0.007546049542725,-0.0285346699259082,-0.0120923705399036,0.0385222472250461,181695848
96,-0.0051573435775935,0.0050014122389256,0.0021673534065485,0.0021321608219295,-0.0053979069925844,0.0049883546307682,0.0184164214879274,-0.0403607752064361,-0.0186113528907299,0.015288159251213,7308736
97,0.018143706023693,-0.0142633896321058,0.0001804970670491,0.0041257431730628,-0.0069973557256162,0.0111317699775099,-0.0155948586761951,-0.0439939197290646,-0.0258249342441558,0.016684491187334,76169655
98,0.0040509351529181,-0.0200782343745231,-0.0093719372525811,0.0064086150377988,-0.0147927561774849,0.0016061981441453,-0.0586173608899116,-0.0389286822440237,-0.0329423286020755,0.0208830200135707,17614637
99,-0.0219505410641431,-0.0403141602873802,-0.0013902629725635,0.0019613609183579,-0.0018887253245338,-0.0020143690053373,0.0288313217461109,0.0464278694576393,-0.0361320674419403,0.0438900478184223,129997203
100,0.0342849679291248,-0.0452052988111972,-0.0135620133951306,0.0147282537072896,-0.0069786836393177,0.0126680945977568,-0.0549957379698753,-0.0013285820018973,-0.0435593873262405,0.0444825924932956,86981001
101,0.0148343071341514,0.0166655611246824,0.0040355902165174,0.0018518234137445,-0.0040191747248172,0.0060585234314203,0.0024880340788513,-0.0296554659298062,-0.0069435629993677,0.0248679183423519,178303212
102,0.0367722511291503,-0.0104571534320712,0.0194115918129682,0.0165422856807708,0.0106038209050893,0.0134071484208107,-0.0125944819301366,0.0211753081595859,0.0005859518423676,0.0238375198096036,58693284
103,0.0128556387498974,-0.0187592543661594,0.0080285379663109,0.0078800851479172,-0.010885702446103,0.007241602987051,-0.0251503847539424,-0.0208049036262559,-0.0306049771606922,0.0386603511869907,203148074
104,-0.0034200814552605,-0.0229460932314395,-0.0016285993624478,-0.0031687759328633,-0.0062051676213741,-0.0010574341285973,-0.0007718438282608,0.0401494885456777,-0.0159887634217739,-0.0071287755854427,17516504
105,-0.0057042851112782,0.0060442332178354,-0.0552302114665508,-0.0056406445801258,-0.0080165639519691,-0.0026053977198898,0.0084776654839515,-0.0239356627313038,-0.0326272100210189,-0.0125447288155555,51846914
106,-0.0127741955220699,0.0127060310915112,0.000319676590152,-0.0014700953615829,-0.0080755427479743,0.004203466232866,0.0190259851515293,-0.0573509476010753,-0.0250178650021553,-0.0058335377834737,212958532
107,-0.0054331244900822,0.0018637914909049,-0.0058578085154294,-0.0083666071295738,-0.0059016272425651,-0.0076312664896249,0.0038247406482696,-0.0060119754604267,0.0024540137965232,-0.0033241799101233,2135522
108,-0.0027352590113878,-0.0087505225092172,0.0058503118343651,0.0015857052057981,-0.0009026199113577,0.0077302283607423,-0.019062852486968,0.0087639145389215,0.0025078351609408,0.0281890779733657,90910059
109,-0.0150565672665834,0.006304339505732,-0.006443616002798,-0.0094830691814422,-0.0078910253942012,-0.0049045272171497,0.0252384208142757,-0.0397597689538193,-0.0331174172461032,-0.0284726321697235,1629358
110,0.0016847846563905,0.0056242672726511,0.0047452794387936,0.0050091003067791,-0.0042508929036557,0.0060819657519459,0.0076825860887765,-0.0354714308070252,-0.0159161649644374,0.0248939804732799,134245357
111,-0.0141638172790408,0.0041815433651208,-0.0012260227231308,-0.0016548252897337,-0.0069077499210834,0.0035488060675561,0.0325456410646438,-0.0467967362683336,-0.0221590772271156,0.0026437742635607,2037677
112,-0.0001351248356513,-0.0005010170862078,-0.0199746768921613,-0.0105231748893857,-0.0007556583732366,-0.0004969150759279,0.0099082821980118,0.005491411618021,-0.0348823517560958,0.0145473666489124,71041493
113,0.0051908958703279,0.0541521944105625,-0.0024554128758609,-0.0017904087435454,0.0014073383063077,0.0026969495229423,0.0205529909580945,-0.0206218690464345,-0.0069157686084508,-0.0119216684252023,99470365
114,-0.025698198005557,0.0031315525993704,-0.0055718487128615,-0.0065047326497733,-0.0088413693010807,0.0017052111215889,0.0506406053900718,-0.0550391285361915,-0.0267025865614414,-0.0135495848953723,1261561
115,-0.0154697839170694,0.0541372783482074,0.0388958491384983,-0.0234413594007492,-0.0003906255587935,-0.0150248911231756,0.0242839660495519,0.0258138735951233,0.0481051839888095,-0.010200098156929,41571963
116,-0.0160007048398256,-0.0300153102725744,0.0011647017672657,0.0055908970534801,-0.0093805855140089,0.0058359401300549,-0.0307302866131067,-0.0392619207169317,-0.0279529709368944,0.0219198428094387,51113095
117,-0.0446782484650611,0.0014037780929356,-0.0127229914069175,-0.0144853498786687,-0.012023183517158,-0.0013284664601087,0.0804162099957466,-0.0686021551644498,-0.0341790094971656,-0.040196094661951,76169642
118,0.0047521316446363,-0.0240701735019683,-0.005901419557631,-0.0093102846294641,-0.009902318008244,-0.0056014349684119,-0.0231114290654659,-6.185923697053092e-05,-0.0269707255065441,0.0078998450189828,109965166
119,-0.0446782484650611,0.0014037780929356,-0.0127229914069175,-0.0144853498786687,-0.012023183517158,-0.0013284664601087,0.0804162099957466,-0.0686021551644498,-0.0341790094971656,-0.040196094661951,84279791
120,-0.0083847241476178,0.0407568141818046,0.0360372997820377,-0.0145306419581174,0.0014914372004568,-0.0102472659200429,0.0224786512553691,0.0029291587593194,0.0325759202241897,0.0031818193383514,194171766
121,0.0215920526534318,-0.0300232656300067,-0.0025815276894718,0.0195037126541137,-0.0009794663637876,0.014655414968729,-0.0356987379491329,0.0191442947413965,-0.0217626690864563,0.043261595070362,18271679
122,-0.0125498790293931,-0.010534469038248,0.0025279107503592,0.0016373379621654,-0.0011015806812793,0.000367680680938,0.0131198400631546,0.0170698665168376,-0.024345813319087,0.0313773043453693,58470789
123,-0.0215739849954843,0.0486386269330978,0.0405401214957237,-0.0239931400865316,0.001300745178014,-0.016222707927227,0.04154534637928,0.0060984842808424,0.0414823070168495,-0.0168587304651737,4194332
124,-0.014193664304912,-0.0301276911050081,0.0017038728110492,0.0040815123356878,-0.0019761407747864,-0.0002660289173945,0.0141883864998817,0.0360604693359559,-0.0340245738625526,0.0435380674898624,18167326
125,-0.0092281699180603,-0.0032479306682944,0.002105928491801,-0.0004351420793682,0.0024930397048592,0.0066372212022542,0.0030389730818569,-0.0045613735794721,-0.0088177267462015,-0.0055100983008742,84351638
126,-0.0277979150414466,0.0076037999242544,0.0084713399410247,0.0082611516118049,0.0020165198948234,0.005234345793724,0.0113936197012662,0.016675539326045,-0.0242414250969886,0.0019622328691184,77891076
127,0.0011183270253241,0.0289027653634548,-0.0200540758669376,-0.0056808697991073,-0.0163422897458076,-0.0007272968068718,-0.0313760042190551,0.0642225586012378,-0.0246157497167587,0.0375189967453479,179755765
128,0.0255314633250236,0.0093100164085626,-0.0040177865885198,0.01850395090878,-0.000842090928927,0.0179945230484008,-0.0023690992966294,-0.0315186634904423,-0.0477651134133338,0.0304486565291881,82816346
129,-0.0446782484650611,0.0014037780929356,-0.0127229914069175,-0.0144853498786687,-0.012023183517158,-0.0013284664601087,0.0804162099957466,-0.0686021551644498,-0.0341790094971656,-0.040196094661951,30401956
130,-0.0098128756508231,-0.0029592216014862,-0.0077630179002881,-0.0135856540873646,-0.008500600233674,-0.0102386884391307,-0.0125770829617977,-0.0033576344128436,-0.0123210903257131,-0.0034882989712059,109598935
131,-0.0198271665722131,0.0036660032346844,-0.0033598141744732,-0.0040361164137721,-0.0078571531921625,0.0026436042971909,0.0414302200078964,-0.0508437322588244,-0.0243899263441562,-0.0053071267902851,111304309
132,-0.006995707514329,0.0303523406066111,0.0168312657749656,-0.0195657113665514,-0.0007654938927954,-0.0024755415508278,0.0078320317176602,0.0242381706048297,-0.007247809528603,-0.0071226537465921,134245353
133,-0.0327291903802008,0.0332017154354974,0.0240994647850454,-0.0076720733232855,-0.0008855545702045,-0.0222805295795921,0.0328407210129817,0.0242616803168691,-0.0437287519118262,-0.023809901876919,32800026
134,0.0047967815771698,-0.0343310460448265,-0.0152083868160843,0.014442634768784,0.0022258812095969,0.0128988251090049,-0.0364924930036067,0.0130217415942439,-0.016410905867815,0.0470653660595417,57241602
135,-0.0022412426769733,-0.0369948782026767,-0.0023045353591442,0.0026714971754699,-0.0052427384071052,0.0077192620374262,0.0017806645482778,0.019236718406886,-0.0112691093236207,0.0296633448451757,7946252
136,0.0090513303875923,0.0197616666555404,0.0084788901731371,-0.00842104293406,-0.0136142903938889,-0.0068552861921489,-0.0386791862547397,-0.0374666155865353,-0.0192383918911218,0.0184245593845844,108107289
137,-0.0191084705293178,-0.0084334956482052,-0.0114005440846085,-0.0074967313557863,-0.0153309050947427,-0.0019479099428281,0.012967700138688,-0.0397064367894002,-0.0235095266252756,0.0033226704690605,64185077
138,-0.0338695310056209,0.0023877078201621,-0.0086505729705095,-0.0099405664950609,-0.0102112106978893,0.0003991439007222,0.0634596645832061,-0.0608783160059938,-0.0299213528633117,-0.0250215046107769,83511139
139,0.0312248393893241,-0.0030216043815016,0.0136822294443845,0.0138151962310075,-0.0010312208905816,0.0092375893145799,-0.0127029484137892,-0.0175817961625673,-0.0222093723714351,0.0301634781062603,50343962
140,0.0030031835717475,-0.0339563453486042,-0.0158320941507163,-0.0132794948372889,-0.0231271681086436,-0.0093066511234452,0.0238284112338308,-0.0097886018596531,-0.0549437100300094,-0.0337755196563504,199050935
141,-0.0162549149245023,0.0025873251724988,-0.0001577645307406,-0.0016768020577728,-0.0061664567328989,0.0041953735053539,0.0270030461251735,-0.0457612387718018,-0.0228644013404846,0.0062483814544975,50820032
142,0.0277528259903192,-0.0125871896743774,0.0151870511472225,0.0184879824519157,0.0025474533904343,0.0158684775233268,0.0122365029528737,-0.0035144757584915,-0.0085459481924772,0.0349465571343898,82020498
143,-0.0107581857591867,0.0148739423602819,0.0020183923188596,4.732399247586727e-06,-0.0083670979365706,0.0051092449575662,0.0032121310941874,-0.0604858142017884,-0.0258371643722057,-0.0064130104146897,9474028
144,0.0113920709118247,0.006507933139801,0.0084027079865336,0.0090907588601112,-0.0026235666591674,0.0076335300691425,-0.007546049542725,-0.0285346699259082,-0.0120923705399036,0.0385222472250461,55179313
145,-0.0057937148958444,-0.0528971850872039,-0.0107805058360099,0.0139890927821397,-0.0040387110784649,0.0061939200386404,0.0204628035426139,-0.015240391106899,-0.0466798208653926,0.0187485385686159,60392809
146,0.0171388052403926,-0.0278902668505907,0.0101831518113613,0.0137898176908493,-0.0124298781156539,0.0073717683553695,-0.0524717159569263,-0.0458365786616245,-0.0331721976399421,0.0513427816331386,92235366
147,0.0058168568648397,0.0154052190482616,-0.0150006404146552,-0.0023860917426645,-0.0105428332462906,0.0017615999095141,-0.0320632979273796,-0.0121705700887695,-0.0044386475346982,0.0075929849408566,93296295
148,0.0112362196668982,-0.0049644848331809,0.0031631710007786,0.0067974063567817,-0.009977557696402,0.0061114132404327,-0.0442465096712112,-0.0282908480231876,-0.0435739904642105,0.0255542546510696,3352568
149,-0.0194653086364269,0.0078936833888292,0.0115598766133189,-0.006689116358757,-0.0044225780293345,-0.0016974979080259,0.0175263565033674,-0.0265566411797616,-0.0031679519452154,0.0008292816928587,79219366
150,-0.0020088236778974,0.0052880276925861,0.0033536253031343,0.0034560316707938,-0.0048700897023081,0.0054915980435907,0.0134770702570676,-0.0381108625396691,-0.0173711162060499,0.0197084341198205,193273536
151,0.0209503509104251,0.0105082169175148,-0.0053957072086632,0.0019367320928722,-0.0109445620328187,0.0032185046002268,-0.0731256380677223,-0.0409576715532871,-0.0593458972871303,0.0465514101088047,5434805
152,-0.0114113604649901,-0.0443067699670791,-0.0078708911314606,0.0126422019675374,0.0029979215469211,0.0115680731832981,-0.025601577013731,-0.08033148190603,-0.0300963781774044,0.0332743898034095,115765914
153,0.0226899795234203,-0.0204950906336307,-0.0026644875761121,0.0103907817974686,-0.0074060005135834,0.0031305267475545,-0.0093085374683141,-0.0465944273364113,-0.049720611423254,0.0291395261883735,2860796
154,0.0730355344401722,-0.0774551751582018,-0.0413753184554145,0.0135381493524138,0.0001956527631265,-0.0034878702740354,-0.0114513000076877,0.0072264474062711,-0.0395275963164053,-0.0446896473321606,125480482
155,0.0155128650367259,-0.0296405050903558,0.0010034758597612,0.008833160623908,-0.0090114139020442,0.008313306607306,-0.0324907153844833,-0.0215084232625439,-0.0368477292358875,0.0243960376828908,169366451
156,0.0280584841966629,-0.0231424048542976,-0.0107559915632009,0.0069569032639265,-0.0135448109358549,0.0054336264729499,-0.0261680334806442,-0.0615777598424146,-0.042692195624113,0.0295189283788204,14884938
157,0.0379587858915329,0.0149267744272947,0.0094579746946692,0.0191656779497861,0.0121059715747833,0.0147488424554467,-0.0467156246304512,-0.0254349011807155,-0.006511015817523,0.0352715738117694,55614776
158,0.0344589762389659,-0.0337562300264835,-0.014126818627119,0.0221969112753868,-0.0026106373406946,0.0240066442638635,-0.0061823884025216,-0.0273350210274439,-0.0544763132929801,0.0321583412587642,15738922
159,0.0067995730787515,-0.0196249075233936,-0.0136743234470486,-0.0014133062213659,-0.0111278519034385,0.0034030510578304,-0.0278894118964672,-0.0233622209245555,-0.0124069079756736,0.0143621079623699,83380751
160,-0.0079627810046076,-0.016697883605957,-0.0080820396542549,0.0013280477141961,-0.0103866476565599,0.0045445235446095,-0.0159025900065898,-0.0425095467251072,-0.0301107559353113,0.0049041118472814,1284914
161,-0.0446782484650611,0.0014037780929356,-0.0127229914069175,-0.0144853498786687,-0.012023183517158,-0.0013284664601087,0.0804162099957466,-0.0686021551644498,-0.0341790094971656,-0.040196094661951,3998623
162,0.0265035144984722,-0.0009995605796575,-0.0082129472866654,0.0211063846945762,0.0051893135532736,0.0279167927801609,-0.0256381724029779,-0.0908147840268652,-0.0716655477881431,0.0612393021583557,3777800
163,-0.0439931340515613,0.0293367318809032,0.0007060645730234,-0.0158511810004711,-0.0069446391426026,0.0005332092987373,0.0323525220155715,-0.0003343545391946,0.0278921592980623,0.0054319771006703,195760279
164,-0.026530610397458,0.0181615035980939,0.0097679635509848,-0.020676914602518,-0.0066272062249481,-0.0129775870591402,0.0344314947724342,0.0199924828855727,0.0066039520315825,-0.011169864796102,164950564
165,0.0515048988163471,-0.036402054131031,-0.0146945938467979,0.0297826938331127,0.0010321899317204,0.0297770518809556,-0.0189252160489559,-0.0153142870788475,-0.0557950921356678,0.0466099493205547,7908339
166,0.0309856981039047,-0.0366222709417343,0.0129770617932081,0.0253324583172798,-9.58358868956566e-05,0.019570056349039,-0.0278792977333068,-0.0189373559872387,-0.0260548833757638,0.0475828424096107,90166650
167,0.0112843820825219,-0.0013083079829812,0.0221187099814414,0.0010576853528618,-0.0002551934449002,0.0028013121336698,0.0112499604001641,-0.0257459635482352,0.007434164173901,0.0217117089778184,65079014
168,0.000241955043748,-0.0173822175711393,-0.0225003473460674,0.0086957942694425,-0.0083159515634179,0.0035807255189865,-0.02932620793581,0.0321164893209629,-0.0295938532799482,0.025906765833497,66117517
169,-0.0242972318083047,0.0087108453735709,-0.0110790049657225,-0.013318195939064,-0.0033047234173864,-0.0112542230635881,0.0042867748998105,0.0356364459032252,-0.0040847714990377,-0.0131346434354782,99386143
170,0.0113920709118247,0.006507933139801,0.0084027079865336,0.0090907588601112,-0.0026235666591674,0.0076335300691425,-0.007546049542725,-0.0285346699259082,-0.0120923705399036,0.0385222472250461,96457658
171,-0.0070095276460051,-0.0043980050832033,0.0106533598154783,-2.3951055482029915e-05,-0.0055981907062232,0.0017475690692663,-0.0054348045960068,-0.0129399323463492,-0.0075213210657238,0.0150793949142098,19550437
172,-0.0051573435775935,0.0050014122389256,0.0021673534065485,0.0021321608219295,-0.0053979069925844,0.0049883546307682,0.0184164214879274,-0.0403607752064361,-0.0186113528907299,0.015288159251213,87029402
173,-0.0048389905132353,-0.0347193963825702,0.0014670875389128,0.0072155399248003,-0.010397364385426,0.0050994250923395,-0.0297899339348077,-0.0288450932586968,-0.0374004282057285,0.0260372813791036,102675336
174,-0.0446782484650611,0.0014037780929356,-0.0127229914069175,-0.0144853498786687,-0.012023183517158,-0.0013284664601087,0.0804162099957466,-0.0686021551644498,-0.0341790094971656,-0.040196094661951,49331390
175,0.0242507457733154,-0.0320855602622032,0.0132413543760776,0.0078287404030561,-0.0118012204766273,0.004744186066091,-0.0257823504507541,-0.0254008451983731,-0.0334333814680576,0.0309306345880031,189822176
176,0.0058205495588481,-0.0384328551590442,-0.0021307165734469,0.0108208563178777,-0.0018036568071693,0.00839857570827,0.0010715336538851,0.0025511356363482,-0.0369930639863014,0.0440083406865596,52080229
177,-0.0077501749619841,-0.0026528732851147,0.0123713724315166,0.0039049505721777,-0.0008666583453305,0.010952603071928,0.042607557028532,-0.0286824665882262,-0.0215431731194257,-0.0028647193685173,110111095
178,-0.0068604676052927,0.0452080778777599,-0.0234437994658947,-0.0078099886886775,-0.0178787019103765,0.003631486557424,-0.0091048199683427,0.0381365731402691,-0.0203218050301074,0.0222067181020975,83551433
179,-0.0190534405410289,0.0592325963079929,0.0509449653327465,-0.0272733643651008,0.0037113016005605,-0.0198931768536567,0.0386756658554077,0.0199025241141936,0.0566725134849548,-0.0158828049898147,195227039
180,-0.0444870367646217,0.007376697845757,-0.0087477639317512,-0.004656761419028,-0.0155566707253456,-0.0043423431925475,0.0106941843405365,-0.0224787860232066,-0.0117145674303174,-0.0199118629097938,4687741
181,0.0348953604698181,-0.0117800906300544,-0.0162070989608764,-0.0093547673895955,-0.0097975777462124,0.0067172409035265,-0.006360684055835,-0.0355831854399414,-0.0112905642017722,0.0155797461047768,74781242
182,0.0051565091125667,0.0305573157966136,0.0079568857327103,0.0041675185784697,-0.0073073636740446,0.0071509419940412,-0.0153863495215773,-0.0639462791595542,-0.0232667438685894,0.0006807660683989,52422878
183,-0.0433729998767375,-0.0017928802408277,-0.0117677533999085,-0.0128820389509201,-0.011622367426753,-0.000692413188517,0.0704528614878654,-0.0654060118661152,-0.0333250015974044,-0.0354218669235706,63078310
184,0.0075839045457541,-0.0201805233955383,0.0068872738629579,0.0021054733078926,-0.0076230121776461,0.0037555715534836,-0.0037540094926953,-0.0228319278411367,-0.0201478451490402,0.0155889121815562,7798401
185,0.0037666973657906,0.0018322002142667,-0.0042280638590455,0.0158046297729015,0.009421918541193,0.0112844388931989,0.0257063433527946,-0.0225812118999479,-0.0079843522980809,0.0156658738851547,97205149
186,0.0237498972564935,-0.0326733402907848,0.0009083185577765,0.0123879797756671,-0.0007945830002427,0.0152153205126523,-0.0009274294134229,-0.0175895867087374,-0.0279524736106395,0.0425561964511871,2045233
187,-0.0070453989319503,-0.0030520381405949,0.0095799071714282,0.0179507099092006,0.0065131243318319,0.0196121521294116,0.0082071181386709,-0.0789501175667471,-0.0402666330337524,0.0176527760922908,213759518
188,-0.0021061927545815,-0.0045819128863513,0.0079349130392074,0.0030571944080293,0.0005042938864789,0.0023273387923836,-0.0016029321122914,0.0043189415188737,-0.0070136585272848,0.0328801684081554,44976789
189,0.0064241834916174,0.0015019784914329,0.0051263715140521,0.0079005910083651,0.0034128914121538,0.0037432701792567,-0.0256743803620338,-0.017851180766462,-0.0093626547604799,0.0241179019212722,189470222
190,0.0314621962606906,-0.0442087054252624,-0.0064216377213597,0.0202973913401365,0.006666115950793,0.0315373726189136,-0.0322467908263206,-0.0159906686625557,-0.0311751812696456,0.0694157779216766,45744269
191,-0.0010468289256095,0.0109714930877089,-5.0595204811543226e-05,-0.0035451166331768,-0.0136646758764982,-0.0006515964632853,-0.0067773605696856,-0.0133520738658402,-0.0239155106246471,0.0097566582262516,52277738
192,-0.0063364692032337,-0.0491751357913017,-0.0001667604083195,0.0104344841092824,0.0018806816078722,-0.0002551944926381,0.0182829555124044,0.0149089297844927,-0.0190889481455087,0.038222350180149,53614250
193,-0.0311166085302829,0.0359068065881729,0.0157699473202228,-0.0188687369227409,-0.0099245011806488,-0.0140891131013631,0.0218505226075649,-0.0071006730679328,0.0168428625911474,-0.0073611247353255,129694210
194,-0.0191680509597063,0.0011777819599956,-0.0139950700104236,-0.012217428535223,-0.0094104530289769,-0.0070535861887037,-0.0024142102338373,-0.0129051519161459,-0.0067499806173145,-0.0156274922192096,195211760
195,-0.0446782484650611,0.0014037743676453,-0.0127229848876595,-0.0144853498786687,-0.0120231844484806,-0.0013284655287861,0.080416202545166,-0.068602151964772,-0.0341790094971656,-0.040196094661951,30401979
196,-0.0136077813804149,0.0339300744235515,0.0158965457230806,-0.0095988595858216,-0.0054300930351018,-0.0027442597784101,0.0216393265873193,-0.0425949524470801,-0.0029398347251117,-0.0158180613070726,83916654
197,-0.0231317169964313,-0.0045339493080973,-0.0265723410993814,-0.0086894640699028,-0.0017903555417433,0.008728583343327,0.0377610772848129,-0.0560605665367738,-0.0115276528522372,0.0100448923185467,55915048
198,0.0239206682890653,-0.0005418499931693,0.0285512674599885,0.0066874483600258,-0.005961874499917,0.0087689477950334,-0.0261338874697685,-0.0866160495953776,-0.030574046075344,0.00448948610574,56232025
199,-0.0097815440967679,0.0112028205767273,-0.0157093331217765,-0.0103929098695516,-0.0002519246190786,0.0006856806576251,0.0123944291844964,0.017678594438091,0.0200044885277748,0.0155040509998798,31260463
200,-0.0027746269479393,-0.0041877105832099,0.0161481164395809,0.0156017541885375,-0.0008557550609111,0.0158321019262075,-0.018711807206273,-0.0483646280386146,-0.0109309572726488,0.0367106571793556,58026824
201,-0.0342312939465045,-0.0241816081106662,-0.0050774198025465,-0.0016527632251381,-0.0088151423260569,0.0037623753305524,0.0006713131442666,-0.0430208495624939,-0.0273437146097421,-0.0019840956665575,1457158
202,0.0041138129308819,-0.0335175544023513,0.0047900811769068,-0.006553535349667,-0.0046929335221648,-0.0023949155583977,-0.0176223274320364,-0.0216118414074832,-0.0298890508711338,0.0182030033320188,127973630
203,-0.0198271665722131,0.0036660032346844,-0.0033598141744732,-0.0040361164137721,-0.0078571531921625,0.0026436042971909,0.0414302200078964,-0.0508437322588244,-0.0243899263441562,-0.0053071267902851,69375516
204,-0.0235869958996772,-0.0071220360696315,-0.0040180394425988,-0.0076655400916934,-0.0078029511496424,-0.0025422952603548,0.0370778031647205,-0.0307602278415362,-0.0330870114266872,-0.0022336749825626,98109744
205,0.0134645281359553,-0.0343033745884895,-0.0113790836185216,0.0076719317585229,-0.0082766925916075,0.0083946920931339,-0.0104599185287952,-0.0537767603608895,-0.0411122292280197,0.0353907458484172,215870218
206,-0.0242879595607519,-0.0091259693726897,-0.003309117630124,-0.001972422003746,-0.0079250345006585,0.003527395427227,0.0188567843288183,-0.0455757276244501,-0.0248774476349353,-0.0005799233913421,48578381
207,-0.0166023354977369,0.0100781684741377,-0.0221726484596729,-0.0047614956274628,-0.000980153796263,-0.0061275749467313,0.0043901540338993,-0.0215714287704578,0.0073299123905599,-0.0086455903947353,112629130
208,-0.0305296842640873,0.0807559650519469,0.0100241436213585,-0.016977669216412,-0.0016781318793171,-0.0081040280335709,0.026028452479097,-0.0392710459109416,-0.0358143505527496,-0.0097601202859763,46171824
209,-0.0335389226675033,0.0113017447292804,0.0213297214359045,-0.0337132923305034,-0.0192408189177513,-0.0296766348183155,0.0302571859210729,-0.037802728068719,0.0057957121171057,-0.047071810811758,199306992
210,0.0301919169723987,0.0531630478799343,0.0206193774938583,0.0161788910627365,-0.0013032831484451,0.0138230454176664,-0.0545130260288715,-0.0624180133548282,-0.012816272675991,0.003940655849874,55422058
211,0.0219632536172866,-0.0392788611352443,0.0141785908490419,0.0175344049930572,-0.0007483167573809,0.0091215129941701,-0.0361090302467346,-0.0437618415845511,-0.0402257516980171,0.0432208478450775,138830239
212,-0.0446782484650611,0.0014037743676453,-0.0127229848876595,-0.0144853498786687,-0.0120231844484806,-0.0013284655287861,0.080416202545166,-0.068602151964772,-0.0341790094971656,-0.040196094661951,98091595
213,0.0510039329528808,-0.024492785334587,0.0266859885305166,0.0239333994686603,0.0059377872385084,0.0198698788881301,-0.0388482138514518,-0.0693584566510065,-0.0422835499048233,0.0382809713482856,101157977
214,0.0117668658494949,-0.0401972085237503,0.0129370102658867,0.0135826803743839,-0.0070368340238928,0.0113676004111766,-0.0413098819553852,-0.0164387810983205,-0.0357213467359542,0.041897214949131,79785773
215,-0.0012763035483658,-0.0775871947407722,-0.0164548363536596,0.02620180696249,0.0027897888794541,0.0082846023142337,0.0077481572516262,0.0213748502783913,-0.0435415878891944,0.0546623952686786,115011586
216,-0.0021302381064742,0.0120724812150001,0.0171325970441102,-0.0008056126534938,-0.0023602850269526,0.0060136867687106,0.005311582237482,-0.0155160619139403,-0.0068698963150382,0.0096414573490619,201816469
217,0.0036135273985564,-0.0106160696595907,0.0252924747765064,0.0045104213058948,-0.0026217098347842,0.001140896580182,-0.0104087498039007,0.0108624121881717,-0.0077306581661105,0.0024114474654197,58026802
218,-0.0009842063300311,-0.0639687329530716,-0.0140222674235701,0.0214330591261386,-0.0035016718320548,0.0060602221637964,-0.0005420194938778,0.0108106935815242,-0.0412373021245002,0.040221631526947,134307269
219,-0.0157827530056238,0.0532053261995315,0.0414190925657749,-0.0209207944571971,0.0047360118478536,-0.0142245851457118,0.0370854213833808,0.0242181572230375,0.050765011459589,-0.0103862546384334,52197511
220,0.021334271878004,-0.0204044058918952,0.0164156220853328,0.0128317326307296,-0.0062496806494891,0.012059636414051,-0.0439666919410228,-0.0144135833539885,-0.030865404754877,0.0280557442456483,1394129
221,0.0120493881404399,-0.0013059983029961,0.0070085478946566,-0.0019130383152514,-0.0102323004975914,0.0010725628817453,-0.0240800231695175,-0.040413059308275,-0.0200110767036676,0.0058988812379539,152997644
222,-0.0477972403168678,-0.0242219548672437,0.0135392397642135,-0.0125231146812438,-0.013659163378179,-0.0149798896163702,0.0235985312610864,-0.0365019404828556,-0.0327080115675926,0.0165064353495836,38035180
223,0.0216580033302307,-0.0469040051102638,-0.0103663578629493,0.0086715575307607,-0.0100591536611318,0.005697872955352,-0.0364374592900276,-0.0547493231892061,-0.040082573890686,0.0580366887152195,99604430
224,-0.01295767724514,0.0142082320526242,-0.0046027610078454,-0.0006235388573259,-0.00807133782655,0.0006622214568778,-0.0018530612578615,-0.060624996083222,-0.0203143153339624,-0.0018393885111436,1181559
225,-0.0198271665722131,0.0036660032346844,-0.0033598141744732,-0.0040361164137721,-0.0078571531921625,0.0026436042971909,0.0414302200078964,-0.0508437322588244,-0.0243899263441562,-0.0053071267902851,49367038
226,0.0265278555452823,0.0009388120379298,0.0179221387952566,0.0086049111559987,0.0017817224143072,0.0100465230643749,-0.0281928479671478,-0.0219382475143835,-0.0131508950144052,0.0252396501600742,99092665
227,-0.0126719120889902,-0.0355452671647071,-0.0059812981635332,-0.0059582833200693,-0.0041192714124917,-0.005867478903383,-0.0146964415907859,0.0139851005921563,-0.0215612612664699,0.0215607210993766,84791675
228,-0.0141638172790408,0.0041815433651208,-0.0012260227231308,-0.0016548252897337,-0.0069077499210834,0.0035488060675561,0.0325456410646438,-0.0467967362683336,-0.0221590772271156,0.0026437742635607,65819501
229,-0.0055883205495774,-0.0061479294672608,-0.0157941691577434,-0.0072681587189435,-0.0091307368129491,-0.0064540151506662,-0.0219471398741006,-0.0334787342428011,-0.012929493561387,0.0027490649372339,209877730
230,-0.019341854378581,0.0001484001986682,-0.0014296994777396,-0.0020802509970963,-0.0110934833064675,0.0036339377984404,0.0087624303996562,-0.063173770020629,-0.0318661853671073,-0.0098121324554085,34134703
231,-0.0172851476818323,0.0038974017370492,-0.0024020536802709,-0.002967263571918,-0.0074310088530182,0.0030499089043587,0.0374423377215862,-0.0490272216991196,-0.023388598114252,-0.0017383246449753,105881940
232,-0.0060838842764496,-0.041905827820301,-9.441457223147154e-05,0.0127886831760406,-0.0010353772668167,0.0224593114107847,-0.0073108235374093,0.0378174140543546,-0.0294176936149597,0.0359979122877121,67801698
233,0.0194723233580589,-0.0008621966699138,-0.0033188168890774,-0.0004285363247618,-0.0025911866687238,0.0039123203605413,-0.0033196774311363,-0.0145265367156456,-0.0138901723548769,0.0087346397340297,184006479
234,0.0256693847477436,-0.0188644547015428,0.0124315358698368,0.0126191265881061,-0.0019525561947375,0.016817046329379,-0.0111862756311893,0.0108043313992425,-0.0117071056738495,0.0261184182018041,98079917
235,0.0329351834952831,0.0604570247232914,0.0205396134406328,0.0132889235392212,-0.0066960672847926,0.0121625307947397,-0.0785591602325439,-0.078514646036114,-0.0220178943127393,0.0073385392315685,102488300
236,0.0332120135426521,-0.016768105328083,0.0188511293381452,0.0269613079726696,0.001872971188277,0.0277837421745061,-0.0110424235463142,-0.0226379204445904,-0.0482903383672237,0.0380841232836246,186297240
237,-0.0005508258473128,0.0082981390878558,0.0057469420135021,0.007909383624792,0.00155247352086,0.0039410148747265,0.0170790553092956,-0.0213820657283038,-0.0063770897686481,0.0096913510933518,87839561
238,0.0113920709118247,0.006507933139801,0.0084027079865336,0.0090907588601112,-0.0026235666591674,0.0076335300691425,-0.007546049542725,-0.0285346699259082,-0.0120923705399036,0.0385222472250461,56491568
239,0.0048492411151528,-0.00541871227324,0.000332637107931,0.002079592552036,-0.0041834106668829,0.0049570929259061,-0.0063264789059758,-0.0334045494357506,-0.0153479827567934,0.0303790755569934,205932746
240,-0.0393068417906761,0.0091029424220323,-0.0134572507813572,-0.0086428262293338,-0.0108505710959434,-0.012453269213438,-0.0076771876774728,-0.0356128822372332,-0.0019620333332568,-0.0232831612229347,51113107
241,-0.0157131385058164,0.0074866106733679,-0.0197267942130565,0.0007638303213752,-0.0049770334735512,-0.0024366364814341,0.0269816052168607,-0.0686866980056734,-0.0383779220283031,-0.0273186061531305,74738631
242,-0.0020565242991286,-0.0140390463079579,-0.045866046215572,-0.0017206649662986,-0.0039995008159694,-0.0030503636498232,-0.0232786304636354,-0.0122907460679616,0.033970451280905,-0.014391307187835,94043093
243,-0.0231546256691217,0.0032088262960314,-0.0350102260708808,-0.0112285958603024,-0.0113553758710622,-0.0120566897094249,-0.0114396978169679,-0.0163506226812205,-0.0057487455196678,-0.0137593308463692,98708407
244,0.0113920709118247,0.006507933139801,0.0084027079865336,0.0090907588601112,-0.0026235666591674,0.0076335300691425,-0.007546049542725,-0.0285346699259082,-0.0120923705399036,0.0385222472250461,128725950
245,0.0346682965755462,-0.0116204228252172,0.0040668696165084,0.0172463860362768,-0.0078379595652222,0.0115138003602623,-0.0419790670275688,-0.0017864681663845,-0.0263143628835678,0.0376634001731872,102523558
246,-0.0190056283026933,-0.0013021477498114,-0.0023453400935977,-0.0020867716521024,-0.0074425982311367,0.0034250472672283,0.028101347386837,-0.0468139331763084,-0.023549385368824,0.0003207699628546,102122032
247,-0.004680773243308,-0.0024917090777307,0.0127733536064624,0.0078941499814391,-0.003918279428035,0.0120865460485219,0.0345859006047248,0.0065594396835043,-0.0172997079789638,0.0182809848338365,19919865
248,-0.0095025077462196,-0.00537277944386,0.0019251150079071,0.0034788497723639,-0.0055785509757697,0.0055802878923714,0.0014089226024225,-0.036653527211022,-0.0193000715225934,0.0180417820811271,76273564
249,0.0123235881328582,0.0298323929309844,0.0129755912348628,0.0055298139341175,-0.0044869505800306,0.0059997951611876,-0.0359797850251197,-0.0413835614693594,-0.013009070418775,0.0170574784278869,100565256
250,0.0383568927645683,-0.04054831340909,-0.0112831182777881,0.0212589427828788,-0.0017637119162827,0.0243172962218523,-0.0204031914472579,-0.0022955614386113,-0.0571168959140777,0.0395126827061176,200394113
251,0.0035405345261096,0.0013932422734797,-0.0095171453431248,-0.0084690265357494,-0.0092281829565763,-0.0064697591587901,-0.0114826168864965,-0.0051019809349707,-0.0070133651606738,-0.008320240303874,150718336
252,0.0099654495716094,0.0025482925120741,-0.0111684817820787,0.0148795451968908,-2.2167805582284927e-06,0.0050946231931447,-0.017489418387413,0.0100395442312954,-0.0201176814734935,0.0483464896678924,102421980
253,-0.0013800831511616,-0.0442931316792964,0.0080125881358981,-0.0086559914052486,-0.0157582759857177,-0.0040656230412423,-0.0425824970006942,0.0324526555104824,-0.0253020077943801,0.0143230436369776,84344367
254,0.0006952091353014,0.021722188219428,0.0241094939410686,-0.0020691042300313,-0.0012701187515631,0.0005543844308704,0.0045921970158815,-0.0179060586915567,0.0059886081144213,0.0085551319643855,72497728
255,0.0057228505611419,-0.0427207797765731,0.0086077488958835,0.0095861237496137,-0.013056207448244,0.0081551307812333,-0.0310333967208862,-0.0389700851027124,-0.0451876781880855,0.0308854486793279,68002205
256,-0.0041016479954123,0.0163941569626331,-0.0006284249247983,-0.0068684490397572,-0.0125300176441669,0.0066942609846591,0.0257308185100555,0.0101737626621218,-0.0021984700579196,0.0130301238968968,72898792
257,-0.0016409382224082,0.0068627959117293,-0.0015897608827799,0.007337394170463,0.0091028232127428,0.0118739213794469,-0.0200302377343177,-0.0153934860264204,-0.0074518052861094,0.0222025960683822,138460133
258,-0.0054487469606101,-0.003806895809248,-0.0373103395104408,-0.0182547587901353,-0.0132556650787591,-0.0130054121837019,-0.0229720845818519,-0.0024832621682162,-0.024288197979331,-0.0156448185443878,99018577
259,0.0143802408128976,-0.0085963420569896,0.0017631986411288,0.0078008738346397,-0.0074817538261413,0.0088178059086203,-0.0292878709733486,-0.0401920868779837,-0.0313860028982162,0.020642964169383,206545451
260,-0.0102396951988339,0.0045387633144855,0.0002524759620428,-4.833651473745704e-06,-0.0062499111518263,0.0041760178282856,0.0263895373791456,-0.0439925872536686,-0.020613333210349,0.00815293751657,56491611
261,0.0351321399211883,-0.0247657783329486,0.0024887297768145,0.0188438277691602,-0.0015037017874419,0.0119370687752962,-0.0363115221261978,-0.0542827895221597,-0.03218799456954,0.0261879339814186,108954955
262,-0.027935916557908,-0.0139771755784749,-0.0195018369704484,-0.0062145581468939,-0.0089374296367168,0.0007522875675931,-0.0076857325620949,-0.0212893558119208,-0.0344812795519828,0.0014596926048398,47754644
263,-0.0105558084324002,0.0375047884881496,0.0229913666844367,-0.010726498439908,-0.0031580808572471,-0.0049133952707052,0.0188613012433052,-0.0285411297130455,0.008585506118834,-0.0092594334855675,59488156
264,-0.0102561507374048,-0.0675243586301803,-0.0163740497082471,0.0191783681511878,-0.0029528047889471,0.0022992601152509,0.0155534390360116,0.0096964580711653,-0.0407666862010955,0.0364129021763801,173578723
265,0.0039475187659263,0.0089507447555661,0.0096379062160849,0.0095979422330856,-0.0059583759866654,0.0091298446059226,-0.0524000003933906,-0.0478357714986017,-0.0205329339951276,0.019234113395214,1489566
266,0.0032713888213038,-0.026503661647439,-0.0158698596060276,0.0057920888066291,-0.0005183087196201,0.0049637351185083,0.0262690316885709,-0.0195366171135244,-0.0378597155213356,0.0176680572330951,195696960
267,-0.0015195850282907,-0.0372648239135742,0.0155017813667654,-0.0059851249679923,-0.0075538647361099,0.0039151236414909,-0.0375211015343666,0.0447805529877777,-0.0440323427319526,0.0402680858969688,157676367
268,-0.008812166750431,0.0036415255162864,-0.0145337022840976,-0.0108798742294311,-0.0113872941583395,-0.0092208348214626,-0.0125610809773206,-0.0295125812641937,-0.0093321073800325,-0.0069759478792548,47758813
269,-0.027519242838025,0.0074522560462355,0.0082370834425091,-0.0134337674826383,-0.0062191723845899,-0.0070844944566488,0.0226783640682697,-0.0129240330258953,0.0132527817040681,-0.0255767237395048,94043087
270,-0.0084253624081611,0.018484404310584,-0.0165671333670616,-0.0126084052026271,-0.0121179241687059,-0.0069050509482622,-0.0058545591309666,-0.0682514105661339,-0.0278769172728061,-0.0139786349609494,60612444
271,0.0085590649396181,-0.0257721543312072,-0.0002634341362863,0.0109870210289955,-0.0022630677558481,0.0108435191214084,0.0035602776333689,-0.0569181021586951,-0.0288666188716888,0.0249712951481342,189832432
272,0.0509403113130137,0.0108739798787266,-0.0052884834274352,0.0189325572706261,0.0130776603251371,0.0075806998275787,0.0564456298072219,-0.0152269005096357,0.0277307484499067,0.0010543586945293,83448924
273,0.0053625013679265,-0.042073369026184,-0.0226203333586454,0.0159508548676967,0.0023426925763487,0.0088469572365283,-0.0433221831917762,-0.0837713299880681,-0.0367620773613452,0.0323487408459186,968042
274,-0.0020088236778974,0.0052880276925861,0.0033536253031343,0.0034560321364551,-0.0048700897023081,0.0054915980435907,0.0134770702570676,-0.0381108625396691,-0.0173711162060499,0.0197084341198205,63645659
275,0.0478486940264701,0.0314680337905883,0.0226891562342643,0.0273667089641094,0.0007358461152762,0.0244070533663034,-0.0748054608702659,-0.0621888955150186,-0.0358597114682197,0.0311901606619358,2052970
276,-0.0198271665722131,0.0036660032346844,-0.0033598141744732,-0.0040361164137721,-0.0078571531921625,0.0026436042971909,0.0414302200078964,-0.0508437322588244,-0.0243899263441562,-0.0053071267902851,54209120
277,0.0227301511913537,-0.0264473799616098,-0.0023992294445633,0.0162673741579055,-0.0037410231307148,0.017146298661828,-0.0094168242067098,-0.0244573247713954,-0.0416340045630931,0.0327827520668506,107721773
278,0.0127076916396617,-0.0269808433949947,0.020695324987173,0.0038654580712318,-0.0104316752403974,0.00751568749547,-0.0255552753806114,-0.0508957543373474,-0.048553392291069,0.0301425512880086,170437794
279,-0.0123305860906839,-0.002966200467199,0.0005337012698873,-0.0062993010506033,-0.0045055849477648,-0.0043477118015289,0.0236340295523405,-0.055470394868785,-0.0156389009207487,-0.0218396373093128,7211039
280,0.0004135927010793,-0.0043454538099467,-0.001428794930689,0.0036303792148828,-0.0069672823883593,0.0022529126144945,-0.0334468819200992,-0.0318738056540854,-0.0225358754396438,0.0038820565678179,3443157
281,0.0265908949077129,0.0192059371620416,0.0136413797736167,0.0145000563934445,-0.0022954987362027,0.0169776454567909,-0.0381824783980846,-0.0461816241289437,-0.0083713456988334,0.0325521677732467,195474892
282,-0.0002495010849088,0.0056005199439823,-0.0033204974606633,-0.0083443000912666,-0.0038066869601607,-0.0029762154445052,0.0198844037950038,0.0117467782842944,-0.0116199692711234,-0.0083797816187143,7574988
283,0.0137152792885899,0.0355642288923263,0.0115085067227482,0.007371018640697,-0.0064974562264978,0.0086072236299514,-0.0318397656083107,-0.0631466657994738,-0.02139263600111,0.0077010793611407,86366069
284,0.0113920709118247,0.006507933139801,0.0084027079865336,0.0090907588601112,-0.0026235666591674,0.0076335300691425,-0.007546049542725,-0.0285346699259082,-0.0120923705399036,0.0385222472250461,9949411
285,-0.0051573435775935,0.0050014122389256,0.0021673534065485,0.0021321605890989,-0.0053979069925844,0.0049883546307682,0.0184164214879274,-0.0403607752064361,-0.0186113528907299,0.0152881601825356,99092662
286,-0.0446782484650611,0.0014037780929356,-0.0127229914069175,-0.0144853498786687,-0.012023183517158,-0.0013284664601087,0.0804162099957466,-0.0686021551644498,-0.0341790094971656,-0.040196094661951,58425371
287,-0.0006728530861437,0.028571868315339,0.0278029218316078,-0.0148848062381148,-0.0040082810446619,-0.009022201411426,0.0080708768218755,-0.0163239554669365,0.0166942682117223,-0.0063240444287657,39833157
288,-0.0377719812095165,0.0020324601791799,-0.0101209059357643,-0.0115814479067921,-0.0108654182404279,-0.0002246033400297,0.0695817917585372,-0.0636669837067256,-0.0314585641026496,-0.0305002443492412,13182786
289,-0.0227309558540582,0.0247538872063159,0.0135338148102164,-0.0065975952893495,-0.0042775552719831,-0.0053646792657673,0.01783162727952,-0.0161120604279971,0.0049434974789619,-0.0113333165645599,15268755
290,-0.0006127094384282,0.0100348256528377,-0.0153862554579973,-0.0089206136763095,-0.0113918185234069,-0.0107243116945028,-0.0163604672998189,-0.0152921854938411,-0.0098257567733526,-0.0155042288824915,113607068
291,0.0262717641890048,0.0469952300190925,0.0178228728473186,0.0125038456171751,-0.0062502436339855,0.0113726574927568,-0.070165067911148,-0.0691968974292479,-0.0210032183676958,0.0121051957830786,69330138
292,0.0006776595837436,-0.0222330130636692,-0.0018898886628448,-0.0011511323973536,9.046844206750392e-05,-0.0018908962374553,-0.0150323696434497,-0.0017370464715274,-0.0112856309860944,0.018226521089673,59617193
293,0.0032899663783609,0.0021891319192945,-0.0016105320537462,0.0067311311140656,-0.0047799181193113,0.007105462718755,-0.0113254943862557,-0.0081935715711578,-0.0326363705098629,0.0278458651155233,206966496
294,0.0287768561393022,-0.0302822012454271,0.0200554300099611,0.0183231551200151,-0.0009049647487699,0.0150178056210279,-0.0402725040912628,0.0054447845511271,-0.0276302881538867,0.0560414306819438,47527154
295,0.0011869452428072,-0.0021548657678067,-0.021178338676691,-0.0093892253935337,-0.0049225338734686,-0.0064553576521575,-0.0172636695206165,-0.0104716069564121,0.0012238696217536,-0.0042263297364115,61913621
296,0.0047099236398935,-0.0158801898360252,0.0078116292133927,0.0010193027555942,-0.0079102246090769,0.0051795681938529,-0.0278154052793979,0.0140841844096521,-0.0194405317306518,0.0328958109021186,34270534
297,-0.0010030032135546,-0.0263305753469467,0.0128386951982975,-0.0075751324184238,-0.0116215320304036,-0.0013842500047758,-0.0323479920625686,0.0133321406485783,-0.0216422919183969,0.0237026344984769,205180061
298,0.0422762377586622,0.0196672733642396,-0.0293781753671455,0.0056157018546963,0.0076033693392725,0.003720468277559,0.0072571253792129,-0.111383067447234,0.0483379200139048,-0.0017137427139869,34373550
299,-0.0335389226675033,0.0113017447292804,0.0213297214359045,-0.0337132923305034,-0.0192408189177513,-0.0296766348183155,0.0302571859210729,-0.037802728068719,0.0057957121171057,-0.047071810811758,199307009
300,-0.0175736229866743,-0.0099620362743735,-0.0005770357092842,0.0013110919389873,-0.0067199957557022,0.0047871647402644,0.0048680324107408,-0.0397896666282793,-0.0220842529088258,0.0101306336000561,12713910
301,0.0012973974226042,-0.0342495292425155,0.0134309288114309,-0.0054740412160754,-0.0057856063358485,0.0056448653340339,-0.0313261933624744,0.0482101572132118,-0.0433539561927318,0.0326826199889183,3193236
302,0.0113920709118247,0.006507933139801,0.0084027079865336,0.0090907588601112,-0.0026235666591674,0.0076335300691425,-0.007546049542725,-0.0285346699259082,-0.0120923705399036,0.0385222472250461,80628593
303,0.0075083104893565,0.0161941368132829,0.0027454725932329,0.0028100518975406,-0.0097642634063959,0.0066212266683578,-0.0148865152150392,-0.065978924291894,-0.0291603747755289,-0.0001138097140938,85996097
304,0.0113920709118247,0.006507933139801,0.0084027079865336,0.0090907588601112,-0.0026235666591674,0.0076335300691425,-0.007546049542725,-0.0285346699259082,-0.0120923705399036,0.0385222472250461,16700200
305,-0.0107300300151109,-0.0293255690485239,-0.0007992249447852,0.0086150038987398,-0.0032128437887877,0.000389443419408,-0.0008301045745611,0.0228500354637905,-0.0269861686974763,0.0360416769981384,159483171
306,0.0115692997351288,0.0370053797960281,0.0189142450690269,0.0158794876188039,0.000781791342888,0.0148532763123512,-0.0671259090304374,-0.0391678267225787,-0.0293564870953559,0.0131549462676048,102483617
307,0.0006952091353014,0.021722188219428,0.0241094939410686,-0.0020691042300313,-0.0012701187515631,0.0005543844308704,0.0045921970158815,-0.0179060586915567,0.0059886081144213,0.0085551319643855,6747650
308,0.0118383206427097,-0.0015687211416661,-0.0595958083868026,0.0034147910773754,-0.0026922633405774,0.008204149082303,0.0161800421774387,-0.0128999809071134,-0.0428658574819564,-0.0078984685242176,2763553
309,-0.022197101265192,-0.007598316296935,-0.0255601927638053,-0.0175530277192592,-0.0163105241954326,-0.01481868699193,-0.011667376384139,-0.0013804716613836,-0.0099483532831072,-0.0245827846229076,88350347
310,0.0016847846563905,0.0056242672726511,0.0047452794387936,0.0050091003067791,-0.0042508929036557,0.0060819657519459,0.0076825860887765,-0.0354714308070252,-0.0159161649644374,0.0248939804732799,47788573
311,0.0233908258378505,-0.0078113796189427,0.0058771749027073,0.0168269425630569,-0.0008484314894303,0.0171839464455842,-0.0281341299414634,-0.0529374422774717,-0.020373161882162,0.0360365696251392,196566732
312,-0.0199298169463872,0.0081790778785943,0.0150183998048305,-0.009008415043354,-0.0034809985663741,-0.0037800220306962,0.0344736687839031,-0.0085819066592186,0.0017061743419617,-0.0087958108633756,101058866
313,-0.017237463966012,0.0254309549927711,-9.069079533219336e-05,-0.0069253505207598,-0.0067759435623884,-0.0100613720715045,-0.0047938777133822,-0.0220756386293351,0.0007856979500502,-0.0176362097263336,150718293
314,0.0429745391011238,-0.0733030810952186,0.0057950401678681,0.0139819514006376,-0.0058798701502382,0.0144904386252164,-0.0403045415878295,0.0124375316306111,-0.040849432349205,0.0546694062650203,18912237
315,-0.0014884623233228,0.0118612106889486,-0.0126645024865865,8.278479799628258e-05,0.0098891500383615,-0.0045926198363304,0.004031999502331,-0.0079686325239149,0.0068155089393258,-0.004600394051522,159115989
316,0.0113920709118247,0.006507933139801,0.0084027079865336,0.0090907588601112,-0.0026235666591674,0.0076335300691425,-0.007546049542725,-0.0285346699259082,-0.0120923705399036,0.0385222472250461,86617202
317,-0.0043941941112279,0.0191327929496765,0.0051112440414726,0.0027612789999693,-0.0080197686329483,0.0064865378662943,-0.0152739789336919,-0.0616520591996839,-0.0251092854887247,-0.0023826793767511,8608429
318,0.0469466336071491,0.0103613445535302,0.0310725439339876,0.0079845925793051,0.0049718921072781,0.0131362602114677,0.0163295418024063,0.0005967809996361,0.0044512166641652,0.0384334176778793,138469628
319,0.0114631038159132,-0.0184136945754289,-0.0120277479290962,0.0111687425523996,-0.0042546028271317,0.0160675290971994,0.0199409294873476,-0.0367523069491758,-0.0439213886857032,0.0128019079566001,109486663
320,-0.0045430888421833,0.0303386002779006,-0.0154876857995986,-0.0021143851336091,-0.0056778928264975,-0.0012479992583394,0.0022795777767896,0.0182646388986721,-0.0200894381850957,0.0156818646937608,55711245
321,-0.0292278565466403,-0.009165858849883,-0.0111986258998513,-0.0165276862680912,-0.013060831464827,-0.0093704713508486,-0.0023727228399366,-0.0304169653206535,-0.0114465067163109,-0.0187293607741594,101191919
322,0.0113920709118247,0.006507933139801,0.0084027079865336,0.0090907588601112,-0.0026235666591674,0.0076335300691425,-0.007546049542725,-0.0285346699259082,-0.0120923705399036,0.0385222472250461,194164487
323,-0.0086008161306381,-0.0222164150327444,0.0074673537164926,-0.0016224059509113,-0.0052823880687355,0.0003201572690159,-0.0109968604519963,0.0090708535944216,-0.0045539382845163,-0.0032536352518945,71488005
324,0.0019983355297072,0.0072079886485514,-0.0062998948572257,0.0180066386163257,0.0032281356324278,-0.0091469340396735,-0.0346725230675001,-0.0092162402093323,0.0183433020147185,-0.0116469307235073,45859773
325,0.0049875280819833,-0.0214149430394172,0.0012405036250129,0.008981654420495,-0.0062838145531713,0.0043633030727505,0.0068194535560905,-0.0123643862911874,-0.0397455058991909,0.0259486492723226,101778430
326,-0.0162937566637992,0.0065112253651022,-0.010281816124916,-0.0059089120477437,-0.0043973014689981,0.0011027987347915,0.0213941950350999,-0.021836289984175,-0.0147107299417257,-0.0124022383242845,3806601
327,0.0113920709118247,0.006507933139801,0.0084027079865336,0.0090907588601112,-0.0026235666591674,0.0076335300691425,-0.007546049542725,-0.0285346699259082,-0.0120923705399036,0.0385222472250461,2297821
328,0.0113920792937278,0.0065079336054623,0.0084027079865336,0.0090907607227563,-0.0026235678233206,0.0076335328631103,-0.0075460406951606,-0.0285346683723948,-0.0120923658832907,0.0385222472250461,108109288
329,0.0113920709118247,0.006507933139801,0.0084027079865336,0.0090907588601112,-0.0026235666591674,0.0076335300691425,-0.007546049542725,-0.0285346699259082,-0.0120923705399036,0.0385222472250461,2235503
330,0.0315197259187698,-0.0262608174234628,-0.0004467465914785,0.0136729925870895,0.0022959492634981,0.0166653655469417,-0.0332885384559631,-0.0108178423888465,-0.0298356357961893,0.0516413040459156,37764882
331,0.0081800846382975,0.0287271086126565,0.0040974193252623,0.0037146164104342,0.0002047210000455,0.0048067481257021,0.009879307821393,-0.0256135039392719,-0.0055598905310034,0.0175577942281961,7897387
332,-0.0284444671124219,-0.0017236433923244,-0.0059628188610076,-0.0061947805806994,-0.0090489527210593,0.0018599585164338,0.043953962624073,-0.0538577042691627,-0.0273123085498809,-0.0133190248161554,100535643
333,0.0024796107318252,-0.0287585575133562,-0.0022834222763776,0.0059149549342691,-0.0069746160879731,0.0106842285022139,-0.0003485147608444,8.91535840664634e-05,-0.0231433771550655,0.034749262034893,102644366
334,-0.022316476330161,0.0026050508022308,-0.017313377931714,-0.0028623177204281,-0.0203214585781097,0.0067271762527525,-0.0470232926309108,0.0065429454574863,-0.0282025169581174,0.0380699299275875,58802094
335,-0.0057247197255492,0.0004949425347149,0.0025763208977878,0.0033104545436799,-0.0052484739571809,0.0054719811305403,0.0086705759167671,-0.0377249777062618,-0.0183781944215297,0.0184443015605211,94317976
336,0.0018409255426377,-0.0145790604874491,-0.0252443682402372,-0.005078594200313,-0.012286958284676,-0.0079380488023161,-0.0748324319720268,-0.0295883326763225,-0.0024192719720304,0.0088432282209396,670375
337,0.0064728246070444,-0.0379143208265304,0.0082955276593565,0.0078459065407514,-0.0098134446889162,0.0053229238837957,-0.0169427767395973,-0.0273920863512204,-0.0300361290574073,0.0391488447785377,99402058
338,-0.0216829515993595,0.0269107092171907,0.0197957251220941,-0.0146143026649951,-0.0043557561002671,-0.0072264559566974,0.0345073528587818,-0.0264306440643556,0.0071961162611842,-0.0152070196345448,47505989
339,-0.0418236255645751,-0.005587394349277,-0.0106338495388627,-0.0109788663685321,-0.0111465901136398,6.259838119149208e-05,0.0586260482668876,-0.0616121059390842,-0.032311275601387,-0.0297547243535518,110742290
340,0.0242619290947914,-0.0133477170020341,-0.0042987242341041,0.0045842351391911,-0.0133961401879787,0.0073252646252512,-0.0326954312622547,-0.0635238314069727,-0.0379672944545745,0.0131261944770812,99092666
341,0.0052620028145611,0.0237632114440202,0.006304423790425,0.0033431067131459,-0.0079446882009506,0.0041821687482297,-0.027619881555438,-0.0334433296077354,-0.0226057115942239,0.0016265821177512,73023923
342,0.0015381529228761,-0.0046629421412944,-0.0076248752884566,-0.0127918049693107,-0.0083651654422283,-0.0100925751030445,-0.0115858381614089,0.0004220439493388,-0.0297711007297039,0.0229349974542856,73299028
343,0.0006952091353014,0.021722188219428,0.0241094939410686,-0.0020691042300313,-0.0012701187515631,0.0005543844308704,0.0045921970158815,-0.0179060586915567,0.0059886081144213,0.0085551319643855,72497730
344,-0.0009285676642321,0.0033364200498908,-0.0091803595423698,0.0015391347697004,-0.0052273669280111,-0.0019634237978607,-0.0082069206982851,-0.0353141642085309,-0.0215649101883173,0.0251996852457523,99788385
345,-0.0013901866041123,-0.0002967974869534,0.0174235440790653,0.00563211645931,0.000235472456552,0.0066721993498504,0.0093602137640118,-0.0456914280425883,-0.0083251865580677,0.0299316886812448,206170303
346,-0.0129063995555043,-0.0044676605612039,-0.0093048093840479,-0.0011642568279057,-0.0109074916690588,0.0014549262123182,-0.0244970563799142,-0.0369623699545183,-0.0053062043152749,0.014701509848237,18468296
347,-0.019545404240489,-0.0165612921118736,-0.0059112338349223,-0.0032134868670254,-0.0067115020938217,-0.0024506067857146,-0.0153558114543557,-0.008925047325875,-0.0234623271971941,0.016069320961833,91989996
348,-0.0125613352283835,0.0069880662485957,0.0028224703855812,0.0021203691139817,-0.0084183942526578,0.0060952976346015,-0.0181701704859733,-0.0575725311159359,-0.0262242294847965,-0.0026408166158944,54863209
349,-0.0009307577274739,-0.0289025418460369,0.0002702518831938,0.0097074601799249,-0.0013458462199196,0.0139242261648178,0.0225896965712308,-0.0473711695590749,-0.0306078568100929,0.0109096728265285,88416983
350,-0.0226024109870195,-0.0272086262702941,0.0149540705606341,0.0070457272231578,-0.0184850078076124,0.0013432900886982,-0.066655546426773,0.0090149603058594,-0.0128232110291719,0.0225950926542282,75717236
351,0.0129776746034622,0.0010805609636008,0.0158611852675676,0.0023619439452886,0.0032785702496767,0.0057785348035395,-0.0100272940471768,-0.0033682204891917,0.0037115938030183,0.0326190292835235,50207366
352,0.0086590964347124,-0.0041979858651757,-0.0065316958352923,0.0006693581235595,-0.0065401052124798,0.0037526648957282,-0.0197300445288419,-0.0369499415635876,-0.0226386785507202,0.0189999677240848,76578097
353,0.0227275565266609,-0.0086104478687047,0.0359663069248199,0.0124920066446065,0.0149530488997697,0.0171443112194538,-0.0125167779624462,0.0766565508550204,-0.0200544670224189,0.0477902777493,101741648
354,0.0200844593346118,0.0282757394015789,0.013299805112183,0.0107846688479185,-0.0042667714878916,0.0094609288498759,-0.0361989811062812,-0.0487009897939187,-0.0160972047597169,0.0259399972856044,212071753
355,0.0203809309750795,-0.0034564570523798,-0.0082932943478226,0.0054753138683736,-0.0064574922434985,0.0115111470222473,-0.0190860629081726,0.002938969430602,-0.012987483292818,0.0175801012665033,3162115
356,-0.0148981213569641,0.0157662369310855,-0.0006017083651386,-0.0030528395436704,-0.0087529821321368,0.0036747558042407,0.0253566317260265,-0.0619731974593959,-0.0265747252851724,-0.0121544860303401,99446605
357,0.0115184038877487,-0.0099215051159262,-0.0136437630280852,0.0030018952675163,-0.0017032269388437,0.0032065114937722,-0.013518919236958,-0.0117679775412304,-0.0149106997996568,0.027551669627428,52541971
358,0.0021173974964767,-0.0417659394443035,0.060788907110691,0.0198995824903249,-0.0083688460290431,-0.0008695555152371,-0.0168316476047039,0.0332484806466229,-0.0227181818336248,0.0211535301059484,195773243
359,-0.0481822245495924,0.0028870036309889,0.0013795551328927,-0.0091154454698198,-0.0119773678612345,0.0025146604893414,-0.0134962691975131,0.0161555248501201,-0.0079775383202037,0.0028596791061532,17687405
360,0.0102383764460682,-0.014072404243052,-0.0044464198872447,0.0079420488327741,-0.0025238727685064,0.0130768595263361,0.0156964249908924,-0.0245586573119419,-0.0327852852642536,0.0104992613196372,114274866
361,0.0060596829280257,-0.0191419124603271,0.0211884938180446,-0.0070048477500677,-0.0079249441623687,-0.0033545852638781,-0.0228619743138551,0.0219132263562536,-0.0183336995542049,0.0152776800096035,158508852
362,-0.01979093067348,0.0020472449250519,-0.0101488726213574,-0.0112882200628519,-0.0092702759429812,-0.0096174525097012,0.0140641890466213,-0.0197054914077418,-0.0077163293026387,-0.0218870993703603,107512023
363,0.0577750840583498,-0.0124425113635795,-0.0064365871748604,0.008162048480675,0.022715967977151,0.0037762826629983,-0.0069087203906252,0.06026060727768,0.0553111764013869,0.0803688736154268,146167229
364,0.0113920709118247,0.006507933139801,0.0084027079865336,0.0090907588601112,-0.0026235666591674,0.0076335300691425,-0.007546049542725,-0.0285346699259082,-0.0120923705399036,0.0385222472250461,59299279
365,0.0113920792937278,0.0065079336054623,0.0084027079865336,0.0090907607227563,-0.0026235678233206,0.0076335328631103,-0.0075460406951606,-0.0285346683723948,-0.0120923658832907,0.0385222472250461,55422060
366,-0.0080022606998682,-0.0017488271696493,-0.0109483804553747,-0.010576331987977,-0.0086916862055659,-0.0106028299778699,-0.0014833800960332,-0.0062867828232772,-0.011679888702929,-0.0056497668847441,156284152
367,-0.0140239857137203,-0.0128504168242216,0.0046586021780967,0.0071976804174482,0.0030530388467013,0.0156599096953868,-0.012971275486052,0.0141636009936576,-0.0026627702172845,0.0135341957211494,109502816
368,0.0010066251270473,-0.0098276603966951,-0.0255149882286787,-0.006624910980463,-0.0104517191648483,-0.0056023527868092,-0.0275103896856308,0.0249683316427803,-0.0316314883530139,0.0082528311759233,76747884
369,-0.0218219496309757,-0.017032153904438,0.0122588817030191,-0.0173544846475124,-0.0097673162817955,-0.0063776229508221,0.0115864984691143,-0.0192935409538838,-0.0124793360009789,-0.0013223988935351,96648892
370,0.022429946810007,-0.0323059819638729,0.0063247876241803,0.0091111650690436,-0.0091662909835577,0.0110835721716284,-0.0468984991312027,-0.0256444119988524,-0.0351953729987144,0.0277207475155591,2368500
371,0.0006952091353014,0.021722188219428,0.0241094939410686,-0.0020691042300313,-0.0012701187515631,0.0005543844308704,0.0045921970158815,-0.0179060586915567,0.0059886081144213,0.0085551319643855,6747648
372,0.0083934953436255,-0.007606063503772,-0.0055851652286946,0.0047871568240225,-0.0025774978566914,0.0048206867650151,-0.0100029278546571,-0.0029774058923049,-0.0126032009720802,0.0096778506413102,124975178
373,-0.0207807570695877,0.0171676818281412,-0.0026683360338211,-0.0057074092328548,-0.0100254332646727,0.002774957101792,0.0331986099481582,-0.0686125928825698,-0.0295779258012771,-0.022701920941472,206977176
374,0.0113920792937278,0.0065079336054623,0.0084027079865336,0.0090907607227563,-0.0026235678233206,0.0076335328631103,-0.0075460406951606,-0.0285346683723948,-0.0120923658832907,0.0385222472250461,45621154
375,-0.0239877849817276,-0.0025822124443948,-0.0041069388389587,-0.0039187585934996,-0.0082324314862489,0.0027352813631296,0.0339439064264297,-0.0498098858490982,-0.0254271794110536,-0.0059404172934591,96457659
376,-0.011999275535345,0.0098859276622533,-0.026801960542798,-0.0054260860197246,-0.0072337840683758,-0.0091199018061161,0.0015824093716219,-0.0443947740396279,-0.0066777789033949,-0.016299158334732,148611986
377,-0.0209294967353343,0.0289119333028793,-0.0194554310292005,-0.0102933682501316,-0.0157003253698349,0.0017862764652818,0.0241989307105541,-0.0015725313351886,-0.025476986542344,-0.0010084690293297,6001285
378,0.0104356994852423,0.0110152633860707,0.0085556814447045,0.0004617457161657,-0.0091996099799871,0.0020632655359804,-0.0242124106734991,-0.0414023595278797,-0.0232678670436143,0.0025231023319065,72763348
379,-0.0090517420321702,0.0100581860169768,0.0015470129437744,-0.0042477436363697,-0.0065085836686193,0.002531356178224,0.0386324971914291,-0.0194771401007292,-0.0124978441745042,0.0019889045506715,16835734
380,-0.0216550454497337,0.0131053235381841,-0.034369695931673,-0.0239168629050254,-0.008481184951961,-0.0142355524003505,0.0182879790663719,-0.0052035977389971,0.0313776321709156,-0.0188974719494581,44708713
381,-0.0013534972677007,-0.0093395002186298,-0.0149688888341188,-0.0178846530616283,-0.0141620719805359,-0.0081625981256365,-0.0176329296082258,0.0047374914460994,-0.0254400875419378,-0.0052971048280596,110012110
382,0.0364249907433986,-0.0554725714027881,-0.0018887207843363,0.0097510423511266,-0.002961688907817,0.0149327078834176,-0.0214868243783712,-0.0062262878183721,-0.0182784479111433,0.0579740218818187,88880574
383,0.0158088244497776,-0.0081655643880367,-0.0237747821956872,-0.0011683471966534,-0.0033404992427676,0.005327655468136,-0.0224596709012985,0.0045147696058754,-0.0340825580060482,0.0378179848194122,30351501
384,0.0147779751569032,-0.0140713341534137,-0.0027895290404558,0.0025591531302779,-0.005573010072112,0.001646977616474,-0.0203273780643939,-0.0108834075313988,-0.007625144906342,0.0073574422858655,152354126
385,-0.0446782484650611,0.0014037743676453,-0.0127229848876595,-0.0144853498786687,-0.0120231844484806,-0.0013284655287861,0.080416202545166,-0.068602151964772,-0.0341790094971656,-0.040196094661951,206939650
386,-0.0088291568681597,0.0019613117910921,0.0042853308841586,0.0046791899949312,-0.0072013796307146,0.0069051920436322,-0.0269252173602581,-0.0494059196763164,-0.0234002117067575,0.0083005204796791,85951147
387,0.0310338623821735,-0.0560784228146076,-0.0028378700371831,0.0133636724203825,-0.0021539651788771,0.007941024377942,-0.0644180551171302,0.070251037864606,-0.0477252602577209,0.0526590645313262,102386409
388,0.0247550327330827,-0.0256494097411632,-0.0094828223809599,0.0029677166603505,-0.0175132453441619,0.0072378837503492,-0.0472784303128719,-0.0750158437670089,-0.0479702465236187,0.0032602054998278,78535305
389,0.0096752392128109,-0.00386434327811,0.0158698447048664,0.0086121000349521,0.007589675951749,0.0181622356176376,0.0410263538360595,-0.0156569077356585,-0.0119392275810241,0.0227927826344966,103874922
390,-0.0062372274696826,0.0169652011245489,0.0135002667084336,-0.0034432259853929,-0.0030927271582186,-0.0001094960607588,0.0197756495326757,-0.0258759247299138,-0.0014840466901659,0.0112373661249876,19771878
391,0.0273833125829696,-0.0455683544278144,-0.004779259674251,0.0115788439288735,-0.0017526817973703,0.0156656689941883,-0.0137942815199494,-0.013913329075832,-0.0175091680139303,0.0326465368270874,32949717
392,-0.0069872997701168,-0.01814441755414,-0.0100935101509094,0.0010654231300577,-0.0091567020863294,0.0059071169234812,0.0157749541103839,-0.0430849791935724,-0.0377284437417984,0.0248258709907531,184425605
393,-0.0129724126309156,-0.0151309464126825,0.0003213591407984,-0.0019383050967007,-0.0079694651067256,-0.0017457972280681,0.0040130363777279,-0.0062406568058042,-0.011280327104032,0.0046616895124316,102887574
394,-0.0356915071606636,-0.0238823853433132,0.0050068632699549,-0.0041486751288175,0.0015599653124809,-0.0020789145492017,0.0185811780393123,0.0697599151031916,-0.0252468641847372,0.0111420387402176,66891131
395,-0.0216954313218593,0.0037827743217349,-0.0022251768968999,-0.0121828382834792,-0.0112698692828416,-0.0024528997018933,0.0442019589245319,-0.0234960237611647,-0.0230573192238807,-0.0078754993155598,106261680
396,-0.0472630858421325,0.0048532169312238,-0.0662864223122596,-0.0436173714697361,-0.0210959911346435,-0.0167421959340572,-0.0193168241530656,0.0515425498306389,0.0103623159229755,-0.0136532159522175,60194762
397,-0.0076799006201326,0.016202624887228,-0.0010905360104516,-0.0033052028156816,-0.0073408354073762,0.0008910174947232,0.0141361951828002,-0.0493371266343245,-0.0259567350149154,-0.012182455509901,101368165
398,0.0006952091353014,0.021722188219428,0.0241094939410686,-0.0020691042300313,-0.0012701187515631,0.0005543844308704,0.0045921970158815,-0.0179060586915567,0.0059886081144213,0.0085551319643855,6747649
399,0.002774866996333,-0.0123262871056795,0.0098228491842746,0.0066297333687543,-0.000711353495717,0.0152860414236783,0.0059864833019673,-0.0581756942265732,-0.0387787371873855,0.0192571468651294,110939942
400,-0.0066862748935818,-0.0198621377348899,-0.0146567681804299,0.0013204414863139,-0.001251321285963,0.006832305341959,-0.0423560552299022,-0.0040753169646124,-0.0135781625285744,-0.0030997856520116,52268839
401,-0.0051573435775935,0.0050014122389256,0.0021673534065485,0.0021321605890989,-0.0053979069925844,0.0049883546307682,0.0184164214879274,-0.0403607752064361,-0.0186113528907299,0.0152881601825356,115138097
402,-0.0381121262907981,-0.0146771539002656,-0.0079175978899002,-0.006419810000807,-0.0100068636238574,0.0018712303135544,0.0302949324250221,-0.0525237914389069,-0.0298828855156898,-0.0161790773272514,90959033
403,0.0153283756226301,-0.029988158494234,0.0112051544710993,0.0128173464909195,-0.0090544736012816,0.0051676165312528,-0.0339234732091426,-0.0288751628657554,-0.0308144371956586,0.0278922263532876,68997293
404,0.0105670541524887,-0.0432870909571647,-0.0025445895735174,0.012958226725459,-0.0006380195263773,0.008112333714962,-0.0089582772925496,0.0128332391545978,-0.0221570152789354,0.0337943211197853,97442108
405,-0.00593236181885,-0.0098376395180821,-0.0167977456003427,-0.005905482918024,-0.0088851647451519,-0.0047496105544269,-0.017224047333002,-0.0199781057804958,-0.0145611567422747,-0.0241895206272602,34335298
406,-0.0051573435775935,0.0050014122389256,0.0021673534065485,0.0021321608219295,-0.0053979069925844,0.0049883546307682,0.0184164214879274,-0.0403607752064361,-0.0186113528907299,0.015288159251213,207034364
407,-0.0118576763197779,0.000461988383904,-0.0231085885316133,-0.0090485950931906,-0.0155278518795967,-0.005159099586308,-0.0016430080868303,-0.0302221788203574,-0.0366631187498569,-0.0106622511520981,8208151
408,-0.0023871790617704,-0.012642097659409,-0.010326400399208,-0.0023655667901039,-0.0085689565166831,-0.0027044569142162,-0.022274050861597,0.0008399415037575,-0.0035811935085803,-0.0057309726253151,71145982
409,0.0071199410594999,-0.0124117201194167,0.0071332193911075,0.0113279270008206,-0.002332461066544,0.011175263673067,-0.0167225822806358,-0.0213615656979814,-0.035261683166027,0.0255782511085271,103625428
410,-0.0161060597747564,0.0127502148970961,-0.000305745517835,-0.0022797908168286,-0.0089435204863548,0.004094268195331,0.0153842139989137,-0.0617654466214003,-0.0271523520350456,-0.011739294975996,58374844
411,-0.0186165925115346,-0.047687329351902,-0.0080573549494147,2.48901778832078e-05,-0.0068933507427573,-0.0033741032239049,0.0263285115361213,0.0370046832112236,-0.0336075872182846,0.0281199309974908,165081199
412,0.0309620294719934,-0.0360930897295475,-0.0122284293174743,0.020542562007904,-0.0015574996359646,0.0233677700161933,-0.0141792688518762,-0.0304581491346563,-0.0431855842471122,0.0426356419920921,33982497
413,0.0200844593346118,0.0282757394015789,0.013299805112183,0.0107846688479185,-0.0042667714878916,0.0094609288498759,-0.0361989811062812,-0.0487009897939187,-0.0160972047597169,0.0259399935603141,201846065
414,0.0379504822194576,-0.0230672620236873,0.028296448290348,0.0247840154916048,0.017029395326972,0.0314825884997844,0.0026153246872127,0.0045372779374467,-0.0200758874416351,0.0635820627212524,49609372
415,0.0113920709118247,0.006507933139801,0.0084027079865336,0.0090907588601112,-0.0026235666591674,0.0076335300691425,-0.007546049542725,-0.0285346699259082,-0.0120923705399036,0.0385222472250461,178367993
416,0.0125298472121357,-0.0696707591414451,-0.0252699144184589,0.0244368687272071,-0.010709898546338,0.0114671643823385,-0.0355162397027015,-0.0155913717125283,-0.0644401609897613,0.039187978953123,47023001
417,0.0113920709118247,0.006507933139801,0.0084027079865336,0.0090907588601112,-0.0026235666591674,0.0076335300691425,-0.007546049542725,-0.0285346699259082,-0.0120923705399036,0.0385222472250461,15166421
418,0.0113920709118247,0.006507933139801,0.0084027079865336,0.0090907588601112,-0.0026235666591674,0.0076335300691425,-0.007546049542725,-0.0285346699259082,-0.0120923705399036,0.0385222472250461,7172770
419,0.0072024171240627,0.0356267020106315,0.0091053247451782,0.0045712632127106,-0.0076861334964632,0.0075799264013767,-0.0220916345715522,-0.0686248216045363,-0.0241902135312557,-0.002216828521341,188320861
420,-0.0219374652951955,0.0034738949034363,-0.0041549163870513,-0.0049234414473176,-0.0082109244540333,0.0023063067346811,0.0447408147156238,-0.052351735583824,-0.0252211987972259,-0.008269814774394,45859764
421,0.0113920709118247,0.006507933139801,0.0084027079865336,0.0090907588601112,-0.0026235666591674,0.0076335300691425,-0.007546049542725,-0.0285346699259082,-0.0120923705399036,0.0385222472250461,172571530
422,-0.0423500463366508,-0.0042981784790754,-0.0110191060230135,-0.0116254836320877,-0.0113082379102706,-0.0001939220819622,0.0626442953944206,-0.0629011156302564,-0.032655693590641,-0.0316801741719245,91069114
423,-0.0116274040192365,-0.0185796171426773,0.0029436261393129,0.0067243105731904,-0.0052203959785401,0.0069183325394988,-0.0263272225856781,-0.0292879142210298,-0.0188031382858753,0.0266051813960075,52361126
424,0.0100391879677772,0.0169971715658903,0.0035264233592897,0.0081072021275758,-0.0001154183410108,0.0092653576284646,-0.0254793763160705,-0.0354174609299973,-0.0208151564002037,0.0098599465563893,1134720
425,0.0043619079515337,-0.0169412214308977,-0.0076687321998178,0.0079765068367123,-0.0015818611718714,0.0069421604275703,-0.0151353059336543,-0.0121797468779162,-0.0244473069906234,0.0295454747974872,201234592
426,-0.0098242778331041,-0.004885131958872,-0.0260808002203702,-0.0085029555484652,-0.0077491234987974,-0.0101977735757827,-0.0180963203310966,-0.0204806929244251,-0.0031335784588009,-0.0064136418513953,14966853
427,0.014980443753302,0.0135096013545989,0.0133381243795156,0.0093427971005439,-0.0056188087910413,0.0104015711694955,-0.0304676033556461,-0.0445114316285705,-0.0267167519778013,0.0158214680850505,57519725
428,0.0026307706721127,-0.0403890945017337,-0.0108560426160693,0.0143218040466308,0.0012056943960487,0.0133925378322601,0.0052658692002296,-0.0512986473243568,-0.0419040657579898,0.0259766783565282,50031549
429,-0.0265545342117548,0.0030535953119397,-0.0058944909833371,-0.0068647991865873,-0.0089849270880222,0.0015683365054428,0.0519840158522129,-0.0556510672469659,-0.0270399041473865,-0.0147518226876854,66464625
430,0.0062301252037286,-0.0227715242654085,0.0163926817476749,-0.0012518202420324,-0.0045999852009117,0.0052204495295882,-0.0325654596090316,0.0274432941454298,-0.0306330323219299,0.035201296210289,68748784
431,0.0259651690721511,-0.0215208791196346,0.0007673709187656,0.020309954881668,-0.0007454839069396,0.0195112619549036,-0.0176122896373271,-0.021623889944673,-0.038121048361063,0.0271462202072143,55422033
432,-0.0207936074584722,0.0084606958553195,-0.0042822724208235,-0.0086519317701458,-0.0063124680891633,-0.0071439668536186,0.0042192814871668,-0.021519526306066,0.0005654396954923,-0.0112684611231088,58017337
433,0.0058205495588481,-0.0384328551590442,-0.0021307165734469,0.0108208563178777,-0.0018036568071693,0.00839857570827,0.0010715336538851,0.0025511356363482,-0.0369930639863014,0.0440083406865596,51887928
434,-0.0446782484650611,0.0014037780929356,-0.0127229914069175,-0.0144853498786687,-0.012023183517158,-0.0013284664601087,0.0804162099957466,-0.0686021551644498,-0.0341790094971656,-0.040196094661951,96232449
435,0.0292039588093757,-0.0418246909976005,-0.0049385209567844,0.0189789254218339,-0.0003339506220072,0.0159913506358861,-0.0351748317480087,-0.0372167011106734,-0.0310200806707143,0.0423359647393226,206810298
436,0.0275729242712259,-0.0370158776640892,0.018383827060461,0.0183713175356388,-0.0053541781380772,0.0133783360943198,-0.0522423610091209,-0.0088183072287926,-0.0332089886069297,0.057762186974287,173351101
437,-0.0125859007239341,0.0480322912335395,0.041907712817192,-0.0195485353469848,0.0023655865807086,-0.0140456799417734,0.0288567915558815,0.0096130177683741,0.0420648008584976,-0.0043255444616079,47445127
438,0.0231033787131309,-0.0157219320535659,0.0090607106685638,0.0140838604420423,0.0093056242913007,0.0198367089033126,0.0032103525009006,-0.0089540185303642,0.0264390148222446,0.0423763506114482,76920769
439,-0.0160364769399166,-0.0072208363562822,-0.0295143295079469,-0.0046691442839801,-0.0071482853963971,0.0009320275858044,0.0290561690926551,-0.0380968492748413,-0.0371923595666885,-0.0129731874912977,6754190
440,0.0145190032199025,0.0384572334587574,0.0213280618190765,0.0040090698748826,-0.0031063137575984,0.0043400190770626,-0.0279777329415082,-0.0399401682569461,-0.003296315902844,0.0155798075720667,19933028
441,-0.016507800668478,0.0047549000009894,-0.0087039088830351,-0.0169432386755943,-0.0104206074029207,-0.0129076149314641,-0.0137729607522487,-0.011668873402555,-0.002707686740905,-0.0186234228312969,191085080
442,0.0075196442194283,-0.0060479515232145,-0.0072530228644609,0.005216363351792,-0.0009165001101791,0.0081171952188014,-0.0325243435800075,-0.0167085464687011,-0.0315934903919696,0.0548925772309303,34326285
443,0.0293878782540559,0.0515737198293209,0.0185411386191844,0.0125976502895355,-0.0060254875570535,0.0114167826250195,-0.0668660700321197,-0.0702849024836598,-0.0203835647553205,0.0124732768163084,12928037
444,0.0142486095428466,-0.0014224101323634,0.0108360908925533,0.0077054412104189,0.0016321102157235,0.0045934906229376,-0.0180943123996257,-0.0279913679378075,-0.0014992596115916,0.0209586564451456,86177534
445,0.0001699663698673,0.0069121061824262,0.0063128862529993,0.0003811763599514,-0.0039979782886803,0.0042002135887742,-0.0045760464854538,0.0537554477924668,-0.0010088448179885,0.0253910049796104,192078523
446,0.0277140215039253,-0.0234146527945995,-0.0058813109062612,-0.0006741124670952,-0.0090737240388989,0.00422681029886,-0.043670367449522,-0.0139851514558256,-0.0389694944024086,-0.0065760817378759,200400506
447,0.0033854825887829,0.0143912732601165,0.0071530370041728,-0.0099479164928197,-0.0034563026856631,-0.0042259423062205,0.0006473519606515,-0.010562578457719,0.0146984057500958,-0.0085757682099938,879768
448,0.0270017404109239,0.0085165090858936,-0.0072839809581637,-0.0059292027726769,-0.0070786448195576,-0.009466047398746,0.002526257187128,-0.0678494099818688,0.0037528076209127,-0.0083544738590717,38106215
449,-0.0111139323562383,-0.0031932960264384,-0.0442474633455276,-0.0081241484731435,-0.0157995894551277,-0.0134232360869646,-0.0282432101666927,-0.0130812968259268,-0.0204390734434127,-0.0087728993967175,98506381
450,0.0016188616864383,-0.0016562188975512,-0.04041563346982,0.0026433574967086,0.001623558695428,0.0106946676969528,0.0083488831296563,-0.020561336416286,-0.0064457259140908,0.0155650619417428,195696760
451,0.024626126512885,-0.0697820112109184,-0.0140786282718181,0.0127397207543253,-0.0067659425549209,0.0101219322532415,-0.0260118320584297,-0.0496999488591496,-0.0441095679998397,0.0738178417086601,1058759
452,0.0163367725908756,-0.0001617497764527,-0.025027772411704,0.0089721605181694,-0.006490021944046,0.0030829615425318,-0.0341206714510917,0.0297653730564581,-0.0276461523026227,0.0312784574925899,77580268
453,-0.0283127642212132,0.025888090399379,-0.0207997335122537,-0.0066583690740449,0.0210470965495773,-0.0032644139207714,0.0314962968526157,0.0572998707976755,0.0246783347278474,-0.0109927503001736,84470282
454,-0.0174244474619627,0.016655234619975,-0.0072375629097223,-0.0009527879301458,-0.0006284040864557,0.0088229216635227,-0.0057029165327548,0.0207435475837735,-0.0488396286964416,0.0032524340786039,64177119
455,0.0289991218596696,-0.0498140379786491,-0.0184804406017065,0.0012109773233532,-0.0103697916492819,0.0036784692201763,-0.04102648422122,-0.0284715031879371,-0.0077160419896245,0.0451252609491348,88880575
456,0.0484175719320774,-0.0882980525493621,-0.0023920089006423,0.0131112886592745,-0.0097067868337035,0.0144100487232208,-0.0470422059297561,0.010819027032311,-0.0474514588713645,0.0537939518690109,73392382
457,0.0113920792937278,0.0065079336054623,0.0084027079865336,0.0090907607227563,-0.0026235678233206,0.0076335328631103,-0.0075460406951606,-0.0285346683723948,-0.0120923658832907,0.0385222472250461,194294684
458,-0.0216491743922233,0.0090675679966807,-0.0141398999840021,-0.0151528865098953,-0.009450476616621,-0.0143856741487979,-0.0063048042356967,-0.0258446149690993,-0.0077263033017516,-0.022052714601159,74945071
459,0.0526672154664993,0.033626802265644,0.0525345206260681,0.0421350784599781,0.0240254830569028,0.0366944633424282,-0.0092900823801755,-0.0053051572565926,0.0019094622693955,0.0560402646660804,126242405
460,-0.0008447961881756,0.0053939898498356,0.0037921979092061,0.0039454754441976,-0.0046749520115554,0.005677652079612,0.0116509608924388,-0.0372790513563156,-0.0169125869870185,0.0213426388800144,99092671
461,-0.0004811831749975,-0.0280615221709013,-0.0025878997985273,0.0100659606978297,-0.004650390241295,0.0098450472578406,-0.0143575444817543,-0.0576460870992053,-0.0291889961808919,0.0134384855628013,5099843
462,0.0113920709118247,0.006507933139801,0.0084027079865336,0.0090907588601112,-0.0026235666591674,0.0076335300691425,-0.007546049542725,-0.0285346699259082,-0.0120923705399036,0.0385222472250461,18860704
463,-0.0418689250946044,0.0005189061630517,-0.0300457496196031,-0.0225622728466987,-0.0110835991799831,-0.0190468523651361,0.0025877146981656,0.0075641886812587,-0.0067129638046026,-0.0233621466904878,49065011
464,-0.0167289115488529,0.0177716352045536,-0.0239936541765928,-0.012523234821856,-0.0143489362671971,-0.0161599200218915,-0.0062221675179898,-0.0314353201347076,-0.0125644262880086,-0.0224797744303941,60623703
465,-0.031739592552185,-0.0735787600278854,-0.011118134483695,0.0027819450479,-0.0055713551118969,-0.0081887962296605,0.0360274985432624,0.0834073385817227,-0.0433386601507663,0.0357932411134243,102481856
466,0.006108402274549,-0.0219327993690967,0.0063024549745023,0.0102240117266774,-0.0045292801223695,0.0072236680425703,-0.0131690185517072,0.0044066516021873,-0.0215348154306411,0.0321512892842292,44394807
467,-0.0223798789083957,0.0132106598466634,-0.0344359129667282,-0.0240860842168331,-0.0085906023159623,-0.0146251311525702,0.0185265317559242,-0.0066104790554931,0.0300536695867776,-0.0198788493871688,98350726
468,0.0136384274810552,-0.0284836273640394,0.0034282454289495,-0.0058958432637155,-0.0130189629271626,-0.0025580443907529,-0.0146884825080633,-0.0456600614052566,-0.0051849298179149,0.031265303492546,18682509
469,-0.0264333421591988,0.0452172072005202,-0.0243770249044652,-0.0024111036278318,0.0001332410972833,0.0046688291643378,-0.0150145984388031,0.0436504660120882,0.0417889100683405,-0.0013752694094322,4594647
470,-0.0237174127250909,0.0033118678256869,-0.0048255450092256,-0.0056718634441494,-0.008509311825037,0.0020218084100633,0.0475331805646419,-0.0536236732246712,-0.0259223319590091,-0.0107687208801507,54107666
471,-0.0051573435775935,0.0050014122389256,0.0021673534065485,0.0021321605890989,-0.0053979069925844,0.0049883546307682,0.0184164214879274,-0.0403607752064361,-0.0186113528907299,0.0152881601825356,186443103
472,-0.0280377250164747,-0.0138963153585791,0.0175077598541975,-0.0202762708067893,-0.0150652397423982,-0.0078936889767646,0.0317450128495693,-0.046920720536203,-0.0205634515732526,-0.0366775840520858,97759716
473,0.0113920709118247,0.006507933139801,0.0084027079865336,0.0090907588601112,-0.0026235666591674,0.0076335300691425,-0.007546049542725,-0.0285346699259082,-0.0120923705399036,0.0385222472250461,7843922
474,0.0174520518630743,0.0241806637495756,0.0059072882868349,0.0052751158364117,-0.0055072773247957,0.0064070932567119,-0.0130580030381679,-0.0514020584468794,-0.0153812002390623,0.0254689455032348,124845535
475,0.0113920709118247,0.006507933139801,0.0084027079865336,0.0090907588601112,-0.0026235666591674,0.0076335300691425,-0.007546049542725,-0.0285346699259082,-0.0120923705399036,0.0385222472250461,7445076
476,0.0629797950387001,-0.0460818372666835,-0.0191721152514219,0.0354887172579765,0.0022490262053906,0.0352346673607826,-0.0250537022948265,-0.0106715582936609,-0.0649802759289741,0.0516117103397846,3855634
477,0.0469466336071491,0.0103613445535302,0.0310725439339876,0.0079845925793051,0.0049718921072781,0.0131362602114677,0.0163295418024063,0.0005967809996361,0.0044512166641652,0.0384334176778793,17110600
478,0.0118785052654221,0.0075885093746983,0.0428813702484362,-0.01263771983158,-0.0192791248962032,0.0044243490549798,-0.0909087385899914,-0.0626672729953392,-0.0043246510892083,-0.0005795312115015,191388858
479,-0.0068604676052927,0.0452080778777599,-0.0234437994658947,-0.0078099886886775,-0.0178787019103765,0.003631486557424,-0.0091048199683427,0.0381365731402691,-0.0203218050301074,0.0222067181020975,85885097
480,0.012028956785798,-0.043837159872055,0.0001066592521965,0.0146164065226912,-0.0122359078377485,0.0075210956856608,-0.0513517074286937,-0.051968319986571,-0.0529110617935657,0.0448580645024776,101157823
