,security,conformity,tradition,benevolence,universalism,self-direction,stimulation,hedonism,achievement,power,song_id
0,-0.0003284132108092,0.0055308318696916,-0.0209741592407226,-0.0026341816410422,-0.0108739025890827,0.0068980129435658,0.0389333814382553,-0.0081040897870561,-0.0104307075962424,0.0107215922325849,4116102
1,-0.0054453508928418,0.0050888089463114,-0.010376950725913,-0.0051865121349692,-0.0111186373978853,0.0042168665677309,0.0702598914504051,-0.0038534334841464,0.0018700915388762,-0.0002339612692594,80257632
2,-0.0114835426211357,-0.0070858802646398,-0.0196491088718175,-0.0035204989835619,-0.0092757325619459,0.0086616668850183,0.0820770636200904,-0.0074123576799883,-0.0118610728532075,0.0016735484823584,2241308
3,0.0176386274397373,-0.0451507419347763,-0.0156407747417688,0.0077928276732563,-0.0075807725079357,0.0116753093898296,0.0061919912695884,0.0017867364684458,-0.0367165505886077,0.025094399228692,204336669
4,-0.0005929882735944,-0.0077769039055225,-0.02188583932978,0.009194837882874,0.0105907288092851,-0.0001477229321408,0.0072675903186418,-0.0586222497292073,-0.0183096675508064,-0.0002684949501611,34952275
5,-0.0162222366780042,-0.0098706455901265,-0.0205874480307102,-0.0103419385850429,-0.0140646807849407,-0.0038637262769043,0.0263988506048917,-0.0152984562602698,-0.0197371393442153,-0.0025082784704864,17390586
6,0.0092876758426427,0.0124976392835378,0.0068863877095282,-0.0090800011530518,-0.0115084294229745,-0.0022001843899488,0.0175840090960264,-0.0196334670922777,0.0127887483686208,-0.0025215076748281,9223300
7,0.0197963584214448,0.0317576639354229,0.0093110334128141,-0.0025876380968838,-0.0150746945291757,-0.0029217842966318,0.0232852566987276,-0.007914363552972,0.0328266434371471,0.0021157027222216,149782763
8,0.035762496292591,0.0305499415844678,0.0357996225357055,0.0033358936198055,0.0024782647378742,0.0078358631581068,0.002862416440621,0.010514483943682,-0.0158462356775999,0.062967412173748,99962781
9,0.0109994653612375,0.0025851875543594,0.0198561213910579,0.003545097541064,-0.0059394924901425,0.008322374895215,0.0018353294581174,0.0066253867243076,0.0126975523307919,0.0107788275927305,136930153
10,-0.0093608982861042,-0.0152972107753157,-0.0248792674392461,-0.0087253842502832,-0.0134391607716679,0.0005619215080514,0.0320444069802761,-0.0014404785678179,-0.0045974673703312,-0.001726985676214,85912872
11,-0.0346621482474251,-0.0176899412052329,-0.026343021336685,-0.0233721834535276,-0.012781699805518,-0.0245264652075945,0.044944982629872,0.0064669052626567,-0.0350914869116411,-0.0357119640119876,57005765
12,0.0197963584214448,0.0317576639354229,0.0093110334128141,-0.0025876380968838,-0.0150746945291757,-0.0029217842966318,0.0232852566987276,-0.007914363552972,0.0328266434371471,0.0021157027222216,99567690
13,0.0366770103573799,-0.0376327261328697,-0.0235321465879678,0.0213610995560884,-0.0022306549362838,0.0232862401753664,0.0272926799952983,-0.0243974667056094,-0.0230723768472671,0.0377126559615135,151085454
14,0.0071755065582692,0.0184232406318187,-0.0005329614505171,-0.0038870752323418,-0.0130966668948531,0.0006475412519648,0.0467725805938243,-0.0058838992031305,0.0173483695834875,0.0009408728219568,134245347
15,-0.0164294112473726,-0.0016436078585684,-0.0102558461949229,-0.0085552865639328,-0.0091056395322084,0.0036917212419211,0.0653545558452606,-0.0012679594092705,-0.0049343551509082,0.0024232727009803,16074172
16,0.001008937950246,0.0013979802606627,-0.0058171399869024,-0.0040563475340604,-0.0036117234267294,0.0031208535656332,0.0253444388508796,-0.019520256950977,0.0078907925635576,0.0018543871119618,61210999
17,0.0202098824083805,-0.0225991308689117,-0.0170550178736448,0.0093843769282102,-0.0048341713845729,0.0033205153886228,-0.0422135554254055,-0.0314351977658288,-0.0225265454500913,0.0005999939749017,102814436
18,5.597015842795372e-06,0.0038249744102358,-0.0140988482162356,-0.0059139928780496,-0.0140342731028795,-0.000544803973753,0.0084920721128582,0.0040273928246214,-0.0136566385626792,0.0105490339919924,205113268
19,0.0155851421877741,0.0103494636714458,-0.0150580406188964,-0.0089553138241171,-0.0146618196740746,-0.0084185842424631,-0.0198643244802951,-0.0216953075687834,-0.0370106063783168,0.0359304025769233,99526020
20,0.0197963584214448,0.0317576639354229,0.0093110334128141,-0.0025876380968838,-0.0150746945291757,-0.0029217842966318,0.0232852566987276,-0.007914363552972,0.0328266434371471,0.0021157027222216,152156851
21,0.0284261032938957,0.0016226889565587,0.0057839080691337,0.0022785067558288,-0.0066260541789233,0.0055129979737102,-0.0253261160105466,0.004814149888234,-0.0269667953252792,0.0481632351875305,17997657
22,0.0105804111808538,-0.0533224642276763,-0.002172379521653,-0.0030778772197663,-0.020545694977045,-0.0002851316239684,-0.0176582932472229,-0.026977849791698,-0.0276198592036962,0.0207896921783685,55713838
23,0.0197963584214448,0.0317576639354229,0.0093110334128141,-0.0025876380968838,-0.0150746945291757,-0.0029217842966318,0.0232852566987276,-0.007914363552972,0.0328266434371471,0.0021157027222216,97622225
24,0.0085393320769071,0.0240195635706186,0.0150025449693202,-0.014182386919856,-0.0090885432437062,-0.0088402973487973,-0.0059795868583023,-0.0062845692997683,-0.0211797133088111,0.0264196805655956,114553438
25,0.0032149497419595,-0.0515582263469696,-0.001225538784638,-0.0002820424269884,-0.0179664678871631,0.003539623459801,-0.032843992114067,-0.0303044821170996,-0.0493392124772071,0.0342103019356727,45138126
26,-0.0137024242430925,0.0029761686455458,-0.0068911360576748,-0.0039622136391699,-0.0119487717747688,0.0056183421984314,0.0312344934791326,-0.0047434014052419,-0.0246095191687345,0.0119837969541549,51897534
27,0.0010199591051787,-0.0328619666397571,-0.0144839324057102,-0.0022622467949986,-0.0150048825889825,0.0022522851359099,0.0212166905403137,-0.0083206550001757,-0.0229121670126914,0.0119404559955,74451241
28,0.0197963584214448,0.0317576639354229,0.0093110334128141,-0.0025876380968838,-0.0150746945291757,-0.0029217842966318,0.0232852566987276,-0.007914363552972,0.0328266434371471,0.0021157027222216,6629722
29,0.0188314374536275,-0.0440851747989654,-0.0002031750045716,0.0028453939594328,-0.0135244224220514,0.0013127154670655,-0.0362109430134296,-0.0163103197111031,-0.0404271259903907,0.027580264955759,111234596
30,0.0226728692650795,0.0058136587031185,0.0117762424051761,0.0040253261104226,0.0022131840232759,0.0086874784901738,0.0052409581840038,0.0028514816474261,0.0029603084549307,0.0309995394200086,126273707
31,0.0125029124319553,-0.0168918706476688,-0.0069312793202698,0.0051560131832957,-0.0069846920669078,0.0113778449594974,0.034845545887947,-0.0063339303550188,-0.0081851072609424,0.0135601023212075,99567684
32,-0.0090137226507067,-0.0214821435511112,-0.0180599950253963,-0.0123564023524522,-0.0158159080892801,-0.0062312996014952,0.0178474839776754,-0.0374609703523059,-0.0172282662242651,0.0039980895817279,102339234
33,-0.0194696392863988,0.0046437471173703,-0.0297871753573417,-0.0070333178155124,-0.0118090063333511,-0.0015400031115859,0.026823591440916,-0.0009955146541293,3.003916935995221e-05,0.0023365886881947,1632500
34,0.0210717245936393,-0.0148434331640601,0.0125609133392572,0.0093777934089303,0.0010944155510514,0.0065070381388068,-0.0168340094387531,-0.0014519020300671,-0.0328945070505142,0.0680751949548721,35094579
35,-0.0201841840682958,0.0053956313659145,0.0058938221902882,-0.015259078670884,-0.0107155666330068,-0.0141080431584774,-0.0079404695568527,0.0296400639484279,-0.0119378437123783,-0.0043688425969759,16843548
36,0.001304191770032,-0.0099514992907643,-0.0124949533492326,-0.012892834842205,-0.0193576589226722,-0.0072805429808795,0.0149754779413342,-0.0036291706275598,-0.027506373822689,0.011892014183104,106839634
37,0.0304534193128347,-0.0411909408867359,0.0085408724844455,0.0142601188272237,-0.0050128372386097,0.0137335564941167,-0.0075081679970026,0.0036768204679341,-0.0343943797051906,0.0342413559556007,134245346
38,-0.0086005646735429,0.0017552021890878,-0.0128379352390766,-0.0055113723501563,-0.0106241283938288,0.0051091955974698,0.0761317089200019,-0.0033458159819825,-0.001999482512474,-0.0005276659503579,5635960
39,-0.0012267800047993,-0.0135900508612394,-0.0213471986353397,-0.0020717610605061,-0.00873539224267,0.0053174747154116,0.0510500073432922,0.0028583389597377,-0.0169158168137073,0.00221081613563,142836663
40,-0.0143091343343257,-0.0105347046628594,-0.005180996377021,-0.0026049609296023,-0.0077232858166098,0.0107402419671416,0.0317460522055625,0.0071741029594753,-0.0221644863486289,0.0242666359990835,152156857
41,0.0012349134776741,-0.0064719701185822,-0.0290548875927925,-0.0076911551877856,-0.0121811311691999,-0.0016148936701938,0.0008739219047129,0.0017152769440876,-0.0238555241376161,0.0055288062430918,84371480
42,-0.0180662106722593,-0.0082456152886152,-0.0202209390699863,-0.0064859483391046,-0.0091406088322401,0.0077861901372671,0.0937471985816955,-0.0018229691084181,-0.0136081958189606,-0.0014087967574596,46337905
43,0.0304001066833734,-0.0599017068743705,0.0067260735668241,0.015561519190669,0.0021223735529929,0.0190650317817926,-0.0022680917754769,0.0264809043841683,-0.042312879115343,0.0398077256977558,828136
44,-0.0099525032564997,-0.0009209068957716,-0.0160140506923198,-0.0033554439432919,-0.0058048837818205,-0.0016543319215998,0.0065473155118525,-0.003176127815399,-0.0147162266075611,0.002167175989598,64471701
45,0.0169083392701342,0.0176297415721302,0.007247834983395,0.0202038317897383,0.0200160991372639,0.0142464042052055,-0.0055565126702296,-0.0382929576217389,-0.0007244821254915,0.0063926670857795,80988232
46,-0.0187537912279367,-0.0100092301145195,-0.0214507970958948,-0.0066782496869564,-0.0113592315465211,0.0043381815776228,0.0595891550183296,-0.0110198228632471,-0.0228463187813758,0.0025129860732704,76983686
47,0.0629359483718872,0.002585235517472,0.0187628231942653,0.0350812152028083,0.0108986012637615,0.0356084890663623,-0.0253065600991249,-0.0300200879440144,-0.033085647970438,0.0860721990466117,148763951
48,0.0004607681185007,0.0033485300373286,-0.0173669587820768,-0.0032848741393536,-0.0090439319610595,0.0032056069467216,0.0504182204604148,-0.0047378975879211,-0.0118855414912104,0.0002588394563645,139654441
49,0.018509529531002,0.0524831414222717,0.0604028292000293,0.0132333608344197,0.0131213320419192,-0.007675542961806,0.0700310468673706,0.0041032970041119,0.0401622354984283,-0.0224546063691377,55441816
50,0.0071755065582692,0.0184232406318187,-0.0005329614505171,-0.0038870752323418,-0.0130966668948531,0.0006475412519648,0.0467725805938243,-0.0058838992031305,0.0173483695834875,0.0009408728219568,2107983
51,0.0686107650399208,0.0732795298099517,-0.00082937348634,0.0301456376910209,0.0215397756546735,0.0327343419194221,-0.0159072391688823,-0.0249071532481639,0.0694254115223884,-0.001944969408214,57005772
52,0.0210700370371341,0.0020816365722566,-0.0117293084040284,0.0003127856180071,-0.0126412957906723,-0.0016748229973018,-0.0171311199665069,-0.0263027662110234,-0.0319130085408687,0.026589062064886,2565059
53,-0.0042339270003139,-0.0092072561383247,-0.0176480803638696,-0.0010955857578665,-0.0085424818098545,0.0094067733734846,0.0743308365345001,-0.0065067810846965,-0.0103230662643909,0.0059548043645918,98114160
54,0.0008650734671391,0.0117560271173715,-0.0054549542255699,-0.0045367935672402,-0.012107653543353,0.0024322033859789,0.0585162378847599,-0.0048686652687486,0.0096092242747545,0.0003534541465342,49562778
55,-0.0004819193854928,-0.0034531431738287,-0.0134453997015953,0.0019198458176106,-0.0049319812096655,0.0128370262682437,0.0541130490601062,-0.0044063651432271,-0.0078938631340861,0.0112185161560773,19226344
56,0.0056455419398844,-0.0115958470851182,-0.0168938860297203,0.0085586216300725,0.0049472940154373,0.0095503441989421,0.0339219495654106,-0.0077264037755197,-0.0132215339690446,0.014526518061757,152156863
57,-0.048653595149517,0.0561991110444068,0.0265713687986135,-0.0223396960645914,-0.0023016764316707,-0.0311647430062294,0.0475528612732887,0.0692769327140492,0.0175426099449396,-0.077376939356327,136884961
58,-0.0042791930027306,-0.0118382908403873,-0.0211857184767723,-0.0059638922102749,-0.0157812666147947,-0.0024304948747158,-0.0099516762420535,0.0070722020768319,-0.022861685603857,0.0376919358968734,1632495
59,0.0197963584214448,0.0317576639354229,0.0093110334128141,-0.0025876380968838,-0.0150746945291757,-0.0029217842966318,0.0232852566987276,-0.007914363552972,0.0328266434371471,0.0021157027222216,1027136
60,-0.0094341915100812,-0.0062921615317463,0.0077436473220586,-0.0220140293240547,-0.0078210700303316,-0.0236844085156917,0.0169243011623621,-0.0316400716328682,0.0314299836754798,-0.0145155768841505,17326775
61,0.0047674942761659,-0.0133897708728909,-0.001666686264798,0.0014205531915649,-0.0079357344657182,0.0089127561077475,0.0068812514655292,0.008148622368331,-0.0294216368347406,0.0279280580580234,2323034
62,0.0498783625662326,-0.0804273784160614,0.0179351195693016,0.0207252074033021,-0.0011625295737758,0.0167375653982162,-0.060911651700735,0.0150221936938703,-0.0537542328238487,0.0540448613464832,152997654
63,0.0042064040899276,-0.0408577732741832,-0.0070464285090565,0.0022337266709655,-0.0135942846536636,0.0081630945205688,-0.0039198654703795,-0.0203991790334351,-0.0399133302271366,0.0246554594486951,134245351
64,0.0162768214941024,-0.004054082557559,-0.0039483499713242,-0.0018115390557795,-0.0142520982772111,0.0031999831553548,0.0034986436367034,-0.029803948486441,-0.0176729243248701,0.0281397961080074,59403627
65,0.0046221516095101,0.0094669386744499,0.0095849903300404,-0.0006558042950928,-0.0106903295964002,0.0053862547501921,-0.0034849229268729,0.0041284046752518,0.0010529330465942,0.0260288845747709,113169861
66,-0.0012384018627926,0.0095336204394698,-0.0070956135168671,-0.0047533670440316,-0.0117779821157455,0.0030270917341113,0.0624307915568351,-0.0045302533973153,0.0070295133627951,0.0001576524227857,56800868
67,-0.0180662088096141,-0.0082456162199378,-0.0202209427952766,-0.0064859502017498,-0.0091406097635626,0.0077861896716058,0.0937471985816955,-0.001822966984525,-0.013608194887638,-0.0014088004827499,34373547
68,-0.0089060990139842,0.0121638746932148,-0.0108198188245296,-0.0098414812237024,-0.0107198916375637,-0.0040048127993941,0.0033985511399805,0.0068753944859188,-0.0130791496485471,0.0327282138168811,3671199
69,0.0006846967153251,-0.0106189157813787,-0.0104186367243528,0.0004939509090036,-0.0057793390005826,0.010346588678658,0.0603451207280159,0.0022795857567288,-0.0103932153433561,0.0076111508533358,210971961
70,0.0148058366030454,-0.0214964840561151,0.0159252416342496,-0.0028218845836818,-0.0060528041794896,0.0007287536282092,-0.0188358649611473,0.0299046550502811,-0.0156799759715795,0.011963564902544,163661563
71,-0.0193118434399366,-0.012046555057168,-0.0046628233976662,0.001194782089442,-0.0050703873857855,0.0049587665125727,0.0330276191234588,-0.0052167155429649,-0.0105703361332416,0.0010496749309822,57005722
72,0.0155852809548377,-0.0290184561163187,-0.0014607524499297,0.0095180971547961,-0.0038833797443658,0.0085745844990015,0.0102349417284131,0.0074015109064659,-0.0343701317906379,0.0530880019068717,93918535
73,-0.00284064700827,-0.0017503919079899,-0.0087196864187717,-0.003420373192057,-0.0134870260953903,-0.0027423524297773,-0.0281366929411888,-0.0329727083184329,-0.0332827679812908,0.0241023115813732,49652179
74,0.0044595971703529,-0.0310758501291275,-0.0123300682753324,-0.0061833770014345,-0.0179966986179351,-0.0066904444247484,-0.015583461150527,-0.0232121711554713,-0.0349957346916198,0.0107248146086931,188693345
75,-0.001209957525134,-0.010337496176362,-0.0088334456086158,-0.0067837387323379,-0.0099269896745681,0.0010722480947151,0.0182579718530178,0.0282544320546655,0.0048950016498565,0.0057295286096632,11100005
76,-0.0082087004557251,-0.0045021087862551,-0.0022101821377873,-0.0007978078210726,-0.0075174667872488,0.0088017173111438,0.0321848131716251,0.0023502223480682,-0.0210317019373178,0.0279508270323276,17086876
77,-0.0105520552024245,-0.0128237921744585,0.009858950972557,0.0012760300887748,-0.0063059637323021,0.0136942919343709,-0.0302551053464412,0.0161711716475524,-0.0307207722216844,0.0499420650303363,102112552
78,-0.016744464635849,-0.0071172257885336,-0.0185898505151271,-0.0063594724051654,-0.0093836626037955,0.0079872235655784,0.0878966823220253,-0.0021164333477532,-0.0150575414299964,0.0010182266123592,68242601
79,-0.0043505020439624,-0.0115569299086928,0.0039993850514292,-0.0056532369926571,-0.0076454943045973,0.0042499313130974,0.0594135411083698,-0.007060529572715,-0.0091660041362047,-0.0040891864337027,86451188
80,0.0219742953777313,-0.0123020801693201,-0.0254903696477413,0.0159382186830043,-0.0082435812801122,0.018359325826168,0.0238733328878879,-0.0445076207648297,-0.0151094822213053,0.0220751017332077,17612683
81,-0.0009704345477654,-0.0171250506173865,-0.0046214452226698,0.0061546867446065,0.0136905354619856,0.0082647119656841,0.0117919404826501,0.0002030727676998,0.0374079226096444,-0.0213336839700776,59543419
82,0.0280717592686414,-0.0368109531700611,0.0030960531439632,0.0048301853239536,-0.0102993939071893,0.0033632186241447,-0.0539668165147304,0.0047080469928597,-0.0410550571978092,0.0304990019649267,124205317
83,-0.027611419558525,0.0563676431775093,-0.0080660823732614,-0.0203085262328386,-0.0113300280645489,-0.0110006825998425,-0.0134389009326696,-0.039177136310356,-0.0233914777636528,-0.0316576138138771,195065492
84,0.0071755065582692,0.0184232406318187,-0.0005329614505171,-0.0038870752323418,-0.0130966668948531,0.0006475412519648,0.0467725805938243,-0.0058838992031305,0.0173483695834875,0.0009408728219568,57544795
85,-0.0035168786998838,-0.0070767784491181,-0.0101861953735351,-0.0041009513661265,-0.0090146455913782,0.0053218048997223,0.060615736991167,-0.0066669057084538,-0.0152109647169709,0.0085019208490848,85345213
86,0.0110713616013526,0.0169029850512743,0.0243498086929321,0.000586881651543,-0.0015649478882551,0.0104922410100698,-0.0034758150577545,0.0310202271165093,-0.0001047500409185,0.0048951231874525,14469100
87,0.0141052864491939,-0.0093203578144311,-0.0010287107434123,0.0082073649391531,-0.0017951659392565,0.0151385348290205,0.024636760354042,0.0059503489681513,-0.0080281514674425,0.0209553800523281,5315847
88,-0.0110773956403136,0.0029046954587101,-0.0021519251167774,-0.0001837714808061,0.0004227617755532,0.0024901905562728,0.0607981793582439,-0.0248325228520797,0.0080980043858289,0.0119457365944981,134245359
89,-0.0180662088096141,-0.0082456162199378,-0.0202209372073411,-0.0064859502017498,-0.0091406088322401,0.0077861906029284,0.0937471985816955,-0.0018229689481916,-0.0136081939563155,-0.0014087948948144,99480601
90,0.0173765625804662,0.0278835240751504,-0.0011480546090751,-0.0038512228056788,-0.0081293238326907,0.0076197157613933,-0.0248908884823322,-0.0030288169044119,-0.0374351702630519,0.0650167018175125,46178447
91,0.0588478855788707,0.064975157380104,0.0011987140169367,0.0235989838838577,0.0142168831080198,0.0256031118333339,-0.008068717084825,-0.0215085971817055,0.0621056668460369,-0.0011328314431011,60637252
92,-0.0496787205338478,0.0467336773872375,0.019633449614048,-0.0528096407651901,-0.0084212217479944,-0.0465501621365547,0.0431092418730258,-0.0245047701899133,0.086942046880722,-0.0578181520104408,67809135
93,0.0686107650399208,0.0732795298099517,-0.00082937348634,0.0301456376910209,0.0215397756546735,0.0327343419194221,-0.0159072391688823,-0.0249071532481639,0.0694254115223884,-0.001944969408214,103553857
94,0.0197963584214448,0.0317576639354229,0.0093110334128141,-0.0025876380968838,-0.0150746945291757,-0.0029217842966318,0.0232852566987276,-0.007914363552972,0.0328266434371471,0.0021157027222216,200750991
95,0.0197963584214448,0.0317576639354229,0.0093110334128141,-0.0025876380968838,-0.0150746945291757,-0.0029217842966318,0.0232852566987276,-0.007914363552972,0.0328266434371471,0.0021157027222216,181695848
96,0.0008650734671391,0.0117560271173715,-0.0054549546912312,-0.0045367935672402,-0.0121076544746756,0.0024322033859789,0.0585162378847599,-0.0048686652687486,0.0096092233434319,0.0003534541465342,7308736
97,0.0068643074482679,0.0023040706291794,-0.0161584727466106,0.0028242161497473,-0.003583516459912,0.0145587287843227,0.0616787932813167,-0.0017741694854174,7.51204788684845e-05,0.004882191773504,76169655
98,0.0004567340947687,-0.0295872539281845,0.0005338764749467,0.0006006814073771,-0.0144382584840059,0.004009660333395,-0.0494878366589546,-0.0159110418376795,-0.041214145720005,0.0374549143016338,17614637
99,0.0115065295249223,-0.015946177765727,-0.0022444131318479,2.37184576690197e-05,-0.0051604909822344,0.0062887798994779,0.0068261185660958,0.0176998858589276,-0.0249913670122623,0.0559218488633632,129997203
100,0.012342756614089,-0.0502097681164741,-0.0272823926061391,-0.0069830417633056,-0.0263810604810714,-0.0124419219791889,-0.0499620586633682,-0.0691332733976505,-0.0563523806631565,0.0155749972909688,86981001
101,0.010204236023128,0.0041222414001822,0.031063525006175,0.0029744440689682,-0.0045838626101613,0.0089152213186025,0.0012704560067504,0.0102890867314319,0.0120863569900393,0.0161262657493352,178303212
102,0.0584367662668228,0.0038722064346075,0.0488058179616928,0.0260819662362337,0.020153883844614,0.025708582252264,-0.0050628744065761,0.0366886075485089,0.0049401856958866,0.0381071045994758,58693284
103,0.0278360396623611,-0.0169268622994422,0.0101849921047687,0.002925666514784,-0.0147060099989175,0.0030867378227412,-0.0391342490911483,-0.035418528476916,-0.040812574326992,0.048288770020008,203148074
104,-0.0049649132415652,-0.0091769164428114,-0.0135551691055297,-0.0003079855814576,-0.0070733651518821,0.008092051371932,0.0244104545563459,0.0309355064499278,-0.0060669127851724,0.0097812311723828,17516504
105,0.0049757319502532,-0.0650462880730629,-0.0260259136557579,-0.0136378118768334,-0.0314461812376976,-0.0150127429515123,-0.0147033566609025,-0.0751909153088673,-0.0467711016535759,-0.0016708227340131,51846914
106,-0.0058439285494387,0.0033400773536413,-0.0120993219316005,-0.0031866256613284,-0.0082163289189338,0.0077116210013628,0.067568227648735,-0.0031973335564951,-0.0015361006371676,0.0022022784687578,212958532
107,-0.0126661034300923,0.0164165571331977,-0.0130604039877653,-0.0162734501063823,-0.0089959502220153,-0.0121907107532024,-0.0034316999372094,-0.0145267903962358,0.0073526883497834,-0.007968452759087,2135522
108,0.0063935611397027,-0.0055881952866911,-0.0097950929775834,-0.0108197219669818,-0.0134866507723927,-0.0027067174669355,0.0159056950360536,-0.0012427313277052,-0.0134400390088558,0.0140574621036648,90910059
109,-0.0095441155135631,0.0066497116349637,-0.0120188314467668,-0.0055101672187447,-0.0084552718326449,0.0055218213237822,0.0771596804261207,-0.0074641973952234,-0.0099923331290483,-0.0006740959361195,1629358
110,0.0071755065582692,0.0184232406318187,-0.0005329614505171,-0.0038870752323418,-0.0130966668948531,0.0006475412519648,0.0467725805938243,-0.0058838992031305,0.0173483695834875,0.0009408728219568,134245357
111,-0.0054453508928418,0.0050888089463114,-0.010376950725913,-0.0051865121349692,-0.0111186373978853,0.0042168665677309,0.0702598914504051,-0.0038534334841464,0.0018700915388762,-0.0002339612692594,2037677
112,0.0119755836203694,0.0227065868675708,0.0024006911553442,-0.0070940563455224,-0.0015741895185783,0.0045598465949296,0.025997819378972,0.0177360697143114,-0.0297757275402545,0.0456655547022819,71041493
113,0.0004127824213355,-0.0009161084890365,0.0115565303713083,-0.0074172089807689,-0.0059278225526213,0.0026602135039865,0.0527259558439254,-0.0108050321746001,0.0001589052844792,-0.0109962057322263,99470365
114,-0.0113845821470022,-0.0011862162500619,-0.0150094088166952,-0.0057980138808488,-0.0101878009736537,0.0058965478092432,0.081312745809555,-0.0028979186871147,-0.0054138144478201,-0.0007868208922445,1261561
115,-0.0343241393566131,0.0363300368189811,0.0076212999410927,-0.0419381707906723,-0.0119776371866464,-0.0363953933119773,0.0393272973597049,-0.015590444787581,0.0635131299495697,-0.0450382493436336,41571963
116,-0.0066820052452385,-0.0181416925042867,0.0022525542881339,-0.000624859938398,-0.0100313881412148,0.0093010887503623,-0.0067534153349697,0.0009030531559893,-0.0280916839838027,0.0346873849630355,51113095
117,-0.0180662088096141,-0.0082456162199378,-0.0202209427952766,-0.0064859502017498,-0.0091406097635626,0.0077861896716058,0.0937471985816955,-0.001822966984525,-0.013608194887638,-0.0014088004827499,76169642
118,0.0080554243177175,-0.0059361150488257,-0.0122008901089429,-0.0112397177144885,-0.0153842661529779,-0.0072549856267869,-0.0335366502404212,0.0201991393583391,-0.0322595462203025,0.0100734727457165,109965166
119,-0.0180662088096141,-0.0082456162199378,-0.0202209427952766,-0.0064859502017498,-0.0091406097635626,0.0077861896716058,0.0937471985816955,-0.001822966984525,-0.013608194887638,-0.0014088004827499,84279791
120,-0.014941181987524,0.0392456725239753,0.0144722359254956,-0.0276986360549926,-0.0117479618638753,-0.0247359722852706,0.0331972427666187,-0.0162095672791547,0.0598843358457088,-0.0278512258082628,194171766
121,0.0106398575007915,-0.0244718194007873,-0.0045990804210305,0.0063033523038029,-0.0140075245872139,0.0045263906940817,-0.0138416700065135,-0.010276490667819,-0.0215787068009376,0.0266698319464921,18271679
122,0.0072386497631669,0.0029791097622364,-0.0051998943090438,-0.0021652544382959,-0.0060151647776365,0.0048937210813164,0.0244945455342531,0.0068016945627218,-0.0126581219956278,0.0375877283513546,58470789
123,-0.0333430729806423,0.0227211229503154,0.0035318846348673,-0.0309810005128383,-0.0088724568486213,-0.0216564554721117,0.0590012073516845,-0.013578449201478,0.0416620150208473,-0.0296724736690521,4194332
124,0.0184158198535442,-0.0101942922919988,0.0002623260952532,0.0024049957282841,-0.0034985640086233,0.0073327696882188,-0.0038777305744588,0.0166730663388638,-0.0190386194735765,0.0574377514421939,18167326
125,-0.0075598554685711,0.0043280781246721,-0.0108605287969112,-0.013682035729289,-0.0089944638311862,-0.0015752129256725,0.0401463583111763,-0.0074550639566683,7.692328654229641e-05,-0.0079981051385402,84351638
126,-0.0128107573837041,-0.0234585907310247,-0.0101210596039891,0.0005914608482271,-0.0111364480108022,0.0059720743447542,0.0358379073441028,-0.000659044007035,-0.0244127213954925,0.0073654088191688,77891076
127,-0.0232166163623332,0.0297958143055439,-0.0790619999170303,-0.0073756203055381,-0.0213318858295679,0.0066374996677041,-0.0309714339673519,0.0374372070778151,-0.0416050516068935,0.0347670577466487,179755765
128,0.0209238082170486,0.0074969320558011,-0.002353681018576,0.0162836741656065,-0.0025129823479801,0.02124809846282,0.0277040489017963,-0.002846088135485,-0.025906478986144,0.0259402468800544,82816346
129,-0.0180662088096141,-0.0082456162199378,-0.0202209427952766,-0.0064859502017498,-0.0091406097635626,0.0077861896716058,0.0937471985816955,-0.001822966984525,-0.013608194887638,-0.0014088004827499,30401956
130,-0.0106230974197387,0.0005735461600124,-0.0247252769768238,-0.0176363587379455,-0.0159786641597747,-0.0180033538490533,-0.0182011239230632,-0.0222381119623469,-0.0090650636702775,-0.0132267829030752,109598935
131,-0.0086005646735429,0.0017552021890878,-0.0128379352390766,-0.0055113723501563,-0.0106241283938288,0.0051091955974698,0.0761317089200019,-0.0033458159819825,-0.001999482512474,-0.0005276659503579,111304309
132,0.0174613664980377,-0.0071196840959504,-0.0396903210331883,0.0164148027499934,-0.003428665884693,0.0034918714195393,0.0222067262989704,0.0090884844803798,-0.0146220246880297,0.0203687832547141,134245353
133,-0.021268393844366,0.0013415126595646,-0.0255886260420084,-0.0129655580967664,-0.0092571377754211,-0.0108125377446413,-0.0043397354893386,0.0005828894644053,0.0051832147873938,-0.013164771720767,32800026
134,-0.0009451289661228,-0.0161361843347549,-0.0110538499429821,0.0020289868116378,-0.0073836827650666,0.0069939838722348,-0.0003912205575034,-0.0012881603083728,-0.0167764779180288,0.0319457165896892,57241602
135,0.0150172635912895,-0.0092756040394306,-0.0310788787901401,-0.0105762556195259,-0.0233085080981254,-0.0032575803343206,-0.016549089923501,-0.0094135159857084,-0.0408247038722038,0.030745081603527,7946252
136,0.0379981808364391,0.0194102264940738,0.0213283896446228,-0.0106118386611342,-0.0055903657339513,-0.0033401479013264,-0.0507189221680164,0.002116704241514,0.0032226364128291,0.021700756624341,108107289
137,-0.0060860328376293,-0.0138776637613773,-0.0191766750067472,-0.0076743979007005,-0.0165313705801963,0.0024734025355428,0.0427892506122589,-0.0106546164577202,-0.0153465801849961,0.0038312708493322,64185077
138,-0.0146241579204797,-0.0046089547686278,-0.0175362061709165,-0.006131556816399,-0.0096800718456506,0.0068127401173114,0.0873415693640708,-0.0023767284372794,-0.0093868393450975,-0.0010883840732276,83511139
139,0.0337850004434585,0.0174584854394197,0.0214746929705142,0.0030727514531463,-0.0062532741576433,0.0083949463441967,0.0010030964622274,0.0072310721202728,-0.0055721281096339,0.02620530128479,50343962
140,0.0001423566542383,0.0184263192493139,0.0112561258225487,0.0074467659640301,0.0135534885755425,-0.0041696482507538,0.0165905444289109,0.0314982788954298,0.0668931077345933,-0.0260181487434002,199050935
141,-0.0045252097770571,0.0041436310857534,-0.0059741605073213,-0.0040302434936165,-0.0093716252595186,0.006230479106307,0.0557890571653842,-0.0030703632831102,-0.0061740460805594,0.0121180973947048,50820032
142,0.0236175712198019,-0.0006220485083758,-0.0209495984017848,1.9290251657366756e-05,-0.0127817802131176,-0.0035972851328551,-0.0159345380961895,-0.0001821352346307,-0.0140325706452131,0.0120774563401937,82020498
143,-0.0053782234899699,0.0019700233824551,-0.0103042740374803,-0.0013901443453505,-0.0063755535520613,0.0101549522951245,0.0548271089792251,-0.0012036315443982,-0.0049497121945023,0.0081993946805596,9474028
144,0.0197963584214448,0.0317576639354229,0.0093110334128141,-0.0025876380968838,-0.0150746945291757,-0.0029217842966318,0.0232852566987276,-0.007914363552972,0.0328266434371471,0.0021157027222216,55179313
145,-0.0120966350659728,-0.0188399739563465,-0.0287493057548999,-0.0087552275508642,-0.0164862554520368,-0.002866361523047,0.0492627024650573,-0.0157873752314378,-0.0252670105546712,-0.0017975933151319,60392809
146,0.0258745197206735,-0.0542574115097522,0.0055372044444084,0.0005632173269987,-0.0262692645192146,-0.005999366287142,-0.0634975731372833,-0.0560803927573533,-0.0393005907535553,0.0278129540383815,92235366
147,0.0036137604620307,0.0266587603837251,-0.0324848294258117,0.0011670724488794,-0.0041993511840701,0.012453056871891,0.0116067798808217,-0.0011394693696359,-0.0026749968528747,0.0098222652450203,93296295
148,0.0112988669425249,-0.0086958445608615,-0.0076488517224788,0.0027675246819853,-0.0103284977376461,0.0078437142074108,-0.0054173450917005,-0.0192500396673447,-0.0298295859247446,0.0306956432759761,3352568
149,-0.0118854399770498,0.0014771383721381,-0.0019511168356984,-0.0071092126891016,-0.0091247931122779,0.0034428655635565,0.0364496186375618,0.0012696968927599,-0.0031940569169819,0.0115947956219315,79219366
150,0.0035695461556315,0.0146134002134203,-0.003345523495227,-0.0042583420872688,-0.0125315161421895,0.0016673487843945,0.0534832403063774,-0.0053037634831097,0.0129259992390871,0.0006052064709365,193273536
151,0.0178194306790828,0.044996365904808,0.0197388008236885,-0.0004270849749445,-0.0098666427657008,0.0014209002256393,-0.0456363148987293,-0.0207373028387566,-0.0594539642333984,0.0731851384043693,5434805
152,0.0043863542377948,-0.0047078961506485,-0.0022221703547984,0.0061059854924678,-0.0056123593822121,0.0082890726625919,0.0145035535097122,-0.0040767383926943,-0.0027121321763843,0.0221154317259788,115765914
153,-0.0042615830898284,-0.0209181047976017,-0.0240503698587417,0.0043984604999423,-0.0076603041961789,0.0066695720888674,0.0157773718237876,-0.0102303657604405,-0.0328578054904937,0.0171528905630111,2860796
154,0.0040710928544493,-0.0128740964198258,0.0082496117797321,0.0242530584221089,0.0150604354979801,0.0190650081212137,0.0151299825452896,0.0718258046581467,0.0088329916970438,-0.0021727664520927,125480482
155,0.0133640961721539,-0.0443156994879245,-0.0171361658722162,-0.003522406797856,-0.018855944275856,-0.0035090846940875,-0.024379264563322,-0.0278305668979864,-0.0488376356661319,0.0188698098063468,169366451
156,0.0161188058555126,-0.0441911369562149,-0.0196181703358888,0.0006036269478499,-0.0169377941638231,-0.000576457940042,-0.027315029874444,-0.0731113666749669,-0.0470405705273151,0.0228809788823127,14884938
157,0.0570225343108177,0.0168151967227458,0.0083125717937946,0.0244137588888406,0.0132922567427158,0.0210450496524572,-0.0147722987458109,-0.0103910443455107,-0.0025566052645444,0.0384172387421131,55614776
158,0.0085644647479057,-0.0215093456208705,-0.0159214548766613,0.0039961780421435,-0.0095167169347405,0.0104009369388222,0.04593226313591,-0.0169882164720999,-0.0170929171144962,0.0157628916203975,15738922
159,-0.0031273746863007,-0.0040937727317214,-0.0066881026141345,-0.0021841700654476,-0.0090471524745225,0.0110757751390337,0.0089523224160075,0.0026019699430829,-0.0171960033476352,0.0189366955310106,83380751
160,-0.0104103088378906,-0.0053112599998712,-0.0060738427564501,-0.0028095904272049,-0.0095617417246103,0.0081551754847168,0.0218512956053018,0.0044471449877988,-0.0175529289990663,0.0223716013133525,1284914
161,-0.0180662088096141,-0.0082456162199378,-0.0202209427952766,-0.0064859502017498,-0.0091406097635626,0.0077861896716058,0.0937471985816955,-0.001822966984525,-0.013608194887638,-0.0014088004827499,3998623
162,0.0400071591138839,0.015192954801023,0.0081650894135236,0.0120188929140567,0.0016150255687534,0.0181528236716985,-0.014294970780611,-0.036484864918382,-0.0519984550774097,0.0685891062021255,3777800
163,-0.0134457256644964,0.0194158814847469,-0.0026709137018769,-0.0048320870846509,-0.0081263873726129,0.0072571262717247,0.0692892074584961,-0.012692947798371,0.0039698774926364,0.0063368934206664,195760279
164,-0.0190149452537298,0.0114969667047262,-0.0094908326864242,-0.0176566187292337,-0.006897616200149,-0.0075732390396296,0.0473214946687221,0.0224371880885266,0.012865737080574,-0.0065665496513247,164950564
165,0.0303467642515897,-0.0116113256663084,-0.011215953156352,0.0123803243041038,-0.0070471707731485,0.0134582314640283,0.0257898978888988,-0.0182163029608343,-0.002110244706273,0.0243637971580028,7908339
166,0.025380939245224,-0.0406203679740428,-0.0168112851679325,0.004498119931668,-0.0147099513560533,0.0004956885240972,-0.0328841730952262,-0.028796012631319,-0.0468708053231239,0.0218356847763061,90166650
167,-0.0001423627836629,0.0031312596984207,-0.0021820529364049,-0.010754819959402,-0.0105104409158229,-0.0053196921944618,0.0313881933689117,-0.0238653468059968,0.0027646860107779,0.0016244791913777,65079014
168,-0.0049241590313613,-0.0077790664508938,-0.0368811301887035,0.0002271378180012,-0.016402930021286,0.002723020967096,-0.0251643899828195,0.0156316637459158,-0.0344403870403766,0.0225534103810787,66117517
169,-0.0042006149888038,0.0308061446994543,-0.0107009913772344,-0.0067295110784471,-0.0001130817690864,-0.0003018641145899,-0.0047913580201566,0.0551217308274516,0.0004021874628961,0.0124660972505807,99386143
170,0.0197963584214448,0.0317576639354229,0.0093110334128141,-0.0025876380968838,-0.0150746945291757,-0.0029217842966318,0.0232852566987276,-0.007914363552972,0.0328266434371471,0.0021157027222216,96457658
171,-0.0012902352027595,-0.0127511415630579,0.0006463422905653,-0.0005194082623347,-0.0088170003145933,0.0060415146872401,0.0080236177891492,0.0035343354403489,-0.0210717562586069,0.0206873230636119,19550437
172,0.0008650734671391,0.0117560271173715,-0.0054549546912312,-0.0045367935672402,-0.0121076544746756,0.0024322033859789,0.0585162378847599,-0.0048686652687486,0.0096092233434319,0.0003534541465342,87029402
173,0.0029491414315998,-0.0333391427993774,-0.0036379152443259,0.003392320824787,-0.0104490723460912,0.0102435518056154,0.0059009483084082,0.0004617808898324,-0.0312727987766265,0.0262362100183963,102675336
174,-0.0180662088096141,-0.0082456162199378,-0.0202209427952766,-0.0064859502017498,-0.0091406097635626,0.0077861896716058,0.0937471985816955,-0.001822966984525,-0.013608194887638,-0.0014088004827499,49331390
175,0.0234825350344181,-0.0312505289912223,-0.0236042607575655,-0.0176522377878427,-0.0326813794672489,-0.0193290170282125,-0.0541936047375202,-0.0357070940612157,-0.0576554387807846,0.0064615560695528,189822176
176,0.0163866579532623,-0.0177980698645114,-0.0059729656204581,0.0032935522031039,-0.0086087333038449,0.0059279752895236,-0.0056539895012974,-0.0112203787598442,-0.0350780002772808,0.04659029468894,52080229
177,-0.0090341214090585,-0.0041914987377822,-0.0155048072338104,-0.0042813438922166,-0.0091436821967363,0.0060245255008339,0.0653333887457847,-0.0082600076929702,-0.0167068056762218,0.0024490822106599,110111095
178,-0.0201520510017871,0.0219724550843238,-0.0507342889904975,-0.0076702474616467,-0.0143184196203947,0.0098584331572055,0.0319940149784088,0.0136456662697601,-0.0274160951375961,0.0178518127650022,83551433
179,-0.0496787205338478,0.0467336773872375,0.0196334440261125,-0.0528096407651901,-0.0084212217479944,-0.0465501621365547,0.0431092381477355,-0.0245047710679964,0.0869420394301414,-0.0578181520104408,195227039
180,-0.0349807031452655,0.0046337004750967,-0.0348796211183071,-0.0088988244533538,-0.0154395941644907,-0.0029966437723487,0.0450679957866668,-0.0083091763716704,0.0045850360766053,-0.0220085568726062,4687741
181,0.0224222764372825,0.0154824582859873,-0.0153795219957828,-0.0039360783994197,-0.0076767755672335,0.0029569845646619,-0.0162639953196048,-0.0074461740907395,-0.0262411944568157,0.0329342819750309,74781242
182,0.0068417023867368,0.0160600710660219,-0.0104362266138196,0.0016200307291001,-0.0041913483291864,0.0106342267245054,0.0577239319682121,-0.0076580830800873,0.0122855007648468,-0.0008111270144581,52422878
183,-0.0174882002174854,-0.0085977790877223,-0.0179070960730314,-0.0058888718485832,-0.0089225554838776,0.0082406606525182,0.084208570420742,-0.0004388002695355,-0.0149245448410511,0.0025412738323211,63078310
184,-0.0026791878044605,-0.0102882850915193,-0.0033682938665151,-0.007919305935502,-0.0156738944351673,-0.0003678214270621,0.0141629269346594,-0.0072137434881085,-0.0247981250286102,0.0181859284639358,7798401
185,0.0165544562041759,0.0143426610156893,0.0118388189002871,0.0113192312419414,0.0019118003547191,0.013467188924551,0.0357708744704723,-0.0208261410881918,-0.0159802585840225,0.0388331115245819,97205149
186,0.0074886726215481,-0.0112631870433688,-0.0161623228341341,-0.0040751043707132,-0.0130523182451725,0.0016269255429506,0.0296995714306831,-0.0128116930186252,-0.0147758424282073,0.0174504555761814,2045233
187,-0.0024079484865069,-0.0152180697768926,-0.0209976881742477,0.0050222869031131,-0.0026768357492983,0.0154503546655178,0.0639390498399734,-0.0232623161674993,-0.0245206281542778,0.0086361104622483,213759518
188,0.0114026051014661,-0.0053486698307096,0.0032042332459241,-0.0011502159759402,-0.0031237460207194,0.0012684287503361,-0.0169280413538217,0.0092560772051668,-0.0102829178795218,0.043129414319992,44976789
189,-0.0049312030896544,0.0004672305658459,-0.0321658551692962,-0.0038743079639971,-0.014295944944024,-0.0099203074350953,-0.0355784744024276,-0.0489440627761969,-0.0266368463635444,0.0101371426135301,189470222
190,0.024960421025753,-0.0356020852923393,-0.0197060070931911,0.0008791694417595,-0.0132287461310625,0.0037374631501734,-0.0296601578593254,-0.0151852480025145,-0.0368707440793514,0.0387475229799747,45744269
191,-0.0034764113370329,0.0023773498833179,-0.024383308365941,-0.0045095239765942,-0.0127946222200989,0.0063885217532515,0.0071920603513717,0.0012966304312787,-0.0203891582787036,0.0074241189286112,52277738
192,0.0011557410471141,-0.0181996878236532,0.0039460551925003,-0.0054397205822169,-0.0055129434913396,-0.0055150273256003,0.0065542319789528,-0.0055166716760389,-0.0097547769546508,0.0308447051793336,53614250
193,-0.0388314723968505,0.0261022206395864,0.0170596949756145,-0.0303646381944417,-0.0116219688206911,-0.0203832983970642,0.0385233163833618,-0.0133268206984788,0.025812555104494,-0.028303850442171,129694210
194,-0.020140204578638,-0.0053906934335827,-0.0261546522378921,-0.0204519033432006,-0.0189894586801528,-0.0168232955038547,-0.0048425397835671,-0.0322114119590125,-0.0152056850492954,-0.0201944168657064,195211760
195,-0.0180662088096141,-0.0082456162199378,-0.0202209372073411,-0.0064859502017498,-0.0091406088322401,0.0077861906029284,0.0937471985816955,-0.0018229689481916,-0.0136081939563155,-0.0014087948948144,30401979
196,-0.0114569459110498,0.0087794754654169,-0.0118233757093548,-0.0084183365106582,-0.0062793521210551,0.0029535610228776,0.0729289203882217,-0.0072711826909861,0.0095856953412294,-0.0083373561501502,83916654
197,-0.006618573796004,0.0025332567747682,-0.0142609300091862,-0.0014751156559213,-0.0063700033351778,0.0074413418769836,0.0671333968639373,-0.0071975419362928,0.0022862846963107,0.0002589663490653,55915048
198,0.0324976369738578,0.0314316265285015,0.0264510624110698,0.0190002508461475,0.0167179442942142,0.0182785913348197,-0.0095925265923142,-0.0375065458028521,-0.0304006300866603,0.0473343282938003,56232025
199,-0.0026295138522982,0.0151901897042989,-0.0069122952409088,-0.0078919697552919,0.0005895303329452,-0.0061575532890856,0.0062955063767731,0.0107617179956044,0.0217561442404985,-0.0059670433402061,31260463
200,0.0020256340503692,-0.0063732005655765,0.0103720827028155,0.0031398043502122,-0.0054002893157303,0.0133178699761629,0.0134291695430874,-0.009380671382566,-0.0121297910809516,0.0332655236124992,58026824
201,-0.013682953082025,-0.0109162256121635,-0.0026743309572339,-0.0019581285305321,-0.0074870651587843,0.0112325828522443,0.0214125234633684,0.0086736138052474,-0.0235905312001705,0.0285458769649267,1457158
202,0.0024663680233061,-0.0049293301999568,0.0007497444166801,-0.0053387656807899,-0.0093628987669944,0.0060881050303578,0.0085905818268656,0.016652570135711,-0.0168658085167408,0.0419928058981895,127973630
203,-0.0086005646735429,0.0017552021890878,-0.0128379352390766,-0.0055113723501563,-0.0106241283938288,0.0051091955974698,0.0761317089200019,-0.0033458159819825,-0.001999482512474,-0.0005276659503579,69375516
204,-0.0108743291348218,-0.0028132311999797,-0.0170551240444183,-0.0050955470651388,-0.0098708039149641,0.0060040676034986,0.0695738568902015,0.0001238817801804,-0.0142111973837018,0.0098082516342401,98109744
205,-0.0007856080774217,-0.0153078362345695,-0.0298100411891937,-0.0097804516553878,-0.0167837478220462,-0.0028325745370239,0.0393746197223663,-0.0226613646605211,-0.0186103601008653,0.0048366216942667,215870218
206,-0.0105131501331925,-0.0044379108585417,-0.006256706546992,-0.0033788473811,-0.0089869368821382,0.0083278287202119,0.0430181659758091,0.0033628942105161,-0.0131210722029209,0.0161780975759029,48578381
207,-0.0007618301315233,0.0094736972823739,-0.0150635354220867,0.0051051466725766,0.0073673743754625,0.0021407043095678,0.0138231636956334,0.0029947821579612,0.021493537351489,-0.0127552226185798,112629130
208,0.0019947362071253,-0.0055541202301108,-0.0224609356948954,-0.0151004785369237,-0.0088994161989481,-0.0093004796691891,0.0174947250277206,0.0164208083793951,0.0108739148519692,-0.0026791570431377,46171824
209,-0.0671452656388282,0.0387333743274211,-0.0168733689934015,-0.0596848838031291,-0.0241252537816762,-0.0405019707977771,0.0382443480193614,0.0238599581932658,0.044499434530735,-0.0822254195809364,199306992
210,0.0587808266282081,0.0694116130471229,-0.0005140807479619,0.0287244394421577,0.0199454091489315,0.0301477536559104,0.0056196805089712,-0.0296612367563813,0.0617365576326847,-0.0004046643152832,55422058
211,0.0043956013396382,-0.0156357754021883,-0.0354690887033939,-0.011425744742155,-0.0275755934417247,-0.02265440300107,-0.0354279167950153,-0.0642607331859695,-0.0468210130929946,-0.0059746452607214,138830239
212,-0.0180662088096141,-0.0082456162199378,-0.0202209372073411,-0.0064859502017498,-0.0091406088322401,0.0077861906029284,0.0937471985816955,-0.0018229689481916,-0.0136081939563155,-0.0014087948948144,98091595
213,0.0089752236381173,-0.0144920004531741,-0.0376166142523288,-0.0159668959677219,-0.0245602242648601,-0.0156204216182231,-0.0348930656909942,-0.0780723622240755,-0.0429469868540763,-0.0018142785411328,101157977
214,0.0190306678414344,-0.0467211529612541,0.0072120786644518,0.0082405721768736,-0.0070826197043061,0.0114562474191188,-0.0245722141116857,0.0032631472286147,-0.0386617891490459,0.0393426157534122,79785773
215,0.0326393581926822,-0.0296127814799547,0.0050626792944967,0.0179641544818878,0.0003815754316747,0.011758541688323,-0.0188290458172559,0.0138655578501789,-0.0361314043402671,0.0720063000917434,115011586
216,0.015291036106646,0.0164109598845243,0.0290521755814552,0.0028369633946567,0.0025419862940907,0.0061790514737367,-0.0037443530745804,0.0245839740309101,-0.0175491347908973,0.0351046398282051,201816469
217,0.0201417133212089,-0.0106694363057613,0.0089827831834554,0.0108704250305891,-0.0025909934192895,0.0081398636102676,-0.0147578995674848,-0.002421566610782,-0.0216091126203537,0.0288091916590929,58026802
218,-0.0100423423573374,-0.029111823067069,-0.0374553464353084,-0.0127190612256526,-0.0258668884634971,-0.0185181088745594,-0.0004012284334748,-0.0178692611162333,-0.0331720598042011,-0.0022337997797876,134307269
219,-0.0368342585861682,0.0354228354990482,0.0182547532021999,-0.0406879037618637,-0.0054192086681723,-0.0330015048384666,0.0460991263389587,-0.0135411120578038,0.0742672681808471,-0.044090736657381,52197511
220,0.0221932101994752,-0.0417924746870994,0.0071260062977671,0.010348942130804,-0.0020665016490966,0.0142685798928141,-0.0197328794747591,0.0106081954839846,-0.0318956561386585,0.0363461151719093,1394129
221,-0.0112394522875547,0.0019162097014486,-0.002719375770539,-0.0109458304941654,-0.0127067789435386,-0.0058160666376352,-0.0067400499247014,-0.0133407313561632,-0.0038634850643575,0.0081069022417068,152997644
222,-0.0652577430009841,-0.0334027633070945,-0.0467169396579265,-0.0224300287663936,-0.0195167772471904,-0.0061507197096943,0.0418049246072769,0.0403310079424201,0.0142213981598615,-0.0198070053011178,38035180
223,0.0130168013274669,-0.0316554754972457,-0.0471261106431484,-0.0202877894043922,-0.0315860211849212,-0.021989494562149,-0.0342276915907859,-0.0542953133975027,-0.0359537489712238,0.0103701390326023,99604430
224,-0.0036096214316785,0.0082529056817293,-0.0095079187303781,-0.0036209395620971,-0.0098592108115553,0.0036741122603416,0.0633985102176666,-0.0013540204652412,0.0119379665702581,-0.0064447522163391,1181559
225,-0.0086005646735429,0.0017552021890878,-0.0128379352390766,-0.0055113723501563,-0.0106241283938288,0.0051091955974698,0.0761317089200019,-0.0033458159819825,-0.001999482512474,-0.0005276659503579,49367038
226,0.045147780328989,0.0182345211505889,0.0109587842598557,0.0039068614132702,0.0016544407699257,0.0128713008016347,-0.0337975919246673,0.0195026121782205,0.013095648959279,0.024749232456088,99092665
227,0.0103640528395771,-0.0220784489065408,0.0010598478838801,-0.0040585929527878,-0.0080123506486415,0.0023419046774506,-0.0236064344644546,0.0364889601061681,-0.0160609707236289,0.0472325272858142,84791675
228,-0.0054453508928418,0.0050888089463114,-0.010376950725913,-0.0051865121349692,-0.0111186373978853,0.0042168665677309,0.0702598914504051,-0.0038534334841464,0.0018700915388762,-0.0002339612692594,65819501
229,-0.0071015278808772,-0.0196011438965797,-0.0058832331560552,-0.0066015091724693,-0.0129630658775568,-0.0053236605599522,-0.0257155504077672,-0.0188125907496696,-0.0283751059323549,0.0131888166069984,209877730
230,-0.0092897610738873,-0.0118674403056502,-0.0117106614634394,-0.0023870263248682,-0.0084197800606489,0.0094555290415883,0.049026608467102,-0.0046403931507126,-0.0179890673607587,0.0122641660273075,34134703
231,-0.0072483289986848,0.0031838887371122,-0.0117832254618406,-0.0053721466101706,-0.0108360610902309,0.0047267684713006,0.0736152231693267,-0.0035633658351533,-0.0003411022480577,-0.000401793513447,105881940
232,0.0405028015375137,-0.0245653577148914,-0.012327236123383,0.0106866862624883,-0.009614398702979,0.01384112611413,-0.0033653760328888,0.063688694931452,-0.0041518127545714,0.0308082923293113,67801698
233,0.0112866694107651,0.0116105582565069,0.0208990294486284,-0.0029280250892043,-0.0014770585112273,0.0055236965417861,-0.0083801392465829,0.0295862817021159,0.0011412580497562,0.0035808163229376,184006479
234,0.0416648350656032,-0.0414735823869705,0.0254911109805107,0.0189761891961097,0.0004283678717911,0.0230126865208148,-0.0384626686573028,0.0166094091314178,-0.0034807897172868,0.0346367880702018,98079917
235,0.0686107650399208,0.0732795298099517,-0.00082937348634,0.0301456376910209,0.0215397756546735,0.0327343419194221,-0.0159072391688823,-0.0249071532481639,0.0694254115223884,-0.001944969408214,102488300
236,0.038148783147335,-0.0300704482942819,0.0073762219399213,0.0270794983953237,0.0070544090121984,0.0330107510089874,0.0268068201839923,0.0111749869490179,-0.0271557830274105,0.040266964584589,186297240
237,-0.002897884696722,-0.0037079341709613,-0.015974935144186,-0.0026517997030168,-0.0090088248252868,-0.0003664563409984,0.036770936101675,-0.0319653960799164,-0.0143565237522125,0.0038951232563704,87839561
238,0.0197963584214448,0.0317576639354229,0.0093110334128141,-0.0025876380968838,-0.0150746945291757,-0.0029217842966318,0.0232852566987276,-0.007914363552972,0.0328266434371471,0.0021157027222216,56491568
239,0.0189649183303117,0.0078298626467585,0.005045857746154,-0.0036058397963643,-0.0096807470545172,0.0001472760923206,-0.0041764583438634,-0.0293507150573789,-0.0300687793642282,0.0487123094499111,205932746
240,-0.0108536621555686,-0.017977399751544,-0.0061460109427571,-0.0058394772931933,-0.0131828002631664,-0.0027650706470012,0.0326525457203388,-0.0103649559435491,-0.0198667738586664,0.0039772382006049,51113107
241,-0.0151096116751432,-0.0059876167215406,-0.015866594389081,-0.0045803883112967,-0.0072650471702218,0.0081178536638617,0.0896111503243446,-0.0037941167149293,-0.0121104195713996,-0.0015944652259349,74738631
242,0.0151004983938064,0.0057570031319913,0.0270931553636017,0.0072571003067357,0.0073345014438,0.0039117302377794,0.0201999039489111,0.0532476007119962,0.0470369806940047,0.0470664296214979,94043093
243,-0.0110031031072139,0.0098599418997764,-0.0312013290822505,-0.003448101459071,-0.0073941308073699,-0.0014785428065806,-0.006941664032638,-0.0278325091348663,-0.0116786416620016,-0.0053167161531746,98708407
244,0.0197963584214448,0.0317576639354229,0.0093110334128141,-0.0025876380968838,-0.0150746945291757,-0.0029217842966318,0.0232852566987276,-0.007914363552972,0.0328266434371471,0.0021157027222216,128725950
245,0.0187014490365982,-0.0282070189714431,-0.0665075257420539,-0.0188292767852544,-0.0352555736899375,-0.0224379934370517,-0.0522699058055877,-0.0379991140874539,-0.054487582296133,0.0037266076542437,102523558
246,-0.0081726713106036,0.0002815660554915,-0.0087781902402639,-0.0043921880424022,-0.0100739132612943,0.0062240590341389,0.0584094785153865,-0.0004603441453009,-0.0055251666344702,0.0073046879842877,102122032
247,0.0146521152928471,0.0031448351219296,0.0035829877015203,0.0021236648317426,-0.0013146970886737,0.0099457735195755,0.0495840497314929,0.0219464889503611,-0.0013606850989162,0.0138879111036658,19919865
248,-0.002940634265542,0.0035627475008368,-0.0003503187326714,-0.0025991848669946,-0.0101737547665834,0.0061862333677709,0.0289257857948541,0.0021446133779681,-0.003834102069959,0.0168829951435327,76273564
249,0.026010351255536,0.0420259460806846,0.002127923304215,0.0024531052913516,-0.0038912061136215,0.004600450862199,0.0091788526624441,-0.0133396851546137,0.04201465472579,-0.0021712114103138,100565256
250,0.0158545617014169,-0.0138800432905554,-0.0180953759700059,0.008551730774343,-0.0067778602242469,0.0131578128784894,0.0359669737517833,-0.0070804115325925,-0.0113653736189007,0.0216094888746738,200394113
251,-0.0168893001973629,-0.0035493085160851,-0.0165174081921577,-0.0137556130066514,-0.0152914216741919,-0.0174842998385429,-0.0116814607754349,-0.0120011547481397,-0.0062065441161394,-0.0210615806281566,150718336
252,-0.015099654905498,0.0041530616581439,-0.0213458631187677,-0.0120119210332632,-0.0329896844923496,-0.017909375950694,-0.0313598737120628,-0.0448532071648804,-0.0458451658487319,0.0085527505725622,102421980
253,-0.0054383212700486,-0.0474479794502258,-0.0329836942255497,-0.002132708672434,-0.0206117331981658,-0.0009666893165558,-0.0442705191671848,0.0782337753444456,-0.0478334128856658,0.0299469158053398,84344367
254,-0.0008631399832665,0.0169079098850488,0.0011621634475886,-0.0088389487937092,-0.005896053276956,-0.0026169952470809,0.0359114706516265,-0.00800219270773,0.032347235828638,-0.0066886446438729,72497728
255,0.013199420645833,-0.063036985695362,-0.0044262977316975,0.0043131373822689,-0.0127694914117455,0.0072885495610535,-0.0077204331755638,-0.0194643212505162,-0.0507243536412715,0.028556939214468,68002205
256,-0.0059771067462861,0.0329290404915809,-0.0268294736742973,-0.0085518006235361,-0.0113163506612181,0.0068843159824609,0.0203024391084909,0.0307512877062169,0.0026365239173173,0.0081995157524943,72898792
257,0.0327304452657699,0.0231042969971895,0.0058799386024475,0.0198669545352458,0.0158920064568519,0.0228743702173233,0.0186192393302917,0.0243964123781665,0.0221968721598386,0.0298902038484811,138460133
258,-0.0139906927943229,-0.0025233668275177,-0.0065398048609495,-0.0207804329693317,-0.0142267793416976,-0.0167300924658775,-0.0055582914501428,-0.0307992647300455,0.0038268903736025,-0.0079365829005837,99018577
259,0.00910718832165,-0.0228116121143102,-0.0182054135948419,-0.0005978848785161,-0.0125869885087013,0.0030551033560186,0.0068517695181071,-0.0281803012234918,-0.0240190178155899,0.0129518574103713,206545451
260,-0.002921177772805,0.0077556977048516,-0.0084081478416919,-0.0049266242422163,-0.0115142427384853,0.003503001993522,0.0655624270439148,-0.0042595241140452,0.0049657463096082,1.00722536444664e-06,56491611
261,0.0269509088248014,-0.0317782089114189,0.002628167392686,0.0090016992762684,-0.0083046294748783,0.0070281270891427,-0.0162209961563348,-0.018280693751325,-0.0370378606021404,0.0319206789135932,108954955
262,-0.0088316015899181,0.002429177518934,-0.0230360366404056,-0.0070719714276492,-0.0112432790920138,0.0040109930559992,0.0433802902698516,-0.0027169019820771,-0.0083603737875819,0.0043933815322816,47754644
263,-0.0113366581499576,0.0164272654801607,-0.0059547191485762,-0.0122300647199153,-0.0069640618748962,-0.002759912982583,0.0631162524223327,-0.0095676503029972,0.0216405428946018,-0.012773492373526,59488156
264,-0.0135506391525268,-0.024680184200406,-0.0362956449389457,-0.0132772922515869,-0.0238120146095752,-0.0162017177790403,0.0164225529879331,-0.0135242777092367,-0.030319970101118,-0.0042217457666993,173578723
265,0.0035484977997839,0.0049060499295592,0.0063554579392075,0.0040926905348896,-0.0039513390511274,0.013623614795506,-0.0129365175962448,0.0062830487444328,-0.0077541177161037,0.033223558217287,1489566
266,-0.0013833157718181,-0.0207970608025789,-0.0103762606158852,-0.0019787978380918,-0.0095084467902779,0.0055234255269169,0.053324032574892,-0.0027804975482336,-0.027235833927989,0.0205497611314058,195696960
267,0.0102692376822233,0.0101066585630178,-0.0026025834959,-0.0005655656568706,-0.0063426233828067,0.0051324134692549,-0.0167324617505073,0.0028465432600424,-0.0373636782169342,0.0549441315233707,157676367
268,-0.0136445946991443,0.0088065098971128,-0.0146884229034185,-0.0125641617923974,-0.0106700975447893,-0.0068934420123696,-0.0042761927470564,0.0052417009072694,-0.0075207008048892,-0.0024743846151977,47758813
269,-0.026184419170022,0.0077638924121856,-0.0177456624805927,-0.0196208301931619,-0.0128821860998868,-0.0066310763359069,0.0417980924248695,-0.0047020234842065,0.0006360665429383,-0.0054439082741737,94043087
270,-0.0055363262072205,0.0040249126031994,-0.0283097382634878,-0.010603136382997,-0.0096765290945768,0.0013429924147203,0.0505512058734893,-0.0132122370019493,-0.0200481060892343,-0.0076293163001537,60612444
271,-0.0048637669533491,-0.0100569119676947,-0.0296826139092445,-0.0106060598045587,-0.0170473866164684,-0.0045736799947917,0.0320279374718666,-0.0283500201981881,-0.017313988879323,-0.0015362617559731,189832432
272,0.0002264049750912,-0.0099831510200371,0.019984630721755,-0.0048131192415217,-0.0100665518979532,-0.0029646803364995,0.0192655592603395,-0.0457537158393097,0.0030825935591884,0.0128187089354973,83448924
273,0.0234863068908453,-0.0337763875722885,-0.0174538902938365,0.0176926832646131,-0.0015178502071648,0.0085924891754984,-0.0211584772914648,-0.0372965349019895,-0.0118671357631683,0.0301379449665546,968042
274,0.0035695466212928,0.0146134011447429,-0.0033455230295658,-0.0042583420872688,-0.0125315161421895,0.0016673485515639,0.0534832403063774,-0.0053037634831097,0.0129259992390871,0.0006052064709365,63645659
275,0.0903527066111564,0.0347623750567436,0.0135637540370225,0.0501214042305946,0.0300401765853166,0.0499672219157218,-0.0244856961071491,1.108491598423786e-05,0.0346362069249153,0.034756451845169,2052970
276,-0.0086005646735429,0.0017552021890878,-0.0128379352390766,-0.0055113723501563,-0.0106241283938288,0.0051091955974698,0.0761317089200019,-0.0033458159819825,-0.001999482512474,-0.0005276659503579,54209120
277,0.0143528366461396,-0.0218988098204135,-0.0052569210529327,0.0044287526980042,-0.008711184374988,0.0088930428028106,0.0283763855695724,-0.0061203519644268,-0.0152165498584508,0.0182058475911617,107721773
278,0.0099778110161423,-0.0071736723184585,0.012164712883532,-0.0028374125249683,-0.0163513794541358,-0.0007359895389527,0.0171459801495075,-0.0294146712064331,-0.0114000961184501,0.0109828617423772,170437794
279,-0.0120884142816066,-0.0109981670975685,-0.0112756388261914,-0.0043135765008628,-0.008528527803719,0.0053165964782238,0.0823250263929367,-0.0046632574214314,-0.0078339613974094,-0.0032008970156311,7211039
280,0.0095861600711941,-0.0107671096920967,-0.0002713215071707,0.0022824082989245,-0.0095263822004199,0.004734325222671,-0.0132628232240676,-0.0039704964023898,-0.0171679202467203,0.0052832253277301,3443157
281,0.0249838065356016,0.0077278628014028,0.0074837994761765,0.0103190187364816,-0.0074108336120843,0.0115124713629484,-0.0022056943271309,-0.0230912001030278,0.0099906111136078,0.0162701271474361,195474892
282,-0.0250148177146911,0.0292917508631944,-0.017042176797986,-0.018735185265541,-0.0092896744608879,-0.007615502923727,0.025940541177988,0.0257597674654616,-0.0019564749673008,-0.0047427583485841,7574988
283,0.0175165180116891,0.0264767874032259,-0.0062427842058241,0.0050940224900841,-0.002070237416774,0.0118548115715384,0.0422853827476501,-0.010158846557382,0.023382794111967,-0.0005549853667616,86366069
284,0.0197963584214448,0.0317576639354229,0.0093110334128141,-0.0025876380968838,-0.0150746945291757,-0.0029217842966318,0.0232852566987276,-0.007914363552972,0.0328266434371471,0.0021157027222216,9949411
285,0.0008650734671391,0.0117560271173715,-0.0054549542255699,-0.0045367935672402,-0.012107653543353,0.0024322033859789,0.0585162378847599,-0.0048686652687486,0.0096092242747545,0.0003534541465342,99092662
286,-0.0180662088096141,-0.0082456162199378,-0.0202209427952766,-0.0064859502017498,-0.0091406097635626,0.0077861896716058,0.0937471985816955,-0.001822966984525,-0.013608194887638,-0.0014088004827499,58425371
287,-0.0332891717553138,0.03389872610569,0.0104507347568869,-0.0368468910455703,-0.0111291166394948,-0.0325213819742202,0.0254728682339191,-0.024090639249868,0.0550056770443916,-0.0358130969107151,39833157
288,-0.0159627292305231,-0.0060232197865843,-0.0185802653431892,-0.0062693767249584,-0.009470279328525,0.0071913041174411,0.0898326486349105,-0.0021613771053285,-0.0110284760594367,-0.0012129894457757,13182786
289,-0.0171452574431896,0.0108817033469676,-0.0158995073288679,-0.0183920338749885,-0.0146027002483606,-0.0126698426902294,0.0455565974116325,-0.002937908058449,-0.0073931422084569,-0.0147658986970782,15268755
290,-0.0044241701252758,0.0373121984302997,0.0197344906628131,-0.0071453545242547,-0.008713187649846,-0.009092416614294,-0.0098115056753158,-0.0105235644574696,-0.0085500357672572,0.0127980643883347,113607068
291,0.0390193276107311,0.0427468791604042,0.0036730575375258,0.0172209981828928,0.0083532128483057,0.0222005918622016,-0.0144076915457844,-0.0107429474399538,0.0355838276445865,0.0134599953889846,69330138
292,0.0400479547679424,0.01041975710541,0.0138498255982995,0.0110436035320162,0.0036438913084566,0.0130587862804532,-0.0196999963372945,-0.0030115692954647,-0.0233460739254951,0.0606245622038841,59617193
293,0.0094632972031831,0.0051470203325152,-0.0131427953019738,-9.433110244572164e-05,-0.0097012231126427,0.0054760128259658,0.0172766111791133,-0.0159502837079196,-0.0234769713133573,0.0265817735344171,206966496
294,0.0493313930928707,-0.039900068193674,0.0214920602738857,0.0175106767565011,-0.0008446690626442,0.0137110454961657,-0.0374990664422512,0.0234352060999448,-0.0190954580903053,0.0415699742734432,47527154
295,0.0080668330192565,-0.0042177466675639,-0.0116000641137361,-0.0082406215369701,-0.0075250677764415,-0.00244195247069,-0.0104135833680629,0.0039143109701441,-0.0113150710240006,0.0102162975817918,61913621
296,0.0102143492549657,-0.0183806121349334,-0.0027490854263305,-0.0055483011528849,-0.0140150506049394,0.0012173186987638,-0.0159746669232845,-0.0089140181686011,-0.0363833047449588,0.0287724528461694,34270534
297,0.0155567042529582,0.0002548708580434,0.0051226089708507,4.2652711272239685e-05,-0.0081162648275494,0.0038875555619597,-0.0209812521934509,0.0167616898540539,-0.0408126190304756,0.0580694861710071,205180061
298,0.0129491940690504,0.0222927893328549,0.0645316970098867,0.0115634164640562,0.0123123649519802,0.0091238845742143,0.0010924358574355,-0.0281861003622644,-0.0179184193640901,0.0042685382324499,34373550
299,-0.0671452656388282,0.0387333743274211,-0.0168733689934015,-0.0596848838031291,-0.0241252537816762,-0.0405019707977771,0.0382443480193614,0.0238599581932658,0.044499434530735,-0.0822254195809364,199307009
300,-0.0074880346655845,-0.0020762328058481,-0.0022825924679636,-0.0026014940813183,-0.0091935666278004,0.0080078355967998,0.0300538912415504,0.0041564105865647,-0.0111662531271576,0.0198364537209272,12713910
301,0.0130991637706756,0.0073902402073144,0.0011602663435041,0.0063178595155477,0.0023505496792495,0.0144991595298051,0.0111320940777659,0.0328269895883399,-0.0282184854149818,0.0510446019470691,3193236
302,0.0197963584214448,0.0317576639354229,0.0093110334128141,-0.0025876380968838,-0.0150746945291757,-0.0029217842966318,0.0232852566987276,-0.007914363552972,0.0328266434371471,0.0021157027222216,80628593
303,0.0023703349288553,0.0116310883313417,-0.0116517823189497,-0.00025000795722,-0.0061690919101238,0.0086972163990139,0.056375041604042,-0.0083432440257608,0.0062861917540431,3.585591912269592e-08,85996097
304,0.0197963584214448,0.0317576639354229,0.0093110334128141,-0.0025876380968838,-0.0150746945291757,-0.0029217842966318,0.0232852566987276,-0.007914363552972,0.0328266434371471,0.0021157027222216,16700200
305,0.0098155196756124,-0.0144981266930699,-0.0113632949069142,-0.0019928300753235,-0.0100720357149839,-0.0014608083292841,-0.0135688036680221,0.0027844297227763,-0.0228370707482099,0.0380816645920276,159483171
306,0.0441662892699241,0.0178015045821666,-0.0022981842048466,0.0249000191688537,0.014203674159944,0.0285982489585876,0.0029656700789928,-0.0230766258161089,0.0200039986521005,0.0104463631287217,102483617
307,-0.0008631399832665,0.0169079098850488,0.0011621634475886,-0.0088389487937092,-0.005896053276956,-0.0026169952470809,0.0359114706516265,-0.00800219270773,0.032347235828638,-0.0066886446438729,6747650
308,0.0050541954115033,-0.0439828559756279,-0.0413968451321125,-0.0085635967552661,-0.0211012661457061,-0.0048709576949477,0.0434108600020408,-0.0574407873245654,-0.0277635492384433,-0.0075426921248435,2763553
309,-0.0314497351646423,0.0023568668402731,-0.0358868092298507,-0.0205324850976467,-0.0213733687996864,-0.0173780526965856,-0.0121550820767879,0.0069164638444381,-0.0068506514653563,-0.0209852624684572,88350347
310,0.0071755065582692,0.0184232406318187,-0.0005329614505171,-0.0038870752323418,-0.0130966668948531,0.0006475412519648,0.0467725805938243,-0.0058838992031305,0.0173483695834875,0.0009408728219568,47788573
311,0.0259445179253816,0.0051741073839366,-0.0240837968885898,0.0008425493724644,-0.0108097530901432,0.00356030697003,0.0033647606614977,-0.0453668569653594,0.0078515717759728,0.0100406371057033,196566732
312,-0.0173614844679832,0.0026840581558644,-0.0060969209298491,-0.0108819780871272,-0.0085483342409133,-0.0005498265381902,0.0661765038967132,0.0012524995458203,0.0074803009629249,-0.0055064223706722,101058866
313,-0.0084438137710094,0.0306579582393169,-0.0118598686531186,-0.0140745937824249,-0.0087065007537603,-0.0162333399057388,-0.0071437191218137,-0.0224962494083329,0.0159450154751539,-0.0275026820600032,150718293
314,0.030508629977703,-0.0414284169673919,-0.007223377469927,0.0001916377805173,-0.0207302868366241,0.0002449443563818,-0.057978581637144,-0.0246506335190352,-0.0556748956441879,0.044873297214508,18912237
315,-0.0039303540252149,0.0175938494503498,0.0048742326907813,-0.0018806384177878,0.0019627092406153,-0.0043118102476,0.01474947668612,0.0142700180711845,-0.0030352184548974,0.0285177882760763,159115989
316,0.0197963584214448,0.0317576639354229,0.0093110334128141,-0.0025876380968838,-0.0150746945291757,-0.0029217842966318,0.0232852566987276,-0.007914363552972,0.0328266434371471,0.0021157027222216,86617202
317,-0.0019813296385109,0.0040704365819692,-0.0076452908106148,0.0007280133431777,-0.0046895900741219,0.0119742387905716,0.0413618683815002,-0.0005085129113619,-0.0040047373622655,0.0124482521787285,8608429
318,0.035762496292591,0.0305499415844678,0.0357996225357055,0.0033358936198055,0.0024782647378742,0.0078358631581068,0.002862416440621,0.010514483943682,-0.0158462356775999,0.062967412173748,138469628
319,-0.0035965528804808,-0.0065868417732417,-0.0161239355802536,-0.0015257375780493,-0.0089881271123886,0.0085349511355161,0.0723539963364601,-0.0063020130194325,-0.0078315269201993,0.0052546383813023,109486663
320,-0.0169072616845369,0.0211135521531105,-0.0321505293250083,-0.0019553278107196,-0.0045615276321768,0.0041466327384114,0.0027274405583739,0.0257470406543198,-0.0165238697081804,0.0004891962162218,55711245
321,-0.0233672801405191,-0.0048663257621228,-0.0189179461449384,-0.0214962922036647,-0.021390963345766,-0.0106848366558551,0.0314259529113769,-0.013622018362352,-0.0147547116503119,-0.0186221804469823,101191919
322,0.0197963584214448,0.0317576639354229,0.0093110334128141,-0.0025876380968838,-0.0150746945291757,-0.0029217842966318,0.0232852566987276,-0.007914363552972,0.0328266434371471,0.0021157027222216,194164487
323,-0.0008746669627726,-0.0160327889025211,0.0141752669587731,0.0047484897077083,0.001166128902696,0.008644301444292,0.0157357864081859,0.0453328452128698,0.0037015955895185,0.0083761010318994,71488005
324,0.005959449832296,0.019154475888491,0.0231073534608963,0.0113305913282847,0.0129101679860049,0.0029852652302842,-0.0347178486056353,0.1035768454599024,0.0215095701647984,0.0131745716615367,45859773
325,-0.001204326050356,-0.0132186915725469,-0.0318603366613388,-0.0095572611317038,-0.0200716145336627,-0.0082916589453816,0.0113936550915241,-0.0203222636680679,-0.0338940285146236,0.0020512256305664,101778430
326,-0.0089773358777165,0.0019241569098085,-0.0139838084578514,-0.0034555988386273,-0.0048264851793646,0.0086585488170385,0.0643133521080017,0.0121172894884077,-0.0047641196288168,0.0020254137925803,3806601
327,0.0197963584214448,0.0317576639354229,0.0093110334128141,-0.0025876380968838,-0.0150746945291757,-0.0029217842966318,0.0232852566987276,-0.007914363552972,0.0328266434371471,0.0021157027222216,2297821
328,0.01979636028409,0.0317576639354229,0.0093110315501689,-0.0025876383297145,-0.0150746935978531,-0.0029217847622931,0.0232852566987276,-0.0079143643305762,0.0328266434371471,0.0021157045848667,108109288
329,0.0197963584214448,0.0317576639354229,0.0093110334128141,-0.0025876380968838,-0.0150746945291757,-0.0029217842966318,0.0232852566987276,-0.007914363552972,0.0328266434371471,0.0021157027222216,2235503
330,0.0352871045470237,0.0009434008970856,0.0085805160924792,0.0075996117666363,-0.0052380110137164,0.0108437230810523,-0.0281422510743141,-0.0174857402163865,-0.0467138960957527,0.0639576166868209,37764882
331,0.0138162169605493,0.0205389112234115,0.0187457706779241,-0.0042656417936086,-0.0099344514310359,-0.0006636464968323,0.0419585108757019,-0.0050136361328118,0.0269477013498544,-0.0064461133442819,7897387
332,-0.0123941171914339,-0.0038174809888005,-0.0127694448456168,-0.0050284145399928,-0.0095280380919575,0.0071862060576677,0.0694391652941703,-0.0003351239249265,-0.009942908771336,0.0054506282322108,100535643
333,0.0015715535264462,-0.0007213642820715,-0.0119441375136375,-0.0045696315355598,-0.014903225004673,-0.0003821803256869,0.00926408264786,0.0001948864707971,-0.0124062420800328,0.0281391181051731,102644366
334,-0.0309893731027841,0.0144556947052478,-0.0126285832375288,-0.003421276807785,-0.0150849428027868,0.012151644565165,-0.0466551929712295,0.0150832651332861,-0.0236559752374887,0.0406638421118259,58802094
335,1.39591284096241e-05,0.0087705878540873,-0.0020822971127927,-0.0034597041085362,-0.0113055408000946,0.0040117749013006,0.0417637266218662,-0.0015312314197955,0.0041774148121476,0.0087161278352141,94317976
336,-0.0067059402354061,0.0016318573616445,0.0043005105108022,-0.0076062125153839,-0.0127534149214625,-0.0038110155146569,-0.0395096614956855,0.0329739517593373,-0.0192280374467372,0.0372780337929725,670375
337,0.0062294285744428,-0.0524554066359996,-0.0136330323293805,-0.0056129330769181,-0.0220391303300857,-0.0049251867458224,-0.0145570803433656,-0.0455015817900284,-0.0433999374508857,0.0195836536586284,99402058
338,-0.0177243072539567,0.0017700109165161,-0.0084794322028756,-0.0126447398215532,-0.009039893746376,-0.0016128377756103,0.0632202327251434,-0.0078849857880016,0.0046567502431571,-0.0058933193795382,47505989
339,-0.0168138537555933,-0.0090086571872234,-0.0152076166123151,-0.0051922868005931,-0.0086681693792343,0.0087708756327629,0.0730801597237587,0.0011760573980215,-0.0164602920413017,0.0071496828459203,110742290
340,0.0062587270513176,0.0160717628896236,-0.0021727862767875,-0.0041434750892221,-0.0160548314452171,-0.0039498023688793,0.0012285159900784,-0.0181463730813404,0.0050308653153479,0.0061699096113443,99092666
341,0.0072591011412441,0.0137542728334665,-0.0078695500269532,0.0008693595882505,-0.0029372442513704,0.0115093756467103,0.048830360174179,-0.0083435395471474,0.0073401518166065,-0.0015020128339529,73023923
342,0.0109233884140849,0.0201996713876724,0.0014680229360237,-0.0139035638421773,-0.0114190904423594,-0.0087517350912094,-0.0206073783338069,0.015508566629989,-0.0298464819788932,0.0422338843345642,73299028
343,-0.0008631399832665,0.0169079098850488,0.0011621634475886,-0.0088389487937092,-0.005896053276956,-0.0026169952470809,0.0359114706516265,-0.00800219270773,0.032347235828638,-0.0066886446438729,72497730
344,-0.0064781010150909,-0.0033407011069357,-0.0285478830337524,-0.0091177821159362,-0.0149810090661048,-0.0100202988833189,-0.0063435635529458,-0.0428864119418975,-0.0127067482098937,0.0012523339828476,99788385
345,0.0058461120352149,0.013616545125842,0.0075726998038589,-0.0032739732414484,-0.0079832980409264,0.0032671121880412,0.0383354872465133,-0.0098910763921801,0.005673405714333,0.0124140596017241,206170303
346,-0.0067777098156511,0.0044402643106877,-0.0092936707660555,-0.0098676523193717,-0.0174844451248645,-0.0029936120845377,0.0200737472623586,-0.0198490748168241,0.012699001468718,-0.0021603251807391,18468296
347,-0.0023640403524041,-0.0089920461177825,-0.0042916596867144,-0.0039063934236764,-0.0099042821675539,-0.0006195195019245,-0.0134163172915577,-0.0099916063358731,-0.035243347287178,0.0318412855267524,91989996
348,-0.0067709586583077,-0.0029152301140129,-0.0047853896394371,0.0003723674453794,-0.0050630066543817,0.0127397049218416,0.027413934469223,0.0042576276177936,-0.0138381272554397,0.0218837689608335,54863209
349,-0.0091837961226701,-0.0108328433707356,-0.0148954410105943,-0.0011945406440645,-0.0077297836542129,0.0097194593399763,0.0746859237551689,-0.0010433104032565,-0.0137666352093219,0.0065038870088756,88416983
350,-0.0230358000844717,-0.0434673316776752,-0.0079372925683856,-0.0078236497938632,-0.0230649076402187,-0.0074745239689946,0.0103424824774265,0.0053577459794003,-0.0241332743316888,0.0024487921036779,75717236
351,0.0127838421612977,-0.0011703437194228,0.0090232174843549,0.0012782769044861,-0.0007073965389281,0.003273035865277,0.0022114505991339,-0.0171368591950213,-0.0005882973782718,0.0379763804376125,50207366
352,7.807416841387749e-05,0.003685628529638,-0.0002474072389304,-0.0004731763619929,-0.0097445249557495,0.0042859925888478,-0.003573172725737,-0.0117977796716094,-0.0026031543966382,0.0174821596592664,76578097
353,0.0345334634184837,-0.0071920999325811,0.0421869829297065,0.0164111107587814,0.0106282886117696,0.0131207490339875,-0.0231229867786169,0.045034306731677,-0.0414446592330932,0.0654359683394432,101741648
354,0.0319999642670154,0.0421381294727325,0.0067759295925498,0.0055956803262233,-0.0059210779145359,0.0059922467917203,0.0134871378540992,-0.0121625605765959,0.0419763401150703,0.001100537367165,212071753
355,0.0226860959082841,0.0106599815189838,0.0049256607890129,0.014858178794384,0.0025247572921216,0.0227236375212669,-0.0072750626131892,0.0538670700178108,0.000866282149218,0.0365276560187339,3162115
356,-0.0072393990121781,0.0025231628678739,-0.0149905681610107,-0.0035240673460066,-0.0078864600509405,0.0080216685310006,0.0770419910550117,-0.004174099602218,-0.0018813023343682,-0.0009746006689965,99446605
357,0.0237097404897212,0.0090606641024351,0.0125702349469065,0.0074696531519293,-0.0001784930936992,0.0112485820427536,-0.006475574336946,0.0046341468696538,-0.0274026356637477,0.0564598441123962,52541971
358,-0.0075804912485182,-0.0228229369968175,0.0312109887599945,0.0046860193833708,-0.0164401140064001,-0.0037942752242088,-0.001260983524844,0.0174637142026869,-0.0339659079909324,0.0146147301420569,195773243
359,-0.0297609033183524,0.0126322780897942,-0.0081708814066396,-0.0165029581797191,-0.0064891523902377,-0.0156328829211492,-0.0372534592282918,-0.0792399174985601,-0.041260752049317,-0.0043336375693846,17687405
360,-0.008122987113893,-0.0087915593758225,-0.0126136438921093,-0.0035740155726671,-0.0076622860506176,0.007134476210922,0.0580322109162807,-0.0051212136585506,-0.0089023308828473,0.0090096462517976,114274866
361,0.0111633576452732,-0.0070124384947121,0.0064029451459646,-0.0043147830292582,-0.0086695747449994,-0.0016097959596663,-0.0217413436621427,0.0171833543897717,-0.03287273645401,0.0425634570419788,158508852
362,-0.0145413540303707,-0.0035012683365494,-0.0152194704860448,-0.0076272068545222,-0.0088747646659612,0.0015351688489317,0.0530066192150116,0.0077470437698746,-0.0094831241294741,-0.0015528097283095,107512023
363,0.0207183656679952,0.0130090565759182,0.005729526496096,-0.0039887426360859,0.0066536956355163,0.014582816720217,0.0455743183029874,0.0605607251574143,-0.0234027510646298,0.0031968211185997,146167229
364,0.0197963584214448,0.0317576639354229,0.0093110334128141,-0.0025876380968838,-0.0150746945291757,-0.0029217842966318,0.0232852566987276,-0.007914363552972,0.0328266434371471,0.0021157027222216,59299279
365,0.01979636028409,0.0317576639354229,0.0093110315501689,-0.0025876383297145,-0.0150746935978531,-0.0029217847622931,0.0232852566987276,-0.0079143643305762,0.0328266434371471,0.0021157045848667,55422060
366,-0.0284740421921014,0.0015030791983008,-0.0212996490299701,-0.0257918629795312,-0.0246164835989475,-0.0261921063065528,-0.0118280434980988,-0.0217405183244084,-0.0147153381258249,-0.016629260033369,156284152
367,0.0029441695660352,0.0014712600968778,0.0003501060418784,0.0087280124425888,0.0034187000710517,0.0156934708356857,0.0259484741836786,0.0418568469407859,0.0025026889052242,0.0302760209888219,109502816
368,-0.0132617969065904,0.0058424435555934,-0.0377745740115642,-0.0215416885912418,-0.0257563982158899,-0.0179479215294122,-0.0280612148344516,-0.0059014377011675,-0.0413193255662918,-0.0028988099656999,76747884
369,0.0156045937910676,0.009750205092132,0.0333096235990524,-0.0068052085116505,-0.0007586488500237,0.0004291869699954,-0.008436556905508,0.0045252485271792,-0.0320437215268611,0.0506199933588504,96648892
370,0.0239794366061687,-0.0403964072465896,0.0098820608109235,0.013031511567533,-0.0005075479857623,0.0175730250775814,-0.0312275420874357,0.0287875385348198,-0.0389423072338104,0.0461992472410202,2368500
371,-0.0008631399832665,0.0169079098850488,0.0011621634475886,-0.0088389487937092,-0.005896053276956,-0.0026169952470809,0.0359114706516265,-0.00800219270773,0.032347235828638,-0.0066886446438729,6747648
372,-0.005127165466547,-0.0003522143233567,-0.0300230514258146,-0.0052152452990412,-0.0130144422873854,-0.0059298453852534,0.0002142972080036,-0.0049173687018001,-0.0159531086683273,0.0025710612535476,124975178
373,-0.0105227641761302,-0.0009937100112438,-0.017781114205718,-0.0037301785778254,-0.0071610840968787,0.0091857742518186,0.08339823782444,-0.0036893851162614,-0.0060188337229192,-0.0013212109915912,206977176
374,0.01979636028409,0.0317576639354229,0.0093110315501689,-0.0025876383297145,-0.0150746935978531,-0.0029217847622931,0.0232852566987276,-0.0079143643305762,0.0328266434371471,0.0021157045848667,45621154
375,-0.0105034206062555,-0.0023414369206875,-0.0102856298908591,-0.0045425677672028,-0.0096571817994117,0.006986211054027,0.0613364949822425,0.0001608228064028,-0.0087211467325687,0.0077371001243591,96457659
376,-0.0125426538288593,0.0107602979987859,-0.0270312316715717,-0.0121230296790599,-0.0149739924818277,-0.0101041458547115,0.0237589720636606,-0.0156364308481828,-0.0014782533980906,-0.0179416984319686,148611986
377,-0.0189005434513092,0.0038416148163378,-0.0324262790381908,-0.0069596674293279,-0.0112117314711213,0.0086150858551263,0.0690459460020065,0.0043644863650367,-0.0191313438117504,0.0062954504974186,6001285
378,0.0031747044995427,0.0101803578436374,-0.0125024244189262,-0.0019176830537617,-0.0020497811492532,0.0040763989090919,0.0209651608020067,-0.0050231267761761,0.0182099714875221,-0.0025891393888741,72763348
379,-0.0070641329512,-0.0126500912010669,-9.270955342799424e-05,-0.0074618235230445,-0.0096696885302662,0.0032337810844182,0.0538561269640922,-0.0088714980180182,-0.004619856365025,0.0003929254598915,16835734
380,-0.0266417451202869,0.0093008400872349,-0.0297863893210887,-0.0344871468842029,-0.0208704750984907,-0.0207947622984647,0.0067865401506423,-0.0190291629597586,0.014677170664072,-0.0295305848121643,44708713
381,0.0013943829108029,0.0081481896340847,-0.0009456707630306,-0.0175990704447031,-0.0172224957495927,-0.006084996741265,-0.0089462036266922,0.0215543716479256,-0.0222954265773296,0.0089251175522804,110012110
382,0.0355511531233787,0.0100059444084763,0.0034040145110338,0.003724941983819,-0.0136493630707263,0.0059056105092167,0.0075398120097815,0.0052847697214685,0.0173302367329597,0.0188028626143932,88880574
383,0.0200655590742826,0.0242478288710117,-0.0088610164821147,0.0011951480992138,-0.0058261435478925,0.0098439548164606,-0.0211979672312736,-0.003599659946397,-0.0387161411345005,0.0656964033842086,30351501
384,-0.0033217719756066,-0.0062763728201389,-0.0186606850475072,-0.0079818293452262,-0.0122821545228362,-0.0063140010461211,-0.0190970599651336,-0.014193530068375,-0.0119071202352643,0.0063181067816913,152354126
385,-0.0180662088096141,-0.0082456162199378,-0.0202209372073411,-0.0064859502017498,-0.0091406088322401,0.0077861906029284,0.0937471985816955,-0.0018229689481916,-0.0136081939563155,-0.0014087948948144,206939650
386,-0.0044401651248335,-0.0013624487910419,-0.0002607220667414,0.000811262987554,-0.0057106995955109,0.0120628727599978,0.0131216216832399,0.005621909446912,-0.0128635456785559,0.0264715477824211,85951147
387,0.0475144386291503,-0.0310370251536369,-0.0072240126319229,0.0051640169695019,-0.0026814974844455,0.0136296721175313,-0.0562679581344127,0.0419709817000028,-0.0680384412407875,0.0789663195610046,102386409
388,-0.0151140494272112,-0.0139243574813008,-0.005696321837604,-0.002515603788197,-0.0115100257098674,0.004938677418977,-0.0358683839440345,-0.0081761877941674,-0.0395385175943374,0.0340915136039257,78535305
389,-0.0033917371183633,-0.00449984613806,-0.0047831181436777,0.0011390103027224,-0.0024129555094987,0.0135083049535751,0.0591632016003131,-0.0025057095633833,-0.0148117588832974,0.0253059789538383,103874922
390,-0.0022961758077144,0.0172539558261632,-0.0014695146819576,-0.0091691622510552,-0.0120357135310769,-0.0030014324001967,0.0534524396061897,-0.007136845335235,0.0196642540395259,-0.0052874786779284,19771878
391,0.0111360512673854,-0.0243845488876104,-0.0117224734276533,0.0026335339061915,-0.0100545305758714,0.0097029125317931,0.0329315103590488,-0.008038317452602,-0.0168766193091869,0.0141520323231816,32949717
392,-0.0073721520602703,-0.0167966037988662,-0.0185050964355468,-0.0042352983728051,-0.012805551290512,0.0058878627605736,0.0621176809072494,-0.0121272170938435,-0.0206572264432907,0.0101480586454272,184425605
393,-0.0096505703404545,-0.0126816183328628,-0.0086092082783579,-0.00855980720371,-0.0132601242512464,-0.0023359446786344,0.0189315415918827,0.0033267778899091,-0.0141750508919358,0.000361603219062,102887574
394,-0.0088840741664171,-0.0201141238212585,-0.0305395144969224,-0.0090615199878811,-0.0102498903870582,6.81951642036438e-05,0.0130164613947272,0.0613490136576032,-0.0046362597495317,0.0108789466321468,66891131
395,-0.0156187955290079,-0.0108143566176295,-0.0221952535212039,-0.0088618882000446,-0.0127272447571158,0.0030986897181719,0.0739321485161781,-0.0108660628492903,-0.0165484622120857,0.000449102371931,106261680
396,-0.0266124345362186,0.0349966771900653,-0.0242601558566093,-0.0277513191103935,-0.0162057280540466,-0.0074725924059748,0.0390898510813713,0.0399858368480447,-0.0019008512608706,0.0194823704659938,60194762
397,-0.00321288080886,-0.0012710390146821,-0.0071958503685891,-0.0036675056908279,-0.0084615778177976,0.0060219699516892,0.0632899105548858,-0.0100114200449253,-0.0059419777244329,-0.0003491328097879,101368165
398,-0.0008631399832665,0.0169079098850488,0.0011621634475886,-0.0088389487937092,-0.005896053276956,-0.0026169952470809,0.0359114706516265,-0.00800219270773,0.032347235828638,-0.0066886446438729,6747649
399,-0.00716841686517,-0.0050337426364421,-0.010148923844099,-0.0014050407335162,-0.0084325429052114,0.0091611286625266,0.0589390248060226,-0.0084643658906888,-0.0101948585361242,0.0099171316251158,110939942
400,0.0164802744984626,-0.0135636646300554,-0.0463613346219062,0.0072884364053606,-0.0001708974596112,0.0168706215918064,-0.0040734098292887,0.0144058601192222,-0.0216699205338954,0.0114853754639625,52268839
401,0.0008650734671391,0.0117560271173715,-0.0054549542255699,-0.0045367935672402,-0.012107653543353,0.0024322033859789,0.0585162378847599,-0.0048686652687486,0.0096092242747545,0.0003534541465342,115138097
402,-0.0152483992278575,-0.0099624451249837,-0.0089409761130809,-0.0035752062685787,-0.0080776158720254,0.010001728311181,0.0472463406622409,0.0049248357205512,-0.0200254097580909,0.0178477820008993,90959033
403,0.0022651650942862,-0.0323786027729511,-0.0149321369826793,-0.0100136175751686,-0.0251545123755931,-0.0133639015257358,-0.0213348716497421,-0.0428161609841045,-0.0398036353290081,0.006162216886878,68997293
404,0.0162199921905994,-0.0114756105467677,-0.0137525834143161,-0.0004429018590599,-0.0125201269984245,0.0004566870629787,-0.0113001205027103,-0.0072297763732849,-0.0331915840506553,0.0385659262537956,97442108
405,-0.0099862366914749,0.0039450470358133,-0.0253756716847419,-0.0069158412516117,-0.0121835190802812,-0.0042294077575206,-0.0013326673069968,-0.0097968216394576,0.0008960187551565,-0.0129945669323205,34335298
406,0.0008650734671391,0.0117560271173715,-0.0054549546912312,-0.0045367935672402,-0.0121076544746756,0.0024322033859789,0.0585162378847599,-0.0048686652687486,0.0096092233434319,0.0003534541465342,207034364
407,-0.0013430109247565,-0.0337713323533535,-0.0167608596384525,-0.005497929174453,-0.0158792473375797,0.000632872339338,0.0196097400039434,-0.0170015199067748,-0.0398383848369121,0.0091097457334399,8208151
408,-0.0132015794515609,-0.0063500050455331,-0.0132476156577467,-0.0040753125213086,-0.007474975194782,0.000609370006714,0.0149736749008297,0.0134192325315421,0.0144560011103749,-0.0006983818020671,71145982
409,0.006676944438368,-0.0147634278982877,0.0092312432825565,0.0144727248698472,-0.0104211512953042,-0.0005768446717411,-0.0368146747350692,-0.0143165068335065,-0.0330359265208244,0.0228369887918233,103625428
410,-0.0080970739945769,-0.0002190456725656,-0.0124292708933353,-0.0024821038823574,-0.0069680651649832,0.0096473600715398,0.0631671324372291,-0.0013363460096748,-0.0068051037378609,0.0061404947191476,58374844
411,-0.0076482826843857,-0.0354628711938858,-0.0251475572586059,-0.0049460809677839,-0.0128763848915696,0.0011208308860659,0.0346779376268386,0.0253467618482292,-0.0103948898613452,0.0128121757879853,165081199
412,0.0162805449217557,-0.0167665220797061,-0.0173912942409515,0.0038526433054357,-0.0100830579176545,0.0110280802473425,0.0308120958507061,-0.0118664430448514,-0.0069385161623358,0.0190102979540824,33982497
413,0.0319999642670154,0.0421381294727325,0.0067759295925498,0.0055956803262233,-0.0059210779145359,0.0059922467917203,0.0134871378540992,-0.0121625605765959,0.0419763401150703,0.001100537367165,201846065
414,0.0158364530652761,-0.0029831929132342,0.0108373779803514,0.0100678149610757,0.005031628999859,0.0216537676751613,0.046793695539236,0.0211608565972151,-0.0064286333508789,0.0341678336262702,49609372
415,0.0197963584214448,0.0317576639354229,0.0093110334128141,-0.0025876380968838,-0.0150746945291757,-0.0029217842966318,0.0232852566987276,-0.007914363552972,0.0328266434371471,0.0021157027222216,178367993
416,0.0105365794152021,-0.0531659722328186,-0.0490619540214538,-0.0011892041657119,-0.0293359383940696,-0.0088187279179692,-0.0575441643595695,-0.0216033749192999,-0.0613200739026069,0.0144232166931033,47023001
417,0.0197963584214448,0.0317576639354229,0.0093110334128141,-0.0025876380968838,-0.0150746945291757,-0.0029217842966318,0.0232852566987276,-0.007914363552972,0.0328266434371471,0.0021157027222216,15166421
418,0.0197963584214448,0.0317576639354229,0.0093110334128141,-0.0025876380968838,-0.0150746945291757,-0.0029217842966318,0.0232852566987276,-0.007914363552972,0.0328266434371471,0.0021157027222216,7172770
419,0.0083358585834503,0.0171360746026039,-0.0116815501824021,0.0031592382583767,-0.0022122720256447,0.0126847317442297,0.0575258582830429,-0.0083554377060584,0.0129545638337731,-0.0011022756807506,188320861
420,-0.0096523026004433,0.0006440011784434,-0.0136582674458622,-0.0056196590885519,-0.0104592936113476,0.0054066418670117,0.078088991343975,-0.0031766110612983,-0.0032893465831875,-0.0006255712360143,45859764
421,0.0197963584214448,0.0317576639354229,0.0093110334128141,-0.0025876380968838,-0.0150746945291757,-0.0029217842966318,0.0232852566987276,-0.007914363552972,0.0328266434371471,0.0021157027222216,172571530
422,-0.017041552811861,-0.0088699124753475,-0.0161191299557685,-0.005427498370409,-0.0087540652602911,0.0085918409749865,0.0768377929925918,0.0006307793906739,-0.0159417353570461,0.0055936016142368,91069114
423,-0.0046428712084889,-0.0024081254377961,0.0063949851319193,-0.000445005018264,-0.008569530211389,0.0093453768640756,-0.0045792204327881,0.008819481611901,-0.0146977249532938,0.0336083322763443,52361126
424,0.0066962013952434,0.0068532973527908,0.0048688184469938,0.0027135408017784,-0.002256563398987,0.0079256705939769,0.0077818278223276,-0.0025844855617712,-0.0008415286429226,-0.0010766556952148,1134720
425,0.0065390318632125,-0.0062461700290441,-0.0159099977463483,-0.000535046798177,-0.0082204733043909,0.0039290562272071,0.020816795527935,0.0019954158033743,-0.0156132290139794,0.0149077586829662,201234592
426,-0.0073834173381328,0.0090132588520646,-0.0111396722495555,-0.0148607697337865,-0.0110208420082926,-0.008225992321968,-0.003419610671699,-0.0086401320246796,-0.0095684770494699,0.0063705812208354,14966853
427,0.0222014598548412,-0.0049335705116391,-0.0015268384013324,0.0089003862813115,-0.0005456497892737,0.0144767118617892,0.0260841194540262,0.0031646995453972,-0.0005065309815108,0.0141223613172769,57519725
428,-0.0013470752164721,-0.0192979983985424,-0.0133792608976364,0.0045481864362955,-0.0044174361974,0.0120382532477378,0.0611336231231689,-0.0104432292379379,-0.0194771606475114,0.0220235418528318,50031549
429,-0.011755783110857,-0.0015784101560711,-0.0152989383786916,-0.0058362316340208,-0.0101296249777078,0.0060015292838215,0.0820035561919212,-0.0028381988925277,-0.0058690542355179,-0.0008213776163756,66464625
430,-0.0127165410667657,0.0160901248455047,-0.0318264365196228,-0.0204368066042661,-0.022996686398983,-0.0188460070639848,-0.0043353820219635,-0.0112588701728452,-0.0204685386270284,-0.0049098012968897,68748784
431,0.0151327140629291,-0.0066636148840188,0.0112475324422121,0.0120866717770695,0.0022400887683033,0.0195515602827072,0.0027352387551218,0.0124684065060345,-0.0211372803896665,0.0425704792141914,55422033
432,-0.0130393225699663,0.0070615038275718,-0.0181780401617288,-0.0164933558553457,-0.013490043580532,-0.0077534271404147,0.0338347144424915,-0.0141682273452399,0.0013427617959678,-0.0016402390319854,58017337
433,0.0163866579532623,-0.0177980698645114,-0.0059729656204581,0.0032935522031039,-0.0086087333038449,0.0059279752895236,-0.0056539895012974,-0.0112203787598442,-0.0350780002772808,0.04659029468894,51887928
434,-0.0180662088096141,-0.0082456162199378,-0.0202209427952766,-0.0064859502017498,-0.0091406097635626,0.0077861896716058,0.0937471985816955,-0.001822966984525,-0.013608194887638,-0.0014088004827499,96232449
435,0.0307962298393249,-0.0374606698751449,-0.0172222163528203,0.0107980193570256,-0.0079720104113221,0.006560874171555,-0.0361449234187603,-0.0250855522148758,-0.0351434722542762,0.0372630953788757,206810298
436,0.0458556488156318,-0.0599745474755764,0.0175463277846574,0.014751355163753,-0.0081685008481144,0.0091534471139311,-0.0600553341209888,-0.0021011186956667,-0.0375619381666183,0.043958019465208,173351101
437,-0.0265203565359115,0.0417416766285896,0.0161926411092281,-0.0360689684748649,-0.010639046318829,-0.0320073738694191,0.0365012437105178,-0.0189746351702552,0.0689035728573799,-0.0378401987254619,47445127
438,0.0165904592722654,0.0073767844587564,-0.0005547550972551,0.0085086459293961,-0.0008986416505649,0.0129904840141534,0.0348074063658714,-0.0101902597896725,0.0143811572343111,0.0236261170357465,76920769
439,-0.0069061480462551,-0.0175273660570383,-0.0162200294435024,-0.0056978343054652,-0.011000950820744,0.0041435901075601,0.0688088834285736,-0.010625743763348,-0.0149457734078168,-0.0004699104465544,6754190
440,0.0238183233886957,0.0457604862749576,0.007888400927186,-0.0004098436329513,-0.0036629217211157,0.0010330551303923,0.0149194030091166,-0.0151395037140068,0.0510142110288143,-0.0076064700260758,19933028
441,-0.0304456874728202,0.0127181392163038,-0.0177533607929945,-0.0147964861243963,-0.006975001655519,-0.009765182621777,0.0110591109842062,0.0095418748860531,0.0117575032636523,-0.0107563305646181,191085080
442,0.0193644259124994,0.0221963338553905,-0.0016302864532917,0.0006369604961946,-0.0061814407818019,0.0086950715631246,-0.0156836621463298,-0.0075543441838769,-0.0397064462304115,0.0636086612939834,34326285
443,0.0546637959778308,0.0614161342382431,0.0020678839646279,0.0207932740449905,0.0110784992575645,0.0225468780845403,-0.0047093676403164,-0.0200520722751897,0.0589686259627342,-0.0007847747765481,12928037
444,0.0239106602966785,0.008700206875801,0.0174782965332269,0.0089700408279895,0.0015179895563051,0.0087971119210124,-0.0071709873154759,-0.0123955499437462,-0.0069764065556228,0.0361123867332935,86177534
445,0.0121438931673765,-0.0076461220160126,-0.006904968060553,-0.0012387803290039,-0.0099465232342481,0.0029622369911521,0.0103754550218582,0.0183116845761491,-0.0007496909238398,0.0121402088552713,192078523
446,0.0004676869139075,-0.0334118232131004,-0.048191625624895,-0.0312707424163818,-0.0406888164579868,-0.0382889583706855,-0.0620414689183235,-0.0607614183749604,-0.0641049891710281,-0.0209419466555118,200400506
447,-0.006588727235794,0.0122995432466268,-0.0068203518167138,-0.0167838893830776,-0.0020317242015153,-0.008669015020132,0.008824560791254,0.0017182076117953,0.0401977002620697,-0.0155623210594058,879768
448,0.0108516179025173,0.0137010738253593,-0.0162060111761093,0.002908221213147,-0.0060057803057134,0.0006527889054268,-0.0045983381569385,0.0129997450566342,0.0077851456589996,-0.0013317728880792,38106215
449,-0.0337772667407989,-0.010562989860773,-0.0376151427626609,-0.0129633778706192,-0.0263620186597108,-0.0133402422070503,-0.025469321757555,-0.016713819057667,-0.0654999688267707,-0.0066387690603733,98506381
450,-0.0026754483114928,-0.0297967568039894,-0.0348018333315849,0.0055074216797947,-0.0083499103784561,0.0091433767229318,0.0198784135282039,-0.0148776648254627,-0.0192127991467714,0.0142971063032746,195696760
451,0.0446707420051097,-0.0477137267589569,-0.0129015538841485,0.002715062815696,-0.0176086798310279,0.0031278328970074,-0.0099319294095039,-0.0144594858233961,-0.0079266931861639,0.0465155951678752,1058759
452,0.0055052591487765,0.0212175454944372,-0.0528464578092098,0.0097685744985938,-0.0037755772937089,0.0106554692611098,-0.0426179654896259,0.0112687621720293,-0.0276592448353767,0.034553050994873,77580268
453,-0.0355796411683612,-0.0099466152416701,0.0202592922580126,-0.010396822972264,-0.0006790886333512,-0.0127015828500245,-0.0191803467424537,0.0336507681534164,-0.0308293432408222,-0.0071043692413723,84470282
454,0.0011201786110177,0.0147068444639444,0.0179722066968679,-0.002463839482516,-0.0042240470647811,0.0058709629811346,-0.0148651264607906,0.0194065764496248,-0.0392964072525501,0.0422967597842216,64177119
455,0.0081522362306714,-0.0123972259461879,-0.0096000656485557,-0.0041415770538151,-0.014933867380023,0.0033763614483177,0.014390617609024,-0.0109036557368407,-0.01802977360785,0.0208963677287101,88880575
456,0.0296230986714363,-0.0717266947031021,-0.0263225138187408,-0.002556609455496,-0.0307883247733116,-0.0060183252207934,-0.0726524367928505,-0.0325116135743814,-0.0669059008359909,0.0305384676903486,73392382
457,0.01979636028409,0.0317576639354229,0.0093110315501689,-0.0025876383297145,-0.0150746935978531,-0.0029217847622931,0.0232852566987276,-0.0079143643305762,0.0328266434371471,0.0021157045848667,194294684
458,-0.049696896225214,-0.0059947990812361,-0.0286443196237087,-0.0326968915760517,-0.0288779400289058,-0.0312489494681358,-0.0164406970143318,-0.0190807065041089,-0.0244746506214141,-0.0264331456273794,74945071
459,0.0771245807409286,0.0175131130963563,0.0334581360220909,0.0536632686853408,0.0293563716113567,0.0457496270537376,-0.0150148766115307,0.0344748735395872,0.0103882700204849,0.0496497601270675,126242405
460,0.004651331808418,0.015756357461214,-0.0025017540901899,-0.0041469624266028,-0.0127010606229305,0.0013614054769277,0.0514700412750244,-0.0054778036283152,0.0142527129501104,0.0007059108465909,99092671
461,-0.0034496327862143,-0.0106598734855651,-0.0097990222275257,-0.0015455598477274,-0.0108289700001478,0.0059006046503782,0.0123008741065859,-0.0160067505967881,-0.0238621924072504,0.018800163641572,5099843
462,0.0197963584214448,0.0317576639354229,0.0093110334128141,-0.0025876380968838,-0.0150746945291757,-0.0029217842966318,0.0232852566987276,-0.007914363552972,0.0328266434371471,0.0021157027222216,18860704
463,-0.0422061420977115,0.0008099229307845,-0.0258231051266193,-0.0268239900469779,-0.0125796515494585,-0.0206371173262596,0.0138659868389368,0.0330098522413292,0.0111575573682785,-0.0268343575298786,49065011
464,-0.017766123637557,0.0393324345350265,0.013555746525526,-0.010958420112729,-0.0117775732651352,-0.0133463591337203,0.0090845432132482,-0.0337208595239589,-0.0102262664586305,0.0075600137934088,60623703
465,-0.0092019652947783,-0.0832109153270721,-0.0382218472659587,-0.0011761737987399,-0.0124044856056571,0.000712857581675,-0.0003285068087279,0.0742789590329056,-0.0199513249099254,0.0292491987347602,102481856
466,0.027062602341175,-0.0589236840605735,0.0045785503461956,0.0144316162914037,-0.0072142258286476,0.0099618239328265,-0.0380250439047813,-0.0061735253701141,-0.0460191704332828,0.0382293313741683,44394807
467,-0.0270458627492189,0.0076989266090095,-0.0287557058036327,-0.03335402905941,-0.0197586249560117,-0.019633837044239,0.0055131679400801,-0.0184709819837147,0.009658376686275,-0.0253826677799224,98350726
468,0.0105994092300534,-0.0247597321867942,0.0009505433845333,-0.0054540992714464,-0.0098055582493543,0.0019759950228035,-0.0167154967784881,-0.0363656113626147,-0.0372365191578865,0.0392004624009132,18682509
469,-0.0322668374698523,0.0471313235416833,0.018420112346228,0.0081623159800736,0.0062650483181952,0.0014940821318488,0.0532652245789556,-0.0189698536221926,0.019809265595021,0.0297431532418681,4594647
470,-0.0104936929419636,-0.0002449583262205,-0.0143145471811294,-0.0057062865234911,-0.0103274248540401,0.0056445952504873,0.0796548202633857,-0.0030412455283633,-0.0043212166056036,-0.0007038908079266,54107666
471,0.0008650734671391,0.0117560271173715,-0.0054549542255699,-0.0045367935672402,-0.012107653543353,0.0024322033859789,0.0585162378847599,-0.0048686652687486,0.0096092242747545,0.0003534541465342,186443103
472,-0.0195135436952114,-0.0065708877518773,-0.0207921136170625,-0.0172460600733757,-0.0157614238560199,-0.006466073449701,0.0631068348884582,-0.0070734304473556,-0.0225164741277694,-0.0113392267376184,97759716
473,0.0197963584214448,0.0317576639354229,0.0093110334128141,-0.0025876380968838,-0.0150746945291757,-0.0029217842966318,0.0232852566987276,-0.007914363552972,0.0328266434371471,0.0021157027222216,7843922
474,0.020809369161725,0.035388920456171,0.0024585961364209,0.0004587550647556,-0.0083645842969417,0.0015601159539073,0.020017409697175,-0.0245589417831016,0.0280623957514762,-3.612972795963288e-05,124845535
475,0.0197963584214448,0.0317576639354229,0.0093110334128141,-0.0025876380968838,-0.0150746945291757,-0.0029217842966318,0.0232852566987276,-0.007914363552972,0.0328266434371471,0.0021157027222216,7445076
476,0.044249527156353,-0.0296320728957653,-0.0176257546991109,0.0221407637000083,-0.0034174732863903,0.0211446471512317,0.0132002886384725,-0.0256157456529029,-0.013785408809781,0.0384175591170787,3855634
477,0.035762496292591,0.0305499415844678,0.0357996225357055,0.0033358936198055,0.0024782647378742,0.0078358631581068,0.002862416440621,0.010514483943682,-0.0158462356775999,0.062967412173748,17110600
478,-0.0446219174212574,0.0193306461567929,0.0219791161368256,-0.0131216580443599,-0.0032887412443907,-0.0080890581969507,-0.048648656954001,-0.0474299942571051,0.0310778483446688,0.007675935345321,191388858
479,-0.0201520510017871,0.0219724550843238,-0.0507342889904975,-0.0076702474616467,-0.0143184196203947,0.0098584331572055,0.0319940149784088,0.0136456662697601,-0.0274160951375961,0.0178518127650022,85885097
480,0.0074121733196079,-0.0544352084398269,-0.0093211717903614,0.0027024112641811,-0.0185996405780315,0.0045808586291968,-0.0370174311101436,-0.0385733832373466,-0.0544844567775726,0.036884032189846,101157823
