,security,conformity,tradition,benevolence,universalism,self-direction,stimulation,hedonism,achievement,power,song_id
0,0.0015601683408021,0.0027781366370618,-0.0183599218726158,-0.0045659807510674,-0.0104991421103477,0.0004038326733279,-0.0183184817433357,-0.0019044452346861,-0.0282590519636869,0.0075623267330229,4116102
1,-0.0184076111763715,0.0059110578149557,-0.0239180997014045,-0.0053780833259224,-0.0094005689024925,-0.0005770832067355,0.0073601524345576,-0.0003392887301743,-0.0125074051320552,-0.003537765238434,80257632
2,-0.0101734772324562,-0.013884681276977,-0.0286851227283477,-0.0038591241464018,-0.0129955057054758,0.0035486356355249,0.0165464300662279,0.0046801785938441,-0.0228014681488275,-0.0008878700900822,2241308
3,0.0103591419756412,-0.0416426211595535,-0.0253073871135711,-0.0011656341375783,-0.0107546411454677,0.0015750473830848,-0.0242437291890382,-0.0031798346899449,-0.0302956718951463,0.0173946488648653,204336669
4,0.029771579322872,0.0084285492722665,-0.0172736754353329,0.0087358778741518,0.0047353000523382,0.0025608625739836,0.0075172717680127,0.0013219453962267,-0.0089575250855733,-0.0229573068827813,34952275
5,-0.0084684872999787,0.0040591619908809,-0.0144371055066585,-0.0100171919912099,-0.0100093549117445,-0.0076732672750949,-0.004203219898045,-0.009395052678883,-0.0110744647681713,-0.0068047498352825,17390586
6,0.0047075864858925,0.0025700575206428,-0.004239841364324,-0.0118287364020943,-0.007444123737514,-0.0080174654722213,-0.0035214151721447,-0.0080968867987394,-0.0083740232512354,-0.0220005493611097,9223300
7,-0.0125195253640413,0.0263540241867303,-0.0156798046082258,0.0053871432319283,-0.0010762554593384,0.0013497073668986,-0.0243641734123229,-0.0009478977881371,-0.0068692057393491,0.0034779030829668,149782763
8,0.047136016190052,0.0264871623367071,0.0254862438887357,0.0006889933720231,0.0017910511232912,0.0065425969660282,-0.0095906844362616,0.0093002393841743,-0.0235141031444072,0.0322644114494323,99962781
9,0.0081280022859573,0.0063019320368766,0.0026043888647109,0.0008516373927704,-0.0058764447458088,0.0036407101433724,-0.0139821656048297,0.0054404227994382,-0.0070372042246162,0.0141907688230276,136930153
10,-0.0074369790963828,-0.0079327514395117,0.0014682952314615,-0.0127058029174804,-0.0130646899342536,-0.0065384432673454,-0.0054831793531775,-0.0084176091477274,-0.0176000893115997,-0.003730020020157,85912872
11,-0.024548741431707,-0.023361111915846,-0.049314240996726,-0.0056002766165932,-0.0056163296794616,-0.0113713645880928,0.0394656964971236,-0.007396666143369,0.0166692999529499,0.0005541076555589,57005765
12,-0.0125195253640413,0.0263540241867303,-0.0156798046082258,0.0053871432319283,-0.0010762554593384,0.0013497073668986,-0.0243641734123229,-0.0009478977881371,-0.0068692057393491,0.0034779030829668,99567690
13,0.0435167327523231,-0.0408841371536254,-0.0253391806036233,0.0307554490864276,0.005487959831953,0.0252698324620723,-0.0285563822835683,0.0254048481583595,-0.0484897941350936,0.0390087366104126,151085454
14,-0.0147560909390449,0.0185888614505529,-0.0188090782612562,0.001298023853451,-0.0042382064275443,0.000617824785877,-0.0123138427734375,-0.0007167200092226,-0.0090108439326286,0.0008130364585667,134245347
15,-0.0250577218830585,0.0004967388231307,-0.0135394446551799,-0.0148579701781272,-0.008229193277657,-0.0039393533952534,0.0294221695512533,-0.0010155974887311,0.0157413370907306,-0.0003615941968746,16074172
16,-0.0045902701094746,0.0066104806028306,-0.002140843309462,-0.0049527157098054,-0.0006903035100549,-0.0001193352509289,-0.007192600518465,0.0029248255304992,0.0157827343791723,0.0093827182427048,61210999
17,0.0028854080010205,0.0010918397456407,-0.0038541983813047,0.0042858477681875,-0.0023033504839986,0.0055740131065249,-0.035430122166872,0.0006788206519559,-0.0165889151394367,0.002972166519612,102814436
18,0.0072924066334962,-0.0124705024063587,-0.0111083602532744,0.0040605552494525,-0.0045659067109227,0.0061437706463038,-0.0214868187904357,0.0059068975970149,-0.0327831320464611,0.0272705778479576,205113268
19,0.0179016068577766,-0.0002291174605488,-0.0196776054799556,0.0013579432852566,-0.0046613169834017,-0.0009729432640597,-0.0230194386094808,0.0062691075727343,-0.0340199768543243,0.0251797717064619,99526020
20,-0.0125195253640413,0.0263540241867303,-0.0156798046082258,0.0053871432319283,-0.0010762554593384,0.0013497073668986,-0.0243641734123229,-0.0009478977881371,-0.0068692057393491,0.0034779030829668,152156851
21,0.0225255023688077,-0.0224452093243598,3.4246331779286265e-05,0.0032558813691139,-0.0018273112364113,0.0045745451934635,-0.0188306011259555,0.0018989038653671,-0.0248394180089235,0.0278209187090396,17997657
22,-0.0011866723652929,-0.0268426835536956,-0.0094309411942958,-0.0004835146246477,-0.0093025509268045,-0.0007367173675447,-0.0169085543602705,0.0016295608365908,0.0078618600964546,0.0257432926446199,55713838
23,-0.0125195253640413,0.0263540241867303,-0.0156798046082258,0.0053871432319283,-0.0010762554593384,0.0013497073668986,-0.0243641734123229,-0.0009478977881371,-0.0068692057393491,0.0034779030829668,97622225
24,0.0033861261326819,-0.00229771155864,0.0269628185778856,-0.0074218166992068,-0.0024608122184872,-0.0087174279615283,0.0265340283513069,-0.0120736677199602,0.0028756721876561,-0.00259495456703,114553438
25,-0.000141154276207,-0.0401265434920787,-0.0096945222467184,-0.0005120723508298,-0.0178033672273159,-0.0014736617449671,-0.0601756945252418,-0.0017911614850163,-0.048014260828495,0.031725950539112,45138126
26,-0.0240926388651132,0.000469647347927,-0.0208480507135391,-0.0054509197361767,-0.0114269778132438,-0.0006603938527405,-0.0169002618640661,-0.0046712476760149,-0.0402103848755359,0.0104828272014856,51897534
27,-0.0101090176030993,-0.0321695916354656,-0.0049536041915416,-0.0008034044876694,-0.0113926120102405,-0.0028446363285183,-0.0155589552596211,-0.0037553051952272,-0.0238481201231479,0.0129405092447996,74451241
28,-0.0125195253640413,0.0263540241867303,-0.0156798046082258,0.0053871432319283,-0.0010762554593384,0.0013497073668986,-0.0243641734123229,-0.0009478977881371,-0.0068692057393491,0.0034779030829668,6629722
29,0.0050516994670033,-0.0150463823229074,-0.0129026975482702,0.0007562742102891,-0.0074802264571189,-0.0025038213934749,-0.0366036482155323,-0.0005561667494475,-0.0320960134267807,0.0118395537137985,111234596
30,0.0052096648141741,-0.0008731981506571,0.0088856099173426,0.0019645092543214,0.0028518578037619,0.0039055992383509,-0.0044028321281075,0.0048522227443754,0.008176926523447,0.0194124486297369,126273707
31,0.0058560352772474,-0.0178011432290077,-0.0107408706098794,0.0084116235375404,-0.0047217160463333,0.0095511777326464,-0.0187030714005231,0.0078195305541157,-0.0160694513469934,0.0123597234487533,99567684
32,-7.695850217714906e-05,-0.0101893525570631,-0.0071062170900404,-0.0029120112303644,-0.0048494157381355,0.0015751569299027,-0.0005166416522115,0.0015767327276989,0.0094940392300486,0.0217733029276132,102339234
33,-0.0178037788718938,-0.004693838302046,-0.000246517593041,-0.0103263892233371,-0.0088388174772262,-0.0043188463896512,-0.0152486590668559,-0.006427438929677,0.0007507584523409,-0.0087139569222927,1632500
34,0.0080814072862267,-0.0491218008100986,-0.0013219830580055,0.0156001560389995,-1.1761439964175224e-05,0.0027494847308844,0.005382165312767,0.0152107644826173,-0.0336480885744094,0.0454878136515617,35094579
35,0.0083907927226503,0.0205885440621852,-0.0292552763449946,-0.0008749158622754,0.0083408408066703,0.0099288782170231,0.0001885828071607,0.012933081023101,0.0079848929344449,-0.0066426418634655,16843548
36,0.0012511593522503,-0.0204846896231174,-0.0064185997471213,-0.0060786455869674,-0.0125442687422037,-0.0025111373979598,-0.0213204398751258,-0.0013609179295599,-0.0269506126642227,0.0183658376336097,106839634
37,0.0168681312352418,-0.0308140702545642,0.0020222277380526,0.0116448681801557,-0.0052612856961786,0.0097935693338513,-0.0417857989668846,0.0090302396565675,-0.0450004711747169,0.0345447212457656,134245346
38,-0.0197124481201171,0.0013807610375806,-0.0257437489926815,-0.0077637280337512,-0.0112452898174524,-0.0010040710913017,0.0143904648721218,-0.0002044166903942,-0.0137568674981594,-0.0050924811512231,5635960
39,-0.0009838903788477,-0.0239725820720195,-0.031519453972578,-0.0055089052766561,-0.0128356534987688,-0.0029370794072747,0.0080998837947845,6.359443068504333e-05,-0.0027665367815643,0.0044701667502522,142836663
40,-0.0177116617560386,-0.022246666252613,-0.0233839508146047,-0.0094535732641816,-0.0097980666905641,0.0016474308213219,0.0106983119621872,0.0049799922853708,-0.0216053873300552,0.0104916868731379,152156857
41,-0.0137165561318397,-0.0111463405191898,0.0138309355825185,-0.0050441920757293,-0.0090383253991603,-0.001455066492781,-0.0183731168508529,-0.0042781406082212,-0.0108209140598773,0.0141235347837209,84371480
42,-0.0254381448030471,-0.0184984076768159,-0.0337548404932022,-0.018232062458992,-0.0193400252610445,-0.0028777217958122,0.045239869505167,0.0003874058020301,-0.0192395690828561,-0.0119146667420864,46337905
43,0.0201538540422916,-0.0571614131331443,0.0072518298402428,0.0068503208458423,-0.0053593348711729,0.0094945281744003,-0.0504105314612388,0.0099810939282178,-0.044693686068058,0.0423685237765312,828136
44,-0.0071205226704478,-0.0014267246006056,-0.0085852574557065,-0.0041586048901081,-0.0082616843283176,-0.0052263671532273,-0.0166272260248661,-0.00523117557168,-0.0154074672609567,-0.0066301859915256,64471701
45,0.0177639017538645,-0.0539600765776935,-0.0034675118855251,0.0160043020593884,0.0022429098786296,0.002942086459309,-0.0641059430948681,-0.0028788737599449,-0.0073656825781776,-0.0249102701178458,80988232
46,-0.00850495044142,-0.02458331361413,-0.0477082096040248,-0.0076380632817745,-0.0160372927784919,0.0007153209298849,-0.015407346189022,0.0037822795566171,-0.0343839228153228,0.0106727071106433,76983686
47,0.058844044804573,-0.033825546503067,0.0074263415299355,0.0418026149272918,0.0087045775726437,0.0363781452178955,-0.0614670179784297,0.039794735610485,-0.0706185102462768,0.0678801238536834,148763951
48,-0.0040091583505272,0.0070033096708357,-0.0216869823634624,-0.0002918913960456,-0.0077698277309536,-0.0003990194527432,0.0008732681162655,0.0011312727583572,-0.0270028989762067,-0.0014021380338817,139654441
49,-0.0098590310662984,0.0006493011605925,0.0359668880701065,0.006643708795309,-0.0062937787733972,-0.0215949118137359,0.0473019517958164,-0.0172402560710906,-0.0127636035904288,-0.0236197747290134,55441816
50,-0.0147560909390449,0.0185888614505529,-0.0188090782612562,0.001298023853451,-0.0042382064275443,0.000617824785877,-0.0123138427734375,-0.0007167200092226,-0.0090108439326286,0.0008130364585667,2107983
51,0.0034306058660149,0.0423083417117595,0.0272176228463649,0.0031951733399182,0.0073924888856709,0.0018736314959824,-0.0405735597014427,0.0055583622306585,-0.0061446176841855,-0.019721895456314,57005772
52,0.035525057464838,0.005071205087006,0.0002396081108599,0.0196369681507349,0.0034762318246066,0.0151181453838944,-0.0317936800420284,0.0149132758378982,-0.0376758202910423,0.042233407497406,2565059
53,0.0085037387907505,-0.0226078946143388,-0.0272881314158439,0.0079156914725899,-0.0052012065425515,0.0108300847932696,0.0010570005979388,0.0118534201756119,-0.0311227869242429,0.0139759620651602,98114160
54,-0.016332522034645,0.0131156230345368,-0.0210147388279438,-0.0015841734129935,-0.0064668916165828,0.000101961515611,-0.0038202181458473,-0.0005537755787372,-0.0105203725397586,-0.0010652811033651,49562778
55,0.0054515255615115,-0.008974720723927,-0.0131460148841142,0.0049116499722003,-0.0025241058319807,0.0080852340906858,-0.0078169759362936,0.0103010470047593,-0.0250715855509042,0.0060805082321166,19226344
56,0.0042258268222212,0.0062503819353878,-0.0082954438403248,0.0025051063857972,0.0066093257628381,0.0031431852839887,0.0163214169442653,0.0034281045664101,-0.0012995104771107,0.0116128027439117,152156863
57,-0.0211422462016344,0.0498469360172748,-0.0061887819319963,-0.0178341306746006,-0.0020294382702559,-0.0132552962750196,0.0719964578747749,-0.0103077851235866,0.0094282990321516,-0.0344610810279846,136884961
58,-0.0027837455272674,-0.0340362265706062,0.0139259118586778,0.0040556597523391,-0.0046834135428071,0.0006510693347081,-0.0193898826837539,0.0072134993970394,-0.0334601625800132,0.0149776684120297,1632495
59,-0.0125195253640413,0.0263540241867303,-0.0156798046082258,0.0053871432319283,-0.0010762554593384,0.0013497073668986,-0.0243641734123229,-0.0009478977881371,-0.0068692057393491,0.0034779030829668,1027136
60,-0.0103450128808617,0.0031555413734167,0.0154999811202287,-0.0092981308698654,0.0028898026794195,-0.0065224799327552,0.0150090344250202,-0.0001432226272299,0.061812087893486,0.0221386514604091,17326775
61,0.005748770199716,-0.0198969058692455,-0.0092448657378554,0.000234096776694,-0.0092031536623835,0.0003735335194505,-0.0113768670707941,-0.0006681479280814,-0.0356915481388568,0.0137710543349385,2323034
62,0.0233218297362327,-0.0524602979421615,0.0109612150117754,0.0115016028285026,-0.0053052245639264,0.008407823741436,-0.077080063521862,0.0073164580389857,-0.0486027374863624,0.0486451908946037,152997654
63,-0.0016600536182522,-0.03379537910223,-0.0131001230329275,0.0032740007154643,-0.0108434995636343,0.0069462354294955,-0.0521585755050182,0.0061503103934228,-0.0419114083051681,0.0271592792123556,134245351
64,0.0106273163110017,-0.0240678377449512,-0.030913284048438,-0.0016319745918735,-0.0145588228479027,0.0018133240519091,-0.0383558012545108,-0.0001756842248141,-0.0381757318973541,0.0215573534369468,59403627
65,-0.0115854069590568,0.0119415037333965,-0.0146266911178827,0.0040067266672849,-0.0005533632356673,0.0028084693476557,-0.025304039940238,0.0020688406657427,-0.0116134202107787,0.0122137023136019,113169861
66,-0.0169582366943359,0.0109431641176342,-0.0218902099877595,-0.0027281839866191,-0.0073515092954039,-0.0001027970574796,-0.0004489033017307,-0.0004890989512205,-0.0111195389181375,-0.001810832414776,56800868
67,-0.0254381448030471,-0.0184984095394611,-0.0337548442184925,-0.018232062458992,-0.0193400289863348,-0.0028777210973203,0.0452398732304573,0.0003874056565109,-0.019239567220211,-0.0119146667420864,34373547
68,-0.0034375805407762,-0.0068782004527747,-0.0055844741873443,-0.0092442985624074,-0.0062708379700779,-0.0073738805949687,0.001488581765443,-0.0028358735144138,0.00146662350744,0.0248216241598129,3671199
69,-0.0079999547451734,-0.0088789518922567,-0.0108730979263782,-0.0048424266278743,-0.008429542183876,0.0014418929349631,-0.0030250339768826,0.0032045184634625,-0.0205352175980806,0.0015115262940526,210971961
70,0.0062063131481409,-0.0202320534735918,0.0012107134098187,0.0009412566432729,-0.0071579101495444,0.0011112268548458,-0.0249994806945323,0.0016205447027459,-0.0143451876938343,0.0056644119322299,163661563
71,-0.0277248471975326,0.0246892124414443,0.0023700154852122,0.0131387906149029,-0.0003988723037764,-0.0016840333119034,-0.0320192351937294,-0.0061394306831061,0.0025606690905988,-0.0159423947334289,57005722
72,0.0079439701512455,-0.0749579966068267,-0.0231660660356283,0.0177243649959564,-0.0054481201805174,0.0030578291043639,0.0031993594020605,0.0176572408527135,-0.0515786483883857,0.0463133007287979,93918535
73,-0.0013603980187326,-0.0228463448584079,-0.0453142151236534,-0.0028044818900525,-0.012998841702938,0.0020093536004424,-0.0337649546563625,0.004577056504786,-0.037169761955738,0.0185273867100477,49652179
74,0.0106457751244306,-0.0221557505428791,0.0024514894466847,0.0024257870391011,-0.0069609899073839,0.0018209088593721,-0.0214788690209388,-0.000158802838996,-0.0242619048804044,0.0200412441045045,188693345
75,-0.0107305981218814,-0.0156851205974817,0.0010478554759174,-0.0035780051257461,-0.0038700078148394,-8.718689787201583e-05,0.0140685597434639,-0.0009698243811726,0.0080596199259161,0.002757410518825,11100005
76,-0.0058632818982005,-0.0164980664849281,-0.0129943257197737,0.004640407860279,-0.0024023381993174,0.0027949255891144,-0.0200869850814342,0.0071759899146854,-0.0302038118243217,0.0284594371914863,17086876
77,-0.0090987617149949,-0.0264249555766582,-0.0118232732638716,0.0003320231917314,0.0008385916007682,0.0066917291842401,-0.027805995196104,0.0100994566455483,-0.024242628365755,0.0354686044156551,102112552
78,-0.01595414057374,-0.0109186908230185,-0.0236664339900016,-0.0167830362915992,-0.0176908913999795,-0.0022862777113914,0.0361450649797916,0.0003649624995887,-0.0223974864929914,-0.0066227982752025,68242601
79,-0.0059881811030209,-0.0041943108662962,-0.0258637573570013,-0.0037433914840221,-0.0064678043127059,0.0033341697417199,-0.0036670076660811,0.0063912393525242,-0.0306719560176134,0.0074327262118458,86451188
80,0.0225264895707368,-0.0142862377688288,-0.0212871227413415,0.0240532904863357,-0.0026430187281221,0.0176194068044424,-0.0335372239351272,0.0151240695267915,-0.0342960394918918,0.0212114714086055,17612683
81,0.023355236895015,0.0208295774250435,0.0215071009239913,0.0162430863495733,0.0079955810356416,0.0092068349211076,0.0500284613153909,0.00663281712177,0.0438349143364975,0.0108994914793452,59543419
82,0.0180787686258554,-0.0225356984883546,-0.0047197281382977,0.0020800805650651,-0.0059421961195766,0.0013394693378359,-0.0408147759735584,0.0007500196807086,-0.0242041368037462,0.0160384699702262,124205317
83,-0.0178617071360349,0.022941842675209,-0.001266625477001,-0.0163788571953773,-0.0088504208251833,-0.0111671583727002,-0.0197276342660188,-0.012889920733869,-0.0009085334604606,-0.0289228558540344,195065492
84,-0.0147560900077223,0.0185888614505529,-0.0188090782612562,0.001298023853451,-0.0042382064275443,0.000617824785877,-0.0123138427734375,-0.0007167202420532,-0.0090108439326286,0.0008130366913974,57544795
85,0.0025817181449383,-0.001524306833744,-0.002381841186434,-0.0049500484019517,-0.0047894865274429,0.0002970988280139,0.004849290009588,0.0013660262338817,-0.0254343133419752,-0.0003058104775846,85345213
86,0.0043333829380571,0.0107968030497431,-0.0037534143775701,-0.0020201834850013,-0.0020202943123877,0.004157836548984,-0.016948590055108,0.0015827978495508,-0.0160657670348882,-0.0010936019243672,14469100
87,0.0018611375708132,-0.0040427679196,0.0008956663659773,0.0030248004477471,-0.0021164340432733,0.0050679156556725,-0.0233065094798803,0.0070562711916863,-0.0194921866059303,0.0077655678614974,5315847
88,-0.0141597688198089,0.0062950197607278,-0.0124541530385613,-0.0001760250888764,-0.0029025892727077,-0.0085165919736027,0.0020118136890232,-0.013358206488192,0.0204805191606283,0.0124552380293607,134245359
89,-0.0254381448030471,-0.0184984132647514,-0.0337548404932022,-0.018232062458992,-0.0193400252610445,-0.002877720631659,0.0452398657798767,0.0003874044632539,-0.0192395690828561,-0.0119146667420864,99480601
90,0.0154836354777216,0.0069858701899647,-0.0209494605660438,-0.0037270211614668,-0.00871326867491,0.0013999608345329,-0.0179722756147384,-0.00244413735345,-0.0384456180036067,0.0271470267325639,46178447
91,0.0016810953384265,0.0405583791434764,0.0225123856216669,0.0034356024116277,0.0064635863527655,0.0018161633051931,-0.0387956239283084,0.0048447148874402,-0.006224091630429,-0.0171772055327892,60637252
92,-0.0375162437558174,0.0360778719186782,0.0280191656202077,-0.0250759962946176,0.0068261725828051,-0.0132597126066684,0.0494733937084674,-0.008409452624619,0.1152631863951683,0.0065335817635059,67809135
93,0.0034306058660149,0.0423083417117595,0.0272176228463649,0.0031951733399182,0.0073924888856709,0.0018736314959824,-0.0405735597014427,0.0055583622306585,-0.0061446176841855,-0.019721895456314,103553857
94,-0.0125195253640413,0.0263540241867303,-0.0156798046082258,0.0053871432319283,-0.0010762554593384,0.0013497073668986,-0.0243641734123229,-0.0009478977881371,-0.0068692057393491,0.0034779030829668,200750991
95,-0.0125195253640413,0.0263540241867303,-0.0156798046082258,0.0053871432319283,-0.0010762554593384,0.0013497073668986,-0.0243641734123229,-0.0009478977881371,-0.0068692057393491,0.0034779030829668,181695848
96,-0.016332522034645,0.0131156230345368,-0.0210147388279438,-0.0015841736458241,-0.0064668916165828,0.0001019615447148,-0.0038202181458473,-0.0005537753459066,-0.0105203725397586,-0.0010652806377038,7308736
97,0.0131734944880008,-0.0296566449105739,0.0046868389472365,0.0012447462650015,-0.0054177641868591,0.0097710052505135,-0.0122854467481374,0.0061814826913177,-0.0125351035967469,0.0123511170968413,76169655
98,-0.0008171403314918,-0.0172857716679573,-0.0191432312130928,-0.0001736970152705,-0.0101192332804203,-0.001320265000686,-0.0475292950868606,0.000551791395992,-0.0376203469932079,0.0173383224755525,17614637
99,-0.0021004255395382,-0.0483903214335441,0.015279185026884,0.0031040399335324,-0.0008891813922673,-0.0019301447318866,0.0181417409330606,-0.0006649729330092,-0.0192776210606098,0.031694795936346,129997203
100,0.0298927929252386,-0.048759676516056,-0.0033238704781979,0.0104088634252548,-0.0092776007950305,0.0056082252413034,-0.0587478876113891,0.0039821648970246,-0.0452666953206062,0.0271086245775222,86981001
101,0.0096176415681838,0.0153630748391151,0.0015522867906838,0.0020186421461403,-0.0034902147017419,0.0047272341325879,-0.0165128204971551,0.0097471307963132,-0.0126554518938064,0.0150570413097739,178303212
102,0.0224069450050592,-0.0091255689039826,0.0187452528625726,0.0154434982687234,0.0101229976862668,0.0153255211189389,-0.0046013789251446,0.0144081646576523,0.001796745462343,0.0290318466722965,58693284
103,0.0058850264176726,-0.0166180804371833,0.0015719505026936,0.0037657825741916,-0.0085267340764403,0.0016644638963043,-0.0280156452208757,0.0005492182681336,-0.0396392121911048,0.0365181379020214,203148074
104,-0.0009969691745936,-0.019872898235917,-0.0036741041112691,-0.0033721963409334,-0.0061601283960044,-0.0009635317837819,0.0037236858624964,0.0026936042122542,-0.00895815808326,-0.0043441783636808,17516504
105,-0.0030982098542153,-0.041734367609024,-0.0407063476741313,-0.0119351213797926,-0.0132909510284662,-0.0130425635725259,-0.0112789440900087,-0.0228218715637922,-0.0201369635760784,-0.0064911204390227,51846914
106,-0.0155171211808919,0.0059477370232343,-0.0159031506627798,-0.006600865162909,-0.0081588961184024,-0.000392684014514,0.0058926241472363,0.0013591860188171,-0.0133138783276081,-0.007299595978111,212958532
107,-0.0104738036170601,0.0104906149208545,-0.009782625362277,-0.008907962590456,-0.0029437893535941,-0.0061811916530132,-2.1176878362894055e-05,-0.0081367576494812,0.0067740525119006,-0.004926674067974,2135522
108,0.0044787926599383,-0.0200395993888378,0.0023105461150407,-0.000774364802055,-0.0039051093626767,0.0037408401258289,-0.0095214461907744,0.0026524462737143,0.008730499073863,0.0203952845185995,90910059
109,-0.0145427864044904,0.0015458040870726,-0.0191888269037008,-0.010526979342103,-0.0069548422470688,-0.0046623949892818,-0.0012031621299684,-0.0046286457218229,-0.0217876732349395,-0.017304241657257,1629358
110,-0.0147560909390449,0.0185888614505529,-0.0188090782612562,0.001298023853451,-0.0042382064275443,0.000617824785877,-0.0123138427734375,-0.0007167200092226,-0.0090108439326286,0.0008130364585667,134245357
111,-0.0184076111763715,0.0059110578149557,-0.0239180997014045,-0.0053780833259224,-0.0094005689024925,-0.0005770832067355,0.0073601524345576,-0.0003392887301743,-0.0125074051320552,-0.003537765238434,2037677
112,0.0019406357314437,-0.0057246000505983,-0.0272880252450704,-0.0104898996651172,4.635332152247429e-05,-0.0003902267781086,0.0354617126286029,-0.0010422783670946,-0.0049070650711655,0.0188467260450124,71041493
113,-0.0030042473226785,0.0291975364089012,-0.0145053956657648,-0.002752952510491,0.0016580820083618,0.0032674046233296,0.0020706746727228,0.0049092527478933,-0.0161209013313055,-0.000564904010389,99470365
114,-0.0210651401430368,-0.0033156587742269,-0.0276363566517829,-0.0102368537336587,-0.0131576564162969,-0.0014467185828834,0.0216785836964845,-6.459956057369709e-05,-0.0150521444156765,-0.0067042079754173,1261561
115,-0.0290032383054494,0.0352755188941955,0.0158720985054969,-0.0212358217686414,0.0032063703984022,-0.0112977670505642,0.0370090492069721,-0.0073958090506494,0.0879925936460495,0.0034746374003589,41571963
116,-0.0092362957075238,-0.0223509296774864,-0.0148830376565456,-0.0019433019915595,-0.0079489257186651,0.0021358584053814,-0.0264654569327831,0.0036424812860786,-0.0283417291939258,0.0231956019997596,51113095
117,-0.0254381448030471,-0.0184984095394611,-0.0337548442184925,-0.018232062458992,-0.0193400289863348,-0.0028777210973203,0.0452398732304573,0.0003874056565109,-0.019239567220211,-0.0119146667420864,76169642
118,0.0050877835601568,-0.0129679441452026,-0.0027813159395009,-0.0069248569197952,-0.0081897107884287,-0.0026008274871855,-0.0335604101419448,-0.0043711382895708,-0.0292260013520717,0.0090095549821853,109965166
119,-0.0254381448030471,-0.0184984095394611,-0.0337548442184925,-0.018232062458992,-0.0193400289863348,-0.0028777210973203,0.0452398732304573,0.0003874056565109,-0.019239567220211,-0.0119146667420864,84279791
120,-0.0287568848580122,0.0326704420149326,0.0127061661332845,-0.0144010987132787,0.0040570022538304,-0.0081402789801359,0.0235992278903722,-0.0057947724126279,0.0724655464291572,0.0054628127254545,194171766
121,0.006224375218153,-0.0298378448933362,-0.0265120211988687,0.0127907572314143,-0.0025766976177692,0.0073741879314184,-0.0433420203626155,0.00961150880903,-0.0360816679894924,0.0335081703960895,18271679
122,-0.0024050155188888,-0.0203366000205278,-0.0022041026968508,0.000915304000955,-0.0011231009848415,-0.0002986144390888,0.0066314567811787,0.0014521054690703,-0.0111043192446231,0.0269935298711061,58470789
123,-0.0347795002162456,0.0277726128697395,0.0179495699703693,-0.0228971485048532,0.0030272807925939,-0.0111788464710116,0.0456468127667903,-0.0067832092754542,0.0918532386422157,0.0043302555568516,4194332
124,-0.0008051441982388,-0.0379349514842033,0.0177689045667648,0.0041096624918282,0.000782823190093,-0.0013915480813011,0.0095223756507039,-6.237183697521687e-05,-0.0175304748117923,0.0273429937660694,18167326
125,-0.0073992758989334,-0.0068655670620501,-0.0024638893082737,-0.0029121951665729,-0.0006646327674388,0.0032996474765241,-0.0189513117074966,-0.0026462660171091,-0.0200275406241416,-0.0093804588541388,84351638
126,-0.0192211866378784,-0.0062177763320505,-0.0023382999934256,0.0060001835227012,0.0037400829605758,0.00859235227108,-0.0277036484330892,0.0124459164217114,-0.018196664750576,0.0071982690133154,77891076
127,0.0071945674717426,0.0144409639760851,-0.0312396734952926,-0.006178964395076,-0.0160908065736293,-0.003138412721455,-0.0227083209902048,-0.0122408289462327,-0.0639320760965347,0.0176486875861883,179755765
128,0.0186454597860574,0.0046531427651643,-0.0128101333975791,0.0165272410959005,-0.0020695724524557,0.0168297868221998,-0.0085810907185077,0.0146480621770024,-0.0502461493015289,0.0249761138111352,82816346
129,-0.0254381448030471,-0.0184984095394611,-0.0337548442184925,-0.018232062458992,-0.0193400289863348,-0.0028777210973203,0.0452398732304573,0.0003874056565109,-0.019239567220211,-0.0119146667420864,30401956
130,-0.0073562026955187,-0.0068839048035442,-0.0088426358997821,-0.009848752990365,-0.005943352356553,-0.0083940057083964,-0.0074557671323418,-0.0109113613143563,0.0020220032893121,-0.003802940249443,109598935
131,-0.0197124481201171,0.0013807610375806,-0.0257437489926815,-0.0077637280337512,-0.0112452898174524,-0.0010040710913017,0.0143904648721218,-0.0002044166903942,-0.0137568674981594,-0.0050924811512231,111304309
132,-0.0084224849545832,0.0051082421860601,-0.0460290708121963,-0.0042517246255902,-0.0073697772552125,-0.0078413153225364,-0.0557519664833764,-0.0134179175198751,-0.0200546018056478,-0.0102026649842427,134245353
133,0.0122551646624474,0.0179894529889324,0.0169717898162816,-0.0060872611207731,0.0031938822682219,-0.0033710254949974,0.0585139415572585,-0.0054399138782032,-0.0090465684720747,-0.029183103665163,32800026
134,0.0048028263263404,-0.0399781838059425,-0.0128941144794225,0.0102280303835868,0.000267744413577,0.0089189214631915,-0.0289278496056795,0.0033671208657324,-0.0131065426394343,0.0378356203436851,57241602
135,0.0233714058995246,-0.034209344536066,0.0050389617681503,-0.0006243281532078,-0.0071051972918212,0.0093049108982086,-0.0056962282396852,0.0077204378321766,-0.0305053330957889,0.0251915268599987,7946252
136,0.0064773303456604,0.0112071027979254,0.0091763688251376,-0.0122097767889499,-0.0044514643959701,-0.0081735858693718,-0.0413130037486553,-0.0076700337231159,0.0028184808325022,0.0041444581001996,108107289
137,-0.0177762936800718,-0.0071835927665233,-0.0309915710240602,-0.0107626877725124,-0.0175520088523626,-0.0037995195016264,-0.0032194070518016,-0.0039601135067641,-0.0156263373792171,0.0004207639722153,64185077
138,-0.0229478143155574,-0.0098521690815687,-0.0302705019712448,-0.0136789660900831,-0.0158193036913871,-0.002062797313556,0.0318222343921661,0.0001299993600696,-0.0168549232184886,-0.0089474264532327,83511139
139,0.0262785702943801,0.002214863197878,-0.0013129159342497,0.0079224230721592,-0.0024964429903775,0.008021468296647,-0.024895628914237,0.0077347597107291,-0.0202098991721868,0.0150643633678555,50343962
140,-0.007488726325707,-0.0430300041280887,0.0321289183776011,0.0083046726454121,-0.0066282592392046,-0.0007010111646998,-0.0159666184108768,0.0055946885206493,0.0128138552368933,0.0149298127090341,199050935
141,-0.0154202478006482,0.0032866213005036,-0.0214316993951797,-0.0056138536892831,-0.0083825625479221,0.0002029363531619,0.0078913522884249,0.0011269212700426,-0.0167343281209468,0.0032258331775665,50820032
142,0.0214478634297847,-0.0117466589435935,0.012680540792644,0.0180453322827816,0.0037785461172461,0.0114746578037738,-0.0114765670150518,0.0098031079396605,-0.0134720802307128,0.0247906502336263,82020498
143,-0.0129562420770525,0.0056811533868312,-0.0101725030690431,-0.0061566908843815,-0.0062778494320809,0.0002598349237814,0.0007481158245354,0.0028389876242727,-0.0139974150806665,-0.0066777262836694,9474028
144,-0.0125195253640413,0.0263540241867303,-0.0156798046082258,0.0053871432319283,-0.0010762554593384,0.0013497073668986,-0.0243641734123229,-0.0009478977881371,-0.0068692057393491,0.0034779030829668,55179313
145,0.0068477373570203,-0.0519295819103717,-0.0247495751827955,0.0067885522730648,-0.0114677492529153,0.0018295631743967,-0.0065321922302246,0.010027359239757,-0.0473162978887558,0.0229916255921125,60392809
146,0.0008040908724069,-0.0186230596154928,-0.0075756954029202,0.0049171522259712,-0.0140407625585794,-0.0015867503825575,-0.0697942897677421,-0.0040692342445254,-0.0403020642697811,0.0268331263214349,92235366
147,0.0018541668541729,0.0191050413995981,-0.0147330313920974,-0.0015958528965711,-0.0037690075114369,2.27377749979496e-05,-0.0193442068994045,-0.0031730881892144,-0.0248936973512172,-0.0030961176380515,93296295
148,0.0070059765130281,-0.0097851194441318,-0.0024666939862072,0.0011917799711227,-0.0085775852203369,0.0004821666516363,-0.038231074810028,0.0010518935741856,-0.0438453517854213,0.0174754131585359,3352568
149,-0.0216798409819602,0.005523229483515,-0.0091086430475115,-0.0098500940948724,-0.0038565853610634,-0.0023960107937455,0.0128751127049326,-0.000201043614652,0.0165389589965343,0.0063645634800195,79219366
150,-0.0156070981174707,0.0156342182308435,-0.0199997667223215,-0.0002578829880803,-0.0054413247853517,0.0003393442020751,-0.0077286944724619,-0.0006287556607276,-0.0098257381469011,-0.0002009416930377,193273536
151,0.0148962792009115,0.0121963070705533,-0.0076106311753392,0.0019131298176944,-0.0079286592081189,-0.0002188985235989,-0.0531305037438869,-0.0050830328837037,-0.0623610951006412,0.0474522337317466,5434805
152,-0.0128421075642108,-0.0328088477253913,-0.0031957796309143,0.0069774994626641,-2.101995050907135e-05,0.011304946616292,-0.0227706041187047,0.0130458790808916,-0.0231848917901515,0.0195323880761861,115765914
153,0.0095667522400617,-0.0242108535021543,-0.0127130523324012,0.0076896725222468,-0.0077273119240999,0.0039851907640695,-0.0257335845381021,0.0053824782371521,-0.0377433784306049,0.0154883256182074,2860796
154,0.0012115691214358,0.0392948985574639,0.0029661000148116,0.0099902438490369,0.0104301277308141,0.0068763359872503,0.0294143724535452,0.0156635887212079,0.0250618161306975,0.0264796040798035,125480482
155,0.0151441870257258,-0.0430685505270957,-0.0014624227769672,0.0048390091396868,-0.0090527711436152,0.0049324338324368,-0.0392417460680007,0.001717536477372,-0.0370236635208129,0.0268254838883876,169366451
156,0.0204069316387176,-0.011401830241084,-0.0187558196485042,0.0029489486478269,-0.0126411011442542,0.0031456821598112,-0.0376380831003189,0.0037378631532192,-0.0350343734025955,0.0206719487905502,14884938
157,0.0392749607563018,0.020765371620655,-0.000588399474509,0.0186685286462306,0.0114899678155779,0.013517452403903,-0.036269262433052,0.0107602216303348,-0.0237458236515522,0.0321451760828495,55614776
158,0.0218598768115043,-0.0297038257122039,-0.0240593384951353,0.0168467089533805,-0.0019706883467733,0.0151819912716746,-0.0198043659329414,0.015414509922266,-0.0394212938845157,0.0258133150637149,15738922
159,0.0062477411702275,-0.032632015645504,-0.0134448679164052,-0.0045095854438841,-0.0112410765141248,0.0040908437222242,-0.0223822202533483,-0.0014997811522334,-0.0188778713345527,0.0069976621307432,83380751
160,-0.0107632521539926,-0.0145108336582779,-0.0294631253927946,-0.0044198716059327,-0.0101959416642785,0.0013744990574195,-0.0150561649352312,0.002275095321238,-0.0259326286613941,0.0107266912236809,1284914
161,-0.0254381448030471,-0.0184984095394611,-0.0337548442184925,-0.018232062458992,-0.0193400289863348,-0.0028777210973203,0.0452398732304573,0.0003874056565109,-0.019239567220211,-0.0119146667420864,3998623
162,0.0289465002715587,-0.0078767463564872,-0.0047874129377305,0.0158537104725837,0.0011985078454017,0.0189802478998899,-0.0195234827697277,0.0145455440506339,-0.0513370633125305,0.0413133837282657,3777800
163,-0.0401343144476413,0.0316387936472892,-0.006896152626723,-0.0060094809159636,-0.0052857347764074,0.0006548810051754,0.0100190946832299,0.0007887474494054,-0.003161669941619,-0.0050332387909293,195760279
164,-0.0247624665498733,0.0087544098496437,0.0071248081512749,-0.0183392092585563,-0.0039407610893249,-0.0101120192557573,0.0339355356991291,-0.0080370949581265,0.0289401337504386,-0.0038793666753917,164950564
165,0.030505359172821,-0.0252717267721891,-0.0230963192880153,0.0248650386929512,0.0039637787267565,0.0197156816720962,-0.0275829657912254,0.0192858539521694,-0.0388256721198558,0.0307586379349231,7908339
166,0.0299876723438501,-0.0334545597434043,-0.0010983853135257,0.0181875191628932,-0.0039113694801926,0.0147613296285271,-0.0415727794170379,0.0164938624948263,-0.039714366197586,0.0383372083306312,90166650
167,0.0006653079763054,-0.0087784472852945,0.0040345210582017,-0.0019818977452814,-0.0016712975921109,0.0012797005474567,-0.0030382391996681,0.0023678475990891,0.0212882291525602,0.0197775792330503,65079014
168,0.0055044484324753,-0.0245312806218862,-0.0249303746968507,0.0044585051946341,-0.0119303669780492,8.273869752883911e-05,-0.0257119089365005,-0.0014899324160069,-0.0524702295660972,0.0173589270561933,66117517
169,-0.0163468569517135,0.0269726198166608,-0.0167643204331398,-0.0079262647777795,9.544784552417696e-05,-0.0064282552339136,0.007136913947761,-0.0033498778939247,0.0010338283609598,-0.0105646420270204,99386143
170,-0.0125195253640413,0.0263540241867303,-0.0156798046082258,0.0053871432319283,-0.0010762554593384,0.0013497073668986,-0.0243641734123229,-0.0009478977881371,-0.0068692057393491,0.0034779030829668,96457658
171,-0.0014502557460218,-0.0020780430641025,0.0041343411430716,-0.0003917549038305,-0.0048634926788508,0.0023078536614775,-0.0125657469034194,0.0007824166095815,-0.0151652507483959,0.0154019407927989,19550437
172,-0.016332522034645,0.0131156230345368,-0.0210147388279438,-0.0015841736458241,-0.0064668916165828,0.0001019615447148,-0.0038202181458473,-0.0005537753459066,-0.0105203725397586,-0.0010652806377038,87029402
173,0.0011952989734709,-0.0348707847297191,-0.0069152479991316,0.0011778832413256,-0.0130085069686174,0.0035417978651821,-0.034974992275238,0.005205163732171,-0.0385166257619857,0.0219181980937719,102675336
174,-0.0254381448030471,-0.0184984095394611,-0.0337548442184925,-0.018232062458992,-0.0193400289863348,-0.0028777210973203,0.0452398732304573,0.0003874056565109,-0.019239567220211,-0.0119146667420864,49331390
175,0.0306113418191671,-0.0369797870516777,0.005768853239715,0.0022296882234513,-0.0148335173726081,0.002863499103114,-0.0404522344470024,0.0002998104318976,-0.0469587445259094,0.0270117633044719,189822176
176,0.0096704354509711,-0.0422745384275913,-0.0066851428709924,0.0076614683493971,-0.0056803342886269,0.0042175846174359,-0.0063266353681683,0.0078754723072052,-0.0404558703303337,0.0369194038212299,52080229
177,0.0035256845876574,-0.0129222283139824,-0.0045657409355044,0.0016766260378062,-0.0044967010617256,0.0089985467493534,0.0245962105691432,0.0120678357779979,-0.0128624131903052,0.0088462922722101,110111095
178,0.0006316704675555,0.0247826296836137,-0.0355619974434375,-0.0099067473784089,-0.0165256895124912,-0.0011851753806695,-0.0090536288917064,-0.0124264396727085,-0.0623944550752639,0.0079579427838325,83551433
179,-0.0375162437558174,0.0360778681933879,0.0280191674828529,-0.0250759962946176,0.0068261721171438,-0.0132597126066684,0.0494733862578868,-0.0084094535559415,0.1152631789445877,0.0065335822291672,195227039
180,-0.0510995611548423,0.0153007833287119,-0.0056290109641849,0.0038591176271438,-0.0068270862102508,0.0006671999581158,0.0225256420671939,0.0001956192427314,-0.0059357676655054,-0.0201990939676761,4687741
181,0.0103504508733749,-0.0216860212385654,-0.0263150110840797,-0.0067063737660646,-0.0078297713771462,0.0052348915487527,-0.0090388813987374,0.00487911561504,-0.0123962992802262,0.0187598932534456,74781242
182,-0.0087539069354534,0.0207605231553316,-0.0006658365018665,-0.002574541606009,-0.0024200528860092,0.0003585584345273,-0.0116357393562793,0.0025243354029953,-0.0101523641496896,-0.0120197059586644,52422878
183,-0.0243016220629215,-0.0190497562289237,-0.0322293303906917,-0.0169407986104488,-0.0179364625364542,-0.0022120987996459,0.0401590056717395,0.0010629467433318,-0.0195875652134418,-0.0086188223212957,63078310
184,0.0008459265809506,-0.0105885760858654,0.0023707109503448,-0.0022865645587444,-0.0076219784095883,-0.0004586107097566,-0.0146341938525438,-3.907375503331423e-05,-0.0235793404281139,0.0097157191485166,7798401
185,0.0135293835774064,0.0092137632891535,0.00583310239017,0.0132664395496249,0.0059140971861779,0.0096433293074369,0.020892072468996,0.0093698725104331,1.4551915228366854e-07,0.0232755318284034,97205149
186,0.0219299551099538,-0.0426830425858497,-0.0119653111323714,0.0063148285262286,-0.0037995912134647,0.0083927307277917,-0.0092522772029042,0.0085173575207591,-0.0196152385324239,0.0309281088411808,2045233
187,0.0115269441157579,-0.0228241942822933,-0.0038470716681331,0.0185395944863557,0.0016457358142361,0.0177355371415615,-0.0206632409244775,0.010614801198244,-0.0475346744060516,0.0115937441587448,213759518
188,0.0033211736008524,-0.0293722860515117,0.0109103266149759,0.0020689093507826,0.0019552402663975,0.0019338448764756,-0.005756972823292,0.0023749112151563,-0.0005887406878173,0.0263450536876916,44976789
189,0.013679813593626,0.0033974435646086,-0.0161329172551631,0.0097827296704053,0.0035134071949869,0.0033296563196927,-0.0261281542479991,0.0012286333367228,-0.0023715887218713,0.0256330277770757,189470222
190,0.0246086865663528,-0.0438169054687023,-0.0067704608663916,0.0126293925568461,0.0041949241422116,0.0270901005715131,-0.0433199182152748,0.0149735789746046,-0.025341322645545,0.0562663376331329,45744269
191,-0.0021605943329632,-0.0047278758138418,-0.013478796929121,-0.0043331235647201,-0.0104468502104282,-0.0006529193487949,-0.0044676982797682,-0.0049514374695718,-0.028708416968584,0.0053103282116353,52277738
192,-0.0039290091954171,-0.0526291988790035,-0.0096337348222732,0.0057334150187671,-0.0029262213502079,-0.002410733141005,0.0111306710168719,0.0098304599523544,-0.0092114713042974,0.0356421321630477,53614250
193,-0.0438560470938682,0.0436137802898883,0.0237496495246887,-0.0214699916541576,-0.0043889158405363,-0.0123659064993262,0.0250047873705625,-0.0092924535274505,0.0333147533237934,-0.0010046877432614,129694210
194,-0.0182244554162025,-0.0019891452975571,-0.0176879484206438,-0.014447933062911,-0.0109444027766585,-0.0117135997861623,-0.0183161813765764,-0.0119885597378015,-0.0049957814626395,-0.0193679612129926,195211760
195,-0.0254381448030471,-0.0184984132647514,-0.0337548404932022,-0.018232062458992,-0.0193400252610445,-0.002877720631659,0.0452398657798767,0.0003874044632539,-0.0192395690828561,-0.0119146667420864,30401979
196,-0.0207372326403856,0.0160445347428321,0.0012480809818953,-0.0132294632494449,-0.0036074393428862,-0.0044383355416357,0.0199772659689188,-0.0009520677267573,0.0244557298719882,-0.0075249909423291,83916654
197,-0.0133465258404612,0.0023958506062626,-0.0090712392702698,-0.0066923340782523,-0.0026510264724493,-0.0030383910052478,0.0129571631550788,-0.0050342348404228,-0.0018281056545674,-0.0229893624782562,55915048
198,0.0057560326531529,0.007174496538937,-0.014433835633099,0.0035146446898579,0.0005526131717488,0.0078666899353265,-0.0177998282015323,0.0098182782530784,-0.0271260812878608,0.0236481130123138,56232025
199,-0.0073803095147013,0.0087999841198325,0.0141642894595861,-0.0054771704599261,0.0024546082131564,-0.0002574796089902,0.020144360139966,-0.0032153818756341,0.0276407022029161,0.0051064449362456,31260463
200,0.0017991515342146,-0.0153158465400338,-0.0067854644730687,0.0118421409279108,-0.0007318394491448,0.0127719799056649,-0.0278176609426736,0.0125427385792136,-0.0172016415745019,0.0321779064834117,58026824
201,-0.0163416657596826,-0.0229112729430198,-0.0215450711548328,-0.0078970454633235,-0.0081061674281954,0.0024497923441231,0.0045736944302916,0.0057943086139857,-0.0220248736441135,0.0144645925611257,1457158
202,-0.0096784885972738,-0.0336277224123477,-0.0059370109811425,-0.007661928422749,-0.0106773357838392,-0.0036753206513822,-0.0285551082342863,-0.0033543717581778,-0.0062096109613776,0.0008929354371502,127973630
203,-0.0197124481201171,0.0013807610375806,-0.0257437489926815,-0.0077637280337512,-0.0112452898174524,-0.0010040710913017,0.0143904648721218,-0.0002044166903942,-0.0137568674981594,-0.0050924811512231,69375516
204,-0.0121063850820064,-0.0151578001677989,-0.0236355327069759,-0.0096657387912273,-0.0141978655010461,-0.0033149952068924,0.0176595505326986,0.000394124770537,-0.0242056250572204,0.0063754827715456,98109744
205,0.0228205770254135,-0.0421556085348129,-0.0118307350203394,0.0012489282526075,-0.0089245978742837,0.0030807014554739,-0.0224692858755588,0.0047092996537685,-0.0349256433546543,0.0283747166395187,215870218
206,-0.0176178850233554,-0.0081478562206029,-0.0230547133833169,-0.0068729524500668,-0.009043182246387,0.0007785947527736,0.0070000663399696,0.0025416193529963,-0.0171168465167284,0.0046568810939788,48578381
207,-0.0049520162865519,0.0079894559457898,-0.015149051323533,-0.0010113182943314,0.0021443560253828,-0.0056660356931388,0.0093710776418447,-0.0032937370706349,0.0047983359545469,-0.0140429446473717,112629130
208,0.0170065150654051,0.0117394531841392,0.0278960544902132,0.0322540117205642,0.0065839518932745,0.0053936718691386,0.0177158013166936,0.0211340062965554,0.0271368113664072,-0.0073355423199989,46171824
209,-0.037606656551361,-0.016152948141098,0.0030466103926301,-0.027669221162796,-0.0088516538962721,-0.0190698690712451,0.0463175773620605,-0.0173344053328037,0.0611221231520175,-0.0252469945698976,199306992
210,0.0066877258941531,0.0431996285915374,0.0249620452523231,0.0064573064446449,0.0086285509169101,0.0045868167653679,-0.0252668019384145,0.0056508174166083,0.0012270333245396,-0.0142233502119779,55422058
211,0.0243435129523277,-0.0409200601279735,-0.0036265244707465,0.0168305784463882,-0.0021738472860306,0.005570123437792,-0.0421886518597602,0.0029555622022598,-0.0398886539041996,0.0291890762746334,138830239
212,-0.0254381448030471,-0.0184984132647514,-0.0337548404932022,-0.018232062458992,-0.0193400252610445,-0.002877720631659,0.0452398657798767,0.0003874044632539,-0.0192395690828561,-0.0119146667420864,98091595
213,0.0337291248142719,-0.0578350462019443,0.0223001185804605,0.0125548914074897,0.0002133777597919,0.0124812638387084,-0.06477852165699,0.0141983889043331,-0.0504394099116325,0.0349555350840091,101157977
214,0.0088564669713377,-0.0385283343493938,-0.0009358110837638,0.0052163903601467,-0.0077129839919507,0.0049847997725009,-0.0544340126216411,0.0047790338285267,-0.0401888936758041,0.0356287062168121,79785773
215,0.0081346808001399,-0.0718263536691665,-0.0199154894798994,0.0201624296605587,-0.0033982323948293,0.0026844795793294,0.0010803658515214,0.017271427437663,-0.0503252074122428,0.0441661737859249,115011586
216,0.002013741293922,-0.0029529391322284,0.0121237430721521,0.0012466516345739,-0.0008094341028481,0.0043766489252448,0.0059959194622933,0.0084801949560642,-0.0045027621090412,0.006160132586956,201816469
217,0.0123828081414103,-0.0067272055894136,0.0124838529154658,0.0089142890647053,-0.001541051082313,0.0043182130903005,0.0017505770083516,0.0015062519814819,-0.0104917511343956,0.0096366684883832,58026802
218,0.0061370260082185,-0.0633376762270927,-0.0222509652376174,0.0138888107612729,-0.0094589302316308,-0.00012909155339,-0.0131562277674674,0.0107551515102386,-0.0442775189876556,0.0333417356014251,134307269
219,-0.0311354510486125,0.0295329801738262,0.0233494248241186,-0.0189624056220054,0.0071930466219782,-0.0091164167970418,0.043042778968811,-0.0034929914399981,0.0933765769004821,0.0084809819236397,52197511
220,0.01054497808218,-0.0292844846844673,0.0091920858249068,0.0050403284840285,-0.0028080476913601,0.0062715173698961,-0.039552129805088,0.0068521099165081,-0.027287459000945,0.0248866211622953,1394129
221,-0.0098930522799491,-0.0056090489961206,-0.0256548337638378,-0.006843295879662,-0.0076892608776688,-0.0017029780428856,-0.0172470435500144,0.001093856524676,-0.0074430620297789,0.0128263160586357,152997644
222,-0.0246555265039205,-0.0316839218139648,-0.0325619801878929,-0.0150572387501597,-0.0144920079037547,-0.0102110095322132,-0.0074696820229291,-0.0055160718038678,0.0109479939565062,-0.0370757579803466,38035180
223,0.0353688597679138,-0.0551938042044639,-0.0038068704307079,0.001150430412963,-0.0101568372920155,0.0004001101478934,-0.0437950380146503,0.0016908226534724,-0.0399329476058483,0.0421188846230506,99604430
224,-0.0182193517684936,0.0114275980740785,-0.014236768707633,-0.0054587256163358,-0.0057498691603541,-0.0019022130873054,-0.0011630478547886,-0.0015404738951474,-0.0082602063193917,-0.0061235162429511,1181559
225,-0.0197124481201171,0.0013807610375806,-0.0257437489926815,-0.0077637280337512,-0.0112452898174524,-0.0010040710913017,0.0143904648721218,-0.0002044166903942,-0.0137568674981594,-0.0050924811512231,49367038
226,0.0227328613400459,0.0017103471327573,0.0215595439076423,0.0033943594899028,-0.0014936707448214,0.0091958623379468,-0.0281726587563753,-0.0023394315503537,-0.001096824882552,0.0082393866032361,99092665
227,-0.0091199167072772,-0.039939809590578,-0.0031663822010159,-0.0053429407998919,-0.0055152252316474,-0.0056842165067791,-0.0190919544547796,-0.0037768573965877,0.001448736526072,0.006266294978559,84791675
228,-0.0184076111763715,0.0059110578149557,-0.0239180997014045,-0.0053780833259224,-0.0094005689024925,-0.0005770832067355,0.0073601524345576,-0.0003392887301743,-0.0125074051320552,-0.003537765238434,65819501
229,-0.0048659387975931,-0.0050796419382095,-0.0183298178017139,-0.0086524719372391,-0.0087381042540073,-0.00915112439543,-0.0198031831532716,-0.0078362971544265,-0.0120725985616445,3.200792707502842e-05,209877730
230,-0.0131578128784894,-0.0118347592651844,-0.0146214924752712,-0.0088228583335876,-0.0116276340559124,-0.0006333808414638,0.00079426553566,0.0021512708626687,-0.0227676685899496,-0.0001779233571141,34134703
231,-0.019126771017909,0.0034142055083066,-0.0249242931604385,-0.0066929208114743,-0.010417278856039,-0.0008124146843329,0.0112348729744553,-0.0002649535890668,-0.0131960418075323,-0.0043946388177573,105881940
232,-0.0006981426849961,-0.0296586453914642,-0.001151829957962,0.0100371204316616,-0.0032063557300716,0.0175517983734607,-0.012834258377552,0.0240189190953969,-0.0219247844070196,0.0261709559708833,67801698
233,0.012726841494441,-0.0031012017279863,0.0003551148111,-0.0008833301253616,-0.0016601369716227,0.0027453529182821,-0.0166544485837221,0.001237865188159,-0.0110729523003101,0.0089108515530824,184006479
234,0.0209723357111215,-0.011863830499351,0.0078705660998821,0.0127919437363743,-0.0009456235566176,0.0163266211748123,-0.0240451581776142,0.0118100550025701,-0.0021858063992112,0.0233963932842016,98079917
235,0.0034306058660149,0.0423083417117595,0.0272176228463649,0.0031951733399182,0.0073924888856709,0.0018736314959824,-0.0405735597014427,0.0055583622306585,-0.0061446176841855,-0.019721895456314,102488300
236,0.0323571115732193,-0.026211442425847,0.0114566441625356,0.0214982777833938,0.0006960991304367,0.023185221478343,-0.018128952011466,0.0239149183034896,-0.0512637048959732,0.0367081239819526,186297240
237,0.0045669293031096,0.0071387840434908,-0.0095031419768929,0.0038024806417524,-0.0031560615170747,0.00099605449941,0.0072901914827525,0.0005419992376118,8.237967267632484e-05,0.0082489904016256,87839561
238,-0.0125195253640413,0.0263540241867303,-0.0156798046082258,0.0053871432319283,-0.0010762554593384,0.0013497073668986,-0.0243641734123229,-0.0009478977881371,-0.0068692057393491,0.0034779030829668,56491568
239,0.0121331848204135,-0.013312742114067,-0.0051666097715497,-0.0023389845155179,-0.0072139212861657,-0.0015196050517261,-0.0103243105113506,-0.0013743006857112,-0.0333732478320598,0.0254564508795738,205932746
240,-0.0144170494750142,0.0159164723008871,-0.0117799686267972,-0.0086732115596532,-0.0048970310017466,-0.0056076440960168,0.0216140821576118,-0.0052846260368824,0.0048693502321839,-0.0031955637969076,51113107
241,-0.0158758088946342,-0.0359744429588317,-0.0300167575478553,-0.0082509219646453,-0.0148837510496377,-0.0016111884033307,0.0269660260528326,-0.0011402931995689,-0.0261678118258714,-0.0061173578724265,74738631
242,0.0067648087949083,-0.0182379544800172,-0.0354227585264874,0.0118615516004953,0.0155435393359908,-0.0008436879620329,-0.0167059619535171,0.0051225730046559,0.0308530946756333,-0.0025125663311186,94043093
243,-0.0158282481133937,0.0024394677020609,-0.0249610040336847,-0.0120320916175842,-0.010555412620306,-0.0110105434432625,-0.0193939302116632,-0.0130109461024403,-0.0208401251584291,-0.0182678513228893,98708407
244,-0.0125195253640413,0.0263540241867303,-0.0156798046082258,0.0053871432319283,-0.0010762554593384,0.0013497073668986,-0.0243641734123229,-0.0009478977881371,-0.0068692057393491,0.0034779030829668,128725950
245,0.0296852607280015,-0.0162748713046312,-0.0050656907260417,0.010218090377748,-0.0095251835882663,0.0078547988086938,-0.0521533265709877,0.0066603226587176,-0.0355742871761322,0.034367062151432,102523558
246,-0.0182519014924764,-0.0003887948114424,-0.0237985886633396,-0.0062899128533899,-0.0094895027577877,-7.93820945546031e-05,0.0081070149317383,0.000850818818435,-0.014542942866683,-0.0003988880198448,102122032
247,0.0057245818898081,-0.0104343527927994,-0.0008513224311172,0.0033782054670155,-0.0026944270357489,0.0103480108082294,0.0170892868191003,0.007169653661549,-0.0132660651579499,0.0215974729508161,19919865
248,-0.0148181514814496,0.0048379059880971,-0.019090523943305,-0.0011830234434455,-0.004937507212162,0.0014815123286098,-0.0088415797799825,0.0016764516476541,-0.0133930929005146,0.0065829930827021,76273564
249,-0.0097379563376307,0.0292628146708011,0.0062970044091343,0.0001091838348656,0.0024286694824695,-0.0002259593456983,-0.0246356129646301,0.0006361141568049,0.0045904135331511,-0.0044180229306221,100565256
250,0.0244674868881702,-0.0292089618742465,-0.0257743876427412,0.0189077351242303,0.0006993906572461,0.0158075653016567,-0.0245670136064291,0.0161878280341625,-0.042702417820692,0.0287711657583713,200394113
251,-0.0067590083926916,-0.0046683754771947,-0.0013678830582648,-0.0068303355947136,-0.0057289451360702,-0.0067761456593871,-0.0179553776979446,-0.0081115653738379,-0.0028061100747436,-0.0129388608038425,150718336
252,0.0054375324398279,-0.0065189935266971,-0.0034981768112629,0.0134278396144509,-0.0061951824463903,0.0083995899185538,-0.0372712165117263,0.011103581637144,-0.0383860506117343,0.0470027513802051,102421980
253,-0.0138398818671703,-0.0486628301441669,-0.001953340601176,0.0020824454259127,-0.0153314340859651,-0.0039772386662662,-0.0341199412941932,-0.0108317723497748,-0.0375282727181911,0.0210239179432392,84344367
254,-0.0126663222908973,0.0073201488703489,0.0109432060271501,-0.0046515651047229,0.0016442690975964,-0.0004637622332666,0.0069189509376883,0.0012432174989953,0.0356107056140899,0.0054301577620208,72497728
255,0.0072258715517818,-0.0511102266609668,-0.0049307397566735,6.53192400932312e-05,-0.0175083465874195,0.0008911076001822,-0.0550239235162735,0.0007310793735086,-0.0508616454899311,0.0331435948610305,68002205
256,-0.0127581637352705,0.0177218001335859,0.0010151586029678,-0.0038777999579906,-0.0043784203007817,0.0029830001294612,0.0050861020572483,-0.0036663208156824,-0.0121507458388805,0.0004385659412946,72898792
257,0.0207389295101165,0.0111911110579967,0.0065849106758832,0.0097265355288982,0.0127296801656484,0.0132028413936495,-0.0118896951898932,0.0100830998271703,-0.0014403746463358,0.0233811903744936,138460133
258,-0.0065155061893165,0.0009761867113411,-0.0092666586861014,-0.0072051002644002,0.0007079463684931,-0.0083954809233546,-0.0338873118162155,-0.0071903839707374,-0.013107331469655,-0.0114962495863437,99018577
259,0.0101476432755589,-0.0174065828323364,-0.0030482173897325,0.0027766923885792,-0.0047565838322043,0.0042489496991038,-0.0245260000228881,0.0038261297158896,-0.025116579607129,0.0153937209397554,206545451
260,-0.0175034925341606,0.0090500945225358,-0.0226530972868204,-0.0037250756286084,-0.0081223640590906,-0.0002812230377458,0.0024888515472412,-0.0004327404312789,-0.0116416560485959,-0.0024605027865618,56491611
261,0.0270793735980987,-0.036070916801691,-0.0020182298030704,0.0136823058128356,-0.0027488088235259,0.0092108510434627,-0.0297643318772315,0.0088931042701005,-0.0344911627471447,0.0243487041443586,108954955
262,-0.0228777416050434,-0.0077311471104621,-0.017743406817317,-0.0081027429550886,-0.0088545735925436,-0.0018678178312256,-0.0116195939481258,-0.0026588926557451,-0.0108755463734269,0.0069267805665731,47754644
263,-0.0227372329682111,0.0224607903510332,0.0062438696622848,-0.0133004505187273,-0.0006593968719244,-0.0055527603253722,0.0196945518255233,-0.0023739240132272,0.0401107147336006,-0.0036708067636936,59488156
264,0.0023733638226985,-0.0652772635221481,-0.0255666840821504,0.0119479587301611,-0.0106137655675411,-0.0025388998910784,-0.0042997244745492,0.0103652132675051,-0.0462768264114856,0.0308425370603799,173578723
265,-0.0054670246317982,0.0114720882847905,0.0020083454437553,0.0016957961488515,0.0022378128487616,0.0033454161603003,-0.0292077418416738,0.0057421610690653,-0.0134653449058532,0.0053904950618743,1489566
266,-0.0007644391153007,-0.0388760939240455,-0.0234818588942289,-0.0015869091730564,-0.0063730059191584,-0.0012310096062719,0.0170013159513473,0.0044095930643379,-0.0263777524232864,0.0160418264567852,195696960
267,0.0062749348580837,-0.0216577015817165,-0.0209430027753114,-0.0008988897316157,-0.0072325393557548,1.9151950255036357e-05,-0.026172075420618,0.002478415844962,-0.0518184527754783,0.0309728570282459,157676367
268,-0.0123507874086499,-0.0017058772500604,-0.0083230873569846,-0.0117095541208982,-0.0067441137507557,-0.010212019085884,-0.004335964564234,-0.0100592002272605,0.0015251527074724,-0.0109500661492347,47758813
269,-0.0203952621668577,0.0094831045717,-0.0021033720113337,-0.0131915267556905,-0.0059542823582887,-0.0056337895803153,0.0273065008223056,-0.0079551395028829,0.0296002496033906,-0.0042694611474871,94043087
270,-0.0040978584438562,0.0216795578598976,-0.0294982753694057,-0.0168937593698501,-0.0096235973760485,-0.0075104660354554,0.0044236732646822,-0.0041869990527629,-0.0168293993920087,-0.0081940842792391,60612444
271,0.014256807975471,-0.0335338488221168,-0.0128914238885045,0.0053912475705146,-0.0058915033005177,0.0066898241639137,-0.0176605340093374,0.0107785295695066,-0.0229854080826044,0.0198546200990676,189832432
272,-0.0163226616864664,0.0186369991853789,0.0233531259531495,-0.0068391901079597,-0.0106968184525114,-0.0106674775147959,-0.0105557527657271,-0.007698263760317,0.0445649568340904,-0.0260892804150244,83448924
273,-0.0001213278155773,-0.052324790507555,-0.0115841329097747,0.008054525591433,-0.004004503134638,0.0097251767292618,-0.0305011738091707,0.0109143313020467,-0.031001903116703,0.0244745295494794,968042
274,-0.0156070981174707,0.0156342182308435,-0.0199997667223215,-0.000257882871665,-0.0054413247853517,0.0003393442020751,-0.0077286944724619,-0.0006287558935582,-0.0098257381469011,-0.0002009419258683,63645659
275,0.0247597154229879,0.0169945228844881,0.0266044791787862,0.0182684045284986,0.0104866661131381,0.0155387753620743,-0.0471146143972873,0.0190194863826036,-0.0271650180220603,0.007857671007514,2052970
276,-0.0197124481201171,0.0013807610375806,-0.0257437489926815,-0.0077637280337512,-0.0112452898174524,-0.0010040710913017,0.0143904648721218,-0.0002044166903942,-0.0137568674981594,-0.0050924811512231,54209120
277,0.011416733264923,-0.0221417620778083,-0.0163278803229331,0.01061905734241,-0.0038886156398802,0.0096151735633611,-0.0265593435615301,0.0093382019549608,-0.0331042818725109,0.0227446518838405,107721773
278,-0.0081697609275579,-0.0179028734564781,0.0150554729625582,0.0007965678814798,-0.008369960822165,0.001016903319396,-0.0282735936343669,0.0044612139463424,-0.043106410652399,0.0183817632496356,170437794
279,-0.0134983900934457,-0.0240662321448326,-0.0109788384288549,-0.0104156685993075,-0.0122319022193551,-0.0055999048054218,0.0213601123541593,-0.0127766653895378,0.0018030249048024,-0.0094662643969058,7211039
280,-0.0013722094008699,-0.0041154990904033,-3.718421794474125e-05,-0.0015562045155093,-0.0072891232557594,-0.0013002420309931,-0.028401393443346,-0.0022168660070747,-0.0235938839614391,-0.0054591787047684,3443157
281,0.0121878953650593,0.0153367221355438,0.0067328498698771,0.0092302020639181,-0.0016232945490628,0.0098965754732489,-0.0394300930202007,0.0122486893087625,-0.0014985863817855,0.0153630999848246,195474892
282,-0.0092914449051022,0.0157959554344415,-0.0188568476587533,-0.0106384670361876,-0.0047594141215085,-0.0067640533670783,0.0183763094246387,-0.0093503408133983,-0.0101214842870831,-0.0055203074589371,7574988
283,-0.0058885030448436,0.0275029651820659,0.005016965791583,0.0001145278220064,0.0004858344909735,0.000914366915822,-0.021403718739748,0.0028913386631757,-0.0085917031392455,-0.0120377466082572,86366069
284,-0.0125195253640413,0.0263540241867303,-0.0156798046082258,0.0053871432319283,-0.0010762554593384,0.0013497073668986,-0.0243641734123229,-0.0009478977881371,-0.0068692057393491,0.0034779030829668,9949411
285,-0.016332522034645,0.0131156230345368,-0.0210147388279438,-0.0015841734129935,-0.0064668916165828,0.000101961515611,-0.0038202181458473,-0.0005537755787372,-0.0105203725397586,-0.0010652811033651,99092662
286,-0.0254381448030471,-0.0184984095394611,-0.0337548442184925,-0.018232062458992,-0.0193400289863348,-0.0028777210973203,0.0452398732304573,0.0003874056565109,-0.019239567220211,-0.0119146667420864,58425371
287,-0.0245068818330764,0.0152957718819379,-0.0011228594230487,-0.0159655697643756,-0.0007808269001543,-0.007248954847455,0.016614556312561,-0.0035665743052959,0.0560440421104431,0.0099035380408167,39833157
288,-0.0238469410687685,-0.0129738636314868,-0.031528502702713,-0.0153228510171175,-0.0170904509723186,-0.0023570233024656,0.0366666167974472,0.0002229353412985,-0.0177158936858177,-0.0100187398493289,13182786
289,-0.0199355036020278,0.01449825335294,-0.00826321169734,-0.0112043777480721,-0.0022643278352916,-0.0077501311898231,0.01572060957551,-0.0046725505962967,0.0046961517073214,-0.0083970725536346,15268755
290,-0.0032308008521795,0.0095484023913741,-0.0088452231138944,-0.0117038767784833,-0.010844905860722,-0.0118242306634783,-0.0181136801838874,-0.009176867082715,-0.0235333330929279,-0.0021516752894967,113607068
291,0.0008603846654295,0.0354586839675903,0.0198982693254947,0.0031993158627301,0.0060353353619575,0.0021873598452657,-0.0379589311778545,0.0052447784692049,-0.0075959106907248,-0.0131690762937068,69330138
292,0.0070097032003104,-0.0214673727750778,0.0016705642919987,0.0014403343666344,-0.0019545725081115,-0.0022949131671339,0.0082170888781547,0.0064630704000592,-0.0145024396479129,0.0056016910821199,59617193
293,0.0064940210431814,-0.0008075172081589,-0.007206333335489,0.003120296401903,-0.0058941063471138,0.0034021283499896,-0.0156735870987176,0.0023788975086063,-0.0321094393730163,0.0178467351943254,206966496
294,0.0129527729004621,-0.0214652176946401,0.004197824280709,0.0116434227675199,1.5622470527887344e-05,0.0079230377450585,-0.0578372739255428,0.0063165160827338,-0.0302903726696968,0.0338006801903247,47527154
295,0.0020190980285406,-0.0108086057007312,-0.0147311892360448,-0.0075153042562305,-0.0065082511864602,-0.0057897237129509,-0.0118595454841852,-0.0053528128191828,-0.0085689052939414,-0.0014137020334601,61913621
296,0.0143600758165121,-0.0148394703865051,-0.0067859590053558,-0.001184158725664,-0.008092338219285,0.0012339828535914,-0.0322806127369403,-0.0005087631288915,-0.0269591230899095,0.0252151470631361,34270534
297,-0.0060322796925902,-0.0313865318894386,0.0026672612875699,0.0004475286696106,-0.0116239748895168,-0.0031361354049295,-0.0249503068625926,-0.0075544901192188,-0.0399781763553619,0.0267993379384279,205180061
298,-0.0191360565109603,-0.036201277853723,-0.0043669679986155,0.0029352835686669,0.0033807718165605,0.0010113848776336,0.0001957443332182,0.0093796352593642,0.0011165002993896,0.0320354105347189,34373550
299,-0.037606656551361,-0.016152948141098,0.0030466103926301,-0.027669221162796,-0.0088516538962721,-0.0190698690712451,0.0463175773620605,-0.0173344053328037,0.0611221231520175,-0.0252469945698976,199307009
300,-0.015706056728959,-0.0034732948988676,-0.0204080119729042,-0.003720932174474,-0.006429024040699,0.0015324256382882,-0.0028455480933189,0.0026901774108409,-0.0159131288528442,0.0077824154868721,12713910
301,0.0047610979527235,-0.0208068564534187,-0.0179280135780572,0.0005759745836257,-0.003654696047306,0.0029697460122406,-0.0198798961937427,0.0042162369936704,-0.0463314354419708,0.0272254198789596,3193236
302,-0.0125195253640413,0.0263540241867303,-0.0156798046082258,0.0053871432319283,-0.0010762554593384,0.0013497073668986,-0.0243641734123229,-0.0009478977881371,-0.0068692057393491,0.0034779030829668,80628593
303,-0.0088834604248404,0.0086705274879932,-0.0143007561564445,-0.0035397275350987,-0.0060684336349368,0.0005079863476566,-0.0133334854617714,0.0026857294142246,-0.0165977831929922,-0.0050093992613255,85996097
304,-0.0125195253640413,0.0263540241867303,-0.0156798046082258,0.0053871432319283,-0.0010762554593384,0.0013497073668986,-0.0243641734123229,-0.0009478977881371,-0.0068692057393491,0.0034779030829668,16700200
305,-0.0005712169222533,-0.0371942296624183,0.0061514200642704,0.0056069744750857,-0.0024668280966579,-0.0027251071296632,-0.0030779731459915,0.0004662740975618,-0.0191878974437713,0.0238937456160783,159483171
306,0.0035483022220432,0.0232347454875707,0.0199876837432384,0.0061882296577095,0.0050097894854843,0.0086156809702515,-0.0329802595078945,0.0087556401267647,-0.024268951267004,0.0027536628767848,102483617
307,-0.0126663222908973,0.0073201488703489,0.0109432060271501,-0.0046515651047229,0.0016442690975964,-0.0004637622332666,0.0069189509376883,0.0012432174989953,0.0356107056140899,0.0054301577620208,6747650
308,0.0105411568656563,-0.0429809987545013,-0.0440568029880523,-0.0014867414720356,-0.0056446092203259,-0.002627560403198,0.0004993481561541,-0.0108094504103064,-0.021987110376358,-0.0010684626176953,2763553
309,-0.0218205191195011,-0.0033635571599006,-0.0236917659640312,-0.0161500312387943,-0.0152470525354146,-0.0164204612374305,-0.0144719732925295,-0.0168797522783279,0.0034961183555424,-0.0205982811748981,88350347
310,-0.0147560909390449,0.0185888614505529,-0.0188090782612562,0.001298023853451,-0.0042382064275443,0.000617824785877,-0.0123138427734375,-0.0007167200092226,-0.0090108439326286,0.0008130364585667,47788573
311,0.0234323963522911,-0.0106955226510763,-0.0043289493769407,0.0132686039432883,0.0036483416333794,0.0115513345226645,-0.0149219138547778,0.0103882765397429,-0.0220046136528253,0.0107188625261187,196566732
312,-0.0243926756083965,0.0037298812530934,-0.0007771685486659,-0.0105246324092149,-0.0040203719399869,-0.001916532870382,0.0234440192580223,0.0031311362981796,0.0295188874006271,0.0031450453680008,101058866
313,-0.0175184570252895,0.0252033285796642,0.0022606593556702,-0.0098689990118145,-0.0053447466343641,-0.0111711975187063,-0.0029297687578946,-0.0120510198175907,0.0157500840723514,-0.0216694921255111,150718293
314,0.0423666946589946,-0.071622297167778,0.0149869155138731,0.0122890174388885,-0.0072884950786828,0.0142928082495927,-0.0462865009903907,0.0068447394296526,-0.0325839929282665,0.04620111733675,18912237
315,-0.0043668542057275,0.0045810411684215,-0.0144827645272016,-0.0020759366452693,0.0068137273192405,-0.0070946142077445,0.0015681283548474,0.0075565692968666,0.0039540184661746,0.002496370114386,159115989
316,-0.0125195253640413,0.0263540241867303,-0.0156798046082258,0.0053871432319283,-0.0010762554593384,0.0013497073668986,-0.0243641734123229,-0.0009478977881371,-0.0068692057393491,0.0034779030829668,86617202
317,-0.0098360953852534,0.0097249429672956,-0.0036386135034263,-0.0042602717876434,-0.0034913576673716,0.0009452536469325,-0.0079969763755798,0.0038425596430897,-0.013387725688517,-0.0063748150132596,8608429
318,0.047136016190052,0.0264871623367071,0.0254862438887357,0.0006889933720231,0.0017910511232912,0.0065425969660282,-0.0095906844362616,0.0093002393841743,-0.0235141031444072,0.0322644114494323,138469628
319,0.0055835070088505,-0.0184075497090816,-0.0265505034476518,0.006798701826483,-0.0053500267677009,0.0095686791464686,0.0004835338331758,0.0103945899754762,-0.0287003740668296,0.0122074242681264,109486663
320,-0.0109034199267625,0.0242221560329198,-0.0169233623892068,-0.0057773385196924,-0.0054094791412353,-0.003558091353625,0.0030677448958158,-0.0039579747244715,-0.0227075479924678,-0.0078942012041807,55711245
321,-0.0301953442394733,0.0026340633630752,-0.0265109855681657,-0.0202399268746376,-0.0156476628035306,-0.0157810244709253,-0.0138427596539258,-0.014896236360073,-0.0131023563444614,-0.0333535261452198,101191919
322,-0.0125195253640413,0.0263540241867303,-0.0156798046082258,0.0053871432319283,-0.0010762554593384,0.0013497073668986,-0.0243641734123229,-0.0009478977881371,-0.0068692057393491,0.0034779030829668,194164487
323,-0.010752672329545,-0.0145470649003982,-0.0080181704834103,0.0001682555302977,-0.0036234073340892,0.0026732711121439,-0.0065920362249016,0.00089453603141,-0.013909631408751,0.0033757984638214,71488005
324,0.0096433410582589,0.0250514604257968,0.0195039811117251,-0.0069378379739328,-0.0070181522109036,-0.0021852791230781,-0.0069981420723322,-0.0074053449685433,-0.0051849118452394,-0.0128791107232224,45859773
325,0.0145154548808932,-0.0272605121135711,-0.0019176914356648,0.0066474704071879,-0.0081765111535787,0.0028153860475867,-0.0077671259641647,0.0036968819331377,-0.0347097031772136,0.0238690245896577,101778430
326,-0.0122976955026388,0.0063530877232551,-0.0182946119457483,-0.0085418224334716,-0.0051550497300922,-0.0007274217205122,0.0088899927213788,0.0039756288751959,-0.0148292975500226,-0.0046401554718613,3806601
327,-0.0125195253640413,0.0263540241867303,-0.0156798046082258,0.0053871432319283,-0.0010762554593384,0.0013497073668986,-0.0243641734123229,-0.0009478977881371,-0.0068692057393491,0.0034779030829668,2297821
328,-0.0125195290893316,0.0263540279120206,-0.0156798064708709,0.0053871441632509,-0.0010762568563222,0.0013497073668986,-0.0243641771376132,-0.0009478968568146,-0.0068692080676555,0.0034779026173055,108109288
329,-0.0125195253640413,0.0263540241867303,-0.0156798046082258,0.0053871432319283,-0.0010762554593384,0.0013497073668986,-0.0243641734123229,-0.0009478977881371,-0.0068692057393491,0.0034779030829668,2235503
330,0.0344812609255313,-0.0251320619136095,0.0002870729658752,0.0086748618632555,-0.0031479829922318,0.0096751078963279,-0.0257615223526954,0.0076346173882484,-0.0351552106440067,0.0361192412674427,37764882
331,-0.0122220637276768,0.0325007252395153,-0.0171477273106575,0.0022192483302205,0.0016404023626819,0.0021817428059875,-0.0115041499957442,0.0015185428783297,-0.0084165977314114,-0.0006244024261832,7897387
332,-0.0205369610339403,-0.0077285827137529,-0.0269871782511472,-0.0103638442233204,-0.0126931918784976,-0.0008659121813252,0.0202810037881135,0.0009823092259466,-0.0165413934737443,-0.0033779055811464,100535643
333,-0.0068670567125082,-0.0235595423728227,-0.0267474427819252,0.0007775542326271,-0.0077928230166435,0.0053381659090518,-0.0107938954606652,0.0072971526533365,-0.0204772017896175,0.0344215221703052,102644366
334,0.0078974599018692,0.0093506528064608,-0.0383866615593433,-0.0008457495132461,-0.0103602241724729,0.0105231516063213,-0.0518689937889575,-0.0022861915640532,-0.034689325839281,0.0338786244392395,58802094
335,-0.0153402360156178,0.0105180274695158,-0.0197132658213377,-0.0008269478566944,-0.0053370706737041,0.0008213179535232,-0.0077656628564,0.0004091919399797,-0.0115000642836093,0.0027259462513029,94317976
336,0.0028583880048245,-0.012216655537486,-0.0242193602025508,-0.0060077221132814,-0.0161441825330257,-0.0091704642400145,-0.0303570535033941,-0.013628582470119,0.0142886210232973,0.009666733443737,670375
337,0.0117242466658353,-0.041534099727869,-0.0074296994134783,0.0004119323566555,-0.0144536513835191,0.0005809507565572,-0.0356670841574668,0.0014180978760123,-0.032429352402687,0.0343252047896385,99402058
338,-0.0259278584271669,0.0104042580351233,0.0002416945062577,-0.0167260617017745,-0.0044992570765316,-0.0064603546634316,0.0285902582108974,-0.0030418117530643,0.0386421829462051,0.0003925514174625,47505989
339,-0.0229525454342365,-0.0197042264044284,-0.0304185338318347,-0.0154080372303724,-0.0162703916430473,-0.0014219878939911,0.0341278873383998,0.0018648346886038,-0.0200006440281867,-0.0047065750695765,110742290
340,-0.006279089488089,-0.0087454719468951,-0.0398880206048488,-0.0010227523744106,-0.0103107672184705,0.0016872254200279,-0.031223576515913,0.0029090386815369,-0.028332469984889,0.0130233857780694,99092666
341,-0.0062922243960201,0.0153290703892707,0.0057155517861247,-0.0019336580298841,-0.000589991803281,-0.0007503877859562,-0.0136909047141671,0.0026352475397288,-0.0067244339734315,-0.0178729444742202,73023923
342,0.0081689609214663,0.000631736125797,-0.0033284150995314,-0.0115154013037681,-0.0065015600994229,-0.0085349837318062,-0.0033464573789387,-0.0074087628163397,-0.0145989321172237,0.0163069814443588,73299028
343,-0.0126663222908973,0.0073201488703489,0.0109432060271501,-0.0046515651047229,0.0016442690975964,-0.0004637622332666,0.0069189509376883,0.0012432174989953,0.0356107056140899,0.0054301577620208,72497730
344,-0.0034234938211739,-0.0011744834482669,-0.0116047021001577,-0.0027491189539432,-0.0062790452502667,-0.0038187392055988,-0.0104223117232322,-0.0072802938520908,-0.0132379876449704,0.0134532898664474,99788385
345,-0.004180870950222,0.0011861894745379,0.0021314898040145,0.0052243252284824,-0.0028458158485591,0.0037911909166723,-0.0114068258553743,0.0055175996385514,-0.0118401516228914,0.0153393149375915,206170303
346,-0.0100591806694865,-0.0083901528269052,-0.018530098721385,-0.0013150000013411,-0.0094308145344257,0.0002552096266299,-0.0342909768223762,-0.0040999753400683,0.0042470358312129,0.007626187056303,18468296
347,-0.008993487805128,-0.0187317971140146,-0.00453332811594,-0.0023379162885248,-0.0069147804751992,-0.0026051518507301,-0.0166211705654859,-0.0010133151663467,-0.0233745779842138,0.0083250878378748,91989996
348,-0.0105627244338393,-0.0004183660494163,-0.006273791193962,-0.0051765888929367,-0.0039853397756814,0.0017239158041775,-0.0066384989768266,0.005175556987524,-0.0163775607943534,0.0002754214219748,54863209
349,0.006822383031249,-0.0424343831837177,-0.017032403498888,0.0068099442869424,-0.0060689309611916,0.0108684683218598,0.0030608223751187,0.0103925596922636,-0.0245133750140666,0.0195934027433395,88416983
350,-0.0261625554412603,-0.061679258942604,0.0025969489943236,-0.0038007535040378,-0.0215873103588819,-0.0082019483670592,-0.0330076403915882,-0.004976415541023,-0.0093483394011855,0.0281700324267148,75717236
351,0.0040512159466743,-0.0051723015494644,0.0060030217282474,0.0006417877739295,0.0038533194456249,0.00329165533185,-0.0009810852352529,0.0039206594228744,0.009634144604206,0.0304103754460811,50207366
352,-0.012049158103764,-0.0038072564639151,-0.006229406222701,-0.0007980631198734,-0.0023146825842559,-0.002335830591619,-0.0293685812503099,-0.0047273603267967,-0.0101985968649387,0.0039866352453827,76578097
353,0.0348180271685123,-0.0267813317477703,0.0272011496126651,0.011812669225037,0.012916681356728,0.0165265202522277,-0.0157989282160997,0.0245576091110706,-0.0103137111291289,0.0397523567080497,101741648
354,-0.0060838432982563,0.0327914059162139,0.0016287877224385,0.0045027090236544,0.0023407803382724,0.0015611033886671,-0.0309044700115919,0.0016772999661043,-0.0065768421627581,-0.0058829328045248,212071753
355,0.0067933043465018,-0.0073802014812827,-0.0268901512026786,0.0012772631598636,-0.0056444369256496,0.0065161315724253,-0.0143651831895113,0.0070788664743304,-0.0201939083635807,0.0225276239216327,3162115
356,-0.0161144826561212,0.005037079565227,-0.0160970911383628,-0.0082125272601842,-0.009314440190792,-0.0008790501160547,0.0106324758380651,0.0012513631954789,-0.0135722337290644,-0.0102643426507711,99446605
357,0.0076050087809562,-0.0138121442869305,-0.0127479555085301,0.0029980752151459,-0.0018061554292216,0.0022846227511763,-0.0115220341831445,0.0060458150692284,-0.0210961159318685,0.0310565214604139,52541971
358,-0.0025044498033821,-0.0192319601774215,0.05206960439682,0.0137108601629734,-0.0073786890134215,-0.0012957591097801,-0.0241752471774816,0.003761451691389,-0.0193108730018138,0.0136183630675077,195773243
359,0.0316266603782038,-0.0048290108573734,-0.0223609708875522,0.0007162144357206,-0.0059381953359466,-0.0029828717996325,0.0064291492847575,0.0013202855831252,-0.0315018248087007,0.0240389128749914,17687405
360,0.0042038839310407,-0.017919773235917,-0.0178313143551349,0.0041988948360085,-0.0021745639387518,0.0084819514304399,0.0060051064938306,0.0104101309552788,-0.0098946392536163,0.0170011650770902,114274866
361,-0.0077774454839527,-0.0247772056609392,0.0061375154182314,-0.0028932620771229,-0.0082837855443358,-0.0041175209917128,-0.0144056631252169,-0.0045605227351188,-0.0176319815218448,0.0189091674983501,158508852
362,-0.0197571348398923,0.0005962009308859,-0.0171694755554199,-0.0119472835212945,-0.0081687001511454,-0.0089345797896385,0.0144267249852418,-0.0066466005519032,0.0009498441941104,-0.0131983924657106,107512023
363,0.0098173265285484,-0.0488025489326684,-0.00300743537458,-0.0095350482346643,-0.0139017128627911,-0.0053741002431401,0.0281600823037385,0.0029767701735531,0.0407331537420722,-0.0259694544229156,146167229
364,-0.0125195253640413,0.0263540241867303,-0.0156798046082258,0.0053871432319283,-0.0010762554593384,0.0013497073668986,-0.0243641734123229,-0.0009478977881371,-0.0068692057393491,0.0034779030829668,59299279
365,-0.0125195290893316,0.0263540279120206,-0.0156798064708709,0.0053871441632509,-0.0010762568563222,0.0013497073668986,-0.0243641771376132,-0.0009478968568146,-0.0068692080676555,0.0034779026173055,55422060
366,-0.0159154590219259,-0.0018664964009076,-0.0115787889808416,-0.0114434091374278,-0.0112984701991081,-0.013153351843357,-0.0120573975145816,-0.0127445962280035,-0.006364750675857,-0.0106817530468106,156284152
367,-0.023244522511959,-0.0047118477523326,0.0044613471254706,0.0054166233167052,0.0038333889096975,0.0116057973355054,-0.0116336308419704,0.0056605841964483,-0.008627152070403,0.0057702916674315,109502816
368,0.0043711173348128,-0.0051515777595341,-0.0188527181744575,-0.008757309988141,-0.011022294871509,-0.0057458342052996,-0.0315811522305011,-0.0020708073861896,-0.0245540235191583,0.0033664619550108,76747884
369,-0.0059907077811658,-0.019057773053646,0.0139592373743653,-0.01364909671247,-0.0056713833473622,-0.0094256717711687,0.0027200507465749,-0.004061144310981,-0.017800323665142,0.0105143068358302,96648892
370,0.013180986046791,-0.0361514315009117,-0.0165096819400787,0.0034635425545275,-0.0077638393267989,0.0071250176988542,-0.0443871580064296,0.0077326307073235,-0.0382042042911052,0.032450970262289,2368500
371,-0.0126663222908973,0.0073201488703489,0.0109432060271501,-0.0046515651047229,0.0016442690975964,-0.0004637622332666,0.0069189509376883,0.0012432174989953,0.0356107056140899,0.0054301577620208,6747648
372,0.003249815898016,-0.0037518360186368,-0.0095756016671657,4.2242580093443394e-05,-0.0058883000165224,0.0012006335891783,-0.0094405291602015,-0.0001509103458374,-0.0122290682047605,0.0071997591294348,124975178
373,-0.0170605070888996,0.0002837375504896,-0.0166539214551448,-0.0111103188246488,-0.0111765079200267,-0.0013635671930387,0.0183274652808904,0.001652980223298,-0.0150201600044965,-0.0129639701917767,206977176
374,-0.0125195290893316,0.0263540279120206,-0.0156798064708709,0.0053871441632509,-0.0010762568563222,0.0013497073668986,-0.0243641771376132,-0.0009478968568146,-0.0068692080676555,0.0034779026173055,45621154
375,-0.0191914327442646,-0.0047719292342662,-0.0251292455941438,-0.0082037709653377,-0.0108684264123439,-0.0003136088489554,0.0134290074929595,0.0011456257198005,-0.0158006586134433,-0.0010342926252633,96457659
376,-0.0216992385685443,0.0135502330958843,-0.0251676775515079,-0.0095903687179088,-0.008182973600924,-0.011661279015243,-0.0080046392977237,-0.0079405363649129,-0.0078370599076151,-0.0249273218214511,148611986
377,-0.0090668583288788,0.0086811576038599,-0.034889705479145,-0.0130039434880018,-0.017572684213519,-0.0018148397793993,0.0111447162926197,-0.0076594138517975,-0.0463399104773998,0.0005649090744554,6001285
378,-0.0085351634770631,-0.0018772212788462,-0.0028723757714033,-0.0045024724677205,-0.0029135209042578,-0.0016054689185693,-0.0111708575859665,0.0015785822179168,0.0005133212544023,0.002755117136985,72763348
379,-0.0098314732313156,-0.0064592915587127,-0.0140956873074173,-0.0074721416458487,-0.0083292890340089,0.0004291294608265,0.0124663580209016,0.0028265351429581,-6.868294440209866e-05,0.0151322968304157,16835734
380,-0.0212246514856815,0.0030618538148701,-0.0277423523366451,-0.0254290215671062,-0.0125951766967773,-0.0180148370563983,0.0268017090857028,-0.0196645036339759,0.0304037947207689,-0.0271017048507928,44708713
381,-0.001672291313298,-0.0054461862891912,-0.0221761669963598,-0.0147274620831012,-0.0140978582203388,-0.0078324684873223,-0.0223510898649692,-0.0094084329903125,-0.0207407884299755,-0.0054776789620518,110012110
382,0.0260678231716156,-0.0523264594376087,0.0013498172629624,0.0110419243574142,-0.0043399790301918,0.016675304621458,-0.0283156409859657,0.0062588644213974,-0.0106360092759132,0.0383104532957077,88880574
383,0.0221744310110807,-0.0003541242331266,-0.0065220762044191,0.0001354892738163,-0.003695020917803,0.0039364611729979,-0.0111005138605833,0.0005229889648035,-0.0317759439349174,0.0257324036210775,30351501
384,0.0102312006056308,-0.0213561430573463,-0.0072823804803192,0.0017698868177831,-0.0049294359050691,0.000760018825531,-0.0156891550868749,0.0017511036712676,-0.0040298094972968,0.0090796090662479,152354126
385,-0.0254381448030471,-0.0184984132647514,-0.0337548404932022,-0.018232062458992,-0.0193400252610445,-0.002877720631659,0.0452398657798767,0.0003874044632539,-0.0192395690828561,-0.0119146667420864,206939650
386,-0.0098301991820335,0.0016002925112843,-0.0065557290799915,-0.0024263998493552,-0.0022177551873028,0.0024445629678666,-0.0141861485317349,0.0051184189505875,-0.0157233700156211,0.0050134742632508,85951147
387,0.021819794550538,-0.0633223950862884,-0.0090753929689526,0.0015214104205369,-0.0047781611792743,0.0069244811311364,-0.0369012951850891,0.0140015492215752,-0.035407155752182,0.0456899479031562,102386409
388,-0.003754501696676,-0.0265087336301803,-0.0478617623448371,-0.0037796851247549,-0.0133052971214056,0.0023717251606285,-0.0339647531509399,0.0054185586050152,-0.037611398845911,0.0197282191365957,78535305
389,0.0124439019709825,-0.0200283974409103,-0.0025938330218195,0.0058071217499673,0.0018284824909642,0.0124481813982129,0.0183177050203084,0.012122263200581,-0.0139136426150798,0.0308293662965297,103874922
390,-0.0204897187650203,0.0196586791425943,-0.0097316885367035,-0.0058727283030748,-0.0029455886688083,-0.002655898919329,0.0053543569520115,-0.0023074185010045,0.0172467790544033,0.001119019347243,19771878
391,0.0219749715179204,-0.0512494966387748,-0.0005145350005477,0.0079002641141414,-0.0087999477982521,0.0125416610389947,-0.0236020442098379,0.0033556628040969,-0.0202030856162309,0.0296886526048183,32949717
392,-0.0015149642713367,-0.0236952994018793,-0.0187489818781614,-0.0049900566227734,-0.015567029826343,0.0013079789932817,-0.0049374820664525,0.0003227989654988,-0.0280023515224456,0.0266152434051036,184425605
393,-0.0053473738953471,-0.0243261642754077,-0.0064573045819997,-0.0047232089564204,-0.0115972217172384,-0.0032274122349917,-0.0099512757733464,0.0012205492239445,-0.0118707288056612,0.0037915222346782,102887574
394,-0.0094207534566521,-0.009381653741002,-0.0093476809561252,0.0018508748617023,-0.0010702789295464,0.0010485516395419,-0.0040197339840233,0.0017994574736803,-0.0097908191382884,0.0107466131448745,66891131
395,-0.0166971571743488,-0.0132522787898778,-0.0235082022845745,-0.0149045241996645,-0.0163005106151103,-0.0041639432311058,0.0215376317501068,-0.0025840506423264,-0.0029259908478707,0.0066089546307921,106261680
396,-0.0277422368526458,-0.0064626219682395,-0.0142141673713922,-0.0149947516620159,-0.0070146298967301,-0.0034770290367305,0.0167451649904251,-0.0041527585126459,0.027201360091567,0.0045936172828078,60194762
397,-0.0120614487677812,0.0062983110547065,-0.0145694315433502,-0.0068530617281794,-0.0067459368146955,-0.0016612964682281,-0.0043860608711838,-0.000531357130967,-0.0196359250694513,-0.0086111901327967,101368165
398,-0.0126663222908973,0.0073201488703489,0.0109432060271501,-0.0046515651047229,0.0016442690975964,-0.0004637622332666,0.0069189509376883,0.0012432174989953,0.0356107056140899,0.0054301577620208,6747649
399,-0.0044968100264668,-0.0124511495232582,-0.0053357062861323,0.0031074653379619,-0.0048780725337564,0.0114303212612867,-0.0117462147027254,0.0107642542570829,-0.037671972066164,0.0165763515979051,110939942
400,-0.0035558398813009,-0.0316650718450546,-0.0194502491503953,0.0014099227264523,-0.0014527894090861,0.0054671028628945,-0.0247497074306011,0.0028653414919972,-0.0125314518809318,0.0108037395402789,52268839
401,-0.016332522034645,0.0131156230345368,-0.0210147388279438,-0.0015841734129935,-0.0064668916165828,0.000101961515611,-0.0038202181458473,-0.0005537755787372,-0.0105203725397586,-0.0010652811033651,115138097
402,-0.0197208281606435,-0.0212719850242137,-0.0260807517915964,-0.0117362923920154,-0.0122793167829513,0.0004707289626821,0.0196803528815507,0.0037857538554817,-0.0209901966154575,0.0046652359887957,90959033
403,0.0128274923190474,-0.0264592878520488,0.0033241533674299,0.007053155452013,-0.0095380302518606,0.0007239757105708,-0.0425172261893749,0.0019793841056525,-0.0297977346926927,0.0205103959888219,68997293
404,0.0279197469353675,-0.0476558655500412,-0.0025591631419956,0.0102833267301321,-0.0034894596319645,0.0079829897731542,-0.0132913775742053,0.0081552723422646,-0.0312776379287242,0.0313848778605461,97442108
405,-0.0126740122213959,0.0014358242042362,-0.0153005942702293,-0.0074005434289574,-0.0088167861104011,-0.0062672276981174,-0.011018794029951,-0.007715537212789,-0.0012433306546881,-0.017957679927349,34335298
406,-0.016332522034645,0.0131156230345368,-0.0210147388279438,-0.0015841736458241,-0.0064668916165828,0.0001019615447148,-0.0038202181458473,-0.0005537753459066,-0.0105203725397586,-0.0010652806377038,207034364
407,-0.0145343961194157,-0.0170367136597633,-0.0313978642225265,-0.0163263380527496,-0.0205298122018575,-0.0123674366623163,-0.0114758927375078,-0.0173238888382911,-0.0350965484976768,-0.0113611053675413,8208151
408,-0.0106608355417847,-0.0169726200401783,-0.0113703180104494,-0.0023312414996325,-0.0079659121111035,-0.0006721288664266,-0.011892263777554,-0.001549097476527,0.0055865878239274,-0.0011940479744225,71145982
409,0.01156622543931,-0.004478907212615,0.0134640652686357,0.0133955143392086,-0.0019629844464361,0.0095346039161086,-0.0071375416591763,0.0052819377742707,-0.0226119812577962,0.0143472636118531,103625428
410,-0.0149241546168923,0.0018689822172746,-0.0138905216008424,-0.0080605074763298,-0.008337247185409,-0.0002348369453102,0.0077627403661608,0.0024524691980332,-0.0148239033296704,-0.0075033875182271,58374844
411,-0.0088866762816905,-0.0523498728871345,0.0024725054390728,-0.0010439887410029,-0.0065662479028105,-0.0044220546260476,0.0113735301420092,-0.0037033855915069,-0.0103643620386719,0.0134639395400881,165081199
412,0.0202731043100357,-0.0265090987086296,-0.0234536305069923,0.0151153448969125,-0.0012665285030379,0.0149591527879238,-0.0267662797123193,0.0116467699408531,-0.0323792025446891,0.0273897927254438,33982497
413,-0.0060838432982563,0.0327914059162139,0.0016287877224385,0.0045027090236544,0.0023407803382724,0.0015611033886671,-0.0309044700115919,0.001677299849689,-0.0065768421627581,-0.0058829332701861,201846065
414,0.0423953644931316,-0.0296182502061128,0.0208316706120967,0.0212729200720787,0.015606096945703,0.0295804403722286,-0.0012459107674658,0.0331431291997432,-0.0160580575466156,0.0626642256975174,49609372
415,-0.0125195253640413,0.0263540241867303,-0.0156798046082258,0.0053871432319283,-0.0010762554593384,0.0013497073668986,-0.0243641734123229,-0.0009478977881371,-0.0068692057393491,0.0034779030829668,178367993
416,0.0214032549411058,-0.0668271258473396,-0.0277929790318012,0.0179919488728046,-0.0140024572610855,0.007552714087069,-0.0510341338813304,0.0130452942103147,-0.0741716772317886,0.0321470536291599,47023001
417,-0.0125195253640413,0.0263540241867303,-0.0156798046082258,0.0053871432319283,-0.0010762554593384,0.0013497073668986,-0.0243641734123229,-0.0009478977881371,-0.0068692057393491,0.0034779030829668,15166421
418,-0.0125195253640413,0.0263540241867303,-0.0156798046082258,0.0053871432319283,-0.0010762554593384,0.0013497073668986,-0.0243641734123229,-0.0009478977881371,-0.0068692057393491,0.0034779030829668,7172770
419,-0.0072505744174122,0.0222769957035779,0.0033706750255078,-0.0027709961868822,-0.0016173009062185,0.000409458996728,-0.0131860552355647,0.0031349251512438,-0.0100793605670332,-0.0141926789656281,188320861
420,-0.0201986618340015,-0.0003073248080909,-0.0264240354299545,-0.0086526749655604,-0.0119326738640666,-0.0011631770757958,0.017010124400258,-0.0001541613601148,-0.014222445897758,-0.0056718066334724,45859764
421,-0.0125195253640413,0.0263540241867303,-0.0156798046082258,0.0053871432319283,-0.0010762554593384,0.0013497073668986,-0.0243641734123229,-0.0009478977881371,-0.0068692057393491,0.0034779030829668,172571530
422,-0.0234109126031398,-0.0194818619638681,-0.0310337841510772,-0.0159288011491298,-0.0168364476412534,-0.0016904346412047,0.0361770056188106,0.0015923859318718,-0.0198603030294179,-0.0060357949696481,91069114
423,-0.0120272049680352,-0.0031241255346685,-0.0154393818229436,0.000832061341498,-0.0017893481999635,0.0035476488992571,-0.019786674529314,0.0045006023719906,-0.0163580887019634,0.0175295881927013,52361126
424,0.0008466334547847,0.0106019163504242,-0.0039387154392898,0.0044691637158393,0.0002581162261776,0.0065145669505,-0.0233858469873666,0.0076261623762547,-0.0192163940519094,0.004268679767847,1134720
425,0.0135601945221424,-0.0146986935287714,-0.0171428024768829,0.0072267921641469,-0.0029713357798755,0.0050464151427149,-0.01500138733536,0.0028756321407854,-0.0181522704660892,0.0224498063325881,201234592
426,-0.0122310444712638,-0.0030265036039054,-0.011130609549582,-0.0075994846411049,-0.0072739887982606,-0.0078187379986047,-0.0093684559687972,-0.0087751429527997,-0.0009851022623479,-0.0075858938507735,14966853
427,0.0009593872819095,0.0052402960136532,0.0056046308018267,0.0018857178511098,-0.001051164465025,0.0031705377623438,-0.0290311202406883,0.0047556031495332,-0.0180847886949777,0.0022684908472001,57519725
428,0.0058036334812641,-0.0352653004229068,-0.0138202384114265,0.0078966245055198,-0.0022619683295488,0.0104668084532022,0.0013507409021258,0.0140157751739025,-0.0331547893583774,0.0285816807299852,50031549
429,-0.0212624352425336,-0.0040006712079048,-0.0279124118387699,-0.0105975810438394,-0.0134365931153297,-0.0015112831024453,0.0227416194975376,-4.4204993173480034e-05,-0.0152410753071308,-0.0069392975419759,66464625
430,0.0104074385017156,-0.0107397399842739,-0.0123778115957975,0.0012097756844013,-0.0041365139186382,0.0020975561346858,-0.0293324552476406,0.0035041105002164,-0.034292597323656,0.025209654122591,68748784
431,0.0169113278388977,-0.0181573797017335,0.0057391272857785,0.014883279800415,0.0029942891560494,0.0132857710123062,-0.0190682895481586,0.0130982678383588,-0.040934681892395,0.0221928358078002,55422033
432,-0.0219298005104064,0.0031604920513927,-0.0091384071856737,-0.0118490029126405,-0.0085277669131755,-0.0102252243086695,0.0029599645640701,-0.0067277592606842,0.0003790375776588,-0.0118533903732895,58017337
433,0.0096704354509711,-0.0422745384275913,-0.0066851428709924,0.0076614683493971,-0.0056803342886269,0.0042175846174359,-0.0063266353681683,0.0078754723072052,-0.0404558703303337,0.0369194038212299,51887928
434,-0.0254381448030471,-0.0184984095394611,-0.0337548442184925,-0.018232062458992,-0.0193400289863348,-0.0028777210973203,0.0452398732304573,0.0003874056565109,-0.019239567220211,-0.0119146667420864,96232449
435,0.0296504218131303,-0.0444042459130287,-0.0080136209726333,0.0124838929623365,-0.0032077149953693,0.0095230573788285,-0.0405813641846179,0.0096982000395655,-0.0328826941549778,0.0345878303050994,206810298
436,0.0132354320958256,-0.0303289256989955,0.0034612622112035,0.010150789283216,-0.005621924996376,0.0053352201357483,-0.0698629692196846,0.0035083231050521,-0.0393915213644504,0.0372653044760227,173351101
437,-0.0322061851620674,0.0340122394263744,0.0187361948192119,-0.018604714423418,0.0051474613137543,-0.0101562337949872,0.0337880961596965,-0.006824392825365,0.0893186256289482,0.005884466227144,47445127
438,0.0136692281812429,-0.0122607303783297,-0.0107656251639127,0.0137874782085418,0.0089335711672902,0.0154420370236039,-0.0122265145182609,0.0173209998756647,0.0004662722349166,0.0274233967065811,76920769
439,-0.0072951870970427,-0.0333292037248611,-0.029488205909729,-0.0093910275027155,-0.0114455502480268,-0.0062461821362376,0.0065083573572337,-0.0086042508482933,-0.0188584979623556,-0.0030029481276869,6754190
440,-0.0106635950505733,0.0347048938274383,0.01005654130131,-0.0012073724064975,0.0038690732326358,-0.0011679416056722,-0.0171923320740461,0.0003206271794624,0.01626792922616,-0.0054496298544108,19933028
441,-0.0192372500896453,-0.0009183443617075,-0.0164588503539562,-0.0109728183597326,-0.0092393206432461,-0.0078504951670765,-0.0073764733970165,-0.005533552262932,-0.0020692786201834,-0.0086347106844186,191085080
442,0.0193741917610168,-0.0051948553882539,-0.0049322685226798,0.0034774206578731,-0.0025350516662001,0.0074727507308125,-0.0208658650517463,0.0058791600167751,-0.0445621460676193,0.0382158234715461,34326285
443,0.0008042401168495,0.0396812930703163,0.020154096186161,0.0035561062395572,0.0059980195946991,0.0017873614560812,-0.0379045121371746,0.0044870348647236,-0.0062639312818646,-0.0159017965197563,12928037
444,0.0077657816000282,-0.0009001268190331,0.0110453544184565,0.0056633874773979,0.0019035851582884,0.001594693516381,-0.0098699983209371,-0.0015340916579589,-0.0123502425849437,0.0092079509049654,86177534
445,-0.0182005949318408,0.0082824612036347,0.0059889573603868,0.0026387893594801,-0.0033475358504801,0.0025341222062706,-0.0084829479455947,-0.0025846841745078,-0.0118297943845391,0.0104625131934881,192078523
446,0.0370222590863704,-0.0442084036767482,-0.0157351605594158,-0.0011534711811691,-0.014770932495594,0.0014432265888899,-0.0549120493233203,-0.0005567395710386,-0.024578608572483,0.0061856103129684,200400506
447,-0.0143838226795196,0.0019024980720132,-0.0125719495117664,-0.0099942022934556,-0.0016153923934325,-0.0024430211633443,0.0122176986187696,-0.002672579139471,0.0351254753768444,0.0019486895762383,879768
448,0.0084401024505496,-0.0144290858879685,-0.0142229944467544,-0.0026895750779658,-0.0016279122792184,-0.0018598964670673,0.0032038094941526,-0.0045298999175429,0.0231674723327159,0.0005880777025595,38106215
449,-0.0090496316552162,-0.0055298442021012,-0.0438151098787784,-0.0069380458444356,-0.011515324935317,-0.0089810946956276,-0.024139292538166,-0.0067951022647321,-0.0089029818773269,-0.0029929305892437,98506381
450,-0.0090029966086149,-0.018678767606616,-0.0420967414975166,0.0012803573627024,-0.0075405943207442,0.0032335401047021,-0.0144525319337844,0.000541147426702,-0.0144250579178333,0.0128153897821903,195696760
451,0.0360816419124603,-0.0698582231998443,-0.0094472644850611,0.0064819487743079,-0.0073914630338549,0.0053228517062962,-0.0376147851347923,0.0061416523531079,-0.0411054342985153,0.0527995005249977,1058759
452,0.009153589606285,0.0072735790163278,-0.0367918014526367,0.0075968531891703,-0.0051741143688559,0.0018512776587158,-0.0083971321582794,-0.0062238164246082,-0.0477703958749771,0.0133105646818876,77580268
453,0.0030624108150851,-0.0116466602315165,-0.039423137861854,-0.0049567508674499,0.0009583765028203,0.0024390332604458,0.004761009086114,-0.0030152349936854,-0.0048441373679635,-0.0245513009559205,84470282
454,-0.0271274894475936,0.0137921255081892,0.0041332454420626,-0.007479834370315,-0.0085407458245754,-0.0009779225802049,-0.0079387770965695,-0.0011890897294506,-0.0454238504171371,-0.0218831859529018,64177119
455,0.0314285680651664,-0.0496599003672599,-0.0059853382408618,0.0014186659827828,-0.0127685191109776,0.0006063386681489,-0.0569263771176338,-0.0017089692410081,-0.0070371842011809,0.0379358939826488,88880575
456,0.0448798462748527,-0.0874822363257408,0.0100225880742073,0.0108539182692766,-0.0116665055975317,0.0145372431725263,-0.05418162047863,0.0033690663985908,-0.0342152714729309,0.047183308750391,73392382
457,-0.0125195290893316,0.0263540279120206,-0.0156798064708709,0.0053871441632509,-0.0010762568563222,0.0013497073668986,-0.0243641771376132,-0.0009478968568146,-0.0068692080676555,0.0034779026173055,194294684
458,-0.0282366350293159,0.0057439310476183,-0.0156375616788864,-0.0141356866806745,-0.0121807269752025,-0.0179169923067092,-0.0060029849410057,-0.0167298838496208,-0.0019453299464657,-0.0265484824776649,74945071
459,0.0359678715467453,0.0091309063136577,0.0368041954934597,0.0393575243651866,0.0236131697893142,0.035030111670494,-0.0105789462104439,0.0259824283421039,-0.0046938830055296,0.0306473858654499,126242405
460,-0.015338908880949,0.0165653675794601,-0.0196245238184928,0.0002324555534869,-0.0050621670670807,0.0004271061625331,-0.0091736922040581,-0.0006564774084836,-0.0095689333975315,0.0001186082372441,99092671
461,0.0059956074692308,-0.0272807534784078,-0.0184777528047561,0.0034380161669105,-0.0077148620039224,0.0034794081002473,-0.0256205759942531,0.0004903839435428,-0.0327465906739234,0.0094092795625329,5099843
462,-0.0125195253640413,0.0263540241867303,-0.0156798046082258,0.0053871432319283,-0.0010762554593384,0.0013497073668986,-0.0243641734123229,-0.0009478977881371,-0.0068692057393491,0.0034779030829668,18860704
463,-0.0334064997732639,-0.0010701033752411,-0.0140050314366817,-0.0175861902534961,-0.0076230294071137,-0.0159846805036067,0.0110627757385373,-0.0124346958473324,-0.0079720765352249,-0.0167053155601024,49065011
464,-0.0113598955795168,0.0165647491812706,-0.0182475820183753,-0.017506543546915,-0.0155715299770236,-0.0184188298881053,-0.0107799917459487,-0.0117670819163322,-0.0281863622367382,0.0001180982217192,60623703
465,-0.0101175177842378,-0.0822311341762542,0.0201699659228324,0.0052795372903347,-0.0023837438784539,-0.004598484840244,0.0204903613775968,-0.0039990986697375,-0.0070351799950003,0.023714879527688,102481856
466,0.0031975477468222,-0.0163251012563705,-0.0005235730786807,0.004849147517234,-0.0038513231556862,0.0028070085681974,-0.0275029111653566,0.0066321138292551,-0.0295509807765483,0.0220249015837907,44394807
467,-0.0210962183773517,0.0030677951872348,-0.0270503424108028,-0.0254716463387012,-0.0124216200783848,-0.0181136224418878,0.027933944016695,-0.0193137042224407,0.0301140323281288,-0.0268423538655042,98350726
468,-0.00109509145841,-0.0278772972524166,0.0093948552384972,-0.0090335449203848,-0.0154665950685739,-0.0034200088120996,-0.0369254313409328,-0.0061042606830596,-0.0352985002100467,0.0313769802451133,18682509
469,0.0179756974040594,0.049796498699629,-0.0320497303680588,0.0010710137534841,-0.0027726213555343,-0.0070234121498646,0.0399062681308212,-0.0004761631863005,0.0258585102047122,-0.0203771574551266,4594647
470,-0.0206087660044431,-0.0017311715055257,-0.0269978214055299,-0.0094024632126092,-0.0125124566256999,-0.0012973755365237,0.0192196927964687,-0.0001117722131311,-0.0146151427179574,-0.0061604431830346,54107666
471,-0.016332522034645,0.0131156230345368,-0.0210147388279438,-0.0015841734129935,-0.0064668916165828,0.000101961515611,-0.0038202181458473,-0.0005537755787372,-0.0105203725397586,-0.0010652811033651,186443103
472,-0.0036839635577052,-0.0120861921459436,-0.0085496511310338,-0.0201713480055332,-0.0147921554744243,-0.0089105730876326,0.0260096490383148,-0.0055462475866079,-0.013761606067419,-0.0153078585863113,97759716
473,-0.0125195253640413,0.0263540241867303,-0.0156798046082258,0.0053871432319283,-0.0010762554593384,0.0013497073668986,-0.0243641734123229,-0.0009478977881371,-0.0068692057393491,0.0034779030829668,7843922
474,-0.0076113557443022,0.0315291061997413,-0.0107792792841792,0.0011059482349082,-0.0023563955910503,0.0006081272149458,-0.0213956609368324,0.0007254004012793,-0.0079386718571186,-0.0022809703368693,124845535
475,-0.0125195253640413,0.0263540241867303,-0.0156798046082258,0.0053871432319283,-0.0010762554593384,0.0013497073668986,-0.0243641734123229,-0.0009478977881371,-0.0068692057393491,0.0034779030829668,7445076
476,0.0409302785992622,-0.0353740006685256,-0.0240837782621383,0.0302931517362594,0.0058529158122837,0.0241144280880689,-0.0310998577624559,0.0238929856568574,-0.0456928238272666,0.0376559048891067,3855634
477,0.047136016190052,0.0264871623367071,0.0254862438887357,0.0006889933720231,0.0017910511232912,0.0065425969660282,-0.0095906844362616,0.0093002393841743,-0.0235141031444072,0.0322644114494323,17110600
478,-0.0051141086038746,-0.0157283722468999,-0.0133659412300591,0.0012045695680459,-0.0086819842612553,-0.00251957261879,-0.0290945988316782,0.0055068496029595,-0.015750864953693,-0.015261491165193,191388858
479,0.0006316704675555,0.0247826296836137,-0.0355619974434375,-0.0099067473784089,-0.0165256895124912,-0.0011851753806695,-0.0090536288917064,-0.0124264396727085,-0.0623944550752639,0.0079579427838325,85885097
