,security,conformity,tradition,benevolence,universalism,self-direction,stimulation,hedonism,achievement,power,song_id
0,0.0092473216354846,-0.0002591238589957,-0.0168954636901617,-0.0031725282315164,-0.0067757377400994,0.0021837765816599,0.0032283086329698,-0.5114020109176636,-0.0544862560927867,0.0398644469678401,4116102
1,-0.0242436155676841,-0.0058498093858361,-0.0065226638689637,-0.0087099485099315,-0.0074593420140445,-0.004239902831614,0.0253452565521001,-0.7575538754463196,-0.056264191865921,0.0190919265151023,80257632
2,-0.0074717374518513,-0.009139459580183,-0.0184840708971023,-0.0232470817863941,-0.0284245125949382,-0.0076142153702676,0.0181132759898901,-0.8874309062957764,-0.0570643469691276,0.0022368803620338,2241308
3,0.0294554345309734,-0.0368796288967132,-0.0117278713732957,0.0067394850775599,-0.0116700790822505,0.0100430138409137,-0.0333845801651477,-0.5039728879928589,-0.0637690871953964,0.0469608977437019,204336669
4,-0.0898239513626516,0.035604341501914,0.0367090490491086,-0.0615081656313332,-0.0354281970359061,-0.0538819935556482,-0.2419840545165017,0.6937948681869814,-0.0431019676938041,-0.0493440662021598,34952275
5,-0.0128384511917829,-0.0104388240724802,-0.0248991306871175,-0.0160290412604808,-0.0242228284478187,-0.009500159882009,-0.0105719249695539,-0.3653586208820343,-0.0483594685792923,0.0081590125337243,17390586
6,0.0003169747069478,-0.0025798887945711,-0.0032861507497727,-0.0073057804256677,0.0014797553885728,-0.0035999109968543,0.0162443332374095,-0.2815244197845459,-0.0197530947625637,0.0176014583557844,9223300
7,-0.0489670522511005,-0.0012353472411632,0.0174466595053672,0.0446188226342201,0.0553442686796188,0.015383125282824,0.0375034101307392,-0.1334712952375412,-0.052392341196537,0.0807258486747741,149782763
8,0.0334557779133319,0.0211581699550151,0.0655825138092041,0.0123981209471821,0.0194645058363676,0.0171751417219638,0.0143736535683274,-0.4739986658096313,-0.0446639060974121,0.1070532202720642,99962781
9,0.0150091685354709,-0.0053207799792289,0.0383435785770416,0.0043836324475705,0.0065964167006313,0.0132036004215478,-0.0104961227625608,-0.1096541583538055,0.0114546818658709,0.0258173532783985,136930153
10,0.0082548055797815,-0.0037960780318826,-0.0089975614100694,-0.0165288336575031,-0.0230617597699165,-0.0082794055342674,-0.0135079436004161,-0.3872532546520233,-0.0427404418587684,0.006662655621767,85912872
11,0.0476405338221425,-0.0548906482028922,-0.0061768723713345,0.0465624655558523,-0.0146984942708191,0.0483208459307182,-0.0507430177520255,-0.7996716537129853,-0.0313357091905199,0.0098733865809774,57005765
12,-0.0489670522511005,-0.0012353472411632,0.0174466595053672,0.0446188226342201,0.0553442686796188,0.015383125282824,0.0375034101307392,-0.1334712952375412,-0.052392341196537,0.0807258486747741,99567690
13,0.0560133308172225,-0.0186353474855422,-0.0014842930249869,0.044283028692007,0.0215902104973793,0.0406552068889141,0.0010860715992748,-0.064395859837532,-0.0529016479849815,0.0915831252932548,151085454
14,-0.0366053432226181,-0.0035425731912255,0.0054619973525404,0.0179544370621442,0.0239424649626016,0.0055716093629598,0.0314243286848068,-0.4455125629901886,-0.0543282628059387,0.0499088838696479,134245347
15,-0.0168684907257556,-0.003506138222292,-0.0178784560412168,-0.0210781507194042,-0.0218536593019962,-0.0039080148562788,0.0216261707246303,-0.7311383485794067,-0.0477490611374378,0.0125070717185735,16074172
16,0.0230658743530511,-0.0006747111328877,-0.0069553395733237,0.0026235883124172,-0.001055960659869,0.0094121256843209,0.0144340209662914,-0.2309354245662689,-0.0041434997692704,0.0295844059437513,61210999
17,0.0253167003393173,-0.0277959275990724,-0.0198484305292367,0.0178855713456869,-0.0041601532138884,0.0033966829068958,-0.0406614616513252,0.2465084195137024,-0.0477494448423385,0.0183834284543991,102814436
18,-0.0065621780231595,0.0057315495796501,-0.0024801951367408,0.0155931189656257,0.0083763757720589,0.0129314316436648,-0.0032558501698076,-0.0593144372105598,-0.0433403253555297,0.0447884537279605,205113268
19,0.0026837126351892,0.0019415644928812,0.0060164909809827,0.0050983605906367,-0.0049364496953785,-0.0030315960757434,-0.0121447946876287,-0.1879057437181472,-0.0638082325458526,0.0735670924186706,99526020
20,-0.0489670522511005,-0.0012353472411632,0.0174466595053672,0.0446188226342201,0.0553442686796188,0.015383125282824,0.0375034101307392,-0.1334712952375412,-0.052392341196537,0.0807258486747741,152156851
21,0.027982909232378,-0.008410676382482,0.0134482253342866,0.019517745822668,0.0108699928969144,0.0167018864303827,-0.0122209507972002,-0.3147927224636078,-0.0483996197581291,0.0936568528413772,17997657
22,0.0022383499890565,-0.0375722274184227,-0.0236980803310871,0.0058144661597907,-0.0178250949829816,-0.0001640240661799,-0.0361800901591777,-0.2072020173072815,-0.0612334161996841,0.0454631634056568,55713838
23,-0.0489670522511005,-0.0012353472411632,0.0174466595053672,0.0446188226342201,0.0553442686796188,0.015383125282824,0.0375034101307392,-0.1334712952375412,-0.052392341196537,0.0807258486747741,97622225
24,0.0501926206052303,-0.0058165676891803,0.0253566056489944,0.0024132188409566,0.006892598234117,5.6067947298288345e-05,-0.0061379326507449,-0.1157303750514984,-0.0102072767913341,0.0615071207284927,114553438
25,-0.0024013081565499,-0.015189791098237,-0.0235038585960865,0.0006985878571867,-0.0205492004752159,0.0092729208990931,-0.0404121726751327,0.0573255978524684,-0.1034604385495185,0.0702913179993629,45138126
26,-0.0174187272787094,-0.0040102433413267,-0.0343387722969055,-0.0135063976049423,-0.0217428598552942,0.002123637124896,-0.0038372343406081,-0.4560901522636413,-0.0889158546924591,0.0336156152188777,51897534
27,0.0055890590883791,-0.0220304038375616,-0.0058140903711318,-9.604403749108316e-05,-0.0115275662392377,-0.0004061935469508,-0.0203738920390605,-0.610233724117279,-0.061312973499298,0.0367806479334831,74451241
28,-0.0489670522511005,-0.0012353472411632,0.0174466595053672,0.0446188226342201,0.0553442686796188,0.015383125282824,0.0375034101307392,-0.1334712952375412,-0.052392341196537,0.0807258486747741,6629722
29,0.0222637485712766,-0.030252045020461,0.0165757946670055,0.0191450640559196,0.0014632949605584,0.0099516427144408,-0.0313702002167701,-0.055763766169548,-0.0552740693092346,0.0641821399331092,111234596
30,0.0414876416325569,-0.0055592032149434,0.0280004329979419,0.0234016384929418,0.0196002162992954,0.0223787613213062,0.0068883397616446,-0.2985886633396148,0.0046144342049956,0.0742426067590713,126273707
31,0.0101573765277862,-0.0157540813088417,-0.0012061935849487,0.0067892186343669,-0.0022178697399795,0.0091553535312414,-0.0019744276069104,-0.4795889258384704,-0.0534956343472003,0.0404692739248275,99567684
32,0.005029316060245,-0.0166088156402111,-0.0088440496474504,-0.0064251469448208,-0.0162693187594413,0.0006717047654092,-0.0023565776646137,-0.3741985857486725,-0.0190383419394493,0.0338939987123012,102339234
33,-0.0095598129555583,-0.0233077388256788,-0.0284182708710432,-0.0121370749548077,-0.0252518057823181,-0.0166171919554471,-0.0168373640626668,-0.1774970889091491,-0.044441170990467,0.0020714057609438,1632500
34,0.0448885411024093,-0.0146296126767992,0.0473921261727809,0.0398016981780529,0.0301231853663921,0.0300702713429927,0.0127586536109447,-0.2018911689519882,-0.0277295093983411,0.1390116959810257,35094579
35,0.0106900363796446,0.036252059065117,-0.0269038007402007,0.0058609859588249,-0.0039695941792044,-0.0237887598796086,0.0703012818924382,0.6055725365231154,0.1138913967758241,-0.0309362881985534,16843548
36,0.012545995414257,-0.0089915888383984,-0.0080655496567487,-0.0086084697395563,-0.0139499092474579,-0.0038192165084183,-0.0036182175390422,-0.2805822789669037,-0.047586154192686,0.038540668785572,106839634
37,0.0240800995379686,-0.035589076578617,0.0141753545030951,0.0259822513908147,0.0059623909182846,0.0200405046343803,-0.0321688652038574,-0.2001341879367828,-0.0716928020119667,0.0753471702337265,134245346
38,-0.0211531817913055,-0.0064266128465533,-0.009518826380372,-0.0153760435059666,-0.015309790149331,-0.0066927811130881,0.0238254852592945,-0.835564136505127,-0.0567481853067874,0.0113876909017562,5635960
39,0.004003576003015,-0.0204166248440742,-0.0264014638960361,-0.0167500488460063,-0.0283325612545013,-0.0066419881768524,0.0043957438319921,-0.6480899453163147,-0.0475866943597793,-0.0016313046216964,142836663
40,-0.0161177795380353,0.007096579298377,-0.0418178439140319,-0.0213919300585985,-0.025711003690958,0.0088168513029813,0.0040281452238559,-0.3461673557758331,-0.0908716544508934,0.0417054668068885,152156857
41,-0.0013142025563865,-0.009564658626914,-0.0119938142597675,-0.0083945710211992,-0.0172402337193489,0.0037094387225806,0.0004191203333903,-0.3701166212558746,-0.0370900742709636,-0.0436662957072258,84371480
42,-0.0118818897753953,-0.0081570427864789,-0.0185073241591453,-0.0353743284940719,-0.0388611406087875,-0.0140514187514781,0.0192661806941032,-1.069595217704773,-0.0582001246511936,-0.0117250280454754,46337905
43,0.044074572622776,-0.0450997911393642,0.0145989507436752,0.0136662404984235,-0.0052531501278281,0.0192581340670585,-0.0421916991472244,-0.5756493806838989,-0.0768508315086364,0.0686107277870178,828136
44,0.0020148018375039,0.0115928975865244,-0.0173704270273447,-0.006173207424581,-0.0103878295049071,-0.0004841294139623,-0.010359076783061,-0.1377783417701721,-0.0392795987427234,0.0073213609866797,64471701
45,0.0102466973358689,0.0165814785530325,-0.0662361293664077,-0.001323164374083,0.0012699767599466,-0.0198379585336726,0.018645593036927,0.0541339229748561,-0.0765540806510301,0.0058619956096666,80988232
46,-0.0074321087449789,-0.0123098930343985,-0.0242036897689104,-0.0256866626441478,-0.0300338678061962,-0.0073470063507556,0.0233181063085794,-0.6625905632972717,-0.0642068907618522,0.0157195664942264,76983686
47,0.0800299048423767,-0.0104693584144115,0.032169084995985,0.0578090362250804,0.0317935720086097,0.0510399267077446,-0.0180310048162937,0.2551137506961822,-0.0377131886780262,0.1379793137311935,148763951
48,-0.0024993354454636,0.0141338631510734,-0.000732711632736,-0.0097624864429235,-0.014608597382903,-0.0051516611129045,0.0073502548038959,-0.5403697490692139,-0.0448498912155628,0.0018210266716778,139654441
49,-0.0115550924092531,0.0543017089366912,-0.040706992149353,-0.0314221903681755,-0.0192041546106338,-0.0168607309460639,0.0504602752625942,-0.3013520538806915,0.1009520888328552,-0.0598869770765304,55441816
50,-0.0366053432226181,-0.0035425731912255,0.0054619973525404,0.0179544370621442,0.0239424649626016,0.0055716093629598,0.0314243286848068,-0.4455125629901886,-0.0543282628059387,0.0499088838696479,2107983
51,0.1779923439025879,0.0627078711986541,-0.0462722964584827,0.0417436435818672,0.049596507102251,0.0389783568680286,0.0090375505387783,0.3877626061439514,0.0214186739176511,0.0432556122541427,57005772
52,0.0198331195861101,0.025273784995079,0.0069857072085142,0.0206705257296562,0.0074080643244087,0.0138122355565428,-0.0230149924755096,0.191660463809967,-0.0457050204277038,0.0598622299730777,2565059
53,-0.0037311557680368,-0.0092865508049726,-0.0116152791306376,-0.0125791076570749,-0.0179728269577026,-0.0011286749504506,0.0179737284779548,-0.7897961735725403,-0.0566317029297351,0.0166283044964075,98114160
54,-0.0304244700819253,-0.0046961870975792,-0.0005303313955664,0.0046222433447837,0.0082415640354156,0.0006658528000116,0.0283847898244857,-0.6015331745147705,-0.0552962385118007,0.0345004051923751,49562778
55,0.0133945420384407,0.0023687845095992,-0.025250244885683,-0.0115108173340559,-0.0161587875336408,0.005686230957508,0.0118553265929222,-0.5577781200408936,-0.0592322051525116,0.0250269696116447,19226344
56,0.0245504789054393,-0.0011346241226419,-0.0146473599597811,0.0099480412900447,0.0017443045508116,0.0076680588535964,-0.0101516591385006,-0.0531332865357399,-0.0161408446729183,0.0131738577038049,152156863
57,-0.067889504134655,0.0233040507882833,0.0047789458185434,-0.0244874209165573,-0.0004246237222105,-0.0220362097024917,0.0648472011089325,-1.513730525970459,-0.0240277610719203,-0.0484341941773891,136884961
58,-0.0005195094272494,-0.0088566355407238,-0.0213250443339347,0.0020331963896751,-0.0190246272832155,0.0017736288718879,-0.0181149300187826,-0.0249451100826263,-0.0562342144548893,0.0639191642403602,1632495
59,-0.0489670522511005,-0.0012353472411632,0.0174466595053672,0.0446188226342201,0.0553442686796188,0.015383125282824,0.0375034101307392,-0.1334712952375412,-0.052392341196537,0.0807258486747741,1027136
60,0.0130433775484561,-0.0340233817696571,0.0379471257328987,0.0231780633330345,0.0251366626471281,0.0059474017471075,0.0391030609607696,-0.3120934665203094,0.0913599357008934,0.0314692147076129,17326775
61,0.0082640992477536,-0.0073404079303145,-0.0115694524720311,-0.0015696692280471,-0.0125907212495803,0.0117732770740985,-0.0056670801714062,-0.2798816263675689,-0.0665156841278076,0.0493167340755462,2323034
62,0.0529268160462379,-0.0569255277514457,0.0281274355947971,0.0416598841547966,0.0148537121713161,0.0309831090271472,-0.0700230151414871,-0.1173698008060455,-0.088886372745037,0.1109773218631744,152997654
63,0.0031751901842653,-0.0212688390165567,-0.0124391326680779,0.0053394325077533,-0.0124561507254838,0.0104888807982206,-0.0311539620161056,-0.2380411773920059,-0.0764769911766052,0.0598410107195377,134245351
64,0.0100355586037039,-0.0281618945300579,0.0039348234422504,0.0122667802497744,0.0072087831795215,0.0100319730117917,0.0034101414494216,-0.2000294625759124,-0.0600906386971473,0.0789049640297889,59403627
65,-0.0346603617072105,0.0105574270710349,-0.0238408520817756,0.0186046417802572,0.0213916972279548,0.0235341191291809,0.0131467562168836,0.1218947172164917,-0.0879677608609199,0.0879309028387069,113169861
66,-0.0283641852438449,-0.0050807278603315,-0.0025277771055698,0.0001781799364835,0.0030079297721385,-0.000969398766756,0.0273716114461421,-0.6535400748252869,-0.0556188933551311,0.0293642487376928,56800868
67,-0.0118818925693631,-0.0081570418551564,-0.0185073260217905,-0.0353743284940719,-0.0388611406087875,-0.0140514187514781,0.0192661825567483,-1.069595217704773,-0.0582001246511936,-0.0117250252515077,34373547
68,-0.0126893585547804,-0.0071862153708934,-0.0062506748363375,0.0008275182917714,-0.0021564103662967,0.0058543225750327,0.0112048536539077,-0.3148646056652069,-0.0321375727653503,0.0952552333474159,3671199
69,0.0059880982153117,-0.0114761227741837,-0.0092142671346664,-0.0125708281993865,-0.0172137543559074,-0.0011494671925902,0.0077090431004762,-0.7903640866279602,-0.0573247820138931,0.0178131517022848,210971961
70,0.0177338421344757,-0.0011293813586235,0.0210305657237768,0.0057794209569692,0.00256073102355,0.0071832658722996,-0.0100508518517017,0.1069190800189971,-0.0032700032461434,0.0214435011148452,163661563
71,-0.0140887964516878,-0.00010028318502,-0.0098429564386606,-0.0165012758225202,-0.0238305144011974,-0.0007194298086687,0.0076475595124065,-0.4308227300643921,-0.0733787566423416,0.0099924337118864,57005722
72,0.0331222489476203,-0.0275930967181921,0.0248054563999176,0.027604267001152,0.0146915167570114,0.023774242028594,0.0174858998507261,-0.3526344001293182,-0.0425367467105388,0.1108420193195343,93918535
73,-0.0016290713101625,-0.016565304249525,-0.0065416134893894,0.015508996322751,0.0138050420209765,0.0156597215682268,0.029364114627242,0.2873305678367615,-0.0747566744685173,0.1038156375288963,49652179
74,0.0105890333652496,-0.002586088841781,0.0055105211213231,0.002476502675563,-0.0141583308577537,-0.0003305976279079,-0.0312175583094358,-0.0735885798931121,-0.0459635555744171,0.0327824018895626,188693345
75,0.0203107818961143,-0.0199392661452293,-0.0242811702191829,-0.0043157702311873,-0.0086537627503275,0.0068576605990529,-0.0059212390333414,-0.7057533860206604,-0.0159654393792152,0.023541372269392,11100005
76,-0.009951639920473,0.0004355413839221,-0.0070082042366266,-0.0053430385887622,-0.0110781341791152,0.0066085755825042,0.0067524337209761,-0.4882656335830688,-0.0837589874863624,0.0564853139221668,17086876
77,-0.0203536693006753,0.0223501827567815,-0.0651283636689186,-0.007409534882754,-0.0125608686357736,0.0316851176321506,-0.0112098827958107,0.3772605657577514,-0.1235431730747222,0.0951359644532203,102112552
78,-0.0105238389223814,-0.0051158000715076,-0.0190380848944187,-0.0340912006795406,-0.0372977331280708,-0.0120248449966311,0.0181696731597185,-1.0089002847671509,-0.0606488138437271,-0.0073019163683056,68242601
79,-0.0014497694792225,-0.0135297216475009,0.0278332326561212,-0.0137421209365129,-0.006572145037353,0.0033744948450475,0.0365607887506485,-0.4289936423301697,-0.0225614197552204,0.0067362510599195,86451188
80,0.0357610620558261,-0.0183236058801412,-0.0303059704601764,0.0349792763590812,0.0132301189005374,0.0276346858590841,0.003963794093579,0.0756778419017791,-0.0510497987270355,0.0691532641649246,17612683
81,-0.0386417596584074,0.0005880379563213,0.0808496860083805,-0.0433567587107243,-0.0084120489448553,-0.0235584075113021,-0.0359440999394232,-0.9111892166995934,0.0088506280248541,-0.0093498258726006,59543419
82,0.0237321071326732,-0.0293871089816093,-0.0005627470090985,0.022794596850872,0.0016328138299286,0.0153261050581932,-0.0557126700878143,-0.0033542662858963,-0.0694313421845436,0.0663462877273559,124205317
83,0.0183825548738241,0.0131063777953386,0.0302226599305868,-0.0144091621041297,-0.0057403012178838,-0.0123723754659295,-0.0076549025252461,0.105229765176773,-0.027669034898281,-0.0927272662520408,195065492
84,-0.0366053432226181,-0.0035425731912255,0.0054619973525404,0.0179544351994991,0.0239424649626016,0.0055716093629598,0.0314243286848068,-0.4455125629901886,-0.0543282628059387,0.0499088838696479,57544795
85,-0.0058881440199911,-0.0065648001618683,-0.0131299635395407,-0.0149157019332051,-0.0172912068665027,-0.0056582875549793,0.0138222835958004,-0.8154293298721313,-0.057240106165409,0.0218845400959253,85345213
86,0.0178582854568958,-0.0050621260888874,0.0097097679972648,0.0023738360032439,-0.0002179035218432,0.0188013054430484,-0.006304389797151,-0.240775927901268,-0.0097992485389113,0.0242685358971357,14469100
87,0.0221028309315443,-0.0060378732159733,-0.014623899012804,0.0048581985756754,-0.0015142869669944,0.0145774139091372,-0.0011076033115386,-0.3782655894756317,-0.0625803843140602,0.0483781695365905,5315847
88,-0.0053120832890272,-0.0165911354124546,-0.0289023928344249,-0.0192078649997711,-0.0230736322700977,-0.0200202353298664,0.0196289457380771,-0.5751513242721558,-0.030465792864561,0.0083657074719667,134245359
89,-0.0118818897753953,-0.0081570390611886,-0.0185073167085647,-0.0353743284940719,-0.0388611406087875,-0.0140514187514781,0.019266178831458,-1.0695953369140625,-0.0582001246511936,-0.0117250215262174,99480601
90,0.0331415459513664,0.0064287446439266,0.0033194068819284,0.0116041293367743,0.0042537520639598,0.0161403119564056,-0.0085002314299345,-0.2715262174606323,-0.0560630932450294,0.12717105448246,46178447
91,0.1326004564762115,0.0499192178249359,-0.0335285030305385,0.0423186793923378,0.0507460609078407,0.034259308129549,0.0147307235747575,0.2835158705711365,0.006656477227807,0.0507496520876884,60637252
92,-0.0226789619773626,-0.0156314484775066,0.0469560697674751,0.0145532637834548,0.0354301854968071,-0.0030947993509471,0.0926610305905342,-0.4994922876358032,0.202542096376419,-0.0028805600013583,67809135
93,0.1779923439025879,0.0627078711986541,-0.0462722964584827,0.0417436435818672,0.049596507102251,0.0389783568680286,0.0090375505387783,0.3877626061439514,0.0214186739176511,0.0432556122541427,103553857
94,-0.0489670522511005,-0.0012353472411632,0.0174466595053672,0.0446188226342201,0.0553442686796188,0.015383125282824,0.0375034101307392,-0.1334712952375412,-0.052392341196537,0.0807258486747741,200750991
95,-0.0489670522511005,-0.0012353472411632,0.0174466595053672,0.0446188226342201,0.0553442686796188,0.015383125282824,0.0375034101307392,-0.1334712952375412,-0.052392341196537,0.0807258486747741,181695848
96,-0.0304244700819253,-0.0046961870975792,-0.0005303313955664,0.0046222433447837,0.0082415640354156,0.0006658528000116,0.0283847898244857,-0.6015331745147705,-0.0552962385118007,0.0345004051923751,7308736
97,0.0300006661564111,-0.0044115241616964,-0.023880049586296,-0.0149713344871997,-0.0206736959517002,0.0021994872950017,0.0089945122599601,-0.7879638671875,-0.0381051376461982,0.0076323659159243,76169655
98,-0.0055368104949593,-0.000723703764379,-0.045723233371973,0.0071300910785794,-0.0091174449771642,0.0202850066125392,-0.0321391969919204,0.3487530648708343,-0.1078497320413589,0.0901572108268737,17614637
99,0.0426138378679752,-0.0099173057824373,0.0098685547709465,0.0088415462523698,0.0068353312090039,0.016006164252758,-0.0070115979760885,-0.8161595463752747,-0.0422387346625328,0.1010967493057251,129997203
100,0.0211472176015377,0.0004171412438154,-0.0022623348049819,0.0112884454429149,-0.0158353541046381,0.0016775405965745,-0.0695870891213417,0.3085506558418274,-0.0511949397623539,0.0371652245521545,86981001
101,0.0255121961236,0.0012991232797503,0.0658667981624603,0.0060770632699131,0.0101047279313206,0.0163436289876699,-0.0048346957191824,-0.165038377046585,0.0082291644066572,0.0284042973071336,178303212
102,0.0353615507483482,-0.0166750587522983,0.0588346570730209,0.036258690059185,0.0227402541786432,0.0352125279605388,-0.0169599708169698,-0.3261763751506805,0.0021742065437138,0.0776523426175117,58693284
103,0.0157565753906965,-0.0247304700314998,0.0204695798456668,0.0215087905526161,0.0064663868397474,0.0147651946172118,-0.0179005861282348,0.0372902676463127,-0.0622960105538368,0.1046456024050712,203148074
104,-0.007263658568263,-0.0004764213226735,-0.0375986881554126,-0.0123122772201895,-0.0221531279385089,0.0064952704124152,-0.0070181945338845,-0.211774468421936,-0.0625473484396934,0.0271905194967985,17516504
105,-0.0015074266120791,-0.0126271583139896,-0.0121393799781799,0.0085126589983701,-0.0079090036451816,-0.0046304762363433,-0.0275703407824039,-0.293067991733551,-0.0524545423686504,0.0425906628370285,51846914
106,-0.0077556008473038,-0.0009724985575303,-0.0165381543338298,-0.0150765515863895,-0.015486191958189,-0.0030473046936094,0.0200901180505752,-0.7335609197616577,-0.0563354790210723,0.0141099244356155,212958532
107,-0.00683403480798,0.014515409246087,-0.0015033127274364,-0.0021835383959114,0.0033655120059847,-0.0031930366531014,0.0101833129301667,0.1446725875139236,-0.0049150171689689,0.0154317710548639,2135522
108,0.0107642989605665,0.0091684907674789,0.0173291079699993,-0.0059541217051446,-0.0123239653185009,0.0002148990752175,-0.0102926408872008,-0.4645617008209228,-0.0228675249963998,0.0128382816910743,90910059
109,-0.0194439273327589,-0.0042260149493813,-0.0087672835215926,-0.0214379783719778,-0.020810192450881,-0.0124167772009968,0.0148283261805772,-0.7691863179206848,-0.0668668672442436,-0.0024736074265092,1629358
110,-0.0366053432226181,-0.0035425731912255,0.0054619973525404,0.0179544370621442,0.0239424649626016,0.0055716093629598,0.0314243286848068,-0.4455125629901886,-0.0543282628059387,0.0499088838696479,134245357
111,-0.0242436155676841,-0.0058498093858361,-0.0065226638689637,-0.0087099485099315,-0.0074593420140445,-0.004239902831614,0.0253452565521001,-0.7575538754463196,-0.056264191865921,0.0190919265151023,2037677
112,0.0032321629114449,0.017047993838787,0.0319678299129009,-0.010105937719345,-0.0020896457135677,0.0028006290085613,0.0278700366616249,-0.7366315126419067,-0.0616360381245613,0.0663589611649513,71041493
113,0.0126771191135048,-0.0055481111630797,0.0397908613085746,-0.0116636836901307,0.0036652616690844,0.0085539761930704,0.0434047244489192,-0.2900183200836181,0.0011897931108251,0.000676566385664,99470365
114,-0.018426340073347,-0.0069355661980807,-0.0121625121682882,-0.0212578941136598,-0.0222366582602262,-0.0088570872321724,0.0224845148622989,-0.9043967723846436,-0.0571752190589904,0.0045898277312517,1261561
115,-0.026474006474018,0.0025639089290052,0.0321519151329994,0.0116358269006013,0.0275684315711259,-0.0020915383938699,0.0767502263188362,-0.4919614791870117,0.1293447911739349,0.0069946255534887,41571963
116,-0.0166330449283123,0.0070906858891248,-0.0424592643976211,-0.006864077411592,-0.0144348153844475,0.0178453158587217,-0.0097468849271535,0.0295475572347641,-0.1034572422504425,0.0706686750054359,51113095
117,-0.0118818925693631,-0.0081570418551564,-0.0185073260217905,-0.0353743284940719,-0.0388611406087875,-0.0140514187514781,0.0192661825567483,-1.069595217704773,-0.0582001246511936,-0.0117250252515077,76169642
118,0.0216905009001493,-0.0153957400470972,-0.0208983123302459,-0.008855003863573,-0.0187643971294164,-0.0061489231884479,-0.04163733497262,-0.0718778669834137,-0.0308835059404373,0.0240295715630054,109965166
119,-0.0118818925693631,-0.0081570418551564,-0.0185073260217905,-0.0353743284940719,-0.0388611406087875,-0.0140514187514781,0.0192661825567483,-1.069595217704773,-0.0582001246511936,-0.0117250252515077,84279791
120,-0.0358230099081993,-0.0084333959966897,0.0322013646364212,0.0295860357582569,0.0453872270882129,0.0061441613361239,0.0650822147727012,-0.3164817094802856,0.0750748738646507,0.0389226377010345,194171766
121,0.0121216084808111,-0.0177196413278579,0.0116576235741376,0.0359045974910259,0.0184687096625566,0.0185506511479616,-0.0137256979942321,0.1008253991603851,-0.0690447688102722,0.0823253914713859,18271679
122,0.0122458226978778,-0.0041886940598487,0.0106423497200012,0.0059256511740386,0.0041953087784349,0.0084110163152217,0.0091283395886421,-0.6216413974761963,-0.0454555451869964,0.0690893083810806,58470789
123,-0.0194478835910558,-0.010742150247097,0.016331922262907,-0.0043380139395594,0.0057767122052609,-0.0052605043165385,0.0583157502114772,-0.6709636449813843,0.0799097120761871,0.0007032168796285,4194332
124,0.0536341667175293,-0.0056894035078585,0.0101470490917563,0.0169248953461647,0.0160604994744062,0.0207339860498905,-0.0076668420806527,-0.6964561939239502,-0.0371033772826194,0.1100306808948516,18167326
125,0.0031702159903943,-0.0121247498318552,-0.0089222760871052,-0.0117855137214064,-0.0094547495245933,-0.0002289267722517,-0.0017889407463371,-0.6532439589500427,-0.0313791297376155,0.0024385105352848,84351638
126,-0.0139987869188189,-0.024579431861639,-0.0213412903249263,-0.0061574708670377,-0.0204391479492187,-0.0025516138412058,0.0083748325705528,-0.5689088106155396,-0.0622436255216598,0.014689864590764,77891076
127,0.0256327241659164,0.0003989934921264,-0.084966205060482,-0.0077704605646431,-0.0223348475992679,-0.0097883027046918,-0.0574406757950782,-0.1163541004061698,-0.0921453088521957,0.0935598611831665,179755765
128,0.0216089561581611,-0.0024516319390386,-0.0095873354002833,0.0175863970071077,-0.0037604901008307,0.0193697176873683,0.000589046627283,-0.2195402383804321,-0.0585893429815769,0.0482537187635898,82816346
129,-0.0118818925693631,-0.0081570418551564,-0.0185073260217905,-0.0353743284940719,-0.0388611406087875,-0.0140514187514781,0.0192661825567483,-1.069595217704773,-0.0582001246511936,-0.0117250252515077,30401956
130,-0.0046854019165039,0.0035755324643105,-0.0107755092903971,-0.0043494449928402,-0.0060918806120753,-0.0065937908366322,-0.0159635841846466,0.0551253370940685,0.0010958667844533,0.0002618641592562,109598935
131,-0.0211531817913055,-0.0064266128465533,-0.009518826380372,-0.0153760435059666,-0.015309790149331,-0.0066927811130881,0.0238254852592945,-0.835564136505127,-0.0567481853067874,0.0113876909017562,111304309
132,0.0537168675311059,-0.1146887220201945,-0.023792236058987,0.0406383148950253,0.0139275512836959,-0.0082431774918378,0.0049714418798191,1.1307685508681953,0.056072900148964,0.0551031739190369,134245353
133,-0.0075640734285116,0.0120414579287171,-0.0256755277514457,-0.0073825251311063,-0.0066676111891865,-0.0049875639379024,0.0085348300635814,-0.0192774124443531,-0.019954077899456,0.000401493627578,32800026
134,-0.0001803869381546,-0.0098845679312944,-0.0073483902961015,0.0090633956715464,-0.0016503046499565,0.0168783161789178,-0.0226491261273622,-0.0687004476785659,-0.0572017431259155,0.0617249011993408,57241602
135,0.0382875315845012,0.0388454869389534,-0.0229155831038951,0.0089445719495415,-0.0063797081820666,0.0150510352104902,-0.0153269851580262,0.3517215847969055,-0.0415962114930152,0.0724815428256988,7946252
136,0.0950415804982185,0.023736372590065,0.0072739957831799,-0.0118657164275646,0.0106978733092546,0.0010331383673474,-0.0217188205569982,-0.1010128334164619,-0.0211910177022218,0.0730448365211486,108107289
137,-0.0207438580691814,-0.0203261021524667,-0.0228230245411396,-0.0174090731889009,-0.0227894149720668,-0.0086264722049236,-0.0054742582142353,-0.5718722939491272,-0.0676321238279342,0.0104104056954383,64185077
138,-0.0152532644569873,-0.0075277844443917,-0.0152387795969843,-0.0281022265553474,-0.0302970148622989,-0.011375549249351,0.0209241025149822,-0.9844930171966552,-0.0576721467077732,-0.0033204043284058,83511139
139,0.0109424823895096,-0.0126341506838798,0.0268179457634687,0.0276875887066125,0.0280001871287822,0.0277642887085676,0.0031736260280013,-0.2083909809589386,-0.0383782349526882,0.0804082825779914,50343962
140,0.0240500333799668,0.0258112240936622,0.0540012088772076,0.042595007041332,0.0704246890300999,0.0441136417375998,0.0931341450506682,-0.367339783201039,0.0309571361429177,0.0116752888603101,199050935
141,-0.0175920855253934,-0.0008339414489455,-0.0098445545881986,-0.0093705672770738,-0.0090757980942726,0.0010247775353491,0.0201627686619758,-0.6322923302650452,-0.0630162954330444,0.0348817892372608,50820032
142,0.0405967235565185,0.0028564883396029,-0.0097020287066698,0.019574724137783,0.0023211734369397,0.0150094432756304,-0.0217260681092739,-0.0663194805383682,-0.0082744797691702,0.0297352131456136,82020498
143,0.0004677041433751,0.0044612428173422,-0.0262394212186336,-0.0160069912672042,-0.0174735412001609,0.001761072082445,0.0144531298428773,-0.588941216468811,-0.0623146146535873,0.021107105538249,9474028
144,-0.0489670522511005,-0.0012353472411632,0.0174466595053672,0.0446188226342201,0.0553442686796188,0.015383125282824,0.0375034101307392,-0.1334712952375412,-0.052392341196537,0.0807258486747741,55179313
145,-0.0031339968554675,0.0012937237042933,-0.0119446692988276,-0.0178256649523973,-0.0286750011146068,-0.009083742275834,-0.0011418252252042,-0.560744047164917,-0.0493335127830505,-0.0010400381870567,60392809
146,-0.0088772773742675,-0.0310757476836442,0.0122892241925001,0.0380831286311149,0.0147088868543505,0.0103312162682414,-0.0474144667387008,0.2874097526073456,-0.0909991711378097,0.0963902026414871,92235366
147,0.0309591125696897,0.0056341146118938,-0.0495588183403015,-0.0087181804701685,-0.0145312631502747,-0.0002988104242831,-0.0098748868331313,-0.0458672121167182,-0.051908504217863,0.0254944451153278,93296295
148,0.0263338256627321,-0.0050467569380998,-0.0136554045602679,0.0056789005175232,-0.0064659500494599,0.0108896279707551,-0.0198738351464271,-0.1609840542078018,-0.0675742104649543,0.0661229193210601,3352568
149,-0.0217864289879798,0.002542785834521,-0.0226000528782606,-0.0085599068552255,-0.0082025388255715,0.0070129027590155,0.0182632617652416,-0.3837807476520538,-0.0572846569120883,0.0400408208370208,79219366
150,-0.0330734141170978,-0.0042017907835543,0.0020378110930323,0.0103360414505004,0.0149705223739147,0.0027683204971253,0.0296874549239873,-0.5346671938896179,-0.0548813939094543,0.0411040447652339,193273536
151,0.0200307294726371,-0.0039536757394671,0.0077873631380498,0.0187133010476827,-0.0004502614028751,0.0158304199576377,-0.0249315872788429,-0.2778124809265136,-0.0767986699938774,0.1244049742817878,5434805
152,-0.0105458740144968,-0.0023009674623608,-0.0103656947612762,0.0231188535690307,0.0180258154869079,0.0206686686724424,-0.0006994144059717,-0.091620922088623,-0.0557609759271144,0.06727185100317,115765914
153,0.0093284305185079,-0.0053864670917391,-0.0359963849186897,-0.0039776489138603,-0.0181505754590034,0.0038769312668591,-0.0219022557139396,-0.1589207947254181,-0.0635098293423652,0.0481843948364257,2860796
154,0.0010730760993839,0.0876495901162162,0.0469577515660483,-0.0058488102698824,-0.0097348389538409,0.007607977292778,0.0197856369220256,0.4426929024040499,0.0262141755851498,0.0755112781803559,125480482
155,0.021906953305006,-0.0118066500872373,0.0017424302641302,0.0039927684701979,-0.0181105062365531,0.0033473616931587,-0.051338080316782,-0.0506835542619228,-0.0567612238228321,0.0364652574062347,169366451
156,0.0382906347513198,-0.0275227222591638,0.0020312154665589,0.004854024387896,-0.0203256979584693,-4.868023097515106e-06,-0.0554955936968326,0.2248189747333526,-0.0710841864347457,0.0480765625834465,14884938
157,0.0669300630688667,-0.0067773116752505,0.0258004330098629,0.051705814898014,0.0378058366477489,0.038947332650423,-0.006789649836719,0.0605066418647766,-0.01234557852149,0.0985512062907219,55614776
158,0.0086781196296215,-0.0142441876232624,-0.006329842377454,0.006305324845016,-0.0052876584231853,0.0093974433839321,0.0055312062613666,-0.4911866188049316,-0.060419987887144,0.0432897768914699,15738922
159,0.0083826072514057,0.0027838270179927,-0.037748847156763,-0.0118432566523551,-0.0140924360603094,0.015796273946762,0.0027400441467761,-0.1781282126903534,-0.0650541931390762,0.0418896824121475,83380751
160,-0.0178746376186609,0.0057103838771581,-0.033779390156269,-0.0102349333465099,-0.0133851924911141,0.0107523910701274,0.0049117635935544,-0.2384993582963943,-0.0843029245734214,0.048998899757862,1284914
161,-0.0118818925693631,-0.0081570418551564,-0.0185073260217905,-0.0353743284940719,-0.0388611406087875,-0.0140514187514781,0.0192661825567483,-1.069595217704773,-0.0582001246511936,-0.0117250252515077,3998623
162,0.0621148310601711,-0.011052849702537,0.0160790011286735,0.0388793423771858,0.0266991388052701,0.0375267378985881,-0.0149870412424206,0.3972499370574951,-0.0524163544178009,0.1465701460838318,3777800
163,-0.0298592410981655,0.0135195944458246,0.0080793518573045,-0.0089782616123557,-0.0031580536160618,-0.0007989085279405,0.0317145027220249,-0.5768394470214844,-0.0326547175645828,0.0245052967220544,195760279
164,-0.0040027713403105,-0.0166907981038093,-0.012515197508037,-0.011713464744389,-0.007929409854114,-0.0029284642077982,0.0262957122176885,-0.750593364238739,0.0156157873570919,0.0200125519186258,164950564
165,0.0166456848382949,-0.0121103376150131,0.0056148171424865,0.0444089472293853,0.0342479832470417,0.0311781726777553,0.0147425681352615,-0.0902991443872451,-0.0527106635272502,0.0875116512179374,7908339
166,0.0381382182240486,-6.821425631642342e-05,0.0128283696249127,0.0247047562152147,-0.0026542288251221,0.016240369528532,-0.0501994006335735,0.2993524670600891,-0.0498434491455554,0.0467563271522522,90166650
167,-0.0035292329266667,-0.0081354836001992,0.0077173840254545,0.0026643329765647,0.0006744550773873,0.0007307436317205,0.0126751447096467,-0.2878943085670471,-0.00890972930938,0.0291183348745107,65079014
168,0.0315036326646804,-0.0132605023682117,-0.0131590999662876,0.0135284094139933,-0.0028431569226086,0.0071547236293554,-0.0490538328886032,0.1194984316825866,-0.0411462634801864,0.0450066998600959,66117517
169,-0.0128405038267374,-0.0053672934882342,-0.0071988468989729,-0.0057160649448633,-0.0070491023361682,-0.0082379989326,-0.0020661791786551,-0.4452321827411651,-0.0267488211393356,-0.001821263693273,99386143
170,-0.0489670522511005,-0.0012353472411632,0.0174466595053672,0.0446188226342201,0.0553442686796188,0.015383125282824,0.0375034101307392,-0.1334712952375412,-0.052392341196537,0.0807258486747741,96457658
171,0.0009002592414617,-0.0105301011353731,0.0142260352149605,-0.0022556236945092,-0.0115207768976688,0.0048496802337467,-0.0217018611729145,-0.3466569781303406,-0.0433006584644317,0.0403302311897277,19550437
172,-0.0304244700819253,-0.0046961870975792,-0.0005303313955664,0.0046222433447837,0.0082415640354156,0.0006658528000116,0.0283847898244857,-0.6015331745147705,-0.0552962385118007,0.0345004051923751,87029402
173,0.002483076415956,-0.0172844603657722,-0.0159763880074024,-6.069988012313843e-05,-0.0156173631548881,0.0092112310230731,-0.0185613464564085,-0.2420797646045684,-0.0827382951974868,0.0526551529765129,102675336
174,-0.0118818925693631,-0.0081570418551564,-0.0185073260217905,-0.0353743284940719,-0.0388611406087875,-0.0140514187514781,0.0192661825567483,-1.069595217704773,-0.0582001246511936,-0.0117250252515077,49331390
175,0.0315247476100921,0.0098018841817975,0.0202859435230493,0.0020791795104742,-0.024141825735569,-0.0037138254847377,-0.0719555616378784,0.4327819347381592,-0.0486900955438613,0.0055761514231562,189822176
176,0.0287901647388935,-0.0143729243427515,0.0109798125922679,0.0190676711499691,0.0070266313850879,0.0198835991322994,-0.0059922761283814,-0.180794209241867,-0.035692024976015,0.0958717986941337,52080229
177,-0.0034349635243415,0.0052259336225688,-0.0111132729798555,-0.0189762208610773,-0.026352934539318,-0.0037920465692877,0.0106170708313584,-0.6114696860313416,-0.0437133833765983,-0.0002708223182708,110111095
178,0.0221744887530803,0.0052849063649773,-0.053564041852951,-0.0226232558488845,-0.0299909636378288,-0.0121976239606738,-0.0263342410326004,-0.5741589665412903,-0.0741289928555488,0.0351476892828941,83551433
179,-0.0226789657026529,-0.0156314484775066,0.0469560697674751,0.0145532619208097,0.0354301892220974,-0.0030947984196245,0.0926610380411148,-0.4994922280311584,0.2025420814752578,-0.0028805618640035,195227039
180,-0.0458268336951732,-0.0241264067590236,-0.0240326020866632,-0.0080471783876419,-0.0087678581476211,-0.0069164657033979,0.0185598507523536,-0.3188447654247284,-0.0115736350417137,-0.0065991380251944,4687741
181,0.0174012891948223,0.0026405518874526,-0.0073537188582122,0.0043580196797847,0.0015045762993395,0.0121718095615506,-0.0131592331454157,-0.149280697107315,-0.0217290353029966,0.0598444826900959,74781242
182,0.0186759196221828,0.0074002817273139,-0.0168695207685232,-0.0039521073922514,-0.0023285308852791,0.0024414448998868,0.0208678990602493,-0.5908988118171692,-0.0411148071289062,0.0177612751722335,52422878
183,-0.0125335678458213,-0.005810328759253,-0.0220935605466365,-0.0332231931388378,-0.0368380472064018,-0.010533221065998,0.016921866685152,-0.9582985639572144,-0.063226506114006,-0.0035049566067755,63078310
184,-0.0183267369866371,-0.0002225218340754,-0.0103548895567655,-0.002184678800404,-0.0080733951181173,0.0077338395640254,0.005851695779711,-0.1859728097915649,-0.0747480019927024,0.0487884767353534,7798401
185,0.0247933156788349,-0.0051388540305197,0.0252727232873439,0.0095073664560914,0.0017504596617072,0.0120176011696457,0.0153286680579185,-0.3801000714302063,-0.0373115129768848,0.0661430358886718,97205149
186,0.0065436824224889,-0.0013437705347314,0.0042743771336972,0.0048762522637844,-0.003280829405412,0.0084107602015137,-0.001802303828299,-0.3219458758831024,-0.0337747335433959,0.0416568480432033,2045233
187,-1.821480691432953e-05,-0.0119271986186504,-0.013413393869996,-0.0148674258962273,-0.023929227143526,0.0018907554913312,0.0082546714693307,-0.633597195148468,-0.0558258742094039,0.0082298647612333,213759518
188,0.031033856794238,-0.0091705070808529,0.0159242041409015,0.0165012590587139,0.013229395262897,0.0171364061534404,0.0007521016523241,-0.3685429692268371,-0.0198296010494232,0.0733357816934585,44976789
189,0.0017892168834805,0.0303610246628522,-0.004266851581633,0.0080571565777063,-0.0092488676309585,0.0011044589336961,-0.0495760105550289,0.5893402099609375,-0.0186839736998081,0.0153521811589598,189470222
190,0.0365502387285232,-0.0078309457749128,0.0272983498871326,0.0345818996429443,0.0111397504806518,0.0316423363983631,-0.0424392633140087,0.1446883082389831,-0.0295130554586648,0.070738561451435,45744269
191,0.0182586461305618,-0.0083822477608919,-0.0146570662036538,0.0050234291702508,-0.0114024495705962,0.0043429159559309,-0.0243162848055362,-0.30263751745224,-0.0488478541374206,0.0318101905286312,52277738
192,0.0210455618798732,-0.0270732380449771,0.0308689586818218,0.0264535024762153,0.0210674367845058,0.0190155580639839,0.0335713624954223,-0.2595221400260925,0.0138151105493307,0.0917543694376945,53614250
193,-0.0247796643525362,-0.0052280272357165,0.0380710363388061,-0.0090688727796077,0.0088337417691946,-0.0013842408079653,0.0489191375672817,-0.4109510779380798,0.0558405555784702,0.0067233378067612,129694210
194,-0.0285088922828435,0.0125654684379696,-0.0092061599716544,-0.0184875354170799,-0.0182711891829967,-0.0167082715779542,-0.01903179846704,-0.148771584033966,-0.0229510497301816,-0.0110056539997458,195211760
195,-0.0118818897753953,-0.0081570390611886,-0.0185073167085647,-0.0353743284940719,-0.0388611406087875,-0.0140514187514781,0.019266178831458,-1.0695953369140625,-0.0582001246511936,-0.0117250215262174,30401979
196,0.0039016404189169,-0.0016587683930993,-0.011303199455142,-0.0174219273030757,-0.0160186924040317,-0.005907136015594,0.0283295381814241,-0.8057903051376343,-0.0173550825566053,-0.0004988680593669,83916654
197,-0.0083916475996375,-0.0029472694732248,0.0085120974108576,-0.0209391862154006,-0.0204042419791221,-0.010680453851819,0.0251720268279314,-0.799019455909729,-0.0625666379928588,0.011243812739849,55915048
198,0.0339440964162349,0.0147195141762495,0.0426907278597354,0.0175020471215248,0.0247356314212083,0.025928433984518,0.0026340861804783,0.3312075138092041,-0.0463889874517917,0.100598894059658,56232025
199,-0.01361795514822,-0.0077861696481704,0.0064556580036878,0.0058589661493897,0.0047413851134479,0.0040940819308161,0.008200348354876,-0.2561413049697876,0.0242161620408296,0.0330804251134395,31260463
200,-0.0043432107195258,7.191137410700321e-05,-0.0061920145526528,0.0021322574466466,-0.0017290018731728,0.0216194987297058,0.0012076832354068,-0.1287045776844024,-0.0596534386277198,0.0685078278183937,58026824
201,-0.0168237648904323,0.009638843126595,-0.0457029305398464,-0.0190615337342023,-0.0235193148255348,0.012628230266273,0.001488473964855,-0.2255960553884506,-0.0963169038295745,0.0506105497479438,1457158
202,0.0029907766729593,-0.0058383746072649,0.0092391157522797,-0.0080643510445952,-0.0063517331145703,0.0088332863524556,0.0072479587979614,-0.8766684532165527,-0.064596801996231,0.0656666606664657,127973630
203,-0.0211531817913055,-0.0064266128465533,-0.009518826380372,-0.0153760435059666,-0.015309790149331,-0.0066927811130881,0.0238254852592945,-0.835564136505127,-0.0567481853067874,0.0113876909017562,69375516
204,-0.0136629631742835,-0.0084427585825324,-0.0125725632533431,-0.0215232521295547,-0.0247059017419815,-0.007709237281233,0.0183629263192415,-0.8717172741889954,-0.058878555893898,0.0222091693431139,98109744
205,0.0066693061962723,0.0056755701079964,-0.0074794087558984,-0.014059979468584,-0.0221084430813789,-0.0042637912556529,-0.0065350583754479,-0.4402726590633392,-0.0395389050245285,0.0101926587522029,215870218
206,-0.0196505077183246,0.0029349289834499,-0.0292538106441497,-0.0153869790956377,-0.017533665522933,0.0051186997443437,0.0115391239523887,-0.4624936282634735,-0.0792067721486091,0.0362220853567123,48578381
207,-0.0109445638954639,0.0085343411192297,-0.0231771226972341,-0.0004649069160223,-0.0109754214063286,-0.0112129393965005,0.0117459800094366,0.4964359998703003,-0.0142938522621989,-0.0160909369587898,112629130
208,-0.0017378366826888,0.0380035420496448,-0.071663186706393,-0.0432066831577473,0.0100718506958483,-0.0258192435421606,-0.1737727060506638,0.3602900838511402,0.0708669359023656,-0.0335614372899266,46171824
209,-0.024969145655632,-0.0142471026629209,0.0226775556802749,-0.0142945880070328,-0.0183893665671348,-0.0245087053626775,0.0527156554162502,-0.703335702419281,0.0714932829141616,-0.0809511840343475,199306992
210,0.1504457741975784,0.0571712851524353,-0.0378271304070949,0.0377251654863357,0.0399993434548378,0.0358579456806182,0.0201790407299995,0.3781768381595611,0.0277698375284671,0.0274017564952373,55422058
211,0.0028103059157729,0.0396247878670692,0.0097323488444089,0.0153653882443904,-0.0081818038597702,-0.0026043630205094,-0.0462940670549869,0.4827002584934234,-0.0260022040456533,0.0168497581034898,138830239
212,-0.0118818897753953,-0.0081570390611886,-0.0185073167085647,-0.0353743284940719,-0.0388611406087875,-0.0140514187514781,0.019266178831458,-1.0695953369140625,-0.0582001246511936,-0.0117250215262174,98091595
213,0.0292861051857471,0.0300676263868808,0.0141758695244789,0.0001666992902755,-0.0155321257188916,-0.0037408615462481,-0.0618145503103733,0.585064709186554,-0.0324713364243507,-0.0018565845675766,101157977
214,0.0147295501083135,-0.0247312821447849,-0.0059103057719767,0.0145015176385641,-0.0020895695779472,0.0201331488788127,-0.0357519388198852,-0.121657058596611,-0.0920609980821609,0.0821868926286697,79785773
215,0.061113953590393,-0.029044235125184,0.0355458110570907,0.0491643883287906,0.0342549458146095,0.0370792709290981,0.0151867978274822,-0.1193486750125885,-0.0376455560326576,0.1496234685182571,115011586
216,0.0336323976516723,0.0014623887836933,0.0321862399578094,0.009729228913784,0.0101242465898394,0.0127830691635608,0.0178313888609409,-0.1937801390886306,-0.0385494455695152,0.067044511437416,201816469
217,0.0263602398335933,-0.0358536541461944,0.026684645563364,0.0165485367178916,0.0063704494386911,0.013987879268825,-0.026127940043807,0.2151229828596115,-0.024350831285119,0.0515887327492237,58026802
218,-0.0019854437559843,0.0124314203858375,0.0002072106290142,0.0067706275731325,-0.0093787563964724,-0.0052571548148989,-0.0142722632735967,-0.0155514404177665,-0.0366306081414222,0.0178230851888656,134307269
219,-0.0118357706815004,-0.0112309036776423,0.0455741100013256,0.0143841942772269,0.0345292761921882,0.00495464541018,0.0898251384496688,-0.4692418575286865,0.1605410873889923,0.0056809056550264,52197511
220,0.0377733260393142,-0.0249994825571775,-0.0068353582173585,0.013691933825612,-0.0022559685166925,0.0231636837124824,-0.0327499508857727,-0.1844686567783355,-0.068290576338768,0.0750376060605049,1394129
221,-0.0116452313959598,-0.0020040303934365,-0.0195564739406108,0.0076526002958416,0.0098838899284601,0.014395659789443,0.0211426950991153,0.0106836557388305,-0.0352116972208023,0.0652972906827926,152997644
222,-0.0586887225508689,-0.0099693769589066,-0.0085166189819574,-0.0571067668497562,-0.0337343961000442,-0.0175417084246873,0.0386502668261528,-1.6430542469024658,-0.0224040858447551,-0.0272615775465965,38035180
223,0.024220360442996,0.0220926366746425,0.0034177657216787,-0.0013779774308204,-0.0168141052126884,-0.0016158969374373,-0.0508199967443943,0.2865235507488251,-0.019127145409584,0.0244109649211168,99604430
224,-0.018604714423418,-0.0060548093169927,-0.0103074144572019,-0.0082550812512636,-0.0053654108196496,-0.0049117864109575,0.0203274246305227,-0.6048591732978821,-0.049110647290945,0.0111426766961812,1181559
225,-0.0211531817913055,-0.0064266128465533,-0.009518826380372,-0.0153760435059666,-0.015309790149331,-0.0066927811130881,0.0238254852592945,-0.835564136505127,-0.0567481853067874,0.0113876909017562,49367038
226,0.0419031642377376,-0.0207171253859996,-0.0342376343905925,0.0040179574862122,-0.004139014519751,0.0243501402437686,-0.0414875783026218,-0.313091367483139,0.0066287191584706,0.0332130901515483,99092665
227,0.0232142396271228,-0.0207272469997406,0.00516496039927,0.0097346557304263,0.0094663947820663,0.0174574386328458,-0.0097920019179582,-0.8507354855537415,-0.0501817017793655,0.0838939473032951,84791675
228,-0.0242436155676841,-0.0058498093858361,-0.0065226638689637,-0.0087099485099315,-0.0074593420140445,-0.004239902831614,0.0253452565521001,-0.7575538754463196,-0.056264191865921,0.0190919265151023,65819501
229,0.0005789040587842,-0.0053173080086708,-0.0154417715966701,-0.0046638399362564,-0.0140448650345206,-0.0053165480494499,-0.0335873365402221,0.1161197572946548,-0.0561031885445117,0.0338523611426353,209877730
230,-0.0014039110392332,-0.0007815296994522,-0.0284341648221015,-0.0219059661030769,-0.0279878098517656,-0.0006142263300716,0.0043329456821084,-0.5947180390357971,-0.0715243071317672,0.0201804526150226,34134703
231,-0.0224776528775692,-0.0061794160865247,-0.0082347616553306,-0.0125191435217857,-0.0119453109800815,-0.0056415470317006,0.0244768131524324,-0.8021312952041626,-0.0565407648682594,0.0146895069628953,105881940
232,0.0117172356694936,-0.0731980055570602,-0.0138395670801401,0.0537113100290298,0.0391107574105262,0.0372122563421726,0.0067930873483419,-0.2542561888694763,-0.0499415174126625,0.0797643214464187,67801698
233,0.0165406633168458,-0.0103514082729816,0.0117176529020071,-0.0017963222926482,0.0006173463771119,0.0133188627660274,-0.0107010072097182,-0.2356679588556289,-0.0032817516475915,0.0238792039453983,184006479
234,0.0439830645918846,-0.0480087362229824,0.0386819131672382,0.0422523058950901,0.0255198255181312,0.0416694171726703,-0.02733407728374,-0.1171813607215881,-0.0013148779980838,0.0775334388017654,98079917
235,0.1779923439025879,0.0627078711986541,-0.0462722964584827,0.0417436435818672,0.049596507102251,0.0389783568680286,0.0090375505387783,0.3877626061439514,0.0214186739176511,0.0432556122541427,102488300
236,0.0524448752403259,-0.0242162216454744,0.0086019476875662,0.0211822036653757,-0.0014836927875876,0.0290903598070144,-0.0157719813287258,-0.32675901055336,-0.058025985956192,0.0607019439339637,186297240
237,0.0127599127590656,0.0197714008390903,0.0046788966283202,0.0049983821809291,-0.0052610705606639,0.0070546856150031,0.0107914358377456,-0.1850278079509735,-0.0185662247240543,0.0202001817524433,87839561
238,-0.0489670522511005,-0.0012353472411632,0.0174466595053672,0.0446188226342201,0.0553442686796188,0.015383125282824,0.0375034101307392,-0.1334712952375412,-0.052392341196537,0.0807258486747741,56491568
239,0.0254926830530166,0.0077596399933099,0.0254221595823764,0.0072255870327353,0.0019900065381079,0.0080806091427803,-0.0062829777598381,-0.2301903367042541,-0.0405815616250038,0.0846179872751236,205932746
240,-0.0207868665456771,-0.0064360806718468,-0.0116129303351044,-0.0115944454446434,-0.0182193964719772,-0.0068052988499403,0.0025022774934768,-0.4086598753929138,-0.0707165002822876,0.0208888500928878,51113107
241,-0.0120358653366565,-0.0109731247648596,-0.0193049497902393,-0.0321483872830867,-0.0366206020116806,-0.0133458813652396,0.0185715071856975,-0.9531537294387816,-0.0582384094595909,-0.0114811025559902,74738631
242,-0.120525758004351,0.0407992207043159,-0.1221342109696748,-0.1132605032086937,-0.1138110519187791,-0.0675165808654648,0.0262553246842098,-0.4713528910329103,-0.0699867448044569,-0.1366081523289869,94043093
243,0.0120484642684459,0.0109755862504243,-0.039464458823204,-0.0068413247354328,-0.0096436804160475,-0.003184288740158,-0.0264819469302892,0.1102719828486442,-0.0193983986973762,0.0091697359457612,98708407
244,-0.0489670522511005,-0.0012353472411632,0.0174466595053672,0.0446188226342201,0.0553442686796188,0.015383125282824,0.0375034101307392,-0.1334712952375412,-0.052392341196537,0.0807258486747741,128725950
245,0.0337613001465797,0.0156339444220066,-0.0453912839293479,0.0118612367659807,-0.0179643519222736,0.0049485210329294,-0.0631603524088859,0.4744409620761871,-0.0307462252676486,0.024667689576745,102523558
246,-0.0217433534562587,-0.0018663113005459,-0.0173827186226844,-0.0126120969653129,-0.013075235299766,-0.0002224412746727,0.0187861416488885,-0.6309733986854553,-0.0669126361608505,0.0260499417781829,102122032
247,0.0245457794517278,-0.0004651674535125,0.0164758283644914,0.0031254473142325,-0.0045167421922087,0.0103610474616289,0.0127174519002437,-0.7023676037788391,-0.02802574634552,0.0211262349039316,19919865
248,-0.0270675458014011,0.0043192715384066,-0.022063011303544,0.0006116516888141,0.0013074185699224,0.0110056092962622,0.0151865668594837,-0.2752685844898224,-0.0780452042818069,0.0547122620046138,76273564
249,0.0186880361288785,0.0134128089994192,0.003779680468142,0.0374210849404335,0.0476767346262931,0.0186961013823747,0.0253629125654697,0.1157546862959861,-0.0157642289996147,0.0593032240867614,100565256
250,0.0137766506522893,-0.0144624346867203,-0.0067252740263938,0.0245988108217716,0.01305593829602,0.0219401530921459,0.0079562179744243,-0.2959939241409302,-0.0587942004203796,0.0655241161584854,200394113
251,-0.0148222390562295,-0.0118738114833831,-0.0122649315744638,-0.0085752606391906,-0.0064517338760197,-0.0091259442269802,-0.0173216611146926,-0.0521519854664802,-0.0243421010673046,-0.0112739391624927,150718336
252,0.0091022951528429,0.0509173385798931,0.0485399439930915,0.0086325239390134,-0.0180360376834869,-0.0012111449614167,-0.0285096988081932,0.2755258977413177,-0.025101063773036,-0.018818499520421,102421980
253,0.0056419167667627,-0.0363350361585617,-0.0097024142742156,0.0049352115020155,-0.0130617143586277,-0.0138085009530186,-0.059733685106039,0.0975729972124099,-0.1010854095220565,0.04485784471035,84344367
254,0.0059740664437413,-0.0045837899670004,0.0054072318598628,0.014362177811563,0.018586192280054,0.0099329482764005,0.0321666076779365,-0.3716952800750732,0.0189765896648168,0.0332366414368152,72497728
255,0.0202189311385154,-0.0359796173870563,0.0005238056182861,0.0007099937647581,-0.0231124237179756,0.003333160188049,-0.0444272011518478,-0.4051004648208618,-0.0844565406441688,0.0512460321187973,68002205
256,0.0295309666544199,-0.0153870191425085,-0.0643066838383674,-0.0057827848941087,-0.0072358911857008,0.0048440601676702,-0.0099780112504959,-0.687702476978302,-0.027197528630495,0.0446472354233264,72898792
257,0.0522888675332069,0.0078640868887305,0.0284055471420288,0.0260547176003456,0.0144167933613061,0.0211191568523645,-0.0021439921110868,-0.3994545340538025,-0.0205371901392936,0.0597463846206665,138460133
258,-0.0069848196581006,-0.0533889681100845,-0.0443795807659626,-0.0150763876736164,-0.0120854638516902,-0.0216047186404466,-0.0239499621093273,0.1644482314586639,-0.0308686420321464,-0.0112127102911472,99018577
259,0.0272693056613206,-0.0033552225213497,-0.0114536555483937,0.001630631275475,-0.0133534278720617,0.0029461767990142,-0.0209220889955759,-0.1862516105175018,-0.0485368333756923,0.0293979737907648,206545451
260,-0.0267159547656774,-0.0053883581422269,-0.0041257310658693,-0.003377070184797,-0.001178978011012,-0.0022776005789637,0.0265610702335834,-0.6951455473899841,-0.0558770112693309,0.0252553205937147,56491611
261,0.0292779877781867,-0.0110600106418132,0.0036016982048749,0.0150814317166805,-0.0041543799452483,0.0154843498021364,-0.0370930545032024,0.0053976625204086,-0.0475885346531868,0.0572808869183063,108954955
262,-0.0271630436182022,-0.0137718375772237,0.0079768411815166,-0.0101782595738768,-0.0078685330227017,-0.0067144739441573,0.0005695038707926,-0.1589708030223846,-0.0646424666047096,0.0178930945694446,47754644
263,-0.0016536964103579,-0.002163553610444,-0.0023716338910162,-0.0065887691453099,-0.0019382357131689,-0.0027180230244994,0.0362211242318153,-0.6840811967849731,0.0045906170271337,0.0081407390534877,59488156
264,-0.0080679561942815,0.0104012275114655,-0.0040652281604707,-0.0021098679862916,-0.0150085696950554,-0.0083250794559717,-0.0062240702100098,-0.1971911042928695,-0.0397341698408126,0.0111843710765242,173578723
265,0.0028421310707926,0.022552665323019,-0.0484961569309234,0.0042170160450041,0.0030274477321654,0.0274348445236682,1.6615260392427444e-05,0.2141062915325164,-0.0903719514608383,0.0791731625795364,1489566
266,0.0095573337748646,-0.0162263214588165,-0.0007373577682301,-0.0024426979944109,-0.0148731879889965,0.0024646047968417,0.0085995886474847,-0.667881190776825,-0.0541806146502494,0.0409501008689403,195696960
267,0.0175500474870204,-0.0027451799251139,0.0071342084556818,0.0167391300201416,0.0087081473320722,0.0189467780292034,-0.0148851815611124,-0.1657420098781585,-0.0633366256952285,0.1060503125190734,157676367
268,-0.0020772365387529,0.0217386372387409,-0.0331391617655754,-0.011927830055356,-0.0150184743106365,9.39549645408988e-05,0.0042021917179226,-0.0470042526721954,-0.0251570958644151,0.007925784215331,47758813
269,-0.0086965290829539,-0.0057960865087807,-0.0286126360297203,-0.0222127791494131,-0.0212779901921749,-0.0052975947037339,0.0082192998379468,-0.6877121925354004,-0.0324872061610221,0.004038693383336,94043087
270,0.0161750856786966,-0.0036855372600257,-0.0215000733733177,-0.02499495819211,-0.0261548832058906,-0.0130442418158054,0.019630666822195,-0.2504869997501373,-0.0575442388653755,-0.0031266189180314,60612444
271,-0.0096138687804341,0.0108071882277727,-0.0014714549761265,-0.0102998707443475,-0.0185501687228679,-0.0045928587205708,-0.0063974242657423,-0.2183550149202346,-0.0369348675012588,0.0027343893889337,189832432
272,-0.1097528498361934,-0.0547984428972425,0.034655129535635,-0.0438185094091322,-0.0615165230576081,-0.0449396549498121,-0.1579177728011034,0.3898718559137185,-0.0014077737474466,-0.09558775166307,83448924
273,0.0268590673804283,-0.0403070412576198,-0.0227231159806251,0.0459686070680618,0.0262057241052389,0.0260257422924041,-0.0228476449847221,0.318948745727539,-0.0437801666557788,0.0758984163403511,968042
274,-0.0330734141170978,-0.0042017907835543,0.0020378110930323,0.0103360414505004,0.0149705223739147,0.0027683204971253,0.0296874549239873,-0.5346671938896179,-0.0548813939094543,0.0411040447652339,63645659
275,0.1750035583972931,0.0236392952501773,-0.0176600906997919,0.0660583674907684,0.0550561621785163,0.0617195926606655,-0.0116677833721041,0.462561160326004,-0.0025795195251703,0.0854364708065986,2052970
276,-0.0211531817913055,-0.0064266128465533,-0.009518826380372,-0.0153760435059666,-0.015309790149331,-0.0066927811130881,0.0238254852592945,-0.835564136505127,-0.0567481853067874,0.0113876909017562,54209120
277,0.0039872331544756,-0.0196616444736719,0.0028111881110817,0.0129901766777038,0.0036341124214231,0.010759811848402,-0.0019581085070967,-0.4531702101230621,-0.0644723400473594,0.0541233159601688,107721773
278,-0.0320164076983928,-0.0214840658009052,0.0084083843976259,0.0128682916983962,0.0118847023695707,0.0068242200650274,0.0001041092909872,-0.1167942285537719,-0.0540866516530513,0.0638236477971077,170437794
279,-0.012939078733325,-0.0147893317043781,-0.0129670491442084,-0.0261645503342151,-0.0306725390255451,-0.0129549074918031,0.0147400526329875,-0.9429298043251038,-0.0485108830034732,-0.0048395097255706,7211039
280,0.028348222374916,-0.0077916821464896,0.0170241519808769,0.0074884155765175,-0.0032994635403156,0.0071205450221896,-0.0198672246187925,-0.2081845551729202,-0.0459039770066738,0.027656378224492,3443157
281,0.0257181320339441,-0.0035357624292373,0.0013180430978536,0.0247236657887697,0.0145472446456551,0.0191248245537281,-0.0191792678087949,0.1097965091466903,-0.0290496833622455,0.0572997145354747,195474892
282,-0.0048232683911919,0.0165608879178762,-0.0190868023782968,-0.0147889703512191,-0.0071896836161613,-0.0060456190258264,0.0043784482404589,-0.4912811517715454,-0.0105977449566125,0.0010298851411789,7574988
283,0.0317721255123615,0.0140676982700824,-0.0161676071584224,0.0095145599916577,0.0133283026516437,0.00950981490314,0.0215543545782566,-0.3857433199882507,-0.0337925292551517,0.0303982608020305,86366069
284,-0.0489670522511005,-0.0012353472411632,0.0174466595053672,0.0446188226342201,0.0553442686796188,0.015383125282824,0.0375034101307392,-0.1334712952375412,-0.052392341196537,0.0807258486747741,9949411
285,-0.0304244700819253,-0.0046961870975792,-0.0005303313955664,0.0046222433447837,0.0082415640354156,0.0006658528000116,0.0283847898244857,-0.6015331745147705,-0.0552962385118007,0.0345004051923751,99092662
286,-0.0118818925693631,-0.0081570418551564,-0.0185073260217905,-0.0353743284940719,-0.0388611406087875,-0.0140514187514781,0.0192661825567483,-1.069595217704773,-0.0582001246511936,-0.0117250252515077,58425371
287,-0.0222942773252725,-0.0147549342364072,0.0273296944797039,0.0177013706415891,0.032252162694931,0.0026283606421202,0.0739368870854377,-0.2621697187423706,0.1125914752483367,0.0278761573135852,39833157
288,-0.013942178338766,-0.0077725099399685,-0.0165098886936903,-0.0309302695095539,-0.0336275100708007,-0.0124161634594202,0.0202793553471565,-1.0175883769989014,-0.0578774772584438,-0.0065888711251318,13182786
289,-0.0127431573346257,0.0164534337818622,-0.0019948291592299,-0.0210451334714889,-0.0194514878094196,-0.0182852819561958,0.0028312793001532,-0.4542776048183441,-0.0307705048471689,-0.0007941296207718,15268755
290,-0.0016268817707896,0.0060308370739221,-0.0224859975278377,-0.0032259342260658,-0.0049651032313704,-0.0121637983247637,0.0429458357393741,-0.2952354252338409,-0.0410677231848239,0.0248403586447238,113607068
291,0.0888992771506309,0.042042352259159,-0.0425570346415042,0.0281106177717447,0.0326583683490753,0.0335238277912139,0.0073191234841942,0.3102999925613403,-0.0305434241890907,0.0634314566850662,69330138
292,0.0343204289674758,-0.0103912614285945,0.0320948101580143,0.0257665645331144,0.012679049745202,0.0205545891076326,-0.0066945934668183,0.1401719748973846,-0.0299641210585832,0.0976961925625801,59617193
293,0.0214920379221439,0.0090436618775129,0.001766069442965,0.0080975405871868,0.0008010934107005,0.0099502569064497,-0.0021874695084989,-0.350532591342926,-0.0480326116085052,0.0547385476529598,206966496
294,0.0255319904536008,-0.0416389368474483,0.0325759425759315,0.0536628141999244,0.0418495535850524,0.0339754037559032,-0.0330730937421321,-0.1075872778892517,-0.0739469453692436,0.1148361638188362,47527154
295,0.0084244748577475,-0.0163905024528503,-0.0202183946967124,-0.0039028248284012,-0.0074076177552342,0.0001029763370752,-0.0268191546201705,0.0433186702430248,-0.0391656793653965,0.0288766101002693,61913621
296,0.0095108021050691,-0.0150858899578452,-0.0046660909429192,5.541369318962097e-07,-0.0125612616539001,0.0070368661545217,-0.0311521273106336,-0.0911018028855323,-0.0559625700116157,0.0575735121965408,34270534
297,0.0284708980470895,-0.0010962542146444,0.0213422607630491,0.0084458738565444,0.0047410516999661,0.0041385912336409,-0.011473755352199,-0.2092889994382858,-0.0641320273280143,0.1010370403528213,205180061
298,0.0558595675443858,0.1191046074365373,-0.0481324344664211,0.0086610662884282,0.0224838759469259,0.0446464059036997,0.0022372073848008,1.3242791182328315,-0.039511935155532,0.0565598453151409,34373550
299,-0.024969145655632,-0.0142471026629209,0.0226775556802749,-0.0142945880070328,-0.0183893665671348,-0.0245087053626775,0.0527156554162502,-0.703335702419281,0.0714932829141616,-0.0809511840343475,199307009
300,-0.0226876344531774,0.0054301917552948,-0.029964942485094,-0.0081897834315896,-0.0094999494031071,0.0101301055401563,0.0107231978327035,-0.303627997636795,-0.0831757858395576,0.0495095327496528,12713910
301,0.0214808657765388,-0.0166314393281936,0.0108534321188926,0.013806477189064,0.0072982446290552,0.0200647376477718,-0.0036516012623906,-0.526408851146698,-0.0635104924440383,0.0933571606874466,3193236
302,-0.0489670522511005,-0.0012353472411632,0.0174466595053672,0.0446188226342201,0.0553442686796188,0.015383125282824,0.0375034101307392,-0.1334712952375412,-0.052392341196537,0.0807258486747741,80628593
303,0.0100721651688218,0.0030264644883573,-0.0166205447167158,-0.0058704731054604,-0.0049859588034451,0.001130839344114,0.0221897177398204,-0.5823659300804138,-0.0462971031665802,0.0205011591315269,85996097
304,-0.0489670522511005,-0.0012353472411632,0.0174466595053672,0.0446188226342201,0.0553442686796188,0.015383125282824,0.0375034101307392,-0.1334712952375412,-0.052392341196537,0.0807258486747741,16700200
305,0.0455643385648727,0.0035557728260755,0.0049658408388495,0.0145595259964466,0.0079910894855856,0.0121068209409713,-0.0178623870015144,-0.4062995314598083,-0.0318279266357421,0.0797777846455574,159483171
306,0.1142109110951423,0.0119062010198831,-0.0255821943283081,0.0301360320299863,0.0303201712667942,0.0325461700558662,-0.0007669343613088,-0.2310205101966858,-0.0081646172329783,0.0508350953459739,102483617
307,0.0059740664437413,-0.0045837899670004,0.0054072318598628,0.014362177811563,0.018586192280054,0.0099329482764005,0.0321666076779365,-0.3716952800750732,0.0189765896648168,0.0332366414368152,6747650
308,0.016725979745388,0.0008951692143455,-0.0200656745582819,0.008330256678164,-0.0001387589145451,0.0058861155994236,0.0103996749967336,-0.5899116396903992,-0.024061931297183,0.0301676969975233,2763553
309,-0.0417088381946086,-0.0091223055496811,-0.0325191766023635,-0.0177362374961376,-0.0266461987048387,-0.0173563677817583,-0.0157336443662643,0.0480149090290069,-0.0396116040647029,-0.0206496771425008,88350347
310,-0.0366053432226181,-0.0035425731912255,0.0054619973525404,0.0179544370621442,0.0239424649626016,0.0055716093629598,0.0314243286848068,-0.4455125629901886,-0.0543282628059387,0.0499088838696479,47788573
311,0.0397606715559959,0.0211861822754144,-0.0218137037009,0.0219305306673049,0.0139591097831726,0.01636846922338,-0.0049042897298932,0.136663943529129,-0.0097218947485089,0.044128268957138,196566732
312,-0.0152545478194952,-0.0074323620647192,-0.0017767907120287,-0.0127941984683275,-0.0127008641138672,-0.0035114781931042,0.0300719439983367,-0.796558141708374,-0.0177012458443641,0.0098819741979241,101058866
313,0.0033264248631894,0.0209996215999126,-0.0241599380970001,-0.0062203146517276,-0.0023677055723965,-0.0078848768025636,0.0223804488778114,-0.0115156900137662,-0.0004765994381159,-0.0145836565643548,150718293
314,0.0309215374290943,-0.0269050281494855,0.0084353359416127,0.0217549037188291,-0.0097372066229581,0.0187581498175859,-0.0578565225005149,-0.0611278638243675,-0.0439722910523414,0.0776620507240295,18912237
315,-0.0061852424405515,0.0249336287379264,0.0035752868279814,0.0044187195599079,0.0160408616065979,0.0009657870978116,0.033939890563488,-0.0661965161561966,0.0021409480832517,0.0647024512290954,159115989
316,-0.0489670522511005,-0.0012353472411632,0.0174466595053672,0.0446188226342201,0.0553442686796188,0.015383125282824,0.0375034101307392,-0.1334712952375412,-0.052392341196537,0.0807258486747741,86617202
317,0.0087031768634915,0.0098883239552378,-0.0322446599602699,-0.0123017784208059,-0.0137730240821838,0.0071779307909309,0.0109912268817424,-0.4270442724227905,-0.0646219104528427,0.0302653778344392,8608429
318,0.0334557779133319,0.0211581699550151,0.0655825138092041,0.0123981209471821,0.0194645058363676,0.0171751417219638,0.0143736535683274,-0.4739986658096313,-0.0446639060974121,0.1070532202720642,138469628
319,-0.0070678177289664,-0.0087127573788166,-0.0102296657860279,-0.0104289408773183,-0.0146960234269499,-0.0009043593890964,0.019275102764368,-0.7662632465362549,-0.0564647763967514,0.0188623182475566,109486663
320,0.0327865928411483,0.0280846301466226,-0.0339692458510398,0.0027571911923587,0.0016075638122856,0.0089454073458909,0.0173778254538774,-0.5098314881324768,-0.058772474527359,0.0249788500368595,55711245
321,-0.0320376530289649,0.0041580800898373,-0.0139277568086981,-0.015681130811572,-0.0115608712658286,-0.0020262007601559,0.0241248682141304,-0.4406227469444275,-0.0500563010573387,0.0148301115259528,101191919
322,-0.0489670522511005,-0.0012353472411632,0.0174466595053672,0.0446188226342201,0.0553442686796188,0.015383125282824,0.0375034101307392,-0.1334712952375412,-0.052392341196537,0.0807258486747741,194164487
323,-0.0240646190941333,-0.0339288227260112,0.047750785946846,0.0139828491955995,0.0078577175736427,0.0128000788390636,0.0142326727509498,-0.4815413355827331,-0.0021198231261223,0.0284619871526956,71488005
324,-0.0528612576707109,0.0586580310173509,0.033376127455693,-0.0364582273467133,-0.0157896592803474,-0.0131182709604766,-0.0038547045452015,-1.493933836683617,0.0637594453947531,-0.0696943737373916,45859773
325,0.009244754910469,0.0251899138092994,-0.010988893918693,-0.0051529100164771,-0.0206521414220333,-0.0043338797986507,-0.0217767320573329,-0.1056849211454391,-0.0397353880107402,0.0045919325202703,101778430
326,-0.0003596807364374,-0.0034973386209458,-0.0023622512817382,-0.0197676755487918,-0.0198603607714176,-0.0028152402956038,0.0125857926905155,-0.7331865429878235,-0.0340883210301399,0.0043069841340184,3806601
327,-0.0489670522511005,-0.0012353472411632,0.0174466595053672,0.0446188226342201,0.0553442686796188,0.015383125282824,0.0375034101307392,-0.1334712952375412,-0.052392341196537,0.0807258486747741,2297821
328,-0.0489670559763908,-0.0012353546917438,0.0174466576427221,0.0446188226342201,0.0553442686796188,0.0153831224888563,0.0375034101307392,-0.133471205830574,-0.052392341196537,0.0807258337736129,108109288
329,-0.0489670522511005,-0.0012353472411632,0.0174466595053672,0.0446188226342201,0.0553442686796188,0.015383125282824,0.0375034101307392,-0.1334712952375412,-0.052392341196537,0.0807258486747741,2235503
330,0.0428915321826934,-0.0071747722104191,0.0052663818933069,0.0287245325744152,0.0126668652519583,0.0213271006941795,-0.0077090975828468,-0.0948098003864288,-0.0673328936100006,0.1280842870473861,37764882
331,-0.0324703380465507,-0.0057036597281694,0.041929505765438,0.0261547937989234,0.0439899414777755,0.014832611195743,0.053719975054264,-0.1406963169574737,-0.0212347172200679,0.0484147071838378,7897387
332,-0.0175765100866556,-0.0034784208983182,-0.0198407042771577,-0.0218795873224735,-0.023797933012247,-0.0046550324186682,0.0177363250404596,-0.7717226147651672,-0.0656420439481735,0.013188955374062,100535643
333,-0.0010589156299829,-0.0113983554765582,-0.0013023614883422,0.0115591930225491,0.0087954467162489,0.0100545603781938,0.0132300369441509,-0.3300195932388305,-0.0484593883156776,0.0732167363166809,102644366
334,-0.0050943484529852,0.0162992775440216,-0.062635026872158,-0.0023965239524841,-0.0216667093336582,0.0220180638134479,-0.0461587198078632,0.315809965133667,-0.0868400633335113,0.0771994888782501,58802094
335,-0.0297761522233486,3.809342160820961e-06,-0.0102979512885212,0.0048389784060418,0.0073913079686462,0.0066533554345369,0.0222922656685113,-0.4123974144458771,-0.0665094032883644,0.0471744164824485,94317976
336,-0.0185629706829786,-0.0137043856084346,-0.0706073567271232,-0.0016448271926492,-0.0226514339447021,0.0087164975702762,-0.0130804255604743,-0.0858492776751518,-0.0682174414396286,0.0443804748356342,670375
337,0.0068123652599751,-0.0198966711759567,-0.0014566137688234,0.0026689507067203,-0.0199487134814262,-0.0009961356408894,-0.0381680205464363,-0.1142540350556373,-0.0641272366046905,0.0454955026507377,99402058
338,-0.0104368003085255,-0.0063782949000597,-0.0088032530620694,-0.016938991844654,-0.01664256490767,-0.0054230303503572,0.0266907569020986,-0.7336257696151733,-0.0169752705842256,0.0069288723170757,47505989
339,-0.0132938530296087,-0.0030724999960511,-0.0262774974107742,-0.0307135321199893,-0.0344777628779411,-0.0064286603592336,0.0141868339851498,-0.8284526467323303,-0.0690906345844268,0.0060851401649415,110742290
340,-0.0306722931563854,-0.0090797115117311,-0.0021331580355763,0.0308713298290967,0.0357121676206588,0.0145108234137296,0.0368268974125385,0.0971600711345672,-0.0623372867703437,0.0865016728639602,99092666
341,0.0468877777457237,-0.0008900547400116,-0.0231348238885402,-0.003021566895768,-0.0048229792155325,0.00486296787858,0.0118018556386232,-0.6133558750152588,-0.0340470746159553,0.0169651545584201,73023923
342,0.0108732935041189,0.00329399574548,0.0136284483596682,-0.0044896737672388,-9.4336224719882e-05,0.0034942559432238,-0.0081158485263586,-0.4477166831493377,-0.0492335632443428,0.0931822806596756,73299028
343,0.0059740664437413,-0.0045837899670004,0.0054072318598628,0.014362177811563,0.018586192280054,0.0099329482764005,0.0321666076779365,-0.3716952800750732,0.0189765896648168,0.0332366414368152,72497730
344,-0.0039767436683177,0.0253230519592762,0.0040568863041698,0.0037591073196381,-0.0011607042979449,0.0030649094842374,-0.016752753406763,0.0954463705420494,-0.0132805164903402,0.0249671787023544,99788385
345,-0.0226813685148954,-0.0009536328725516,0.0156257487833499,0.0066300490871071,0.0125321466475725,0.0043346229940652,0.0190648771822452,-0.463068425655365,-0.0400110818445682,0.0461488328874111,206170303
346,-0.0273094903677701,-0.0135043626651167,-0.0128521742299199,0.0007424745708703,-0.0024133003316819,0.0027566747739911,-0.0078843757510185,-0.4818960428237915,-0.0248989723622798,0.0320086553692817,18468296
347,0.0062360409647226,-0.0059006102383136,0.0163575541228055,0.0045969318598508,-0.0035771136172115,0.0042075533419847,-0.0171860381960868,-0.3293283581733703,-0.0622779838740825,0.0598655343055725,91989996
348,0.0015285918489098,0.0121521530672907,-0.0422227941453456,-0.0156523343175649,-0.0188648700714111,0.0115588046610355,0.0044835424050688,-0.2794463634490967,-0.0806634426116943,0.041846390813589,54863209
349,-0.0052574397996068,-0.0128087364137172,-0.0145510984584689,-0.021384160965681,-0.0284184496849775,-0.0055621429346501,0.0107548357918858,-0.8420860767364502,-0.0582318790256977,0.0067613371647894,88416983
350,-0.000474882312119,-0.0257642585784196,0.0133242150768637,-0.008219608105719,-0.0291241463273763,-0.0197960250079631,-0.0280306618660688,-0.5698747038841248,-0.0474862419068813,-0.0100627653300762,75717236
351,0.0258531831204891,-0.0101250540465116,0.0368965342640876,0.0303127132356166,0.0260251201689243,0.024043645709753,0.0057973489165306,-0.1719810217618942,0.0102514121681451,0.0889187380671501,50207366
352,-0.004479082301259,0.0070862937718629,-0.024959273636341,0.0057025947608053,0.0027961996383965,0.014583995565772,-0.0016422602348029,0.0938241407275199,-0.0668618828058242,0.0522784627974033,76578097
353,0.0191775746643543,-0.0248714890331029,0.0673540607094764,0.0306468047201633,0.0188693180680274,0.0194701347500085,-0.0379337593913078,-0.3434435725212097,-0.0414164811372756,0.1041921004652977,101741648
354,0.0077727939933538,0.0147504610940814,0.0015169195830821,0.0439000241458416,0.0539073273539543,0.0212819296866655,0.0303869359195232,-0.0031627714633941,-0.0339395850896835,0.071358285844326,212071753
355,0.0654229521751403,-0.0091299638152122,-0.0051539493724703,0.0244680531322956,0.0209463369101285,0.0296573620289564,-0.0058467383496463,-0.1672815531492233,-0.0165661871433258,0.0903676971793174,3162115
356,-0.0041682953014969,-0.0025098221376538,-0.0155644547194242,-0.0195673797279596,-0.0204032473266124,-0.0065914932638406,0.0210159048438072,-0.847621500492096,-0.0521178394556045,0.0042671281844377,99446605
357,0.0338994041085243,-0.002747724764049,0.0279143210500478,0.0235497169196605,0.016450922936201,0.0219598691910505,0.0086936205625534,-0.1011497229337692,-0.0497491993010044,0.1043030396103859,52541971
358,-0.0247190557420253,-0.0411440655589103,0.0358287766575813,0.018075218424201,-0.0075923786498606,0.0056743770837783,-0.0240220930427312,-0.2490847557783126,-0.0559982508420944,0.0440449304878711,195773243
359,-0.041775620253691,0.1063111368794753,0.0790462003551798,-0.0208969291121638,-0.0080117476929237,-0.0045908056639899,0.0577783898161827,-1.5527474386259297,0.0083505576223871,-0.0505405840510013,17687405
360,-0.0030636861920356,-0.0059566646814346,-0.0161676183342933,-0.0107316775247454,-0.0156380757689476,0.0040852623060345,0.0175598282366991,-0.609247088432312,-0.0477568358182907,0.0259222760796546,114274866
361,0.0248202756047248,-0.0235646069049835,0.02857081964612,0.017583368346095,0.0097070075571537,0.0083555364981293,-0.011826092377305,-0.1589148193597793,-0.0333359688520431,0.0881503075361251,158508852
362,-0.0095814103260636,-0.0040444619953632,-0.0240663215517997,-0.0200828313827514,-0.0222780220210552,-0.0068495068699121,0.0138197466731071,-0.584766685962677,-0.0503841713070869,0.0038079842925071,107512023
363,0.0246525066515562,0.090518158065227,0.0885844885364425,-0.0125477144912,0.0166645089641227,0.0019946186891272,-0.003900546338452,-0.4535088195752745,-0.0125834661739407,0.0082167012393476,146167229
364,-0.0489670522511005,-0.0012353472411632,0.0174466595053672,0.0446188226342201,0.0553442686796188,0.015383125282824,0.0375034101307392,-0.1334712952375412,-0.052392341196537,0.0807258486747741,59299279
365,-0.0489670559763908,-0.0012353546917438,0.0174466576427221,0.0446188226342201,0.0553442686796188,0.0153831224888563,0.0375034101307392,-0.133471205830574,-0.052392341196537,0.0807258337736129,55422060
366,-0.0179360173642635,0.0106477551162242,-0.0132339894771575,-0.017447754740715,-0.0184409953653812,-0.0168074406683444,-0.0069352276623249,0.0197599157691001,-0.0187333803623914,-0.0170823782682418,156284152
367,0.0027758125215768,-0.0231511835008859,0.0029546404257416,0.0148389600217342,0.0067714345641434,0.0130742155015468,-0.0057457350194454,-0.5754722356796265,-0.0104912221431732,0.0553011149168014,109502816
368,0.0203114859759807,0.0037692263722419,-0.0396723970770835,-0.0203412696719169,-0.0280367657542228,-0.019405648112297,-0.0329256430268287,0.1451902389526367,-0.0299789309501647,0.004540242254734,76747884
369,0.0265103112906217,-0.0022450927644968,0.0400941409170627,-0.0043915612623095,0.0006833053193986,0.0008914819918572,0.0116021884605288,-0.5314050912857056,-0.0407411083579063,0.0692679807543754,96648892
370,0.0324057713150978,-0.0282682329416275,-0.0023739333264529,0.0195490680634975,0.0046358942054212,0.0277878381311893,-0.0328104943037033,-0.1236101984977722,-0.0805621743202209,0.0933309718966484,2368500
371,0.0059740664437413,-0.0045837899670004,0.0054072318598628,0.014362177811563,0.018586192280054,0.0099329482764005,0.0321666076779365,-0.3716952800750732,0.0189765896648168,0.0332366414368152,6747648
372,-0.0007417536107823,0.0091234184801578,-0.0186711139976978,-0.000253630336374,-0.0130180437117815,-0.0027596347499638,-0.0192061644047498,-0.0355682000517845,-0.0267904102802276,0.0099523067474365,124975178
373,0.0003560914192348,-0.0028480624314397,-0.0192064642906188,-0.0270090084522962,-0.0291782636195421,-0.0092123411595821,0.0191868897527456,-0.9320651292800904,-0.0523056536912918,-0.0044960207305848,206977176
374,-0.0489670559763908,-0.0012353546917438,0.0174466576427221,0.0446188226342201,0.0553442686796188,0.0153831224888563,0.0375034101307392,-0.133471205830574,-0.052392341196537,0.0807258337736129,45621154
375,-0.0194747168570756,-0.00191888702102,-0.0202851705253124,-0.017381340265274,-0.0187768638134002,-0.0015229033306241,0.0172263756394386,-0.6724317669868469,-0.0681226626038551,0.0214936137199401,96457659
376,-0.0282089244574308,0.0098281279206275,-0.0313448756933212,-0.0033840409014374,-0.0027929004281759,-0.0088413814082741,0.0215888395905494,-0.1211440861225128,-0.0431575998663902,0.004302145447582,148611986
377,0.0017406647093594,-0.0027802675031125,-0.0325300171971321,-0.0302739068865776,-0.0353130772709846,-0.0133098987862467,0.0010260113049298,-0.8714207410812378,-0.064571663737297,0.0070240572094917,6001285
378,0.0539042130112648,0.0028299852274358,-0.0240900591015815,0.0053479578346014,0.0069669187068939,0.0105103850364685,0.0188980847597122,-0.3684785068035126,0.0005013984628021,0.0315780155360698,72763348
379,0.0060573234222829,-0.0131217092275619,0.0118190823122859,-0.0145439971238374,-0.0191464684903621,-0.0015579042956233,0.0176550652831792,-0.743743360042572,-0.0188586413860321,0.0078418385237455,16835734
380,-0.013102501630783,-0.0001153225312009,-0.0360545367002487,-0.0235817600041627,-0.0149400047957897,-0.0198609605431556,0.0024626946542412,-0.6278926134109497,0.0032290406525135,-0.0113918371498584,44708713
381,0.0064914179965853,-0.004486215300858,-0.0150454714894294,-0.018840754404664,-0.0167972519993782,-0.0036209493409842,-0.0158430654555559,-0.3028391301631927,-0.0282484367489814,0.028481675311923,110012110
382,-0.019455837085843,-0.0280980449169874,0.0075656468980014,0.0421697869896888,0.0375795736908912,0.0261995885521173,0.0098113249987363,-0.3216948807239532,-0.0383924730122089,0.0833556354045867,88880574
383,0.0303090903908014,0.0008722990751266,-0.0007634137291461,0.0162136927247047,0.0071897492744028,0.0182699486613273,-0.004380352795124,-0.1433548033237457,-0.0576507598161697,0.1390638053417205,30351501
384,0.0112408986315131,-0.0035055198241025,-0.0121472878381609,0.0027757028583437,-0.0056428587995469,0.006598949432373,-0.0241545271128416,0.1607081294059753,-0.0104416077956557,0.0276502519845962,152354126
385,-0.0118818897753953,-0.0081570390611886,-0.0185073167085647,-0.0353743284940719,-0.0388611406087875,-0.0140514187514781,0.019266178831458,-1.0695953369140625,-0.0582001246511936,-0.0117250215262174,206939650
386,-0.0046906154602766,0.0142535120248794,-0.0429810285568237,-0.0082308910787105,-0.0106484517455101,0.0169193558394908,0.0034720390103757,-0.1064050272107124,-0.0868135765194892,0.057156391441822,85951147
387,0.0434059761464595,-0.0424268431961536,0.0091699957847595,0.0258486084640026,0.0236707925796508,0.0300708934664726,0.0079472148790955,0.002622440457344,-0.104367159307003,0.1520317196846008,102386409
388,-0.0086777079850435,0.0014085648581385,-0.0545347817242145,-0.0026158103719353,-0.0085569471120834,0.0232767201960086,0.0095384633168578,0.4577771723270416,-0.1051805093884468,0.0964325740933418,78535305
389,0.003800855949521,-0.0017645366024225,-0.0162544064223766,-0.0158986151218414,-0.0204339120537042,0.0049357051029801,0.0140364449471235,-0.6362187266349792,-0.0617581866681575,0.0371149331331253,103874922
390,-0.031504176557064,-0.0054436326026916,0.0060160062275826,0.0096150012686848,0.015670696273446,0.001761513762176,0.0357242748141288,-0.5445228815078735,-0.0292220152914524,0.0353848561644554,19771878
391,0.0031768367625772,-0.0279337912797927,-0.0054577183909714,-0.0033832842018455,-0.0158918164670467,0.0041768755763769,-0.0110739078372716,-0.551250696182251,-0.0438880249857902,0.0267360471189022,32949717
392,-0.0060644056648015,-0.0149459121748805,-0.0132868001237511,-0.0197394043207168,-0.0276906564831733,-0.0063387025147676,0.0046659642830491,-0.8348363041877747,-0.0641299560666084,0.0192958153784275,184425605
393,0.0059790508821606,-0.0108736073598265,-0.0072163324803113,-0.0143221830949187,-0.0159499589353799,-0.0017741339979693,-0.0017388347769156,-0.4916654825210571,-0.0319774113595485,0.0094029111787676,102887574
394,0.0048036524094641,-0.0386863201856613,-0.0497550517320632,-0.0018125826027244,-0.0164978206157684,-0.0072118509560823,-0.0017053429037332,-0.653528094291687,-0.0571732185781002,-0.0115291308611631,66891131
395,-0.0073106065392494,-0.0137443160638213,-0.0171602964401245,-0.0287022590637207,-0.0335649400949478,-0.0114586018025875,0.0127390548586845,-0.9469010829925536,-0.0497265681624412,0.0023908140137791,106261680
396,-0.0323101766407489,0.0001711258664727,-0.026479996740818,-0.042487908154726,-0.0280099436640739,-0.013229688629508,0.0205606520175933,-0.5260648727416992,-0.076480746269226,0.056061316281557,60194762
397,-0.0056593148037791,-0.0059427637606859,-0.0015183947980403,-0.0139084905385971,-0.013316161930561,-0.00461150938645,0.0181879084557294,-0.6391547918319702,-0.0506895370781421,0.0082491086795926,101368165
398,0.0059740664437413,-0.0045837899670004,0.0054072318598628,0.014362177811563,0.018586192280054,0.0099329482764005,0.0321666076779365,-0.3716952800750732,0.0189765896648168,0.0332366414368152,6747649
399,-0.0082354471087455,-0.0062657794915139,-0.0116814384236931,-0.0116947069764137,-0.0153083689510822,0.002530904719606,0.0114168804138898,-0.6284657716751099,-0.0542175360023975,0.0263625439256429,110939942
400,0.0107306689023971,-0.0399626120924949,-0.0014237501891329,0.0056393118575215,-0.0105498675256967,0.0099437646567821,-0.0314270853996276,0.1839303374290466,-0.0407573319971561,-0.0045785037800669,52268839
401,-0.0304244700819253,-0.0046961870975792,-0.0005303313955664,0.0046222433447837,0.0082415640354156,0.0006658528000116,0.0283847898244857,-0.6015331745147705,-0.0552962385118007,0.0345004051923751,115138097
402,-0.0150588070973753,0.003283173078671,-0.0359902083873748,-0.0248875338584184,-0.0289985407143831,0.0030997868161648,0.0078376550227403,-0.5270243883132935,-0.0827037692070007,0.028347847983241,90959033
403,-0.0085358517244458,-0.0052395639941096,0.0036477423273026,0.0030468115583062,-0.0171712916344404,-0.0077983811497688,-0.0417814180254936,-0.0175521560013294,-0.0591878853738307,0.0286639053374528,68997293
404,0.0277829505503177,0.0003791572526097,0.0014342081267386,0.0144362282007932,-0.0021336157806217,0.0099977701902389,-0.0125626558437943,-0.0036619305610656,-0.0438141413033008,0.0783340334892273,97442108
405,0.0009496938437223,-0.009876805357635,-0.0142824789509177,-6.771658081561327e-05,-0.0076807807199656,0.0015845051966607,-0.0066777225583791,0.1630819290876388,-0.0258853640407323,-0.0091168042272329,34335298
406,-0.0304244700819253,-0.0046961870975792,-0.0005303313955664,0.0046222433447837,0.0082415640354156,0.0006658528000116,0.0283847898244857,-0.6015331745147705,-0.0552962385118007,0.0345004051923751,207034364
407,0.0057276464067399,-0.0203026868402957,-0.0130374915897846,-0.0104531031101942,-0.0224971640855073,-0.0057432232424616,-0.0185418538749218,-0.5734843611717224,-0.0755118653178215,0.0248985979706048,8208151
408,0.0017243139445781,-0.0007575991912744,-0.0053432341665029,0.0004053134471178,-0.0091279866173863,0.0016519125783815,0.0068216957151889,-0.3957158327102661,-0.0023467601276934,0.0127270175144076,71145982
409,0.0070207514800131,-0.0239975191652774,0.0093109030276536,0.0292276665568351,0.0001413006684742,0.0129686072468757,-0.0633318126201629,0.5786428451538086,-0.0358048900961875,0.0647503435611724,103625428
410,-0.0021786394063383,0.0017573209479451,-0.0245825443416833,-0.0201571341603994,-0.0220565982162952,-0.0016273157671093,0.0154844978824257,-0.6919386386871338,-0.0614329501986503,0.0140716480091214,58374844
411,0.0126533769071102,-0.0200400333851575,-0.0208849050104618,-0.005916956346482,-0.0112612657248973,0.0010323193855583,-0.0113888289779424,-0.8891012668609619,-0.0502906888723373,0.0324593447148799,165081199
412,0.0101300319656729,-0.0213919207453727,-0.005924682598561,0.0181956365704536,0.0097186211496591,0.0179969500750303,-0.0012687146663665,-0.3731395304203033,-0.0521895252168178,0.0583937801420688,33982497
413,0.0077727977186441,0.0147504620254039,0.0015169195830821,0.0439000241458416,0.0539073273539543,0.0212819296866655,0.0303869359195232,-0.0031627714633941,-0.0339395850896835,0.071358285844326,201846065
414,0.0104846972972154,-0.0061076935380697,-0.001143645029515,0.0045485729351639,0.0027105789631605,0.0191971883177757,0.0089348442852497,-0.4415239095687866,-0.0604577548801898,0.0623475983738899,49609372
415,-0.0489670522511005,-0.0012353472411632,0.0174466595053672,0.0446188226342201,0.0553442686796188,0.015383125282824,0.0375034101307392,-0.1334712952375412,-0.052392341196537,0.0807258486747741,178367993
416,0.0198060255497694,-0.0074423165060579,-0.0255003608763217,0.0297510232776403,-0.0077657988294959,0.0157244466245174,-0.0520190969109535,0.4857872426509857,-0.0635872110724449,0.0417051091790199,47023001
417,-0.0489670522511005,-0.0012353472411632,0.0174466595053672,0.0446188226342201,0.0553442686796188,0.015383125282824,0.0375034101307392,-0.1334712952375412,-0.052392341196537,0.0807258486747741,15166421
418,-0.0489670522511005,-0.0012353472411632,0.0174466595053672,0.0446188226342201,0.0553442686796188,0.015383125282824,0.0375034101307392,-0.1334712952375412,-0.052392341196537,0.0807258486747741,7172770
419,0.0309510193765163,0.0104244034737348,-0.0209543164819479,-0.0060956929810345,-0.0049710534512996,0.0028853428084403,0.0189886782318353,-0.5882402658462524,-0.0375694520771503,0.0135764917358756,188320861
420,-0.0201230365782976,-0.0066188839264214,-0.0105175515636801,-0.0175980757921934,-0.0179266072809696,-0.0075104087591171,0.0233188942074775,-0.8615675568580627,-0.056909505277872,0.0088196117430925,45859764
421,-0.0489670522511005,-0.0012353472411632,0.0174466595053672,0.0446188226342201,0.0553442686796188,0.015383125282824,0.0375034101307392,-0.1334712952375412,-0.052392341196537,0.0807258486747741,172571530
422,-0.0130371330305933,-0.0039969617500901,-0.0248647406697273,-0.0315609499812126,-0.0352747440338134,-0.0078146150335669,0.0151103576645255,-0.8722967505455017,-0.0671105459332466,0.0028469264507293,91069114
423,-0.0257708933204412,0.0137192718684673,-0.0415982417762279,0.0010451222769916,-0.0003930922830477,0.0229806154966354,0.00300152041018,0.1030027866363525,-0.1004715412855148,0.0800602659583091,52361126
424,0.0344098061323165,0.0064205024391412,0.0070620412006974,0.0065481257624924,0.0103661343455314,0.0163234397768974,0.0125476475805044,0.0309060811996459,-0.0135594615712761,0.0155857810750603,1134720
425,0.013432927429676,-0.0034471242688596,0.0006879779975861,0.0039962008595466,-0.0055558439344167,0.0053873741999268,-0.0128133138641715,-0.4471224844455719,-0.0355337969958782,0.0289713982492685,201234592
426,0.0083553185686469,0.0085766911506652,-0.0133591750636696,-0.007899859920144,-0.0062407362274825,-0.0011758569162338,-0.0068766460753977,-0.1343342810869217,-0.0183744989335536,0.018234834074974,14966853
427,0.0362457446753978,-0.0074477423913776,-0.0049797696992754,0.0110242627561092,0.0065714130178093,0.013054659590125,-0.0016260338015854,-0.4547999501228332,-0.0494500957429409,0.0442936979234218,57519725
428,0.0142549956217408,-0.0160477217286825,-0.0085026565939188,-0.0041001164354383,-0.0163512229919433,0.0065974174067378,0.003922757692635,-0.6501174569129944,-0.0524185933172702,0.0348363108932971,50031549
429,-0.0180627517402172,-0.0070034218952059,-0.0125149935483932,-0.0220421403646469,-0.0231602378189563,-0.0091456603258848,0.0223057158291339,-0.9135745763778688,-0.0572321601212024,0.003683453425765,66464625
430,-0.0225541349500417,0.0369833409786224,-0.009870683774352,-0.001615920336917,-0.0065436381846666,-0.0078524239361286,-0.0245693903416395,0.064027264714241,-0.0442413128912448,0.01275085657835,68748784
431,0.0300014074891805,0.0055703334510326,-0.0123918540775775,0.0098247891291975,0.0008093582000583,0.025978710502386,-0.0002181610325351,-0.1054400578141212,-0.075865738093853,0.0763530135154724,55422033
432,0.0034916191361844,-0.0061768339946866,-0.007764721289277,-0.0061360551044344,-0.0062484890222549,-0.0046120644547045,0.008403293788433,-0.6083323955535889,-0.0276753194630146,0.0245666783303022,58017337
433,0.0287901647388935,-0.0143729243427515,0.0109798125922679,0.0190676711499691,0.0070266313850879,0.0198835991322994,-0.0059922761283814,-0.180794209241867,-0.035692024976015,0.0958717986941337,51887928
434,-0.0118818925693631,-0.0081570418551564,-0.0185073260217905,-0.0353743284940719,-0.0388611406087875,-0.0140514187514781,0.0192661825567483,-1.069595217704773,-0.0582001246511936,-0.0117250252515077,96232449
435,0.0425929985940456,-0.0159882046282291,0.0038089412264525,0.0282141398638486,0.0058494736440479,0.0230691935867071,-0.0462080650031566,0.3618287742137909,-0.0402040667831897,0.0731501206755638,206810298
436,0.0266680959612131,-0.0454943813383579,0.0274871122092008,0.0492397397756576,0.0282943472266197,0.0282361824065446,-0.0529249422252178,0.0555884391069412,-0.0850787535309791,0.1142798289656639,173351101
437,-0.0314416661858558,-0.010832748375833,0.0371196009218692,0.0245751161128282,0.042068213224411,0.0030645104125142,0.0742751359939575,-0.3774853646755218,0.1175639405846595,0.0249882396310567,47445127
438,0.0068414807319641,0.0031183115206658,-0.0051388060674071,0.0182577818632125,0.0187568124383687,0.0174527913331985,0.0115782925859093,-0.2897750735282898,-0.0265539176762104,0.0598197169601917,76920769
439,-0.0080775776877999,-0.0102493036538362,-0.0108993202447891,-0.0170554649084806,-0.0201561376452446,-0.005863987840712,0.0135358972474932,-0.8610017895698547,-0.0490190647542476,0.0098236529156565,6754190
440,0.0196339227259159,0.0149775510653853,0.0034568733535706,0.0395022593438625,0.0508571825921535,0.0194849148392677,0.0372499711811542,-0.0368360877037048,0.0051157223060727,0.0580762922763824,19933028
441,-0.0260181166231632,0.013922001235187,-0.0315298102796077,-0.0161851327866315,-0.0104374224320054,-0.0082195810973644,0.0071130488067865,-0.0429483279585838,-0.001624965108931,0.0011718259193003,191085080
442,0.0269290786236524,0.0057175252586603,0.0121442228555679,0.0176278986036777,0.0090058613568544,0.020157728344202,-0.0065212370827794,-0.0212391316890716,-0.0507898107171058,0.1210146993398666,34326285
443,0.1131467893719673,0.0444383732974529,-0.0280668679624795,0.0425651185214519,0.0512387305498123,0.0322368592023849,0.0171706546097993,0.2388386279344558,0.000329814851284,0.0539613924920558,12928037
444,0.0270351208746433,-0.0041161309927701,0.0240068715065717,0.0277104824781417,0.0256863702088594,0.0201485808938741,-0.0004792200634256,-0.0257865041494369,-0.0262954514473676,0.0867279171943664,86177534
445,-0.0111096752807497,-0.0248587355017662,-0.0187941826879978,0.0130901411175727,0.0098766554147005,0.00408366182819,0.0058679869398474,-0.3974401652812958,-0.0524452328681945,0.0465715564787387,192078523
446,0.0173540078103542,0.0516839995980262,0.0064068902283906,-0.0161274205893278,-0.0352035053074359,-0.0218836665153503,-0.0525381416082382,0.5753388404846191,-0.0304641611874103,-0.0419526696205139,200400506
447,0.0049822656437754,-0.0198711343109607,0.0065659917891025,0.0120877400040626,0.0142039339989423,0.0114228744059801,0.0274692885577678,-0.0807180106639862,0.0703317523002624,0.0175238996744155,879768
448,-0.0068160323426127,-0.0162584632635116,-0.0391699075698852,0.0053225019946694,-0.0052845515310764,0.0013996330089867,-0.0026284805499017,0.0836639553308487,-0.0185449253767728,0.0145199093967676,38106215
449,0.005740909371525,-0.0029234858229756,-0.0494210198521614,0.0043139201588928,-0.0167229399085044,0.0078446324914693,-0.0229992978274822,0.1935877054929733,-0.0723743811249733,0.0283802933990955,98506381
450,0.0027705142274498,-0.017423789948225,-0.028119845315814,-0.0025534029118716,-0.0131394658237695,0.002001364249736,-0.0117975557222962,-0.219545379281044,-0.0743523240089416,0.0202742628753185,195696760
451,0.0037029944360256,-0.04926198720932,0.0314411222934722,0.0417420901358127,0.0318840071558952,0.0324963964521884,-0.0116570396348834,0.0151437669992446,-0.0392669364809989,0.1134642139077186,1058759
452,0.0879319310188293,0.0260737799108028,-0.0792921036481857,0.0154432989656925,-0.0004768851213157,0.0036311601288616,-0.0684142261743545,-0.022381417453289,-0.073322094976902,0.0753815546631813,77580268
453,0.1121486545478584,0.0392046642790667,0.0076915442668569,-0.0082179254365681,0.0266716065686988,0.0110739158120703,0.0463673915823676,-0.5092101387239264,0.0359027561281426,0.0543730587379912,84470282
454,0.0301432888954877,-0.0024976758286356,0.0226446185261011,0.017144875600934,0.0205925777554512,0.0152543820440769,0.0211530867964029,-0.053639993071556,-0.0267405193299055,0.077442854642868,64177119
455,-0.0052294712513685,-0.0309293325990438,-0.0216989740729331,-0.0036015124060213,-0.0109569793567061,0.0065024038776755,-0.009387856349349,-0.409617006778717,-0.0661490559577941,0.0576449111104011,88880575
456,0.0269340742379426,-0.0400627553462982,-0.0114864539355039,0.0157639645040035,-0.0274636410176754,0.0137474900111556,-0.082511305809021,-0.0415469110012054,-0.0506864264607429,0.0506634041666984,73392382
457,-0.0489670559763908,-0.0012353546917438,0.0174466576427221,0.0446188226342201,0.0553442686796188,0.0153831224888563,0.0375034101307392,-0.133471205830574,-0.052392341196537,0.0807258337736129,194294684
458,-0.0189041271805763,0.0195862241089344,-0.0189938060939311,-0.0135066416114568,-0.0176488757133483,-0.0094003342092037,0.0163453910499811,0.0876929089426994,-0.020350007340312,-0.037081342190504,74945071
459,0.0490650534629821,0.0036867172457277,0.0615453943610191,0.0878321751952171,0.0627228766679763,0.0695460140705108,0.0196214988827705,0.2689978778362274,-0.0214170571416616,0.0798134952783584,126242405
460,-0.0341329872608184,-0.0040040221065282,0.0030650696717202,0.0126215573400259,0.0176621042191982,0.003609309438616,0.0302085131406784,-0.5079209208488464,-0.0547154545783996,0.0437454916536808,99092671
461,-0.0052618747577071,0.0100685805082321,-0.0285746417939662,-0.0031740353442728,-0.0119400788098573,0.0134673984721302,-0.003877012990415,-0.0722019746899604,-0.0766414031386375,0.0478337965905666,5099843
462,-0.0489670522511005,-0.0012353472411632,0.0174466595053672,0.0446188226342201,0.0553442686796188,0.015383125282824,0.0375034101307392,-0.1334712952375412,-0.052392341196537,0.0807258486747741,18860704
463,-0.0567473322153091,0.0017817625775933,-0.0213769134134054,-0.0306933876127004,-0.0225727036595344,-0.0353892892599105,0.0007803295738995,-0.3633992075920105,-0.0445634871721267,-0.0418243482708931,49065011
464,-0.0069652507081627,0.0153466910123825,-0.0365059897303581,-0.0181507654488086,-0.018591322004795,-0.0264648646116256,0.0663372129201889,-0.3701567053794861,-0.040982112288475,-0.0042612622492015,60623703
465,0.0555487051606178,-0.0454002879559993,-0.0424864292144775,0.0031553106382489,-0.0075187999755144,0.0116389151662588,-0.0463081821799278,-1.2570420503616333,-0.0445242933928966,0.0564232319593429,102481856
466,0.0309728030115365,-0.0310630816966295,0.016983013600111,0.0298960842192173,0.0068099489435553,0.0201011020690202,-0.0467732176184654,-0.0881047844886779,-0.0773446559906005,0.085580788552761,44394807
467,-0.0094623360782861,0.000619655707851,-0.0383147411048412,-0.0258120354264974,-0.0185771882534027,-0.0192089602351188,0.0013590252492576,-0.5960049033164978,-0.0004071490839123,-0.0099497660994529,98350726
468,0.0124319773167371,-0.0288476087152957,0.0073461038991808,-0.0127758588641881,-0.0205128733068704,-0.0029859968926757,-0.0437726005911827,-0.0999336689710617,-0.0607958249747753,0.074074238538742,18682509
469,-0.0256241807438415,0.0184380477359916,0.0915316817418308,-0.007696167199061,-0.002916282174238,-0.0298798076673247,-0.0330444942286777,0.7251824096092124,-0.0463286952589456,-0.0074133676209945,4594647
470,-0.0192989185452461,-0.0067727053537964,-0.0113165313377976,-0.019375704228878,-0.0200200621038675,-0.0081645073369145,0.0229136273264884,-0.8823704123497009,-0.0570385679602623,0.0067651434801518,54107666
471,-0.0304244700819253,-0.0046961870975792,-0.0005303313955664,0.0046222433447837,0.0082415640354156,0.0006658528000116,0.0283847898244857,-0.6015331745147705,-0.0552962385118007,0.0345004051923751,186443103
472,-0.0102647319436073,0.0009946477366611,-0.0084937345236539,-0.0373829007148742,-0.039871796965599,-0.023576270788908,0.007498453836888,-0.7196265459060669,-0.0492297336459159,-0.0289519596844911,97759716
473,-0.0489670522511005,-0.0012353472411632,0.0174466595053672,0.0446188226342201,0.0553442686796188,0.015383125282824,0.0375034101307392,-0.1334712952375412,-0.052392341196537,0.0807258486747741,7843922
474,-0.002829953096807,0.0101954247802495,0.0093957781791687,0.0297306515276432,0.0371142923831939,0.0114314472302794,0.0206411238759756,-0.0562671869993209,-0.0443669706583023,0.0586483031511306,124845535
475,-0.0489670522511005,-0.0012353472411632,0.0174466595053672,0.0446188226342201,0.0553442686796188,0.015383125282824,0.0375034101307392,-0.1334712952375412,-0.052392341196537,0.0807258486747741,7445076
476,0.0485963001847267,-0.0172510035336017,0.0057065039873123,0.0602816566824913,0.0404312908649444,0.04654211550951,0.0047335205599665,0.1228289157152175,-0.0517400875687599,0.110073298215866,3855634
477,0.0334557779133319,0.0211581699550151,0.0655825138092041,0.0123981209471821,0.0194645058363676,0.0171751417219638,0.0143736535683274,-0.4739986658096313,-0.0446639060974121,0.1070532202720642,17110600
478,0.0467655744934601,0.0676709635898401,0.0275716490306485,0.0060949037483195,-0.0007917904236717,-0.0023630239023166,0.135574747907618,0.9978949552712496,-0.0418508430857052,-0.1034332218365866,191388858
479,0.0221744887530803,0.0052849063649773,-0.053564041852951,-0.0226232558488845,-0.0299909636378288,-0.0121976239606738,-0.0263342410326004,-0.5741589665412903,-0.0741289928555488,0.0351476892828941,85885097
480,0.0086302198469638,-0.0250521637499332,-0.0211506448686122,0.0118826031684875,-0.014874555170536,0.0139594366773962,-0.0447136163711547,0.2870694398880005,-0.0980157777667045,0.0792740359902381,101157823
